svm_type c_svc
kernel_type rbf
gamma 0.00195313
nr_class 2
total_sv 603
rho -0.371187
label 1 -1
nr_sv 291 312
SV
128 5:1 11:1 15:1 32:1 39:1 40:1 52:1 63:1 67:1 73:1 74:1 76:1 78:1 83:1 
128 5:1 18:1 19:1 39:1 40:1 63:1 67:1 73:1 74:1 76:1 80:1 83:1 
128 5:1 6:1 14:1 27:1 35:1 42:1 57:1 64:1 67:1 73:1 74:1 76:1 82:1 83:1 
128 3:1 6:1 17:1 19:1 39:1 42:1 50:1 64:1 70:1 72:1 74:1 76:1 82:1 83:1 
128 4:1 6:1 14:1 29:1 39:1 42:1 47:1 64:1 67:1 73:1 74:1 76:1 79:1 83:1 
128 5:1 6:1 15:1 22:1 36:1 40:1 49:1 63:1 67:1 73:1 74:1 76:1 80:1 83:1 
128 3:1 6:1 16:1 21:1 35:1 40:1 54:1 63:1 67:1 73:1 75:1 76:1 81:1 83:1 
128 5:1 7:1 18:1 19:1 39:1 40:1 50:1 63:1 67:1 73:1 74:1 76:1 80:1 87:1 
128 5:1 6:1 15:1 22:1 36:1 40:1 50:1 63:1 67:1 73:1 74:1 76:1 82:1 83:1 
128 5:1 6:1 15:1 20:1 37:1 40:1 57:1 63:1 67:1 73:1 74:1 76:1 78:1 83:1 
128 3:1 6:1 17:1 22:1 36:1 40:1 51:1 63:1 67:1 73:1 74:1 76:1 80:1 83:1 
128 3:1 6:1 18:1 22:1 36:1 40:1 51:1 63:1 67:1 73:1 74:1 76:1 82:1 83:1 
128 2:1 6:1 18:1 22:1 36:1 40:1 50:1 63:1 67:1 73:1 74:1 76:1 82:1 83:1 
128 2:1 6:1 16:1 20:1 37:1 40:1 47:1 63:1 67:1 73:1 75:1 76:1 80:1 83:1 
128 4:1 6:1 16:1 22:1 36:1 40:1 49:1 61:1 71:1 72:1 74:1 76:1 80:1 83:1 
128 4:1 6:1 14:1 20:1 37:1 40:1 47:1 63:1 67:1 73:1 74:1 76:1 78:1 83:1 
128 5:1 10:1 16:1 29:1 39:1 40:1 52:1 63:1 67:1 73:1 74:1 76:1 80:1 83:1 
128 3:1 7:1 18:1 19:1 39:1 40:1 50:1 63:1 67:1 73:1 74:1 76:1 81:1 83:1 
128 2:1 6:1 14:1 22:1 36:1 40:1 48:1 63:1 67:1 73:1 74:1 76:1 80:1 83:1 
128 5:1 10:1 17:1 21:1 35:1 40:1 48:1 63:1 71:1 73:1 74:1 76:1 80:1 83:1 
128 4:1 6:1 15:1 22:1 36:1 40:1 50:1 63:1 67:1 73:1 74:1 76:1 82:1 83:1 
128 5:1 6:1 17:1 25:1 38:1 40:1 51:1 63:1 67:1 73:1 74:1 76:1 80:1 88:1 
128 3:1 6:1 17:1 29:1 39:1 40:1 52:1 63:1 67:1 73:1 74:1 76:1 79:1 83:1 
128 2:1 10:1 18:1 32:1 39:1 42:1 52:1 64:1 67:1 73:1 74:1 76:1 82:1 103:1 
128 4:1 6:1 16:1 22:1 36:1 40:1 48:1 63:1 67:1 73:1 75:1 76:1 81:1 83:1 
128 5:1 7:1 18:1 19:1 39:1 40:1 47:1 61:1 67:1 72:1 74:1 76:1 82:1 83:1 
128 4:1 6:1 17:1 20:1 37:1 40:1 48:1 63:1 71:1 73:1 74:1 76:1 80:1 83:1 
128 3:1 6:1 16:1 29:1 39:1 40:1 50:1 63:1 67:1 73:1 74:1 76:1 82:1 83:1 
128 5:1 6:1 16:1 19:1 39:1 41:1 51:1 64:1 71:1 73:1 75:1 76:1 80:1 83:1 
128 3:1 6:1 14:1 20:1 37:1 40:1 47:1 63:1 67:1 73:1 74:1 76:1 82:1 83:1 
128 3:1 6:1 14:1 22:1 36:1 40:1 57:1 63:1 67:1 73:1 75:1 76:1 82:1 83:1 
128 5:1 9:1 14:1 22:1 36:1 40:1 55:1 63:1 67:1 73:1 74:1 76:1 80:1 83:1 
128 5:1 16:1 20:1 37:1 40:1 61:1 67:1 72:1 74:1 76:1 81:1 83:1 
128 5:1 6:1 14:1 22:1 36:1 40:1 53:1 63:1 67:1 73:1 74:1 76:1 80:1 83:1 
128 4:1 6:1 17:1 22:1 36:1 40:1 47:1 63:1 67:1 73:1 74:1 76:1 81:1 83:1 
128 5:1 6:1 15:1 24:1 38:1 40:1 51:1 61:1 71:1 72:1 74:1 76:1 80:1 83:1 
128 2:1 10:1 15:1 19:1 39:1 42:1 52:1 64:1 71:1 73:1 75:1 76:1 81:1 
32.01488615929094 5:1 7:1 14:1 22:1 36:1 40:1 51:1 63:1 67:1 73:1 75:1 76:1 82:1 83:1 
123.9355424627026 4:1 8:1 15:1 19:1 39:1 40:1 50:1 63:1 67:1 73:1 74:1 76:1 82:1 83:1 
128 3:1 8:1 17:1 22:1 36:1 40:1 48:1 63:1 67:1 73:1 74:1 76:1 82:1 
128 4:1 6:1 18:1 20:1 37:1 40:1 57:1 63:1 67:1 73:1 74:1 76:1 82:1 83:1 
128 3:1 6:1 17:1 22:1 36:1 40:1 54:1 63:1 67:1 73:1 74:1 76:1 82:1 83:1 
128 1:1 6:1 16:1 19:1 39:1 40:1 51:1 61:1 67:1 72:1 74:1 76:1 78:1 83:1 
128 4:1 6:1 15:1 20:1 37:1 40:1 50:1 63:1 67:1 73:1 75:1 76:1 80:1 83:1 
128 5:1 8:1 17:1 20:1 37:1 40:1 51:1 63:1 67:1 73:1 74:1 76:1 80:1 83:1 
128 4:1 6:1 15:1 29:1 39:1 40:1 47:1 63:1 67:1 73:1 74:1 76:1 78:1 83:1 
128 2:1 6:1 15:1 20:1 37:1 40:1 56:1 63:1 67:1 73:1 74:1 76:1 82:1 83:1 
128 3:1 6:1 17:1 20:1 37:1 40:1 55:1 61:1 67:1 72:1 74:1 76:1 79:1 83:1 
128 3:1 7:1 14:1 19:1 39:1 40:1 52:1 63:1 67:1 73:1 74:1 76:1 82:1 83:1 
128 5:1 7:1 14:1 27:1 35:1 45:1 55:1 64:1 67:1 73:1 74:1 76:1 78:1 99:1 
128 2:1 6:1 16:1 22:1 36:1 40:1 54:1 63:1 67:1 73:1 74:1 76:1 80:1 83:1 
128 4:1 10:1 17:1 20:1 37:1 40:1 48:1 63:1 67:1 73:1 74:1 76:1 80:1 83:1 
128 3:1 6:1 15:1 19:1 39:1 40:1 50:1 63:1 67:1 73:1 74:1 76:1 82:1 83:1 
128 2:1 7:1 17:1 22:1 36:1 40:1 48:1 63:1 67:1 73:1 74:1 76:1 80:1 83:1 
128 2:1 6:1 15:1 20:1 37:1 40:1 51:1 63:1 67:1 73:1 74:1 76:1 80:1 83:1 
128 3:1 6:1 17:1 19:1 39:1 40:1 52:1 63:1 67:1 73:1 74:1 76:1 80:1 83:1 
128 1:1 6:1 18:1 27:1 35:1 42:1 49:1 64:1 67:1 73:1 74:1 76:1 82:1 83:1 
128 4:1 6:1 14:1 20:1 37:1 40:1 50:1 63:1 67:1 73:1 74:1 76:1 81:1 83:1 
128 3:1 6:1 15:1 19:1 39:1 40:1 54:1 63:1 67:1 73:1 74:1 76:1 82:1 83:1 
128 3:1 6:1 17:1 23:1 39:1 43:1 52:1 64:1 67:1 73:1 74:1 76:1 79:1 83:1 
128 2:1 9:1 18:1 19:1 39:1 40:1 51:1 63:1 67:1 73:1 74:1 76:1 80:1 83:1 
128 2:1 6:1 17:1 19:1 39:1 40:1 51:1 63:1 67:1 73:1 74:1 76:1 80:1 83:1 
128 4:1 6:1 16:1 22:1 36:1 40:1 57:1 63:1 67:1 73:1 74:1 76:1 82:1 83:1 
128 4:1 7:1 16:1 20:1 37:1 40:1 48:1 63:1 67:1 73:1 74:1 77:1 80:1 83:1 
128 4:1 7:1 14:1 22:1 36:1 40:1 51:1 63:1 67:1 73:1 74:1 76:1 80:1 83:1 
128 2:1 6:1 16:1 19:1 39:1 46:1 51:1 61:1 67:1 72:1 74:1 76:1 80:1 83:1 
128 4:1 6:1 15:1 25:1 38:1 40:1 55:1 61:1 67:1 72:1 74:1 76:1 80:1 83:1 
128 5:1 7:1 16:1 22:1 36:1 42:1 56:1 64:1 67:1 73:1 75:1 76:1 80:1 83:1 
128 3:1 9:1 16:1 23:1 39:1 42:1 52:1 64:1 67:1 72:1 74:1 76:1 82:1 83:1 
128 2:1 7:1 16:1 22:1 36:1 40:1 57:1 63:1 67:1 73:1 75:1 76:1 80:1 83:1 
128 4:1 7:1 14:1 29:1 39:1 40:1 56:1 63:1 67:1 73:1 74:1 76:1 80:1 83:1 
128 2:1 6:1 17:1 22:1 36:1 40:1 54:1 63:1 67:1 73:1 74:1 76:1 82:1 83:1 
13.83830918954678 3:1 6:1 14:1 19:1 39:1 40:1 57:1 63:1 67:1 73:1 75:1 76:1 82:1 83:1 
128 3:1 6:1 18:1 32:1 39:1 42:1 52:1 64:1 67:1 73:1 74:1 76:1 80:1 110:1 
95.63946111894842 4:1 6:1 16:1 32:1 39:1 42:1 52:1 64:1 67:1 73:1 74:1 76:1 79:1 83:1 
128 4:1 6:1 17:1 25:1 38:1 40:1 54:1 63:1 67:1 73:1 74:1 76:1 80:1 83:1 
128 5:1 6:1 14:1 19:1 39:1 40:1 50:1 63:1 67:1 73:1 75:1 76:1 78:1 83:1 
128 3:1 6:1 17:1 19:1 39:1 40:1 47:1 63:1 67:1 73:1 74:1 76:1 82:1 83:1 
128 3:1 6:1 16:1 20:1 37:1 40:1 51:1 63:1 67:1 73:1 74:1 76:1 82:1 83:1 
128 2:1 6:1 17:1 22:1 36:1 40:1 53:1 61:1 67:1 72:1 74:1 76:1 80:1 103:1 
128 5:1 7:1 14:1 23:1 39:1 40:1 52:1 63:1 67:1 73:1 74:1 76:1 82:1 85:1 
128 3:1 6:1 18:1 19:1 39:1 40:1 51:1 63:1 67:1 73:1 74:1 76:1 82:1 83:1 
128 4:1 10:1 15:1 29:1 39:1 41:1 52:1 66:1 71:1 72:1 75:1 76:1 80:1 83:1 
128 5:1 16:1 22:1 36:1 40:1 63:1 67:1 73:1 74:1 76:1 80:1 83:1 
128 2:1 10:1 17:1 22:1 36:1 40:1 59:1 63:1 67:1 73:1 74:1 76:1 81:1 83:1 
128 3:1 6:1 15:1 22:1 36:1 40:1 54:1 63:1 68:1 73:1 74:1 76:1 80:1 
128 4:1 6:1 16:1 22:1 36:1 40:1 54:1 63:1 67:1 73:1 74:1 76:1 81:1 83:1 
128 4:1 6:1 14:1 22:1 36:1 40:1 53:1 63:1 67:1 73:1 74:1 76:1 82:1 83:1 
128 5:1 6:1 16:1 22:1 36:1 40:1 48:1 63:1 67:1 73:1 74:1 76:1 80:1 83:1 
128 5:1 11:1 14:1 25:1 38:1 41:1 47:1 64:1 67:1 73:1 74:1 77:1 79:1 83:1 
128 4:1 11:1 15:1 22:1 36:1 41:1 55:1 66:1 67:1 72:1 74:1 76:1 82:1 83:1 
128 5:1 6:1 18:1 20:1 37:1 40:1 57:1 63:1 67:1 73:1 75:1 76:1 78:1 83:1 
128 4:1 10:1 17:1 22:1 36:1 40:1 54:1 63:1 71:1 73:1 74:1 76:1 80:1 83:1 
44.93166543936591 5:1 9:1 16:1 22:1 36:1 40:1 47:1 63:1 67:1 73:1 74:1 77:1 80:1 83:1 
128 4:1 6:1 16:1 22:1 36:1 40:1 54:1 63:1 67:1 73:1 74:1 76:1 80:1 83:1 
128 5:1 6:1 14:1 21:1 35:1 40:1 50:1 63:1 67:1 73:1 75:1 76:1 78:1 83:1 
128 3:1 7:1 14:1 22:1 36:1 41:1 56:1 64:1 67:1 73:1 75:1 76:1 80:1 83:1 
128 3:1 11:1 14:1 22:1 36:1 40:1 54:1 63:1 67:1 73:1 74:1 76:1 80:1 83:1 
128 5:1 6:1 15:1 22:1 36:1 40:1 48:1 63:1 67:1 73:1 74:1 76:1 82:1 83:1 
128 3:1 6:1 14:1 24:1 38:1 40:1 51:1 63:1 67:1 73:1 74:1 76:1 80:1 83:1 
128 3:1 10:1 14:1 20:1 37:1 40:1 55:1 61:1 67:1 72:1 74:1 76:1 80:1 83:1 
128 4:1 6:1 15:1 25:1 38:1 40:1 56:1 63:1 67:1 73:1 74:1 76:1 80:1 83:1 
128 4:1 6:1 18:1 20:1 37:1 40:1 50:1 63:1 67:1 73:1 74:1 76:1 81:1 83:1 
128 2:1 6:1 16:1 20:1 37:1 40:1 57:1 63:1 67:1 73:1 74:1 76:1 82:1 83:1 
128 4:1 10:1 15:1 20:1 37:1 40:1 59:1 63:1 67:1 73:1 74:1 76:1 80:1 83:1 
128 5:1 6:1 18:1 22:1 36:1 40:1 48:1 63:1 67:1 73:1 74:1 76:1 79:1 83:1 
128 3:1 6:1 18:1 22:1 36:1 41:1 51:1 66:1 67:1 72:1 74:1 76:1 80:1 83:1 
128 2:1 6:1 17:1 22:1 36:1 40:1 57:1 63:1 67:1 73:1 74:1 76:1 82:1 83:1 
128 3:1 10:1 16:1 26:1 35:1 40:1 49:1 61:1 67:1 72:1 74:1 76:1 80:1 118:1 
128 5:1 7:1 15:1 22:1 36:1 41:1 51:1 64:1 67:1 72:1 75:1 76:1 79:1 83:1 
128 4:1 6:1 16:1 20:1 37:1 40:1 50:1 63:1 67:1 73:1 74:1 76:1 80:1 83:1 
128 2:1 6:1 16:1 20:1 37:1 40:1 53:1 63:1 67:1 73:1 74:1 76:1 80:1 83:1 
128 3:1 6:1 17:1 19:1 39:1 40:1 47:1 63:1 67:1 73:1 74:1 76:1 80:1 83:1 
128 3:1 10:1 17:1 24:1 38:1 40:1 51:1 63:1 67:1 73:1 74:1 76:1 80:1 83:1 
128 3:1 6:1 16:1 25:1 38:1 40:1 48:1 63:1 67:1 73:1 75:1 76:1 80:1 83:1 
128 2:1 6:1 15:1 19:1 39:1 40:1 52:1 61:1 67:1 72:1 74:1 77:1 78:1 83:1 
128 5:1 6:1 14:1 19:1 39:1 42:1 49:1 64:1 68:1 72:1 74:1 76:1 78:1 91:1 
128 5:1 6:1 17:1 22:1 36:1 40:1 51:1 63:1 67:1 73:1 74:1 76:1 82:1 83:1 
128 3:1 6:1 15:1 22:1 36:1 40:1 54:1 61:1 67:1 72:1 74:1 76:1 81:1 83:1 
128 2:1 6:1 15:1 29:1 39:1 43:1 51:1 64:1 67:1 73:1 74:1 77:1 82:1 83:1 
128 5:1 6:1 16:1 22:1 36:1 40:1 57:1 63:1 67:1 73:1 74:1 77:1 82:1 83:1 
128 4:1 9:1 14:1 22:1 36:1 40:1 55:1 63:1 67:1 73:1 74:1 76:1 80:1 83:1 
128 3:1 9:1 15:1 22:1 36:1 40:1 55:1 63:1 67:1 73:1 74:1 76:1 80:1 83:1 
128 3:1 6:1 17:1 22:1 36:1 40:1 51:1 63:1 67:1 73:1 74:1 76:1 81:1 83:1 
128 4:1 10:1 17:1 19:1 39:1 41:1 59:1 64:1 71:1 73:1 74:1 76:1 82:1 83:1 
128 3:1 10:1 16:1 20:1 37:1 40:1 59:1 63:1 67:1 73:1 74:1 76:1 82:1 83:1 
128 5:1 6:1 15:1 19:1 39:1 42:1 55:1 64:1 67:1 72:1 75:1 76:1 80:1 83:1 
128 3:1 6:1 14:1 23:1 39:1 42:1 52:1 64:1 67:1 72:1 75:1 76:1 82:1 83:1 
128 4:1 9:1 17:1 20:1 37:1 40:1 53:1 63:1 67:1 73:1 74:1 76:1 80:1 83:1 
128 3:1 6:1 16:1 20:1 37:1 40:1 54:1 63:1 68:1 73:1 74:1 76:1 82:1 83:1 
128 4:1 9:1 15:1 20:1 37:1 40:1 48:1 63:1 67:1 73:1 74:1 76:1 80:1 83:1 
128 5:1 11:1 18:1 20:1 37:1 40:1 54:1 63:1 71:1 73:1 74:1 76:1 80:1 83:1 
128 3:1 6:1 17:1 25:1 38:1 42:1 51:1 64:1 67:1 73:1 74:1 76:1 82:1 83:1 
128 2:1 8:1 16:1 22:1 36:1 40:1 56:1 63:1 67:1 73:1 74:1 77:1 82:1 83:1 
128 3:1 6:1 17:1 22:1 36:1 40:1 48:1 63:1 67:1 73:1 75:1 76:1 80:1 83:1 
128 4:1 7:1 18:1 19:1 39:1 41:1 49:1 66:1 68:1 72:1 74:1 76:1 82:1 93:1 
128 5:1 6:1 18:1 19:1 39:1 40:1 50:1 63:1 67:1 73:1 74:1 76:1 82:1 83:1 
128 5:1 8:1 18:1 20:1 37:1 40:1 51:1 63:1 67:1 73:1 74:1 76:1 80:1 83:1 
128 3:1 7:1 17:1 32:1 39:1 42:1 52:1 64:1 67:1 73:1 74:1 76:1 81:1 83:1 
128 2:1 6:1 15:1 19:1 39:1 40:1 52:1 61:1 67:1 72:1 74:1 77:1 78:1 83:1 
128 4:1 6:1 16:1 22:1 36:1 40:1 55:1 63:1 67:1 73:1 74:1 76:1 82:1 83:1 
128 2:1 6:1 15:1 22:1 36:1 40:1 48:1 63:1 67:1 73:1 74:1 76:1 80:1 83:1 
128 3:1 6:1 16:1 24:1 38:1 40:1 50:1 63:1 67:1 73:1 74:1 76:1 82:1 83:1 
128 4:1 6:1 17:1 22:1 36:1 40:1 48:1 63:1 67:1 73:1 74:1 76:1 80:1 
128 4:1 6:1 14:1 19:1 39:1 40:1 52:1 63:1 67:1 73:1 74:1 76:1 80:1 83:1 
128 4:1 8:1 15:1 20:1 37:1 40:1 52:1 61:1 67:1 72:1 74:1 76:1 80:1 
128 4:1 6:1 17:1 22:1 36:1 40:1 51:1 61:1 67:1 72:1 74:1 76:1 80:1 83:1 
128 2:1 6:1 16:1 19:1 39:1 42:1 52:1 62:1 67:1 72:1 74:1 77:1 80:1 83:1 
128 3:1 6:1 15:1 25:1 38:1 41:1 48:1 66:1 67:1 73:1 74:1 76:1 82:1 83:1 
128 2:1 8:1 17:1 22:1 36:1 40:1 50:1 63:1 71:1 73:1 75:1 76:1 80:1 83:1 
128 4:1 8:1 14:1 24:1 38:1 40:1 52:1 63:1 67:1 73:1 74:1 76:1 82:1 83:1 
128 1:1 6:1 15:1 21:1 35:1 40:1 57:1 63:1 67:1 73:1 75:1 76:1 80:1 100:1 
128 4:1 11:1 17:1 32:1 39:1 43:1 52:1 66:1 67:1 72:1 74:1 76:1 80:1 83:1 
90.23535384378845 4:1 9:1 18:1 20:1 37:1 40:1 51:1 63:1 71:1 73:1 74:1 76:1 80:1 83:1 
128 3:1 6:1 14:1 19:1 39:1 41:1 51:1 66:1 67:1 72:1 74:1 76:1 82:1 83:1 
128 5:1 6:1 15:1 22:1 36:1 40:1 48:1 63:1 67:1 73:1 74:1 76:1 80:1 83:1 
128 5:1 6:1 18:1 19:1 39:1 40:1 51:1 63:1 67:1 73:1 74:1 76:1 80:1 83:1 
128 2:1 6:1 18:1 19:1 39:1 41:1 51:1 64:1 67:1 72:1 74:1 76:1 82:1 83:1 
128 5:1 7:1 14:1 19:1 39:1 40:1 51:1 63:1 67:1 73:1 74:1 76:1 82:1 83:1 
128 3:1 6:1 16:1 29:1 39:1 42:1 55:1 64:1 67:1 73:1 75:1 76:1 82:1 83:1 
128 2:1 6:1 17:1 22:1 36:1 40:1 48:1 63:1 67:1 73:1 74:1 76:1 80:1 83:1 
128 5:1 8:1 15:1 20:1 37:1 40:1 50:1 63:1 67:1 73:1 74:1 77:1 79:1 83:1 
128 5:1 6:1 14:1 22:1 36:1 40:1 47:1 63:1 67:1 73:1 74:1 76:1 80:1 83:1 
128 5:1 6:1 17:1 20:1 37:1 40:1 59:1 63:1 71:1 73:1 74:1 76:1 82:1 83:1 
128 4:1 10:1 16:1 29:1 39:1 41:1 59:1 64:1 71:1 73:1 74:1 76:1 82:1 83:1 
112.5566247717976 4:1 6:1 17:1 19:1 39:1 40:1 52:1 61:1 67:1 72:1 74:1 76:1 78:1 95:1 
128 5:1 6:1 16:1 22:1 36:1 44:1 51:1 66:1 67:1 73:1 74:1 76:1 79:1 83:1 
128 3:1 6:1 18:1 29:1 39:1 42:1 55:1 64:1 67:1 72:1 74:1 76:1 82:1 99:1 
128 4:1 11:1 15:1 22:1 36:1 42:1 57:1 64:1 67:1 72:1 75:1 76:1 80:1 83:1 
128 3:1 6:1 18:1 25:1 38:1 40:1 57:1 63:1 67:1 73:1 75:1 76:1 82:1 83:1 
128 4:1 6:1 14:1 19:1 39:1 40:1 48:1 63:1 67:1 73:1 74:1 76:1 81:1 83:1 
128 5:1 7:1 16:1 23:1 39:1 40:1 52:1 63:1 67:1 73:1 74:1 76:1 78:1 83:1 
128 5:1 7:1 14:1 22:1 36:1 40:1 56:1 63:1 67:1 73:1 74:1 76:1 82:1 83:1 
118.0962068219387 3:1 6:1 16:1 19:1 39:1 40:1 50:1 61:1 67:1 72:1 74:1 76:1 79:1 83:1 
128 4:1 6:1 15:1 22:1 36:1 40:1 53:1 63:1 67:1 73:1 74:1 76:1 80:1 83:1 
128 5:1 6:1 17:1 20:1 37:1 40:1 55:1 63:1 67:1 73:1 74:1 76:1 81:1 83:1 
128 5:1 8:1 16:1 20:1 37:1 40:1 57:1 63:1 67:1 73:1 74:1 76:1 80:1 83:1 
128 4:1 6:1 18:1 20:1 37:1 40:1 48:1 63:1 71:1 73:1 74:1 76:1 81:1 83:1 
128 3:1 7:1 18:1 20:1 37:1 40:1 52:1 61:1 67:1 72:1 74:1 76:1 82:1 83:1 
123.7846057403506 5:1 10:1 15:1 22:1 36:1 40:1 55:1 61:1 67:1 72:1 75:1 76:1 78:1 83:1 
128 4:1 11:1 17:1 19:1 39:1 40:1 51:1 63:1 71:1 73:1 74:1 76:1 80:1 83:1 
128 1:1 6:1 14:1 19:1 39:1 42:1 52:1 62:1 67:1 72:1 74:1 77:1 80:1 83:1 
128 2:1 6:1 16:1 21:1 35:1 40:1 53:1 63:1 67:1 73:1 75:1 76:1 80:1 83:1 
128 5:1 7:1 14:1 22:1 36:1 40:1 56:1 63:1 67:1 73:1 74:1 76:1 82:1 83:1 
128 5:1 14:1 22:1 36:1 40:1 63:1 67:1 73:1 74:1 76:1 78:1 83:1 
128 2:1 6:1 16:1 29:1 39:1 40:1 52:1 63:1 67:1 73:1 74:1 77:1 80:1 83:1 
128 5:1 6:1 14:1 31:1 35:1 40:1 50:1 61:1 68:1 72:1 74:1 76:1 78:1 91:1 
128 3:1 6:1 18:1 19:1 39:1 40:1 48:1 63:1 68:1 73:1 74:1 76:1 80:1 84:1 
128 4:1 7:1 14:1 19:1 39:1 40:1 56:1 63:1 67:1 73:1 74:1 76:1 82:1 83:1 
128 4:1 8:1 14:1 19:1 39:1 40:1 50:1 63:1 67:1 73:1 74:1 76:1 82:1 83:1 
128 3:1 6:1 15:1 19:1 39:1 40:1 50:1 63:1 67:1 73:1 74:1 76:1 82:1 83:1 
128 4:1 11:1 17:1 19:1 39:1 40:1 51:1 63:1 67:1 73:1 74:1 76:1 80:1 83:1 
128 3:1 10:1 18:1 19:1 39:1 40:1 55:1 63:1 67:1 73:1 74:1 76:1 80:1 83:1 
128 4:1 6:1 17:1 22:1 36:1 40:1 53:1 63:1 67:1 73:1 74:1 76:1 82:1 83:1 
38.41031946344332 3:1 6:1 16:1 29:1 39:1 40:1 52:1 63:1 67:1 73:1 74:1 77:1 80:1 83:1 
128 4:1 6:1 18:1 24:1 38:1 40:1 50:1 63:1 67:1 73:1 74:1 76:1 82:1 83:1 
128 4:1 10:1 18:1 24:1 38:1 40:1 51:1 63:1 71:1 73:1 74:1 76:1 82:1 83:1 
128 5:1 6:1 17:1 22:1 36:1 40:1 54:1 63:1 67:1 73:1 74:1 76:1 80:1 83:1 
128 5:1 10:1 14:1 19:1 39:1 40:1 55:1 61:1 67:1 72:1 74:1 76:1 80:1 83:1 
128 3:1 6:1 14:1 19:1 39:1 40:1 51:1 63:1 67:1 73:1 74:1 76:1 80:1 83:1 
128 5:1 6:1 15:1 22:1 36:1 40:1 57:1 63:1 67:1 73:1 74:1 76:1 82:1 83:1 
128 5:1 8:1 14:1 19:1 39:1 40:1 56:1 63:1 67:1 73:1 74:1 77:1 82:1 83:1 
128 4:1 9:1 18:1 20:1 37:1 40:1 48:1 63:1 67:1 73:1 74:1 76:1 80:1 83:1 
128 2:1 6:1 16:1 19:1 39:1 42:1 51:1 64:1 67:1 72:1 74:1 76:1 81:1 83:1 
128 5:1 10:1 15:1 22:1 36:1 40:1 48:1 63:1 67:1 73:1 74:1 77:1 79:1 83:1 
128 2:1 6:1 14:1 19:1 39:1 40:1 50:1 63:1 67:1 73:1 74:1 76:1 82:1 83:1 
128 5:1 8:1 15:1 24:1 38:1 40:1 50:1 63:1 67:1 73:1 74:1 76:1 82:1 83:1 
128 4:1 6:1 14:1 25:1 38:1 40:1 48:1 63:1 67:1 73:1 74:1 76:1 80:1 87:1 
128 5:1 6:1 17:1 22:1 36:1 40:1 48:1 63:1 67:1 73:1 74:1 76:1 80:1 83:1 
128 5:1 6:1 14:1 19:1 39:1 40:1 51:1 63:1 67:1 73:1 74:1 76:1 80:1 83:1 
128 2:1 6:1 17:1 19:1 39:1 40:1 51:1 61:1 67:1 72:1 74:1 76:1 80:1 83:1 
128 5:1 8:1 17:1 20:1 37:1 40:1 51:1 63:1 67:1 73:1 74:1 76:1 80:1 83:1 
128 3:1 6:1 17:1 31:1 35:1 40:1 51:1 63:1 67:1 73:1 74:1 76:1 80:1 83:1 
128 5:1 6:1 15:1 20:1 37:1 40:1 48:1 63:1 67:1 73:1 75:1 76:1 82:1 83:1 
128 5:1 9:1 18:1 20:1 37:1 40:1 55:1 63:1 67:1 73:1 74:1 76:1 80:1 83:1 
128 3:1 6:1 14:1 20:1 37:1 40:1 48:1 63:1 67:1 73:1 74:1 76:1 80:1 83:1 
128 3:1 18:1 19:1 39:1 40:1 61:1 67:1 72:1 74:1 76:1 78:1 83:1 
128 4:1 6:1 16:1 22:1 36:1 41:1 48:1 64:1 71:1 73:1 75:1 76:1 81:1 83:1 
128 2:1 6:1 14:1 19:1 39:1 40:1 51:1 63:1 67:1 73:1 74:1 76:1 80:1 83:1 
128 2:1 6:1 16:1 24:1 38:1 40:1 52:1 63:1 67:1 73:1 74:1 76:1 81:1 83:1 
128 2:1 6:1 15:1 19:1 39:1 40:1 52:1 63:1 67:1 73:1 74:1 77:1 80:1 83:1 
128 3:1 6:1 15:1 22:1 36:1 40:1 50:1 63:1 67:1 73:1 74:1 76:1 80:1 83:1 
128 4:1 6:1 18:1 20:1 37:1 40:1 52:1 63:1 67:1 73:1 75:1 76:1 80:1 83:1 
128 2:1 6:1 17:1 23:1 39:1 40:1 52:1 63:1 67:1 73:1 74:1 76:1 78:1 83:1 
128 4:1 6:1 16:1 22:1 36:1 40:1 50:1 63:1 67:1 73:1 74:1 76:1 82:1 83:1 
128 3:1 8:1 14:1 25:1 38:1 40:1 50:1 63:1 67:1 73:1 74:1 76:1 80:1 83:1 
62.00898784139299 3:1 11:1 18:1 32:1 39:1 40:1 52:1 63:1 67:1 73:1 74:1 76:1 81:1 88:1 
10.62450151430393 3:1 6:1 15:1 29:1 39:1 40:1 52:1 61:1 67:1 72:1 74:1 77:1 78:1 83:1 
128 5:1 7:1 17:1 20:1 37:1 40:1 57:1 63:1 67:1 73:1 74:1 76:1 81:1 83:1 
128 4:1 6:1 18:1 20:1 37:1 43:1 50:1 64:1 67:1 73:1 74:1 76:1 82:1 83:1 
128 4:1 6:1 14:1 22:1 36:1 40:1 48:1 63:1 67:1 73:1 74:1 77:1 80:1 83:1 
128 3:1 10:1 16:1 19:1 39:1 42:1 59:1 64:1 67:1 72:1 75:1 76:1 81:1 83:1 
33.8700330259984 3:1 11:1 14:1 20:1 37:1 40:1 51:1 61:1 67:1 72:1 75:1 76:1 79:1 83:1 
128 5:1 6:1 16:1 22:1 36:1 40:1 57:1 63:1 67:1 73:1 74:1 76:1 80:1 83:1 
128 4:1 6:1 17:1 25:1 38:1 40:1 52:1 63:1 67:1 73:1 74:1 76:1 80:1 83:1 
128 4:1 11:1 14:1 22:1 36:1 40:1 48:1 63:1 67:1 73:1 74:1 76:1 80:1 83:1 
128 5:1 8:1 16:1 19:1 39:1 40:1 50:1 63:1 67:1 73:1 74:1 76:1 78:1 83:1 
128 2:1 7:1 14:1 22:1 36:1 40:1 56:1 63:1 67:1 73:1 74:1 76:1 82:1 83:1 
128 4:1 6:1 16:1 22:1 36:1 40:1 55:1 61:1 67:1 72:1 74:1 76:1 80:1 83:1 
128 2:1 6:1 14:1 22:1 36:1 40:1 52:1 63:1 67:1 73:1 74:1 76:1 79:1 83:1 
128 2:1 9:1 18:1 29:1 39:1 40:1 52:1 63:1 67:1 73:1 74:1 76:1 80:1 83:1 
128 3:1 11:1 16:1 22:1 36:1 40:1 48:1 63:1 67:1 73:1 74:1 77:1 80:1 83:1 
128 4:1 7:1 16:1 22:1 36:1 40:1 56:1 63:1 67:1 73:1 74:1 76:1 82:1 83:1 
47.60045862151492 5:1 8:1 15:1 25:1 38:1 40:1 51:1 63:1 67:1 73:1 74:1 76:1 80:1 92:1 
128 3:1 6:1 18:1 22:1 36:1 40:1 51:1 63:1 67:1 73:1 75:1 76:1 82:1 83:1 
128 2:1 10:1 17:1 22:1 36:1 40:1 59:1 63:1 67:1 73:1 74:1 76:1 80:1 83:1 
128 2:1 6:1 18:1 22:1 36:1 40:1 51:1 63:1 67:1 73:1 74:1 76:1 80:1 83:1 
128 5:1 6:1 14:1 29:1 39:1 40:1 52:1 63:1 68:1 73:1 74:1 76:1 81:1 90:1 
128 3:1 6:1 18:1 29:1 39:1 42:1 51:1 64:1 71:1 72:1 74:1 76:1 80:1 83:1 
128 5:1 9:1 14:1 22:1 36:1 40:1 55:1 63:1 67:1 73:1 74:1 76:1 80:1 83:1 
128 3:1 6:1 18:1 19:1 39:1 40:1 50:1 63:1 67:1 73:1 74:1 76:1 80:1 83:1 
73.38838581480807 5:1 6:1 16:1 19:1 39:1 40:1 47:1 63:1 67:1 73:1 74:1 76:1 82:1 83:1 
128 3:1 6:1 15:1 22:1 36:1 40:1 50:1 63:1 67:1 73:1 74:1 77:1 80:1 83:1 
128 4:1 7:1 18:1 20:1 37:1 40:1 48:1 63:1 67:1 73:1 74:1 77:1 82:1 83:1 
128 5:1 10:1 17:1 19:1 39:1 44:1 52:1 66:1 67:1 72:1 74:1 76:1 82:1 83:1 
128 4:1 6:1 17:1 20:1 37:1 40:1 52:1 63:1 67:1 73:1 74:1 76:1 80:1 83:1 
128 2:1 7:1 15:1 19:1 39:1 40:1 54:1 63:1 67:1 73:1 74:1 76:1 82:1 83:1 
128 5:1 7:1 18:1 24:1 38:1 40:1 51:1 61:1 67:1 72:1 75:1 76:1 78:1 83:1 
128 2:1 10:1 15:1 22:1 36:1 40:1 51:1 63:1 67:1 73:1 74:1 76:1 82:1 83:1 
128 4:1 6:1 18:1 19:1 39:1 42:1 50:1 64:1 67:1 73:1 74:1 76:1 82:1 83:1 
128 3:1 6:1 18:1 22:1 36:1 40:1 48:1 63:1 67:1 73:1 74:1 76:1 80:1 83:1 
128 4:1 10:1 16:1 19:1 39:1 40:1 48:1 63:1 67:1 73:1 74:1 76:1 79:1 83:1 
128 3:1 6:1 15:1 20:1 37:1 41:1 51:1 64:1 67:1 72:1 74:1 76:1 80:1 83:1 
128 2:1 8:1 16:1 22:1 36:1 41:1 51:1 64:1 67:1 73:1 74:1 76:1 82:1 83:1 
128 3:1 6:1 17:1 22:1 36:1 41:1 52:1 62:1 67:1 72:1 74:1 76:1 80:1 83:1 
128 4:1 6:1 17:1 22:1 36:1 40:1 48:1 63:1 67:1 73:1 74:1 76:1 82:1 83:1 
128 1:1 6:1 18:1 20:1 37:1 40:1 55:1 63:1 67:1 73:1 74:1 76:1 80:1 83:1 
128 5:1 11:1 15:1 22:1 36:1 40:1 51:1 63:1 67:1 73:1 74:1 77:1 80:1 83:1 
128 5:1 6:1 16:1 22:1 36:1 40:1 54:1 63:1 67:1 73:1 74:1 76:1 81:1 83:1 
128 5:1 6:1 15:1 31:1 35:1 40:1 48:1 63:1 67:1 73:1 75:1 76:1 80:1 83:1 
48.3057523588869 3:1 10:1 14:1 19:1 39:1 40:1 52:1 61:1 67:1 72:1 74:1 76:1 81:1 83:1 
128 4:1 6:1 14:1 19:1 39:1 40:1 52:1 63:1 67:1 73:1 74:1 76:1 82:1 83:1 
128 3:1 6:1 17:1 19:1 39:1 40:1 55:1 63:1 67:1 73:1 74:1 76:1 82:1 83:1 
128 5:1 6:1 16:1 25:1 38:1 40:1 48:1 63:1 67:1 73:1 74:1 76:1 80:1 83:1 
128 5:1 7:1 14:1 20:1 37:1 40:1 51:1 63:1 67:1 73:1 74:1 76:1 82:1 83:1 
118.3854853542564 3:1 6:1 18:1 22:1 36:1 40:1 51:1 61:1 67:1 72:1 75:1 76:1 80:1 83:1 
128 3:1 6:1 15:1 22:1 36:1 40:1 52:1 63:1 67:1 73:1 74:1 76:1 81:1 109:1 
128 5:1 7:1 14:1 19:1 39:1 41:1 56:1 64:1 67:1 73:1 75:1 76:1 82:1 83:1 
128 5:1 6:1 16:1 22:1 36:1 40:1 53:1 63:1 67:1 73:1 74:1 76:1 80:1 83:1 
128 4:1 6:1 15:1 19:1 39:1 40:1 50:1 63:1 67:1 73:1 74:1 76:1 80:1 83:1 
128 4:1 10:1 15:1 20:1 37:1 40:1 59:1 63:1 67:1 73:1 74:1 76:1 80:1 83:1 
128 4:1 6:1 18:1 20:1 37:1 40:1 51:1 63:1 67:1 73:1 74:1 76:1 82:1 83:1 
128 5:1 7:1 18:1 19:1 39:1 40:1 52:1 63:1 67:1 73:1 74:1 76:1 81:1 83:1 
128 4:1 6:1 17:1 22:1 36:1 40:1 50:1 63:1 67:1 73:1 74:1 76:1 82:1 83:1 
128 3:1 11:1 16:1 19:1 39:1 40:1 59:1 63:1 67:1 73:1 75:1 76:1 82:1 83:1 
128 2:1 6:1 15:1 19:1 39:1 42:1 51:1 64:1 67:1 73:1 74:1 76:1 82:1 83:1 
128 5:1 18:1 22:1 36:1 40:1 63:1 67:1 73:1 74:1 76:1 80:1 83:1 
128 4:1 9:1 18:1 20:1 37:1 42:1 55:1 64:1 67:1 73:1 75:1 76:1 82:1 83:1 
128 4:1 8:1 15:1 20:1 37:1 40:1 51:1 63:1 67:1 73:1 74:1 76:1 82:1 83:1 
128 4:1 6:1 18:1 22:1 36:1 40:1 49:1 63:1 67:1 73:1 74:1 77:1 80:1 83:1 
128 4:1 8:1 14:1 29:1 39:1 40:1 50:1 63:1 67:1 73:1 74:1 76:1 82:1 
-128 3:1 11:1 14:1 19:1 39:1 42:1 55:1 64:1 67:1 73:1 75:1 76:1 80:1 83:1 
-128 4:1 6:1 15:1 21:1 35:1 40:1 57:1 63:1 67:1 73:1 74:1 77:1 80:1 83:1 
-128 2:1 6:1 16:1 22:1 36:1 40:1 54:1 63:1 67:1 73:1 75:1 76:1 80:1 83:1 
-128 5:1 6:1 15:1 20:1 37:1 40:1 50:1 63:1 67:1 73:1 75:1 76:1 80:1 83:1 
-128 5:1 7:1 16:1 29:1 39:1 40:1 48:1 63:1 67:1 73:1 74:1 76:1 78:1 83:1 
-128 2:1 6:1 15:1 19:1 39:1 40:1 52:1 63:1 67:1 73:1 74:1 76:1 82:1 83:1 
-128 5:1 8:1 14:1 19:1 39:1 40:1 50:1 63:1 67:1 73:1 74:1 76:1 82:1 83:1 
-128 5:1 15:1 22:1 36:1 40:1 63:1 67:1 73:1 74:1 76:1 82:1 83:1 
-128 2:1 6:1 16:1 25:1 38:1 40:1 55:1 63:1 67:1 73:1 74:1 77:1 81:1 83:1 
-128 5:1 7:1 14:1 22:1 36:1 40:1 56:1 63:1 67:1 73:1 74:1 77:1 82:1 83:1 
-128 1:1 6:1 17:1 20:1 37:1 42:1 51:1 64:1 67:1 72:1 75:1 76:1 80:1 83:1 
-128 3:1 6:1 16:1 29:1 39:1 40:1 52:1 63:1 67:1 73:1 74:1 76:1 78:1 83:1 
-128 5:1 6:1 15:1 22:1 36:1 40:1 54:1 63:1 67:1 73:1 75:1 76:1 80:1 83:1 
-128 4:1 6:1 18:1 25:1 38:1 40:1 57:1 63:1 67:1 73:1 74:1 76:1 82:1 83:1 
-128 4:1 6:1 17:1 22:1 36:1 40:1 57:1 63:1 67:1 73:1 74:1 76:1 82:1 83:1 
-128 5:1 7:1 17:1 20:1 37:1 40:1 50:1 63:1 67:1 73:1 74:1 76:1 82:1 83:1 
-128 5:1 6:1 18:1 22:1 36:1 40:1 48:1 63:1 67:1 73:1 74:1 76:1 82:1 83:1 
-128 4:1 6:1 16:1 22:1 36:1 40:1 48:1 63:1 67:1 73:1 74:1 76:1 80:1 83:1 
-55.25760887087784 5:1 6:1 14:1 20:1 37:1 40:1 48:1 63:1 67:1 73:1 74:1 76:1 80:1 83:1 
-128 4:1 7:1 16:1 20:1 37:1 40:1 56:1 63:1 67:1 73:1 74:1 76:1 82:1 83:1 
-128 3:1 11:1 14:1 20:1 37:1 40:1 51:1 63:1 67:1 73:1 74:1 76:1 80:1 83:1 
-128 3:1 6:1 14:1 20:1 37:1 40:1 48:1 63:1 67:1 73:1 74:1 77:1 81:1 83:1 
-128 4:1 10:1 15:1 29:1 39:1 41:1 52:1 64:1 67:1 72:1 74:1 76:1 78:1 83:1 
-128 2:1 9:1 16:1 24:1 38:1 40:1 55:1 63:1 67:1 73:1 74:1 76:1 82:1 83:1 
-0.1006215967466393 5:1 10:1 16:1 19:1 39:1 43:1 52:1 64:1 67:1 73:1 74:1 76:1 78:1 
-128 3:1 10:1 17:1 19:1 39:1 40:1 55:1 63:1 67:1 73:1 74:1 76:1 80:1 83:1 
-128 5:1 8:1 14:1 19:1 39:1 40:1 54:1 63:1 67:1 73:1 75:1 76:1 78:1 83:1 
-50.28983140362863 5:1 16:1 22:1 36:1 40:1 63:1 67:1 73:1 74:1 76:1 80:1 83:1 
-128 3:1 6:1 15:1 19:1 39:1 40:1 52:1 63:1 68:1 73:1 74:1 76:1 81:1 
-101.5684277159859 4:1 9:1 18:1 21:1 35:1 42:1 47:1 64:1 67:1 73:1 74:1 77:1 80:1 83:1 
-128 3:1 6:1 18:1 23:1 39:1 42:1 52:1 64:1 67:1 73:1 74:1 76:1 82:1 83:1 
-128 3:1 6:1 16:1 20:1 37:1 40:1 52:1 63:1 67:1 73:1 74:1 76:1 82:1 83:1 
-128 2:1 9:1 18:1 19:1 39:1 40:1 51:1 63:1 67:1 73:1 74:1 76:1 80:1 83:1 
-128 4:1 16:1 22:1 36:1 40:1 63:1 67:1 73:1 74:1 76:1 80:1 83:1 
-59.77344223823544 1:1 9:1 14:1 22:1 36:1 46:1 50:1 61:1 67:1 72:1 74:1 76:1 80:1 83:1 
-128 4:1 6:1 17:1 22:1 36:1 40:1 50:1 63:1 67:1 73:1 74:1 76:1 80:1 83:1 
-128 3:1 6:1 18:1 19:1 39:1 40:1 50:1 61:1 67:1 72:1 74:1 76:1 78:1 83:1 
-128 3:1 6:1 18:1 20:1 37:1 40:1 51:1 63:1 67:1 73:1 74:1 76:1 80:1 83:1 
-128 4:1 8:1 18:1 20:1 37:1 40:1 50:1 63:1 67:1 73:1 74:1 76:1 82:1 83:1 
-111.2412802311185 3:1 6:1 18:1 22:1 36:1 41:1 51:1 66:1 67:1 72:1 74:1 77:1 82:1 83:1 
-128 4:1 6:1 15:1 22:1 36:1 40:1 50:1 63:1 67:1 73:1 74:1 76:1 80:1 83:1 
-128 3:1 6:1 14:1 22:1 36:1 40:1 48:1 63:1 67:1 73:1 74:1 77:1 80:1 83:1 
-128 2:1 6:1 17:1 19:1 39:1 40:1 49:1 63:1 67:1 73:1 74:1 76:1 82:1 83:1 
-128 4:1 6:1 18:1 21:1 35:1 40:1 57:1 63:1 67:1 73:1 74:1 77:1 80:1 83:1 
-128 2:1 6:1 14:1 22:1 36:1 40:1 51:1 63:1 67:1 73:1 74:1 76:1 82:1 83:1 
-91.51807198432628 4:1 11:1 15:1 22:1 36:1 40:1 59:1 63:1 67:1 73:1 74:1 76:1 80:1 83:1 
-128 5:1 7:1 15:1 25:1 38:1 40:1 56:1 63:1 67:1 73:1 74:1 76:1 80:1 83:1 
-128 4:1 8:1 16:1 19:1 39:1 42:1 50:1 64:1 67:1 73:1 75:1 76:1 82:1 83:1 
-128 3:1 6:1 16:1 22:1 36:1 40:1 57:1 63:1 67:1 73:1 75:1 76:1 80:1 83:1 
-74.23996485077184 4:1 7:1 17:1 27:1 35:1 40:1 48:1 63:1 67:1 73:1 74:1 76:1 80:1 99:1 
-128 5:1 7:1 15:1 20:1 37:1 40:1 51:1 63:1 67:1 73:1 74:1 76:1 78:1 83:1 
-128 3:1 6:1 18:1 22:1 36:1 40:1 48:1 63:1 67:1 73:1 74:1 76:1 81:1 83:1 
-128 2:1 6:1 18:1 19:1 39:1 40:1 48:1 63:1 67:1 73:1 74:1 76:1 80:1 83:1 
-56.31222197423824 5:1 6:1 15:1 25:1 38:1 44:1 52:1 64:1 67:1 72:1 74:1 76:1 79:1 83:1 
-128 2:1 6:1 18:1 19:1 39:1 40:1 51:1 63:1 67:1 73:1 74:1 76:1 80:1 83:1 
-3.577559383205477 5:1 6:1 15:1 33:1 35:1 40:1 53:1 63:1 67:1 73:1 74:1 76:1 82:1 
-128 4:1 7:1 17:1 19:1 39:1 40:1 51:1 63:1 67:1 73:1 74:1 76:1 82:1 88:1 
-128 2:1 6:1 18:1 22:1 36:1 40:1 51:1 61:1 67:1 72:1 74:1 76:1 80:1 83:1 
-128 3:1 7:1 18:1 22:1 36:1 40:1 51:1 63:1 67:1 73:1 74:1 76:1 82:1 83:1 
-128 4:1 6:1 18:1 20:1 37:1 40:1 47:1 63:1 67:1 73:1 74:1 76:1 80:1 83:1 
-128 3:1 6:1 16:1 19:1 39:1 40:1 49:1 61:1 67:1 72:1 74:1 76:1 80:1 83:1 
-128 5:1 6:1 15:1 20:1 37:1 41:1 48:1 64:1 67:1 73:1 75:1 76:1 80:1 83:1 
-128 3:1 10:1 17:1 20:1 37:1 40:1 48:1 63:1 67:1 73:1 74:1 77:1 80:1 83:1 
-113.8055273148919 5:1 8:1 17:1 19:1 39:1 43:1 50:1 64:1 67:1 72:1 74:1 76:1 78:1 83:1 
-128 5:1 8:1 15:1 20:1 37:1 41:1 51:1 64:1 67:1 73:1 74:1 76:1 82:1 83:1 
-128 5:1 6:1 17:1 20:1 37:1 40:1 48:1 63:1 67:1 73:1 74:1 76:1 80:1 83:1 
-128 2:1 11:1 17:1 23:1 39:1 42:1 52:1 64:1 68:1 73:1 75:1 76:1 82:1 90:1 
-128 4:1 6:1 18:1 22:1 36:1 40:1 50:1 63:1 67:1 73:1 75:1 76:1 82:1 83:1 
-128 2:1 6:1 14:1 19:1 39:1 42:1 52:1 64:1 67:1 72:1 75:1 76:1 80:1 83:1 
-128 2:1 6:1 14:1 19:1 39:1 40:1 50:1 63:1 67:1 73:1 74:1 76:1 82:1 83:1 
-128 5:1 6:1 16:1 22:1 36:1 40:1 52:1 63:1 67:1 73:1 75:1 76:1 80:1 83:1 
-77.75381488503811 5:1 7:1 14:1 27:1 35:1 40:1 50:1 63:1 67:1 73:1 74:1 76:1 82:1 83:1 
-128 3:1 6:1 18:1 19:1 39:1 40:1 51:1 61:1 67:1 72:1 74:1 76:1 82:1 88:1 
-29.43487865939701 2:1 7:1 17:1 19:1 39:1 42:1 47:1 64:1 67:1 73:1 74:1 76:1 81:1 83:1 
-128 2:1 6:1 17:1 19:1 39:1 40:1 52:1 63:1 67:1 73:1 74:1 76:1 80:1 83:1 
-128 3:1 11:1 18:1 29:1 39:1 40:1 59:1 63:1 71:1 73:1 74:1 76:1 80:1 83:1 
-128 4:1 6:1 16:1 20:1 37:1 40:1 54:1 63:1 71:1 73:1 74:1 76:1 80:1 83:1 
-128 3:1 6:1 16:1 22:1 36:1 40:1 48:1 63:1 67:1 73:1 74:1 76:1 82:1 83:1 
-128 2:1 6:1 16:1 19:1 39:1 40:1 51:1 63:1 67:1 73:1 74:1 76:1 80:1 107:1 
-128 4:1 6:1 17:1 19:1 39:1 43:1 47:1 64:1 67:1 73:1 74:1 76:1 80:1 83:1 
-128 4:1 6:1 16:1 22:1 36:1 40:1 51:1 63:1 67:1 73:1 74:1 76:1 81:1 83:1 
-128 4:1 6:1 17:1 23:1 39:1 41:1 55:1 64:1 67:1 73:1 74:1 76:1 80:1 83:1 
-10.40921544886444 3:1 6:1 15:1 22:1 36:1 40:1 54:1 63:1 67:1 73:1 74:1 76:1 80:1 83:1 
-128 4:1 7:1 14:1 19:1 39:1 40:1 56:1 63:1 67:1 73:1 74:1 76:1 82:1 83:1 
-128 4:1 6:1 15:1 22:1 36:1 40:1 51:1 63:1 67:1 73:1 74:1 76:1 82:1 83:1 
-128 5:1 7:1 15:1 22:1 36:1 40:1 50:1 63:1 68:1 73:1 74:1 76:1 82:1 93:1 
-128 5:1 6:1 17:1 22:1 36:1 41:1 51:1 66:1 67:1 72:1 74:1 76:1 79:1 83:1 
-128 5:1 6:1 15:1 22:1 36:1 40:1 50:1 63:1 67:1 73:1 74:1 76:1 80:1 83:1 
-128 2:1 6:1 17:1 22:1 36:1 40:1 50:1 63:1 67:1 73:1 74:1 76:1 80:1 83:1 
-128 5:1 16:1 19:1 39:1 40:1 63:1 67:1 73:1 74:1 76:1 78:1 83:1 
-62.53444373169844 1:1 6:1 15:1 20:1 37:1 40:1 55:1 61:1 69:1 72:1 74:1 76:1 81:1 83:1 
-128 3:1 6:1 17:1 32:1 39:1 41:1 52:1 66:1 67:1 72:1 74:1 76:1 82:1 83:1 
-128 5:1 14:1 19:1 39:1 40:1 63:1 67:1 73:1 74:1 76:1 78:1 83:1 
-128 4:1 6:1 17:1 22:1 36:1 40:1 48:1 63:1 70:1 73:1 74:1 76:1 80:1 83:1 
-7.336711575353287 3:1 10:1 17:1 29:1 39:1 44:1 52:1 64:1 67:1 72:1 74:1 76:1 80:1 83:1 
-128 2:1 10:1 16:1 24:1 38:1 40:1 59:1 63:1 67:1 73:1 74:1 77:1 80:1 85:1 
-101.3131258353488 3:1 6:1 14:1 19:1 39:1 42:1 50:1 64:1 67:1 73:1 74:1 76:1 81:1 83:1 
-128 5:1 10:1 14:1 22:1 36:1 40:1 51:1 63:1 69:1 73:1 74:1 76:1 82:1 83:1 
-128 4:1 7:1 16:1 19:1 39:1 40:1 52:1 63:1 67:1 73:1 74:1 76:1 80:1 83:1 
-128 3:1 6:1 18:1 22:1 36:1 40:1 52:1 63:1 67:1 73:1 74:1 77:1 82:1 83:1 
-128 3:1 6:1 17:1 20:1 37:1 40:1 48:1 63:1 67:1 73:1 74:1 76:1 80:1 83:1 
-3.301992046781705 5:1 15:1 23:1 39:1 45:1 66:1 68:1 72:1 74:1 76:1 80:1 102:1 
-128 5:1 6:1 15:1 22:1 36:1 40:1 48:1 63:1 67:1 73:1 74:1 76:1 80:1 83:1 
-128 4:1 10:1 14:1 19:1 39:1 41:1 52:1 66:1 67:1 73:1 74:1 76:1 82:1 83:1 
-128 5:1 6:1 18:1 22:1 36:1 40:1 51:1 63:1 67:1 73:1 74:1 76:1 78:1 83:1 
-128 4:1 6:1 15:1 19:1 39:1 40:1 50:1 63:1 67:1 73:1 74:1 76:1 82:1 83:1 
-128 2:1 6:1 18:1 32:1 39:1 42:1 52:1 64:1 67:1 73:1 74:1 76:1 80:1 
-24.70352970723182 3:1 8:1 15:1 20:1 37:1 40:1 52:1 63:1 67:1 73:1 74:1 76:1 78:1 83:1 
-128 5:1 6:1 18:1 19:1 39:1 40:1 54:1 63:1 67:1 73:1 74:1 76:1 80:1 83:1 
-128 4:1 6:1 16:1 20:1 37:1 40:1 48:1 63:1 67:1 73:1 74:1 76:1 80:1 83:1 
-128 5:1 9:1 14:1 22:1 36:1 40:1 47:1 63:1 67:1 73:1 74:1 76:1 80:1 83:1 
-128 2:1 6:1 16:1 22:1 36:1 40:1 54:1 63:1 67:1 73:1 75:1 76:1 82:1 105:1 
-128 5:1 7:1 17:1 22:1 36:1 40:1 48:1 63:1 67:1 73:1 74:1 76:1 82:1 83:1 
-128 4:1 8:1 16:1 22:1 36:1 40:1 57:1 63:1 67:1 73:1 74:1 76:1 82:1 83:1 
-128 5:1 6:1 15:1 22:1 36:1 40:1 59:1 63:1 67:1 73:1 74:1 76:1 80:1 83:1 
-128 5:1 7:1 14:1 19:1 39:1 40:1 52:1 63:1 67:1 73:1 74:1 76:1 82:1 83:1 
-128 4:1 6:1 14:1 22:1 36:1 40:1 57:1 63:1 67:1 73:1 74:1 76:1 82:1 83:1 
-128 3:1 8:1 15:1 22:1 36:1 40:1 57:1 63:1 67:1 73:1 74:1 76:1 82:1 83:1 
-128 5:1 9:1 17:1 19:1 39:1 42:1 55:1 64:1 67:1 73:1 74:1 77:1 80:1 83:1 
-128 2:1 6:1 14:1 19:1 39:1 40:1 47:1 63:1 67:1 73:1 74:1 76:1 78:1 83:1 
-119.4205257167419 3:1 10:1 17:1 22:1 36:1 40:1 48:1 63:1 67:1 73:1 74:1 76:1 80:1 
-128 4:1 6:1 14:1 19:1 39:1 42:1 55:1 62:1 67:1 72:1 74:1 76:1 79:1 83:1 
-117.6670963501194 5:1 6:1 16:1 22:1 36:1 42:1 51:1 64:1 67:1 72:1 74:1 76:1 79:1 83:1 
-128 2:1 6:1 15:1 19:1 39:1 40:1 52:1 63:1 67:1 73:1 74:1 76:1 82:1 83:1 
-128 4:1 10:1 14:1 19:1 39:1 40:1 52:1 61:1 67:1 72:1 74:1 76:1 81:1 83:1 
-128 4:1 10:1 16:1 22:1 36:1 40:1 57:1 63:1 67:1 73:1 74:1 76:1 82:1 83:1 
-128 4:1 6:1 15:1 27:1 35:1 40:1 52:1 61:1 67:1 72:1 74:1 76:1 81:1 83:1 
-128 2:1 6:1 17:1 29:1 39:1 42:1 51:1 62:1 67:1 73:1 74:1 76:1 79:1 83:1 
-128 4:1 6:1 16:1 22:1 36:1 40:1 48:1 63:1 67:1 73:1 74:1 76:1 80:1 83:1 
-128 2:1 6:1 15:1 22:1 36:1 40:1 48:1 61:1 67:1 72:1 74:1 76:1 81:1 83:1 
-128 4:1 6:1 14:1 24:1 38:1 40:1 48:1 63:1 67:1 73:1 74:1 76:1 81:1 83:1 
-128 2:1 7:1 18:1 19:1 39:1 40:1 50:1 63:1 67:1 73:1 74:1 76:1 82:1 83:1 
-106.8280651215357 5:1 18:1 20:1 37:1 40:1 63:1 67:1 73:1 74:1 76:1 80:1 83:1 
-128 2:1 6:1 17:1 20:1 37:1 42:1 52:1 64:1 71:1 72:1 75:1 76:1 82:1 83:1 
-128 3:1 11:1 18:1 22:1 36:1 40:1 55:1 63:1 67:1 73:1 75:1 76:1 80:1 83:1 
-128 5:1 8:1 16:1 19:1 39:1 40:1 51:1 63:1 67:1 73:1 74:1 76:1 80:1 83:1 
-128 4:1 6:1 18:1 20:1 37:1 40:1 56:1 61:1 67:1 72:1 74:1 76:1 78:1 83:1 
-128 5:1 6:1 17:1 22:1 36:1 40:1 53:1 63:1 71:1 73:1 74:1 76:1 80:1 
-128 3:1 11:1 18:1 19:1 39:1 40:1 59:1 63:1 71:1 73:1 74:1 76:1 82:1 83:1 
-128 5:1 14:1 19:1 39:1 40:1 63:1 67:1 73:1 74:1 76:1 80:1 83:1 
-128 5:1 6:1 15:1 22:1 36:1 40:1 51:1 61:1 67:1 72:1 74:1 76:1 80:1 83:1 
-128 3:1 8:1 14:1 22:1 36:1 40:1 51:1 63:1 67:1 73:1 74:1 76:1 80:1 83:1 
-128 2:1 6:1 14:1 20:1 37:1 40:1 55:1 63:1 67:1 73:1 74:1 76:1 82:1 83:1 
-119.1037495913092 4:1 6:1 18:1 26:1 35:1 40:1 51:1 63:1 67:1 73:1 74:1 76:1 80:1 103:1 
-128 3:1 6:1 15:1 20:1 37:1 40:1 55:1 63:1 67:1 73:1 74:1 76:1 82:1 83:1 
-12.01512077736519 5:1 6:1 16:1 22:1 36:1 40:1 50:1 63:1 67:1 73:1 74:1 76:1 78:1 83:1 
-128 3:1 8:1 16:1 20:1 37:1 40:1 50:1 63:1 67:1 73:1 74:1 77:1 80:1 83:1 
-128 5:1 6:1 14:1 23:1 39:1 45:1 52:1 66:1 67:1 73:1 74:1 76:1 82:1 83:1 
-88.04001849038063 2:1 11:1 16:1 29:1 39:1 40:1 52:1 63:1 67:1 73:1 74:1 76:1 78:1 83:1 
-128 4:1 7:1 14:1 19:1 39:1 40:1 56:1 63:1 67:1 73:1 74:1 76:1 82:1 83:1 
-128 4:1 7:1 18:1 22:1 36:1 40:1 52:1 63:1 67:1 73:1 74:1 76:1 82:1 83:1 
-128 3:1 6:1 17:1 20:1 37:1 40:1 49:1 63:1 67:1 73:1 74:1 76:1 82:1 83:1 
-128 2:1 6:1 18:1 31:1 35:1 40:1 51:1 61:1 67:1 72:1 74:1 76:1 79:1 83:1 
-9.904713465949754 2:1 6:1 16:1 19:1 39:1 42:1 51:1 62:1 68:1 72:1 74:1 76:1 82:1 110:1 
-128 1:1 6:1 17:1 22:1 36:1 40:1 58:1 61:1 67:1 72:1 75:1 76:1 80:1 83:1 
-128 2:1 6:1 15:1 22:1 36:1 40:1 51:1 63:1 67:1 73:1 74:1 76:1 82:1 83:1 
-128 5:1 17:1 29:1 39:1 40:1 63:1 67:1 73:1 74:1 76:1 82:1 83:1 
-128 4:1 6:1 17:1 19:1 39:1 42:1 52:1 64:1 71:1 73:1 74:1 76:1 80:1 83:1 
-128 4:1 9:1 17:1 25:1 38:1 41:1 47:1 64:1 67:1 73:1 74:1 76:1 80:1 83:1 
-128 4:1 6:1 14:1 20:1 37:1 40:1 48:1 63:1 67:1 73:1 74:1 76:1 80:1 83:1 
-128 5:1 6:1 16:1 23:1 39:1 42:1 52:1 64:1 67:1 73:1 74:1 76:1 82:1 83:1 
-128 4:1 6:1 15:1 22:1 36:1 40:1 51:1 61:1 67:1 72:1 74:1 76:1 80:1 83:1 
-125.7528369568588 1:1 6:1 15:1 20:1 37:1 40:1 55:1 63:1 71:1 73:1 74:1 76:1 80:1 83:1 
-128 5:1 6:1 16:1 24:1 38:1 40:1 50:1 61:1 67:1 72:1 75:1 76:1 80:1 83:1 
-128 3:1 6:1 17:1 22:1 36:1 40:1 48:1 63:1 67:1 73:1 74:1 76:1 82:1 83:1 
-128 4:1 6:1 18:1 29:1 39:1 40:1 50:1 63:1 67:1 73:1 74:1 76:1 80:1 109:1 
-128 1:1 6:1 18:1 20:1 37:1 40:1 55:1 63:1 67:1 73:1 74:1 76:1 81:1 83:1 
-128 5:1 6:1 16:1 22:1 36:1 40:1 54:1 63:1 67:1 73:1 74:1 76:1 82:1 83:1 
-128 3:1 11:1 18:1 19:1 39:1 40:1 51:1 63:1 67:1 73:1 74:1 76:1 79:1 83:1 
-128 5:1 7:1 16:1 22:1 36:1 40:1 48:1 63:1 67:1 73:1 75:1 76:1 78:1 83:1 
-34.61552941039771 3:1 6:1 17:1 22:1 36:1 40:1 48:1 63:1 67:1 73:1 74:1 76:1 80:1 83:1 
-128 3:1 6:1 14:1 19:1 39:1 42:1 55:1 64:1 67:1 72:1 74:1 76:1 81:1 83:1 
-128 5:1 6:1 18:1 26:1 35:1 40:1 54:1 63:1 71:1 73:1 75:1 76:1 80:1 83:1 
-53.74740621223275 3:1 6:1 16:1 19:1 39:1 42:1 51:1 64:1 67:1 73:1 74:1 76:1 78:1 87:1 
-128 3:1 9:1 15:1 19:1 39:1 42:1 55:1 62:1 67:1 73:1 74:1 76:1 79:1 83:1 
-128 3:1 10:1 15:1 20:1 37:1 40:1 49:1 61:1 67:1 72:1 74:1 76:1 80:1 83:1 
-0.8896925245263849 5:1 6:1 15:1 33:1 35:1 40:1 54:1 63:1 67:1 73:1 74:1 77:1 80:1 83:1 
-128 5:1 6:1 15:1 22:1 36:1 40:1 48:1 63:1 67:1 73:1 74:1 76:1 80:1 83:1 
-111.8012180050638 5:1 7:1 15:1 20:1 37:1 40:1 49:1 63:1 67:1 73:1 74:1 76:1 82:1 83:1 
-128 3:1 6:1 17:1 22:1 36:1 40:1 53:1 63:1 67:1 73:1 74:1 76:1 80:1 83:1 
-128 5:1 6:1 16:1 20:1 37:1 40:1 56:1 63:1 67:1 73:1 74:1 76:1 80:1 83:1 
-128 4:1 6:1 15:1 20:1 37:1 41:1 55:1 64:1 68:1 72:1 74:1 76:1 79:1 83:1 
-128 2:1 7:1 15:1 20:1 37:1 40:1 50:1 63:1 67:1 73:1 74:1 76:1 82:1 83:1 
-128 3:1 6:1 14:1 19:1 39:1 40:1 51:1 61:1 67:1 72:1 74:1 76:1 80:1 83:1 
-128 3:1 6:1 14:1 20:1 37:1 40:1 47:1 63:1 67:1 73:1 74:1 77:1 80:1 83:1 
-128 3:1 9:1 18:1 20:1 37:1 40:1 47:1 61:1 67:1 72:1 75:1 76:1 80:1 83:1 
-128 2:1 6:1 16:1 24:1 38:1 40:1 51:1 63:1 67:1 73:1 74:1 76:1 80:1 83:1 
-128 3:1 8:1 15:1 29:1 39:1 41:1 51:1 64:1 67:1 72:1 74:1 76:1 82:1 83:1 
-128 5:1 9:1 14:1 19:1 39:1 45:1 51:1 64:1 67:1 72:1 74:1 76:1 80:1 83:1 
-128 4:1 6:1 15:1 22:1 36:1 40:1 49:1 63:1 67:1 73:1 74:1 76:1 80:1 83:1 
-128 5:1 8:1 18:1 29:1 39:1 41:1 51:1 64:1 71:1 72:1 74:1 76:1 82:1 83:1 
-128 2:1 6:1 15:1 22:1 36:1 40:1 50:1 63:1 67:1 73:1 74:1 76:1 81:1 83:1 
-48.07778342172129 5:1 7:1 16:1 24:1 38:1 40:1 48:1 63:1 67:1 73:1 75:1 76:1 78:1 113:1 
-119.8657231625177 4:1 6:1 17:1 33:1 35:1 40:1 53:1 63:1 67:1 73:1 74:1 76:1 80:1 103:1 
-128 5:1 6:1 14:1 20:1 37:1 40:1 51:1 63:1 67:1 73:1 74:1 77:1 80:1 83:1 
-128 3:1 6:1 16:1 22:1 36:1 40:1 50:1 61:1 67:1 72:1 74:1 76:1 78:1 83:1 
-128 5:1 6:1 15:1 20:1 37:1 40:1 48:1 63:1 67:1 73:1 74:1 76:1 82:1 83:1 
-128 4:1 10:1 15:1 29:1 39:1 41:1 52:1 66:1 71:1 72:1 74:1 76:1 80:1 83:1 
-128 5:1 7:1 16:1 22:1 36:1 40:1 51:1 63:1 67:1 73:1 74:1 76:1 78:1 83:1 
-128 3:1 6:1 14:1 22:1 36:1 42:1 53:1 64:1 67:1 73:1 75:1 76:1 82:1 83:1 
-128 4:1 6:1 16:1 25:1 38:1 40:1 48:1 63:1 67:1 73:1 74:1 76:1 82:1 83:1 
-128 4:1 10:1 14:1 24:1 38:1 40:1 52:1 63:1 67:1 73:1 74:1 76:1 82:1 83:1 
-128 3:1 6:1 15:1 19:1 39:1 40:1 51:1 63:1 67:1 73:1 74:1 76:1 81:1 83:1 
-128 3:1 6:1 14:1 22:1 36:1 40:1 57:1 63:1 67:1 73:1 75:1 76:1 80:1 83:1 
-128 4:1 6:1 16:1 31:1 35:1 40:1 50:1 63:1 67:1 73:1 74:1 77:1 82:1 83:1 
-128 2:1 7:1 16:1 25:1 38:1 40:1 56:1 63:1 67:1 73:1 74:1 76:1 82:1 83:1 
-14.88247896308546 5:1 7:1 14:1 22:1 36:1 40:1 56:1 63:1 67:1 73:1 74:1 76:1 82:1 83:1 
-128 3:1 7:1 17:1 22:1 36:1 40:1 56:1 63:1 67:1 73:1 74:1 76:1 81:1 83:1 
-128 5:1 10:1 18:1 25:1 38:1 40:1 57:1 63:1 71:1 73:1 74:1 76:1 80:1 83:1 
-10.12387094903842 4:1 6:1 16:1 22:1 36:1 40:1 49:1 63:1 68:1 73:1 74:1 76:1 80:1 94:1 
-121.1227913427361 4:1 6:1 18:1 22:1 36:1 41:1 50:1 66:1 71:1 73:1 75:1 76:1 80:1 83:1 
-128 2:1 11:1 16:1 32:1 39:1 42:1 52:1 64:1 67:1 72:1 74:1 76:1 82:1 83:1 
-128 5:1 9:1 14:1 19:1 39:1 40:1 51:1 63:1 67:1 73:1 74:1 76:1 80:1 83:1 
-128 3:1 6:1 15:1 20:1 37:1 40:1 52:1 63:1 67:1 73:1 74:1 76:1 80:1 83:1 
-128 3:1 10:1 17:1 24:1 38:1 40:1 52:1 63:1 67:1 73:1 74:1 76:1 82:1 83:1 
-128 4:1 6:1 14:1 22:1 36:1 40:1 55:1 63:1 67:1 73:1 74:1 76:1 78:1 83:1 
-128 3:1 10:1 14:1 20:1 37:1 40:1 59:1 63:1 67:1 73:1 74:1 76:1 82:1 83:1 
-128 3:1 6:1 18:1 22:1 36:1 40:1 50:1 63:1 67:1 73:1 74:1 76:1 82:1 83:1 
-125.5890285170271 3:1 6:1 16:1 22:1 36:1 40:1 54:1 63:1 67:1 73:1 74:1 76:1 80:1 83:1 
-49.39155474051784 3:1 6:1 14:1 20:1 37:1 40:1 48:1 63:1 67:1 73:1 74:1 76:1 82:1 83:1 
-128 1:1 7:1 14:1 19:1 39:1 40:1 51:1 61:1 67:1 72:1 74:1 76:1 80:1 83:1 
-128 4:1 10:1 16:1 19:1 39:1 40:1 52:1 63:1 67:1 73:1 74:1 76:1 82:1 83:1 
-128 4:1 6:1 14:1 22:1 36:1 42:1 54:1 64:1 67:1 73:1 75:1 76:1 81:1 83:1 
-128 5:1 7:1 14:1 20:1 37:1 40:1 56:1 63:1 67:1 73:1 74:1 76:1 82:1 83:1 
-128 5:1 10:1 14:1 20:1 37:1 40:1 57:1 63:1 67:1 73:1 74:1 76:1 80:1 83:1 
-128 3:1 9:1 18:1 29:1 39:1 42:1 47:1 64:1 67:1 72:1 74:1 76:1 80:1 83:1 
-69.39479968639509 4:1 7:1 14:1 20:1 37:1 40:1 48:1 63:1 67:1 73:1 74:1 76:1 80:1 83:1 
-128 4:1 6:1 17:1 22:1 36:1 40:1 54:1 63:1 67:1 73:1 74:1 76:1 80:1 83:1 
-81.48810175298696 2:1 6:1 16:1 24:1 38:1 40:1 55:1 63:1 67:1 73:1 74:1 76:1 80:1 99:1 
-128 3:1 6:1 14:1 25:1 38:1 40:1 55:1 63:1 67:1 73:1 74:1 76:1 80:1 83:1 
-11.70023493939482 5:1 7:1 15:1 22:1 36:1 40:1 57:1 63:1 67:1 73:1 74:1 76:1 82:1 83:1 
-0.2085398983858373 2:1 6:1 17:1 19:1 39:1 42:1 53:1 66:1 67:1 73:1 74:1 76:1 79:1 83:1 
-126.1371776063915 4:1 10:1 18:1 19:1 39:1 42:1 52:1 62:1 67:1 73:1 74:1 76:1 82:1 83:1 
-128 5:1 6:1 18:1 22:1 36:1 40:1 54:1 61:1 67:1 72:1 75:1 76:1 80:1 119:1 
-80.95662159574067 5:1 7:1 18:1 31:1 35:1 40:1 50:1 63:1 67:1 73:1 74:1 76:1 79:1 83:1 
-128 5:1 6:1 16:1 22:1 36:1 40:1 54:1 63:1 67:1 73:1 75:1 76:1 81:1 83:1 
-128 4:1 6:1 14:1 20:1 37:1 40:1 48:1 63:1 67:1 73:1 74:1 76:1 82:1 83:1 
-128 3:1 6:1 18:1 25:1 38:1 40:1 56:1 63:1 67:1 73:1 74:1 76:1 82:1 83:1 
-128 4:1 10:1 15:1 22:1 36:1 40:1 59:1 63:1 67:1 73:1 74:1 76:1 82:1 83:1 
-128 3:1 6:1 15:1 25:1 38:1 40:1 48:1 63:1 67:1 73:1 74:1 76:1 80:1 83:1 
-89.08652988824656 4:1 6:1 15:1 24:1 38:1 43:1 51:1 64:1 67:1 73:1 74:1 76:1 80:1 83:1 
-128 2:1 6:1 15:1 32:1 39:1 40:1 52:1 61:1 67:1 72:1 74:1 76:1 82:1 83:1 
-128 5:1 6:1 14:1 20:1 37:1 40:1 51:1 61:1 67:1 72:1 74:1 76:1 81:1 83:1 
-128 5:1 8:1 15:1 22:1 36:1 40:1 50:1 63:1 67:1 73:1 74:1 76:1 82:1 83:1 
-123.2680715475277 3:1 6:1 15:1 22:1 36:1 40:1 54:1 63:1 67:1 73:1 74:1 76:1 80:1 83:1 
-128 4:1 6:1 17:1 22:1 36:1 40:1 48:1 63:1 71:1 73:1 74:1 76:1 80:1 83:1 
-128 3:1 6:1 18:1 19:1 39:1 42:1 51:1 64:1 67:1 72:1 75:1 76:1 82:1 83:1 
-24.10554268052024 3:1 6:1 15:1 19:1 39:1 44:1 51:1 66:1 67:1 72:1 74:1 76:1 80:1 83:1 
-128 5:1 6:1 17:1 20:1 37:1 40:1 50:1 63:1 67:1 73:1 74:1 76:1 78:1 83:1 
-58.14226307259624 4:1 6:1 15:1 31:1 35:1 40:1 57:1 63:1 67:1 73:1 74:1 76:1 82:1 83:1 
-128 3:1 6:1 16:1 19:1 39:1 40:1 48:1 63:1 67:1 73:1 74:1 76:1 80:1 83:1 
-128 3:1 6:1 16:1 24:1 38:1 40:1 59:1 63:1 71:1 73:1 74:1 76:1 82:1 83:1 
-77.14995299713868 4:1 8:1 17:1 27:1 35:1 40:1 48:1 63:1 67:1 73:1 74:1 76:1 80:1 
-128 4:1 17:1 22:1 36:1 40:1 63:1 67:1 73:1 74:1 76:1 80:1 83:1 
-128 2:1 6:1 18:1 19:1 39:1 40:1 51:1 63:1 67:1 73:1 74:1 76:1 82:1 83:1 
-36.10392950426588 3:1 6:1 17:1 24:1 38:1 40:1 51:1 63:1 67:1 73:1 74:1 76:1 80:1 86:1 
-128 2:1 6:1 15:1 20:1 37:1 40:1 53:1 63:1 67:1 73:1 74:1 76:1 80:1 100:1 
-16.08236163883717 4:1 7:1 16:1 22:1 36:1 40:1 48:1 63:1 67:1 73:1 74:1 76:1 82:1 85:1 
-128 4:1 10:1 17:1 22:1 36:1 40:1 57:1 63:1 71:1 73:1 74:1 76:1 80:1 83:1 
-128 4:1 6:1 14:1 29:1 39:1 44:1 52:1 64:1 67:1 72:1 75:1 76:1 82:1 83:1 
-128 5:1 16:1 22:1 36:1 40:1 63:1 67:1 73:1 75:1 76:1 78:1 83:1 
-115.9640605144659 5:1 6:1 16:1 21:1 35:1 40:1 54:1 63:1 67:1 73:1 74:1 76:1 80:1 83:1 
-128 5:1 6:1 18:1 19:1 39:1 40:1 52:1 63:1 67:1 73:1 74:1 76:1 82:1 83:1 
-128 4:1 6:1 16:1 22:1 36:1 40:1 48:1 63:1 68:1 73:1 74:1 76:1 80:1 110:1 
-128 2:1 8:1 14:1 19:1 39:1 40:1 50:1 63:1 67:1 73:1 74:1 76:1 80:1 83:1 
-128 5:1 10:1 14:1 19:1 39:1 40:1 52:1 61:1 67:1 72:1 74:1 76:1 80:1 83:1 
-128 4:1 10:1 17:1 22:1 36:1 40:1 57:1 63:1 67:1 73:1 74:1 76:1 80:1 83:1 
-128 3:1 11:1 14:1 20:1 37:1 40:1 51:1 63:1 67:1 73:1 74:1 76:1 79:1 83:1 
-128 3:1 6:1 14:1 19:1 39:1 40:1 50:1 61:1 67:1 73:1 74:1 76:1 82:1 
-128 3:1 11:1 17:1 29:1 39:1 40:1 52:1 63:1 68:1 73:1 74:1 76:1 78:1 90:1 
-128 4:1 6:1 17:1 19:1 39:1 41:1 51:1 64:1 67:1 73:1 74:1 76:1 79:1 83:1 
-128 2:1 8:1 15:1 22:1 36:1 40:1 50:1 63:1 67:1 73:1 74:1 76:1 82:1 83:1 
-128 5:1 6:1 14:1 22:1 36:1 40:1 51:1 63:1 67:1 73:1 74:1 76:1 82:1 83:1 
-128 3:1 6:1 15:1 22:1 36:1 40:1 50:1 63:1 67:1 73:1 74:1 76:1 82:1 83:1 
-128 4:1 6:1 18:1 22:1 36:1 40:1 57:1 63:1 67:1 73:1 75:1 76:1 81:1 83:1 
-56.93073559180707 5:1 10:1 18:1 19:1 39:1 44:1 52:1 64:1 71:1 72:1 74:1 77:1 78:1 83:1 
-128 5:1 7:1 17:1 22:1 36:1 40:1 56:1 63:1 67:1 73:1 74:1 76:1 80:1 83:1 
-128 2:1 6:1 17:1 20:1 37:1 40:1 47:1 61:1 67:1 72:1 74:1 76:1 80:1 83:1 
-128 5:1 6:1 17:1 19:1 39:1 43:1 55:1 66:1 67:1 72:1 74:1 76:1 80:1 83:1 
-128 5:1 6:1 16:1 29:1 39:1 40:1 53:1 63:1 67:1 73:1 74:1 76:1 81:1 83:1 
-128 5:1 10:1 14:1 20:1 37:1 40:1 59:1 63:1 67:1 73:1 75:1 76:1 81:1 83:1 
-128 2:1 6:1 18:1 22:1 36:1 40:1 57:1 63:1 67:1 73:1 75:1 76:1 81:1 83:1 
-55.87127910004348 3:1 6:1 16:1 20:1 37:1 41:1 51:1 64:1 67:1 73:1 74:1 76:1 79:1 83:1 
-128 4:1 11:1 15:1 20:1 37:1 40:1 51:1 63:1 67:1 73:1 74:1 77:1 80:1 83:1 
-99.84068047677522 5:1 6:1 17:1 22:1 36:1 40:1 49:1 63:1 67:1 73:1 74:1 76:1 80:1 83:1 
-0.2596297151270289 3:1 6:1 16:1 21:1 35:1 40:1 48:1 63:1 67:1 73:1 74:1 76:1 79:1 83:1 
-128 4:1 6:1 17:1 20:1 37:1 40:1 51:1 63:1 67:1 73:1 74:1 76:1 80:1 86:1 
-128 3:1 6:1 18:1 19:1 39:1 41:1 51:1 64:1 67:1 73:1 74:1 77:1 80:1 83:1 
-128 5:1 10:1 17:1 22:1 36:1 40:1 59:1 63:1 67:1 73:1 75:1 76:1 80:1 83:1 
-128 4:1 6:1 14:1 25:1 38:1 40:1 49:1 63:1 67:1 73:1 74:1 76:1 81:1 83:1 
-128 3:1 6:1 17:1 20:1 37:1 40:1 53:1 63:1 71:1 73:1 74:1 76:1 80:1 83:1 
-128 3:1 6:1 18:1 29:1 39:1 42:1 51:1 66:1 67:1 73:1 74:1 76:1 80:1 83:1 
-128 2:1 6:1 17:1 22:1 36:1 40:1 55:1 63:1 67:1 73:1 74:1 76:1 79:1 83:1 
-128 2:1 6:1 17:1 21:1 35:1 40:1 53:1 63:1 67:1 73:1 75:1 76:1 80:1 83:1 
-128 4:1 6:1 16:1 29:1 39:1 40:1 52:1 63:1 67:1 73:1 74:1 76:1 80:1 83:1 
-128 4:1 8:1 15:1 19:1 39:1 41:1 51:1 64:1 67:1 72:1 74:1 76:1 82:1 83:1 
-128 4:1 6:1 18:1 22:1 36:1 40:1 54:1 63:1 67:1 73:1 74:1 76:1 80:1 83:1 
-128 3:1 6:1 16:1 19:1 39:1 42:1 50:1 64:1 67:1 72:1 74:1 77:1 80:1 83:1 
-128 5:1 11:1 17:1 19:1 39:1 41:1 55:1 64:1 71:1 72:1 74:1 76:1 79:1 83:1 
-128 5:1 7:1 14:1 22:1 36:1 40:1 56:1 63:1 67:1 73:1 75:1 76:1 80:1 83:1 
-128 4:1 7:1 15:1 24:1 38:1 40:1 48:1 63:1 67:1 73:1 74:1 77:1 82:1 83:1 
-128 2:1 6:1 16:1 22:1 36:1 40:1 48:1 63:1 67:1 73:1 74:1 76:1 81:1 83:1 
-128 3:1 6:1 16:1 19:1 39:1 40:1 52:1 63:1 71:1 73:1 74:1 76:1 82:1 
-73.62459416282306 3:1 6:1 16:1 19:1 39:1 44:1 52:1 66:1 67:1 72:1 74:1 76:1 81:1 83:1 
-128 5:1 6:1 17:1 20:1 37:1 40:1 50:1 63:1 67:1 73:1 74:1 76:1 80:1 83:1 
-128 2:1 8:1 17:1 19:1 39:1 40:1 48:1 63:1 67:1 73:1 74:1 76:1 82:1 87:1 
-128 3:1 11:1 15:1 19:1 39:1 40:1 50:1 63:1 67:1 73:1 74:1 76:1 80:1 83:1 
-128 4:1 10:1 16:1 22:1 36:1 40:1 48:1 63:1 67:1 73:1 74:1 76:1 80:1 83:1 
-128 5:1 6:1 16:1 22:1 36:1 40:1 57:1 63:1 67:1 73:1 74:1 76:1 82:1 83:1 
-128 5:1 6:1 14:1 19:1 39:1 40:1 47:1 63:1 67:1 73:1 74:1 76:1 80:1 83:1 
-128 4:1 7:1 17:1 25:1 38:1 40:1 52:1 63:1 67:1 73:1 74:1 76:1 78:1 83:1 
-128 2:1 6:1 15:1 22:1 36:1 40:1 54:1 61:1 67:1 72:1 74:1 76:1 80:1 83:1 
