svm_type c_svc
kernel_type rbf
gamma 0.03125
nr_class 2
total_sv 963
rho -1.10296
label 1 -1
nr_sv 441 522
SV
8 3:1 6:1 17:1 20:1 37:1 40:1 50:1 63:1 67:1 73:1 74:1 76:1 82:1 83:1 
8 3:1 6:1 18:1 27:1 35:1 40:1 54:1 63:1 67:1 73:1 74:1 76:1 80:1 103:1 
8 5:1 11:1 15:1 32:1 39:1 40:1 52:1 63:1 67:1 73:1 74:1 76:1 78:1 83:1 
8 5:1 18:1 19:1 39:1 40:1 63:1 67:1 73:1 74:1 76:1 80:1 83:1 
8 5:1 11:1 18:1 19:1 39:1 40:1 59:1 63:1 67:1 73:1 74:1 76:1 80:1 83:1 
8 3:1 6:1 14:1 28:1 35:1 41:1 48:1 64:1 67:1 73:1 74:1 76:1 82:1 83:1 
3.471587668139372 4:1 8:1 17:1 20:1 37:1 40:1 48:1 63:1 67:1 73:1 74:1 76:1 82:1 83:1 
8 2:1 6:1 15:1 19:1 39:1 40:1 47:1 61:1 67:1 72:1 74:1 76:1 78:1 83:1 
8 5:1 6:1 14:1 27:1 35:1 42:1 57:1 64:1 67:1 73:1 74:1 76:1 82:1 83:1 
8 5:1 6:1 17:1 22:1 36:1 40:1 57:1 63:1 67:1 73:1 75:1 76:1 80:1 83:1 
8 3:1 6:1 17:1 19:1 39:1 42:1 50:1 64:1 70:1 72:1 74:1 76:1 82:1 83:1 
8 4:1 6:1 14:1 29:1 39:1 42:1 47:1 64:1 67:1 73:1 74:1 76:1 79:1 83:1 
8 5:1 6:1 15:1 22:1 36:1 40:1 49:1 63:1 67:1 73:1 74:1 76:1 80:1 83:1 
8 3:1 6:1 16:1 21:1 35:1 40:1 54:1 63:1 67:1 73:1 75:1 76:1 81:1 83:1 
8 5:1 7:1 18:1 19:1 39:1 40:1 50:1 63:1 67:1 73:1 74:1 76:1 80:1 87:1 
0.9044112136352015 5:1 8:1 17:1 25:1 38:1 40:1 54:1 63:1 67:1 73:1 74:1 77:1 82:1 
8 5:1 6:1 15:1 22:1 36:1 40:1 50:1 63:1 67:1 73:1 74:1 76:1 82:1 83:1 
8 5:1 6:1 15:1 20:1 37:1 40:1 57:1 63:1 67:1 73:1 74:1 76:1 78:1 83:1 
8 3:1 6:1 17:1 22:1 36:1 40:1 51:1 63:1 67:1 73:1 74:1 76:1 80:1 83:1 
8 5:1 6:1 15:1 22:1 36:1 40:1 57:1 63:1 67:1 73:1 74:1 76:1 82:1 83:1 
8 3:1 6:1 18:1 22:1 36:1 40:1 51:1 63:1 67:1 73:1 74:1 76:1 82:1 83:1 
8 5:1 15:1 19:1 39:1 44:1 64:1 67:1 72:1 75:1 76:1 78:1 83:1 
8 2:1 6:1 18:1 22:1 36:1 40:1 50:1 63:1 67:1 73:1 74:1 76:1 82:1 83:1 
8 5:1 6:1 16:1 20:1 37:1 40:1 51:1 63:1 67:1 73:1 74:1 76:1 82:1 83:1 
6.419618043459038 5:1 8:1 16:1 20:1 37:1 40:1 50:1 63:1 67:1 73:1 74:1 76:1 82:1 83:1 
8 2:1 6:1 16:1 20:1 37:1 40:1 47:1 63:1 67:1 73:1 75:1 76:1 80:1 83:1 
8 4:1 6:1 16:1 22:1 36:1 40:1 49:1 61:1 71:1 72:1 74:1 76:1 80:1 83:1 
8 4:1 6:1 14:1 20:1 37:1 40:1 47:1 63:1 67:1 73:1 74:1 76:1 78:1 83:1 
8 5:1 10:1 16:1 29:1 39:1 40:1 52:1 63:1 67:1 73:1 74:1 76:1 80:1 83:1 
8 4:1 11:1 17:1 19:1 39:1 41:1 51:1 64:1 67:1 72:1 74:1 76:1 80:1 83:1 
8 4:1 6:1 14:1 20:1 37:1 45:1 52:1 64:1 67:1 73:1 74:1 76:1 80:1 83:1 
8 3:1 7:1 18:1 19:1 39:1 40:1 50:1 63:1 67:1 73:1 74:1 76:1 81:1 83:1 
8 4:1 6:1 16:1 22:1 36:1 40:1 57:1 63:1 67:1 73:1 74:1 76:1 82:1 83:1 
8 5:1 6:1 14:1 20:1 37:1 40:1 47:1 63:1 67:1 73:1 74:1 76:1 81:1 83:1 
8 2:1 6:1 14:1 22:1 36:1 40:1 48:1 63:1 67:1 73:1 74:1 76:1 80:1 83:1 
8 2:1 7:1 15:1 23:1 39:1 42:1 52:1 62:1 67:1 73:1 74:1 76:1 82:1 99:1 
2.89040244898196 5:1 6:1 17:1 20:1 37:1 40:1 51:1 63:1 67:1 73:1 74:1 76:1 79:1 83:1 
8 5:1 10:1 17:1 21:1 35:1 40:1 48:1 63:1 71:1 73:1 74:1 76:1 80:1 83:1 
8 4:1 6:1 15:1 22:1 36:1 40:1 50:1 63:1 67:1 73:1 74:1 76:1 82:1 83:1 
8 5:1 6:1 17:1 25:1 38:1 40:1 51:1 63:1 67:1 73:1 74:1 76:1 80:1 88:1 
3.575580672591856 3:1 6:1 17:1 29:1 39:1 40:1 52:1 63:1 67:1 73:1 74:1 76:1 79:1 83:1 
8 2:1 10:1 18:1 32:1 39:1 42:1 52:1 64:1 67:1 73:1 74:1 76:1 82:1 103:1 
8 4:1 6:1 16:1 22:1 36:1 40:1 48:1 63:1 67:1 73:1 75:1 76:1 81:1 83:1 
8 4:1 7:1 14:1 25:1 38:1 40:1 48:1 63:1 67:1 73:1 74:1 76:1 80:1 83:1 
7.807175039288829 5:1 7:1 18:1 19:1 39:1 40:1 47:1 61:1 67:1 72:1 74:1 76:1 82:1 83:1 
8 4:1 6:1 17:1 20:1 37:1 40:1 48:1 63:1 71:1 73:1 74:1 76:1 80:1 83:1 
8 4:1 6:1 16:1 20:1 37:1 40:1 50:1 63:1 67:1 73:1 74:1 76:1 82:1 83:1 
3.884372436471295 3:1 6:1 16:1 29:1 39:1 40:1 50:1 63:1 67:1 73:1 74:1 76:1 82:1 83:1 
2.833744873101872 5:1 6:1 16:1 19:1 39:1 41:1 51:1 64:1 71:1 73:1 75:1 76:1 80:1 83:1 
8 3:1 6:1 14:1 20:1 37:1 40:1 47:1 63:1 67:1 73:1 74:1 76:1 82:1 83:1 
8 4:1 11:1 17:1 22:1 36:1 40:1 49:1 63:1 67:1 73:1 74:1 76:1 81:1 83:1 
8 3:1 6:1 14:1 22:1 36:1 40:1 57:1 63:1 67:1 73:1 75:1 76:1 82:1 83:1 
8 5:1 6:1 15:1 27:1 35:1 40:1 57:1 63:1 67:1 73:1 74:1 76:1 82:1 83:1 
3.037118771712423 4:1 6:1 14:1 25:1 38:1 40:1 50:1 63:1 67:1 73:1 74:1 77:1 82:1 83:1 
8 5:1 11:1 17:1 22:1 36:1 40:1 48:1 63:1 71:1 73:1 74:1 76:1 80:1 83:1 
8 4:1 6:1 15:1 22:1 36:1 40:1 50:1 61:1 67:1 72:1 74:1 76:1 80:1 83:1 
8 5:1 9:1 14:1 22:1 36:1 40:1 55:1 63:1 67:1 73:1 74:1 76:1 80:1 83:1 
8 5:1 16:1 20:1 37:1 40:1 61:1 67:1 72:1 74:1 76:1 81:1 83:1 
8 3:1 6:1 14:1 19:1 39:1 40:1 51:1 63:1 67:1 73:1 74:1 76:1 81:1 83:1 
8 5:1 6:1 14:1 22:1 36:1 40:1 53:1 63:1 67:1 73:1 74:1 76:1 80:1 83:1 
8 4:1 6:1 17:1 22:1 36:1 40:1 47:1 63:1 67:1 73:1 74:1 76:1 81:1 83:1 
8 2:1 6:1 15:1 20:1 37:1 40:1 51:1 61:1 67:1 72:1 74:1 76:1 80:1 83:1 
8 3:1 9:1 14:1 23:1 39:1 42:1 52:1 64:1 67:1 73:1 74:1 76:1 82:1 83:1 
8 5:1 6:1 15:1 31:1 35:1 40:1 48:1 63:1 71:1 73:1 74:1 76:1 80:1 83:1 
8 5:1 6:1 15:1 24:1 38:1 40:1 51:1 61:1 71:1 72:1 74:1 76:1 80:1 83:1 
8 2:1 10:1 15:1 19:1 39:1 42:1 52:1 64:1 71:1 73:1 75:1 76:1 81:1 
8 5:1 7:1 14:1 22:1 36:1 40:1 51:1 63:1 67:1 73:1 75:1 76:1 82:1 83:1 
7.278321587299669 4:1 8:1 15:1 19:1 39:1 40:1 50:1 63:1 67:1 73:1 74:1 76:1 82:1 83:1 
8 3:1 8:1 17:1 22:1 36:1 40:1 48:1 63:1 67:1 73:1 74:1 76:1 82:1 
8 5:1 6:1 14:1 22:1 36:1 40:1 48:1 63:1 67:1 73:1 74:1 76:1 80:1 83:1 
8 4:1 6:1 18:1 20:1 37:1 40:1 57:1 63:1 67:1 73:1 74:1 76:1 82:1 83:1 
8 3:1 6:1 17:1 22:1 36:1 40:1 54:1 63:1 67:1 73:1 74:1 76:1 82:1 83:1 
8 3:1 6:1 17:1 22:1 36:1 40:1 54:1 63:1 67:1 73:1 74:1 76:1 80:1 95:1 
8 1:1 6:1 16:1 19:1 39:1 40:1 51:1 61:1 67:1 72:1 74:1 76:1 78:1 83:1 
8 3:1 10:1 15:1 19:1 39:1 40:1 52:1 63:1 67:1 73:1 74:1 76:1 79:1 83:1 
2.631499867403491 4:1 6:1 15:1 20:1 37:1 40:1 50:1 63:1 67:1 73:1 75:1 76:1 80:1 83:1 
8 4:1 6:1 15:1 29:1 39:1 40:1 47:1 63:1 67:1 73:1 74:1 76:1 78:1 83:1 
8 2:1 6:1 15:1 20:1 37:1 40:1 56:1 63:1 67:1 73:1 74:1 76:1 82:1 83:1 
8 5:1 6:1 14:1 22:1 36:1 40:1 57:1 63:1 67:1 73:1 74:1 76:1 82:1 83:1 
3.217226795615234 3:1 6:1 15:1 20:1 37:1 40:1 51:1 63:1 67:1 73:1 75:1 76:1 80:1 83:1 
8 2:1 6:1 18:1 22:1 36:1 40:1 57:1 63:1 67:1 73:1 74:1 76:1 82:1 83:1 
8 3:1 10:1 14:1 20:1 37:1 40:1 59:1 63:1 67:1 73:1 74:1 76:1 80:1 83:1 
8 3:1 6:1 17:1 20:1 37:1 40:1 55:1 61:1 67:1 72:1 74:1 76:1 79:1 83:1 
8 5:1 6:1 15:1 19:1 39:1 40:1 52:1 63:1 67:1 73:1 74:1 76:1 80:1 83:1 
0.7435357761028634 3:1 6:1 18:1 19:1 39:1 40:1 52:1 63:1 67:1 73:1 74:1 76:1 81:1 83:1 
8 3:1 7:1 14:1 19:1 39:1 40:1 52:1 63:1 67:1 73:1 74:1 76:1 82:1 83:1 
8 5:1 7:1 14:1 27:1 35:1 45:1 55:1 64:1 67:1 73:1 74:1 76:1 78:1 99:1 
8 5:1 11:1 18:1 29:1 39:1 42:1 55:1 64:1 67:1 73:1 74:1 76:1 82:1 83:1 
8 2:1 6:1 16:1 22:1 36:1 40:1 54:1 63:1 67:1 73:1 74:1 76:1 80:1 83:1 
8 4:1 10:1 17:1 20:1 37:1 40:1 48:1 63:1 67:1 73:1 74:1 76:1 80:1 83:1 
8 4:1 10:1 18:1 19:1 39:1 42:1 52:1 64:1 67:1 72:1 74:1 76:1 82:1 83:1 
7.262726206582844 3:1 6:1 15:1 19:1 39:1 40:1 50:1 63:1 67:1 73:1 74:1 76:1 82:1 83:1 
8 2:1 7:1 17:1 22:1 36:1 40:1 48:1 63:1 67:1 73:1 74:1 76:1 80:1 83:1 
8 2:1 6:1 15:1 22:1 36:1 40:1 50:1 61:1 67:1 72:1 74:1 76:1 80:1 83:1 
8 4:1 6:1 17:1 20:1 37:1 41:1 48:1 64:1 67:1 73:1 74:1 76:1 81:1 83:1 
8 2:1 6:1 15:1 20:1 37:1 40:1 51:1 63:1 67:1 73:1 74:1 76:1 80:1 83:1 
8 3:1 6:1 17:1 19:1 39:1 40:1 52:1 63:1 67:1 73:1 74:1 76:1 80:1 83:1 
8 2:1 6:1 16:1 19:1 39:1 43:1 52:1 64:1 68:1 73:1 74:1 76:1 80:1 98:1 
8 1:1 6:1 18:1 27:1 35:1 42:1 49:1 64:1 67:1 73:1 74:1 76:1 82:1 83:1 
8 4:1 6:1 14:1 20:1 37:1 40:1 50:1 63:1 67:1 73:1 74:1 76:1 81:1 83:1 
8 3:1 6:1 15:1 19:1 39:1 40:1 54:1 63:1 67:1 73:1 74:1 76:1 82:1 83:1 
8 3:1 7:1 15:1 20:1 37:1 40:1 54:1 63:1 67:1 73:1 74:1 76:1 81:1 83:1 
6.986367571259754 4:1 10:1 16:1 25:1 38:1 40:1 51:1 63:1 67:1 73:1 74:1 76:1 80:1 83:1 
8 3:1 6:1 17:1 23:1 39:1 43:1 52:1 64:1 67:1 73:1 74:1 76:1 79:1 83:1 
8 2:1 9:1 18:1 19:1 39:1 40:1 51:1 63:1 67:1 73:1 74:1 76:1 80:1 83:1 
8 2:1 6:1 17:1 19:1 39:1 40:1 51:1 63:1 67:1 73:1 74:1 76:1 80:1 83:1 
8 4:1 6:1 16:1 22:1 36:1 40:1 57:1 63:1 67:1 73:1 74:1 76:1 82:1 83:1 
8 5:1 6:1 17:1 22:1 36:1 40:1 59:1 63:1 67:1 73:1 74:1 76:1 78:1 83:1 
8 4:1 7:1 16:1 20:1 37:1 40:1 48:1 63:1 67:1 73:1 74:1 77:1 80:1 83:1 
8 4:1 7:1 14:1 22:1 36:1 40:1 51:1 63:1 67:1 73:1 74:1 76:1 80:1 83:1 
8 5:1 6:1 15:1 19:1 39:1 40:1 52:1 63:1 67:1 73:1 74:1 76:1 80:1 83:1 
8 2:1 6:1 16:1 19:1 39:1 46:1 51:1 61:1 67:1 72:1 74:1 76:1 80:1 83:1 
8 4:1 6:1 15:1 25:1 38:1 40:1 55:1 61:1 67:1 72:1 74:1 76:1 80:1 83:1 
8 5:1 7:1 16:1 22:1 36:1 42:1 56:1 64:1 67:1 73:1 75:1 76:1 80:1 83:1 
8 3:1 9:1 16:1 23:1 39:1 42:1 52:1 64:1 67:1 72:1 74:1 76:1 82:1 83:1 
8 2:1 7:1 16:1 22:1 36:1 40:1 57:1 63:1 67:1 73:1 75:1 76:1 80:1 83:1 
2.204663132507737 5:1 14:1 23:1 39:1 40:1 63:1 67:1 73:1 75:1 76:1 78:1 83:1 
8 4:1 7:1 14:1 29:1 39:1 40:1 56:1 63:1 67:1 73:1 74:1 76:1 80:1 83:1 
8 2:1 6:1 17:1 22:1 36:1 40:1 54:1 63:1 67:1 73:1 74:1 76:1 82:1 83:1 
8 3:1 6:1 18:1 32:1 39:1 42:1 52:1 64:1 67:1 73:1 74:1 76:1 80:1 110:1 
8 3:1 7:1 17:1 19:1 39:1 40:1 48:1 63:1 67:1 73:1 74:1 76:1 80:1 83:1 
8 4:1 6:1 16:1 32:1 39:1 42:1 52:1 64:1 67:1 73:1 74:1 76:1 79:1 83:1 
8 4:1 6:1 17:1 25:1 38:1 40:1 54:1 63:1 67:1 73:1 74:1 76:1 80:1 83:1 
5.104517014357302 5:1 6:1 14:1 19:1 39:1 40:1 50:1 63:1 67:1 73:1 75:1 76:1 78:1 83:1 
8 5:1 6:1 16:1 20:1 37:1 40:1 55:1 63:1 67:1 73:1 74:1 76:1 80:1 83:1 
8 5:1 6:1 14:1 20:1 37:1 40:1 50:1 63:1 67:1 73:1 74:1 76:1 80:1 83:1 
8 3:1 6:1 16:1 20:1 37:1 40:1 51:1 63:1 67:1 73:1 74:1 76:1 82:1 83:1 
1.14100341433264 5:1 11:1 17:1 32:1 39:1 40:1 52:1 63:1 67:1 73:1 74:1 76:1 82:1 112:1 
8 2:1 6:1 17:1 22:1 36:1 40:1 53:1 61:1 67:1 72:1 74:1 76:1 80:1 103:1 
7.305123170556107 5:1 7:1 14:1 23:1 39:1 40:1 52:1 63:1 67:1 73:1 74:1 76:1 82:1 85:1 
8 3:1 6:1 18:1 19:1 39:1 40:1 51:1 63:1 67:1 73:1 74:1 76:1 82:1 83:1 
8 4:1 10:1 15:1 29:1 39:1 41:1 52:1 66:1 71:1 72:1 75:1 76:1 80:1 83:1 
8 5:1 16:1 22:1 36:1 40:1 63:1 67:1 73:1 74:1 76:1 80:1 83:1 
8 2:1 6:1 16:1 22:1 36:1 40:1 54:1 63:1 67:1 73:1 74:1 76:1 82:1 83:1 
8 2:1 10:1 17:1 22:1 36:1 40:1 59:1 63:1 67:1 73:1 74:1 76:1 81:1 83:1 
8 3:1 6:1 15:1 22:1 36:1 40:1 54:1 63:1 68:1 73:1 74:1 76:1 80:1 
8 4:1 6:1 16:1 22:1 36:1 40:1 54:1 63:1 67:1 73:1 74:1 76:1 81:1 83:1 
8 4:1 6:1 14:1 22:1 36:1 40:1 53:1 63:1 67:1 73:1 74:1 76:1 82:1 83:1 
8 5:1 6:1 16:1 22:1 36:1 40:1 48:1 63:1 67:1 73:1 74:1 76:1 80:1 83:1 
8 5:1 11:1 14:1 25:1 38:1 41:1 47:1 64:1 67:1 73:1 74:1 77:1 79:1 83:1 
8 4:1 11:1 15:1 22:1 36:1 41:1 55:1 66:1 67:1 72:1 74:1 76:1 82:1 83:1 
8 5:1 6:1 18:1 20:1 37:1 40:1 57:1 63:1 67:1 73:1 75:1 76:1 78:1 83:1 
8 3:1 6:1 15:1 20:1 37:1 40:1 50:1 63:1 67:1 73:1 74:1 76:1 82:1 83:1 
8 4:1 10:1 17:1 22:1 36:1 40:1 54:1 63:1 71:1 73:1 74:1 76:1 80:1 83:1 
8 4:1 6:1 16:1 22:1 36:1 40:1 54:1 63:1 67:1 73:1 74:1 76:1 80:1 83:1 
8 5:1 6:1 14:1 21:1 35:1 40:1 50:1 63:1 67:1 73:1 75:1 76:1 78:1 83:1 
8 3:1 7:1 14:1 22:1 36:1 41:1 56:1 64:1 67:1 73:1 75:1 76:1 80:1 83:1 
8 3:1 11:1 14:1 22:1 36:1 40:1 54:1 63:1 67:1 73:1 74:1 76:1 80:1 83:1 
8 2:1 11:1 18:1 19:1 39:1 40:1 59:1 63:1 67:1 73:1 74:1 76:1 82:1 83:1 
8 2:1 6:1 18:1 19:1 39:1 42:1 50:1 64:1 67:1 73:1 74:1 76:1 82:1 83:1 
8 5:1 6:1 15:1 22:1 36:1 40:1 48:1 63:1 67:1 73:1 74:1 76:1 82:1 83:1 
8 3:1 6:1 14:1 24:1 38:1 40:1 51:1 63:1 67:1 73:1 74:1 76:1 80:1 83:1 
8 3:1 10:1 14:1 20:1 37:1 40:1 55:1 61:1 67:1 72:1 74:1 76:1 80:1 83:1 
8 4:1 6:1 15:1 25:1 38:1 40:1 56:1 63:1 67:1 73:1 74:1 76:1 80:1 83:1 
8 4:1 6:1 18:1 20:1 37:1 40:1 50:1 63:1 67:1 73:1 74:1 76:1 81:1 83:1 
8 2:1 6:1 16:1 20:1 37:1 40:1 57:1 63:1 67:1 73:1 74:1 76:1 82:1 83:1 
8 4:1 10:1 15:1 20:1 37:1 40:1 59:1 63:1 67:1 73:1 74:1 76:1 80:1 83:1 
8 5:1 6:1 18:1 22:1 36:1 40:1 48:1 63:1 67:1 73:1 74:1 76:1 79:1 83:1 
6.003841222395178 4:1 6:1 15:1 29:1 39:1 40:1 55:1 63:1 67:1 73:1 74:1 76:1 81:1 83:1 
8 3:1 6:1 18:1 22:1 36:1 41:1 51:1 66:1 67:1 72:1 74:1 76:1 80:1 83:1 
1.399421043155113 5:1 10:1 14:1 25:1 38:1 40:1 51:1 63:1 67:1 73:1 74:1 76:1 80:1 83:1 
8 2:1 6:1 18:1 29:1 39:1 40:1 52:1 63:1 67:1 73:1 74:1 76:1 81:1 83:1 
8 4:1 11:1 15:1 32:1 39:1 41:1 52:1 66:1 67:1 73:1 74:1 76:1 82:1 106:1 
8 2:1 6:1 17:1 22:1 36:1 40:1 57:1 63:1 67:1 73:1 74:1 76:1 82:1 83:1 
8 3:1 10:1 16:1 26:1 35:1 40:1 49:1 61:1 67:1 72:1 74:1 76:1 80:1 118:1 
8 5:1 7:1 15:1 22:1 36:1 41:1 51:1 64:1 67:1 72:1 75:1 76:1 79:1 83:1 
8 4:1 6:1 16:1 20:1 37:1 40:1 50:1 63:1 67:1 73:1 74:1 76:1 80:1 83:1 
8 2:1 6:1 16:1 20:1 37:1 40:1 53:1 63:1 67:1 73:1 74:1 76:1 80:1 83:1 
8 3:1 6:1 17:1 19:1 39:1 40:1 47:1 63:1 67:1 73:1 74:1 76:1 80:1 83:1 
8 3:1 10:1 17:1 24:1 38:1 40:1 51:1 63:1 67:1 73:1 74:1 76:1 80:1 83:1 
8 3:1 6:1 16:1 25:1 38:1 40:1 48:1 63:1 67:1 73:1 75:1 76:1 80:1 83:1 
8 2:1 6:1 16:1 22:1 36:1 40:1 50:1 63:1 67:1 73:1 74:1 76:1 80:1 83:1 
8 5:1 15:1 20:1 37:1 40:1 63:1 67:1 73:1 75:1 76:1 80:1 83:1 
8 5:1 6:1 14:1 19:1 39:1 42:1 49:1 64:1 68:1 72:1 74:1 76:1 78:1 91:1 
8 5:1 6:1 17:1 22:1 36:1 40:1 51:1 63:1 67:1 73:1 74:1 76:1 82:1 83:1 
8 3:1 6:1 15:1 22:1 36:1 40:1 54:1 61:1 67:1 72:1 74:1 76:1 81:1 83:1 
8 4:1 6:1 18:1 22:1 36:1 40:1 57:1 63:1 71:1 73:1 74:1 76:1 81:1 83:1 
8 2:1 6:1 15:1 29:1 39:1 43:1 51:1 64:1 67:1 73:1 74:1 77:1 82:1 83:1 
7.658158526839568 2:1 6:1 15:1 23:1 39:1 40:1 52:1 61:1 67:1 72:1 74:1 76:1 82:1 83:1 
8 4:1 6:1 14:1 22:1 36:1 40:1 54:1 63:1 67:1 73:1 74:1 77:1 82:1 83:1 
8 5:1 6:1 16:1 22:1 36:1 40:1 57:1 63:1 67:1 73:1 74:1 77:1 82:1 83:1 
8 4:1 9:1 14:1 22:1 36:1 40:1 55:1 63:1 67:1 73:1 74:1 76:1 80:1 83:1 
8 3:1 9:1 15:1 22:1 36:1 40:1 55:1 63:1 67:1 73:1 74:1 76:1 80:1 83:1 
8 3:1 6:1 17:1 22:1 36:1 40:1 51:1 63:1 67:1 73:1 74:1 76:1 81:1 83:1 
8 4:1 10:1 17:1 19:1 39:1 41:1 59:1 64:1 71:1 73:1 74:1 76:1 82:1 83:1 
8 3:1 10:1 16:1 20:1 37:1 40:1 59:1 63:1 67:1 73:1 74:1 76:1 82:1 83:1 
8 5:1 6:1 15:1 19:1 39:1 42:1 55:1 64:1 67:1 72:1 75:1 76:1 80:1 83:1 
8 3:1 6:1 14:1 23:1 39:1 42:1 52:1 64:1 67:1 72:1 75:1 76:1 82:1 83:1 
8 4:1 9:1 17:1 20:1 37:1 40:1 53:1 63:1 67:1 73:1 74:1 76:1 80:1 83:1 
8 3:1 6:1 16:1 20:1 37:1 40:1 54:1 63:1 68:1 73:1 74:1 76:1 82:1 83:1 
1.862244831017813 4:1 6:1 18:1 25:1 38:1 40:1 52:1 63:1 67:1 73:1 74:1 77:1 81:1 83:1 
8 4:1 10:1 14:1 19:1 39:1 40:1 59:1 63:1 67:1 73:1 74:1 76:1 80:1 83:1 
8 4:1 9:1 15:1 20:1 37:1 40:1 48:1 63:1 67:1 73:1 74:1 76:1 80:1 83:1 
8 2:1 11:1 16:1 20:1 37:1 40:1 48:1 63:1 67:1 73:1 74:1 76:1 79:1 83:1 
8 5:1 11:1 18:1 20:1 37:1 40:1 54:1 63:1 71:1 73:1 74:1 76:1 80:1 83:1 
8 2:1 6:1 14:1 22:1 36:1 40:1 50:1 63:1 67:1 73:1 74:1 76:1 82:1 83:1 
8 3:1 6:1 17:1 25:1 38:1 42:1 51:1 64:1 67:1 73:1 74:1 76:1 82:1 83:1 
7.218025025987423 3:1 6:1 16:1 19:1 39:1 43:1 52:1 66:1 68:1 72:1 74:1 76:1 80:1 98:1 
8 2:1 8:1 16:1 22:1 36:1 40:1 56:1 63:1 67:1 73:1 74:1 77:1 82:1 83:1 
8 2:1 6:1 17:1 20:1 37:1 40:1 55:1 61:1 67:1 72:1 74:1 76:1 80:1 83:1 
8 3:1 6:1 17:1 22:1 36:1 40:1 48:1 63:1 67:1 73:1 75:1 76:1 80:1 83:1 
8 4:1 7:1 18:1 19:1 39:1 41:1 49:1 66:1 68:1 72:1 74:1 76:1 82:1 93:1 
5.192934052633272 5:1 6:1 18:1 19:1 39:1 40:1 50:1 63:1 67:1 73:1 74:1 76:1 82:1 83:1 
8 5:1 8:1 18:1 20:1 37:1 40:1 51:1 63:1 67:1 73:1 74:1 76:1 80:1 83:1 
8 3:1 7:1 17:1 32:1 39:1 42:1 52:1 64:1 67:1 73:1 74:1 76:1 81:1 83:1 
8 4:1 6:1 16:1 22:1 36:1 40:1 55:1 63:1 67:1 73:1 74:1 76:1 82:1 83:1 
8 3:1 6:1 16:1 19:1 39:1 42:1 50:1 64:1 67:1 73:1 74:1 76:1 80:1 83:1 
8 2:1 6:1 15:1 22:1 36:1 40:1 48:1 63:1 67:1 73:1 74:1 76:1 80:1 83:1 
8 3:1 6:1 16:1 24:1 38:1 40:1 50:1 63:1 67:1 73:1 74:1 76:1 82:1 83:1 
8 4:1 6:1 17:1 22:1 36:1 40:1 48:1 63:1 67:1 73:1 74:1 76:1 80:1 
8 4:1 6:1 14:1 19:1 39:1 40:1 52:1 63:1 67:1 73:1 74:1 76:1 80:1 83:1 
8 4:1 8:1 15:1 20:1 37:1 40:1 52:1 61:1 67:1 72:1 74:1 76:1 80:1 
8 4:1 6:1 17:1 22:1 36:1 40:1 51:1 61:1 67:1 72:1 74:1 76:1 80:1 83:1 
8 2:1 6:1 16:1 19:1 39:1 42:1 52:1 62:1 67:1 72:1 74:1 77:1 80:1 83:1 
8 3:1 6:1 15:1 25:1 38:1 41:1 48:1 66:1 67:1 73:1 74:1 76:1 82:1 83:1 
8 4:1 10:1 16:1 29:1 39:1 40:1 52:1 63:1 67:1 73:1 74:1 76:1 82:1 83:1 
8 2:1 8:1 17:1 22:1 36:1 40:1 50:1 63:1 71:1 73:1 75:1 76:1 80:1 83:1 
8 4:1 8:1 14:1 24:1 38:1 40:1 52:1 63:1 67:1 73:1 74:1 76:1 82:1 83:1 
8 1:1 6:1 15:1 21:1 35:1 40:1 57:1 63:1 67:1 73:1 75:1 76:1 80:1 100:1 
2.121738573750975 4:1 10:1 15:1 29:1 39:1 40:1 52:1 63:1 71:1 73:1 74:1 76:1 79:1 83:1 
8 4:1 11:1 17:1 32:1 39:1 43:1 52:1 66:1 67:1 72:1 74:1 76:1 80:1 83:1 
8 5:1 6:1 17:1 20:1 37:1 40:1 48:1 63:1 67:1 73:1 74:1 76:1 80:1 83:1 
8 3:1 6:1 18:1 20:1 37:1 40:1 50:1 63:1 67:1 73:1 75:1 76:1 80:1 83:1 
8 3:1 6:1 14:1 19:1 39:1 41:1 51:1 66:1 67:1 72:1 74:1 76:1 82:1 83:1 
8 5:1 6:1 15:1 22:1 36:1 40:1 48:1 63:1 67:1 73:1 74:1 76:1 80:1 83:1 
0.6691075150902502 5:1 6:1 18:1 19:1 39:1 40:1 51:1 63:1 67:1 73:1 74:1 76:1 80:1 83:1 
8 2:1 6:1 18:1 19:1 39:1 41:1 51:1 64:1 67:1 72:1 74:1 76:1 82:1 83:1 
8 5:1 7:1 14:1 19:1 39:1 40:1 51:1 63:1 67:1 73:1 74:1 76:1 82:1 83:1 
8 5:1 16:1 22:1 36:1 40:1 63:1 67:1 73:1 74:1 76:1 80:1 83:1 
1.000705484079586 3:1 6:1 16:1 29:1 39:1 42:1 55:1 64:1 67:1 73:1 75:1 76:1 82:1 83:1 
8 3:1 6:1 18:1 31:1 35:1 40:1 48:1 63:1 67:1 73:1 75:1 76:1 80:1 83:1 
8 4:1 10:1 16:1 19:1 39:1 40:1 52:1 61:1 67:1 72:1 74:1 76:1 80:1 83:1 
8 2:1 6:1 17:1 22:1 36:1 40:1 48:1 63:1 67:1 73:1 74:1 76:1 80:1 83:1 
7.389673466706196 4:1 6:1 17:1 19:1 39:1 40:1 50:1 63:1 67:1 73:1 74:1 76:1 80:1 83:1 
2.762182383760797 4:1 6:1 15:1 25:1 38:1 40:1 47:1 61:1 67:1 72:1 74:1 77:1 78:1 83:1 
4.196797617394632 5:1 8:1 15:1 20:1 37:1 40:1 50:1 63:1 67:1 73:1 74:1 77:1 79:1 83:1 
8 5:1 6:1 14:1 22:1 36:1 40:1 47:1 63:1 67:1 73:1 74:1 76:1 80:1 83:1 
8 5:1 6:1 17:1 20:1 37:1 40:1 59:1 63:1 71:1 73:1 74:1 76:1 82:1 83:1 
8 5:1 15:1 22:1 36:1 40:1 63:1 67:1 73:1 74:1 76:1 80:1 83:1 
3.321166758841755 4:1 6:1 15:1 29:1 39:1 40:1 51:1 63:1 67:1 73:1 74:1 76:1 80:1 83:1 
5.851463151707895 4:1 10:1 16:1 29:1 39:1 41:1 59:1 64:1 71:1 73:1 74:1 76:1 82:1 83:1 
8 5:1 7:1 14:1 22:1 36:1 40:1 56:1 63:1 67:1 73:1 74:1 76:1 82:1 83:1 
8 4:1 6:1 17:1 19:1 39:1 40:1 52:1 61:1 67:1 72:1 74:1 76:1 78:1 95:1 
8 4:1 8:1 14:1 25:1 38:1 40:1 48:1 63:1 67:1 73:1 74:1 76:1 82:1 83:1 
8 5:1 6:1 16:1 22:1 36:1 44:1 51:1 66:1 67:1 73:1 74:1 76:1 79:1 83:1 
8 4:1 6:1 16:1 19:1 39:1 40:1 47:1 63:1 67:1 73:1 74:1 76:1 80:1 83:1 
8 3:1 6:1 18:1 29:1 39:1 42:1 55:1 64:1 67:1 72:1 74:1 76:1 82:1 99:1 
8 4:1 11:1 15:1 22:1 36:1 42:1 57:1 64:1 67:1 72:1 75:1 76:1 80:1 83:1 
8 3:1 6:1 18:1 25:1 38:1 40:1 57:1 63:1 67:1 73:1 75:1 76:1 82:1 83:1 
8 4:1 6:1 14:1 19:1 39:1 40:1 48:1 63:1 67:1 73:1 74:1 76:1 81:1 83:1 
8 5:1 7:1 16:1 23:1 39:1 40:1 52:1 63:1 67:1 73:1 74:1 76:1 78:1 83:1 
4.60244491793634 2:1 10:1 18:1 25:1 38:1 40:1 47:1 61:1 67:1 72:1 74:1 76:1 79:1 115:1 
8 4:1 6:1 18:1 20:1 37:1 41:1 52:1 64:1 67:1 73:1 74:1 76:1 82:1 83:1 
8 5:1 7:1 14:1 22:1 36:1 40:1 56:1 63:1 67:1 73:1 74:1 76:1 82:1 83:1 
0.8021463575953048 5:1 9:1 14:1 20:1 37:1 40:1 59:1 63:1 67:1 73:1 74:1 76:1 82:1 83:1 
2.528072519225971 3:1 6:1 16:1 19:1 39:1 40:1 50:1 61:1 67:1 72:1 74:1 76:1 79:1 83:1 
8 4:1 6:1 15:1 22:1 36:1 40:1 53:1 63:1 67:1 73:1 74:1 76:1 80:1 83:1 
8 5:1 6:1 17:1 20:1 37:1 40:1 55:1 63:1 67:1 73:1 74:1 76:1 81:1 83:1 
7.59346334732068 5:1 10:1 15:1 22:1 36:1 40:1 51:1 63:1 67:1 73:1 75:1 76:1 80:1 83:1 
8 5:1 8:1 16:1 20:1 37:1 40:1 57:1 63:1 67:1 73:1 74:1 76:1 80:1 83:1 
8 4:1 6:1 18:1 20:1 37:1 40:1 48:1 63:1 71:1 73:1 74:1 76:1 81:1 83:1 
8 3:1 7:1 18:1 20:1 37:1 40:1 52:1 61:1 67:1 72:1 74:1 76:1 82:1 83:1 
8 3:1 6:1 17:1 22:1 36:1 40:1 48:1 63:1 67:1 73:1 74:1 76:1 80:1 83:1 
4.314937952152096 5:1 10:1 15:1 22:1 36:1 40:1 55:1 61:1 67:1 72:1 75:1 76:1 78:1 83:1 
8 4:1 11:1 17:1 19:1 39:1 40:1 51:1 63:1 71:1 73:1 74:1 76:1 80:1 83:1 
8 1:1 6:1 14:1 19:1 39:1 42:1 52:1 62:1 67:1 72:1 74:1 77:1 80:1 83:1 
8 4:1 7:1 14:1 22:1 36:1 40:1 47:1 63:1 67:1 73:1 74:1 76:1 78:1 83:1 
8 5:1 6:1 14:1 32:1 39:1 42:1 52:1 64:1 67:1 72:1 74:1 76:1 82:1 83:1 
8 2:1 6:1 16:1 21:1 35:1 40:1 53:1 63:1 67:1 73:1 75:1 76:1 80:1 83:1 
8 5:1 7:1 14:1 22:1 36:1 40:1 56:1 63:1 67:1 73:1 74:1 76:1 82:1 83:1 
8 5:1 14:1 22:1 36:1 40:1 63:1 67:1 73:1 74:1 76:1 78:1 83:1 
1.8241920355581 2:1 6:1 16:1 29:1 39:1 40:1 52:1 63:1 67:1 73:1 74:1 77:1 80:1 83:1 
8 5:1 6:1 14:1 31:1 35:1 40:1 50:1 61:1 68:1 72:1 74:1 76:1 78:1 91:1 
8 4:1 6:1 16:1 21:1 35:1 40:1 57:1 63:1 67:1 73:1 74:1 76:1 80:1 83:1 
8 5:1 6:1 14:1 21:1 35:1 40:1 49:1 63:1 67:1 73:1 74:1 76:1 80:1 83:1 
8 3:1 6:1 18:1 19:1 39:1 40:1 48:1 63:1 68:1 73:1 74:1 76:1 80:1 84:1 
8 5:1 6:1 14:1 31:1 35:1 40:1 57:1 63:1 67:1 73:1 74:1 76:1 81:1 83:1 
8 4:1 7:1 14:1 19:1 39:1 40:1 56:1 63:1 67:1 73:1 74:1 76:1 82:1 83:1 
8 4:1 8:1 14:1 19:1 39:1 40:1 50:1 63:1 67:1 73:1 74:1 76:1 82:1 83:1 
8 3:1 6:1 15:1 19:1 39:1 40:1 50:1 63:1 67:1 73:1 74:1 76:1 82:1 83:1 
5.63791239869894 4:1 11:1 17:1 19:1 39:1 40:1 51:1 63:1 67:1 73:1 74:1 76:1 80:1 83:1 
8 5:1 6:1 15:1 22:1 36:1 40:1 48:1 63:1 67:1 73:1 74:1 76:1 80:1 83:1 
8 3:1 10:1 18:1 19:1 39:1 40:1 55:1 63:1 67:1 73:1 74:1 76:1 80:1 83:1 
8 4:1 6:1 17:1 22:1 36:1 40:1 53:1 63:1 67:1 73:1 74:1 76:1 82:1 83:1 
8 3:1 6:1 16:1 29:1 39:1 40:1 52:1 63:1 67:1 73:1 74:1 77:1 80:1 83:1 
8 3:1 6:1 16:1 22:1 36:1 40:1 55:1 63:1 67:1 73:1 74:1 76:1 82:1 83:1 
8 4:1 6:1 16:1 19:1 39:1 42:1 52:1 64:1 67:1 73:1 74:1 76:1 81:1 83:1 
8 4:1 6:1 18:1 24:1 38:1 40:1 50:1 63:1 67:1 73:1 74:1 76:1 82:1 83:1 
6.713187345599994 4:1 6:1 17:1 32:1 39:1 43:1 51:1 66:1 67:1 73:1 74:1 76:1 80:1 83:1 
8 4:1 10:1 18:1 24:1 38:1 40:1 51:1 63:1 71:1 73:1 74:1 76:1 82:1 83:1 
8 5:1 6:1 17:1 22:1 36:1 40:1 54:1 63:1 67:1 73:1 74:1 76:1 80:1 83:1 
8 5:1 10:1 14:1 19:1 39:1 40:1 55:1 61:1 67:1 72:1 74:1 76:1 80:1 83:1 
8 3:1 6:1 14:1 19:1 39:1 40:1 51:1 63:1 67:1 73:1 74:1 76:1 80:1 83:1 
8 5:1 6:1 15:1 22:1 36:1 40:1 57:1 63:1 67:1 73:1 74:1 76:1 82:1 83:1 
5.496591926470574 5:1 8:1 14:1 19:1 39:1 40:1 56:1 63:1 67:1 73:1 74:1 77:1 82:1 83:1 
3.511676583279337 4:1 9:1 18:1 20:1 37:1 40:1 48:1 63:1 67:1 73:1 74:1 76:1 80:1 83:1 
8 1:1 6:1 18:1 19:1 39:1 40:1 52:1 63:1 67:1 73:1 74:1 76:1 81:1 83:1 
7.641121676964806 4:1 10:1 14:1 19:1 39:1 40:1 51:1 63:1 67:1 73:1 74:1 76:1 82:1 83:1 
8 3:1 6:1 18:1 20:1 37:1 41:1 55:1 66:1 67:1 72:1 75:1 76:1 78:1 83:1 
8 2:1 6:1 16:1 19:1 39:1 42:1 51:1 64:1 67:1 72:1 74:1 76:1 81:1 83:1 
3.856578136102647 2:1 7:1 17:1 22:1 36:1 40:1 49:1 61:1 67:1 72:1 74:1 77:1 80:1 83:1 
8 3:1 6:1 18:1 29:1 39:1 42:1 52:1 64:1 68:1 72:1 74:1 76:1 80:1 110:1 
8 5:1 9:1 14:1 29:1 39:1 42:1 55:1 64:1 67:1 72:1 74:1 76:1 80:1 83:1 
8 5:1 10:1 15:1 22:1 36:1 40:1 48:1 63:1 67:1 73:1 74:1 77:1 79:1 83:1 
8 5:1 6:1 14:1 33:1 35:1 40:1 57:1 63:1 67:1 73:1 74:1 76:1 80:1 83:1 
8 2:1 6:1 17:1 19:1 39:1 40:1 50:1 63:1 67:1 73:1 74:1 76:1 80:1 83:1 
8 3:1 6:1 15:1 26:1 35:1 40:1 50:1 62:1 67:1 73:1 74:1 76:1 82:1 83:1 
8 2:1 6:1 14:1 19:1 39:1 40:1 50:1 63:1 67:1 73:1 74:1 76:1 82:1 83:1 
8 2:1 6:1 17:1 20:1 37:1 40:1 55:1 61:1 67:1 72:1 75:1 76:1 78:1 83:1 
8 5:1 8:1 17:1 22:1 36:1 42:1 51:1 64:1 67:1 73:1 75:1 76:1 80:1 83:1 
8 5:1 8:1 15:1 24:1 38:1 40:1 50:1 63:1 67:1 73:1 74:1 76:1 82:1 83:1 
8 4:1 6:1 14:1 25:1 38:1 40:1 48:1 63:1 67:1 73:1 74:1 76:1 80:1 87:1 
8 1:1 6:1 18:1 19:1 39:1 40:1 51:1 63:1 67:1 73:1 74:1 76:1 80:1 83:1 
8 5:1 6:1 17:1 22:1 36:1 40:1 48:1 63:1 67:1 73:1 74:1 76:1 80:1 83:1 
8 3:1 6:1 18:1 20:1 37:1 41:1 52:1 64:1 67:1 72:1 74:1 76:1 81:1 83:1 
8 2:1 7:1 18:1 22:1 36:1 40:1 52:1 63:1 67:1 73:1 74:1 77:1 78:1 83:1 
8 5:1 6:1 14:1 19:1 39:1 40:1 51:1 63:1 67:1 73:1 74:1 76:1 80:1 83:1 
3.783963438387959 4:1 6:1 15:1 19:1 39:1 40:1 48:1 63:1 67:1 73:1 75:1 76:1 80:1 83:1 
2.23801329697791 3:1 6:1 16:1 19:1 39:1 40:1 51:1 63:1 67:1 73:1 74:1 76:1 82:1 83:1 
6.820310853314478 5:1 8:1 18:1 19:1 39:1 40:1 54:1 63:1 68:1 73:1 75:1 76:1 80:1 
7.177364300228437 2:1 6:1 17:1 19:1 39:1 40:1 51:1 61:1 67:1 72:1 74:1 76:1 80:1 83:1 
8 3:1 6:1 17:1 31:1 35:1 40:1 51:1 63:1 67:1 73:1 74:1 76:1 80:1 83:1 
4.519119418853334 5:1 6:1 15:1 20:1 37:1 40:1 48:1 63:1 67:1 73:1 75:1 76:1 82:1 83:1 
8 4:1 11:1 18:1 20:1 37:1 40:1 59:1 63:1 67:1 73:1 74:1 76:1 80:1 83:1 
2.810224015628879 4:1 6:1 14:1 29:1 39:1 40:1 51:1 63:1 67:1 73:1 74:1 76:1 80:1 83:1 
8 2:1 7:1 17:1 24:1 38:1 40:1 49:1 61:1 67:1 72:1 74:1 76:1 79:1 83:1 
0.7147569634579447 5:1 9:1 18:1 20:1 37:1 40:1 55:1 63:1 67:1 73:1 74:1 76:1 80:1 83:1 
8 3:1 6:1 14:1 20:1 37:1 40:1 48:1 63:1 67:1 73:1 74:1 76:1 80:1 83:1 
3.26168728113322 5:1 6:1 18:1 25:1 38:1 40:1 52:1 63:1 67:1 73:1 75:1 76:1 80:1 83:1 
8 3:1 18:1 19:1 39:1 40:1 61:1 67:1 72:1 74:1 76:1 78:1 83:1 
8 4:1 6:1 16:1 22:1 36:1 41:1 48:1 64:1 71:1 73:1 75:1 76:1 81:1 83:1 
8 2:1 6:1 14:1 19:1 39:1 40:1 51:1 63:1 67:1 73:1 74:1 76:1 80:1 83:1 
8 2:1 6:1 16:1 24:1 38:1 40:1 52:1 63:1 67:1 73:1 74:1 76:1 81:1 83:1 
8 2:1 6:1 15:1 19:1 39:1 40:1 52:1 63:1 67:1 73:1 74:1 77:1 80:1 83:1 
8 3:1 6:1 15:1 22:1 36:1 40:1 50:1 63:1 67:1 73:1 74:1 76:1 80:1 83:1 
8 5:1 18:1 26:1 35:1 40:1 63:1 67:1 73:1 75:1 76:1 80:1 83:1 
0.8157456950663294 4:1 6:1 18:1 20:1 37:1 40:1 52:1 63:1 67:1 73:1 75:1 76:1 80:1 83:1 
8 2:1 6:1 17:1 23:1 39:1 40:1 52:1 63:1 67:1 73:1 74:1 76:1 78:1 83:1 
8 4:1 6:1 16:1 22:1 36:1 40:1 50:1 63:1 67:1 73:1 74:1 76:1 82:1 83:1 
8 3:1 8:1 14:1 25:1 38:1 40:1 50:1 63:1 67:1 73:1 74:1 76:1 80:1 83:1 
8 5:1 6:1 16:1 22:1 36:1 41:1 48:1 66:1 71:1 73:1 74:1 76:1 82:1 83:1 
5.905276549396332 4:1 6:1 15:1 32:1 39:1 42:1 52:1 64:1 67:1 73:1 75:1 76:1 78:1 83:1 
8 3:1 6:1 18:1 22:1 36:1 41:1 57:1 64:1 67:1 73:1 74:1 76:1 82:1 83:1 
8 2:1 6:1 15:1 22:1 36:1 40:1 49:1 61:1 67:1 72:1 74:1 76:1 80:1 83:1 
6.902964940122162 3:1 11:1 18:1 32:1 39:1 40:1 52:1 63:1 67:1 73:1 74:1 76:1 81:1 88:1 
4.513235561663074 3:1 6:1 15:1 29:1 39:1 40:1 52:1 61:1 67:1 72:1 74:1 77:1 78:1 83:1 
8 5:1 7:1 17:1 20:1 37:1 40:1 57:1 63:1 67:1 73:1 74:1 76:1 81:1 83:1 
8 4:1 6:1 18:1 20:1 37:1 43:1 50:1 64:1 67:1 73:1 74:1 76:1 82:1 83:1 
8 4:1 6:1 14:1 22:1 36:1 40:1 48:1 63:1 67:1 73:1 74:1 77:1 80:1 83:1 
8 2:1 6:1 16:1 29:1 39:1 45:1 50:1 64:1 67:1 72:1 74:1 76:1 82:1 83:1 
1.141174538240565 3:1 10:1 16:1 19:1 39:1 42:1 59:1 64:1 67:1 72:1 75:1 76:1 81:1 83:1 
7.004611030687054 3:1 11:1 14:1 20:1 37:1 40:1 51:1 61:1 67:1 72:1 75:1 76:1 79:1 83:1 
8 5:1 6:1 16:1 22:1 36:1 40:1 57:1 63:1 67:1 73:1 74:1 76:1 80:1 83:1 
8 2:1 6:1 16:1 19:1 39:1 42:1 51:1 64:1 67:1 73:1 74:1 76:1 82:1 83:1 
8 5:1 6:1 17:1 22:1 36:1 40:1 50:1 63:1 67:1 73:1 74:1 76:1 79:1 83:1 
8 4:1 6:1 17:1 25:1 38:1 40:1 52:1 63:1 67:1 73:1 74:1 76:1 80:1 83:1 
8 4:1 11:1 14:1 22:1 36:1 40:1 48:1 63:1 67:1 73:1 74:1 76:1 80:1 83:1 
4.967313517234341 2:1 6:1 17:1 19:1 39:1 40:1 51:1 63:1 67:1 73:1 74:1 76:1 81:1 83:1 
8 5:1 8:1 16:1 19:1 39:1 40:1 50:1 63:1 67:1 73:1 74:1 76:1 78:1 83:1 
8 4:1 10:1 18:1 20:1 37:1 40:1 51:1 63:1 67:1 73:1 74:1 76:1 80:1 83:1 
0.3150388728689133 3:1 7:1 17:1 32:1 39:1 40:1 52:1 63:1 67:1 73:1 74:1 76:1 82:1 83:1 
8 2:1 7:1 14:1 22:1 36:1 40:1 56:1 63:1 67:1 73:1 74:1 76:1 82:1 83:1 
8 4:1 6:1 16:1 22:1 36:1 40:1 55:1 61:1 67:1 72:1 74:1 76:1 80:1 83:1 
8 5:1 6:1 15:1 22:1 36:1 40:1 53:1 63:1 67:1 73:1 74:1 76:1 80:1 83:1 
8 2:1 6:1 14:1 22:1 36:1 40:1 52:1 63:1 67:1 73:1 74:1 76:1 79:1 83:1 
8 2:1 9:1 18:1 29:1 39:1 40:1 52:1 63:1 67:1 73:1 74:1 76:1 80:1 83:1 
8 3:1 11:1 16:1 22:1 36:1 40:1 48:1 63:1 67:1 73:1 74:1 77:1 80:1 83:1 
8 2:1 6:1 14:1 22:1 36:1 40:1 54:1 63:1 68:1 73:1 74:1 76:1 80:1 102:1 
8 4:1 7:1 16:1 22:1 36:1 40:1 56:1 63:1 67:1 73:1 74:1 76:1 82:1 83:1 
1.916697392159119 5:1 8:1 15:1 25:1 38:1 40:1 51:1 63:1 67:1 73:1 74:1 76:1 80:1 92:1 
8 3:1 10:1 16:1 22:1 36:1 41:1 53:1 64:1 67:1 73:1 74:1 76:1 80:1 83:1 
8 3:1 6:1 18:1 22:1 36:1 40:1 51:1 63:1 67:1 73:1 75:1 76:1 82:1 83:1 
8 2:1 10:1 17:1 22:1 36:1 40:1 59:1 63:1 67:1 73:1 74:1 76:1 80:1 83:1 
8 2:1 6:1 18:1 22:1 36:1 40:1 51:1 63:1 67:1 73:1 74:1 76:1 80:1 83:1 
8 5:1 6:1 18:1 20:1 37:1 40:1 48:1 63:1 67:1 73:1 74:1 76:1 80:1 83:1 
8 5:1 6:1 14:1 29:1 39:1 40:1 52:1 63:1 68:1 73:1 74:1 76:1 81:1 90:1 
2.357116166889432 5:1 9:1 14:1 29:1 39:1 40:1 51:1 63:1 67:1 73:1 74:1 76:1 80:1 104:1 
8 3:1 6:1 18:1 29:1 39:1 42:1 51:1 64:1 71:1 72:1 74:1 76:1 80:1 83:1 
8 5:1 9:1 14:1 22:1 36:1 40:1 55:1 63:1 67:1 73:1 74:1 76:1 80:1 83:1 
8 3:1 6:1 18:1 19:1 39:1 40:1 50:1 63:1 67:1 73:1 74:1 76:1 80:1 83:1 
8 3:1 6:1 16:1 22:1 36:1 40:1 54:1 63:1 67:1 73:1 75:1 76:1 80:1 83:1 
8 3:1 6:1 15:1 22:1 36:1 40:1 50:1 63:1 67:1 73:1 74:1 77:1 80:1 83:1 
4.495818409597905 4:1 6:1 16:1 19:1 39:1 43:1 51:1 66:1 67:1 73:1 75:1 76:1 80:1 83:1 
8 4:1 7:1 18:1 20:1 37:1 40:1 48:1 63:1 67:1 73:1 74:1 77:1 82:1 83:1 
8 3:1 6:1 18:1 25:1 38:1 40:1 47:1 61:1 67:1 72:1 74:1 76:1 79:1 83:1 
8 5:1 10:1 17:1 19:1 39:1 44:1 52:1 66:1 67:1 72:1 74:1 76:1 82:1 83:1 
8 5:1 10:1 14:1 25:1 38:1 41:1 52:1 66:1 67:1 73:1 74:1 76:1 80:1 83:1 
8 4:1 6:1 17:1 20:1 37:1 40:1 52:1 63:1 67:1 73:1 74:1 76:1 80:1 83:1 
8 2:1 7:1 15:1 19:1 39:1 40:1 54:1 63:1 67:1 73:1 74:1 76:1 82:1 83:1 
4.993759128357393 5:1 7:1 18:1 24:1 38:1 40:1 51:1 61:1 67:1 72:1 75:1 76:1 78:1 83:1 
8 2:1 10:1 15:1 22:1 36:1 40:1 51:1 63:1 67:1 73:1 74:1 76:1 82:1 83:1 
8 4:1 6:1 18:1 19:1 39:1 42:1 50:1 64:1 67:1 73:1 74:1 76:1 82:1 83:1 
8 3:1 6:1 18:1 22:1 36:1 40:1 48:1 63:1 67:1 73:1 74:1 76:1 80:1 83:1 
8 4:1 10:1 16:1 19:1 39:1 40:1 48:1 63:1 67:1 73:1 74:1 76:1 79:1 83:1 
8 4:1 6:1 18:1 27:1 35:1 40:1 54:1 63:1 67:1 73:1 74:1 76:1 80:1 83:1 
8 2:1 6:1 16:1 19:1 39:1 40:1 52:1 63:1 67:1 73:1 75:1 76:1 82:1 83:1 
8 3:1 6:1 15:1 20:1 37:1 41:1 51:1 64:1 67:1 72:1 74:1 76:1 80:1 83:1 
8 2:1 8:1 14:1 19:1 39:1 40:1 50:1 63:1 67:1 73:1 75:1 76:1 82:1 83:1 
8 2:1 8:1 16:1 22:1 36:1 41:1 51:1 64:1 67:1 73:1 74:1 76:1 82:1 83:1 
3.930521810428228 4:1 10:1 17:1 29:1 39:1 40:1 55:1 63:1 67:1 73:1 74:1 76:1 80:1 99:1 
8 3:1 6:1 17:1 22:1 36:1 41:1 52:1 62:1 67:1 72:1 74:1 76:1 80:1 83:1 
8 2:1 6:1 15:1 29:1 39:1 40:1 51:1 63:1 67:1 73:1 74:1 76:1 81:1 83:1 
8 4:1 6:1 17:1 22:1 36:1 40:1 48:1 63:1 67:1 73:1 74:1 76:1 82:1 83:1 
8 1:1 6:1 18:1 20:1 37:1 40:1 55:1 63:1 67:1 73:1 74:1 76:1 80:1 83:1 
8 2:1 11:1 18:1 20:1 37:1 41:1 59:1 64:1 67:1 73:1 74:1 76:1 80:1 83:1 
8 3:1 8:1 16:1 19:1 39:1 42:1 51:1 64:1 67:1 72:1 74:1 76:1 82:1 83:1 
1.569856828956277 4:1 9:1 17:1 23:1 39:1 40:1 52:1 63:1 67:1 73:1 74:1 76:1 82:1 90:1 
8 5:1 11:1 15:1 22:1 36:1 40:1 51:1 63:1 67:1 73:1 74:1 77:1 80:1 83:1 
8 4:1 6:1 17:1 20:1 37:1 40:1 57:1 63:1 67:1 73:1 74:1 76:1 80:1 83:1 
8 3:1 6:1 17:1 22:1 36:1 40:1 54:1 63:1 67:1 73:1 74:1 76:1 80:1 83:1 
8 5:1 6:1 16:1 22:1 36:1 40:1 54:1 63:1 67:1 73:1 74:1 76:1 81:1 83:1 
8 5:1 6:1 15:1 31:1 35:1 40:1 48:1 63:1 67:1 73:1 75:1 76:1 80:1 83:1 
8 3:1 10:1 14:1 19:1 39:1 40:1 52:1 61:1 67:1 72:1 74:1 76:1 81:1 83:1 
8 4:1 6:1 14:1 19:1 39:1 40:1 52:1 63:1 67:1 73:1 74:1 76:1 82:1 83:1 
8 3:1 6:1 17:1 19:1 39:1 40:1 55:1 63:1 67:1 73:1 74:1 76:1 82:1 83:1 
8 5:1 6:1 16:1 25:1 38:1 40:1 48:1 63:1 67:1 73:1 74:1 76:1 80:1 83:1 
8 5:1 7:1 14:1 20:1 37:1 40:1 51:1 63:1 67:1 73:1 74:1 76:1 82:1 83:1 
8 3:1 6:1 18:1 22:1 36:1 40:1 51:1 61:1 67:1 72:1 75:1 76:1 80:1 83:1 
8 3:1 6:1 15:1 22:1 36:1 40:1 52:1 63:1 67:1 73:1 74:1 76:1 81:1 109:1 
8 5:1 7:1 14:1 19:1 39:1 41:1 56:1 64:1 67:1 73:1 75:1 76:1 82:1 83:1 
8 5:1 6:1 16:1 22:1 36:1 40:1 53:1 63:1 67:1 73:1 74:1 76:1 80:1 83:1 
8 5:1 6:1 16:1 29:1 39:1 41:1 51:1 64:1 67:1 73:1 74:1 76:1 82:1 83:1 
8 4:1 6:1 15:1 19:1 39:1 40:1 50:1 63:1 67:1 73:1 74:1 76:1 80:1 83:1 
5.935868066526162 2:1 6:1 16:1 19:1 39:1 40:1 50:1 63:1 67:1 73:1 74:1 77:1 80:1 83:1 
8 4:1 10:1 15:1 20:1 37:1 40:1 59:1 63:1 67:1 73:1 74:1 76:1 80:1 83:1 
8 5:1 6:1 16:1 19:1 39:1 40:1 52:1 63:1 67:1 73:1 74:1 76:1 80:1 83:1 
8 4:1 6:1 18:1 20:1 37:1 40:1 51:1 63:1 67:1 73:1 74:1 76:1 82:1 83:1 
5.262669545923791 5:1 7:1 18:1 19:1 39:1 40:1 52:1 63:1 67:1 73:1 74:1 76:1 81:1 83:1 
8 5:1 6:1 17:1 22:1 36:1 40:1 51:1 63:1 67:1 73:1 74:1 76:1 80:1 83:1 
8 3:1 11:1 15:1 19:1 39:1 40:1 52:1 63:1 68:1 73:1 75:1 76:1 82:1 90:1 
8 4:1 6:1 17:1 22:1 36:1 40:1 50:1 63:1 67:1 73:1 74:1 76:1 82:1 83:1 
8 4:1 6:1 17:1 20:1 37:1 40:1 48:1 63:1 67:1 73:1 74:1 76:1 82:1 83:1 
8 2:1 6:1 15:1 19:1 39:1 42:1 51:1 64:1 67:1 73:1 74:1 76:1 82:1 83:1 
8 5:1 6:1 16:1 22:1 36:1 40:1 50:1 63:1 67:1 73:1 74:1 76:1 82:1 83:1 
8 5:1 18:1 22:1 36:1 40:1 63:1 67:1 73:1 74:1 76:1 80:1 83:1 
8 5:1 8:1 16:1 20:1 37:1 40:1 48:1 63:1 67:1 73:1 74:1 76:1 82:1 83:1 
0.9980198242924293 4:1 9:1 18:1 20:1 37:1 42:1 55:1 64:1 67:1 73:1 75:1 76:1 82:1 83:1 
7.637021598120683 4:1 8:1 15:1 20:1 37:1 40:1 51:1 63:1 67:1 73:1 74:1 76:1 82:1 83:1 
8 4:1 6:1 18:1 22:1 36:1 40:1 49:1 63:1 67:1 73:1 74:1 77:1 80:1 83:1 
8 3:1 7:1 16:1 22:1 36:1 40:1 50:1 63:1 67:1 73:1 74:1 77:1 81:1 83:1 
8 4:1 8:1 14:1 29:1 39:1 40:1 50:1 63:1 67:1 73:1 74:1 76:1 82:1 
-2.608103171187446 3:1 11:1 14:1 19:1 39:1 42:1 55:1 64:1 67:1 73:1 75:1 76:1 80:1 83:1 
-4.420032738996634 4:1 6:1 15:1 21:1 35:1 40:1 57:1 63:1 67:1 73:1 74:1 77:1 80:1 83:1 
-8 2:1 6:1 16:1 22:1 36:1 40:1 54:1 63:1 67:1 73:1 75:1 76:1 80:1 83:1 
-2.590853827081072 4:1 6:1 17:1 19:1 39:1 43:1 49:1 65:1 71:1 73:1 74:1 76:1 82:1 83:1 
-8 5:1 6:1 15:1 20:1 37:1 40:1 50:1 63:1 67:1 73:1 75:1 76:1 80:1 83:1 
-8 3:1 15:1 29:1 39:1 40:1 61:1 68:1 72:1 75:1 76:1 80:1 
-6.504533947416284 5:1 7:1 16:1 29:1 39:1 40:1 48:1 63:1 67:1 73:1 74:1 76:1 78:1 83:1 
-5.279473564381897 4:1 7:1 14:1 29:1 39:1 41:1 51:1 64:1 67:1 73:1 74:1 76:1 78:1 83:1 
-8 2:1 11:1 18:1 20:1 37:1 40:1 54:1 63:1 67:1 73:1 74:1 76:1 80:1 83:1 
-8 2:1 6:1 15:1 19:1 39:1 40:1 52:1 63:1 67:1 73:1 74:1 76:1 82:1 83:1 
-8 3:1 6:1 14:1 22:1 36:1 40:1 54:1 63:1 67:1 73:1 74:1 76:1 80:1 83:1 
-6.464528866903301 3:1 10:1 18:1 22:1 36:1 43:1 51:1 64:1 71:1 73:1 74:1 76:1 80:1 83:1 
-8 5:1 8:1 14:1 19:1 39:1 40:1 50:1 63:1 67:1 73:1 74:1 76:1 82:1 83:1 
-4.878327058044127 4:1 8:1 17:1 33:1 35:1 40:1 57:1 63:1 67:1 73:1 74:1 76:1 82:1 95:1 
-0.4058993387072555 5:1 6:1 16:1 20:1 37:1 41:1 55:1 64:1 68:1 72:1 74:1 76:1 80:1 83:1 
-8 2:1 6:1 16:1 25:1 38:1 40:1 55:1 63:1 67:1 73:1 74:1 77:1 81:1 83:1 
-8 3:1 6:1 14:1 29:1 39:1 40:1 52:1 63:1 67:1 73:1 74:1 76:1 80:1 
-8 5:1 7:1 14:1 22:1 36:1 40:1 56:1 63:1 67:1 73:1 74:1 77:1 82:1 83:1 
-0.8806508593924486 1:1 6:1 17:1 20:1 37:1 42:1 51:1 64:1 67:1 72:1 75:1 76:1 80:1 83:1 
-8 3:1 6:1 16:1 29:1 39:1 40:1 52:1 63:1 67:1 73:1 74:1 76:1 78:1 83:1 
-8 5:1 6:1 15:1 22:1 36:1 40:1 54:1 63:1 67:1 73:1 75:1 76:1 80:1 83:1 
-3.876825783932004 2:1 6:1 15:1 19:1 39:1 42:1 50:1 64:1 71:1 72:1 74:1 77:1 80:1 83:1 
-8 4:1 6:1 18:1 25:1 38:1 40:1 57:1 63:1 67:1 73:1 74:1 76:1 82:1 83:1 
-8 4:1 6:1 17:1 22:1 36:1 40:1 57:1 63:1 67:1 73:1 74:1 76:1 82:1 83:1 
-8 5:1 7:1 17:1 20:1 37:1 40:1 50:1 63:1 67:1 73:1 74:1 76:1 82:1 83:1 
-8 5:1 6:1 18:1 22:1 36:1 40:1 48:1 63:1 67:1 73:1 74:1 76:1 82:1 83:1 
-5.371458332706723 4:1 6:1 16:1 22:1 36:1 40:1 48:1 63:1 67:1 73:1 74:1 76:1 80:1 83:1 
-8 5:1 6:1 14:1 20:1 37:1 40:1 48:1 63:1 67:1 73:1 74:1 76:1 80:1 83:1 
-8 4:1 7:1 16:1 20:1 37:1 40:1 56:1 63:1 67:1 73:1 74:1 76:1 82:1 83:1 
-8 3:1 11:1 14:1 20:1 37:1 40:1 51:1 63:1 67:1 73:1 74:1 76:1 80:1 83:1 
-8 4:1 8:1 14:1 19:1 39:1 40:1 50:1 63:1 67:1 73:1 74:1 76:1 82:1 83:1 
-4.84444750842755 3:1 6:1 14:1 20:1 37:1 40:1 48:1 63:1 67:1 73:1 74:1 77:1 81:1 83:1 
-7.036802243701084 5:1 11:1 14:1 22:1 36:1 41:1 51:1 64:1 67:1 72:1 74:1 76:1 82:1 83:1 
-7.923999791799916 3:1 6:1 15:1 20:1 37:1 40:1 53:1 63:1 67:1 73:1 74:1 76:1 80:1 83:1 
-1.847129004528273 4:1 9:1 18:1 22:1 36:1 42:1 57:1 64:1 71:1 73:1 75:1 76:1 80:1 83:1 
-8 5:1 14:1 22:1 36:1 40:1 63:1 67:1 73:1 74:1 76:1 80:1 83:1 
-6.371052027925733 2:1 9:1 16:1 24:1 38:1 40:1 55:1 63:1 67:1 73:1 74:1 76:1 82:1 83:1 
-8 4:1 7:1 17:1 19:1 39:1 40:1 56:1 63:1 67:1 73:1 74:1 76:1 81:1 83:1 
-5.38746040095577 5:1 10:1 16:1 19:1 39:1 43:1 52:1 64:1 67:1 73:1 74:1 76:1 78:1 
-8 3:1 10:1 17:1 19:1 39:1 40:1 55:1 63:1 67:1 73:1 74:1 76:1 80:1 83:1 
-8 5:1 8:1 14:1 19:1 39:1 40:1 54:1 63:1 67:1 73:1 75:1 76:1 78:1 83:1 
-8 5:1 11:1 15:1 32:1 39:1 40:1 52:1 63:1 68:1 73:1 75:1 76:1 80:1 90:1 
-8 5:1 16:1 22:1 36:1 40:1 63:1 67:1 73:1 74:1 76:1 80:1 83:1 
-8 3:1 6:1 15:1 19:1 39:1 40:1 52:1 63:1 68:1 73:1 74:1 76:1 81:1 
-8 3:1 6:1 18:1 23:1 39:1 42:1 52:1 64:1 67:1 73:1 74:1 76:1 82:1 83:1 
-8 3:1 6:1 16:1 20:1 37:1 40:1 52:1 63:1 67:1 73:1 74:1 76:1 82:1 83:1 
-8 2:1 9:1 18:1 19:1 39:1 40:1 51:1 63:1 67:1 73:1 74:1 76:1 80:1 83:1 
-8 4:1 16:1 22:1 36:1 40:1 63:1 67:1 73:1 74:1 76:1 80:1 83:1 
-0.9054818281157297 1:1 9:1 14:1 22:1 36:1 46:1 50:1 61:1 67:1 72:1 74:1 76:1 80:1 83:1 
-2.922450332150631 2:1 10:1 15:1 29:1 39:1 42:1 55:1 64:1 67:1 72:1 74:1 76:1 80:1 83:1 
-8 4:1 6:1 17:1 22:1 36:1 40:1 50:1 63:1 67:1 73:1 74:1 76:1 80:1 83:1 
-8 4:1 10:1 17:1 20:1 37:1 40:1 51:1 63:1 67:1 73:1 74:1 76:1 80:1 83:1 
-8 3:1 6:1 18:1 19:1 39:1 40:1 50:1 61:1 67:1 72:1 74:1 76:1 78:1 83:1 
-8 3:1 6:1 18:1 20:1 37:1 40:1 51:1 63:1 67:1 73:1 74:1 76:1 80:1 83:1 
-2.781987486542193 3:1 10:1 18:1 24:1 38:1 41:1 52:1 64:1 67:1 73:1 74:1 76:1 82:1 83:1 
-8 4:1 8:1 18:1 20:1 37:1 40:1 50:1 63:1 67:1 73:1 74:1 76:1 82:1 83:1 
-3.930956777661143 2:1 6:1 16:1 22:1 36:1 40:1 57:1 63:1 67:1 73:1 74:1 76:1 82:1 83:1 
-2.389811211223501 3:1 6:1 18:1 22:1 36:1 41:1 51:1 66:1 67:1 72:1 74:1 77:1 82:1 83:1 
-8 4:1 6:1 15:1 22:1 36:1 40:1 50:1 63:1 67:1 73:1 74:1 76:1 80:1 83:1 
-8 3:1 6:1 15:1 29:1 39:1 40:1 52:1 63:1 68:1 73:1 74:1 76:1 80:1 94:1 
-8 3:1 6:1 18:1 22:1 36:1 40:1 50:1 61:1 67:1 72:1 74:1 76:1 79:1 83:1 
-8 3:1 6:1 14:1 22:1 36:1 40:1 48:1 63:1 67:1 73:1 74:1 77:1 80:1 83:1 
-8 2:1 6:1 17:1 19:1 39:1 40:1 49:1 63:1 67:1 73:1 74:1 76:1 82:1 83:1 
-8 4:1 6:1 18:1 20:1 37:1 40:1 54:1 63:1 67:1 73:1 74:1 76:1 80:1 103:1 
-4.508227879202584 5:1 7:1 14:1 25:1 38:1 41:1 52:1 64:1 67:1 72:1 74:1 76:1 79:1 83:1 
-2.333976438232825 4:1 6:1 18:1 21:1 35:1 40:1 57:1 63:1 67:1 73:1 74:1 77:1 80:1 83:1 
-8 2:1 6:1 14:1 22:1 36:1 40:1 51:1 63:1 67:1 73:1 74:1 76:1 82:1 83:1 
-8 5:1 6:1 16:1 22:1 36:1 40:1 49:1 63:1 67:1 73:1 74:1 76:1 82:1 83:1 
-8 4:1 11:1 15:1 22:1 36:1 40:1 59:1 63:1 67:1 73:1 74:1 76:1 80:1 83:1 
-8 5:1 7:1 15:1 25:1 38:1 40:1 56:1 63:1 67:1 73:1 74:1 76:1 80:1 83:1 
-8 4:1 8:1 16:1 19:1 39:1 42:1 50:1 64:1 67:1 73:1 75:1 76:1 82:1 83:1 
-8 3:1 6:1 16:1 22:1 36:1 40:1 57:1 63:1 67:1 73:1 75:1 76:1 80:1 83:1 
-8 4:1 6:1 16:1 19:1 39:1 40:1 54:1 63:1 69:1 73:1 74:1 76:1 80:1 83:1 
-4.439014129785923 4:1 7:1 17:1 27:1 35:1 40:1 48:1 63:1 67:1 73:1 74:1 76:1 80:1 99:1 
-8 2:1 10:1 16:1 29:1 39:1 40:1 52:1 63:1 67:1 73:1 74:1 76:1 82:1 83:1 
-8 5:1 7:1 15:1 20:1 37:1 40:1 51:1 63:1 67:1 73:1 74:1 76:1 78:1 83:1 
-8 3:1 6:1 18:1 22:1 36:1 40:1 48:1 63:1 67:1 73:1 74:1 76:1 81:1 83:1 
-0.6640332730345617 3:1 7:1 18:1 30:1 35:1 45:1 48:1 64:1 67:1 73:1 74:1 76:1 80:1 103:1 
-8 2:1 6:1 18:1 19:1 39:1 40:1 48:1 63:1 67:1 73:1 74:1 76:1 80:1 83:1 
-2.385575126682677 5:1 6:1 15:1 25:1 38:1 44:1 52:1 64:1 67:1 72:1 74:1 76:1 79:1 83:1 
-8 5:1 7:1 14:1 20:1 37:1 40:1 50:1 63:1 67:1 73:1 74:1 76:1 81:1 83:1 
-8 2:1 6:1 17:1 20:1 37:1 40:1 50:1 63:1 67:1 73:1 74:1 76:1 81:1 83:1 
-8 2:1 6:1 18:1 19:1 39:1 40:1 51:1 63:1 67:1 73:1 74:1 76:1 80:1 83:1 
-0.8814488345899248 5:1 10:1 18:1 29:1 39:1 44:1 52:1 64:1 67:1 72:1 74:1 76:1 80:1 83:1 
-8 3:1 6:1 15:1 19:1 39:1 42:1 51:1 62:1 67:1 73:1 74:1 76:1 82:1 83:1 
-8 4:1 7:1 17:1 19:1 39:1 40:1 51:1 63:1 67:1 73:1 74:1 76:1 82:1 88:1 
-8 2:1 6:1 18:1 22:1 36:1 40:1 51:1 61:1 67:1 72:1 74:1 76:1 80:1 83:1 
-8 3:1 7:1 18:1 22:1 36:1 40:1 51:1 63:1 67:1 73:1 74:1 76:1 82:1 83:1 
-8 4:1 6:1 18:1 20:1 37:1 40:1 47:1 63:1 67:1 73:1 74:1 76:1 80:1 83:1 
-8 3:1 6:1 16:1 19:1 39:1 40:1 49:1 61:1 67:1 72:1 74:1 76:1 80:1 83:1 
-8 5:1 6:1 15:1 20:1 37:1 41:1 48:1 64:1 67:1 73:1 75:1 76:1 80:1 83:1 
-8 3:1 10:1 17:1 20:1 37:1 40:1 48:1 63:1 67:1 73:1 74:1 77:1 80:1 83:1 
-7.236759810797482 2:1 6:1 17:1 23:1 39:1 42:1 52:1 64:1 67:1 72:1 74:1 76:1 78:1 83:1 
-8 5:1 8:1 15:1 20:1 37:1 41:1 51:1 64:1 67:1 73:1 74:1 76:1 82:1 83:1 
-8 2:1 11:1 18:1 22:1 36:1 40:1 59:1 63:1 67:1 73:1 74:1 76:1 81:1 83:1 
-2.742451490837614 1:1 10:1 15:1 20:1 37:1 43:1 59:1 64:1 67:1 73:1 74:1 76:1 82:1 83:1 
-8 5:1 6:1 17:1 20:1 37:1 40:1 48:1 63:1 67:1 73:1 74:1 76:1 80:1 83:1 
-6.790400230029652 3:1 6:1 17:1 20:1 37:1 42:1 51:1 64:1 67:1 73:1 74:1 76:1 82:1 83:1 
-7.150212377164531 2:1 6:1 17:1 19:1 39:1 40:1 52:1 63:1 67:1 73:1 75:1 76:1 80:1 88:1 
-8 3:1 6:1 18:1 20:1 37:1 40:1 50:1 63:1 67:1 73:1 74:1 76:1 82:1 83:1 
-1.262936038018482 5:1 7:1 18:1 22:1 36:1 44:1 51:1 66:1 68:1 72:1 74:1 76:1 82:1 93:1 
-8 2:1 11:1 17:1 23:1 39:1 42:1 52:1 64:1 68:1 73:1 75:1 76:1 82:1 90:1 
-8 4:1 6:1 18:1 22:1 36:1 40:1 50:1 63:1 67:1 73:1 75:1 76:1 82:1 83:1 
-2.187705053894946 2:1 6:1 14:1 19:1 39:1 42:1 52:1 64:1 67:1 72:1 75:1 76:1 80:1 83:1 
-8 2:1 6:1 14:1 19:1 39:1 40:1 50:1 63:1 67:1 73:1 74:1 76:1 82:1 83:1 
-2.923678563170433 5:1 6:1 18:1 21:1 35:1 41:1 57:1 64:1 67:1 73:1 74:1 76:1 82:1 83:1 
-8 5:1 6:1 17:1 25:1 38:1 40:1 47:1 63:1 67:1 73:1 75:1 76:1 80:1 83:1 
-8 5:1 6:1 16:1 22:1 36:1 40:1 52:1 63:1 67:1 73:1 75:1 76:1 80:1 83:1 
-6.255330115506604 3:1 6:1 14:1 22:1 36:1 40:1 48:1 63:1 67:1 73:1 74:1 76:1 79:1 83:1 
-5.123776152167442 4:1 8:1 18:1 25:1 38:1 41:1 51:1 66:1 68:1 72:1 74:1 76:1 82:1 117:1 
-3.815324745496548 5:1 7:1 14:1 27:1 35:1 40:1 50:1 63:1 67:1 73:1 74:1 76:1 82:1 83:1 
-1.690984103611292 3:1 6:1 16:1 22:1 36:1 43:1 51:1 62:1 67:1 73:1 74:1 76:1 80:1 83:1 
-8 3:1 6:1 18:1 19:1 39:1 40:1 51:1 61:1 67:1 72:1 74:1 76:1 82:1 88:1 
-5.111078084702799 3:1 7:1 15:1 22:1 36:1 40:1 48:1 63:1 67:1 73:1 74:1 76:1 81:1 83:1 
-8 2:1 6:1 17:1 19:1 39:1 40:1 52:1 63:1 67:1 73:1 74:1 76:1 80:1 83:1 
-4.326235824232752 4:1 11:1 18:1 19:1 39:1 41:1 59:1 64:1 67:1 72:1 74:1 76:1 80:1 83:1 
-8 3:1 11:1 18:1 29:1 39:1 40:1 59:1 63:1 71:1 73:1 74:1 76:1 80:1 83:1 
-8 4:1 6:1 16:1 20:1 37:1 40:1 54:1 63:1 71:1 73:1 74:1 76:1 80:1 83:1 
-7.548654354723688 2:1 6:1 16:1 19:1 39:1 40:1 51:1 63:1 67:1 73:1 74:1 76:1 80:1 107:1 
-2.703435871857293 2:1 6:1 18:1 22:1 36:1 40:1 48:1 63:1 67:1 73:1 75:1 76:1 80:1 83:1 
-1.951252472134922 5:1 11:1 17:1 29:1 39:1 43:1 52:1 66:1 67:1 72:1 74:1 76:1 78:1 
-8 4:1 6:1 17:1 19:1 39:1 43:1 47:1 64:1 67:1 73:1 74:1 76:1 80:1 83:1 
-8 5:1 6:1 14:1 29:1 39:1 40:1 52:1 63:1 67:1 73:1 74:1 76:1 82:1 83:1 
-8 5:1 8:1 17:1 22:1 36:1 40:1 50:1 63:1 71:1 73:1 74:1 76:1 82:1 83:1 
-8 4:1 6:1 16:1 22:1 36:1 40:1 51:1 63:1 67:1 73:1 74:1 76:1 81:1 83:1 
-8 4:1 6:1 18:1 20:1 37:1 40:1 49:1 63:1 67:1 73:1 74:1 76:1 82:1 83:1 
-8 4:1 6:1 17:1 23:1 39:1 41:1 55:1 64:1 67:1 73:1 74:1 76:1 80:1 83:1 
-2.332060099765922 3:1 6:1 15:1 22:1 36:1 40:1 54:1 63:1 67:1 73:1 74:1 76:1 80:1 83:1 
-8 4:1 11:1 17:1 22:1 36:1 40:1 55:1 63:1 67:1 73:1 75:1 76:1 80:1 83:1 
-8 4:1 7:1 14:1 19:1 39:1 40:1 56:1 63:1 67:1 73:1 74:1 76:1 82:1 83:1 
-8 4:1 6:1 15:1 22:1 36:1 40:1 51:1 63:1 67:1 73:1 74:1 76:1 82:1 83:1 
-3.549314221786935 5:1 7:1 15:1 22:1 36:1 40:1 50:1 63:1 68:1 73:1 74:1 76:1 82:1 93:1 
-4.58479223215076 5:1 6:1 17:1 22:1 36:1 41:1 51:1 66:1 67:1 72:1 74:1 76:1 79:1 83:1 
-8 5:1 6:1 15:1 22:1 36:1 40:1 50:1 63:1 67:1 73:1 74:1 76:1 80:1 83:1 
-8 2:1 6:1 17:1 22:1 36:1 40:1 50:1 63:1 67:1 73:1 74:1 76:1 80:1 83:1 
-3.795997586718863 5:1 16:1 19:1 39:1 40:1 63:1 67:1 73:1 74:1 76:1 78:1 83:1 
-8 3:1 6:1 14:1 20:1 37:1 40:1 50:1 63:1 67:1 73:1 75:1 76:1 82:1 83:1 
-1.3911426045055 1:1 6:1 15:1 20:1 37:1 40:1 55:1 61:1 69:1 72:1 74:1 76:1 81:1 83:1 
-2.745502356671715 5:1 14:1 27:1 35:1 40:1 63:1 67:1 73:1 74:1 76:1 79:1 83:1 
-8 3:1 6:1 17:1 32:1 39:1 41:1 52:1 66:1 67:1 72:1 74:1 76:1 82:1 83:1 
-8 5:1 14:1 19:1 39:1 40:1 63:1 67:1 73:1 74:1 76:1 78:1 83:1 
-4.541521182721073 4:1 6:1 17:1 22:1 36:1 40:1 48:1 63:1 70:1 73:1 74:1 76:1 80:1 83:1 
-8 2:1 11:1 16:1 22:1 36:1 40:1 59:1 63:1 67:1 73:1 74:1 76:1 80:1 83:1 
-8 1:1 6:1 17:1 21:1 35:1 40:1 51:1 63:1 67:1 73:1 74:1 76:1 82:1 83:1 
-6.017212761844242 3:1 10:1 17:1 19:1 39:1 42:1 52:1 64:1 67:1 72:1 74:1 76:1 80:1 83:1 
-2.645988978546579 2:1 10:1 16:1 24:1 38:1 40:1 59:1 63:1 67:1 73:1 74:1 77:1 80:1 85:1 
-7.232081727388385 3:1 6:1 14:1 19:1 39:1 42:1 50:1 64:1 67:1 73:1 74:1 76:1 81:1 83:1 
-8 5:1 10:1 14:1 22:1 36:1 40:1 51:1 63:1 69:1 73:1 74:1 76:1 82:1 83:1 
-8 4:1 7:1 16:1 19:1 39:1 40:1 52:1 63:1 67:1 73:1 74:1 76:1 80:1 83:1 
-8 3:1 6:1 18:1 22:1 36:1 40:1 52:1 63:1 67:1 73:1 74:1 77:1 82:1 83:1 
-8 4:1 6:1 17:1 22:1 36:1 40:1 57:1 63:1 67:1 73:1 74:1 76:1 80:1 83:1 
-8 3:1 6:1 17:1 20:1 37:1 40:1 48:1 63:1 67:1 73:1 74:1 76:1 80:1 83:1 
-8 4:1 6:1 15:1 20:1 37:1 40:1 55:1 61:1 67:1 72:1 74:1 76:1 80:1 83:1 
-2.943325983817451 5:1 6:1 17:1 22:1 36:1 40:1 48:1 63:1 67:1 73:1 74:1 76:1 80:1 119:1 
-8 3:1 6:1 16:1 22:1 36:1 40:1 50:1 63:1 67:1 73:1 74:1 76:1 82:1 83:1 
-3.745605002040364 5:1 15:1 23:1 39:1 45:1 66:1 68:1 72:1 74:1 76:1 80:1 102:1 
-8 3:1 6:1 18:1 32:1 39:1 40:1 52:1 63:1 67:1 73:1 74:1 76:1 80:1 83:1 
-8 5:1 6:1 15:1 22:1 36:1 40:1 48:1 63:1 67:1 73:1 74:1 76:1 80:1 83:1 
-5.463842660595391 4:1 10:1 14:1 19:1 39:1 41:1 52:1 66:1 67:1 73:1 74:1 76:1 82:1 83:1 
-0.7238243517665921 2:1 6:1 18:1 19:1 39:1 42:1 51:1 64:1 67:1 73:1 74:1 76:1 81:1 83:1 
-8 4:1 11:1 14:1 29:1 39:1 40:1 55:1 63:1 67:1 73:1 74:1 76:1 80:1 90:1 
-4.248425405644534 2:1 6:1 17:1 20:1 37:1 40:1 54:1 63:1 67:1 73:1 74:1 76:1 80:1 83:1 
-8 5:1 6:1 18:1 22:1 36:1 40:1 51:1 63:1 67:1 73:1 74:1 76:1 78:1 83:1 
-8 4:1 7:1 17:1 32:1 39:1 42:1 52:1 64:1 67:1 72:1 74:1 76:1 81:1 83:1 
-8 4:1 6:1 15:1 19:1 39:1 40:1 50:1 63:1 67:1 73:1 74:1 76:1 82:1 83:1 
-8 2:1 6:1 18:1 32:1 39:1 42:1 52:1 64:1 67:1 73:1 74:1 76:1 80:1 
-8 3:1 8:1 15:1 20:1 37:1 40:1 52:1 63:1 67:1 73:1 74:1 76:1 78:1 83:1 
-8 5:1 6:1 18:1 19:1 39:1 40:1 54:1 63:1 67:1 73:1 74:1 76:1 80:1 83:1 
-8 4:1 6:1 16:1 20:1 37:1 40:1 48:1 63:1 67:1 73:1 74:1 76:1 80:1 83:1 
-8 5:1 9:1 14:1 22:1 36:1 40:1 47:1 63:1 67:1 73:1 74:1 76:1 80:1 83:1 
-4.403979381711784 2:1 6:1 16:1 22:1 36:1 40:1 54:1 63:1 67:1 73:1 75:1 76:1 82:1 105:1 
-4.965849608280121 2:1 7:1 17:1 22:1 36:1 40:1 50:1 63:1 67:1 73:1 74:1 76:1 80:1 83:1 
-8 5:1 7:1 17:1 22:1 36:1 40:1 48:1 63:1 67:1 73:1 74:1 76:1 82:1 83:1 
-7.116694539447669 1:1 6:1 18:1 19:1 39:1 42:1 52:1 64:1 67:1 73:1 74:1 76:1 81:1 83:1 
-8 4:1 8:1 16:1 22:1 36:1 40:1 57:1 63:1 67:1 73:1 74:1 76:1 82:1 83:1 
-8 5:1 6:1 15:1 22:1 36:1 40:1 59:1 63:1 67:1 73:1 74:1 76:1 80:1 83:1 
-8 5:1 7:1 14:1 19:1 39:1 40:1 52:1 63:1 67:1 73:1 74:1 76:1 82:1 83:1 
-8 4:1 6:1 14:1 22:1 36:1 40:1 57:1 63:1 67:1 73:1 74:1 76:1 82:1 83:1 
-3.948493535344478 5:1 9:1 17:1 19:1 39:1 42:1 55:1 64:1 67:1 73:1 74:1 77:1 80:1 83:1 
-8 4:1 11:1 15:1 19:1 39:1 40:1 55:1 63:1 67:1 73:1 75:1 76:1 80:1 83:1 
-1.566667553454494 2:1 10:1 18:1 19:1 39:1 42:1 52:1 64:1 67:1 72:1 74:1 76:1 81:1 83:1 
-8 3:1 10:1 17:1 19:1 39:1 40:1 48:1 63:1 67:1 73:1 74:1 76:1 80:1 83:1 
-0.6920069364547933 3:1 6:1 16:1 19:1 39:1 42:1 52:1 64:1 67:1 73:1 74:1 76:1 80:1 87:1 
-8 2:1 6:1 14:1 19:1 39:1 40:1 47:1 63:1 67:1 73:1 74:1 76:1 78:1 83:1 
-8 4:1 6:1 17:1 22:1 36:1 40:1 48:1 63:1 67:1 73:1 74:1 76:1 80:1 83:1 
-8 4:1 6:1 16:1 29:1 39:1 40:1 52:1 63:1 67:1 73:1 74:1 76:1 81:1 83:1 
-7.50852956243612 5:1 6:1 18:1 19:1 39:1 40:1 48:1 65:1 67:1 73:1 74:1 76:1 80:1 83:1 
-5.631678816741037 3:1 6:1 16:1 19:1 39:1 44:1 52:1 64:1 67:1 72:1 74:1 76:1 82:1 83:1 
-6.824242581288708 3:1 10:1 17:1 22:1 36:1 40:1 48:1 63:1 67:1 73:1 74:1 76:1 80:1 
-8 5:1 7:1 17:1 20:1 37:1 40:1 48:1 63:1 71:1 73:1 74:1 77:1 80:1 83:1 
-8 2:1 6:1 15:1 19:1 39:1 40:1 52:1 63:1 67:1 73:1 74:1 76:1 82:1 83:1 
-8 4:1 10:1 14:1 19:1 39:1 40:1 52:1 61:1 67:1 72:1 74:1 76:1 81:1 83:1 
-5.959242621527028 3:1 6:1 17:1 19:1 39:1 41:1 52:1 64:1 67:1 72:1 74:1 76:1 80:1 83:1 
-5.390513140753311 3:1 6:1 15:1 22:1 36:1 45:1 53:1 64:1 67:1 73:1 75:1 76:1 82:1 100:1 
-8 4:1 10:1 16:1 22:1 36:1 40:1 57:1 63:1 67:1 73:1 74:1 76:1 82:1 83:1 
-8 4:1 6:1 15:1 27:1 35:1 40:1 52:1 61:1 67:1 72:1 74:1 76:1 81:1 83:1 
-4.200574081397084 2:1 6:1 17:1 29:1 39:1 42:1 51:1 62:1 67:1 73:1 74:1 76:1 79:1 83:1 
-8 4:1 6:1 16:1 22:1 36:1 40:1 48:1 63:1 67:1 73:1 74:1 76:1 80:1 83:1 
-3.863213868355081 2:1 6:1 15:1 22:1 36:1 40:1 48:1 61:1 67:1 72:1 74:1 76:1 81:1 83:1 
-0.1511354498776876 4:1 6:1 14:1 22:1 36:1 40:1 57:1 63:1 67:1 73:1 74:1 76:1 80:1 83:1 
-8 4:1 6:1 14:1 24:1 38:1 40:1 48:1 63:1 67:1 73:1 74:1 76:1 81:1 83:1 
-8 2:1 7:1 18:1 19:1 39:1 40:1 50:1 63:1 67:1 73:1 74:1 76:1 82:1 83:1 
-4.579819507885261 5:1 6:1 14:1 33:1 35:1 40:1 57:1 63:1 67:1 73:1 74:1 76:1 80:1 83:1 
-8 5:1 18:1 20:1 37:1 40:1 63:1 67:1 73:1 74:1 76:1 80:1 83:1 
-1.090464748080632 3:1 6:1 16:1 20:1 37:1 40:1 49:1 61:1 67:1 72:1 74:1 76:1 78:1 83:1 
-1.108419670581257 2:1 6:1 17:1 20:1 37:1 42:1 52:1 64:1 71:1 72:1 75:1 76:1 82:1 83:1 
-2.590726289379642 4:1 6:1 15:1 22:1 36:1 40:1 48:1 63:1 67:1 73:1 74:1 76:1 82:1 83:1 
-8 3:1 11:1 18:1 22:1 36:1 40:1 55:1 63:1 67:1 73:1 75:1 76:1 80:1 83:1 
-8 5:1 8:1 16:1 19:1 39:1 40:1 51:1 63:1 67:1 73:1 74:1 76:1 80:1 83:1 
-8 4:1 6:1 18:1 22:1 36:1 40:1 54:1 63:1 71:1 73:1 75:1 76:1 79:1 83:1 
-8 4:1 6:1 18:1 20:1 37:1 40:1 56:1 61:1 67:1 72:1 74:1 76:1 78:1 83:1 
-1.808118173799743 4:1 10:1 16:1 19:1 39:1 41:1 52:1 66:1 67:1 72:1 74:1 76:1 81:1 83:1 
-3.995749746513919 4:1 11:1 16:1 29:1 39:1 42:1 52:1 62:1 67:1 72:1 74:1 76:1 79:1 83:1 
-8 5:1 6:1 17:1 22:1 36:1 40:1 53:1 63:1 71:1 73:1 74:1 76:1 80:1 
-8 5:1 6:1 15:1 22:1 36:1 40:1 57:1 63:1 67:1 73:1 74:1 76:1 82:1 83:1 
-1.29849741209186 3:1 7:1 16:1 19:1 39:1 41:1 51:1 64:1 67:1 73:1 74:1 76:1 78:1 83:1 
-8 2:1 7:1 17:1 22:1 36:1 40:1 48:1 63:1 67:1 73:1 74:1 76:1 81:1 83:1 
-8 4:1 6:1 15:1 25:1 38:1 40:1 47:1 63:1 67:1 73:1 74:1 76:1 80:1 83:1 
-2.939323098478073 4:1 6:1 14:1 28:1 35:1 42:1 57:1 64:1 68:1 73:1 74:1 76:1 79:1 83:1 
-8 4:1 6:1 17:1 20:1 37:1 40:1 48:1 63:1 67:1 73:1 74:1 76:1 81:1 83:1 
-8 3:1 11:1 18:1 19:1 39:1 40:1 59:1 63:1 71:1 73:1 74:1 76:1 82:1 83:1 
-8 5:1 14:1 19:1 39:1 40:1 63:1 67:1 73:1 74:1 76:1 80:1 83:1 
-6.67420022193057 2:1 6:1 14:1 22:1 36:1 40:1 52:1 63:1 67:1 73:1 74:1 76:1 82:1 83:1 
-8 5:1 6:1 15:1 22:1 36:1 40:1 51:1 61:1 67:1 72:1 74:1 76:1 80:1 83:1 
-8 3:1 6:1 17:1 22:1 36:1 40:1 50:1 63:1 67:1 73:1 74:1 76:1 82:1 83:1 
-8 5:1 6:1 17:1 31:1 35:1 40:1 57:1 63:1 67:1 73:1 74:1 76:1 80:1 83:1 
-8 3:1 8:1 14:1 22:1 36:1 40:1 51:1 63:1 67:1 73:1 74:1 76:1 80:1 83:1 
-6.986216030102346 2:1 6:1 14:1 20:1 37:1 40:1 55:1 63:1 67:1 73:1 74:1 76:1 82:1 83:1 
-5.788784979789995 4:1 6:1 18:1 26:1 35:1 40:1 51:1 63:1 67:1 73:1 74:1 76:1 80:1 103:1 
-8 3:1 6:1 15:1 20:1 37:1 40:1 55:1 63:1 67:1 73:1 74:1 76:1 82:1 83:1 
-7.946209053634933 5:1 6:1 15:1 26:1 35:1 40:1 48:1 63:1 67:1 73:1 74:1 76:1 80:1 83:1 
-8 4:1 6:1 14:1 24:1 38:1 40:1 50:1 63:1 67:1 73:1 74:1 76:1 82:1 83:1 
-8 3:1 8:1 16:1 20:1 37:1 40:1 50:1 63:1 67:1 73:1 74:1 77:1 80:1 83:1 
-8 5:1 6:1 14:1 23:1 39:1 45:1 52:1 66:1 67:1 73:1 74:1 76:1 82:1 83:1 
-7.669254218996243 5:1 16:1 19:1 39:1 40:1 63:1 67:1 73:1 74:1 76:1 78:1 83:1 
-8 4:1 7:1 14:1 19:1 39:1 40:1 56:1 63:1 67:1 73:1 74:1 76:1 82:1 83:1 
-6.152539759431597 4:1 6:1 17:1 20:1 37:1 40:1 52:1 61:1 70:1 72:1 74:1 76:1 78:1 86:1 
-8 4:1 7:1 18:1 22:1 36:1 40:1 52:1 63:1 67:1 73:1 74:1 76:1 82:1 83:1 
-8 3:1 6:1 16:1 21:1 35:1 40:1 57:1 63:1 67:1 73:1 74:1 76:1 82:1 83:1 
-7.384098954685066 3:1 6:1 17:1 20:1 37:1 40:1 49:1 63:1 67:1 73:1 74:1 76:1 82:1 83:1 
-5.776458134888713 2:1 6:1 18:1 31:1 35:1 40:1 51:1 61:1 67:1 72:1 74:1 76:1 79:1 83:1 
-8 5:1 16:1 27:1 35:1 40:1 63:1 67:1 73:1 75:1 76:1 80:1 83:1 
-3.624020414591469 1:1 6:1 14:1 25:1 38:1 40:1 57:1 63:1 67:1 73:1 74:1 76:1 80:1 83:1 
-5.2106005590155 3:1 6:1 16:1 22:1 36:1 42:1 52:1 64:1 67:1 72:1 74:1 77:1 81:1 83:1 
-5.102976463009512 2:1 6:1 16:1 19:1 39:1 42:1 51:1 62:1 68:1 72:1 74:1 76:1 82:1 110:1 
-1.375941775995592 4:1 16:1 31:1 35:1 40:1 61:1 67:1 72:1 74:1 76:1 78:1 95:1 
-8 2:1 16:1 19:1 39:1 40:1 61:1 67:1 72:1 74:1 76:1 78:1 83:1 
-6.731182327373342 1:1 6:1 17:1 22:1 36:1 40:1 58:1 61:1 67:1 72:1 75:1 76:1 80:1 83:1 
-8 2:1 6:1 15:1 22:1 36:1 40:1 51:1 63:1 67:1 73:1 74:1 76:1 82:1 83:1 
-8 5:1 17:1 29:1 39:1 40:1 63:1 67:1 73:1 74:1 76:1 82:1 83:1 
-0.5795654670804388 4:1 6:1 17:1 19:1 39:1 42:1 52:1 64:1 71:1 73:1 74:1 76:1 80:1 83:1 
-5.663427191362395 4:1 9:1 17:1 25:1 38:1 41:1 47:1 64:1 67:1 73:1 74:1 76:1 80:1 83:1 
-4.513413969031382 5:1 18:1 31:1 35:1 41:1 64:1 67:1 73:1 75:1 76:1 80:1 83:1 
-8 4:1 6:1 14:1 20:1 37:1 40:1 48:1 63:1 67:1 73:1 74:1 76:1 80:1 83:1 
-8 5:1 6:1 16:1 23:1 39:1 42:1 52:1 64:1 67:1 73:1 74:1 76:1 82:1 83:1 
-8 4:1 6:1 15:1 22:1 36:1 40:1 51:1 61:1 67:1 72:1 74:1 76:1 80:1 83:1 
-6.124097032328502 2:1 6:1 16:1 22:1 36:1 41:1 48:1 64:1 67:1 73:1 74:1 76:1 82:1 83:1 
-0.1534643707300463 1:1 6:1 14:1 19:1 39:1 40:1 55:1 62:1 69:1 72:1 75:1 76:1 78:1 83:1 
-3.044973421279042 3:1 6:1 14:1 20:1 37:1 41:1 55:1 64:1 67:1 72:1 75:1 76:1 80:1 83:1 
-8 5:1 6:1 16:1 24:1 38:1 40:1 50:1 61:1 67:1 72:1 75:1 76:1 80:1 83:1 
-8 3:1 6:1 17:1 22:1 36:1 40:1 48:1 63:1 67:1 73:1 74:1 76:1 82:1 83:1 
-0.9447537224704173 5:1 6:1 15:1 20:1 37:1 41:1 54:1 64:1 67:1 73:1 74:1 76:1 82:1 83:1 
-8 4:1 6:1 18:1 29:1 39:1 40:1 50:1 63:1 67:1 73:1 74:1 76:1 80:1 109:1 
-8 1:1 6:1 18:1 20:1 37:1 40:1 55:1 63:1 67:1 73:1 74:1 76:1 81:1 83:1 
-6.599493209643277 5:1 7:1 18:1 24:1 38:1 40:1 50:1 63:1 67:1 73:1 74:1 76:1 82:1 83:1 
-4.561185411423451 3:1 9:1 16:1 19:1 39:1 42:1 52:1 62:1 67:1 72:1 74:1 76:1 80:1 83:1 
-8 5:1 6:1 16:1 22:1 36:1 40:1 54:1 63:1 67:1 73:1 74:1 76:1 82:1 83:1 
-8 5:1 15:1 22:1 36:1 40:1 63:1 67:1 73:1 74:1 76:1 80:1 83:1 
-8 3:1 11:1 18:1 19:1 39:1 40:1 51:1 63:1 67:1 73:1 74:1 76:1 79:1 83:1 
-8 5:1 7:1 16:1 22:1 36:1 40:1 48:1 63:1 67:1 73:1 75:1 76:1 78:1 83:1 
-8 3:1 6:1 17:1 22:1 36:1 40:1 48:1 63:1 67:1 73:1 74:1 76:1 80:1 83:1 
-8 2:1 10:1 15:1 19:1 39:1 40:1 52:1 63:1 67:1 73:1 74:1 76:1 82:1 83:1 
-6.997720507345877 5:1 6:1 18:1 26:1 35:1 40:1 54:1 63:1 71:1 73:1 75:1 76:1 80:1 83:1 
-0.5756117040670802 3:1 11:1 17:1 20:1 37:1 43:1 51:1 62:1 67:1 72:1 74:1 76:1 80:1 83:1 
-2.11946976946291 5:1 6:1 17:1 22:1 36:1 41:1 50:1 64:1 67:1 73:1 74:1 76:1 81:1 83:1 
-3.643544646927604 1:1 6:1 16:1 20:1 37:1 40:1 53:1 63:1 67:1 73:1 74:1 76:1 80:1 83:1 
-0.2191229056644485 3:1 9:1 15:1 19:1 39:1 42:1 55:1 62:1 67:1 73:1 74:1 76:1 79:1 83:1 
-8 3:1 10:1 15:1 20:1 37:1 40:1 49:1 61:1 67:1 72:1 74:1 76:1 80:1 83:1 
-5.538932309874352 5:1 6:1 15:1 33:1 35:1 40:1 54:1 63:1 67:1 73:1 74:1 77:1 80:1 83:1 
-8 5:1 6:1 15:1 22:1 36:1 40:1 48:1 63:1 67:1 73:1 74:1 76:1 80:1 83:1 
-1.593392880801441 5:1 7:1 15:1 20:1 37:1 40:1 49:1 63:1 67:1 73:1 74:1 76:1 82:1 83:1 
-8 3:1 6:1 17:1 22:1 36:1 40:1 53:1 63:1 67:1 73:1 74:1 76:1 80:1 83:1 
-8 2:1 6:1 17:1 22:1 36:1 40:1 53:1 63:1 67:1 73:1 74:1 76:1 80:1 83:1 
-8 5:1 6:1 15:1 22:1 36:1 40:1 57:1 63:1 67:1 73:1 74:1 76:1 82:1 83:1 
-8 2:1 6:1 17:1 22:1 36:1 40:1 55:1 63:1 67:1 73:1 74:1 76:1 82:1 83:1 
-8 5:1 6:1 16:1 20:1 37:1 40:1 56:1 63:1 67:1 73:1 74:1 76:1 80:1 83:1 
-6.539033762890318 2:1 7:1 15:1 20:1 37:1 40:1 50:1 63:1 67:1 73:1 74:1 76:1 82:1 83:1 
-8 5:1 6:1 18:1 19:1 39:1 40:1 50:1 63:1 67:1 73:1 74:1 76:1 78:1 
-5.710773214675877 5:1 6:1 16:1 22:1 36:1 40:1 51:1 61:1 67:1 72:1 74:1 76:1 82:1 85:1 
-8 3:1 6:1 14:1 19:1 39:1 40:1 51:1 61:1 67:1 72:1 74:1 76:1 80:1 83:1 
-0.8667436440474019 3:1 6:1 14:1 20:1 37:1 40:1 47:1 63:1 67:1 73:1 74:1 77:1 80:1 83:1 
-8 3:1 9:1 18:1 20:1 37:1 40:1 47:1 61:1 67:1 72:1 75:1 76:1 80:1 83:1 
-8 2:1 6:1 16:1 24:1 38:1 40:1 51:1 63:1 67:1 73:1 74:1 76:1 80:1 83:1 
-8 3:1 8:1 15:1 29:1 39:1 41:1 51:1 64:1 67:1 72:1 74:1 76:1 82:1 83:1 
-2.021724313360585 3:1 6:1 17:1 25:1 38:1 43:1 55:1 62:1 71:1 72:1 74:1 76:1 82:1 83:1 
-8 5:1 8:1 18:1 29:1 39:1 41:1 51:1 64:1 71:1 72:1 74:1 76:1 82:1 83:1 
-8 4:1 10:1 15:1 23:1 39:1 40:1 52:1 63:1 67:1 73:1 74:1 76:1 79:1 83:1 
-8 2:1 6:1 15:1 22:1 36:1 40:1 50:1 63:1 67:1 73:1 74:1 76:1 81:1 83:1 
-7.148345185734986 3:1 6:1 14:1 19:1 39:1 42:1 55:1 64:1 67:1 72:1 74:1 76:1 82:1 83:1 
-8 5:1 6:1 14:1 20:1 37:1 40:1 51:1 63:1 67:1 73:1 74:1 77:1 80:1 83:1 
-1.287790998641662 4:1 11:1 15:1 22:1 36:1 41:1 48:1 66:1 67:1 73:1 74:1 76:1 80:1 83:1 
-1.888309861767209 2:1 6:1 15:1 25:1 38:1 43:1 52:1 66:1 67:1 72:1 74:1 76:1 80:1 83:1 
-0.6363585563224953 3:1 6:1 16:1 22:1 36:1 40:1 50:1 61:1 67:1 72:1 74:1 76:1 78:1 83:1 
-8 5:1 6:1 15:1 20:1 37:1 40:1 48:1 63:1 67:1 73:1 74:1 76:1 82:1 83:1 
-8 4:1 10:1 15:1 29:1 39:1 41:1 52:1 66:1 71:1 72:1 74:1 76:1 80:1 83:1 
-8 5:1 7:1 16:1 22:1 36:1 40:1 51:1 63:1 67:1 73:1 74:1 76:1 78:1 83:1 
-8 3:1 6:1 14:1 22:1 36:1 42:1 53:1 64:1 67:1 73:1 75:1 76:1 82:1 83:1 
-8 4:1 6:1 16:1 25:1 38:1 40:1 48:1 63:1 67:1 73:1 74:1 76:1 82:1 83:1 
-8 4:1 10:1 14:1 24:1 38:1 40:1 52:1 63:1 67:1 73:1 74:1 76:1 82:1 83:1 
-8 3:1 6:1 15:1 19:1 39:1 40:1 51:1 63:1 67:1 73:1 74:1 76:1 81:1 83:1 
-5.057596260633444 2:1 10:1 16:1 25:1 38:1 42:1 59:1 64:1 67:1 73:1 74:1 76:1 82:1 83:1 
-4.609509504274875 1:1 6:1 18:1 19:1 39:1 42:1 50:1 64:1 67:1 72:1 74:1 76:1 82:1 83:1 
-8 3:1 6:1 14:1 22:1 36:1 40:1 57:1 63:1 67:1 73:1 75:1 76:1 80:1 83:1 
-8 4:1 6:1 16:1 31:1 35:1 40:1 50:1 63:1 67:1 73:1 74:1 77:1 82:1 83:1 
-8 5:1 7:1 14:1 22:1 36:1 40:1 56:1 63:1 67:1 73:1 74:1 76:1 82:1 83:1 
-1.009428005219791 2:1 6:1 16:1 19:1 39:1 42:1 47:1 64:1 67:1 72:1 74:1 76:1 79:1 83:1 
-8 3:1 7:1 17:1 22:1 36:1 40:1 56:1 63:1 67:1 73:1 74:1 76:1 81:1 83:1 
-6.423553703528926 2:1 6:1 17:1 20:1 37:1 42:1 57:1 64:1 71:1 73:1 75:1 76:1 82:1 83:1 
-8 5:1 10:1 18:1 25:1 38:1 40:1 57:1 63:1 71:1 73:1 74:1 76:1 80:1 83:1 
-3.485298644864567 2:1 6:1 15:1 22:1 36:1 40:1 50:1 61:1 67:1 72:1 74:1 76:1 78:1 83:1 
-8 5:1 6:1 14:1 27:1 35:1 40:1 48:1 63:1 67:1 73:1 74:1 76:1 80:1 83:1 
-4.645732534902866 1:1 6:1 16:1 22:1 36:1 40:1 48:1 63:1 67:1 73:1 74:1 77:1 80:1 83:1 
-8 2:1 11:1 16:1 32:1 39:1 42:1 52:1 64:1 67:1 72:1 74:1 76:1 82:1 83:1 
-8 4:1 6:1 16:1 20:1 37:1 41:1 55:1 64:1 67:1 72:1 74:1 76:1 81:1 83:1 
-8 5:1 9:1 14:1 19:1 39:1 40:1 51:1 63:1 67:1 73:1 74:1 76:1 80:1 83:1 
-0.6993362737298087 3:1 7:1 14:1 22:1 36:1 40:1 56:1 63:1 67:1 73:1 74:1 76:1 82:1 83:1 
-2.035468675731475 3:1 6:1 14:1 22:1 36:1 40:1 53:1 63:1 67:1 73:1 74:1 76:1 80:1 83:1 
-8 4:1 9:1 15:1 19:1 39:1 40:1 52:1 63:1 67:1 73:1 74:1 76:1 80:1 83:1 
-8 3:1 6:1 15:1 20:1 37:1 40:1 52:1 63:1 67:1 73:1 74:1 76:1 80:1 83:1 
-0.05997334223406232 5:1 7:1 15:1 20:1 37:1 43:1 50:1 64:1 67:1 73:1 74:1 76:1 79:1 83:1 
-2.32476694213653 3:1 6:1 18:1 19:1 39:1 41:1 51:1 64:1 67:1 72:1 74:1 76:1 80:1 83:1 
-3.894133773833917 3:1 6:1 16:1 19:1 39:1 42:1 49:1 64:1 68:1 72:1 74:1 76:1 79:1 117:1 
-2.777059180284625 5:1 10:1 15:1 24:1 38:1 41:1 49:1 64:1 67:1 72:1 75:1 76:1 78:1 83:1 
-8 4:1 8:1 14:1 19:1 39:1 41:1 52:1 66:1 67:1 73:1 75:1 76:1 81:1 83:1 
-1.327761372895845 3:1 6:1 16:1 21:1 35:1 42:1 48:1 62:1 67:1 73:1 75:1 76:1 80:1 83:1 
-8 3:1 10:1 17:1 24:1 38:1 40:1 52:1 63:1 67:1 73:1 74:1 76:1 82:1 83:1 
-8 4:1 6:1 14:1 22:1 36:1 40:1 55:1 63:1 67:1 73:1 74:1 76:1 78:1 83:1 
-8 3:1 10:1 14:1 20:1 37:1 40:1 59:1 63:1 67:1 73:1 74:1 76:1 82:1 83:1 
-7.619293842393823 3:1 6:1 18:1 22:1 36:1 40:1 50:1 63:1 67:1 73:1 74:1 76:1 82:1 83:1 
-8 3:1 6:1 16:1 22:1 36:1 40:1 54:1 63:1 67:1 73:1 74:1 76:1 80:1 83:1 
-4.938847200649247 3:1 6:1 14:1 20:1 37:1 40:1 48:1 63:1 67:1 73:1 74:1 76:1 82:1 83:1 
-8 1:1 7:1 14:1 19:1 39:1 40:1 51:1 61:1 67:1 72:1 74:1 76:1 80:1 83:1 
-8 4:1 10:1 16:1 19:1 39:1 40:1 52:1 63:1 67:1 73:1 74:1 76:1 82:1 83:1 
-0.7127713510692361 4:1 6:1 14:1 22:1 36:1 42:1 54:1 64:1 67:1 73:1 75:1 76:1 81:1 83:1 
-6.608996203972103 5:1 7:1 14:1 20:1 37:1 40:1 56:1 63:1 67:1 73:1 74:1 76:1 82:1 83:1 
-0.1654526553660799 2:1 6:1 16:1 29:1 39:1 42:1 52:1 64:1 67:1 73:1 74:1 76:1 80:1 83:1 
-8 5:1 10:1 14:1 20:1 37:1 40:1 57:1 63:1 67:1 73:1 74:1 76:1 80:1 83:1 
-8 3:1 9:1 18:1 29:1 39:1 42:1 47:1 64:1 67:1 72:1 74:1 76:1 80:1 83:1 
-5.64944877745415 2:1 6:1 17:1 22:1 36:1 41:1 47:1 66:1 67:1 72:1 75:1 76:1 79:1 83:1 
-8 4:1 7:1 14:1 20:1 37:1 40:1 48:1 63:1 67:1 73:1 74:1 76:1 80:1 83:1 
-8 4:1 6:1 17:1 22:1 36:1 40:1 54:1 63:1 67:1 73:1 74:1 76:1 80:1 83:1 
-8 2:1 6:1 15:1 19:1 39:1 40:1 51:1 63:1 67:1 73:1 74:1 76:1 81:1 83:1 
-8 3:1 6:1 14:1 25:1 38:1 40:1 55:1 63:1 67:1 73:1 74:1 76:1 80:1 83:1 
-4.808035368465781 5:1 7:1 15:1 22:1 36:1 40:1 57:1 63:1 67:1 73:1 74:1 76:1 82:1 83:1 
-8 4:1 6:1 15:1 19:1 39:1 42:1 55:1 64:1 67:1 73:1 74:1 76:1 82:1 83:1 
-6.971691060005778 5:1 9:1 16:1 25:1 38:1 42:1 47:1 64:1 67:1 73:1 74:1 76:1 80:1 83:1 
-5.348956489718434 4:1 10:1 18:1 19:1 39:1 42:1 52:1 62:1 67:1 73:1 74:1 76:1 82:1 83:1 
-5.303773522491989 1:1 11:1 17:1 20:1 37:1 40:1 55:1 63:1 71:1 73:1 74:1 76:1 79:1 83:1 
-0.2801586685629281 5:1 6:1 18:1 22:1 36:1 40:1 54:1 61:1 67:1 72:1 75:1 76:1 80:1 119:1 
-2.658915052813615 5:1 8:1 14:1 22:1 36:1 45:1 50:1 64:1 67:1 73:1 74:1 76:1 82:1 83:1 
-4.082707895367872 2:1 6:1 14:1 29:1 39:1 42:1 51:1 64:1 67:1 72:1 74:1 76:1 82:1 83:1 
-0.1278562850912169 5:1 11:1 14:1 29:1 39:1 41:1 52:1 64:1 67:1 72:1 74:1 76:1 79:1 83:1 
-8 3:1 6:1 15:1 22:1 36:1 40:1 51:1 63:1 67:1 73:1 74:1 76:1 82:1 83:1 
-8 5:1 7:1 18:1 31:1 35:1 40:1 50:1 63:1 67:1 73:1 74:1 76:1 79:1 83:1 
-8 5:1 6:1 16:1 22:1 36:1 40:1 54:1 63:1 67:1 73:1 75:1 76:1 81:1 83:1 
-2.832333301645514 3:1 6:1 14:1 20:1 37:1 43:1 49:1 64:1 67:1 72:1 75:1 76:1 82:1 83:1 
-0.7686448527562153 5:1 7:1 14:1 22:1 36:1 44:1 56:1 64:1 67:1 73:1 74:1 76:1 82:1 83:1 
-8 4:1 6:1 14:1 20:1 37:1 40:1 48:1 63:1 67:1 73:1 74:1 76:1 82:1 83:1 
-8 3:1 6:1 18:1 25:1 38:1 40:1 56:1 63:1 67:1 73:1 74:1 76:1 82:1 83:1 
-3.182766815883273 2:1 6:1 16:1 19:1 39:1 42:1 52:1 64:1 67:1 73:1 74:1 76:1 82:1 83:1 
-8 5:1 11:1 14:1 19:1 39:1 45:1 52:1 64:1 67:1 73:1 75:1 76:1 80:1 83:1 
-5.43232112029353 4:1 6:1 18:1 20:1 37:1 41:1 50:1 66:1 67:1 73:1 74:1 76:1 81:1 83:1 
-8 4:1 10:1 15:1 22:1 36:1 40:1 59:1 63:1 67:1 73:1 74:1 76:1 82:1 83:1 
-8 3:1 6:1 15:1 25:1 38:1 40:1 48:1 63:1 67:1 73:1 74:1 76:1 80:1 83:1 
-6.035593652603073 2:1 6:1 16:1 19:1 39:1 42:1 51:1 64:1 67:1 73:1 74:1 76:1 80:1 83:1 
-1.728594417482344 4:1 6:1 15:1 24:1 38:1 43:1 51:1 64:1 67:1 73:1 74:1 76:1 80:1 83:1 
-8 2:1 6:1 15:1 32:1 39:1 40:1 52:1 61:1 67:1 72:1 74:1 76:1 82:1 83:1 
-8 5:1 6:1 14:1 20:1 37:1 40:1 51:1 61:1 67:1 72:1 74:1 76:1 81:1 83:1 
-6.863690311086552 4:1 6:1 14:1 22:1 36:1 40:1 56:1 63:1 67:1 73:1 74:1 76:1 80:1 83:1 
-8 5:1 8:1 15:1 22:1 36:1 40:1 50:1 63:1 67:1 73:1 74:1 76:1 82:1 83:1 
-8 4:1 8:1 15:1 19:1 39:1 40:1 51:1 63:1 67:1 73:1 74:1 76:1 80:1 
-7.850151708261936 3:1 6:1 15:1 22:1 36:1 40:1 57:1 63:1 67:1 73:1 74:1 77:1 80:1 83:1 
-8 3:1 6:1 18:1 19:1 39:1 42:1 50:1 64:1 67:1 73:1 74:1 76:1 82:1 83:1 
-1.845076833371898 1:1 6:1 16:1 31:1 35:1 40:1 49:1 63:1 67:1 73:1 75:1 76:1 80:1 83:1 
-2.148353190390339 5:1 18:1 22:1 36:1 40:1 63:1 67:1 73:1 74:1 76:1 80:1 83:1 
-3.900995365485328 4:1 6:1 14:1 19:1 39:1 44:1 48:1 66:1 71:1 72:1 75:1 76:1 80:1 83:1 
-8 3:1 6:1 16:1 22:1 36:1 40:1 54:1 61:1 67:1 72:1 74:1 76:1 82:1 83:1 
-8 5:1 10:1 14:1 22:1 36:1 40:1 57:1 63:1 67:1 73:1 74:1 76:1 80:1 83:1 
-7.240367439633226 3:1 6:1 15:1 22:1 36:1 40:1 54:1 63:1 67:1 73:1 74:1 76:1 80:1 83:1 
-1.095403961770353 4:1 6:1 14:1 21:1 35:1 40:1 49:1 61:1 67:1 72:1 74:1 76:1 80:1 83:1 
-8 4:1 6:1 17:1 22:1 36:1 40:1 48:1 63:1 71:1 73:1 74:1 76:1 80:1 83:1 
-8 3:1 6:1 18:1 19:1 39:1 42:1 51:1 64:1 67:1 72:1 75:1 76:1 82:1 83:1 
-0.4874141326089234 2:1 6:1 17:1 22:1 36:1 43:1 51:1 64:1 67:1 73:1 74:1 76:1 80:1 
-8 5:1 6:1 15:1 22:1 36:1 40:1 48:1 63:1 67:1 73:1 75:1 76:1 80:1 83:1 
-2.028742567342091 5:1 6:1 18:1 28:1 35:1 40:1 48:1 63:1 67:1 73:1 74:1 76:1 80:1 112:1 
-0.5201925509655726 3:1 6:1 15:1 19:1 39:1 44:1 51:1 66:1 67:1 72:1 74:1 76:1 80:1 83:1 
-8 5:1 10:1 14:1 24:1 38:1 40:1 55:1 61:1 67:1 72:1 74:1 77:1 78:1 83:1 
-8 5:1 6:1 14:1 22:1 36:1 40:1 50:1 61:1 67:1 72:1 74:1 76:1 79:1 83:1 
-8 5:1 6:1 17:1 20:1 37:1 40:1 50:1 63:1 67:1 73:1 74:1 76:1 78:1 83:1 
-8 4:1 6:1 15:1 31:1 35:1 40:1 57:1 63:1 67:1 73:1 74:1 76:1 82:1 83:1 
-8 3:1 6:1 16:1 19:1 39:1 40:1 48:1 63:1 67:1 73:1 74:1 76:1 80:1 83:1 
-0.3342436894557865 3:1 6:1 17:1 26:1 35:1 40:1 53:1 63:1 67:1 73:1 74:1 76:1 80:1 83:1 
-5.038794779283314 3:1 6:1 16:1 24:1 38:1 40:1 59:1 63:1 71:1 73:1 74:1 76:1 82:1 83:1 
-8 4:1 17:1 22:1 36:1 40:1 63:1 67:1 73:1 74:1 76:1 80:1 83:1 
-8 2:1 6:1 18:1 19:1 39:1 40:1 51:1 63:1 67:1 73:1 74:1 76:1 82:1 83:1 
-1.67571676916897 4:1 10:1 16:1 22:1 36:1 45:1 55:1 66:1 71:1 72:1 74:1 76:1 80:1 83:1 
-5.088185402777604 3:1 6:1 17:1 22:1 36:1 41:1 47:1 62:1 67:1 73:1 74:1 76:1 81:1 83:1 
-3.566844838507831 5:1 9:1 15:1 19:1 39:1 44:1 55:1 64:1 67:1 72:1 74:1 76:1 80:1 83:1 
-4.429698061219545 2:1 7:1 14:1 29:1 39:1 42:1 52:1 64:1 67:1 73:1 74:1 76:1 81:1 85:1 
-8 5:1 6:1 15:1 22:1 36:1 40:1 51:1 63:1 67:1 73:1 74:1 76:1 80:1 83:1 
-0.1999997410486286 4:1 6:1 14:1 22:1 36:1 41:1 49:1 64:1 67:1 73:1 74:1 77:1 80:1 83:1 
-4.557171433946317 3:1 6:1 17:1 24:1 38:1 40:1 51:1 63:1 67:1 73:1 74:1 76:1 80:1 86:1 
-8 4:1 6:1 16:1 20:1 37:1 41:1 50:1 66:1 67:1 73:1 74:1 76:1 82:1 83:1 
-6.644113150803074 5:1 15:1 22:1 36:1 42:1 64:1 67:1 73:1 74:1 77:1 79:1 83:1 
-0.4513837441408241 2:1 6:1 15:1 33:1 35:1 40:1 54:1 63:1 67:1 73:1 75:1 76:1 80:1 103:1 
-2.75145751017055 4:1 10:1 17:1 22:1 36:1 40:1 57:1 63:1 71:1 73:1 74:1 76:1 80:1 83:1 
-8 4:1 6:1 14:1 19:1 39:1 40:1 50:1 63:1 67:1 73:1 74:1 76:1 81:1 83:1 
-8 4:1 6:1 14:1 29:1 39:1 44:1 52:1 64:1 67:1 72:1 75:1 76:1 82:1 83:1 
-2.290605289822501 5:1 16:1 22:1 36:1 40:1 63:1 67:1 73:1 75:1 76:1 78:1 83:1 
-8 5:1 6:1 16:1 21:1 35:1 40:1 54:1 63:1 67:1 73:1 74:1 76:1 80:1 83:1 
-4.995076009661472 4:1 6:1 15:1 22:1 36:1 40:1 54:1 63:1 71:1 73:1 74:1 76:1 80:1 83:1 
-8 4:1 6:1 14:1 32:1 39:1 42:1 52:1 64:1 67:1 73:1 74:1 76:1 81:1 83:1 
-8 5:1 6:1 18:1 19:1 39:1 40:1 52:1 63:1 67:1 73:1 74:1 76:1 82:1 83:1 
-5.405630831685439 4:1 6:1 16:1 22:1 36:1 40:1 48:1 63:1 68:1 73:1 74:1 76:1 80:1 110:1 
-8 2:1 8:1 14:1 19:1 39:1 40:1 50:1 63:1 67:1 73:1 74:1 76:1 80:1 83:1 
-8 5:1 10:1 14:1 19:1 39:1 40:1 52:1 61:1 67:1 72:1 74:1 76:1 80:1 83:1 
-8 4:1 6:1 14:1 19:1 39:1 40:1 54:1 63:1 67:1 73:1 74:1 76:1 80:1 
-7.94318129891577 4:1 10:1 17:1 22:1 36:1 40:1 57:1 63:1 67:1 73:1 74:1 76:1 80:1 83:1 
-8 3:1 11:1 14:1 20:1 37:1 40:1 51:1 63:1 67:1 73:1 74:1 76:1 79:1 83:1 
-7.028432693177364 5:1 6:1 18:1 22:1 36:1 41:1 55:1 64:1 68:1 72:1 74:1 76:1 80:1 91:1 
-8 3:1 6:1 14:1 19:1 39:1 40:1 50:1 61:1 67:1 73:1 74:1 76:1 82:1 
-2.822055809349992 5:1 9:1 14:1 22:1 36:1 42:1 55:1 64:1 71:1 72:1 74:1 76:1 80:1 83:1 
-8 3:1 6:1 17:1 22:1 36:1 40:1 48:1 63:1 67:1 73:1 74:1 76:1 80:1 83:1 
-2.834915023913062 3:1 11:1 17:1 29:1 39:1 40:1 52:1 63:1 68:1 73:1 74:1 76:1 78:1 90:1 
-8 4:1 6:1 17:1 19:1 39:1 41:1 51:1 64:1 67:1 73:1 74:1 76:1 79:1 83:1 
-8 2:1 8:1 15:1 22:1 36:1 40:1 50:1 63:1 67:1 73:1 74:1 76:1 82:1 83:1 
-8 5:1 6:1 14:1 22:1 36:1 40:1 51:1 63:1 67:1 73:1 74:1 76:1 82:1 83:1 
-8 3:1 6:1 15:1 22:1 36:1 40:1 50:1 63:1 67:1 73:1 74:1 76:1 82:1 83:1 
-1.426730192155903 4:1 11:1 16:1 20:1 37:1 41:1 55:1 64:1 67:1 72:1 74:1 76:1 80:1 83:1 
-8 4:1 6:1 18:1 22:1 36:1 40:1 57:1 63:1 67:1 73:1 75:1 76:1 81:1 83:1 
-4.883111759077787 5:1 6:1 16:1 22:1 36:1 41:1 59:1 64:1 67:1 73:1 74:1 76:1 80:1 83:1 
-1.501398061285484 5:1 10:1 18:1 19:1 39:1 44:1 52:1 64:1 71:1 72:1 74:1 77:1 78:1 83:1 
-8 4:1 6:1 17:1 22:1 36:1 40:1 55:1 63:1 67:1 73:1 74:1 76:1 80:1 83:1 
-8 4:1 10:1 18:1 20:1 37:1 40:1 51:1 63:1 67:1 73:1 74:1 76:1 80:1 83:1 
-0.7636257767817786 2:1 7:1 15:1 19:1 39:1 41:1 48:1 64:1 67:1 73:1 74:1 76:1 82:1 83:1 
-8 5:1 6:1 16:1 27:1 35:1 40:1 53:1 63:1 67:1 73:1 75:1 76:1 78:1 83:1 
-2.952892370897077 5:1 7:1 17:1 22:1 36:1 40:1 56:1 63:1 67:1 73:1 74:1 76:1 80:1 83:1 
-8 4:1 10:1 15:1 32:1 39:1 42:1 52:1 66:1 67:1 72:1 74:1 76:1 80:1 83:1 
-8 2:1 6:1 17:1 20:1 37:1 40:1 47:1 61:1 67:1 72:1 74:1 76:1 80:1 83:1 
-8 5:1 6:1 16:1 22:1 36:1 40:1 48:1 63:1 67:1 73:1 74:1 76:1 80:1 83:1 
-8 2:1 6:1 15:1 20:1 37:1 40:1 51:1 61:1 67:1 72:1 74:1 76:1 80:1 83:1 
-8 5:1 6:1 17:1 19:1 39:1 43:1 55:1 66:1 67:1 72:1 74:1 76:1 80:1 83:1 
-8 2:1 6:1 16:1 22:1 36:1 40:1 53:1 63:1 67:1 73:1 74:1 76:1 80:1 83:1 
-8 5:1 6:1 16:1 29:1 39:1 40:1 53:1 63:1 67:1 73:1 74:1 76:1 81:1 83:1 
-8 5:1 10:1 14:1 20:1 37:1 40:1 59:1 63:1 67:1 73:1 75:1 76:1 81:1 83:1 
-8 5:1 6:1 18:1 20:1 37:1 40:1 57:1 63:1 67:1 73:1 75:1 76:1 80:1 83:1 
-6.528748508870449 3:1 6:1 14:1 21:1 35:1 40:1 54:1 63:1 67:1 73:1 74:1 76:1 80:1 83:1 
-6.5959933331757 4:1 10:1 18:1 20:1 37:1 41:1 59:1 66:1 67:1 72:1 74:1 76:1 80:1 83:1 
-8 2:1 6:1 18:1 22:1 36:1 40:1 57:1 63:1 67:1 73:1 75:1 76:1 81:1 83:1 
-1.425082958042974 2:1 6:1 17:1 20:1 37:1 40:1 54:1 63:1 67:1 73:1 74:1 76:1 80:1 83:1 
-8 2:1 6:1 14:1 25:1 38:1 40:1 54:1 63:1 67:1 73:1 74:1 76:1 80:1 83:1 
-8 3:1 6:1 16:1 20:1 37:1 41:1 51:1 64:1 67:1 73:1 74:1 76:1 79:1 83:1 
-8 4:1 11:1 15:1 20:1 37:1 40:1 51:1 63:1 67:1 73:1 74:1 77:1 80:1 83:1 
-8 5:1 6:1 16:1 22:1 36:1 40:1 50:1 63:1 67:1 73:1 74:1 76:1 82:1 83:1 
-8 5:1 6:1 17:1 22:1 36:1 40:1 49:1 63:1 67:1 73:1 74:1 76:1 80:1 83:1 
-4.488704648988699 3:1 6:1 16:1 21:1 35:1 40:1 48:1 63:1 67:1 73:1 74:1 76:1 79:1 83:1 
-6.648640192838838 4:1 6:1 17:1 19:1 39:1 40:1 52:1 63:1 67:1 73:1 74:1 76:1 80:1 88:1 
-6.864905965428985 4:1 6:1 17:1 20:1 37:1 40:1 51:1 63:1 67:1 73:1 74:1 76:1 80:1 86:1 
-1.320509099888872 3:1 7:1 14:1 22:1 36:1 40:1 57:1 63:1 67:1 73:1 74:1 76:1 82:1 83:1 
-8 3:1 6:1 18:1 19:1 39:1 41:1 51:1 64:1 67:1 73:1 74:1 77:1 80:1 83:1 
-8 5:1 10:1 17:1 22:1 36:1 40:1 59:1 63:1 67:1 73:1 75:1 76:1 80:1 83:1 
-4.320609142116726 2:1 6:1 16:1 22:1 36:1 40:1 54:1 63:1 67:1 73:1 74:1 76:1 80:1 83:1 
-8 4:1 6:1 14:1 25:1 38:1 40:1 49:1 63:1 67:1 73:1 74:1 76:1 81:1 83:1 
-1.095868648333968 3:1 6:1 17:1 20:1 37:1 40:1 53:1 63:1 71:1 73:1 74:1 76:1 80:1 83:1 
-8 2:1 6:1 16:1 20:1 37:1 40:1 51:1 63:1 67:1 73:1 74:1 76:1 80:1 83:1 
-8 3:1 6:1 18:1 29:1 39:1 42:1 51:1 66:1 67:1 73:1 74:1 76:1 80:1 83:1 
-8 2:1 6:1 18:1 20:1 37:1 40:1 57:1 63:1 67:1 73:1 74:1 76:1 82:1 83:1 
-6.478112327786537 2:1 7:1 14:1 19:1 39:1 42:1 51:1 64:1 67:1 73:1 74:1 76:1 82:1 83:1 
-8 4:1 6:1 16:1 25:1 38:1 40:1 48:1 63:1 67:1 73:1 74:1 76:1 82:1 83:1 
-2.369195549283229 3:1 6:1 18:1 31:1 35:1 41:1 54:1 64:1 71:1 73:1 74:1 76:1 82:1 83:1 
-8 5:1 6:1 16:1 29:1 39:1 40:1 51:1 61:1 67:1 72:1 74:1 76:1 82:1 83:1 
-8 2:1 6:1 17:1 22:1 36:1 40:1 55:1 63:1 67:1 73:1 74:1 76:1 79:1 83:1 
-8 2:1 6:1 17:1 21:1 35:1 40:1 53:1 63:1 67:1 73:1 75:1 76:1 80:1 83:1 
-8 4:1 6:1 15:1 20:1 37:1 43:1 48:1 64:1 67:1 73:1 74:1 77:1 82:1 83:1 
-3.3834304087532 2:1 18:1 20:1 37:1 40:1 61:1 67:1 72:1 74:1 76:1 78:1 83:1 
-8 4:1 6:1 16:1 22:1 36:1 40:1 48:1 63:1 67:1 73:1 74:1 77:1 80:1 83:1 
-8 4:1 6:1 16:1 29:1 39:1 40:1 52:1 63:1 67:1 73:1 74:1 76:1 80:1 83:1 
-2.41385928660292 5:1 6:1 17:1 29:1 39:1 41:1 52:1 64:1 67:1 73:1 74:1 76:1 78:1 83:1 
-2.42701512216538 5:1 15:1 20:1 37:1 40:1 63:1 67:1 73:1 74:1 76:1 78:1 83:1 
-1.089923411140912 4:1 7:1 14:1 22:1 36:1 41:1 51:1 66:1 67:1 72:1 74:1 76:1 82:1 83:1 
-5.186990026647398 4:1 8:1 15:1 19:1 39:1 41:1 51:1 64:1 67:1 72:1 74:1 76:1 82:1 83:1 
-2.184584763019211 2:1 6:1 14:1 22:1 36:1 40:1 53:1 63:1 67:1 73:1 74:1 76:1 80:1 83:1 
-6.421096982982094 4:1 6:1 18:1 22:1 36:1 40:1 54:1 63:1 67:1 73:1 74:1 76:1 80:1 83:1 
-2.654948855825822 2:1 11:1 18:1 19:1 39:1 40:1 52:1 63:1 67:1 73:1 74:1 76:1 78:1 83:1 
-8 3:1 6:1 16:1 19:1 39:1 42:1 50:1 64:1 67:1 72:1 74:1 77:1 80:1 83:1 
-0.4450121572204669 5:1 11:1 17:1 19:1 39:1 41:1 55:1 64:1 71:1 72:1 74:1 76:1 79:1 83:1 
-8 5:1 7:1 14:1 22:1 36:1 40:1 56:1 63:1 67:1 73:1 75:1 76:1 80:1 83:1 
-0.586622739471925 5:1 6:1 15:1 25:1 38:1 41:1 52:1 66:1 67:1 72:1 74:1 76:1 80:1 83:1 
-8 2:1 6:1 16:1 20:1 37:1 40:1 50:1 63:1 67:1 73:1 74:1 76:1 80:1 83:1 
-0.3218561027718566 2:1 6:1 15:1 20:1 37:1 40:1 49:1 61:1 67:1 72:1 74:1 76:1 80:1 83:1 
-6.99719513168084 4:1 7:1 15:1 24:1 38:1 40:1 48:1 63:1 67:1 73:1 74:1 77:1 82:1 83:1 
-1.951181834515746 2:1 6:1 16:1 22:1 36:1 40:1 48:1 63:1 67:1 73:1 74:1 76:1 81:1 83:1 
-8 3:1 6:1 16:1 19:1 39:1 40:1 52:1 63:1 71:1 73:1 74:1 76:1 82:1 
-8 2:1 6:1 14:1 22:1 36:1 40:1 47:1 61:1 67:1 72:1 74:1 76:1 80:1 83:1 
-1.521622092685372 5:1 6:1 15:1 22:1 36:1 40:1 49:1 61:1 67:1 72:1 74:1 76:1 78:1 83:1 
-5.219710173735784 3:1 6:1 16:1 19:1 39:1 44:1 52:1 66:1 67:1 72:1 74:1 76:1 81:1 83:1 
-1.196949938653998 3:1 6:1 16:1 22:1 36:1 41:1 57:1 66:1 67:1 73:1 74:1 76:1 81:1 83:1 
-8 5:1 6:1 17:1 20:1 37:1 40:1 50:1 63:1 67:1 73:1 74:1 76:1 80:1 83:1 
-4.420653161325445 2:1 6:1 15:1 23:1 39:1 42:1 52:1 62:1 68:1 73:1 74:1 76:1 80:1 83:1 
-5.193699218172246 4:1 10:1 18:1 25:1 38:1 41:1 51:1 64:1 67:1 72:1 74:1 76:1 79:1 83:1 
-1.833698274051909 3:1 6:1 16:1 27:1 35:1 40:1 47:1 63:1 67:1 73:1 74:1 76:1 80:1 103:1 
-8 2:1 8:1 17:1 19:1 39:1 40:1 48:1 63:1 67:1 73:1 74:1 76:1 82:1 87:1 
-8 3:1 11:1 15:1 19:1 39:1 40:1 50:1 63:1 67:1 73:1 74:1 76:1 80:1 83:1 
-8 4:1 10:1 16:1 22:1 36:1 40:1 48:1 63:1 67:1 73:1 74:1 76:1 80:1 83:1 
-8 5:1 6:1 16:1 22:1 36:1 40:1 57:1 63:1 67:1 73:1 74:1 76:1 82:1 83:1 
-8 5:1 6:1 14:1 19:1 39:1 40:1 47:1 63:1 67:1 73:1 74:1 76:1 80:1 83:1 
-8 2:1 6:1 18:1 19:1 39:1 40:1 51:1 63:1 67:1 73:1 74:1 76:1 80:1 83:1 
-8 4:1 7:1 17:1 25:1 38:1 40:1 52:1 63:1 67:1 73:1 74:1 76:1 78:1 83:1 
-4.789436672246607 5:1 6:1 18:1 26:1 35:1 40:1 49:1 63:1 71:1 73:1 74:1 76:1 81:1 83:1 
-5.708616172604549 5:1 11:1 17:1 27:1 35:1 40:1 49:1 61:1 71:1 72:1 74:1 76:1 80:1 83:1 
-8 2:1 6:1 15:1 22:1 36:1 40:1 54:1 61:1 67:1 72:1 74:1 76:1 80:1 83:1 
-3.956962148751338 2:1 6:1 15:1 29:1 39:1 42:1 47:1 64:1 68:1 73:1 74:1 76:1 78:1 110:1 
