svm_type c_svc
kernel_type rbf
gamma 0.00195313
nr_class 2
total_sv 1220
rho 0.0870221
label 1 -1
nr_sv 599 621
SV
32 3:1 6:1 17:1 20:1 37:1 40:1 50:1 63:1 67:1 73:1 74:1 76:1 82:1 83:1 
32 3:1 6:1 18:1 27:1 35:1 40:1 54:1 63:1 67:1 73:1 74:1 76:1 80:1 103:1 
32 5:1 11:1 15:1 32:1 39:1 40:1 52:1 63:1 67:1 73:1 74:1 76:1 78:1 83:1 
32 4:1 6:1 16:1 20:1 37:1 40:1 48:1 63:1 67:1 73:1 75:1 76:1 80:1 83:1 
32 2:1 6:1 17:1 22:1 36:1 40:1 57:1 63:1 67:1 73:1 74:1 76:1 81:1 83:1 
32 5:1 18:1 19:1 39:1 40:1 63:1 67:1 73:1 74:1 76:1 80:1 83:1 
32 5:1 11:1 18:1 19:1 39:1 40:1 59:1 63:1 67:1 73:1 74:1 76:1 80:1 83:1 
32 3:1 6:1 14:1 28:1 35:1 41:1 48:1 64:1 67:1 73:1 74:1 76:1 82:1 83:1 
32 4:1 8:1 17:1 20:1 37:1 40:1 48:1 63:1 67:1 73:1 74:1 76:1 82:1 83:1 
32 2:1 6:1 15:1 19:1 39:1 40:1 47:1 61:1 67:1 72:1 74:1 76:1 78:1 83:1 
32 4:1 6:1 14:1 24:1 38:1 40:1 51:1 61:1 67:1 72:1 74:1 76:1 82:1 83:1 
32 5:1 6:1 14:1 27:1 35:1 42:1 57:1 64:1 67:1 73:1 74:1 76:1 82:1 83:1 
32 5:1 6:1 18:1 29:1 39:1 40:1 48:1 63:1 67:1 73:1 74:1 76:1 80:1 83:1 
32 4:1 6:1 16:1 22:1 36:1 40:1 54:1 63:1 67:1 73:1 74:1 76:1 80:1 83:1 
32 5:1 6:1 17:1 22:1 36:1 40:1 57:1 63:1 67:1 73:1 75:1 76:1 80:1 83:1 
32 4:1 6:1 17:1 19:1 39:1 40:1 50:1 63:1 67:1 73:1 74:1 76:1 82:1 83:1 
32 3:1 6:1 17:1 19:1 39:1 42:1 50:1 64:1 70:1 72:1 74:1 76:1 82:1 83:1 
32 4:1 6:1 14:1 29:1 39:1 42:1 47:1 64:1 67:1 73:1 74:1 76:1 79:1 83:1 
32 5:1 6:1 15:1 22:1 36:1 40:1 49:1 63:1 67:1 73:1 74:1 76:1 80:1 83:1 
32 3:1 6:1 16:1 21:1 35:1 40:1 54:1 63:1 67:1 73:1 75:1 76:1 81:1 83:1 
32 4:1 6:1 16:1 22:1 36:1 40:1 55:1 63:1 67:1 73:1 74:1 76:1 82:1 83:1 
32 5:1 7:1 18:1 19:1 39:1 40:1 50:1 63:1 67:1 73:1 74:1 76:1 80:1 87:1 
32 5:1 8:1 17:1 25:1 38:1 40:1 54:1 63:1 67:1 73:1 74:1 77:1 82:1 
32 3:1 6:1 14:1 29:1 39:1 42:1 52:1 64:1 67:1 73:1 74:1 76:1 81:1 83:1 
32 5:1 6:1 15:1 22:1 36:1 40:1 50:1 63:1 67:1 73:1 74:1 76:1 82:1 83:1 
32 5:1 6:1 15:1 20:1 37:1 40:1 57:1 63:1 67:1 73:1 74:1 76:1 78:1 83:1 
32 3:1 6:1 17:1 22:1 36:1 40:1 51:1 63:1 67:1 73:1 74:1 76:1 80:1 83:1 
32 5:1 6:1 15:1 22:1 36:1 40:1 57:1 63:1 67:1 73:1 74:1 76:1 82:1 83:1 
32 3:1 6:1 18:1 22:1 36:1 40:1 51:1 63:1 67:1 73:1 74:1 76:1 82:1 83:1 
32 4:1 6:1 18:1 22:1 36:1 40:1 48:1 63:1 71:1 73:1 74:1 76:1 82:1 83:1 
32 2:1 7:1 16:1 25:1 38:1 40:1 52:1 63:1 67:1 73:1 75:1 76:1 82:1 83:1 
32 4:1 6:1 15:1 20:1 37:1 40:1 48:1 63:1 67:1 73:1 74:1 77:1 82:1 83:1 
32 5:1 15:1 19:1 39:1 44:1 64:1 67:1 72:1 75:1 76:1 78:1 83:1 
32 2:1 6:1 18:1 22:1 36:1 40:1 50:1 63:1 67:1 73:1 74:1 76:1 82:1 83:1 
32 5:1 6:1 16:1 20:1 37:1 40:1 51:1 63:1 67:1 73:1 74:1 76:1 82:1 83:1 
32 5:1 8:1 16:1 20:1 37:1 40:1 50:1 63:1 67:1 73:1 74:1 76:1 82:1 83:1 
32 5:1 6:1 18:1 22:1 36:1 40:1 54:1 63:1 71:1 73:1 74:1 77:1 80:1 83:1 
32 2:1 6:1 16:1 20:1 37:1 40:1 47:1 63:1 67:1 73:1 75:1 76:1 80:1 83:1 
32 4:1 6:1 16:1 22:1 36:1 40:1 49:1 61:1 71:1 72:1 74:1 76:1 80:1 83:1 
32 4:1 6:1 14:1 20:1 37:1 40:1 47:1 63:1 67:1 73:1 74:1 76:1 78:1 83:1 
32 2:1 6:1 16:1 20:1 37:1 40:1 51:1 63:1 67:1 73:1 74:1 76:1 80:1 83:1 
32 5:1 10:1 16:1 29:1 39:1 40:1 52:1 63:1 67:1 73:1 74:1 76:1 80:1 83:1 
32 5:1 6:1 16:1 19:1 39:1 40:1 50:1 63:1 67:1 73:1 74:1 76:1 81:1 83:1 
32 4:1 11:1 17:1 19:1 39:1 41:1 51:1 64:1 67:1 72:1 74:1 76:1 80:1 83:1 
32 4:1 6:1 14:1 20:1 37:1 45:1 52:1 64:1 67:1 73:1 74:1 76:1 80:1 83:1 
32 3:1 7:1 18:1 19:1 39:1 40:1 50:1 63:1 67:1 73:1 74:1 76:1 81:1 83:1 
32 5:1 16:1 19:1 39:1 40:1 63:1 67:1 73:1 74:1 77:1 80:1 83:1 
32 5:1 14:1 29:1 39:1 40:1 63:1 71:1 73:1 74:1 76:1 80:1 83:1 
32 4:1 6:1 16:1 22:1 36:1 40:1 57:1 63:1 67:1 73:1 74:1 76:1 82:1 83:1 
32 4:1 6:1 18:1 19:1 39:1 40:1 51:1 63:1 67:1 73:1 74:1 76:1 80:1 83:1 
32 5:1 6:1 14:1 20:1 37:1 40:1 47:1 63:1 67:1 73:1 74:1 76:1 81:1 83:1 
32 2:1 6:1 14:1 22:1 36:1 40:1 48:1 63:1 67:1 73:1 74:1 76:1 80:1 83:1 
32 2:1 7:1 15:1 23:1 39:1 42:1 52:1 62:1 67:1 73:1 74:1 76:1 82:1 99:1 
32 5:1 6:1 17:1 20:1 37:1 40:1 51:1 63:1 67:1 73:1 74:1 76:1 79:1 83:1 
32 5:1 10:1 17:1 21:1 35:1 40:1 48:1 63:1 71:1 73:1 74:1 76:1 80:1 83:1 
32 4:1 6:1 15:1 20:1 37:1 40:1 48:1 63:1 67:1 73:1 74:1 76:1 82:1 83:1 
32 4:1 6:1 15:1 22:1 36:1 40:1 50:1 63:1 67:1 73:1 74:1 76:1 82:1 83:1 
32 5:1 6:1 17:1 25:1 38:1 40:1 51:1 63:1 67:1 73:1 74:1 76:1 80:1 88:1 
32 3:1 6:1 17:1 29:1 39:1 40:1 52:1 63:1 67:1 73:1 74:1 76:1 79:1 83:1 
32 3:1 6:1 18:1 22:1 36:1 40:1 52:1 63:1 67:1 73:1 74:1 76:1 80:1 83:1 
32 2:1 10:1 18:1 32:1 39:1 42:1 52:1 64:1 67:1 73:1 74:1 76:1 82:1 103:1 
32 4:1 6:1 16:1 22:1 36:1 40:1 48:1 63:1 67:1 73:1 75:1 76:1 81:1 83:1 
32 4:1 7:1 14:1 25:1 38:1 40:1 48:1 63:1 67:1 73:1 74:1 76:1 80:1 83:1 
32 5:1 7:1 18:1 19:1 39:1 40:1 47:1 61:1 67:1 72:1 74:1 76:1 82:1 83:1 
32 4:1 6:1 17:1 20:1 37:1 40:1 48:1 63:1 71:1 73:1 74:1 76:1 80:1 83:1 
32 4:1 6:1 16:1 20:1 37:1 40:1 50:1 63:1 67:1 73:1 74:1 76:1 82:1 83:1 
32 3:1 6:1 16:1 29:1 39:1 40:1 50:1 63:1 67:1 73:1 74:1 76:1 82:1 83:1 
32 5:1 6:1 16:1 19:1 39:1 41:1 51:1 64:1 71:1 73:1 75:1 76:1 80:1 83:1 
32 3:1 6:1 14:1 20:1 37:1 40:1 47:1 63:1 67:1 73:1 74:1 76:1 82:1 83:1 
32 3:1 6:1 18:1 19:1 39:1 40:1 49:1 63:1 68:1 73:1 75:1 76:1 79:1 83:1 
32 4:1 11:1 17:1 22:1 36:1 40:1 49:1 63:1 67:1 73:1 74:1 76:1 81:1 83:1 
32 3:1 6:1 14:1 22:1 36:1 40:1 57:1 63:1 67:1 73:1 75:1 76:1 82:1 83:1 
32 5:1 6:1 15:1 27:1 35:1 40:1 57:1 63:1 67:1 73:1 74:1 76:1 82:1 83:1 
32 4:1 6:1 14:1 25:1 38:1 40:1 50:1 63:1 67:1 73:1 74:1 77:1 82:1 83:1 
32 5:1 11:1 17:1 22:1 36:1 40:1 48:1 63:1 71:1 73:1 74:1 76:1 80:1 83:1 
32 4:1 6:1 15:1 22:1 36:1 40:1 50:1 61:1 67:1 72:1 74:1 76:1 80:1 83:1 
32 5:1 9:1 15:1 20:1 37:1 40:1 59:1 63:1 67:1 73:1 74:1 76:1 82:1 83:1 
32 5:1 9:1 14:1 22:1 36:1 40:1 55:1 63:1 67:1 73:1 74:1 76:1 80:1 83:1 
32 5:1 16:1 20:1 37:1 40:1 61:1 67:1 72:1 74:1 76:1 81:1 83:1 
9.982653231850433 3:1 6:1 14:1 19:1 39:1 40:1 51:1 63:1 67:1 73:1 74:1 76:1 81:1 83:1 
32 5:1 6:1 14:1 22:1 36:1 40:1 53:1 63:1 67:1 73:1 74:1 76:1 80:1 83:1 
32 3:1 6:1 14:1 19:1 39:1 40:1 52:1 61:1 67:1 72:1 74:1 76:1 82:1 96:1 
32 4:1 6:1 17:1 22:1 36:1 40:1 47:1 63:1 67:1 73:1 74:1 76:1 81:1 83:1 
32 4:1 6:1 16:1 22:1 36:1 40:1 48:1 63:1 67:1 73:1 74:1 76:1 82:1 83:1 
32 3:1 7:1 16:1 29:1 39:1 40:1 50:1 63:1 67:1 73:1 74:1 76:1 80:1 83:1 
32 3:1 6:1 16:1 22:1 36:1 40:1 54:1 63:1 67:1 73:1 74:1 76:1 80:1 83:1 
32 2:1 6:1 15:1 20:1 37:1 40:1 51:1 61:1 67:1 72:1 74:1 76:1 80:1 83:1 
32 4:1 7:1 18:1 19:1 39:1 40:1 52:1 61:1 67:1 72:1 74:1 76:1 78:1 83:1 
32 3:1 9:1 14:1 23:1 39:1 42:1 52:1 64:1 67:1 73:1 74:1 76:1 82:1 83:1 
32 5:1 6:1 15:1 31:1 35:1 40:1 48:1 63:1 71:1 73:1 74:1 76:1 80:1 83:1 
32 2:1 6:1 15:1 19:1 39:1 40:1 52:1 63:1 67:1 73:1 74:1 76:1 80:1 83:1 
32 5:1 6:1 15:1 24:1 38:1 40:1 51:1 61:1 71:1 72:1 74:1 76:1 80:1 83:1 
32 2:1 10:1 15:1 19:1 39:1 42:1 52:1 64:1 71:1 73:1 75:1 76:1 81:1 
32 5:1 7:1 14:1 22:1 36:1 40:1 51:1 63:1 67:1 73:1 75:1 76:1 82:1 83:1 
32 2:1 6:1 15:1 22:1 36:1 40:1 54:1 63:1 67:1 73:1 74:1 76:1 82:1 105:1 
32 4:1 8:1 15:1 19:1 39:1 40:1 50:1 63:1 67:1 73:1 74:1 76:1 82:1 83:1 
32 3:1 8:1 17:1 22:1 36:1 40:1 48:1 63:1 67:1 73:1 74:1 76:1 82:1 
32 5:1 6:1 14:1 22:1 36:1 40:1 48:1 63:1 67:1 73:1 74:1 76:1 80:1 83:1 
32 4:1 6:1 18:1 20:1 37:1 40:1 57:1 63:1 67:1 73:1 74:1 76:1 82:1 83:1 
32 3:1 6:1 14:1 22:1 36:1 40:1 57:1 63:1 67:1 73:1 75:1 76:1 82:1 83:1 
32 5:1 6:1 14:1 22:1 36:1 40:1 48:1 63:1 68:1 73:1 74:1 77:1 80:1 83:1 
32 2:1 6:1 17:1 20:1 37:1 41:1 48:1 62:1 67:1 73:1 74:1 76:1 80:1 83:1 
32 3:1 6:1 17:1 22:1 36:1 40:1 54:1 63:1 67:1 73:1 74:1 76:1 82:1 83:1 
32 1:1 7:1 16:1 22:1 36:1 40:1 48:1 63:1 67:1 73:1 75:1 76:1 80:1 83:1 
32 3:1 6:1 17:1 22:1 36:1 40:1 54:1 63:1 67:1 73:1 74:1 76:1 80:1 95:1 
32 5:1 6:1 17:1 19:1 39:1 41:1 51:1 64:1 67:1 73:1 74:1 76:1 80:1 83:1 
32 3:1 10:1 17:1 29:1 39:1 40:1 52:1 61:1 67:1 72:1 74:1 76:1 80:1 83:1 
32 5:1 6:1 18:1 19:1 39:1 40:1 54:1 63:1 67:1 73:1 74:1 76:1 80:1 100:1 
32 1:1 6:1 16:1 19:1 39:1 40:1 51:1 61:1 67:1 72:1 74:1 76:1 78:1 83:1 
32 3:1 10:1 15:1 19:1 39:1 40:1 52:1 63:1 67:1 73:1 74:1 76:1 79:1 83:1 
32 4:1 6:1 15:1 20:1 37:1 40:1 50:1 63:1 67:1 73:1 75:1 76:1 80:1 83:1 
32 5:1 8:1 17:1 20:1 37:1 40:1 51:1 63:1 67:1 73:1 74:1 76:1 80:1 83:1 
32 4:1 6:1 15:1 29:1 39:1 40:1 47:1 63:1 67:1 73:1 74:1 76:1 78:1 83:1 
32 2:1 6:1 15:1 20:1 37:1 40:1 56:1 63:1 67:1 73:1 74:1 76:1 82:1 83:1 
32 5:1 6:1 14:1 22:1 36:1 40:1 57:1 63:1 67:1 73:1 74:1 76:1 82:1 83:1 
32 4:1 6:1 16:1 22:1 36:1 41:1 51:1 66:1 71:1 72:1 74:1 76:1 80:1 83:1 
32 5:1 6:1 16:1 22:1 36:1 40:1 59:1 63:1 67:1 73:1 74:1 76:1 80:1 83:1 
32 3:1 6:1 15:1 20:1 37:1 40:1 51:1 63:1 67:1 73:1 75:1 76:1 80:1 83:1 
32 2:1 6:1 18:1 22:1 36:1 40:1 57:1 63:1 67:1 73:1 74:1 76:1 82:1 83:1 
32 3:1 10:1 14:1 20:1 37:1 40:1 59:1 63:1 67:1 73:1 74:1 76:1 80:1 83:1 
32 3:1 6:1 17:1 20:1 37:1 40:1 55:1 61:1 67:1 72:1 74:1 76:1 79:1 83:1 
32 5:1 6:1 15:1 19:1 39:1 40:1 52:1 63:1 67:1 73:1 74:1 76:1 80:1 83:1 
32 3:1 6:1 18:1 19:1 39:1 40:1 52:1 63:1 67:1 73:1 74:1 76:1 81:1 83:1 
32 3:1 7:1 14:1 19:1 39:1 40:1 52:1 63:1 67:1 73:1 74:1 76:1 82:1 83:1 
32 3:1 6:1 18:1 19:1 39:1 40:1 48:1 63:1 67:1 73:1 74:1 76:1 81:1 83:1 
32 3:1 6:1 16:1 29:1 39:1 42:1 52:1 64:1 67:1 73:1 75:1 76:1 82:1 
32 5:1 7:1 14:1 27:1 35:1 45:1 55:1 64:1 67:1 73:1 74:1 76:1 78:1 99:1 
32 5:1 8:1 14:1 29:1 39:1 41:1 51:1 64:1 67:1 73:1 75:1 76:1 82:1 83:1 
32 5:1 11:1 18:1 29:1 39:1 42:1 55:1 64:1 67:1 73:1 74:1 76:1 82:1 83:1 
32 2:1 6:1 16:1 22:1 36:1 40:1 54:1 63:1 67:1 73:1 74:1 76:1 80:1 83:1 
32 2:1 6:1 18:1 23:1 39:1 41:1 52:1 64:1 67:1 73:1 75:1 76:1 82:1 83:1 
32 4:1 10:1 17:1 20:1 37:1 40:1 48:1 63:1 67:1 73:1 74:1 76:1 80:1 83:1 
32 4:1 10:1 18:1 19:1 39:1 42:1 52:1 64:1 67:1 72:1 74:1 76:1 82:1 83:1 
32 3:1 6:1 15:1 19:1 39:1 40:1 50:1 63:1 67:1 73:1 74:1 76:1 82:1 83:1 
32 2:1 7:1 17:1 22:1 36:1 40:1 48:1 63:1 67:1 73:1 74:1 76:1 80:1 83:1 
32 4:1 10:1 17:1 29:1 39:1 40:1 52:1 63:1 67:1 73:1 74:1 76:1 80:1 83:1 
32 2:1 6:1 15:1 22:1 36:1 40:1 50:1 61:1 67:1 72:1 74:1 76:1 80:1 83:1 
32 4:1 6:1 17:1 20:1 37:1 41:1 48:1 64:1 67:1 73:1 74:1 76:1 81:1 83:1 
32 2:1 6:1 15:1 20:1 37:1 40:1 51:1 63:1 67:1 73:1 74:1 76:1 80:1 83:1 
32 4:1 6:1 18:1 29:1 39:1 40:1 52:1 63:1 67:1 73:1 74:1 76:1 82:1 83:1 
32 3:1 6:1 17:1 19:1 39:1 40:1 52:1 63:1 67:1 73:1 74:1 76:1 80:1 83:1 
32 2:1 6:1 16:1 19:1 39:1 43:1 52:1 64:1 68:1 73:1 74:1 76:1 80:1 98:1 
5.81108283515774 3:1 8:1 14:1 20:1 37:1 40:1 51:1 63:1 67:1 73:1 75:1 76:1 82:1 83:1 
32 1:1 6:1 18:1 27:1 35:1 42:1 49:1 64:1 67:1 73:1 74:1 76:1 82:1 83:1 
32 3:1 6:1 17:1 22:1 36:1 40:1 54:1 63:1 67:1 73:1 75:1 76:1 82:1 83:1 
32 4:1 6:1 14:1 20:1 37:1 40:1 50:1 63:1 67:1 73:1 74:1 76:1 81:1 83:1 
32 3:1 6:1 15:1 19:1 39:1 40:1 54:1 63:1 67:1 73:1 74:1 76:1 82:1 83:1 
32 3:1 7:1 15:1 20:1 37:1 40:1 54:1 63:1 67:1 73:1 74:1 76:1 81:1 83:1 
32 4:1 10:1 16:1 25:1 38:1 40:1 51:1 63:1 67:1 73:1 74:1 76:1 80:1 83:1 
32 3:1 6:1 17:1 23:1 39:1 43:1 52:1 64:1 67:1 73:1 74:1 76:1 79:1 83:1 
32 2:1 9:1 18:1 19:1 39:1 40:1 51:1 63:1 67:1 73:1 74:1 76:1 80:1 83:1 
32 2:1 6:1 17:1 19:1 39:1 40:1 51:1 63:1 67:1 73:1 74:1 76:1 80:1 83:1 
32 4:1 6:1 16:1 22:1 36:1 40:1 57:1 63:1 67:1 73:1 74:1 76:1 82:1 83:1 
32 5:1 6:1 17:1 22:1 36:1 40:1 59:1 63:1 67:1 73:1 74:1 76:1 78:1 83:1 
32 3:1 6:1 18:1 25:1 38:1 40:1 51:1 63:1 67:1 73:1 74:1 76:1 81:1 83:1 
32 2:1 6:1 17:1 19:1 39:1 40:1 50:1 63:1 67:1 73:1 74:1 76:1 82:1 83:1 
32 4:1 7:1 16:1 20:1 37:1 40:1 48:1 63:1 67:1 73:1 74:1 77:1 80:1 83:1 
32 4:1 7:1 14:1 22:1 36:1 40:1 51:1 63:1 67:1 73:1 74:1 76:1 80:1 83:1 
32 5:1 6:1 15:1 19:1 39:1 40:1 52:1 63:1 67:1 73:1 74:1 76:1 80:1 83:1 
32 2:1 6:1 16:1 19:1 39:1 46:1 51:1 61:1 67:1 72:1 74:1 76:1 80:1 83:1 
32 4:1 6:1 15:1 25:1 38:1 40:1 55:1 61:1 67:1 72:1 74:1 76:1 80:1 83:1 
32 5:1 7:1 16:1 22:1 36:1 42:1 56:1 64:1 67:1 73:1 75:1 76:1 80:1 83:1 
32 3:1 9:1 16:1 23:1 39:1 42:1 52:1 64:1 67:1 72:1 74:1 76:1 82:1 83:1 
32 2:1 7:1 16:1 22:1 36:1 40:1 57:1 63:1 67:1 73:1 75:1 76:1 80:1 83:1 
32 5:1 14:1 23:1 39:1 40:1 63:1 67:1 73:1 75:1 76:1 78:1 83:1 
32 4:1 7:1 14:1 29:1 39:1 40:1 56:1 63:1 67:1 73:1 74:1 76:1 80:1 83:1 
32 2:1 6:1 17:1 22:1 36:1 40:1 54:1 63:1 67:1 73:1 74:1 76:1 82:1 83:1 
32 3:1 6:1 14:1 19:1 39:1 40:1 57:1 63:1 67:1 73:1 75:1 76:1 82:1 83:1 
32 3:1 6:1 18:1 32:1 39:1 42:1 52:1 64:1 67:1 73:1 74:1 76:1 80:1 110:1 
32 3:1 7:1 17:1 19:1 39:1 40:1 48:1 63:1 67:1 73:1 74:1 76:1 80:1 83:1 
32 4:1 6:1 16:1 32:1 39:1 42:1 52:1 64:1 67:1 73:1 74:1 76:1 79:1 83:1 
32 4:1 6:1 17:1 25:1 38:1 40:1 54:1 63:1 67:1 73:1 74:1 76:1 80:1 83:1 
32 5:1 6:1 14:1 19:1 39:1 40:1 50:1 63:1 67:1 73:1 75:1 76:1 78:1 83:1 
32 3:1 6:1 17:1 19:1 39:1 40:1 47:1 63:1 67:1 73:1 74:1 76:1 82:1 83:1 
32 3:1 11:1 15:1 22:1 36:1 40:1 48:1 63:1 67:1 73:1 75:1 76:1 80:1 83:1 
32 5:1 6:1 16:1 20:1 37:1 40:1 55:1 63:1 67:1 73:1 74:1 76:1 80:1 83:1 
32 4:1 6:1 17:1 19:1 39:1 40:1 53:1 63:1 71:1 73:1 74:1 76:1 80:1 111:1 
32 5:1 6:1 14:1 20:1 37:1 40:1 50:1 63:1 67:1 73:1 74:1 76:1 80:1 83:1 
32 3:1 6:1 16:1 20:1 37:1 40:1 51:1 63:1 67:1 73:1 74:1 76:1 82:1 83:1 
32 2:1 6:1 17:1 22:1 36:1 40:1 53:1 61:1 67:1 72:1 74:1 76:1 80:1 103:1 
32 5:1 7:1 14:1 23:1 39:1 40:1 52:1 63:1 67:1 73:1 74:1 76:1 82:1 85:1 
32 3:1 6:1 15:1 22:1 36:1 40:1 57:1 63:1 67:1 73:1 74:1 76:1 82:1 83:1 
32 4:1 7:1 15:1 19:1 39:1 42:1 51:1 64:1 71:1 73:1 75:1 76:1 81:1 83:1 
32 3:1 6:1 18:1 19:1 39:1 40:1 51:1 63:1 67:1 73:1 74:1 76:1 82:1 83:1 
32 4:1 10:1 15:1 29:1 39:1 41:1 52:1 66:1 71:1 72:1 75:1 76:1 80:1 83:1 
32 5:1 16:1 22:1 36:1 40:1 63:1 67:1 73:1 74:1 76:1 80:1 83:1 
32 4:1 6:1 18:1 20:1 37:1 40:1 57:1 63:1 67:1 73:1 74:1 76:1 82:1 83:1 
32 2:1 6:1 16:1 22:1 36:1 40:1 54:1 63:1 67:1 73:1 74:1 76:1 82:1 83:1 
32 2:1 10:1 17:1 22:1 36:1 40:1 59:1 63:1 67:1 73:1 74:1 76:1 81:1 83:1 
32 3:1 6:1 15:1 22:1 36:1 40:1 54:1 63:1 68:1 73:1 74:1 76:1 80:1 
32 4:1 6:1 16:1 22:1 36:1 40:1 54:1 63:1 67:1 73:1 74:1 76:1 81:1 83:1 
32 4:1 11:1 14:1 19:1 39:1 40:1 52:1 63:1 67:1 73:1 74:1 76:1 81:1 83:1 
32 4:1 6:1 14:1 22:1 36:1 40:1 53:1 63:1 67:1 73:1 74:1 76:1 82:1 83:1 
32 5:1 6:1 16:1 22:1 36:1 40:1 48:1 63:1 67:1 73:1 74:1 76:1 80:1 83:1 
32 5:1 11:1 14:1 25:1 38:1 41:1 47:1 64:1 67:1 73:1 74:1 77:1 79:1 83:1 
32 2:1 6:1 18:1 20:1 37:1 40:1 57:1 63:1 67:1 73:1 74:1 77:1 81:1 83:1 
32 4:1 11:1 15:1 22:1 36:1 41:1 55:1 66:1 67:1 72:1 74:1 76:1 82:1 83:1 
32 5:1 6:1 18:1 20:1 37:1 40:1 57:1 63:1 67:1 73:1 75:1 76:1 78:1 83:1 
32 3:1 6:1 15:1 20:1 37:1 40:1 50:1 63:1 67:1 73:1 74:1 76:1 82:1 83:1 
32 4:1 10:1 17:1 22:1 36:1 40:1 54:1 63:1 71:1 73:1 74:1 76:1 80:1 83:1 
28.72027550358858 3:1 7:1 14:1 25:1 38:1 40:1 52:1 61:1 67:1 72:1 75:1 76:1 82:1 83:1 
32 3:1 6:1 17:1 24:1 38:1 40:1 55:1 61:1 67:1 72:1 74:1 76:1 78:1 83:1 
32 5:1 9:1 16:1 22:1 36:1 40:1 47:1 63:1 67:1 73:1 74:1 77:1 80:1 83:1 
32 4:1 11:1 15:1 19:1 39:1 40:1 52:1 63:1 67:1 73:1 74:1 76:1 82:1 83:1 
32 4:1 6:1 16:1 22:1 36:1 40:1 54:1 63:1 67:1 73:1 74:1 76:1 80:1 83:1 
32 4:1 6:1 18:1 22:1 36:1 40:1 48:1 63:1 67:1 73:1 74:1 76:1 80:1 83:1 
32 5:1 6:1 14:1 21:1 35:1 40:1 50:1 63:1 67:1 73:1 75:1 76:1 78:1 83:1 
32 3:1 7:1 14:1 22:1 36:1 41:1 56:1 64:1 67:1 73:1 75:1 76:1 80:1 83:1 
32 4:1 6:1 15:1 22:1 36:1 40:1 57:1 63:1 67:1 73:1 74:1 76:1 82:1 83:1 
32 3:1 11:1 14:1 22:1 36:1 40:1 54:1 63:1 67:1 73:1 74:1 76:1 80:1 83:1 
32 2:1 11:1 18:1 19:1 39:1 40:1 59:1 63:1 67:1 73:1 74:1 76:1 82:1 83:1 
32 2:1 6:1 18:1 19:1 39:1 42:1 50:1 64:1 67:1 73:1 74:1 76:1 82:1 83:1 
32 5:1 6:1 15:1 22:1 36:1 40:1 48:1 63:1 67:1 73:1 74:1 76:1 82:1 83:1 
32 3:1 6:1 14:1 24:1 38:1 40:1 51:1 63:1 67:1 73:1 74:1 76:1 80:1 83:1 
32 4:1 6:1 17:1 22:1 36:1 40:1 48:1 63:1 67:1 73:1 74:1 77:1 81:1 83:1 
32 3:1 10:1 14:1 20:1 37:1 40:1 55:1 61:1 67:1 72:1 74:1 76:1 80:1 83:1 
32 4:1 6:1 15:1 25:1 38:1 40:1 56:1 63:1 67:1 73:1 74:1 76:1 80:1 83:1 
32 4:1 6:1 18:1 20:1 37:1 40:1 50:1 63:1 67:1 73:1 74:1 76:1 81:1 83:1 
32 2:1 6:1 16:1 20:1 37:1 40:1 57:1 63:1 67:1 73:1 74:1 76:1 82:1 83:1 
32 4:1 10:1 15:1 20:1 37:1 40:1 59:1 63:1 67:1 73:1 74:1 76:1 80:1 83:1 
32 3:1 6:1 18:1 22:1 36:1 40:1 57:1 63:1 71:1 73:1 74:1 76:1 82:1 83:1 
32 5:1 6:1 18:1 22:1 36:1 40:1 48:1 63:1 67:1 73:1 74:1 76:1 79:1 83:1 
32 3:1 6:1 18:1 22:1 36:1 41:1 51:1 66:1 67:1 72:1 74:1 76:1 80:1 83:1 
32 5:1 10:1 14:1 25:1 38:1 40:1 51:1 63:1 67:1 73:1 74:1 76:1 80:1 83:1 
32 2:1 6:1 18:1 29:1 39:1 40:1 52:1 63:1 67:1 73:1 74:1 76:1 81:1 83:1 
32 3:1 6:1 15:1 19:1 39:1 40:1 48:1 63:1 67:1 73:1 74:1 76:1 82:1 83:1 
32 4:1 11:1 15:1 32:1 39:1 41:1 52:1 66:1 67:1 73:1 74:1 76:1 82:1 106:1 
32 3:1 6:1 16:1 19:1 39:1 40:1 52:1 63:1 67:1 73:1 74:1 76:1 79:1 83:1 
32 2:1 6:1 16:1 22:1 36:1 40:1 51:1 63:1 67:1 73:1 74:1 76:1 80:1 83:1 
32 2:1 6:1 17:1 22:1 36:1 40:1 57:1 63:1 67:1 73:1 74:1 76:1 82:1 83:1 
32 2:1 6:1 16:1 22:1 36:1 40:1 48:1 63:1 67:1 73:1 74:1 76:1 82:1 83:1 
32 3:1 10:1 16:1 26:1 35:1 40:1 49:1 61:1 67:1 72:1 74:1 76:1 80:1 118:1 
23.43664362558221 4:1 11:1 14:1 20:1 37:1 40:1 51:1 63:1 67:1 73:1 75:1 76:1 79:1 83:1 
32 5:1 7:1 15:1 22:1 36:1 41:1 51:1 64:1 67:1 72:1 75:1 76:1 79:1 83:1 
32 5:1 6:1 16:1 22:1 36:1 40:1 51:1 63:1 67:1 73:1 75:1 76:1 80:1 83:1 
32 4:1 6:1 16:1 20:1 37:1 40:1 50:1 63:1 67:1 73:1 74:1 76:1 80:1 83:1 
32 2:1 6:1 16:1 20:1 37:1 40:1 53:1 63:1 67:1 73:1 74:1 76:1 80:1 83:1 
32 5:1 6:1 14:1 22:1 36:1 40:1 51:1 63:1 67:1 73:1 74:1 76:1 82:1 83:1 
32 3:1 6:1 17:1 19:1 39:1 40:1 47:1 63:1 67:1 73:1 74:1 76:1 80:1 83:1 
32 3:1 10:1 17:1 24:1 38:1 40:1 51:1 63:1 67:1 73:1 74:1 76:1 80:1 83:1 
32 3:1 6:1 16:1 25:1 38:1 40:1 48:1 63:1 67:1 73:1 75:1 76:1 80:1 83:1 
32 4:1 6:1 17:1 22:1 36:1 40:1 49:1 63:1 67:1 73:1 74:1 76:1 80:1 103:1 
32 2:1 6:1 16:1 22:1 36:1 40:1 50:1 63:1 67:1 73:1 74:1 76:1 80:1 83:1 
32 5:1 15:1 20:1 37:1 40:1 63:1 67:1 73:1 75:1 76:1 80:1 83:1 
32 4:1 17:1 20:1 37:1 40:1 63:1 67:1 73:1 74:1 76:1 78:1 83:1 
32 2:1 6:1 15:1 19:1 39:1 40:1 52:1 61:1 67:1 72:1 74:1 77:1 78:1 83:1 
32 5:1 6:1 14:1 19:1 39:1 42:1 49:1 64:1 68:1 72:1 74:1 76:1 78:1 91:1 
32 5:1 6:1 17:1 22:1 36:1 40:1 51:1 63:1 67:1 73:1 74:1 76:1 82:1 83:1 
32 3:1 6:1 15:1 22:1 36:1 40:1 54:1 61:1 67:1 72:1 74:1 76:1 81:1 83:1 
32 4:1 6:1 18:1 22:1 36:1 40:1 57:1 63:1 71:1 73:1 74:1 76:1 81:1 83:1 
32 2:1 6:1 15:1 29:1 39:1 43:1 51:1 64:1 67:1 73:1 74:1 77:1 82:1 83:1 
2.890630287153038 2:1 6:1 15:1 23:1 39:1 40:1 52:1 61:1 67:1 72:1 74:1 76:1 82:1 83:1 
32 4:1 6:1 14:1 22:1 36:1 40:1 54:1 63:1 67:1 73:1 74:1 77:1 82:1 83:1 
32 5:1 6:1 16:1 22:1 36:1 40:1 57:1 63:1 67:1 73:1 74:1 77:1 82:1 83:1 
32 4:1 9:1 14:1 22:1 36:1 40:1 55:1 63:1 67:1 73:1 74:1 76:1 80:1 83:1 
32 5:1 7:1 14:1 24:1 38:1 40:1 51:1 63:1 67:1 73:1 74:1 76:1 82:1 83:1 
32 3:1 9:1 15:1 22:1 36:1 40:1 55:1 63:1 67:1 73:1 74:1 76:1 80:1 83:1 
32 3:1 6:1 17:1 22:1 36:1 40:1 51:1 63:1 67:1 73:1 74:1 76:1 81:1 83:1 
32 4:1 10:1 16:1 20:1 37:1 40:1 57:1 63:1 67:1 73:1 74:1 77:1 80:1 83:1 
32 5:1 6:1 15:1 19:1 39:1 40:1 50:1 63:1 67:1 73:1 74:1 76:1 81:1 83:1 
32 4:1 10:1 17:1 19:1 39:1 41:1 59:1 64:1 71:1 73:1 74:1 76:1 82:1 83:1 
32 3:1 10:1 16:1 20:1 37:1 40:1 59:1 63:1 67:1 73:1 74:1 76:1 82:1 83:1 
32 5:1 6:1 15:1 19:1 39:1 42:1 55:1 64:1 67:1 72:1 75:1 76:1 80:1 83:1 
32 3:1 6:1 14:1 23:1 39:1 42:1 52:1 64:1 67:1 72:1 75:1 76:1 82:1 83:1 
32 4:1 9:1 17:1 20:1 37:1 40:1 53:1 63:1 67:1 73:1 74:1 76:1 80:1 83:1 
32 3:1 6:1 16:1 20:1 37:1 40:1 54:1 63:1 68:1 73:1 74:1 76:1 82:1 83:1 
6.718092215821951 4:1 6:1 17:1 19:1 39:1 40:1 51:1 63:1 71:1 73:1 74:1 76:1 80:1 83:1 
32 4:1 10:1 14:1 19:1 39:1 40:1 59:1 63:1 67:1 73:1 74:1 76:1 80:1 83:1 
32 5:1 6:1 14:1 29:1 39:1 40:1 52:1 63:1 67:1 73:1 74:1 76:1 80:1 
32 4:1 10:1 18:1 19:1 39:1 40:1 51:1 63:1 71:1 73:1 74:1 76:1 80:1 83:1 
32 3:1 6:1 16:1 19:1 39:1 40:1 47:1 63:1 67:1 73:1 74:1 76:1 81:1 83:1 
32 4:1 9:1 15:1 20:1 37:1 40:1 48:1 63:1 67:1 73:1 74:1 76:1 80:1 83:1 
32 3:1 10:1 16:1 20:1 37:1 40:1 59:1 63:1 67:1 73:1 75:1 76:1 80:1 83:1 
32 2:1 11:1 16:1 20:1 37:1 40:1 48:1 63:1 67:1 73:1 74:1 76:1 79:1 83:1 
32 5:1 11:1 18:1 20:1 37:1 40:1 54:1 63:1 71:1 73:1 74:1 76:1 80:1 83:1 
32 2:1 6:1 14:1 22:1 36:1 40:1 50:1 63:1 67:1 73:1 74:1 76:1 82:1 83:1 
32 3:1 6:1 17:1 25:1 38:1 42:1 51:1 64:1 67:1 73:1 74:1 76:1 82:1 83:1 
32 4:1 6:1 18:1 22:1 36:1 40:1 48:1 63:1 67:1 73:1 74:1 76:1 82:1 83:1 
32 3:1 6:1 16:1 19:1 39:1 43:1 52:1 66:1 68:1 72:1 74:1 76:1 80:1 98:1 
32 2:1 8:1 16:1 22:1 36:1 40:1 56:1 63:1 67:1 73:1 74:1 77:1 82:1 83:1 
32 2:1 6:1 17:1 20:1 37:1 40:1 55:1 61:1 67:1 72:1 74:1 76:1 80:1 83:1 
32 5:1 6:1 15:1 22:1 36:1 40:1 51:1 63:1 67:1 73:1 74:1 76:1 82:1 83:1 
32 3:1 6:1 17:1 22:1 36:1 40:1 48:1 63:1 67:1 73:1 75:1 76:1 80:1 83:1 
32 4:1 7:1 18:1 19:1 39:1 41:1 49:1 66:1 68:1 72:1 74:1 76:1 82:1 93:1 
32 5:1 6:1 18:1 19:1 39:1 40:1 50:1 63:1 67:1 73:1 74:1 76:1 82:1 83:1 
32 3:1 6:1 16:1 19:1 39:1 40:1 50:1 63:1 67:1 73:1 74:1 76:1 80:1 83:1 
32 5:1 8:1 18:1 20:1 37:1 40:1 51:1 63:1 67:1 73:1 74:1 76:1 80:1 83:1 
32 3:1 7:1 17:1 32:1 39:1 42:1 52:1 64:1 67:1 73:1 74:1 76:1 81:1 83:1 
32 2:1 6:1 15:1 19:1 39:1 40:1 52:1 61:1 67:1 72:1 74:1 77:1 78:1 83:1 
32 2:1 6:1 18:1 29:1 39:1 40:1 51:1 63:1 67:1 73:1 74:1 76:1 80:1 83:1 
32 4:1 6:1 16:1 22:1 36:1 40:1 55:1 63:1 67:1 73:1 74:1 76:1 82:1 83:1 
32 3:1 6:1 16:1 19:1 39:1 42:1 50:1 64:1 67:1 73:1 74:1 76:1 80:1 83:1 
32 4:1 6:1 16:1 19:1 39:1 40:1 50:1 63:1 67:1 73:1 74:1 76:1 82:1 83:1 
32 2:1 6:1 15:1 22:1 36:1 40:1 48:1 63:1 67:1 73:1 74:1 76:1 80:1 83:1 
32 3:1 6:1 16:1 24:1 38:1 40:1 50:1 63:1 67:1 73:1 74:1 76:1 82:1 83:1 
32 4:1 6:1 17:1 22:1 36:1 40:1 48:1 63:1 67:1 73:1 74:1 76:1 80:1 
32 4:1 6:1 14:1 19:1 39:1 40:1 52:1 63:1 67:1 73:1 74:1 76:1 80:1 83:1 
32 4:1 8:1 15:1 20:1 37:1 40:1 52:1 61:1 67:1 72:1 74:1 76:1 80:1 
32 4:1 6:1 17:1 22:1 36:1 40:1 51:1 61:1 67:1 72:1 74:1 76:1 80:1 83:1 
32 2:1 6:1 15:1 24:1 38:1 40:1 51:1 63:1 67:1 73:1 74:1 76:1 82:1 83:1 
32 2:1 6:1 16:1 19:1 39:1 42:1 52:1 62:1 67:1 72:1 74:1 77:1 80:1 83:1 
32 2:1 6:1 14:1 19:1 39:1 40:1 54:1 63:1 67:1 73:1 74:1 77:1 82:1 83:1 
32 3:1 6:1 15:1 25:1 38:1 41:1 48:1 66:1 67:1 73:1 74:1 76:1 82:1 83:1 
18.41551408973919 4:1 10:1 16:1 29:1 39:1 40:1 52:1 63:1 67:1 73:1 74:1 76:1 82:1 83:1 
32 1:1 6:1 17:1 19:1 39:1 42:1 55:1 64:1 67:1 73:1 74:1 76:1 80:1 83:1 
32 2:1 8:1 17:1 22:1 36:1 40:1 50:1 63:1 71:1 73:1 75:1 76:1 80:1 83:1 
32 4:1 8:1 14:1 24:1 38:1 40:1 52:1 63:1 67:1 73:1 74:1 76:1 82:1 83:1 
32 1:1 6:1 15:1 21:1 35:1 40:1 57:1 63:1 67:1 73:1 75:1 76:1 80:1 100:1 
32 4:1 10:1 15:1 29:1 39:1 40:1 52:1 63:1 71:1 73:1 74:1 76:1 79:1 83:1 
32 3:1 6:1 14:1 19:1 39:1 40:1 50:1 63:1 67:1 73:1 74:1 76:1 80:1 83:1 
32 4:1 6:1 17:1 20:1 37:1 40:1 47:1 63:1 67:1 73:1 74:1 76:1 82:1 83:1 
32 4:1 11:1 17:1 32:1 39:1 43:1 52:1 66:1 67:1 72:1 74:1 76:1 80:1 83:1 
32 5:1 6:1 17:1 20:1 37:1 40:1 48:1 63:1 67:1 73:1 74:1 76:1 80:1 83:1 
32 3:1 6:1 18:1 20:1 37:1 40:1 50:1 63:1 67:1 73:1 75:1 76:1 80:1 83:1 
32 3:1 6:1 17:1 22:1 36:1 40:1 53:1 63:1 67:1 73:1 74:1 76:1 82:1 83:1 
32 4:1 9:1 18:1 20:1 37:1 40:1 51:1 63:1 71:1 73:1 74:1 76:1 80:1 83:1 
32 3:1 6:1 14:1 19:1 39:1 41:1 51:1 66:1 67:1 72:1 74:1 76:1 82:1 83:1 
32 5:1 6:1 15:1 22:1 36:1 40:1 48:1 63:1 67:1 73:1 74:1 76:1 80:1 83:1 
32 5:1 6:1 18:1 19:1 39:1 40:1 51:1 63:1 67:1 73:1 74:1 76:1 80:1 83:1 
32 2:1 6:1 18:1 19:1 39:1 41:1 51:1 64:1 67:1 72:1 74:1 76:1 82:1 83:1 
32 5:1 7:1 14:1 23:1 39:1 40:1 52:1 63:1 67:1 73:1 74:1 76:1 78:1 83:1 
32 5:1 7:1 14:1 19:1 39:1 40:1 51:1 63:1 67:1 73:1 74:1 76:1 82:1 83:1 
32 5:1 16:1 22:1 36:1 40:1 63:1 67:1 73:1 74:1 76:1 80:1 83:1 
32 3:1 6:1 16:1 29:1 39:1 42:1 55:1 64:1 67:1 73:1 75:1 76:1 82:1 83:1 
32 3:1 6:1 18:1 31:1 35:1 40:1 48:1 63:1 67:1 73:1 75:1 76:1 80:1 83:1 
32 4:1 10:1 16:1 19:1 39:1 40:1 52:1 61:1 67:1 72:1 74:1 76:1 80:1 83:1 
32 2:1 6:1 17:1 22:1 36:1 40:1 48:1 63:1 67:1 73:1 74:1 76:1 80:1 83:1 
32 4:1 6:1 17:1 19:1 39:1 40:1 50:1 63:1 67:1 73:1 74:1 76:1 80:1 83:1 
32 4:1 6:1 18:1 20:1 37:1 40:1 55:1 63:1 67:1 73:1 74:1 76:1 81:1 83:1 
32 4:1 6:1 15:1 25:1 38:1 40:1 47:1 61:1 67:1 72:1 74:1 77:1 78:1 83:1 
32 5:1 8:1 15:1 20:1 37:1 40:1 50:1 63:1 67:1 73:1 74:1 77:1 79:1 83:1 
32 5:1 6:1 14:1 22:1 36:1 40:1 47:1 63:1 67:1 73:1 74:1 76:1 80:1 83:1 
32 5:1 6:1 17:1 20:1 37:1 40:1 59:1 63:1 71:1 73:1 74:1 76:1 82:1 83:1 
32 5:1 15:1 22:1 36:1 40:1 63:1 67:1 73:1 74:1 76:1 80:1 83:1 
32 4:1 10:1 16:1 29:1 39:1 41:1 59:1 64:1 71:1 73:1 74:1 76:1 82:1 83:1 
32 5:1 7:1 14:1 22:1 36:1 40:1 56:1 63:1 67:1 73:1 74:1 76:1 82:1 83:1 
32 4:1 6:1 17:1 19:1 39:1 40:1 52:1 61:1 67:1 72:1 74:1 76:1 78:1 95:1 
32 4:1 8:1 14:1 25:1 38:1 40:1 48:1 63:1 67:1 73:1 74:1 76:1 82:1 83:1 
32 1:1 6:1 16:1 29:1 39:1 42:1 52:1 62:1 67:1 72:1 74:1 76:1 80:1 83:1 
32 5:1 6:1 16:1 22:1 36:1 44:1 51:1 66:1 67:1 73:1 74:1 76:1 79:1 83:1 
32 3:1 6:1 17:1 25:1 38:1 40:1 48:1 63:1 67:1 73:1 75:1 76:1 81:1 83:1 
32 4:1 6:1 16:1 19:1 39:1 40:1 47:1 63:1 67:1 73:1 74:1 76:1 80:1 83:1 
4.043595451989879 4:1 10:1 18:1 19:1 39:1 40:1 51:1 63:1 67:1 73:1 74:1 76:1 82:1 103:1 
32 3:1 6:1 18:1 29:1 39:1 42:1 55:1 64:1 67:1 72:1 74:1 76:1 82:1 99:1 
32 4:1 11:1 15:1 22:1 36:1 42:1 57:1 64:1 67:1 72:1 75:1 76:1 80:1 83:1 
26.69534426659689 5:1 6:1 15:1 29:1 39:1 40:1 52:1 63:1 67:1 73:1 74:1 76:1 82:1 83:1 
32 3:1 6:1 18:1 25:1 38:1 40:1 57:1 63:1 67:1 73:1 75:1 76:1 82:1 83:1 
32 4:1 10:1 14:1 19:1 39:1 40:1 52:1 63:1 67:1 73:1 74:1 76:1 82:1 83:1 
32 4:1 6:1 14:1 19:1 39:1 40:1 48:1 63:1 67:1 73:1 74:1 76:1 81:1 83:1 
32 5:1 7:1 16:1 23:1 39:1 40:1 52:1 63:1 67:1 73:1 74:1 76:1 78:1 83:1 
32 4:1 8:1 15:1 19:1 39:1 40:1 50:1 63:1 68:1 73:1 74:1 76:1 82:1 
32 2:1 10:1 18:1 25:1 38:1 40:1 47:1 61:1 67:1 72:1 74:1 76:1 79:1 115:1 
32 4:1 6:1 18:1 20:1 37:1 41:1 52:1 64:1 67:1 73:1 74:1 76:1 82:1 83:1 
32 4:1 11:1 14:1 20:1 37:1 40:1 59:1 63:1 67:1 73:1 74:1 77:1 80:1 83:1 
32 4:1 10:1 18:1 20:1 37:1 40:1 52:1 63:1 67:1 73:1 75:1 76:1 82:1 83:1 
32 3:1 6:1 17:1 24:1 38:1 40:1 52:1 63:1 67:1 73:1 74:1 76:1 80:1 83:1 
32 5:1 7:1 14:1 22:1 36:1 40:1 56:1 63:1 67:1 73:1 74:1 76:1 82:1 83:1 
32 5:1 9:1 14:1 20:1 37:1 40:1 59:1 63:1 67:1 73:1 74:1 76:1 82:1 83:1 
32 3:1 6:1 16:1 19:1 39:1 40:1 50:1 61:1 67:1 72:1 74:1 76:1 79:1 83:1 
32 4:1 6:1 15:1 22:1 36:1 40:1 53:1 63:1 67:1 73:1 74:1 76:1 80:1 83:1 
32 5:1 6:1 17:1 20:1 37:1 40:1 55:1 63:1 67:1 73:1 74:1 76:1 81:1 83:1 
32 5:1 10:1 15:1 22:1 36:1 40:1 51:1 63:1 67:1 73:1 75:1 76:1 80:1 83:1 
32 5:1 8:1 16:1 20:1 37:1 40:1 57:1 63:1 67:1 73:1 74:1 76:1 80:1 83:1 
32 4:1 6:1 18:1 20:1 37:1 40:1 48:1 63:1 71:1 73:1 74:1 76:1 81:1 83:1 
32 3:1 7:1 18:1 20:1 37:1 40:1 52:1 61:1 67:1 72:1 74:1 76:1 82:1 83:1 
32 3:1 6:1 17:1 22:1 36:1 40:1 48:1 63:1 67:1 73:1 74:1 76:1 80:1 83:1 
32 5:1 10:1 15:1 22:1 36:1 40:1 55:1 61:1 67:1 72:1 75:1 76:1 78:1 83:1 
32 4:1 11:1 17:1 19:1 39:1 40:1 51:1 63:1 71:1 73:1 74:1 76:1 80:1 83:1 
32 1:1 6:1 14:1 19:1 39:1 42:1 52:1 62:1 67:1 72:1 74:1 77:1 80:1 83:1 
32 4:1 7:1 14:1 22:1 36:1 40:1 47:1 63:1 67:1 73:1 74:1 76:1 78:1 83:1 
32 5:1 9:1 17:1 19:1 39:1 43:1 52:1 64:1 67:1 73:1 75:1 76:1 80:1 83:1 
32 5:1 6:1 14:1 32:1 39:1 42:1 52:1 64:1 67:1 72:1 74:1 76:1 82:1 83:1 
32 2:1 6:1 16:1 21:1 35:1 40:1 53:1 63:1 67:1 73:1 75:1 76:1 80:1 83:1 
32 2:1 6:1 18:1 19:1 39:1 40:1 51:1 63:1 68:1 73:1 74:1 76:1 80:1 122:1 
32 4:1 6:1 15:1 19:1 39:1 42:1 52:1 64:1 67:1 73:1 74:1 76:1 80:1 83:1 
32 5:1 7:1 14:1 22:1 36:1 40:1 56:1 63:1 67:1 73:1 74:1 76:1 82:1 83:1 
32 5:1 14:1 22:1 36:1 40:1 63:1 67:1 73:1 74:1 76:1 78:1 83:1 
32 2:1 6:1 16:1 24:1 38:1 40:1 52:1 63:1 67:1 73:1 74:1 76:1 80:1 83:1 
32 5:1 6:1 14:1 31:1 35:1 40:1 50:1 61:1 68:1 72:1 74:1 76:1 78:1 91:1 
32 5:1 8:1 14:1 23:1 39:1 40:1 50:1 63:1 67:1 73:1 74:1 76:1 80:1 83:1 
32 4:1 6:1 16:1 21:1 35:1 40:1 57:1 63:1 67:1 73:1 74:1 76:1 80:1 83:1 
32 3:1 6:1 18:1 20:1 37:1 40:1 52:1 63:1 71:1 73:1 74:1 76:1 80:1 101:1 
32 5:1 6:1 14:1 21:1 35:1 40:1 49:1 63:1 67:1 73:1 74:1 76:1 80:1 83:1 
32 3:1 17:1 22:1 36:1 40:1 61:1 67:1 72:1 74:1 76:1 79:1 83:1 
32 3:1 6:1 18:1 19:1 39:1 40:1 48:1 63:1 68:1 73:1 74:1 76:1 80:1 84:1 
32 5:1 6:1 14:1 31:1 35:1 40:1 57:1 63:1 67:1 73:1 74:1 76:1 81:1 83:1 
32 4:1 7:1 14:1 19:1 39:1 40:1 56:1 63:1 67:1 73:1 74:1 76:1 82:1 83:1 
32 4:1 8:1 14:1 19:1 39:1 40:1 50:1 63:1 67:1 73:1 74:1 76:1 82:1 83:1 
32 3:1 6:1 15:1 19:1 39:1 40:1 50:1 63:1 67:1 73:1 74:1 76:1 82:1 83:1 
32 4:1 11:1 17:1 19:1 39:1 40:1 51:1 63:1 67:1 73:1 74:1 76:1 80:1 83:1 
32 5:1 6:1 15:1 22:1 36:1 40:1 48:1 63:1 67:1 73:1 74:1 76:1 80:1 83:1 
32 3:1 10:1 18:1 19:1 39:1 40:1 55:1 63:1 67:1 73:1 74:1 76:1 80:1 83:1 
32 4:1 6:1 17:1 22:1 36:1 40:1 53:1 63:1 67:1 73:1 74:1 76:1 82:1 83:1 
32 3:1 6:1 16:1 22:1 36:1 40:1 55:1 63:1 67:1 73:1 74:1 76:1 82:1 83:1 
32 4:1 6:1 16:1 19:1 39:1 42:1 52:1 64:1 67:1 73:1 74:1 76:1 81:1 83:1 
32 5:1 8:1 14:1 22:1 36:1 40:1 49:1 63:1 67:1 73:1 74:1 76:1 80:1 83:1 
32 4:1 6:1 18:1 24:1 38:1 40:1 50:1 63:1 67:1 73:1 74:1 76:1 82:1 83:1 
32 4:1 6:1 14:1 19:1 39:1 41:1 50:1 66:1 67:1 73:1 74:1 76:1 81:1 83:1 
32 4:1 6:1 17:1 32:1 39:1 43:1 51:1 66:1 67:1 73:1 74:1 76:1 80:1 83:1 
32 4:1 10:1 18:1 24:1 38:1 40:1 51:1 63:1 71:1 73:1 74:1 76:1 82:1 83:1 
32 5:1 6:1 17:1 22:1 36:1 40:1 54:1 63:1 67:1 73:1 74:1 76:1 80:1 83:1 
32 5:1 10:1 14:1 19:1 39:1 40:1 55:1 61:1 67:1 72:1 74:1 76:1 80:1 83:1 
32 3:1 6:1 14:1 19:1 39:1 40:1 51:1 63:1 67:1 73:1 74:1 76:1 80:1 83:1 
32 5:1 6:1 15:1 22:1 36:1 40:1 57:1 63:1 67:1 73:1 74:1 76:1 82:1 83:1 
22.77321202147298 5:1 8:1 14:1 19:1 39:1 40:1 56:1 63:1 67:1 73:1 74:1 77:1 82:1 83:1 
32 4:1 9:1 18:1 20:1 37:1 40:1 48:1 63:1 67:1 73:1 74:1 76:1 80:1 83:1 
32 3:1 10:1 17:1 20:1 37:1 40:1 59:1 63:1 67:1 73:1 74:1 76:1 82:1 83:1 
3.477207423827287 4:1 10:1 14:1 29:1 39:1 40:1 52:1 61:1 71:1 72:1 74:1 76:1 79:1 83:1 
32 1:1 6:1 18:1 19:1 39:1 40:1 52:1 63:1 67:1 73:1 74:1 76:1 81:1 83:1 
32 3:1 6:1 18:1 20:1 37:1 41:1 55:1 66:1 67:1 72:1 75:1 76:1 78:1 83:1 
32 2:1 6:1 16:1 19:1 39:1 42:1 51:1 64:1 67:1 72:1 74:1 76:1 81:1 83:1 
32 2:1 7:1 17:1 22:1 36:1 40:1 49:1 61:1 67:1 72:1 74:1 77:1 80:1 83:1 
32 3:1 6:1 18:1 29:1 39:1 42:1 52:1 64:1 68:1 72:1 74:1 76:1 80:1 110:1 
32 4:1 9:1 17:1 22:1 36:1 40:1 55:1 61:1 67:1 72:1 74:1 76:1 80:1 83:1 
32 5:1 9:1 14:1 29:1 39:1 42:1 55:1 64:1 67:1 72:1 74:1 76:1 80:1 83:1 
32 5:1 10:1 15:1 22:1 36:1 40:1 48:1 63:1 67:1 73:1 74:1 77:1 79:1 83:1 
32 5:1 6:1 14:1 33:1 35:1 40:1 57:1 63:1 67:1 73:1 74:1 76:1 80:1 83:1 
32 2:1 6:1 17:1 19:1 39:1 40:1 50:1 63:1 67:1 73:1 74:1 76:1 80:1 83:1 
32 3:1 6:1 15:1 26:1 35:1 40:1 50:1 62:1 67:1 73:1 74:1 76:1 82:1 83:1 
32 2:1 6:1 14:1 19:1 39:1 40:1 50:1 63:1 67:1 73:1 74:1 76:1 82:1 83:1 
32 2:1 6:1 17:1 20:1 37:1 40:1 55:1 61:1 67:1 72:1 75:1 76:1 78:1 83:1 
32 4:1 7:1 14:1 29:1 39:1 42:1 51:1 64:1 68:1 73:1 74:1 76:1 81:1 83:1 
32 5:1 8:1 17:1 22:1 36:1 42:1 51:1 64:1 67:1 73:1 75:1 76:1 80:1 83:1 
32 5:1 8:1 15:1 24:1 38:1 40:1 50:1 63:1 67:1 73:1 74:1 76:1 82:1 83:1 
32 4:1 6:1 14:1 25:1 38:1 40:1 48:1 63:1 67:1 73:1 74:1 76:1 80:1 87:1 
32 1:1 6:1 18:1 19:1 39:1 40:1 51:1 63:1 67:1 73:1 74:1 76:1 80:1 83:1 
32 3:1 6:1 16:1 22:1 36:1 40:1 57:1 63:1 71:1 73:1 74:1 77:1 80:1 83:1 
32 3:1 6:1 14:1 24:1 38:1 40:1 51:1 63:1 67:1 73:1 74:1 76:1 81:1 83:1 
32 5:1 6:1 17:1 22:1 36:1 40:1 48:1 63:1 67:1 73:1 74:1 76:1 80:1 83:1 
32 3:1 6:1 18:1 20:1 37:1 41:1 52:1 64:1 67:1 72:1 74:1 76:1 81:1 83:1 
32 2:1 7:1 18:1 22:1 36:1 40:1 52:1 63:1 67:1 73:1 74:1 77:1 78:1 83:1 
32 5:1 6:1 14:1 19:1 39:1 40:1 51:1 63:1 67:1 73:1 74:1 76:1 80:1 83:1 
32 3:1 6:1 16:1 19:1 39:1 40:1 51:1 63:1 67:1 73:1 74:1 76:1 82:1 83:1 
32 5:1 10:1 17:1 29:1 39:1 40:1 52:1 63:1 71:1 73:1 74:1 76:1 80:1 83:1 
32 2:1 6:1 17:1 19:1 39:1 40:1 51:1 61:1 67:1 72:1 74:1 76:1 80:1 83:1 
32 5:1 8:1 17:1 20:1 37:1 40:1 51:1 63:1 67:1 73:1 74:1 76:1 80:1 83:1 
32 2:1 6:1 18:1 25:1 38:1 40:1 51:1 63:1 67:1 73:1 74:1 76:1 82:1 83:1 
32 3:1 6:1 17:1 31:1 35:1 40:1 51:1 63:1 67:1 73:1 74:1 76:1 80:1 83:1 
32 5:1 6:1 15:1 20:1 37:1 40:1 48:1 63:1 67:1 73:1 75:1 76:1 82:1 83:1 
32 4:1 11:1 18:1 20:1 37:1 40:1 59:1 63:1 67:1 73:1 74:1 76:1 80:1 83:1 
32 2:1 7:1 17:1 24:1 38:1 40:1 49:1 61:1 67:1 72:1 74:1 76:1 79:1 83:1 
32 5:1 9:1 18:1 20:1 37:1 40:1 55:1 63:1 67:1 73:1 74:1 76:1 80:1 83:1 
32 3:1 6:1 14:1 20:1 37:1 40:1 48:1 63:1 67:1 73:1 74:1 76:1 80:1 83:1 
32 3:1 7:1 15:1 23:1 39:1 40:1 52:1 63:1 67:1 73:1 74:1 76:1 82:1 83:1 
32 3:1 18:1 19:1 39:1 40:1 61:1 67:1 72:1 74:1 76:1 78:1 83:1 
32 4:1 6:1 16:1 22:1 36:1 41:1 48:1 64:1 71:1 73:1 75:1 76:1 81:1 83:1 
32 2:1 6:1 14:1 19:1 39:1 40:1 51:1 63:1 67:1 73:1 74:1 76:1 80:1 83:1 
32 2:1 6:1 16:1 24:1 38:1 40:1 52:1 63:1 67:1 73:1 74:1 76:1 81:1 83:1 
32 2:1 6:1 15:1 19:1 39:1 40:1 52:1 63:1 67:1 73:1 74:1 77:1 80:1 83:1 
32 5:1 11:1 15:1 32:1 39:1 42:1 51:1 64:1 67:1 72:1 74:1 76:1 80:1 83:1 
32 5:1 6:1 16:1 22:1 36:1 40:1 50:1 63:1 67:1 73:1 74:1 76:1 80:1 83:1 
32 3:1 6:1 15:1 22:1 36:1 40:1 50:1 63:1 67:1 73:1 74:1 76:1 80:1 83:1 
32 3:1 8:1 15:1 29:1 39:1 41:1 51:1 64:1 68:1 73:1 74:1 76:1 82:1 91:1 
32 5:1 18:1 26:1 35:1 40:1 63:1 67:1 73:1 75:1 76:1 80:1 83:1 
32 5:1 6:1 18:1 25:1 38:1 40:1 51:1 63:1 67:1 73:1 74:1 76:1 80:1 83:1 
32 4:1 6:1 18:1 20:1 37:1 40:1 52:1 63:1 67:1 73:1 75:1 76:1 80:1 83:1 
32 2:1 6:1 17:1 23:1 39:1 40:1 52:1 63:1 67:1 73:1 74:1 76:1 78:1 83:1 
32 3:1 6:1 14:1 29:1 39:1 40:1 51:1 63:1 67:1 73:1 74:1 76:1 80:1 83:1 
32 5:1 8:1 16:1 32:1 39:1 40:1 52:1 63:1 67:1 73:1 74:1 76:1 78:1 83:1 
32 5:1 8:1 14:1 21:1 35:1 40:1 51:1 63:1 67:1 73:1 75:1 76:1 79:1 83:1 
32 4:1 6:1 16:1 22:1 36:1 40:1 50:1 63:1 67:1 73:1 74:1 76:1 82:1 83:1 
32 4:1 6:1 17:1 22:1 36:1 40:1 57:1 63:1 67:1 73:1 74:1 76:1 82:1 83:1 
32 3:1 8:1 14:1 25:1 38:1 40:1 50:1 63:1 67:1 73:1 74:1 76:1 80:1 83:1 
32 5:1 6:1 16:1 22:1 36:1 41:1 48:1 66:1 71:1 73:1 74:1 76:1 82:1 83:1 
32 4:1 6:1 15:1 32:1 39:1 42:1 52:1 64:1 67:1 73:1 75:1 76:1 78:1 83:1 
32 3:1 6:1 18:1 22:1 36:1 41:1 57:1 64:1 67:1 73:1 74:1 76:1 82:1 83:1 
32 2:1 6:1 15:1 22:1 36:1 40:1 49:1 61:1 67:1 72:1 74:1 76:1 80:1 83:1 
32 3:1 11:1 18:1 32:1 39:1 40:1 52:1 63:1 67:1 73:1 74:1 76:1 81:1 88:1 
32 4:1 6:1 15:1 20:1 37:1 40:1 48:1 63:1 67:1 73:1 74:1 76:1 81:1 83:1 
28.65484303006604 3:1 6:1 15:1 29:1 39:1 40:1 52:1 61:1 67:1 72:1 74:1 77:1 78:1 83:1 
32 5:1 7:1 17:1 20:1 37:1 40:1 57:1 63:1 67:1 73:1 74:1 76:1 81:1 83:1 
32 4:1 6:1 18:1 20:1 37:1 43:1 50:1 64:1 67:1 73:1 74:1 76:1 82:1 83:1 
32 4:1 6:1 14:1 22:1 36:1 40:1 48:1 63:1 67:1 73:1 74:1 77:1 80:1 83:1 
32 2:1 6:1 14:1 22:1 36:1 40:1 55:1 61:1 67:1 72:1 74:1 76:1 80:1 83:1 
32 4:1 10:1 17:1 29:1 39:1 42:1 52:1 64:1 67:1 73:1 74:1 76:1 79:1 83:1 
32 2:1 10:1 15:1 19:1 39:1 40:1 59:1 63:1 67:1 73:1 74:1 76:1 82:1 83:1 
32 2:1 6:1 16:1 29:1 39:1 45:1 50:1 64:1 67:1 72:1 74:1 76:1 82:1 83:1 
32 2:1 6:1 14:1 20:1 37:1 40:1 57:1 63:1 67:1 73:1 75:1 76:1 82:1 83:1 
32 5:1 11:1 15:1 31:1 35:1 40:1 57:1 63:1 67:1 73:1 74:1 76:1 80:1 83:1 
32 3:1 10:1 16:1 19:1 39:1 42:1 59:1 64:1 67:1 72:1 75:1 76:1 81:1 83:1 
32 3:1 11:1 14:1 20:1 37:1 40:1 51:1 61:1 67:1 72:1 75:1 76:1 79:1 83:1 
32 5:1 6:1 16:1 22:1 36:1 40:1 57:1 63:1 67:1 73:1 74:1 76:1 80:1 83:1 
32 2:1 6:1 16:1 19:1 39:1 42:1 51:1 64:1 67:1 73:1 74:1 76:1 82:1 83:1 
32 5:1 6:1 17:1 22:1 36:1 40:1 50:1 63:1 67:1 73:1 74:1 76:1 79:1 83:1 
32 4:1 6:1 17:1 25:1 38:1 40:1 52:1 63:1 67:1 73:1 74:1 76:1 80:1 83:1 
32 4:1 11:1 14:1 22:1 36:1 40:1 48:1 63:1 67:1 73:1 74:1 76:1 80:1 83:1 
32 5:1 10:1 15:1 22:1 36:1 40:1 59:1 63:1 67:1 73:1 74:1 76:1 82:1 83:1 
32 2:1 6:1 17:1 19:1 39:1 40:1 51:1 63:1 67:1 73:1 74:1 76:1 81:1 83:1 
32 5:1 8:1 16:1 19:1 39:1 40:1 50:1 63:1 67:1 73:1 74:1 76:1 78:1 83:1 
32 4:1 10:1 18:1 20:1 37:1 40:1 51:1 63:1 67:1 73:1 74:1 76:1 80:1 83:1 
17.73740219640696 3:1 7:1 17:1 32:1 39:1 40:1 52:1 63:1 67:1 73:1 74:1 76:1 82:1 83:1 
32 2:1 6:1 16:1 19:1 39:1 42:1 55:1 62:1 67:1 72:1 74:1 76:1 80:1 83:1 
32 4:1 10:1 16:1 19:1 39:1 40:1 52:1 61:1 71:1 72:1 74:1 76:1 80:1 83:1 
32 4:1 11:1 16:1 29:1 39:1 40:1 55:1 63:1 67:1 73:1 74:1 76:1 80:1 83:1 
32 2:1 7:1 14:1 22:1 36:1 40:1 56:1 63:1 67:1 73:1 74:1 76:1 82:1 83:1 
32 4:1 6:1 16:1 22:1 36:1 40:1 55:1 61:1 67:1 72:1 74:1 76:1 80:1 83:1 
32 5:1 6:1 15:1 22:1 36:1 40:1 48:1 63:1 67:1 73:1 74:1 76:1 81:1 119:1 
32 5:1 6:1 17:1 20:1 37:1 40:1 47:1 61:1 67:1 72:1 74:1 76:1 80:1 83:1 
32 5:1 6:1 15:1 22:1 36:1 40:1 53:1 63:1 67:1 73:1 74:1 76:1 80:1 83:1 
32 2:1 6:1 14:1 22:1 36:1 40:1 52:1 63:1 67:1 73:1 74:1 76:1 79:1 83:1 
32 2:1 9:1 18:1 29:1 39:1 40:1 52:1 63:1 67:1 73:1 74:1 76:1 80:1 83:1 
32 4:1 6:1 14:1 28:1 35:1 40:1 48:1 63:1 67:1 73:1 74:1 76:1 80:1 83:1 
32 3:1 11:1 16:1 22:1 36:1 40:1 48:1 63:1 67:1 73:1 74:1 77:1 80:1 83:1 
32 2:1 6:1 14:1 22:1 36:1 40:1 54:1 63:1 68:1 73:1 74:1 76:1 80:1 102:1 
32 4:1 6:1 18:1 19:1 39:1 40:1 54:1 63:1 67:1 73:1 74:1 77:1 80:1 83:1 
32 4:1 7:1 16:1 22:1 36:1 40:1 56:1 63:1 67:1 73:1 74:1 76:1 82:1 83:1 
32 5:1 8:1 15:1 25:1 38:1 40:1 51:1 63:1 67:1 73:1 74:1 76:1 80:1 92:1 
32 3:1 10:1 16:1 22:1 36:1 41:1 53:1 64:1 67:1 73:1 74:1 76:1 80:1 83:1 
32 1:1 6:1 18:1 20:1 37:1 40:1 55:1 61:1 71:1 72:1 75:1 76:1 80:1 83:1 
32 3:1 6:1 18:1 22:1 36:1 40:1 51:1 63:1 67:1 73:1 75:1 76:1 82:1 83:1 
32 2:1 10:1 17:1 22:1 36:1 40:1 59:1 63:1 67:1 73:1 74:1 76:1 80:1 83:1 
32 2:1 6:1 18:1 22:1 36:1 40:1 51:1 63:1 67:1 73:1 74:1 76:1 80:1 83:1 
32 5:1 6:1 18:1 20:1 37:1 40:1 48:1 63:1 67:1 73:1 74:1 76:1 80:1 83:1 
32 2:1 7:1 18:1 24:1 38:1 40:1 48:1 64:1 67:1 73:1 74:1 76:1 82:1 83:1 
32 5:1 6:1 14:1 29:1 39:1 40:1 52:1 63:1 68:1 73:1 74:1 76:1 81:1 90:1 
32 5:1 6:1 18:1 22:1 36:1 40:1 48:1 63:1 67:1 73:1 74:1 76:1 82:1 83:1 
32 3:1 6:1 18:1 29:1 39:1 42:1 51:1 64:1 71:1 72:1 74:1 76:1 80:1 83:1 
32 2:1 6:1 14:1 19:1 39:1 40:1 50:1 63:1 67:1 73:1 74:1 76:1 82:1 83:1 
32 5:1 9:1 14:1 22:1 36:1 40:1 55:1 63:1 67:1 73:1 74:1 76:1 80:1 83:1 
32 3:1 6:1 18:1 19:1 39:1 40:1 50:1 63:1 67:1 73:1 74:1 76:1 80:1 83:1 
32 3:1 6:1 16:1 22:1 36:1 40:1 54:1 63:1 67:1 73:1 75:1 76:1 80:1 83:1 
32 3:1 9:1 17:1 24:1 38:1 42:1 52:1 64:1 67:1 73:1 74:1 76:1 80:1 83:1 
32 5:1 6:1 16:1 19:1 39:1 40:1 47:1 63:1 67:1 73:1 74:1 76:1 82:1 83:1 
32 3:1 6:1 15:1 22:1 36:1 40:1 50:1 63:1 67:1 73:1 74:1 77:1 80:1 83:1 
32 4:1 6:1 16:1 19:1 39:1 43:1 51:1 66:1 67:1 73:1 75:1 76:1 80:1 83:1 
32 4:1 7:1 18:1 20:1 37:1 40:1 48:1 63:1 67:1 73:1 74:1 77:1 82:1 83:1 
32 3:1 6:1 18:1 25:1 38:1 40:1 47:1 61:1 67:1 72:1 74:1 76:1 79:1 83:1 
32 5:1 10:1 17:1 19:1 39:1 44:1 52:1 66:1 67:1 72:1 74:1 76:1 82:1 83:1 
32 3:1 8:1 14:1 20:1 37:1 40:1 57:1 63:1 67:1 73:1 74:1 76:1 80:1 83:1 
32 5:1 10:1 14:1 25:1 38:1 41:1 52:1 66:1 67:1 73:1 74:1 76:1 80:1 83:1 
32 4:1 6:1 17:1 20:1 37:1 40:1 52:1 63:1 67:1 73:1 74:1 76:1 80:1 83:1 
32 5:1 6:1 14:1 29:1 39:1 40:1 52:1 63:1 67:1 73:1 74:1 76:1 79:1 87:1 
32 4:1 6:1 14:1 19:1 39:1 40:1 50:1 63:1 67:1 73:1 74:1 76:1 82:1 83:1 
32 2:1 7:1 15:1 19:1 39:1 40:1 54:1 63:1 67:1 73:1 74:1 76:1 82:1 83:1 
32 5:1 7:1 18:1 24:1 38:1 40:1 51:1 61:1 67:1 72:1 75:1 76:1 78:1 83:1 
32 2:1 10:1 15:1 22:1 36:1 40:1 51:1 63:1 67:1 73:1 74:1 76:1 82:1 83:1 
32 4:1 6:1 18:1 19:1 39:1 42:1 50:1 64:1 67:1 73:1 74:1 76:1 82:1 83:1 
32 3:1 6:1 18:1 22:1 36:1 40:1 48:1 63:1 67:1 73:1 74:1 76:1 80:1 83:1 
32 4:1 10:1 16:1 19:1 39:1 40:1 48:1 63:1 67:1 73:1 74:1 76:1 79:1 83:1 
32 4:1 6:1 14:1 22:1 36:1 40:1 50:1 63:1 67:1 73:1 74:1 76:1 82:1 83:1 
32 4:1 6:1 18:1 27:1 35:1 40:1 54:1 63:1 67:1 73:1 74:1 76:1 80:1 83:1 
32 5:1 6:1 16:1 19:1 39:1 40:1 51:1 63:1 67:1 73:1 74:1 76:1 80:1 
32 3:1 6:1 15:1 20:1 37:1 41:1 51:1 64:1 67:1 72:1 74:1 76:1 80:1 83:1 
32 2:1 8:1 16:1 22:1 36:1 41:1 51:1 64:1 67:1 73:1 74:1 76:1 82:1 83:1 
32 4:1 10:1 17:1 29:1 39:1 40:1 55:1 63:1 67:1 73:1 74:1 76:1 80:1 99:1 
32 5:1 9:1 15:1 20:1 37:1 40:1 55:1 63:1 67:1 73:1 75:1 76:1 80:1 83:1 
32 4:1 6:1 15:1 19:1 39:1 40:1 50:1 63:1 67:1 73:1 74:1 76:1 80:1 83:1 
32 5:1 6:1 15:1 20:1 37:1 40:1 52:1 63:1 67:1 73:1 74:1 77:1 82:1 83:1 
32 3:1 6:1 17:1 22:1 36:1 41:1 52:1 62:1 67:1 72:1 74:1 76:1 80:1 83:1 
32 2:1 6:1 15:1 29:1 39:1 40:1 51:1 63:1 67:1 73:1 74:1 76:1 81:1 83:1 
32 4:1 6:1 17:1 22:1 36:1 40:1 48:1 63:1 67:1 73:1 74:1 76:1 82:1 83:1 
32 1:1 6:1 18:1 20:1 37:1 40:1 55:1 63:1 67:1 73:1 74:1 76:1 80:1 83:1 
32 3:1 9:1 17:1 22:1 36:1 40:1 51:1 63:1 67:1 73:1 74:1 76:1 81:1 83:1 
32 2:1 11:1 18:1 20:1 37:1 41:1 59:1 64:1 67:1 73:1 74:1 76:1 80:1 83:1 
32 4:1 6:1 16:1 20:1 37:1 40:1 51:1 63:1 67:1 73:1 74:1 76:1 82:1 83:1 
32 3:1 8:1 16:1 19:1 39:1 42:1 51:1 64:1 67:1 72:1 74:1 76:1 82:1 83:1 
32 5:1 11:1 15:1 22:1 36:1 40:1 51:1 63:1 67:1 73:1 74:1 77:1 80:1 83:1 
32 4:1 6:1 17:1 20:1 37:1 40:1 57:1 63:1 67:1 73:1 74:1 76:1 80:1 83:1 
32 3:1 6:1 17:1 22:1 36:1 40:1 54:1 63:1 67:1 73:1 74:1 76:1 80:1 83:1 
32 5:1 6:1 16:1 22:1 36:1 40:1 54:1 63:1 67:1 73:1 74:1 76:1 81:1 83:1 
32 5:1 6:1 15:1 31:1 35:1 40:1 48:1 63:1 67:1 73:1 75:1 76:1 80:1 83:1 
32 3:1 10:1 14:1 19:1 39:1 40:1 52:1 61:1 67:1 72:1 74:1 76:1 81:1 83:1 
32 4:1 6:1 14:1 19:1 39:1 40:1 52:1 63:1 67:1 73:1 74:1 76:1 82:1 83:1 
32 3:1 6:1 17:1 19:1 39:1 40:1 55:1 63:1 67:1 73:1 74:1 76:1 82:1 83:1 
32 5:1 6:1 16:1 25:1 38:1 40:1 48:1 63:1 67:1 73:1 74:1 76:1 80:1 83:1 
32 5:1 7:1 14:1 20:1 37:1 40:1 51:1 63:1 67:1 73:1 74:1 76:1 82:1 83:1 
32 3:1 6:1 18:1 22:1 36:1 40:1 51:1 61:1 67:1 72:1 75:1 76:1 80:1 83:1 
32 3:1 6:1 15:1 22:1 36:1 40:1 52:1 63:1 67:1 73:1 74:1 76:1 81:1 109:1 
32 5:1 7:1 14:1 19:1 39:1 41:1 56:1 64:1 67:1 73:1 75:1 76:1 82:1 83:1 
32 5:1 6:1 16:1 22:1 36:1 40:1 53:1 63:1 67:1 73:1 74:1 76:1 80:1 83:1 
32 5:1 6:1 15:1 25:1 38:1 40:1 48:1 63:1 67:1 73:1 74:1 77:1 82:1 83:1 
32 5:1 6:1 16:1 29:1 39:1 41:1 51:1 64:1 67:1 73:1 74:1 76:1 82:1 83:1 
32 4:1 6:1 15:1 19:1 39:1 40:1 50:1 63:1 67:1 73:1 74:1 76:1 80:1 83:1 
32 2:1 6:1 16:1 19:1 39:1 40:1 50:1 63:1 67:1 73:1 74:1 77:1 80:1 83:1 
32 4:1 10:1 15:1 20:1 37:1 40:1 59:1 63:1 67:1 73:1 74:1 76:1 80:1 83:1 
32 4:1 11:1 15:1 29:1 39:1 40:1 52:1 63:1 67:1 73:1 74:1 76:1 80:1 83:1 
32 5:1 6:1 16:1 19:1 39:1 40:1 52:1 63:1 67:1 73:1 74:1 76:1 80:1 83:1 
32 4:1 6:1 18:1 20:1 37:1 40:1 51:1 63:1 67:1 73:1 74:1 76:1 82:1 83:1 
32 5:1 7:1 18:1 19:1 39:1 40:1 52:1 63:1 67:1 73:1 74:1 76:1 81:1 83:1 
32 5:1 6:1 17:1 22:1 36:1 40:1 51:1 63:1 67:1 73:1 74:1 76:1 80:1 83:1 
32 5:1 11:1 15:1 29:1 39:1 45:1 51:1 66:1 67:1 72:1 75:1 76:1 81:1 83:1 
32 3:1 11:1 15:1 19:1 39:1 40:1 52:1 63:1 68:1 73:1 75:1 76:1 82:1 90:1 
32 4:1 6:1 17:1 22:1 36:1 40:1 50:1 63:1 67:1 73:1 74:1 76:1 82:1 83:1 
32 4:1 6:1 17:1 20:1 37:1 40:1 48:1 63:1 67:1 73:1 74:1 76:1 82:1 83:1 
32 2:1 6:1 15:1 19:1 39:1 42:1 51:1 64:1 67:1 73:1 74:1 76:1 82:1 83:1 
32 5:1 6:1 16:1 22:1 36:1 40:1 50:1 63:1 67:1 73:1 74:1 76:1 82:1 83:1 
32 5:1 18:1 22:1 36:1 40:1 63:1 67:1 73:1 74:1 76:1 80:1 83:1 
32 5:1 8:1 16:1 20:1 37:1 40:1 48:1 63:1 67:1 73:1 74:1 76:1 82:1 83:1 
32 4:1 6:1 18:1 29:1 39:1 40:1 52:1 63:1 67:1 73:1 74:1 76:1 80:1 95:1 
32 4:1 6:1 16:1 22:1 36:1 41:1 56:1 64:1 67:1 73:1 74:1 77:1 81:1 83:1 
32 3:1 6:1 15:1 22:1 36:1 40:1 54:1 63:1 67:1 73:1 74:1 77:1 80:1 83:1 
32 4:1 9:1 18:1 20:1 37:1 42:1 55:1 64:1 67:1 73:1 75:1 76:1 82:1 83:1 
32 4:1 8:1 15:1 20:1 37:1 40:1 51:1 63:1 67:1 73:1 74:1 76:1 82:1 83:1 
32 1:1 10:1 16:1 33:1 35:1 42:1 53:1 65:1 67:1 73:1 74:1 76:1 80:1 114:1 
32 4:1 6:1 18:1 22:1 36:1 40:1 49:1 63:1 67:1 73:1 74:1 77:1 80:1 83:1 
32 3:1 7:1 16:1 22:1 36:1 40:1 50:1 63:1 67:1 73:1 74:1 77:1 81:1 83:1 
32 5:1 6:1 16:1 29:1 39:1 41:1 52:1 64:1 67:1 72:1 74:1 77:1 80:1 83:1 
32 4:1 8:1 14:1 29:1 39:1 40:1 50:1 63:1 67:1 73:1 74:1 76:1 82:1 
32 3:1 6:1 15:1 19:1 39:1 41:1 52:1 66:1 71:1 72:1 75:1 76:1 81:1 83:1 
-32 3:1 11:1 14:1 19:1 39:1 42:1 55:1 64:1 67:1 73:1 75:1 76:1 80:1 83:1 
-32 4:1 6:1 15:1 21:1 35:1 40:1 57:1 63:1 67:1 73:1 74:1 77:1 80:1 83:1 
-32 2:1 6:1 16:1 22:1 36:1 40:1 54:1 63:1 67:1 73:1 75:1 76:1 80:1 83:1 
-32 4:1 6:1 17:1 19:1 39:1 43:1 49:1 65:1 71:1 73:1 74:1 76:1 82:1 83:1 
-32 4:1 6:1 15:1 19:1 39:1 40:1 52:1 63:1 67:1 73:1 74:1 76:1 82:1 83:1 
-32 4:1 6:1 18:1 19:1 39:1 40:1 55:1 61:1 71:1 72:1 74:1 76:1 80:1 83:1 
-32 5:1 6:1 15:1 20:1 37:1 40:1 50:1 63:1 67:1 73:1 75:1 76:1 80:1 83:1 
-32 3:1 15:1 29:1 39:1 40:1 61:1 68:1 72:1 75:1 76:1 80:1 
-32 5:1 7:1 16:1 29:1 39:1 40:1 48:1 63:1 67:1 73:1 74:1 76:1 78:1 83:1 
-1.002987150709937 4:1 7:1 14:1 29:1 39:1 41:1 51:1 64:1 67:1 73:1 74:1 76:1 78:1 83:1 
-19.62208298544449 2:1 6:1 15:1 22:1 36:1 40:1 55:1 63:1 67:1 73:1 74:1 76:1 80:1 83:1 
-32 2:1 6:1 15:1 19:1 39:1 40:1 52:1 63:1 67:1 73:1 74:1 76:1 82:1 83:1 
-23.09102121830783 5:1 18:1 30:1 35:1 40:1 63:1 67:1 73:1 74:1 76:1 79:1 83:1 
-32 5:1 8:1 14:1 19:1 39:1 41:1 52:1 64:1 67:1 73:1 74:1 76:1 82:1 83:1 
-32 4:1 15:1 22:1 36:1 40:1 63:1 67:1 73:1 74:1 76:1 80:1 83:1 
-32 5:1 14:1 22:1 36:1 40:1 61:1 68:1 72:1 74:1 76:1 80:1 83:1 
-32 5:1 8:1 14:1 19:1 39:1 40:1 50:1 63:1 67:1 73:1 74:1 76:1 82:1 83:1 
-32 3:1 7:1 18:1 22:1 36:1 40:1 50:1 63:1 67:1 73:1 74:1 76:1 82:1 83:1 
-32 4:1 8:1 17:1 33:1 35:1 40:1 57:1 63:1 67:1 73:1 74:1 76:1 82:1 95:1 
-32 2:1 6:1 14:1 20:1 37:1 40:1 48:1 63:1 67:1 73:1 74:1 76:1 81:1 83:1 
-32 5:1 15:1 22:1 36:1 40:1 63:1 67:1 73:1 74:1 76:1 82:1 83:1 
-32 3:1 10:1 15:1 19:1 39:1 42:1 52:1 64:1 67:1 73:1 74:1 76:1 82:1 83:1 
-32 2:1 6:1 16:1 25:1 38:1 40:1 55:1 63:1 67:1 73:1 74:1 77:1 81:1 83:1 
-32 3:1 6:1 14:1 29:1 39:1 40:1 52:1 63:1 67:1 73:1 74:1 76:1 80:1 
-32 5:1 7:1 14:1 22:1 36:1 40:1 56:1 63:1 67:1 73:1 74:1 77:1 82:1 83:1 
-32 3:1 6:1 16:1 29:1 39:1 40:1 52:1 63:1 67:1 73:1 74:1 76:1 78:1 83:1 
-32 5:1 6:1 15:1 22:1 36:1 40:1 54:1 63:1 67:1 73:1 75:1 76:1 80:1 83:1 
-11.25359759101433 2:1 6:1 15:1 19:1 39:1 42:1 50:1 64:1 71:1 72:1 74:1 77:1 80:1 83:1 
-32 4:1 6:1 18:1 25:1 38:1 40:1 57:1 63:1 67:1 73:1 74:1 76:1 82:1 83:1 
-32 4:1 6:1 17:1 22:1 36:1 40:1 57:1 63:1 67:1 73:1 74:1 76:1 82:1 83:1 
-32 5:1 7:1 17:1 20:1 37:1 40:1 50:1 63:1 67:1 73:1 74:1 76:1 82:1 83:1 
-32 5:1 6:1 18:1 22:1 36:1 40:1 48:1 63:1 67:1 73:1 74:1 76:1 82:1 83:1 
-32 4:1 6:1 16:1 22:1 36:1 40:1 48:1 63:1 67:1 73:1 74:1 76:1 80:1 83:1 
-23.65170743569312 4:1 10:1 15:1 19:1 39:1 41:1 52:1 64:1 71:1 72:1 74:1 76:1 80:1 83:1 
-32 5:1 6:1 14:1 20:1 37:1 40:1 48:1 63:1 67:1 73:1 74:1 76:1 80:1 83:1 
-32 4:1 7:1 16:1 20:1 37:1 40:1 56:1 63:1 67:1 73:1 74:1 76:1 82:1 83:1 
-32 3:1 11:1 14:1 20:1 37:1 40:1 51:1 63:1 67:1 73:1 74:1 76:1 80:1 83:1 
-32 4:1 8:1 14:1 19:1 39:1 40:1 50:1 63:1 67:1 73:1 74:1 76:1 82:1 83:1 
-32 3:1 6:1 14:1 20:1 37:1 40:1 48:1 63:1 67:1 73:1 74:1 77:1 81:1 83:1 
-32 5:1 11:1 14:1 22:1 36:1 40:1 51:1 63:1 67:1 73:1 74:1 76:1 80:1 83:1 
-32 5:1 6:1 16:1 23:1 39:1 40:1 52:1 63:1 67:1 73:1 74:1 77:1 82:1 83:1 
-32 5:1 6:1 17:1 20:1 37:1 40:1 59:1 63:1 67:1 73:1 74:1 76:1 78:1 83:1 
-32 3:1 6:1 15:1 20:1 37:1 40:1 53:1 63:1 67:1 73:1 74:1 76:1 80:1 83:1 
-32 3:1 6:1 18:1 22:1 36:1 40:1 51:1 63:1 67:1 73:1 74:1 76:1 80:1 83:1 
-32 3:1 6:1 16:1 29:1 39:1 42:1 52:1 64:1 67:1 73:1 75:1 76:1 82:1 83:1 
-32 5:1 14:1 22:1 36:1 40:1 63:1 67:1 73:1 74:1 76:1 80:1 83:1 
-32 4:1 6:1 18:1 22:1 36:1 40:1 57:1 63:1 67:1 73:1 74:1 76:1 80:1 83:1 
-32 2:1 9:1 16:1 24:1 38:1 40:1 55:1 63:1 67:1 73:1 74:1 76:1 82:1 83:1 
-32 4:1 7:1 17:1 19:1 39:1 40:1 56:1 63:1 67:1 73:1 74:1 76:1 81:1 83:1 
-10.31566519735072 5:1 10:1 16:1 19:1 39:1 43:1 52:1 64:1 67:1 73:1 74:1 76:1 78:1 
-32 4:1 6:1 14:1 20:1 37:1 41:1 51:1 64:1 67:1 73:1 74:1 77:1 80:1 83:1 
-32 3:1 6:1 14:1 19:1 39:1 40:1 56:1 63:1 67:1 73:1 74:1 76:1 82:1 83:1 
-32 3:1 10:1 17:1 19:1 39:1 40:1 55:1 63:1 67:1 73:1 74:1 76:1 80:1 83:1 
-32 5:1 8:1 14:1 19:1 39:1 40:1 54:1 63:1 67:1 73:1 75:1 76:1 78:1 83:1 
-32 5:1 11:1 15:1 32:1 39:1 40:1 52:1 63:1 68:1 73:1 75:1 76:1 80:1 90:1 
-32 5:1 16:1 22:1 36:1 40:1 63:1 67:1 73:1 74:1 76:1 80:1 83:1 
-32 3:1 6:1 15:1 19:1 39:1 40:1 52:1 63:1 68:1 73:1 74:1 76:1 81:1 
-24.85235108333568 4:1 9:1 18:1 21:1 35:1 42:1 47:1 64:1 67:1 73:1 74:1 77:1 80:1 83:1 
-32 3:1 6:1 18:1 23:1 39:1 42:1 52:1 64:1 67:1 73:1 74:1 76:1 82:1 83:1 
-27.53066145657575 4:1 10:1 18:1 22:1 36:1 40:1 49:1 63:1 67:1 73:1 74:1 76:1 80:1 83:1 
-32 3:1 11:1 17:1 29:1 39:1 41:1 52:1 64:1 67:1 72:1 74:1 76:1 81:1 83:1 
-32 3:1 6:1 16:1 20:1 37:1 40:1 52:1 63:1 67:1 73:1 74:1 76:1 82:1 83:1 
-32 2:1 9:1 18:1 19:1 39:1 40:1 51:1 63:1 67:1 73:1 74:1 76:1 80:1 83:1 
-32 4:1 16:1 22:1 36:1 40:1 63:1 67:1 73:1 74:1 76:1 80:1 83:1 
-13.40172676935607 5:1 6:1 16:1 27:1 35:1 40:1 48:1 63:1 67:1 73:1 74:1 76:1 82:1 83:1 
-32 4:1 6:1 17:1 22:1 36:1 40:1 50:1 63:1 67:1 73:1 74:1 76:1 80:1 83:1 
-32 4:1 10:1 17:1 20:1 37:1 40:1 51:1 63:1 67:1 73:1 74:1 76:1 80:1 83:1 
-32 3:1 6:1 18:1 19:1 39:1 40:1 50:1 61:1 67:1 72:1 74:1 76:1 78:1 83:1 
-32 3:1 6:1 18:1 20:1 37:1 40:1 51:1 63:1 67:1 73:1 74:1 76:1 80:1 83:1 
-32 4:1 8:1 18:1 20:1 37:1 40:1 50:1 63:1 67:1 73:1 74:1 76:1 82:1 83:1 
-32 3:1 6:1 18:1 22:1 36:1 41:1 51:1 66:1 67:1 72:1 74:1 77:1 82:1 83:1 
-32 4:1 6:1 15:1 22:1 36:1 40:1 50:1 63:1 67:1 73:1 74:1 76:1 80:1 83:1 
-32 3:1 6:1 15:1 29:1 39:1 40:1 52:1 63:1 68:1 73:1 74:1 76:1 80:1 94:1 
-32 3:1 6:1 18:1 22:1 36:1 40:1 50:1 61:1 67:1 72:1 74:1 76:1 79:1 83:1 
-32 3:1 6:1 14:1 22:1 36:1 40:1 48:1 63:1 67:1 73:1 74:1 77:1 80:1 83:1 
-32 2:1 6:1 17:1 19:1 39:1 40:1 49:1 63:1 67:1 73:1 74:1 76:1 82:1 83:1 
-32 5:1 6:1 14:1 29:1 39:1 41:1 52:1 64:1 67:1 72:1 74:1 76:1 80:1 83:1 
-32 4:1 6:1 18:1 20:1 37:1 40:1 54:1 63:1 67:1 73:1 74:1 76:1 80:1 103:1 
-32 4:1 6:1 18:1 21:1 35:1 40:1 57:1 63:1 67:1 73:1 74:1 77:1 80:1 83:1 
-32 2:1 6:1 14:1 22:1 36:1 40:1 51:1 63:1 67:1 73:1 74:1 76:1 82:1 83:1 
-32 5:1 6:1 16:1 22:1 36:1 40:1 49:1 63:1 67:1 73:1 74:1 76:1 82:1 83:1 
-32 4:1 11:1 15:1 22:1 36:1 40:1 59:1 63:1 67:1 73:1 74:1 76:1 80:1 83:1 
-32 5:1 7:1 15:1 25:1 38:1 40:1 56:1 63:1 67:1 73:1 74:1 76:1 80:1 83:1 
-32 4:1 8:1 16:1 19:1 39:1 42:1 50:1 64:1 67:1 73:1 75:1 76:1 82:1 83:1 
-32 3:1 6:1 16:1 22:1 36:1 40:1 57:1 63:1 67:1 73:1 75:1 76:1 80:1 83:1 
-32 4:1 6:1 16:1 19:1 39:1 40:1 54:1 63:1 69:1 73:1 74:1 76:1 80:1 83:1 
-32 5:1 10:1 15:1 19:1 39:1 40:1 52:1 63:1 68:1 73:1 74:1 76:1 79:1 90:1 
-32 2:1 10:1 16:1 29:1 39:1 40:1 52:1 63:1 67:1 73:1 74:1 76:1 82:1 83:1 
-32 5:1 6:1 16:1 22:1 36:1 40:1 51:1 63:1 67:1 73:1 74:1 76:1 81:1 83:1 
-32 5:1 7:1 15:1 20:1 37:1 40:1 51:1 63:1 67:1 73:1 74:1 76:1 78:1 83:1 
-32 4:1 9:1 18:1 25:1 38:1 40:1 59:1 63:1 67:1 73:1 75:1 76:1 80:1 83:1 
-32 3:1 6:1 18:1 22:1 36:1 40:1 48:1 63:1 67:1 73:1 74:1 76:1 81:1 83:1 
-32 4:1 10:1 17:1 19:1 39:1 42:1 51:1 64:1 67:1 73:1 74:1 76:1 80:1 83:1 
-32 4:1 7:1 18:1 22:1 36:1 40:1 51:1 63:1 67:1 73:1 74:1 76:1 82:1 83:1 
-32 5:1 6:1 15:1 20:1 37:1 40:1 50:1 63:1 67:1 73:1 74:1 76:1 82:1 83:1 
-32 5:1 6:1 14:1 20:1 37:1 40:1 49:1 63:1 67:1 73:1 74:1 76:1 80:1 83:1 
-32 2:1 6:1 18:1 19:1 39:1 40:1 48:1 63:1 67:1 73:1 74:1 76:1 80:1 83:1 
-32 2:1 6:1 16:1 22:1 36:1 40:1 55:1 61:1 71:1 72:1 74:1 76:1 80:1 83:1 
-15.77201620399414 1:1 6:1 17:1 19:1 39:1 42:1 51:1 64:1 67:1 73:1 74:1 76:1 80:1 83:1 
-32 5:1 7:1 14:1 20:1 37:1 40:1 50:1 63:1 67:1 73:1 74:1 76:1 81:1 83:1 
-32 3:1 6:1 16:1 29:1 39:1 41:1 52:1 64:1 67:1 73:1 74:1 76:1 81:1 83:1 
-32 4:1 6:1 15:1 19:1 39:1 40:1 48:1 63:1 67:1 73:1 74:1 76:1 80:1 83:1 
-32 2:1 6:1 17:1 20:1 37:1 40:1 50:1 63:1 67:1 73:1 74:1 76:1 81:1 83:1 
-32 2:1 6:1 14:1 22:1 36:1 40:1 54:1 61:1 67:1 72:1 74:1 76:1 82:1 83:1 
-32 2:1 6:1 18:1 19:1 39:1 40:1 51:1 63:1 67:1 73:1 74:1 76:1 80:1 83:1 
-32 3:1 6:1 15:1 19:1 39:1 42:1 51:1 62:1 67:1 73:1 74:1 76:1 82:1 83:1 
-17.88526718635929 5:1 6:1 15:1 33:1 35:1 40:1 53:1 63:1 67:1 73:1 74:1 76:1 82:1 
-32 3:1 10:1 15:1 20:1 37:1 40:1 59:1 63:1 67:1 73:1 74:1 76:1 82:1 83:1 
-32 5:1 6:1 15:1 20:1 37:1 40:1 54:1 63:1 67:1 73:1 74:1 76:1 82:1 83:1 
-32 2:1 7:1 16:1 25:1 38:1 40:1 52:1 63:1 70:1 73:1 74:1 76:1 82:1 83:1 
-32 4:1 7:1 17:1 19:1 39:1 40:1 51:1 63:1 67:1 73:1 74:1 76:1 82:1 88:1 
-32 2:1 6:1 18:1 22:1 36:1 40:1 51:1 61:1 67:1 72:1 74:1 76:1 80:1 83:1 
-32 3:1 7:1 18:1 22:1 36:1 40:1 51:1 63:1 67:1 73:1 74:1 76:1 82:1 83:1 
-32 4:1 6:1 18:1 20:1 37:1 40:1 47:1 63:1 67:1 73:1 74:1 76:1 80:1 83:1 
-32 3:1 6:1 16:1 19:1 39:1 40:1 49:1 61:1 67:1 72:1 74:1 76:1 80:1 83:1 
-32 5:1 6:1 15:1 20:1 37:1 41:1 48:1 64:1 67:1 73:1 75:1 76:1 80:1 83:1 
-32 3:1 10:1 17:1 20:1 37:1 40:1 48:1 63:1 67:1 73:1 74:1 77:1 80:1 83:1 
-32 5:1 8:1 15:1 20:1 37:1 41:1 51:1 64:1 67:1 73:1 74:1 76:1 82:1 83:1 
-32 2:1 11:1 18:1 22:1 36:1 40:1 59:1 63:1 67:1 73:1 74:1 76:1 81:1 83:1 
-25.55715644130007 1:1 6:1 18:1 20:1 37:1 40:1 55:1 63:1 67:1 73:1 74:1 76:1 80:1 83:1 
-32 3:1 6:1 16:1 25:1 38:1 40:1 48:1 63:1 67:1 73:1 74:1 76:1 80:1 83:1 
-32 5:1 6:1 17:1 20:1 37:1 40:1 48:1 63:1 67:1 73:1 74:1 76:1 80:1 83:1 
-32 3:1 6:1 14:1 20:1 37:1 40:1 48:1 63:1 67:1 73:1 74:1 76:1 80:1 83:1 
-32 2:1 6:1 17:1 19:1 39:1 40:1 52:1 63:1 67:1 73:1 75:1 76:1 80:1 88:1 
-32 3:1 6:1 18:1 20:1 37:1 40:1 50:1 63:1 67:1 73:1 74:1 76:1 82:1 83:1 
-32 2:1 11:1 17:1 23:1 39:1 42:1 52:1 64:1 68:1 73:1 75:1 76:1 82:1 90:1 
-32 4:1 6:1 16:1 20:1 37:1 40:1 50:1 63:1 67:1 73:1 74:1 76:1 82:1 83:1 
-32 4:1 6:1 18:1 22:1 36:1 40:1 50:1 63:1 67:1 73:1 75:1 76:1 82:1 83:1 
-32 1:1 6:1 18:1 22:1 36:1 40:1 51:1 63:1 67:1 73:1 74:1 76:1 82:1 83:1 
-32 2:1 6:1 14:1 19:1 39:1 42:1 52:1 64:1 67:1 72:1 75:1 76:1 80:1 83:1 
-32 2:1 6:1 14:1 19:1 39:1 40:1 50:1 63:1 67:1 73:1 74:1 76:1 82:1 83:1 
-32 1:1 6:1 17:1 22:1 36:1 40:1 55:1 61:1 67:1 72:1 74:1 76:1 80:1 103:1 
-32 3:1 6:1 14:1 20:1 37:1 40:1 48:1 63:1 67:1 73:1 75:1 76:1 79:1 83:1 
-32 1:1 6:1 17:1 19:1 39:1 40:1 52:1 61:1 67:1 72:1 74:1 76:1 80:1 83:1 
-32 4:1 6:1 17:1 22:1 36:1 40:1 52:1 61:1 67:1 72:1 74:1 76:1 78:1 83:1 
-32 5:1 6:1 17:1 25:1 38:1 40:1 47:1 63:1 67:1 73:1 75:1 76:1 80:1 83:1 
-32 5:1 6:1 16:1 22:1 36:1 40:1 52:1 63:1 67:1 73:1 75:1 76:1 80:1 83:1 
-32 4:1 6:1 16:1 19:1 39:1 42:1 52:1 62:1 67:1 73:1 74:1 76:1 80:1 83:1 
-32 3:1 6:1 14:1 22:1 36:1 40:1 48:1 63:1 67:1 73:1 74:1 76:1 79:1 83:1 
-20.66334115036039 4:1 8:1 18:1 25:1 38:1 41:1 51:1 66:1 68:1 72:1 74:1 76:1 82:1 117:1 
-28.03058785713301 5:1 6:1 18:1 22:1 36:1 40:1 57:1 63:1 71:1 73:1 74:1 76:1 80:1 83:1 
-32 3:1 6:1 18:1 19:1 39:1 40:1 51:1 61:1 67:1 72:1 74:1 76:1 82:1 88:1 
-32 4:1 6:1 14:1 22:1 36:1 40:1 47:1 63:1 67:1 73:1 74:1 76:1 82:1 83:1 
-20.26735772726549 3:1 7:1 15:1 22:1 36:1 40:1 48:1 63:1 67:1 73:1 74:1 76:1 81:1 83:1 
-11.74608831818597 2:1 7:1 17:1 19:1 39:1 42:1 47:1 64:1 67:1 73:1 74:1 76:1 81:1 83:1 
-32 2:1 6:1 17:1 19:1 39:1 40:1 52:1 63:1 67:1 73:1 74:1 76:1 80:1 83:1 
-32 4:1 11:1 18:1 19:1 39:1 41:1 59:1 64:1 67:1 72:1 74:1 76:1 80:1 83:1 
-32 3:1 11:1 18:1 29:1 39:1 40:1 59:1 63:1 71:1 73:1 74:1 76:1 80:1 83:1 
-32 4:1 6:1 16:1 20:1 37:1 40:1 54:1 63:1 71:1 73:1 74:1 76:1 80:1 83:1 
-5.538454065853077 4:1 10:1 17:1 29:1 39:1 42:1 52:1 64:1 67:1 73:1 74:1 76:1 78:1 83:1 
-32 3:1 6:1 16:1 22:1 36:1 40:1 48:1 63:1 67:1 73:1 74:1 76:1 82:1 83:1 
-32 3:1 6:1 17:1 19:1 39:1 40:1 55:1 61:1 71:1 72:1 74:1 76:1 80:1 83:1 
-32 2:1 6:1 16:1 19:1 39:1 40:1 51:1 63:1 67:1 73:1 74:1 76:1 80:1 107:1 
-32 2:1 6:1 18:1 22:1 36:1 40:1 48:1 63:1 67:1 73:1 75:1 76:1 80:1 83:1 
-32 3:1 6:1 14:1 19:1 39:1 43:1 51:1 66:1 67:1 72:1 74:1 76:1 81:1 83:1 
-32 4:1 6:1 17:1 19:1 39:1 43:1 47:1 64:1 67:1 73:1 74:1 76:1 80:1 83:1 
-32 5:1 6:1 14:1 29:1 39:1 40:1 52:1 63:1 67:1 73:1 74:1 76:1 82:1 83:1 
-32 5:1 8:1 17:1 22:1 36:1 40:1 50:1 63:1 71:1 73:1 74:1 76:1 82:1 83:1 
-32 4:1 6:1 16:1 22:1 36:1 40:1 51:1 63:1 67:1 73:1 74:1 76:1 81:1 83:1 
-32 4:1 6:1 18:1 20:1 37:1 40:1 49:1 63:1 67:1 73:1 74:1 76:1 82:1 83:1 
-32 4:1 6:1 17:1 23:1 39:1 41:1 55:1 64:1 67:1 73:1 74:1 76:1 80:1 83:1 
-32 4:1 11:1 17:1 22:1 36:1 40:1 55:1 63:1 67:1 73:1 75:1 76:1 80:1 83:1 
-32 3:1 6:1 16:1 19:1 39:1 42:1 50:1 64:1 67:1 73:1 74:1 76:1 79:1 83:1 
-32 4:1 7:1 14:1 19:1 39:1 40:1 56:1 63:1 67:1 73:1 74:1 76:1 82:1 83:1 
-32 4:1 6:1 15:1 22:1 36:1 40:1 51:1 63:1 67:1 73:1 74:1 76:1 82:1 83:1 
-32 5:1 7:1 15:1 22:1 36:1 40:1 50:1 63:1 68:1 73:1 74:1 76:1 82:1 93:1 
-32 5:1 6:1 15:1 22:1 36:1 40:1 50:1 63:1 67:1 73:1 74:1 76:1 80:1 83:1 
-32 2:1 6:1 17:1 22:1 36:1 40:1 50:1 63:1 67:1 73:1 74:1 76:1 80:1 83:1 
-32 2:1 10:1 15:1 19:1 39:1 42:1 52:1 64:1 67:1 72:1 75:1 76:1 79:1 83:1 
-32 5:1 16:1 19:1 39:1 40:1 63:1 67:1 73:1 74:1 76:1 78:1 83:1 
-32 5:1 11:1 16:1 19:1 39:1 40:1 55:1 63:1 67:1 73:1 74:1 76:1 79:1 83:1 
-32 3:1 6:1 14:1 20:1 37:1 40:1 50:1 63:1 67:1 73:1 75:1 76:1 82:1 83:1 
-19.45098034134647 1:1 6:1 15:1 20:1 37:1 40:1 55:1 61:1 69:1 72:1 74:1 76:1 81:1 83:1 
-11.38521299655013 2:1 6:1 17:1 20:1 37:1 40:1 48:1 63:1 67:1 73:1 74:1 76:1 80:1 83:1 
-32 3:1 6:1 17:1 32:1 39:1 41:1 52:1 66:1 67:1 72:1 74:1 76:1 82:1 83:1 
-32 5:1 14:1 19:1 39:1 40:1 63:1 67:1 73:1 74:1 76:1 78:1 83:1 
-10.12336277627733 4:1 6:1 17:1 22:1 36:1 40:1 48:1 63:1 70:1 73:1 74:1 76:1 80:1 83:1 
-32 3:1 6:1 15:1 20:1 37:1 40:1 50:1 63:1 67:1 73:1 75:1 76:1 80:1 83:1 
-32 2:1 11:1 16:1 22:1 36:1 40:1 59:1 63:1 67:1 73:1 74:1 76:1 80:1 83:1 
-32 1:1 6:1 17:1 21:1 35:1 40:1 51:1 63:1 67:1 73:1 74:1 76:1 82:1 83:1 
-32 2:1 10:1 16:1 24:1 38:1 40:1 59:1 63:1 67:1 73:1 74:1 77:1 80:1 85:1 
-32 3:1 6:1 14:1 19:1 39:1 42:1 50:1 64:1 67:1 73:1 74:1 76:1 81:1 83:1 
-32 5:1 10:1 14:1 22:1 36:1 40:1 51:1 63:1 69:1 73:1 74:1 76:1 82:1 83:1 
-32 4:1 7:1 16:1 19:1 39:1 40:1 52:1 63:1 67:1 73:1 74:1 76:1 80:1 83:1 
-32 5:1 7:1 16:1 19:1 39:1 40:1 56:1 63:1 67:1 73:1 74:1 76:1 78:1 83:1 
-32 3:1 6:1 18:1 22:1 36:1 40:1 52:1 63:1 67:1 73:1 74:1 77:1 82:1 83:1 
-32 3:1 6:1 17:1 22:1 36:1 40:1 48:1 63:1 67:1 73:1 74:1 76:1 82:1 83:1 
-32 4:1 6:1 17:1 22:1 36:1 40:1 57:1 63:1 67:1 73:1 74:1 76:1 80:1 83:1 
-32 3:1 6:1 17:1 20:1 37:1 40:1 48:1 63:1 67:1 73:1 74:1 76:1 80:1 83:1 
-32 4:1 6:1 15:1 20:1 37:1 40:1 55:1 61:1 67:1 72:1 74:1 76:1 80:1 83:1 
-32 5:1 6:1 17:1 22:1 36:1 40:1 48:1 63:1 67:1 73:1 74:1 76:1 80:1 119:1 
-32 3:1 6:1 16:1 22:1 36:1 40:1 50:1 63:1 67:1 73:1 74:1 76:1 82:1 83:1 
-1.269436815679792 5:1 15:1 23:1 39:1 45:1 66:1 68:1 72:1 74:1 76:1 80:1 102:1 
-32 3:1 6:1 18:1 32:1 39:1 40:1 52:1 63:1 67:1 73:1 74:1 76:1 80:1 83:1 
-32 5:1 6:1 15:1 22:1 36:1 40:1 48:1 63:1 67:1 73:1 74:1 76:1 80:1 83:1 
-32 4:1 10:1 14:1 19:1 39:1 41:1 52:1 66:1 67:1 73:1 74:1 76:1 82:1 83:1 
-32 2:1 6:1 18:1 19:1 39:1 42:1 51:1 64:1 67:1 73:1 74:1 76:1 81:1 83:1 
-32 4:1 11:1 14:1 29:1 39:1 40:1 55:1 63:1 67:1 73:1 74:1 76:1 80:1 90:1 
-32 5:1 6:1 14:1 29:1 39:1 42:1 52:1 64:1 67:1 73:1 74:1 76:1 82:1 83:1 
-3.033172142542024 2:1 10:1 18:1 19:1 39:1 42:1 59:1 62:1 71:1 73:1 74:1 76:1 82:1 83:1 
-32 2:1 6:1 17:1 20:1 37:1 40:1 54:1 63:1 67:1 73:1 74:1 76:1 80:1 83:1 
-32 2:1 6:1 14:1 19:1 39:1 40:1 52:1 61:1 67:1 72:1 74:1 76:1 78:1 83:1 
-32 2:1 6:1 17:1 19:1 39:1 42:1 50:1 64:1 67:1 73:1 74:1 76:1 81:1 83:1 
-32 5:1 6:1 18:1 22:1 36:1 40:1 51:1 63:1 67:1 73:1 74:1 76:1 78:1 83:1 
-32 4:1 7:1 17:1 32:1 39:1 42:1 52:1 64:1 67:1 72:1 74:1 76:1 81:1 83:1 
-32 3:1 6:1 18:1 19:1 39:1 40:1 51:1 62:1 67:1 73:1 74:1 76:1 82:1 83:1 
-32 4:1 6:1 15:1 19:1 39:1 40:1 50:1 63:1 67:1 73:1 74:1 76:1 82:1 83:1 
-32 2:1 6:1 18:1 32:1 39:1 42:1 52:1 64:1 67:1 73:1 74:1 76:1 80:1 
-32 3:1 8:1 15:1 20:1 37:1 40:1 52:1 63:1 67:1 73:1 74:1 76:1 78:1 83:1 
-32 5:1 6:1 18:1 19:1 39:1 40:1 54:1 63:1 67:1 73:1 74:1 76:1 80:1 83:1 
-32 4:1 6:1 16:1 20:1 37:1 40:1 48:1 63:1 67:1 73:1 74:1 76:1 80:1 83:1 
-32 5:1 9:1 14:1 22:1 36:1 40:1 47:1 63:1 67:1 73:1 74:1 76:1 80:1 83:1 
-32 2:1 6:1 16:1 22:1 36:1 40:1 54:1 63:1 67:1 73:1 75:1 76:1 82:1 105:1 
-32 5:1 7:1 17:1 22:1 36:1 40:1 48:1 63:1 67:1 73:1 74:1 76:1 82:1 83:1 
-32 3:1 6:1 15:1 22:1 36:1 40:1 59:1 62:1 67:1 73:1 74:1 76:1 81:1 83:1 
-32 4:1 8:1 16:1 22:1 36:1 40:1 57:1 63:1 67:1 73:1 74:1 76:1 82:1 83:1 
-32 5:1 6:1 15:1 22:1 36:1 40:1 59:1 63:1 67:1 73:1 74:1 76:1 80:1 83:1 
-32 5:1 7:1 14:1 19:1 39:1 40:1 52:1 63:1 67:1 73:1 74:1 76:1 82:1 83:1 
-32 4:1 6:1 14:1 22:1 36:1 40:1 57:1 63:1 67:1 73:1 74:1 76:1 82:1 83:1 
-32 3:1 8:1 15:1 22:1 36:1 40:1 57:1 63:1 67:1 73:1 74:1 76:1 82:1 83:1 
-32 5:1 9:1 17:1 19:1 39:1 42:1 55:1 64:1 67:1 73:1 74:1 77:1 80:1 83:1 
-32 4:1 11:1 15:1 19:1 39:1 40:1 55:1 63:1 67:1 73:1 75:1 76:1 80:1 83:1 
-32 5:1 9:1 14:1 19:1 39:1 41:1 51:1 66:1 67:1 72:1 74:1 76:1 80:1 83:1 
-32 3:1 10:1 17:1 19:1 39:1 40:1 48:1 63:1 67:1 73:1 74:1 76:1 80:1 83:1 
-32 3:1 6:1 16:1 19:1 39:1 42:1 52:1 64:1 67:1 73:1 74:1 76:1 80:1 87:1 
-32 4:1 6:1 18:1 22:1 36:1 40:1 54:1 63:1 67:1 73:1 74:1 76:1 80:1 83:1 
-32 3:1 6:1 15:1 20:1 37:1 40:1 50:1 63:1 67:1 73:1 75:1 76:1 82:1 83:1 
-32 2:1 6:1 14:1 19:1 39:1 40:1 47:1 63:1 67:1 73:1 74:1 76:1 78:1 83:1 
-32 4:1 6:1 17:1 22:1 36:1 40:1 48:1 63:1 67:1 73:1 74:1 76:1 80:1 83:1 
-32 4:1 6:1 16:1 25:1 38:1 40:1 57:1 63:1 67:1 73:1 74:1 76:1 82:1 83:1 
-32 4:1 6:1 16:1 29:1 39:1 40:1 52:1 63:1 67:1 73:1 74:1 76:1 81:1 83:1 
-32 5:1 6:1 18:1 19:1 39:1 40:1 48:1 65:1 67:1 73:1 74:1 76:1 80:1 83:1 
-32 4:1 7:1 15:1 19:1 39:1 40:1 51:1 63:1 67:1 73:1 74:1 76:1 82:1 83:1 
-7.471052491094811 3:1 10:1 17:1 22:1 36:1 40:1 48:1 63:1 67:1 73:1 74:1 76:1 80:1 
-32 5:1 7:1 17:1 20:1 37:1 40:1 48:1 63:1 71:1 73:1 74:1 77:1 80:1 83:1 
-32 4:1 8:1 17:1 22:1 36:1 40:1 48:1 63:1 67:1 73:1 74:1 76:1 80:1 83:1 
-32 4:1 8:1 14:1 20:1 37:1 42:1 51:1 64:1 71:1 73:1 75:1 76:1 81:1 83:1 
-32 2:1 6:1 15:1 19:1 39:1 40:1 52:1 63:1 67:1 73:1 74:1 76:1 82:1 83:1 
-1.802339455757194 5:1 10:1 16:1 33:1 35:1 40:1 59:1 63:1 67:1 73:1 74:1 76:1 78:1 83:1 
-32 3:1 6:1 18:1 20:1 37:1 40:1 50:1 63:1 67:1 73:1 74:1 76:1 82:1 83:1 
-32 3:1 6:1 15:1 20:1 37:1 40:1 48:1 63:1 67:1 73:1 74:1 76:1 80:1 83:1 
-32 4:1 10:1 14:1 19:1 39:1 40:1 52:1 61:1 67:1 72:1 74:1 76:1 81:1 83:1 
-32 3:1 6:1 14:1 19:1 39:1 40:1 50:1 63:1 67:1 73:1 74:1 76:1 81:1 83:1 
-32 5:1 6:1 14:1 22:1 36:1 40:1 50:1 61:1 67:1 72:1 74:1 76:1 82:1 83:1 
-32 4:1 6:1 18:1 22:1 36:1 40:1 57:1 63:1 67:1 73:1 74:1 76:1 80:1 83:1 
-12.49353581810302 3:1 6:1 15:1 22:1 36:1 45:1 53:1 64:1 67:1 73:1 75:1 76:1 82:1 100:1 
-32 4:1 10:1 16:1 22:1 36:1 40:1 57:1 63:1 67:1 73:1 74:1 76:1 82:1 83:1 
-32 4:1 6:1 15:1 27:1 35:1 40:1 52:1 61:1 67:1 72:1 74:1 76:1 81:1 83:1 
-32 2:1 6:1 17:1 29:1 39:1 42:1 51:1 62:1 67:1 73:1 74:1 76:1 79:1 83:1 
-32 4:1 6:1 16:1 22:1 36:1 40:1 48:1 63:1 67:1 73:1 74:1 76:1 80:1 83:1 
-32 3:1 6:1 16:1 22:1 36:1 40:1 50:1 63:1 67:1 73:1 74:1 76:1 82:1 83:1 
-32 2:1 6:1 15:1 22:1 36:1 40:1 48:1 61:1 67:1 72:1 74:1 76:1 81:1 83:1 
-32 4:1 6:1 14:1 22:1 36:1 40:1 57:1 63:1 67:1 73:1 74:1 76:1 80:1 83:1 
-32 4:1 6:1 14:1 24:1 38:1 40:1 48:1 63:1 67:1 73:1 74:1 76:1 81:1 83:1 
-32 5:1 6:1 15:1 27:1 35:1 40:1 57:1 63:1 71:1 73:1 74:1 77:1 80:1 83:1 
-32 1:1 14:1 19:1 39:1 40:1 63:1 67:1 73:1 74:1 76:1 80:1 83:1 
-32 2:1 7:1 18:1 19:1 39:1 40:1 50:1 63:1 67:1 73:1 74:1 76:1 82:1 83:1 
-32 2:1 6:1 17:1 22:1 36:1 40:1 50:1 63:1 67:1 73:1 75:1 76:1 80:1 83:1 
-32 5:1 18:1 20:1 37:1 40:1 63:1 67:1 73:1 74:1 76:1 80:1 83:1 
-32 3:1 9:1 16:1 19:1 39:1 41:1 52:1 66:1 67:1 72:1 75:1 76:1 82:1 83:1 
-32 4:1 6:1 15:1 22:1 36:1 40:1 48:1 63:1 67:1 73:1 74:1 76:1 82:1 83:1 
-32 3:1 11:1 18:1 22:1 36:1 40:1 55:1 63:1 67:1 73:1 75:1 76:1 80:1 83:1 
-32 5:1 8:1 16:1 19:1 39:1 40:1 51:1 63:1 67:1 73:1 74:1 76:1 80:1 83:1 
-32 2:1 6:1 15:1 25:1 38:1 41:1 50:1 62:1 67:1 72:1 75:1 76:1 79:1 83:1 
-32 4:1 6:1 18:1 22:1 36:1 40:1 54:1 63:1 71:1 73:1 75:1 76:1 79:1 83:1 
-32 4:1 6:1 15:1 20:1 37:1 40:1 52:1 63:1 67:1 73:1 74:1 76:1 82:1 83:1 
-32 4:1 10:1 16:1 19:1 39:1 41:1 52:1 66:1 67:1 72:1 74:1 76:1 81:1 83:1 
-32 4:1 8:1 16:1 24:1 38:1 40:1 51:1 61:1 67:1 72:1 74:1 76:1 80:1 83:1 
-32 5:1 6:1 17:1 22:1 36:1 40:1 53:1 63:1 71:1 73:1 74:1 76:1 80:1 
-32 3:1 6:1 17:1 24:1 38:1 40:1 48:1 63:1 67:1 73:1 74:1 76:1 81:1 83:1 
-32 4:1 7:1 14:1 20:1 37:1 40:1 56:1 63:1 67:1 73:1 74:1 76:1 82:1 83:1 
-32 5:1 6:1 15:1 22:1 36:1 40:1 57:1 63:1 67:1 73:1 74:1 76:1 82:1 83:1 
-32 5:1 6:1 17:1 19:1 39:1 45:1 51:1 64:1 67:1 72:1 74:1 76:1 81:1 83:1 
-32 2:1 8:1 16:1 19:1 39:1 40:1 50:1 63:1 67:1 73:1 74:1 76:1 81:1 83:1 
-32 4:1 6:1 15:1 25:1 38:1 40:1 47:1 63:1 67:1 73:1 74:1 76:1 80:1 83:1 
-32 4:1 6:1 17:1 20:1 37:1 40:1 48:1 63:1 67:1 73:1 74:1 76:1 81:1 83:1 
-32 2:1 7:1 14:1 25:1 38:1 40:1 56:1 63:1 67:1 73:1 74:1 76:1 82:1 83:1 
-32 2:1 6:1 15:1 24:1 38:1 40:1 54:1 63:1 67:1 73:1 74:1 76:1 82:1 83:1 
-32 4:1 7:1 17:1 22:1 36:1 40:1 48:1 63:1 67:1 73:1 74:1 76:1 82:1 83:1 
-32 3:1 6:1 17:1 29:1 39:1 42:1 52:1 64:1 67:1 72:1 75:1 76:1 80:1 83:1 
-32 3:1 6:1 16:1 22:1 36:1 40:1 57:1 63:1 67:1 73:1 74:1 76:1 82:1 83:1 
-32 4:1 6:1 16:1 31:1 35:1 43:1 51:1 64:1 71:1 73:1 75:1 76:1 82:1 83:1 
-32 3:1 11:1 18:1 19:1 39:1 40:1 59:1 63:1 71:1 73:1 74:1 76:1 82:1 83:1 
-8.936372779936329 5:1 6:1 18:1 22:1 36:1 40:1 48:1 63:1 67:1 73:1 74:1 76:1 80:1 
-32 5:1 14:1 19:1 39:1 40:1 63:1 67:1 73:1 74:1 76:1 80:1 83:1 
-32 2:1 6:1 14:1 22:1 36:1 40:1 52:1 63:1 67:1 73:1 74:1 76:1 82:1 83:1 
-32 5:1 6:1 15:1 22:1 36:1 40:1 51:1 61:1 67:1 72:1 74:1 76:1 80:1 83:1 
-32 3:1 6:1 17:1 22:1 36:1 40:1 50:1 63:1 67:1 73:1 74:1 76:1 82:1 83:1 
-32 3:1 8:1 14:1 22:1 36:1 40:1 51:1 63:1 67:1 73:1 74:1 76:1 80:1 83:1 
-32 2:1 6:1 14:1 20:1 37:1 40:1 55:1 63:1 67:1 73:1 74:1 76:1 82:1 83:1 
-32 5:1 6:1 17:1 29:1 39:1 41:1 52:1 64:1 67:1 72:1 74:1 76:1 81:1 83:1 
-32 4:1 6:1 18:1 26:1 35:1 40:1 51:1 63:1 67:1 73:1 74:1 76:1 80:1 103:1 
-32 3:1 6:1 15:1 20:1 37:1 40:1 55:1 63:1 67:1 73:1 74:1 76:1 82:1 83:1 
-32 2:1 6:1 16:1 20:1 37:1 40:1 51:1 61:1 67:1 72:1 74:1 76:1 78:1 83:1 
-4.108969181508353 5:1 6:1 16:1 22:1 36:1 40:1 50:1 63:1 67:1 73:1 74:1 76:1 78:1 83:1 
-32 4:1 6:1 14:1 24:1 38:1 40:1 50:1 63:1 67:1 73:1 74:1 76:1 82:1 83:1 
-32 4:1 6:1 15:1 27:1 35:1 40:1 49:1 63:1 68:1 73:1 74:1 77:1 80:1 94:1 
-32 3:1 8:1 16:1 20:1 37:1 40:1 50:1 63:1 67:1 73:1 74:1 77:1 80:1 83:1 
-32 5:1 6:1 16:1 31:1 35:1 40:1 54:1 63:1 67:1 73:1 74:1 76:1 81:1 83:1 
-32 5:1 6:1 14:1 23:1 39:1 45:1 52:1 66:1 67:1 73:1 74:1 76:1 82:1 83:1 
-32 5:1 16:1 19:1 39:1 40:1 63:1 67:1 73:1 74:1 76:1 78:1 83:1 
-32 2:1 11:1 16:1 29:1 39:1 40:1 52:1 63:1 67:1 73:1 74:1 76:1 78:1 83:1 
-32 4:1 7:1 14:1 19:1 39:1 40:1 56:1 63:1 67:1 73:1 74:1 76:1 82:1 83:1 
-11.2051595473179 4:1 6:1 17:1 20:1 37:1 40:1 52:1 61:1 70:1 72:1 74:1 76:1 78:1 86:1 
-32 4:1 7:1 18:1 22:1 36:1 40:1 52:1 63:1 67:1 73:1 74:1 76:1 82:1 83:1 
-32 3:1 6:1 17:1 20:1 37:1 40:1 49:1 63:1 67:1 73:1 74:1 76:1 82:1 83:1 
-32 2:1 6:1 18:1 31:1 35:1 40:1 51:1 61:1 67:1 72:1 74:1 76:1 79:1 83:1 
-32 5:1 16:1 27:1 35:1 40:1 63:1 67:1 73:1 75:1 76:1 80:1 83:1 
-26.59822277450879 1:1 6:1 14:1 25:1 38:1 40:1 57:1 63:1 67:1 73:1 74:1 76:1 80:1 83:1 
-32 2:1 16:1 19:1 39:1 40:1 61:1 67:1 72:1 74:1 76:1 78:1 83:1 
-32 1:1 6:1 17:1 22:1 36:1 40:1 58:1 61:1 67:1 72:1 75:1 76:1 80:1 83:1 
-32 2:1 6:1 15:1 22:1 36:1 40:1 51:1 63:1 67:1 73:1 74:1 76:1 82:1 83:1 
-32 5:1 17:1 29:1 39:1 40:1 63:1 67:1 73:1 74:1 76:1 82:1 83:1 
-32 4:1 6:1 17:1 19:1 39:1 42:1 52:1 64:1 71:1 73:1 74:1 76:1 80:1 83:1 
-32 3:1 18:1 29:1 39:1 42:1 64:1 67:1 73:1 75:1 76:1 78:1 83:1 
-32 4:1 9:1 17:1 25:1 38:1 41:1 47:1 64:1 67:1 73:1 74:1 76:1 80:1 83:1 
-32 4:1 6:1 14:1 20:1 37:1 40:1 48:1 63:1 67:1 73:1 74:1 76:1 80:1 83:1 
-32 5:1 6:1 16:1 23:1 39:1 42:1 52:1 64:1 67:1 73:1 74:1 76:1 82:1 83:1 
-32 4:1 6:1 15:1 22:1 36:1 40:1 51:1 61:1 67:1 72:1 74:1 76:1 80:1 83:1 
-32 4:1 6:1 16:1 29:1 39:1 40:1 52:1 63:1 67:1 73:1 74:1 76:1 82:1 83:1 
-32 5:1 6:1 15:1 31:1 35:1 40:1 50:1 63:1 67:1 73:1 74:1 76:1 80:1 83:1 
-32 5:1 6:1 17:1 24:1 38:1 41:1 55:1 64:1 67:1 73:1 74:1 77:1 80:1 83:1 
-32 5:1 6:1 16:1 24:1 38:1 40:1 50:1 61:1 67:1 72:1 75:1 76:1 80:1 83:1 
-32 3:1 6:1 17:1 22:1 36:1 40:1 48:1 63:1 67:1 73:1 74:1 76:1 82:1 83:1 
-32 4:1 6:1 17:1 22:1 36:1 40:1 54:1 63:1 67:1 73:1 74:1 76:1 80:1 83:1 
-32 2:1 6:1 14:1 22:1 36:1 40:1 48:1 63:1 67:1 73:1 75:1 76:1 80:1 83:1 
-32 4:1 6:1 18:1 29:1 39:1 40:1 50:1 63:1 67:1 73:1 74:1 76:1 80:1 109:1 
-32 3:1 6:1 18:1 22:1 36:1 40:1 55:1 63:1 67:1 73:1 74:1 76:1 80:1 83:1 
-32 1:1 6:1 18:1 20:1 37:1 40:1 55:1 63:1 67:1 73:1 74:1 76:1 81:1 83:1 
-32 5:1 7:1 18:1 24:1 38:1 40:1 50:1 63:1 67:1 73:1 74:1 76:1 82:1 83:1 
-32 2:1 6:1 14:1 20:1 37:1 42:1 51:1 64:1 67:1 73:1 74:1 77:1 82:1 83:1 
-32 5:1 6:1 16:1 22:1 36:1 40:1 54:1 63:1 67:1 73:1 74:1 76:1 82:1 83:1 
-32 5:1 10:1 16:1 22:1 36:1 43:1 59:1 65:1 71:1 72:1 74:1 77:1 80:1 83:1 
-32 4:1 9:1 17:1 20:1 37:1 45:1 55:1 64:1 71:1 73:1 75:1 76:1 80:1 83:1 
-25.10342055493814 4:1 6:1 16:1 19:1 39:1 42:1 55:1 62:1 67:1 73:1 74:1 76:1 80:1 83:1 
-32 4:1 7:1 15:1 29:1 39:1 41:1 51:1 66:1 67:1 72:1 74:1 76:1 80:1 83:1 
-32 5:1 15:1 22:1 36:1 40:1 63:1 67:1 73:1 74:1 76:1 80:1 83:1 
-32 3:1 11:1 18:1 19:1 39:1 40:1 51:1 63:1 67:1 73:1 74:1 76:1 79:1 83:1 
-32 5:1 7:1 16:1 22:1 36:1 40:1 48:1 63:1 67:1 73:1 75:1 76:1 78:1 83:1 
-32 3:1 6:1 17:1 22:1 36:1 40:1 48:1 63:1 67:1 73:1 74:1 76:1 80:1 83:1 
-32 3:1 6:1 18:1 22:1 36:1 40:1 52:1 63:1 67:1 73:1 74:1 76:1 80:1 83:1 
-32 2:1 10:1 15:1 19:1 39:1 40:1 52:1 63:1 67:1 73:1 74:1 76:1 82:1 83:1 
-32 5:1 6:1 18:1 26:1 35:1 40:1 54:1 63:1 71:1 73:1 75:1 76:1 80:1 83:1 
-32 2:1 6:1 18:1 22:1 36:1 40:1 47:1 63:1 67:1 73:1 74:1 76:1 80:1 83:1 
-31.13894306013993 3:1 6:1 16:1 20:1 37:1 40:1 49:1 61:1 67:1 72:1 74:1 76:1 80:1 116:1 
-32 3:1 9:1 15:1 19:1 39:1 42:1 55:1 62:1 67:1 73:1 74:1 76:1 79:1 83:1 
-32 2:1 7:1 18:1 22:1 36:1 40:1 51:1 63:1 67:1 73:1 74:1 76:1 82:1 83:1 
-32 3:1 10:1 15:1 20:1 37:1 40:1 49:1 61:1 67:1 72:1 74:1 76:1 80:1 83:1 
-21.95514742509291 3:1 6:1 16:1 19:1 39:1 41:1 55:1 64:1 67:1 72:1 74:1 76:1 79:1 83:1 
-32 3:1 6:1 14:1 26:1 35:1 40:1 49:1 63:1 67:1 73:1 75:1 76:1 80:1 83:1 
-32 5:1 6:1 18:1 22:1 36:1 40:1 54:1 63:1 67:1 73:1 74:1 76:1 80:1 83:1 
-32 5:1 6:1 15:1 33:1 35:1 40:1 54:1 63:1 67:1 73:1 74:1 77:1 80:1 83:1 
-32 5:1 6:1 15:1 22:1 36:1 40:1 48:1 63:1 67:1 73:1 74:1 76:1 80:1 83:1 
-17.86253979606976 2:1 9:1 14:1 19:1 39:1 42:1 59:1 64:1 67:1 72:1 74:1 76:1 79:1 83:1 
-32 4:1 6:1 15:1 22:1 36:1 40:1 54:1 63:1 67:1 73:1 74:1 76:1 80:1 83:1 
-32 5:1 7:1 15:1 20:1 37:1 40:1 49:1 63:1 67:1 73:1 74:1 76:1 82:1 83:1 
-32 3:1 6:1 17:1 22:1 36:1 40:1 53:1 63:1 67:1 73:1 74:1 76:1 80:1 83:1 
-32 4:1 6:1 17:1 27:1 35:1 40:1 53:1 63:1 67:1 73:1 74:1 76:1 82:1 83:1 
-32 2:1 6:1 18:1 20:1 37:1 40:1 50:1 63:1 67:1 73:1 74:1 76:1 82:1 
-3.173615771264469 2:1 11:1 18:1 20:1 37:1 43:1 51:1 62:1 67:1 73:1 74:1 77:1 80:1 83:1 
-32 5:1 6:1 15:1 22:1 36:1 40:1 57:1 63:1 67:1 73:1 74:1 76:1 82:1 83:1 
-32 5:1 10:1 15:1 29:1 39:1 40:1 51:1 63:1 67:1 73:1 74:1 76:1 82:1 83:1 
-32 2:1 6:1 17:1 22:1 36:1 40:1 55:1 63:1 67:1 73:1 74:1 76:1 82:1 83:1 
-32 5:1 6:1 16:1 20:1 37:1 40:1 56:1 63:1 67:1 73:1 74:1 76:1 80:1 83:1 
-32 5:1 11:1 14:1 20:1 37:1 40:1 47:1 63:1 67:1 73:1 74:1 76:1 82:1 83:1 
-32 2:1 7:1 15:1 20:1 37:1 40:1 50:1 63:1 67:1 73:1 74:1 76:1 82:1 83:1 
-32 5:1 6:1 15:1 22:1 36:1 40:1 51:1 63:1 67:1 73:1 74:1 76:1 78:1 83:1 
-32 5:1 6:1 16:1 22:1 36:1 40:1 48:1 63:1 67:1 73:1 74:1 76:1 82:1 83:1 
-32 5:1 6:1 18:1 19:1 39:1 40:1 50:1 63:1 67:1 73:1 74:1 76:1 78:1 
-32 5:1 6:1 16:1 22:1 36:1 40:1 51:1 61:1 67:1 72:1 74:1 76:1 82:1 85:1 
-32 3:1 6:1 14:1 19:1 39:1 40:1 51:1 61:1 67:1 72:1 74:1 76:1 80:1 83:1 
-32 3:1 6:1 14:1 20:1 37:1 40:1 47:1 63:1 67:1 73:1 74:1 77:1 80:1 83:1 
-32 5:1 11:1 17:1 19:1 39:1 44:1 51:1 66:1 67:1 72:1 74:1 76:1 82:1 83:1 
-32 3:1 9:1 18:1 20:1 37:1 40:1 47:1 61:1 67:1 72:1 75:1 76:1 80:1 83:1 
-32 2:1 6:1 16:1 24:1 38:1 40:1 51:1 63:1 67:1 73:1 74:1 76:1 80:1 83:1 
-32 3:1 8:1 15:1 29:1 39:1 41:1 51:1 64:1 67:1 72:1 74:1 76:1 82:1 83:1 
-32 5:1 9:1 14:1 19:1 39:1 45:1 51:1 64:1 67:1 72:1 74:1 76:1 80:1 83:1 
-32 5:1 10:1 15:1 22:1 36:1 40:1 49:1 63:1 67:1 73:1 75:1 76:1 80:1 83:1 
-32 5:1 8:1 18:1 29:1 39:1 41:1 51:1 64:1 71:1 72:1 74:1 76:1 82:1 83:1 
-32 4:1 10:1 15:1 23:1 39:1 40:1 52:1 63:1 67:1 73:1 74:1 76:1 79:1 83:1 
-32 2:1 6:1 15:1 22:1 36:1 40:1 50:1 63:1 67:1 73:1 74:1 76:1 81:1 83:1 
-32 5:1 7:1 16:1 24:1 38:1 40:1 48:1 63:1 67:1 73:1 75:1 76:1 78:1 113:1 
-32 5:1 6:1 14:1 20:1 37:1 40:1 51:1 63:1 67:1 73:1 74:1 77:1 80:1 83:1 
-32 5:1 6:1 15:1 20:1 37:1 40:1 48:1 63:1 67:1 73:1 74:1 76:1 82:1 83:1 
-13.19261492152856 5:1 6:1 14:1 19:1 39:1 41:1 52:1 66:1 71:1 72:1 74:1 76:1 82:1 111:1 
-32 4:1 10:1 15:1 29:1 39:1 41:1 52:1 66:1 71:1 72:1 74:1 76:1 80:1 83:1 
-32 5:1 7:1 16:1 22:1 36:1 40:1 51:1 63:1 67:1 73:1 74:1 76:1 78:1 83:1 
-32 3:1 11:1 17:1 29:1 39:1 40:1 52:1 63:1 67:1 73:1 74:1 76:1 82:1 83:1 
-32 4:1 6:1 16:1 25:1 38:1 40:1 48:1 63:1 67:1 73:1 74:1 76:1 82:1 83:1 
-32 4:1 10:1 14:1 24:1 38:1 40:1 52:1 63:1 67:1 73:1 74:1 76:1 82:1 83:1 
-32 3:1 6:1 15:1 19:1 39:1 40:1 51:1 63:1 67:1 73:1 74:1 76:1 81:1 83:1 
-32 5:1 6:1 16:1 20:1 37:1 40:1 54:1 63:1 67:1 73:1 74:1 76:1 80:1 83:1 
-32 3:1 9:1 18:1 32:1 39:1 42:1 52:1 64:1 67:1 72:1 74:1 76:1 82:1 83:1 
-32 3:1 6:1 14:1 22:1 36:1 40:1 57:1 63:1 67:1 73:1 75:1 76:1 80:1 83:1 
-32 4:1 6:1 16:1 31:1 35:1 40:1 50:1 63:1 67:1 73:1 74:1 77:1 82:1 83:1 
-32 2:1 7:1 16:1 25:1 38:1 40:1 56:1 63:1 67:1 73:1 74:1 76:1 82:1 83:1 
-32 3:1 7:1 17:1 22:1 36:1 40:1 56:1 63:1 67:1 73:1 74:1 76:1 81:1 83:1 
-32 4:1 6:1 17:1 19:1 39:1 42:1 47:1 64:1 67:1 73:1 74:1 76:1 79:1 83:1 
-32 1:1 6:1 17:1 19:1 39:1 42:1 51:1 64:1 67:1 73:1 74:1 76:1 82:1 83:1 
-32 5:1 10:1 18:1 25:1 38:1 40:1 57:1 63:1 71:1 73:1 74:1 76:1 80:1 83:1 
-32 3:1 8:1 15:1 19:1 39:1 40:1 50:1 63:1 67:1 73:1 74:1 76:1 82:1 83:1 
-32 1:1 6:1 16:1 22:1 36:1 40:1 48:1 63:1 67:1 73:1 74:1 77:1 80:1 83:1 
-24.3941781851601 2:1 11:1 16:1 32:1 39:1 42:1 52:1 64:1 67:1 72:1 74:1 76:1 82:1 83:1 
-32 5:1 9:1 14:1 19:1 39:1 40:1 51:1 63:1 67:1 73:1 74:1 76:1 80:1 83:1 
-27.84700262642811 3:1 6:1 14:1 22:1 36:1 40:1 53:1 63:1 67:1 73:1 74:1 76:1 80:1 83:1 
-32 4:1 9:1 15:1 19:1 39:1 40:1 52:1 63:1 67:1 73:1 74:1 76:1 80:1 83:1 
-32 3:1 6:1 15:1 20:1 37:1 40:1 52:1 63:1 67:1 73:1 74:1 76:1 80:1 83:1 
-11.4606627371224 2:1 6:1 17:1 20:1 37:1 40:1 53:1 63:1 67:1 73:1 74:1 76:1 80:1 103:1 
-32 3:1 6:1 18:1 19:1 39:1 41:1 51:1 64:1 67:1 72:1 74:1 76:1 80:1 83:1 
-32 4:1 8:1 14:1 19:1 39:1 41:1 52:1 66:1 67:1 73:1 75:1 76:1 81:1 83:1 
-18.71781096864386 2:1 6:1 17:1 29:1 39:1 42:1 52:1 64:1 67:1 72:1 74:1 76:1 81:1 83:1 
-32 3:1 10:1 17:1 24:1 38:1 40:1 52:1 63:1 67:1 73:1 74:1 76:1 82:1 83:1 
-32 5:1 10:1 14:1 20:1 37:1 40:1 48:1 63:1 67:1 73:1 74:1 76:1 80:1 83:1 
-32 3:1 10:1 14:1 20:1 37:1 40:1 59:1 63:1 67:1 73:1 74:1 76:1 82:1 83:1 
-32 3:1 6:1 18:1 22:1 36:1 40:1 50:1 63:1 67:1 73:1 74:1 76:1 82:1 83:1 
-16.36367307005546 3:1 6:1 16:1 22:1 36:1 40:1 54:1 63:1 67:1 73:1 74:1 76:1 80:1 83:1 
-32 3:1 6:1 14:1 20:1 37:1 40:1 48:1 63:1 67:1 73:1 74:1 76:1 82:1 83:1 
-32 1:1 7:1 14:1 19:1 39:1 40:1 51:1 61:1 67:1 72:1 74:1 76:1 80:1 83:1 
-32 5:1 6:1 18:1 22:1 36:1 40:1 57:1 63:1 71:1 73:1 74:1 76:1 80:1 83:1 
-32 3:1 6:1 15:1 31:1 35:1 40:1 54:1 63:1 67:1 73:1 75:1 76:1 80:1 83:1 
-32 5:1 6:1 17:1 19:1 39:1 40:1 53:1 63:1 67:1 73:1 74:1 76:1 78:1 83:1 
-32 4:1 10:1 16:1 19:1 39:1 40:1 52:1 63:1 67:1 73:1 74:1 76:1 82:1 83:1 
-32 3:1 8:1 15:1 19:1 39:1 40:1 48:1 63:1 67:1 73:1 74:1 76:1 78:1 83:1 
-32 4:1 6:1 14:1 22:1 36:1 42:1 54:1 64:1 67:1 73:1 75:1 76:1 81:1 83:1 
-32 5:1 7:1 14:1 20:1 37:1 40:1 56:1 63:1 67:1 73:1 74:1 76:1 82:1 83:1 
-32 5:1 10:1 14:1 20:1 37:1 40:1 57:1 63:1 67:1 73:1 74:1 76:1 80:1 83:1 
-32 3:1 6:1 18:1 27:1 35:1 40:1 56:1 63:1 67:1 73:1 75:1 76:1 82:1 104:1 
-32 3:1 9:1 18:1 29:1 39:1 42:1 47:1 64:1 67:1 72:1 74:1 76:1 80:1 83:1 
-32 5:1 6:1 14:1 22:1 36:1 40:1 47:1 63:1 67:1 73:1 74:1 76:1 78:1 83:1 
-32 4:1 7:1 14:1 20:1 37:1 40:1 48:1 63:1 67:1 73:1 74:1 76:1 80:1 83:1 
-32 4:1 6:1 17:1 22:1 36:1 40:1 54:1 63:1 67:1 73:1 74:1 76:1 80:1 83:1 
-32 5:1 6:1 15:1 19:1 39:1 41:1 51:1 66:1 68:1 73:1 74:1 76:1 82:1 83:1 
-32 2:1 6:1 15:1 19:1 39:1 40:1 51:1 63:1 67:1 73:1 74:1 76:1 81:1 83:1 
-32 2:1 6:1 16:1 24:1 38:1 40:1 55:1 63:1 67:1 73:1 74:1 76:1 80:1 99:1 
-32 5:1 8:1 16:1 29:1 39:1 42:1 52:1 64:1 71:1 73:1 74:1 76:1 82:1 120:1 
-32 3:1 6:1 14:1 25:1 38:1 40:1 55:1 63:1 67:1 73:1 74:1 76:1 80:1 83:1 
-32 3:1 6:1 18:1 21:1 35:1 40:1 48:1 63:1 67:1 73:1 74:1 77:1 80:1 83:1 
-32 5:1 7:1 15:1 22:1 36:1 40:1 57:1 63:1 67:1 73:1 74:1 76:1 82:1 83:1 
-10.38589374242359 2:1 6:1 17:1 20:1 37:1 40:1 54:1 63:1 67:1 73:1 74:1 76:1 80:1 115:1 
-32 2:1 6:1 18:1 29:1 39:1 42:1 51:1 64:1 67:1 73:1 74:1 76:1 79:1 83:1 
-12.14552006309377 4:1 6:1 15:1 20:1 37:1 42:1 51:1 64:1 67:1 73:1 74:1 76:1 82:1 83:1 
-32 4:1 6:1 15:1 19:1 39:1 42:1 55:1 64:1 67:1 73:1 74:1 76:1 82:1 83:1 
-32 4:1 6:1 18:1 22:1 36:1 40:1 57:1 63:1 67:1 73:1 74:1 76:1 81:1 83:1 
-32 5:1 9:1 16:1 25:1 38:1 42:1 47:1 64:1 67:1 73:1 74:1 76:1 80:1 83:1 
-32 3:1 10:1 16:1 19:1 39:1 40:1 52:1 63:1 67:1 73:1 74:1 76:1 79:1 83:1 
-32 4:1 10:1 18:1 19:1 39:1 42:1 52:1 62:1 67:1 73:1 74:1 76:1 82:1 83:1 
-32 3:1 8:1 17:1 22:1 36:1 40:1 51:1 63:1 67:1 73:1 74:1 76:1 80:1 83:1 
-32 1:1 11:1 17:1 20:1 37:1 40:1 55:1 63:1 71:1 73:1 74:1 76:1 79:1 83:1 
-32 5:1 6:1 18:1 22:1 36:1 40:1 54:1 61:1 67:1 72:1 75:1 76:1 80:1 119:1 
-10.76643013841584 2:1 6:1 14:1 29:1 39:1 42:1 51:1 64:1 67:1 72:1 74:1 76:1 82:1 83:1 
-32 4:1 6:1 16:1 20:1 37:1 40:1 57:1 63:1 67:1 73:1 74:1 76:1 82:1 83:1 
-32 5:1 11:1 14:1 29:1 39:1 41:1 52:1 64:1 67:1 72:1 74:1 76:1 79:1 83:1 
-32 3:1 6:1 15:1 22:1 36:1 40:1 51:1 63:1 67:1 73:1 74:1 76:1 82:1 83:1 
-32 5:1 7:1 18:1 31:1 35:1 40:1 50:1 63:1 67:1 73:1 74:1 76:1 79:1 83:1 
-32 5:1 6:1 16:1 22:1 36:1 40:1 54:1 63:1 67:1 73:1 75:1 76:1 81:1 83:1 
-32 4:1 6:1 17:1 22:1 36:1 40:1 54:1 63:1 67:1 73:1 74:1 76:1 80:1 83:1 
-32 4:1 6:1 14:1 20:1 37:1 40:1 48:1 63:1 67:1 73:1 74:1 76:1 82:1 83:1 
-32 3:1 6:1 18:1 25:1 38:1 40:1 56:1 63:1 67:1 73:1 74:1 76:1 82:1 83:1 
-32 4:1 10:1 18:1 28:1 35:1 40:1 57:1 63:1 67:1 73:1 74:1 77:1 80:1 83:1 
-32 5:1 11:1 14:1 19:1 39:1 45:1 52:1 64:1 67:1 73:1 75:1 76:1 80:1 83:1 
-32 4:1 10:1 15:1 22:1 36:1 40:1 59:1 63:1 67:1 73:1 74:1 76:1 82:1 83:1 
-32 3:1 6:1 16:1 22:1 36:1 40:1 49:1 63:1 67:1 73:1 74:1 76:1 81:1 
-32 3:1 6:1 15:1 25:1 38:1 40:1 48:1 63:1 67:1 73:1 74:1 76:1 80:1 83:1 
-32 2:1 6:1 16:1 19:1 39:1 42:1 51:1 64:1 67:1 73:1 74:1 76:1 80:1 83:1 
-32 2:1 6:1 15:1 32:1 39:1 40:1 52:1 61:1 67:1 72:1 74:1 76:1 82:1 83:1 
-32 5:1 6:1 14:1 20:1 37:1 40:1 51:1 61:1 67:1 72:1 74:1 76:1 81:1 83:1 
-32 5:1 8:1 15:1 22:1 36:1 40:1 50:1 63:1 67:1 73:1 74:1 76:1 82:1 83:1 
-32 5:1 6:1 14:1 23:1 39:1 40:1 51:1 63:1 67:1 73:1 74:1 76:1 80:1 83:1 
-32 4:1 8:1 15:1 19:1 39:1 40:1 51:1 63:1 67:1 73:1 74:1 76:1 80:1 
-32 5:1 10:1 15:1 28:1 35:1 44:1 51:1 64:1 67:1 73:1 75:1 76:1 81:1 83:1 
-32 4:1 6:1 18:1 29:1 39:1 41:1 52:1 66:1 67:1 72:1 74:1 76:1 80:1 83:1 
-32 3:1 6:1 15:1 22:1 36:1 40:1 57:1 63:1 67:1 73:1 74:1 77:1 80:1 83:1 
-32 3:1 6:1 18:1 19:1 39:1 42:1 50:1 64:1 67:1 73:1 74:1 76:1 82:1 83:1 
-32 5:1 18:1 22:1 36:1 40:1 63:1 67:1 73:1 74:1 76:1 80:1 83:1 
-21.55753296445128 4:1 6:1 14:1 19:1 39:1 44:1 48:1 66:1 71:1 72:1 75:1 76:1 80:1 83:1 
-32 3:1 6:1 16:1 22:1 36:1 40:1 54:1 61:1 67:1 72:1 74:1 76:1 82:1 83:1 
-32 1:1 6:1 15:1 24:1 38:1 40:1 52:1 61:1 67:1 72:1 74:1 76:1 80:1 83:1 
-32 5:1 10:1 14:1 22:1 36:1 40:1 57:1 63:1 67:1 73:1 74:1 76:1 80:1 83:1 
-32 4:1 18:1 22:1 36:1 40:1 63:1 67:1 73:1 74:1 76:1 82:1 83:1 
-32 4:1 6:1 17:1 22:1 36:1 40:1 48:1 63:1 71:1 73:1 74:1 76:1 80:1 83:1 
-32 3:1 6:1 18:1 19:1 39:1 42:1 51:1 64:1 67:1 72:1 75:1 76:1 82:1 83:1 
-32 5:1 6:1 15:1 22:1 36:1 40:1 48:1 63:1 67:1 73:1 75:1 76:1 80:1 83:1 
-32 4:1 6:1 15:1 25:1 38:1 40:1 57:1 63:1 69:1 73:1 74:1 76:1 82:1 83:1 
-32 5:1 10:1 14:1 24:1 38:1 40:1 55:1 61:1 67:1 72:1 74:1 77:1 78:1 83:1 
-32 5:1 6:1 14:1 22:1 36:1 40:1 50:1 61:1 67:1 72:1 74:1 76:1 79:1 83:1 
-32 3:1 6:1 16:1 22:1 36:1 40:1 48:1 63:1 67:1 73:1 74:1 77:1 81:1 83:1 
-32 5:1 6:1 17:1 20:1 37:1 40:1 50:1 63:1 67:1 73:1 74:1 76:1 78:1 83:1 
-32 3:1 7:1 14:1 22:1 36:1 40:1 51:1 63:1 67:1 73:1 74:1 76:1 82:1 83:1 
-32 4:1 6:1 15:1 22:1 36:1 40:1 57:1 63:1 67:1 73:1 74:1 76:1 80:1 83:1 
-22.96782658849801 4:1 6:1 15:1 31:1 35:1 40:1 57:1 63:1 67:1 73:1 74:1 76:1 82:1 83:1 
-32 3:1 6:1 16:1 19:1 39:1 40:1 48:1 63:1 67:1 73:1 74:1 76:1 80:1 83:1 
-32 3:1 6:1 16:1 24:1 38:1 40:1 52:1 63:1 67:1 73:1 74:1 76:1 80:1 83:1 
-32 3:1 6:1 16:1 24:1 38:1 40:1 59:1 63:1 71:1 73:1 74:1 76:1 82:1 83:1 
-32 5:1 10:1 18:1 29:1 39:1 41:1 52:1 64:1 67:1 72:1 74:1 76:1 80:1 83:1 
-32 4:1 17:1 22:1 36:1 40:1 63:1 67:1 73:1 74:1 76:1 80:1 83:1 
-32 2:1 6:1 18:1 19:1 39:1 40:1 51:1 63:1 67:1 73:1 74:1 76:1 82:1 83:1 
-32 4:1 6:1 17:1 20:1 37:1 41:1 51:1 64:1 67:1 72:1 74:1 77:1 82:1 83:1 
-32 4:1 6:1 16:1 29:1 39:1 42:1 52:1 64:1 67:1 72:1 74:1 76:1 79:1 83:1 
-14.45427937084898 1:1 8:1 16:1 19:1 39:1 42:1 51:1 62:1 68:1 73:1 74:1 76:1 79:1 110:1 
-0.8932711702637506 4:1 6:1 18:1 22:1 36:1 40:1 48:1 63:1 71:1 73:1 74:1 76:1 80:1 83:1 
-32 5:1 6:1 15:1 22:1 36:1 40:1 51:1 63:1 67:1 73:1 74:1 76:1 80:1 83:1 
-32 3:1 6:1 17:1 24:1 38:1 40:1 51:1 63:1 67:1 73:1 74:1 76:1 80:1 86:1 
-32 4:1 11:1 17:1 19:1 39:1 41:1 55:1 64:1 67:1 73:1 74:1 76:1 80:1 83:1 
-32 5:1 6:1 18:1 20:1 37:1 40:1 48:1 63:1 67:1 73:1 74:1 76:1 80:1 83:1 
-32 5:1 7:1 16:1 20:1 37:1 40:1 50:1 63:1 67:1 73:1 74:1 76:1 82:1 83:1 
-23.55560143106706 2:1 6:1 15:1 20:1 37:1 40:1 53:1 63:1 67:1 73:1 74:1 76:1 80:1 100:1 
-32 2:1 6:1 15:1 33:1 35:1 40:1 54:1 63:1 67:1 73:1 75:1 76:1 80:1 103:1 
-32 4:1 10:1 17:1 22:1 36:1 40:1 57:1 63:1 71:1 73:1 74:1 76:1 80:1 83:1 
-32 4:1 6:1 14:1 19:1 39:1 40:1 50:1 63:1 67:1 73:1 74:1 76:1 81:1 83:1 
-17.66914970998131 5:1 18:1 22:1 36:1 40:1 63:1 71:1 73:1 74:1 76:1 80:1 83:1 
-32 4:1 10:1 18:1 22:1 36:1 40:1 48:1 63:1 67:1 73:1 74:1 76:1 82:1 83:1 
-32 4:1 11:1 17:1 29:1 39:1 41:1 51:1 64:1 67:1 73:1 74:1 76:1 81:1 83:1 
-32 4:1 6:1 14:1 29:1 39:1 44:1 52:1 64:1 67:1 72:1 75:1 76:1 82:1 83:1 
-32 5:1 16:1 22:1 36:1 40:1 63:1 67:1 73:1 75:1 76:1 78:1 83:1 
-32 5:1 6:1 16:1 21:1 35:1 40:1 54:1 63:1 67:1 73:1 74:1 76:1 80:1 83:1 
-32 4:1 6:1 15:1 22:1 36:1 40:1 54:1 63:1 71:1 73:1 74:1 76:1 80:1 83:1 
-32 4:1 7:1 14:1 25:1 38:1 40:1 48:1 63:1 68:1 73:1 75:1 76:1 80:1 83:1 
-32 4:1 6:1 14:1 32:1 39:1 42:1 52:1 64:1 67:1 73:1 74:1 76:1 81:1 83:1 
-32 5:1 6:1 18:1 19:1 39:1 40:1 52:1 63:1 67:1 73:1 74:1 76:1 82:1 83:1 
-32 4:1 6:1 16:1 22:1 36:1 40:1 48:1 63:1 68:1 73:1 74:1 76:1 80:1 110:1 
-32 2:1 8:1 14:1 19:1 39:1 40:1 50:1 63:1 67:1 73:1 74:1 76:1 80:1 83:1 
-32 5:1 10:1 14:1 19:1 39:1 40:1 52:1 61:1 67:1 72:1 74:1 76:1 80:1 83:1 
-32 4:1 6:1 14:1 19:1 39:1 40:1 54:1 63:1 67:1 73:1 74:1 76:1 80:1 
-32 4:1 10:1 17:1 22:1 36:1 40:1 57:1 63:1 67:1 73:1 74:1 76:1 80:1 83:1 
-32 3:1 11:1 14:1 20:1 37:1 40:1 51:1 63:1 67:1 73:1 74:1 76:1 79:1 83:1 
-32 3:1 6:1 14:1 19:1 39:1 40:1 50:1 61:1 67:1 73:1 74:1 76:1 82:1 
-32 4:1 6:1 14:1 24:1 38:1 43:1 55:1 64:1 67:1 72:1 75:1 76:1 80:1 83:1 
-32 5:1 6:1 18:1 22:1 36:1 40:1 57:1 63:1 67:1 73:1 74:1 77:1 80:1 83:1 
-32 3:1 6:1 17:1 22:1 36:1 40:1 48:1 63:1 67:1 73:1 74:1 76:1 80:1 83:1 
-32 3:1 11:1 17:1 29:1 39:1 40:1 52:1 63:1 68:1 73:1 74:1 76:1 78:1 90:1 
-32 4:1 6:1 17:1 20:1 37:1 40:1 52:1 63:1 67:1 73:1 74:1 76:1 78:1 83:1 
-32 5:1 11:1 17:1 19:1 39:1 41:1 51:1 66:1 71:1 73:1 74:1 76:1 80:1 83:1 
-32 4:1 6:1 17:1 19:1 39:1 41:1 51:1 64:1 67:1 73:1 74:1 76:1 79:1 83:1 
-32 4:1 6:1 14:1 29:1 39:1 40:1 52:1 61:1 67:1 72:1 74:1 76:1 81:1 85:1 
-32 5:1 7:1 16:1 23:1 39:1 40:1 52:1 63:1 67:1 73:1 74:1 76:1 78:1 83:1 
-32 2:1 8:1 15:1 22:1 36:1 40:1 50:1 63:1 67:1 73:1 74:1 76:1 82:1 83:1 
-32 5:1 6:1 14:1 22:1 36:1 40:1 51:1 63:1 67:1 73:1 74:1 76:1 82:1 83:1 
-32 3:1 6:1 15:1 22:1 36:1 40:1 50:1 63:1 67:1 73:1 74:1 76:1 82:1 83:1 
-32 4:1 6:1 18:1 22:1 36:1 40:1 57:1 63:1 67:1 73:1 75:1 76:1 81:1 83:1 
-9.811613312490836 5:1 10:1 18:1 19:1 39:1 44:1 52:1 64:1 71:1 72:1 74:1 77:1 78:1 83:1 
-32 4:1 6:1 17:1 22:1 36:1 40:1 55:1 63:1 67:1 73:1 74:1 76:1 80:1 83:1 
-32 3:1 6:1 18:1 19:1 39:1 40:1 53:1 63:1 67:1 73:1 74:1 76:1 80:1 83:1 
-32 4:1 10:1 18:1 20:1 37:1 40:1 51:1 63:1 67:1 73:1 74:1 76:1 80:1 83:1 
-32 5:1 6:1 14:1 20:1 37:1 40:1 50:1 63:1 67:1 73:1 74:1 76:1 78:1 83:1 
-32 5:1 6:1 16:1 27:1 35:1 40:1 53:1 63:1 67:1 73:1 75:1 76:1 78:1 83:1 
-32 3:1 6:1 18:1 20:1 37:1 40:1 50:1 63:1 67:1 73:1 74:1 76:1 80:1 83:1 
-32 5:1 7:1 16:1 22:1 36:1 40:1 48:1 63:1 67:1 73:1 75:1 76:1 78:1 99:1 
-32 4:1 10:1 15:1 32:1 39:1 42:1 52:1 66:1 67:1 72:1 74:1 76:1 80:1 83:1 
-32 5:1 7:1 14:1 20:1 37:1 40:1 57:1 63:1 67:1 73:1 75:1 76:1 81:1 83:1 
-32 2:1 6:1 17:1 20:1 37:1 40:1 47:1 61:1 67:1 72:1 74:1 76:1 80:1 83:1 
-32 5:1 6:1 16:1 22:1 36:1 40:1 48:1 63:1 67:1 73:1 74:1 76:1 80:1 83:1 
-32 2:1 6:1 15:1 20:1 37:1 40:1 51:1 61:1 67:1 72:1 74:1 76:1 80:1 83:1 
-32 3:1 11:1 14:1 20:1 37:1 40:1 55:1 63:1 67:1 73:1 74:1 76:1 80:1 
-32 5:1 6:1 17:1 19:1 39:1 43:1 55:1 66:1 67:1 72:1 74:1 76:1 80:1 83:1 
-32 5:1 6:1 16:1 29:1 39:1 40:1 53:1 63:1 67:1 73:1 74:1 76:1 81:1 83:1 
-32 5:1 10:1 14:1 20:1 37:1 40:1 59:1 63:1 67:1 73:1 75:1 76:1 81:1 83:1 
-32 5:1 6:1 18:1 20:1 37:1 40:1 57:1 63:1 67:1 73:1 75:1 76:1 80:1 83:1 
-32 2:1 6:1 18:1 22:1 36:1 40:1 57:1 63:1 67:1 73:1 75:1 76:1 81:1 83:1 
-32 5:1 9:1 17:1 19:1 39:1 44:1 52:1 64:1 71:1 72:1 74:1 76:1 80:1 83:1 
-32 2:1 6:1 17:1 20:1 37:1 40:1 54:1 63:1 67:1 73:1 74:1 76:1 80:1 83:1 
-32 2:1 6:1 14:1 25:1 38:1 40:1 54:1 63:1 67:1 73:1 74:1 76:1 80:1 83:1 
-3.605989256222778 3:1 6:1 16:1 20:1 37:1 41:1 51:1 64:1 67:1 73:1 74:1 76:1 79:1 83:1 
-32 4:1 11:1 15:1 20:1 37:1 40:1 51:1 63:1 67:1 73:1 74:1 77:1 80:1 83:1 
-32 3:1 6:1 16:1 22:1 36:1 40:1 48:1 63:1 71:1 73:1 75:1 76:1 82:1 83:1 
-32 2:1 6:1 16:1 20:1 37:1 40:1 50:1 63:1 67:1 73:1 74:1 76:1 80:1 83:1 
-32 5:1 6:1 16:1 22:1 36:1 40:1 50:1 63:1 67:1 73:1 74:1 76:1 82:1 83:1 
-32 5:1 6:1 17:1 22:1 36:1 40:1 49:1 63:1 67:1 73:1 74:1 76:1 80:1 83:1 
-32 4:1 6:1 16:1 29:1 39:1 41:1 51:1 66:1 67:1 72:1 74:1 76:1 80:1 83:1 
-8.399756565097448 2:1 6:1 17:1 20:1 37:1 40:1 48:1 63:1 67:1 73:1 74:1 76:1 80:1 83:1 
-32 4:1 6:1 17:1 19:1 39:1 40:1 52:1 63:1 67:1 73:1 74:1 76:1 80:1 88:1 
-32 4:1 6:1 17:1 20:1 37:1 40:1 51:1 63:1 67:1 73:1 74:1 76:1 80:1 86:1 
-32 3:1 10:1 16:1 29:1 39:1 42:1 52:1 64:1 67:1 72:1 74:1 76:1 82:1 83:1 
-32 3:1 6:1 18:1 19:1 39:1 41:1 51:1 64:1 67:1 73:1 74:1 77:1 80:1 83:1 
-32 5:1 10:1 17:1 22:1 36:1 40:1 59:1 63:1 67:1 73:1 75:1 76:1 80:1 83:1 
-32 4:1 6:1 14:1 25:1 38:1 40:1 49:1 63:1 67:1 73:1 74:1 76:1 81:1 83:1 
-32 3:1 6:1 17:1 20:1 37:1 40:1 53:1 63:1 71:1 73:1 74:1 76:1 80:1 83:1 
-32 2:1 6:1 16:1 20:1 37:1 40:1 51:1 63:1 67:1 73:1 74:1 76:1 80:1 83:1 
-32 3:1 6:1 18:1 29:1 39:1 42:1 51:1 66:1 67:1 73:1 74:1 76:1 80:1 83:1 
-32 2:1 6:1 18:1 20:1 37:1 40:1 57:1 63:1 67:1 73:1 74:1 76:1 82:1 83:1 
-32 4:1 6:1 16:1 25:1 38:1 40:1 48:1 63:1 67:1 73:1 74:1 76:1 82:1 83:1 
-32 5:1 6:1 16:1 29:1 39:1 40:1 51:1 61:1 67:1 72:1 74:1 76:1 82:1 83:1 
-32 2:1 6:1 17:1 22:1 36:1 40:1 55:1 63:1 67:1 73:1 74:1 76:1 79:1 83:1 
-32 2:1 6:1 17:1 21:1 35:1 40:1 53:1 63:1 67:1 73:1 75:1 76:1 80:1 83:1 
-32 4:1 6:1 15:1 20:1 37:1 43:1 48:1 64:1 67:1 73:1 74:1 77:1 82:1 83:1 
-32 3:1 7:1 16:1 19:1 39:1 40:1 51:1 63:1 68:1 73:1 74:1 76:1 82:1 93:1 
-32 2:1 6:1 15:1 20:1 37:1 40:1 53:1 63:1 67:1 73:1 74:1 76:1 80:1 83:1 
-32 4:1 6:1 16:1 22:1 36:1 40:1 48:1 63:1 67:1 73:1 74:1 77:1 80:1 83:1 
-32 4:1 6:1 16:1 29:1 39:1 40:1 52:1 63:1 67:1 73:1 74:1 76:1 80:1 83:1 
-32 5:1 6:1 17:1 29:1 39:1 41:1 52:1 64:1 67:1 73:1 74:1 76:1 78:1 83:1 
-32 2:1 6:1 17:1 25:1 38:1 40:1 50:1 63:1 67:1 73:1 74:1 76:1 80:1 83:1 
-32 3:1 6:1 15:1 20:1 37:1 40:1 48:1 63:1 67:1 73:1 74:1 76:1 80:1 83:1 
-32 4:1 8:1 15:1 19:1 39:1 41:1 51:1 64:1 67:1 72:1 74:1 76:1 82:1 83:1 
-32 2:1 10:1 14:1 19:1 39:1 40:1 59:1 63:1 67:1 73:1 74:1 76:1 82:1 83:1 
-32 4:1 6:1 18:1 22:1 36:1 40:1 54:1 63:1 67:1 73:1 74:1 76:1 80:1 83:1 
-32 2:1 11:1 18:1 19:1 39:1 40:1 52:1 63:1 67:1 73:1 74:1 76:1 78:1 83:1 
-32 3:1 6:1 16:1 19:1 39:1 42:1 50:1 64:1 67:1 72:1 74:1 77:1 80:1 83:1 
-32 5:1 14:1 20:1 37:1 40:1 63:1 67:1 73:1 74:1 76:1 80:1 83:1 
-32 5:1 7:1 14:1 22:1 36:1 40:1 56:1 63:1 67:1 73:1 75:1 76:1 80:1 83:1 
-32 2:1 6:1 16:1 20:1 37:1 40:1 50:1 63:1 67:1 73:1 74:1 76:1 80:1 83:1 
-32 4:1 7:1 15:1 24:1 38:1 40:1 48:1 63:1 67:1 73:1 74:1 77:1 82:1 83:1 
-32 2:1 6:1 16:1 22:1 36:1 40:1 48:1 63:1 67:1 73:1 74:1 76:1 81:1 83:1 
-32 3:1 6:1 16:1 19:1 39:1 40:1 52:1 63:1 71:1 73:1 74:1 76:1 82:1 
-32 4:1 6:1 16:1 20:1 37:1 40:1 48:1 63:1 67:1 73:1 74:1 76:1 81:1 83:1 
-32 2:1 6:1 14:1 22:1 36:1 40:1 47:1 61:1 67:1 72:1 74:1 76:1 80:1 83:1 
-32 2:1 6:1 17:1 19:1 39:1 40:1 52:1 63:1 67:1 73:1 74:1 76:1 82:1 83:1 
-7.790985669669161 4:1 6:1 16:1 25:1 38:1 43:1 50:1 66:1 67:1 72:1 74:1 76:1 81:1 83:1 
-32 5:1 6:1 17:1 20:1 37:1 40:1 50:1 63:1 67:1 73:1 74:1 76:1 80:1 83:1 
-32 5:1 6:1 17:1 21:1 35:1 40:1 57:1 63:1 67:1 73:1 74:1 76:1 82:1 83:1 
-32 2:1 6:1 15:1 23:1 39:1 42:1 52:1 62:1 68:1 73:1 74:1 76:1 80:1 83:1 
-32 4:1 10:1 14:1 29:1 39:1 44:1 52:1 66:1 67:1 72:1 74:1 77:1 78:1 83:1 
-32 3:1 6:1 14:1 19:1 39:1 40:1 52:1 63:1 67:1 73:1 74:1 76:1 82:1 83:1 
-32 4:1 10:1 18:1 25:1 38:1 41:1 51:1 64:1 67:1 72:1 74:1 76:1 79:1 83:1 
-32 2:1 8:1 17:1 19:1 39:1 40:1 48:1 63:1 67:1 73:1 74:1 76:1 82:1 87:1 
-32 3:1 11:1 15:1 19:1 39:1 40:1 50:1 63:1 67:1 73:1 74:1 76:1 80:1 83:1 
-32 4:1 10:1 16:1 22:1 36:1 40:1 48:1 63:1 67:1 73:1 74:1 76:1 80:1 83:1 
-32 3:1 6:1 16:1 22:1 36:1 40:1 57:1 63:1 67:1 73:1 74:1 77:1 82:1 83:1 
-32 5:1 6:1 16:1 22:1 36:1 40:1 57:1 63:1 67:1 73:1 74:1 76:1 82:1 83:1 
-32 5:1 6:1 14:1 19:1 39:1 40:1 47:1 63:1 67:1 73:1 74:1 76:1 80:1 83:1 
-32 2:1 6:1 18:1 19:1 39:1 40:1 51:1 63:1 67:1 73:1 74:1 76:1 80:1 83:1 
-32 4:1 7:1 17:1 25:1 38:1 40:1 52:1 63:1 67:1 73:1 74:1 76:1 78:1 83:1 
-14.08315012142412 5:1 6:1 18:1 26:1 35:1 40:1 49:1 63:1 71:1 73:1 74:1 76:1 81:1 83:1 
