svm_type c_svc
kernel_type rbf
gamma 0.0078125
nr_class 2
total_sv 1794
rho -0.0335566
label 1 -1
nr_sv 887 907
SV
8 3:1 6:1 17:1 20:1 37:1 40:1 50:1 63:1 67:1 73:1 74:1 76:1 82:1 83:1 
8 2:1 11:1 15:1 19:1 39:1 40:1 52:1 63:1 67:1 73:1 74:1 76:1 80:1 83:1 
8 3:1 6:1 18:1 27:1 35:1 40:1 54:1 63:1 67:1 73:1 74:1 76:1 80:1 103:1 
8 5:1 11:1 15:1 32:1 39:1 40:1 52:1 63:1 67:1 73:1 74:1 76:1 78:1 83:1 
8 5:1 6:1 14:1 22:1 36:1 40:1 51:1 63:1 67:1 73:1 74:1 76:1 80:1 83:1 
8 4:1 6:1 16:1 20:1 37:1 40:1 48:1 63:1 67:1 73:1 75:1 76:1 80:1 83:1 
8 2:1 6:1 17:1 22:1 36:1 40:1 57:1 63:1 67:1 73:1 74:1 76:1 81:1 83:1 
8 3:1 7:1 17:1 19:1 39:1 41:1 52:1 64:1 71:1 72:1 74:1 76:1 80:1 83:1 
8 5:1 18:1 19:1 39:1 40:1 63:1 67:1 73:1 74:1 76:1 80:1 83:1 
8 3:1 9:1 14:1 22:1 36:1 40:1 55:1 63:1 67:1 73:1 74:1 76:1 80:1 83:1 
8 3:1 11:1 16:1 25:1 38:1 40:1 54:1 63:1 67:1 73:1 74:1 76:1 79:1 83:1 
8 4:1 6:1 16:1 20:1 37:1 40:1 55:1 61:1 67:1 72:1 74:1 77:1 78:1 83:1 
8 5:1 11:1 18:1 19:1 39:1 40:1 59:1 63:1 67:1 73:1 74:1 76:1 80:1 83:1 
8 3:1 6:1 14:1 28:1 35:1 41:1 48:1 64:1 67:1 73:1 74:1 76:1 82:1 83:1 
8 4:1 6:1 15:1 20:1 37:1 40:1 52:1 63:1 67:1 73:1 74:1 76:1 80:1 83:1 
8 4:1 8:1 17:1 20:1 37:1 40:1 48:1 63:1 67:1 73:1 74:1 76:1 82:1 83:1 
8 2:1 6:1 15:1 19:1 39:1 40:1 47:1 61:1 67:1 72:1 74:1 76:1 78:1 83:1 
8 4:1 6:1 14:1 24:1 38:1 40:1 51:1 61:1 67:1 72:1 74:1 76:1 82:1 83:1 
8 2:1 6:1 18:1 19:1 39:1 40:1 51:1 61:1 67:1 73:1 74:1 76:1 80:1 83:1 
8 5:1 6:1 14:1 27:1 35:1 42:1 57:1 64:1 67:1 73:1 74:1 76:1 82:1 83:1 
8 5:1 6:1 18:1 29:1 39:1 40:1 48:1 63:1 67:1 73:1 74:1 76:1 80:1 83:1 
8 4:1 6:1 16:1 22:1 36:1 40:1 54:1 63:1 67:1 73:1 74:1 76:1 80:1 83:1 
8 5:1 6:1 17:1 22:1 36:1 40:1 57:1 63:1 67:1 73:1 75:1 76:1 80:1 83:1 
8 3:1 6:1 17:1 19:1 39:1 42:1 50:1 64:1 70:1 72:1 74:1 76:1 82:1 83:1 
8 4:1 6:1 14:1 29:1 39:1 42:1 47:1 64:1 67:1 73:1 74:1 76:1 79:1 83:1 
8 5:1 6:1 15:1 22:1 36:1 40:1 49:1 63:1 67:1 73:1 74:1 76:1 80:1 83:1 
8 3:1 6:1 14:1 19:1 39:1 40:1 50:1 63:1 67:1 73:1 74:1 76:1 82:1 83:1 
8 3:1 6:1 16:1 21:1 35:1 40:1 54:1 63:1 67:1 73:1 75:1 76:1 81:1 83:1 
8 4:1 6:1 16:1 22:1 36:1 40:1 55:1 63:1 67:1 73:1 74:1 76:1 82:1 83:1 
8 5:1 6:1 15:1 22:1 36:1 40:1 51:1 63:1 67:1 73:1 74:1 76:1 82:1 83:1 
8 5:1 7:1 18:1 19:1 39:1 40:1 50:1 63:1 67:1 73:1 74:1 76:1 80:1 87:1 
8 4:1 11:1 17:1 25:1 38:1 40:1 52:1 61:1 67:1 72:1 74:1 76:1 80:1 83:1 
5.274213486148017 5:1 8:1 17:1 25:1 38:1 40:1 54:1 63:1 67:1 73:1 74:1 77:1 82:1 
8 3:1 6:1 18:1 19:1 39:1 40:1 52:1 63:1 67:1 73:1 74:1 76:1 82:1 83:1 
8 3:1 6:1 14:1 29:1 39:1 42:1 52:1 64:1 67:1 73:1 74:1 76:1 81:1 83:1 
8 5:1 6:1 15:1 22:1 36:1 40:1 50:1 63:1 67:1 73:1 74:1 76:1 82:1 83:1 
8 5:1 6:1 15:1 20:1 37:1 40:1 57:1 63:1 67:1 73:1 74:1 76:1 78:1 83:1 
8 3:1 6:1 17:1 22:1 36:1 40:1 51:1 63:1 67:1 73:1 74:1 76:1 80:1 83:1 
8 5:1 6:1 15:1 22:1 36:1 40:1 57:1 63:1 67:1 73:1 74:1 76:1 82:1 83:1 
8 2:1 6:1 16:1 19:1 39:1 40:1 50:1 63:1 71:1 73:1 74:1 76:1 82:1 83:1 
8 3:1 6:1 18:1 22:1 36:1 40:1 51:1 63:1 67:1 73:1 74:1 76:1 82:1 83:1 
8 4:1 6:1 18:1 22:1 36:1 40:1 48:1 63:1 71:1 73:1 74:1 76:1 82:1 83:1 
8 2:1 7:1 16:1 25:1 38:1 40:1 52:1 63:1 67:1 73:1 75:1 76:1 82:1 83:1 
8 4:1 6:1 15:1 20:1 37:1 40:1 48:1 63:1 67:1 73:1 74:1 77:1 82:1 83:1 
8 5:1 15:1 19:1 39:1 44:1 64:1 67:1 72:1 75:1 76:1 78:1 83:1 
8 2:1 6:1 18:1 22:1 36:1 40:1 50:1 63:1 67:1 73:1 74:1 76:1 82:1 83:1 
8 5:1 6:1 14:1 22:1 36:1 40:1 52:1 63:1 67:1 73:1 74:1 76:1 80:1 83:1 
8 5:1 6:1 16:1 20:1 37:1 40:1 51:1 63:1 67:1 73:1 74:1 76:1 82:1 83:1 
8 5:1 8:1 16:1 20:1 37:1 40:1 50:1 63:1 67:1 73:1 74:1 76:1 82:1 83:1 
8 4:1 6:1 14:1 24:1 38:1 40:1 50:1 63:1 67:1 73:1 75:1 76:1 80:1 83:1 
8 5:1 6:1 18:1 22:1 36:1 40:1 54:1 63:1 71:1 73:1 74:1 77:1 80:1 83:1 
8 5:1 6:1 16:1 22:1 36:1 40:1 48:1 63:1 67:1 73:1 74:1 76:1 82:1 83:1 
8 3:1 6:1 14:1 19:1 39:1 40:1 50:1 63:1 67:1 73:1 74:1 76:1 81:1 83:1 
8 2:1 6:1 16:1 20:1 37:1 40:1 47:1 63:1 67:1 73:1 75:1 76:1 80:1 83:1 
8 4:1 6:1 16:1 22:1 36:1 40:1 49:1 61:1 71:1 72:1 74:1 76:1 80:1 83:1 
8 5:1 9:1 16:1 22:1 36:1 40:1 55:1 63:1 67:1 73:1 74:1 76:1 80:1 83:1 
8 4:1 6:1 14:1 20:1 37:1 40:1 47:1 63:1 67:1 73:1 74:1 76:1 78:1 83:1 
8 2:1 6:1 17:1 19:1 39:1 42:1 51:1 64:1 67:1 73:1 74:1 76:1 82:1 83:1 
8 2:1 6:1 16:1 20:1 37:1 40:1 51:1 63:1 67:1 73:1 74:1 76:1 80:1 83:1 
8 5:1 10:1 16:1 29:1 39:1 40:1 52:1 63:1 67:1 73:1 74:1 76:1 80:1 83:1 
8 4:1 6:1 18:1 19:1 39:1 40:1 50:1 63:1 67:1 73:1 74:1 76:1 82:1 83:1 
8 4:1 6:1 15:1 22:1 36:1 40:1 50:1 63:1 67:1 73:1 74:1 76:1 82:1 83:1 
8 5:1 10:1 15:1 20:1 37:1 40:1 51:1 63:1 71:1 73:1 74:1 76:1 80:1 83:1 
8 5:1 6:1 16:1 19:1 39:1 40:1 50:1 63:1 67:1 73:1 74:1 76:1 81:1 83:1 
8 4:1 11:1 17:1 19:1 39:1 41:1 51:1 64:1 67:1 72:1 74:1 76:1 80:1 83:1 
8 5:1 8:1 14:1 29:1 39:1 40:1 50:1 63:1 67:1 73:1 74:1 76:1 82:1 83:1 
8 5:1 6:1 15:1 19:1 39:1 40:1 55:1 61:1 67:1 72:1 74:1 76:1 80:1 83:1 
8 4:1 6:1 14:1 20:1 37:1 45:1 52:1 64:1 67:1 73:1 74:1 76:1 80:1 83:1 
8 3:1 7:1 18:1 19:1 39:1 40:1 50:1 63:1 67:1 73:1 74:1 76:1 81:1 83:1 
8 5:1 16:1 19:1 39:1 40:1 63:1 67:1 73:1 74:1 77:1 80:1 83:1 
8 5:1 6:1 17:1 22:1 36:1 40:1 48:1 63:1 67:1 73:1 75:1 76:1 80:1 83:1 
8 3:1 7:1 18:1 22:1 36:1 42:1 48:1 64:1 67:1 73:1 74:1 76:1 81:1 83:1 
8 5:1 15:1 22:1 36:1 40:1 63:1 67:1 73:1 74:1 76:1 80:1 83:1 
8 5:1 14:1 29:1 39:1 40:1 63:1 71:1 73:1 74:1 76:1 80:1 83:1 
8 4:1 6:1 16:1 22:1 36:1 40:1 57:1 63:1 67:1 73:1 74:1 76:1 82:1 83:1 
8 5:1 6:1 14:1 20:1 37:1 40:1 47:1 63:1 67:1 73:1 74:1 76:1 81:1 83:1 
8 2:1 6:1 14:1 22:1 36:1 40:1 48:1 63:1 67:1 73:1 74:1 76:1 80:1 83:1 
8 3:1 9:1 15:1 24:1 38:1 40:1 55:1 61:1 67:1 72:1 75:1 76:1 78:1 83:1 
8 2:1 7:1 15:1 23:1 39:1 42:1 52:1 62:1 67:1 73:1 74:1 76:1 82:1 99:1 
8 5:1 6:1 17:1 20:1 37:1 40:1 51:1 63:1 67:1 73:1 74:1 76:1 79:1 83:1 
8 5:1 10:1 17:1 21:1 35:1 40:1 48:1 63:1 71:1 73:1 74:1 76:1 80:1 83:1 
8 4:1 6:1 15:1 20:1 37:1 40:1 48:1 63:1 67:1 73:1 74:1 76:1 82:1 83:1 
8 4:1 6:1 15:1 22:1 36:1 40:1 50:1 63:1 67:1 73:1 74:1 76:1 82:1 83:1 
8 3:1 6:1 17:1 22:1 36:1 40:1 50:1 63:1 67:1 73:1 75:1 76:1 81:1 83:1 
8 5:1 6:1 17:1 25:1 38:1 40:1 51:1 63:1 67:1 73:1 74:1 76:1 80:1 88:1 
8 3:1 6:1 17:1 29:1 39:1 40:1 52:1 63:1 67:1 73:1 74:1 76:1 79:1 83:1 
8 3:1 6:1 17:1 23:1 39:1 41:1 52:1 64:1 67:1 73:1 75:1 76:1 81:1 83:1 
8 3:1 6:1 18:1 22:1 36:1 40:1 52:1 63:1 67:1 73:1 74:1 76:1 80:1 83:1 
8 2:1 10:1 18:1 32:1 39:1 42:1 52:1 64:1 67:1 73:1 74:1 76:1 82:1 103:1 
8 3:1 6:1 18:1 22:1 36:1 40:1 55:1 61:1 67:1 72:1 74:1 76:1 79:1 83:1 
8 4:1 6:1 16:1 22:1 36:1 40:1 48:1 63:1 67:1 73:1 75:1 76:1 81:1 83:1 
8 4:1 7:1 14:1 25:1 38:1 40:1 48:1 63:1 67:1 73:1 74:1 76:1 80:1 83:1 
8 5:1 7:1 18:1 19:1 39:1 40:1 47:1 61:1 67:1 72:1 74:1 76:1 82:1 83:1 
8 4:1 6:1 17:1 20:1 37:1 40:1 48:1 63:1 71:1 73:1 74:1 76:1 80:1 83:1 
8 4:1 6:1 16:1 20:1 37:1 40:1 50:1 63:1 67:1 73:1 74:1 76:1 82:1 83:1 
8 3:1 6:1 16:1 29:1 39:1 40:1 50:1 63:1 67:1 73:1 74:1 76:1 82:1 83:1 
8 5:1 6:1 16:1 19:1 39:1 41:1 51:1 64:1 71:1 73:1 75:1 76:1 80:1 83:1 
8 3:1 6:1 14:1 20:1 37:1 40:1 47:1 63:1 67:1 73:1 74:1 76:1 82:1 83:1 
8 3:1 6:1 18:1 19:1 39:1 40:1 49:1 63:1 68:1 73:1 75:1 76:1 79:1 83:1 
8 5:1 11:1 18:1 29:1 39:1 40:1 52:1 61:1 67:1 72:1 74:1 76:1 78:1 83:1 
8 4:1 11:1 17:1 22:1 36:1 40:1 49:1 63:1 67:1 73:1 74:1 76:1 81:1 83:1 
8 3:1 6:1 14:1 22:1 36:1 40:1 57:1 63:1 67:1 73:1 75:1 76:1 82:1 83:1 
8 5:1 6:1 15:1 27:1 35:1 40:1 57:1 63:1 67:1 73:1 74:1 76:1 82:1 83:1 
0.8637086827012697 2:1 9:1 15:1 23:1 39:1 40:1 52:1 63:1 67:1 73:1 74:1 76:1 80:1 83:1 
8 5:1 11:1 17:1 22:1 36:1 40:1 48:1 63:1 71:1 73:1 74:1 76:1 80:1 83:1 
8 4:1 6:1 15:1 22:1 36:1 40:1 50:1 61:1 67:1 72:1 74:1 76:1 80:1 83:1 
8 5:1 9:1 15:1 20:1 37:1 40:1 59:1 63:1 67:1 73:1 74:1 76:1 82:1 83:1 
8 5:1 9:1 14:1 22:1 36:1 40:1 55:1 63:1 67:1 73:1 74:1 76:1 80:1 83:1 
8 5:1 16:1 20:1 37:1 40:1 61:1 67:1 72:1 74:1 76:1 81:1 83:1 
8 3:1 6:1 14:1 19:1 39:1 40:1 51:1 63:1 67:1 73:1 74:1 76:1 81:1 83:1 
8 5:1 6:1 16:1 22:1 36:1 40:1 54:1 63:1 67:1 73:1 74:1 76:1 80:1 83:1 
8 5:1 15:1 32:1 39:1 40:1 63:1 67:1 73:1 74:1 77:1 78:1 83:1 
8 5:1 6:1 14:1 22:1 36:1 40:1 53:1 63:1 67:1 73:1 74:1 76:1 80:1 83:1 
8 3:1 6:1 14:1 19:1 39:1 40:1 52:1 61:1 67:1 72:1 74:1 76:1 82:1 96:1 
8 5:1 15:1 29:1 39:1 42:1 64:1 67:1 72:1 75:1 76:1 79:1 83:1 
8 4:1 6:1 17:1 22:1 36:1 40:1 47:1 63:1 67:1 73:1 74:1 76:1 81:1 83:1 
8 4:1 6:1 16:1 22:1 36:1 40:1 48:1 63:1 67:1 73:1 74:1 76:1 82:1 83:1 
8 3:1 7:1 16:1 29:1 39:1 40:1 50:1 63:1 67:1 73:1 74:1 76:1 80:1 83:1 
8 3:1 6:1 16:1 22:1 36:1 40:1 54:1 63:1 67:1 73:1 74:1 76:1 80:1 83:1 
8 2:1 6:1 15:1 20:1 37:1 40:1 51:1 61:1 67:1 72:1 74:1 76:1 80:1 83:1 
8 4:1 7:1 15:1 19:1 39:1 45:1 51:1 64:1 71:1 73:1 74:1 76:1 80:1 101:1 
8 4:1 7:1 18:1 19:1 39:1 40:1 52:1 61:1 67:1 72:1 74:1 76:1 78:1 83:1 
8 3:1 9:1 14:1 23:1 39:1 42:1 52:1 64:1 67:1 73:1 74:1 76:1 82:1 83:1 
8 5:1 6:1 15:1 31:1 35:1 40:1 48:1 63:1 71:1 73:1 74:1 76:1 80:1 83:1 
8 2:1 6:1 15:1 19:1 39:1 40:1 52:1 63:1 67:1 73:1 74:1 76:1 80:1 83:1 
8 5:1 6:1 15:1 24:1 38:1 40:1 51:1 61:1 71:1 72:1 74:1 76:1 80:1 83:1 
8 2:1 10:1 15:1 19:1 39:1 42:1 52:1 64:1 71:1 73:1 75:1 76:1 81:1 
8 5:1 7:1 14:1 22:1 36:1 40:1 51:1 63:1 67:1 73:1 75:1 76:1 82:1 83:1 
8 2:1 6:1 15:1 22:1 36:1 40:1 54:1 63:1 67:1 73:1 74:1 76:1 82:1 105:1 
8 4:1 8:1 15:1 19:1 39:1 40:1 50:1 63:1 67:1 73:1 74:1 76:1 82:1 83:1 
8 5:1 9:1 18:1 32:1 39:1 42:1 52:1 64:1 67:1 72:1 74:1 77:1 82:1 83:1 
8 3:1 6:1 16:1 19:1 39:1 41:1 50:1 64:1 67:1 73:1 74:1 77:1 82:1 83:1 
8 3:1 8:1 17:1 22:1 36:1 40:1 48:1 63:1 67:1 73:1 74:1 76:1 82:1 
8 5:1 6:1 14:1 22:1 36:1 40:1 48:1 63:1 67:1 73:1 74:1 76:1 80:1 83:1 
8 2:1 6:1 15:1 20:1 37:1 40:1 50:1 63:1 67:1 73:1 74:1 76:1 82:1 83:1 
8 4:1 6:1 18:1 20:1 37:1 40:1 57:1 63:1 67:1 73:1 74:1 76:1 82:1 83:1 
8 3:1 6:1 14:1 22:1 36:1 40:1 57:1 63:1 67:1 73:1 75:1 76:1 82:1 83:1 
8 4:1 7:1 16:1 23:1 39:1 40:1 52:1 63:1 67:1 73:1 74:1 76:1 79:1 83:1 
8 5:1 6:1 14:1 22:1 36:1 40:1 48:1 63:1 68:1 73:1 74:1 77:1 80:1 83:1 
8 4:1 6:1 15:1 19:1 39:1 44:1 52:1 64:1 67:1 72:1 75:1 76:1 82:1 83:1 
8 3:1 6:1 18:1 22:1 36:1 40:1 48:1 63:1 67:1 73:1 75:1 76:1 80:1 83:1 
8 2:1 6:1 17:1 20:1 37:1 41:1 48:1 62:1 67:1 73:1 74:1 76:1 80:1 83:1 
8 3:1 6:1 17:1 22:1 36:1 40:1 54:1 63:1 67:1 73:1 74:1 76:1 82:1 83:1 
8 4:1 6:1 16:1 22:1 36:1 40:1 54:1 63:1 67:1 73:1 74:1 76:1 80:1 83:1 
8 4:1 8:1 17:1 20:1 37:1 40:1 51:1 63:1 67:1 73:1 74:1 76:1 82:1 83:1 
8 4:1 7:1 15:1 29:1 39:1 40:1 48:1 63:1 67:1 73:1 74:1 76:1 82:1 83:1 
8 5:1 10:1 16:1 19:1 39:1 40:1 52:1 63:1 67:1 73:1 74:1 76:1 80:1 83:1 
8 1:1 7:1 16:1 22:1 36:1 40:1 48:1 63:1 67:1 73:1 75:1 76:1 80:1 83:1 
8 3:1 6:1 17:1 22:1 36:1 40:1 54:1 63:1 67:1 73:1 74:1 76:1 80:1 95:1 
8 5:1 6:1 17:1 19:1 39:1 41:1 51:1 64:1 67:1 73:1 74:1 76:1 80:1 83:1 
8 5:1 6:1 14:1 20:1 37:1 40:1 50:1 63:1 67:1 73:1 74:1 77:1 80:1 83:1 
8 4:1 7:1 17:1 20:1 37:1 40:1 52:1 63:1 70:1 73:1 74:1 76:1 82:1 83:1 
8 5:1 6:1 18:1 19:1 39:1 40:1 54:1 63:1 67:1 73:1 74:1 76:1 80:1 100:1 
8 1:1 6:1 16:1 19:1 39:1 40:1 51:1 61:1 67:1 72:1 74:1 76:1 78:1 83:1 
8 5:1 6:1 17:1 19:1 39:1 40:1 48:1 63:1 67:1 73:1 74:1 76:1 78:1 83:1 
8 3:1 10:1 15:1 19:1 39:1 40:1 52:1 63:1 67:1 73:1 74:1 76:1 79:1 83:1 
8 4:1 6:1 15:1 20:1 37:1 40:1 50:1 63:1 67:1 73:1 75:1 76:1 80:1 83:1 
8 5:1 8:1 17:1 20:1 37:1 40:1 51:1 63:1 67:1 73:1 74:1 76:1 80:1 83:1 
8 4:1 6:1 15:1 29:1 39:1 40:1 47:1 63:1 67:1 73:1 74:1 76:1 78:1 83:1 
8 2:1 6:1 15:1 20:1 37:1 40:1 56:1 63:1 67:1 73:1 74:1 76:1 82:1 83:1 
8 5:1 6:1 14:1 22:1 36:1 40:1 57:1 63:1 67:1 73:1 74:1 76:1 82:1 83:1 
8 2:1 6:1 17:1 22:1 36:1 40:1 48:1 63:1 67:1 73:1 74:1 77:1 82:1 83:1 
8 4:1 6:1 16:1 22:1 36:1 41:1 51:1 66:1 71:1 72:1 74:1 76:1 80:1 83:1 
8 5:1 6:1 16:1 22:1 36:1 40:1 59:1 63:1 67:1 73:1 74:1 76:1 80:1 83:1 
8 3:1 6:1 17:1 29:1 39:1 40:1 50:1 63:1 67:1 73:1 74:1 76:1 80:1 83:1 
8 3:1 6:1 16:1 22:1 36:1 40:1 49:1 61:1 67:1 72:1 74:1 76:1 78:1 83:1 
8 3:1 6:1 15:1 20:1 37:1 40:1 51:1 63:1 67:1 73:1 75:1 76:1 80:1 83:1 
8 2:1 6:1 18:1 22:1 36:1 40:1 57:1 63:1 67:1 73:1 74:1 76:1 82:1 83:1 
8 1:1 10:1 14:1 19:1 39:1 40:1 52:1 63:1 67:1 73:1 74:1 77:1 80:1 83:1 
8 3:1 10:1 14:1 20:1 37:1 40:1 59:1 63:1 67:1 73:1 74:1 76:1 80:1 83:1 
8 5:1 6:1 16:1 22:1 36:1 40:1 48:1 63:1 67:1 73:1 74:1 76:1 80:1 83:1 
8 3:1 6:1 17:1 20:1 37:1 40:1 55:1 61:1 67:1 72:1 74:1 76:1 79:1 83:1 
8 3:1 9:1 18:1 29:1 39:1 42:1 51:1 64:1 67:1 73:1 75:1 76:1 80:1 83:1 
8 5:1 6:1 15:1 19:1 39:1 40:1 52:1 63:1 67:1 73:1 74:1 76:1 80:1 83:1 
8 3:1 6:1 18:1 19:1 39:1 40:1 52:1 63:1 67:1 73:1 74:1 76:1 81:1 83:1 
8 3:1 6:1 15:1 22:1 36:1 40:1 51:1 61:1 67:1 72:1 74:1 76:1 79:1 83:1 
8 3:1 7:1 14:1 19:1 39:1 40:1 52:1 63:1 67:1 73:1 74:1 76:1 82:1 83:1 
8 3:1 6:1 18:1 19:1 39:1 40:1 48:1 63:1 67:1 73:1 74:1 76:1 81:1 83:1 
8 4:1 8:1 18:1 29:1 39:1 41:1 52:1 66:1 67:1 73:1 75:1 76:1 82:1 103:1 
8 3:1 6:1 16:1 29:1 39:1 42:1 52:1 64:1 67:1 73:1 75:1 76:1 82:1 
8 5:1 7:1 14:1 27:1 35:1 45:1 55:1 64:1 67:1 73:1 74:1 76:1 78:1 99:1 
8 5:1 8:1 14:1 29:1 39:1 41:1 51:1 64:1 67:1 73:1 75:1 76:1 82:1 83:1 
8 5:1 11:1 18:1 29:1 39:1 42:1 55:1 64:1 67:1 73:1 74:1 76:1 82:1 83:1 
8 2:1 6:1 16:1 22:1 36:1 40:1 54:1 63:1 67:1 73:1 74:1 76:1 80:1 83:1 
8 2:1 6:1 18:1 23:1 39:1 41:1 52:1 64:1 67:1 73:1 75:1 76:1 82:1 83:1 
8 4:1 10:1 17:1 20:1 37:1 40:1 48:1 63:1 67:1 73:1 74:1 76:1 80:1 83:1 
8 5:1 7:1 18:1 22:1 36:1 40:1 51:1 63:1 67:1 73:1 74:1 77:1 82:1 83:1 
8 4:1 10:1 18:1 19:1 39:1 42:1 52:1 64:1 67:1 72:1 74:1 76:1 82:1 83:1 
8 3:1 6:1 15:1 19:1 39:1 40:1 50:1 63:1 67:1 73:1 74:1 76:1 82:1 83:1 
8 4:1 10:1 16:1 29:1 39:1 40:1 52:1 63:1 67:1 73:1 74:1 76:1 80:1 83:1 
8 5:1 7:1 17:1 20:1 37:1 40:1 54:1 63:1 67:1 73:1 75:1 76:1 80:1 83:1 
8 2:1 7:1 17:1 22:1 36:1 40:1 48:1 63:1 67:1 73:1 74:1 76:1 80:1 83:1 
7.855536074996636 4:1 10:1 17:1 29:1 39:1 40:1 52:1 63:1 67:1 73:1 74:1 76:1 80:1 83:1 
8 2:1 6:1 15:1 22:1 36:1 40:1 50:1 61:1 67:1 72:1 74:1 76:1 80:1 83:1 
8 4:1 6:1 17:1 20:1 37:1 41:1 48:1 64:1 67:1 73:1 74:1 76:1 81:1 83:1 
8 2:1 6:1 15:1 20:1 37:1 40:1 51:1 63:1 67:1 73:1 74:1 76:1 80:1 83:1 
8 5:1 6:1 15:1 22:1 36:1 40:1 57:1 63:1 67:1 73:1 74:1 76:1 80:1 83:1 
8 3:1 6:1 17:1 19:1 39:1 40:1 52:1 63:1 67:1 73:1 74:1 76:1 80:1 83:1 
8 2:1 6:1 16:1 19:1 39:1 43:1 52:1 64:1 68:1 73:1 74:1 76:1 80:1 98:1 
8 5:1 6:1 16:1 20:1 37:1 40:1 51:1 63:1 67:1 73:1 74:1 76:1 82:1 83:1 
8 1:1 6:1 18:1 27:1 35:1 42:1 49:1 64:1 67:1 73:1 74:1 76:1 82:1 83:1 
8 3:1 6:1 17:1 22:1 36:1 40:1 54:1 63:1 67:1 73:1 75:1 76:1 82:1 83:1 
8 4:1 6:1 14:1 20:1 37:1 40:1 50:1 63:1 67:1 73:1 74:1 76:1 81:1 83:1 
8 3:1 6:1 15:1 19:1 39:1 40:1 54:1 63:1 67:1 73:1 74:1 76:1 82:1 83:1 
8 3:1 10:1 14:1 20:1 37:1 40:1 47:1 61:1 67:1 72:1 75:1 76:1 79:1 83:1 
8 3:1 7:1 14:1 22:1 36:1 40:1 51:1 63:1 67:1 73:1 74:1 76:1 82:1 83:1 
8 3:1 7:1 15:1 20:1 37:1 40:1 54:1 63:1 67:1 73:1 74:1 76:1 81:1 83:1 
8 5:1 6:1 16:1 22:1 36:1 40:1 47:1 63:1 67:1 73:1 74:1 77:1 80:1 83:1 
8 4:1 10:1 16:1 25:1 38:1 40:1 51:1 63:1 67:1 73:1 74:1 76:1 80:1 83:1 
8 3:1 6:1 15:1 19:1 39:1 43:1 52:1 66:1 67:1 72:1 75:1 76:1 78:1 83:1 
8 3:1 6:1 17:1 23:1 39:1 43:1 52:1 64:1 67:1 73:1 74:1 76:1 79:1 83:1 
8 2:1 6:1 17:1 29:1 39:1 40:1 51:1 61:1 67:1 72:1 74:1 76:1 80:1 83:1 
8 2:1 9:1 18:1 19:1 39:1 40:1 51:1 63:1 67:1 73:1 74:1 76:1 80:1 83:1 
8 5:1 18:1 33:1 35:1 40:1 63:1 67:1 73:1 75:1 76:1 82:1 83:1 
1.012610006419242 3:1 7:1 17:1 23:1 39:1 40:1 52:1 63:1 67:1 73:1 74:1 76:1 82:1 83:1 
8 2:1 6:1 17:1 19:1 39:1 40:1 51:1 63:1 67:1 73:1 74:1 76:1 80:1 83:1 
8 5:1 6:1 15:1 20:1 37:1 40:1 51:1 63:1 67:1 73:1 74:1 76:1 80:1 83:1 
8 4:1 6:1 16:1 22:1 36:1 40:1 57:1 63:1 67:1 73:1 74:1 76:1 82:1 83:1 
8 5:1 6:1 17:1 22:1 36:1 40:1 59:1 63:1 67:1 73:1 74:1 76:1 78:1 83:1 
8 2:1 6:1 17:1 19:1 39:1 40:1 51:1 63:1 71:1 73:1 74:1 76:1 81:1 83:1 
6.995083595019205 4:1 7:1 17:1 19:1 39:1 40:1 51:1 63:1 67:1 73:1 74:1 76:1 82:1 83:1 
8 3:1 6:1 18:1 25:1 38:1 40:1 51:1 63:1 67:1 73:1 74:1 76:1 81:1 83:1 
8 2:1 6:1 17:1 19:1 39:1 40:1 50:1 63:1 67:1 73:1 74:1 76:1 82:1 83:1 
8 4:1 7:1 16:1 20:1 37:1 40:1 48:1 63:1 67:1 73:1 74:1 77:1 80:1 83:1 
8 4:1 7:1 14:1 22:1 36:1 40:1 51:1 63:1 67:1 73:1 74:1 76:1 80:1 83:1 
8 5:1 6:1 15:1 19:1 39:1 40:1 52:1 63:1 67:1 73:1 74:1 76:1 80:1 83:1 
8 2:1 6:1 16:1 19:1 39:1 46:1 51:1 61:1 67:1 72:1 74:1 76:1 80:1 83:1 
8 4:1 6:1 15:1 25:1 38:1 40:1 55:1 61:1 67:1 72:1 74:1 76:1 80:1 83:1 
8 5:1 7:1 14:1 25:1 38:1 40:1 50:1 63:1 67:1 73:1 74:1 76:1 82:1 83:1 
8 5:1 7:1 16:1 22:1 36:1 42:1 56:1 64:1 67:1 73:1 75:1 76:1 80:1 83:1 
8 3:1 9:1 16:1 23:1 39:1 42:1 52:1 64:1 67:1 72:1 74:1 76:1 82:1 83:1 
8 4:1 6:1 16:1 25:1 38:1 40:1 50:1 63:1 67:1 73:1 74:1 76:1 80:1 83:1 
8 2:1 7:1 16:1 22:1 36:1 40:1 57:1 63:1 67:1 73:1 75:1 76:1 80:1 83:1 
8 5:1 14:1 23:1 39:1 40:1 63:1 67:1 73:1 75:1 76:1 78:1 83:1 
8 4:1 7:1 14:1 29:1 39:1 40:1 56:1 63:1 67:1 73:1 74:1 76:1 80:1 83:1 
8 2:1 6:1 17:1 22:1 36:1 40:1 54:1 63:1 67:1 73:1 74:1 76:1 82:1 83:1 
8 3:1 6:1 14:1 22:1 36:1 40:1 50:1 63:1 67:1 73:1 75:1 76:1 80:1 83:1 
8 4:1 6:1 16:1 31:1 35:1 40:1 54:1 63:1 67:1 73:1 74:1 76:1 80:1 83:1 
8 3:1 6:1 18:1 32:1 39:1 42:1 52:1 64:1 67:1 73:1 74:1 76:1 80:1 110:1 
8 3:1 6:1 16:1 22:1 36:1 40:1 51:1 63:1 67:1 73:1 74:1 76:1 82:1 83:1 
8 3:1 7:1 17:1 19:1 39:1 40:1 48:1 63:1 67:1 73:1 74:1 76:1 80:1 83:1 
8 4:1 6:1 16:1 32:1 39:1 42:1 52:1 64:1 67:1 73:1 74:1 76:1 79:1 83:1 
8 3:1 8:1 18:1 20:1 37:1 40:1 50:1 63:1 67:1 73:1 74:1 76:1 82:1 83:1 
8 4:1 6:1 17:1 25:1 38:1 40:1 54:1 63:1 67:1 73:1 74:1 76:1 80:1 83:1 
8 2:1 6:1 17:1 20:1 37:1 40:1 54:1 63:1 67:1 73:1 74:1 76:1 80:1 83:1 
8 5:1 6:1 14:1 19:1 39:1 40:1 50:1 63:1 67:1 73:1 75:1 76:1 78:1 83:1 
8 4:1 6:1 16:1 22:1 36:1 40:1 48:1 63:1 67:1 73:1 74:1 76:1 80:1 83:1 
8 4:1 6:1 16:1 20:1 37:1 40:1 48:1 63:1 67:1 73:1 74:1 76:1 80:1 83:1 
8 5:1 6:1 18:1 19:1 39:1 40:1 54:1 63:1 67:1 73:1 74:1 76:1 80:1 83:1 
8 4:1 7:1 17:1 20:1 37:1 40:1 49:1 63:1 67:1 73:1 74:1 76:1 80:1 83:1 
8 3:1 6:1 17:1 19:1 39:1 40:1 47:1 63:1 67:1 73:1 74:1 76:1 82:1 83:1 
8 3:1 11:1 15:1 22:1 36:1 40:1 48:1 63:1 67:1 73:1 75:1 76:1 80:1 83:1 
8 5:1 6:1 16:1 20:1 37:1 40:1 55:1 63:1 67:1 73:1 74:1 76:1 80:1 83:1 
8 3:1 6:1 14:1 22:1 36:1 40:1 51:1 61:1 67:1 72:1 74:1 76:1 81:1 87:1 
8 4:1 6:1 17:1 19:1 39:1 40:1 53:1 63:1 71:1 73:1 74:1 76:1 80:1 111:1 
8 3:1 10:1 18:1 20:1 37:1 40:1 55:1 63:1 67:1 73:1 74:1 76:1 80:1 87:1 
8 5:1 6:1 14:1 20:1 37:1 40:1 50:1 63:1 67:1 73:1 74:1 76:1 80:1 83:1 
8 3:1 6:1 16:1 20:1 37:1 40:1 51:1 63:1 67:1 73:1 74:1 76:1 82:1 83:1 
8 2:1 6:1 17:1 22:1 36:1 40:1 53:1 61:1 67:1 72:1 74:1 76:1 80:1 103:1 
8 5:1 7:1 14:1 23:1 39:1 40:1 52:1 63:1 67:1 73:1 74:1 76:1 82:1 85:1 
8 3:1 6:1 17:1 24:1 38:1 40:1 51:1 63:1 67:1 73:1 74:1 76:1 82:1 83:1 
8 3:1 6:1 15:1 22:1 36:1 40:1 57:1 63:1 67:1 73:1 74:1 76:1 82:1 83:1 
8 4:1 7:1 15:1 19:1 39:1 42:1 51:1 64:1 71:1 73:1 75:1 76:1 81:1 83:1 
8 4:1 10:1 15:1 29:1 39:1 41:1 52:1 66:1 71:1 72:1 75:1 76:1 80:1 83:1 
8 5:1 16:1 22:1 36:1 40:1 63:1 67:1 73:1 74:1 76:1 80:1 83:1 
8 5:1 6:1 17:1 20:1 37:1 40:1 48:1 63:1 67:1 73:1 74:1 76:1 80:1 83:1 
8 4:1 6:1 18:1 20:1 37:1 40:1 57:1 63:1 67:1 73:1 74:1 76:1 82:1 83:1 
8 2:1 6:1 16:1 22:1 36:1 40:1 54:1 63:1 67:1 73:1 74:1 76:1 82:1 83:1 
8 4:1 6:1 16:1 29:1 39:1 45:1 51:1 64:1 67:1 73:1 74:1 76:1 82:1 83:1 
8 2:1 10:1 17:1 22:1 36:1 40:1 59:1 63:1 67:1 73:1 74:1 76:1 81:1 83:1 
8 3:1 6:1 15:1 22:1 36:1 40:1 54:1 63:1 68:1 73:1 74:1 76:1 80:1 
8 5:1 6:1 14:1 22:1 36:1 40:1 51:1 63:1 67:1 73:1 74:1 76:1 79:1 83:1 
8 4:1 6:1 16:1 22:1 36:1 40:1 54:1 63:1 67:1 73:1 74:1 76:1 81:1 83:1 
8 4:1 11:1 14:1 19:1 39:1 40:1 52:1 63:1 67:1 73:1 74:1 76:1 81:1 83:1 
8 4:1 6:1 14:1 22:1 36:1 40:1 53:1 63:1 67:1 73:1 74:1 76:1 82:1 83:1 
8 5:1 6:1 16:1 22:1 36:1 40:1 48:1 63:1 67:1 73:1 74:1 76:1 80:1 83:1 
8 5:1 11:1 14:1 25:1 38:1 41:1 47:1 64:1 67:1 73:1 74:1 77:1 79:1 83:1 
8 2:1 6:1 18:1 20:1 37:1 40:1 57:1 63:1 67:1 73:1 74:1 77:1 81:1 83:1 
8 2:1 6:1 18:1 19:1 39:1 42:1 50:1 64:1 67:1 73:1 74:1 76:1 82:1 83:1 
8 4:1 11:1 15:1 22:1 36:1 41:1 55:1 66:1 67:1 72:1 74:1 76:1 82:1 83:1 
8 5:1 6:1 18:1 20:1 37:1 40:1 57:1 63:1 67:1 73:1 75:1 76:1 78:1 83:1 
8 3:1 6:1 15:1 20:1 37:1 40:1 50:1 63:1 67:1 73:1 74:1 76:1 82:1 83:1 
8 4:1 10:1 17:1 22:1 36:1 40:1 54:1 63:1 71:1 73:1 74:1 76:1 80:1 83:1 
8 4:1 7:1 16:1 22:1 36:1 40:1 54:1 63:1 67:1 73:1 75:1 76:1 80:1 83:1 
8 4:1 6:1 16:1 19:1 39:1 40:1 48:1 63:1 67:1 73:1 74:1 76:1 82:1 83:1 
8 3:1 6:1 17:1 24:1 38:1 40:1 55:1 61:1 67:1 72:1 74:1 76:1 78:1 83:1 
8 5:1 9:1 16:1 22:1 36:1 40:1 47:1 63:1 67:1 73:1 74:1 77:1 80:1 83:1 
8 5:1 18:1 29:1 39:1 40:1 63:1 67:1 73:1 74:1 76:1 80:1 83:1 
8 4:1 11:1 15:1 19:1 39:1 40:1 52:1 63:1 67:1 73:1 74:1 76:1 82:1 83:1 
8 4:1 6:1 16:1 22:1 36:1 40:1 54:1 63:1 67:1 73:1 74:1 76:1 80:1 83:1 
8 3:1 6:1 14:1 22:1 36:1 40:1 54:1 63:1 67:1 73:1 74:1 76:1 81:1 83:1 
8 2:1 6:1 14:1 29:1 39:1 40:1 52:1 63:1 67:1 73:1 74:1 76:1 82:1 83:1 
8 3:1 6:1 16:1 20:1 37:1 40:1 50:1 63:1 67:1 73:1 74:1 76:1 82:1 83:1 
8 5:1 8:1 15:1 22:1 36:1 40:1 51:1 63:1 71:1 73:1 75:1 76:1 82:1 83:1 
8 4:1 6:1 18:1 22:1 36:1 40:1 48:1 63:1 67:1 73:1 74:1 76:1 80:1 83:1 
8 5:1 6:1 14:1 21:1 35:1 40:1 50:1 63:1 67:1 73:1 75:1 76:1 78:1 83:1 
8 3:1 7:1 14:1 22:1 36:1 41:1 56:1 64:1 67:1 73:1 75:1 76:1 80:1 83:1 
8 4:1 6:1 15:1 22:1 36:1 40:1 57:1 63:1 67:1 73:1 74:1 76:1 82:1 83:1 
8 4:1 6:1 18:1 19:1 39:1 40:1 52:1 63:1 67:1 73:1 74:1 76:1 80:1 83:1 
8 3:1 11:1 15:1 19:1 39:1 40:1 52:1 63:1 67:1 73:1 74:1 76:1 81:1 83:1 
8 4:1 6:1 17:1 22:1 36:1 40:1 57:1 63:1 67:1 73:1 74:1 76:1 80:1 83:1 
8 3:1 11:1 14:1 22:1 36:1 40:1 54:1 63:1 67:1 73:1 74:1 76:1 80:1 83:1 
8 2:1 11:1 18:1 19:1 39:1 40:1 59:1 63:1 67:1 73:1 74:1 76:1 82:1 83:1 
8 2:1 6:1 18:1 19:1 39:1 42:1 50:1 64:1 67:1 73:1 74:1 76:1 82:1 83:1 
8 5:1 6:1 18:1 20:1 37:1 40:1 55:1 65:1 67:1 72:1 74:1 76:1 78:1 83:1 
8 4:1 6:1 15:1 20:1 37:1 40:1 55:1 63:1 67:1 73:1 74:1 76:1 80:1 83:1 
8 5:1 6:1 15:1 22:1 36:1 40:1 48:1 63:1 67:1 73:1 74:1 76:1 82:1 83:1 
8 3:1 6:1 14:1 24:1 38:1 40:1 51:1 63:1 67:1 73:1 74:1 76:1 80:1 83:1 
8 4:1 6:1 17:1 22:1 36:1 40:1 48:1 63:1 67:1 73:1 74:1 77:1 81:1 83:1 
8 3:1 10:1 14:1 20:1 37:1 40:1 55:1 61:1 67:1 72:1 74:1 76:1 80:1 83:1 
8 5:1 11:1 18:1 32:1 39:1 41:1 52:1 66:1 67:1 73:1 75:1 76:1 81:1 83:1 
8 4:1 6:1 15:1 25:1 38:1 40:1 56:1 63:1 67:1 73:1 74:1 76:1 80:1 83:1 
8 4:1 6:1 18:1 20:1 37:1 40:1 50:1 63:1 67:1 73:1 74:1 76:1 81:1 83:1 
8 5:1 8:1 17:1 20:1 37:1 44:1 50:1 64:1 67:1 72:1 74:1 76:1 78:1 83:1 
8 2:1 6:1 16:1 20:1 37:1 40:1 57:1 63:1 67:1 73:1 74:1 76:1 82:1 83:1 
8 2:1 6:1 16:1 24:1 38:1 40:1 48:1 63:1 67:1 73:1 74:1 77:1 80:1 105:1 
8 4:1 7:1 16:1 22:1 36:1 40:1 55:1 61:1 67:1 72:1 74:1 76:1 78:1 83:1 
8 4:1 10:1 15:1 20:1 37:1 40:1 59:1 63:1 67:1 73:1 74:1 76:1 80:1 83:1 
8 4:1 6:1 15:1 28:1 35:1 40:1 48:1 63:1 67:1 73:1 75:1 76:1 80:1 
8 3:1 6:1 18:1 22:1 36:1 40:1 57:1 63:1 71:1 73:1 74:1 76:1 82:1 83:1 
8 5:1 6:1 18:1 22:1 36:1 40:1 48:1 63:1 67:1 73:1 74:1 76:1 79:1 83:1 
8 5:1 6:1 16:1 22:1 36:1 44:1 50:1 64:1 67:1 72:1 74:1 76:1 80:1 83:1 
8 3:1 6:1 18:1 22:1 36:1 41:1 51:1 66:1 67:1 72:1 74:1 76:1 80:1 83:1 
8 5:1 10:1 14:1 25:1 38:1 40:1 51:1 63:1 67:1 73:1 74:1 76:1 80:1 83:1 
8 4:1 6:1 16:1 22:1 36:1 40:1 55:1 61:1 67:1 72:1 74:1 76:1 80:1 83:1 
8 2:1 6:1 18:1 29:1 39:1 40:1 52:1 63:1 67:1 73:1 74:1 76:1 81:1 83:1 
8 3:1 6:1 17:1 22:1 36:1 40:1 48:1 63:1 67:1 73:1 74:1 76:1 80:1 83:1 
8 3:1 6:1 15:1 19:1 39:1 40:1 48:1 63:1 67:1 73:1 74:1 76:1 82:1 83:1 
8 4:1 11:1 15:1 32:1 39:1 41:1 52:1 66:1 67:1 73:1 74:1 76:1 82:1 106:1 
8 4:1 6:1 16:1 22:1 36:1 40:1 50:1 63:1 67:1 73:1 74:1 76:1 80:1 83:1 
8 3:1 6:1 16:1 19:1 39:1 40:1 52:1 63:1 67:1 73:1 74:1 76:1 79:1 83:1 
6.183088102655078 5:1 10:1 15:1 29:1 39:1 40:1 52:1 63:1 67:1 73:1 74:1 76:1 80:1 83:1 
8 2:1 6:1 16:1 22:1 36:1 40:1 51:1 63:1 67:1 73:1 74:1 76:1 80:1 83:1 
8 5:1 11:1 18:1 25:1 38:1 40:1 48:1 63:1 71:1 73:1 74:1 76:1 82:1 83:1 
8 2:1 6:1 17:1 22:1 36:1 40:1 57:1 63:1 67:1 73:1 74:1 76:1 82:1 83:1 
8 2:1 6:1 16:1 22:1 36:1 40:1 48:1 63:1 67:1 73:1 74:1 76:1 82:1 83:1 
8 3:1 10:1 16:1 26:1 35:1 40:1 49:1 61:1 67:1 72:1 74:1 76:1 80:1 118:1 
8 4:1 11:1 14:1 20:1 37:1 40:1 51:1 63:1 67:1 73:1 75:1 76:1 79:1 83:1 
8 5:1 7:1 15:1 22:1 36:1 41:1 51:1 64:1 67:1 72:1 75:1 76:1 79:1 83:1 
8 5:1 6:1 16:1 22:1 36:1 40:1 51:1 63:1 67:1 73:1 75:1 76:1 80:1 83:1 
8 4:1 6:1 16:1 20:1 37:1 40:1 50:1 63:1 67:1 73:1 74:1 76:1 80:1 83:1 
8 2:1 6:1 16:1 20:1 37:1 40:1 53:1 63:1 67:1 73:1 74:1 76:1 80:1 83:1 
8 5:1 6:1 14:1 22:1 36:1 40:1 51:1 63:1 67:1 73:1 74:1 76:1 82:1 83:1 
8 3:1 6:1 17:1 19:1 39:1 40:1 47:1 63:1 67:1 73:1 74:1 76:1 80:1 83:1 
8 3:1 10:1 17:1 24:1 38:1 40:1 51:1 63:1 67:1 73:1 74:1 76:1 80:1 83:1 
8 3:1 9:1 17:1 19:1 39:1 44:1 55:1 64:1 67:1 73:1 74:1 76:1 80:1 83:1 
8 3:1 6:1 16:1 25:1 38:1 40:1 48:1 63:1 67:1 73:1 75:1 76:1 80:1 83:1 
8 4:1 6:1 17:1 22:1 36:1 40:1 49:1 63:1 67:1 73:1 74:1 76:1 80:1 103:1 
8 5:1 7:1 15:1 31:1 35:1 40:1 48:1 63:1 67:1 73:1 74:1 76:1 82:1 83:1 
8 2:1 6:1 16:1 22:1 36:1 40:1 50:1 63:1 67:1 73:1 74:1 76:1 80:1 83:1 
8 5:1 15:1 20:1 37:1 40:1 63:1 67:1 73:1 75:1 76:1 80:1 83:1 
8 4:1 17:1 20:1 37:1 40:1 63:1 67:1 73:1 74:1 76:1 78:1 83:1 
8 2:1 6:1 15:1 19:1 39:1 40:1 52:1 61:1 67:1 72:1 74:1 77:1 78:1 83:1 
8 5:1 6:1 14:1 19:1 39:1 42:1 49:1 64:1 68:1 72:1 74:1 76:1 78:1 91:1 
8 5:1 6:1 17:1 22:1 36:1 40:1 51:1 63:1 67:1 73:1 74:1 76:1 82:1 83:1 
8 5:1 6:1 17:1 19:1 39:1 40:1 52:1 63:1 67:1 73:1 74:1 76:1 80:1 83:1 
8 3:1 6:1 15:1 22:1 36:1 40:1 54:1 61:1 67:1 72:1 74:1 76:1 81:1 83:1 
8 4:1 6:1 18:1 22:1 36:1 40:1 57:1 63:1 71:1 73:1 74:1 76:1 81:1 83:1 
8 2:1 6:1 15:1 29:1 39:1 43:1 51:1 64:1 67:1 73:1 74:1 77:1 82:1 83:1 
8 4:1 6:1 15:1 19:1 39:1 41:1 51:1 64:1 67:1 73:1 74:1 77:1 80:1 83:1 
8 2:1 6:1 15:1 23:1 39:1 40:1 52:1 61:1 67:1 72:1 74:1 76:1 82:1 83:1 
8 4:1 6:1 14:1 22:1 36:1 40:1 54:1 63:1 67:1 73:1 74:1 77:1 82:1 83:1 
8 5:1 6:1 16:1 22:1 36:1 40:1 57:1 63:1 67:1 73:1 74:1 77:1 82:1 83:1 
8 4:1 9:1 14:1 22:1 36:1 40:1 55:1 63:1 67:1 73:1 74:1 76:1 80:1 83:1 
8 5:1 7:1 14:1 24:1 38:1 40:1 51:1 63:1 67:1 73:1 74:1 76:1 82:1 83:1 
8 3:1 6:1 16:1 20:1 37:1 40:1 50:1 61:1 67:1 72:1 75:1 76:1 80:1 83:1 
8 3:1 9:1 15:1 22:1 36:1 40:1 55:1 63:1 67:1 73:1 74:1 76:1 80:1 83:1 
8 3:1 6:1 17:1 22:1 36:1 40:1 51:1 63:1 67:1 73:1 74:1 76:1 81:1 83:1 
8 4:1 10:1 16:1 20:1 37:1 40:1 57:1 63:1 67:1 73:1 74:1 77:1 80:1 83:1 
8 5:1 6:1 17:1 20:1 37:1 40:1 50:1 63:1 67:1 73:1 74:1 76:1 78:1 83:1 
8 5:1 6:1 15:1 19:1 39:1 40:1 50:1 63:1 67:1 73:1 74:1 76:1 81:1 83:1 
8 4:1 10:1 17:1 19:1 39:1 41:1 59:1 64:1 71:1 73:1 74:1 76:1 82:1 83:1 
8 5:1 8:1 14:1 22:1 36:1 40:1 51:1 63:1 67:1 73:1 75:1 76:1 82:1 83:1 
8 4:1 6:1 14:1 19:1 39:1 40:1 52:1 63:1 67:1 73:1 74:1 76:1 80:1 83:1 
8 3:1 10:1 16:1 20:1 37:1 40:1 59:1 63:1 67:1 73:1 74:1 76:1 82:1 83:1 
8 5:1 6:1 15:1 19:1 39:1 42:1 55:1 64:1 67:1 72:1 75:1 76:1 80:1 83:1 
8 3:1 6:1 14:1 23:1 39:1 42:1 52:1 64:1 67:1 72:1 75:1 76:1 82:1 83:1 
8 3:1 8:1 15:1 20:1 37:1 40:1 48:1 63:1 67:1 73:1 74:1 76:1 82:1 83:1 
8 4:1 9:1 17:1 20:1 37:1 40:1 53:1 63:1 67:1 73:1 74:1 76:1 80:1 83:1 
8 3:1 6:1 16:1 20:1 37:1 40:1 54:1 63:1 68:1 73:1 74:1 76:1 82:1 83:1 
8 4:1 7:1 14:1 19:1 39:1 41:1 52:1 64:1 67:1 73:1 74:1 76:1 82:1 83:1 
8 4:1 6:1 15:1 20:1 37:1 40:1 52:1 63:1 67:1 73:1 75:1 76:1 79:1 83:1 
8 2:1 6:1 18:1 22:1 36:1 40:1 57:1 63:1 67:1 73:1 74:1 76:1 81:1 83:1 
8 4:1 10:1 14:1 19:1 39:1 40:1 59:1 63:1 67:1 73:1 74:1 76:1 80:1 83:1 
8 5:1 6:1 14:1 29:1 39:1 40:1 52:1 63:1 67:1 73:1 74:1 76:1 80:1 
3.299589573543285 4:1 10:1 18:1 19:1 39:1 40:1 51:1 63:1 71:1 73:1 74:1 76:1 80:1 83:1 
8 3:1 6:1 16:1 19:1 39:1 40:1 47:1 63:1 67:1 73:1 74:1 76:1 81:1 83:1 
8 4:1 9:1 15:1 20:1 37:1 40:1 48:1 63:1 67:1 73:1 74:1 76:1 80:1 83:1 
8 3:1 10:1 16:1 20:1 37:1 40:1 59:1 63:1 67:1 73:1 75:1 76:1 80:1 83:1 
8 2:1 11:1 16:1 20:1 37:1 40:1 48:1 63:1 67:1 73:1 74:1 76:1 79:1 83:1 
8 5:1 11:1 18:1 20:1 37:1 40:1 54:1 63:1 71:1 73:1 74:1 76:1 80:1 83:1 
8 2:1 6:1 14:1 22:1 36:1 40:1 50:1 63:1 67:1 73:1 74:1 76:1 82:1 83:1 
8 3:1 6:1 17:1 25:1 38:1 42:1 51:1 64:1 67:1 73:1 74:1 76:1 82:1 83:1 
8 4:1 6:1 18:1 22:1 36:1 40:1 48:1 63:1 67:1 73:1 74:1 76:1 82:1 83:1 
8 3:1 6:1 16:1 25:1 38:1 40:1 55:1 61:1 71:1 72:1 74:1 76:1 82:1 83:1 
8 3:1 7:1 16:1 23:1 39:1 40:1 50:1 63:1 67:1 73:1 74:1 76:1 78:1 83:1 
8 3:1 6:1 16:1 19:1 39:1 43:1 52:1 66:1 68:1 72:1 74:1 76:1 80:1 98:1 
8 2:1 8:1 16:1 22:1 36:1 40:1 56:1 63:1 67:1 73:1 74:1 77:1 82:1 83:1 
8 3:1 6:1 15:1 19:1 39:1 40:1 47:1 63:1 67:1 73:1 74:1 76:1 80:1 83:1 
8 2:1 6:1 17:1 20:1 37:1 40:1 55:1 61:1 67:1 72:1 74:1 76:1 80:1 83:1 
8 4:1 6:1 14:1 22:1 36:1 40:1 57:1 63:1 67:1 73:1 74:1 76:1 82:1 83:1 
8 5:1 6:1 15:1 22:1 36:1 40:1 51:1 63:1 67:1 73:1 74:1 76:1 82:1 83:1 
8 3:1 6:1 16:1 22:1 36:1 41:1 57:1 64:1 67:1 72:1 74:1 76:1 82:1 83:1 
8 3:1 6:1 17:1 22:1 36:1 40:1 48:1 63:1 67:1 73:1 75:1 76:1 80:1 83:1 
8 4:1 7:1 18:1 19:1 39:1 41:1 49:1 66:1 68:1 72:1 74:1 76:1 82:1 93:1 
8 5:1 6:1 18:1 19:1 39:1 40:1 50:1 63:1 67:1 73:1 74:1 76:1 82:1 83:1 
8 5:1 6:1 15:1 22:1 36:1 40:1 51:1 63:1 67:1 73:1 74:1 76:1 82:1 83:1 
8 4:1 10:1 14:1 29:1 39:1 40:1 52:1 63:1 67:1 73:1 74:1 76:1 80:1 83:1 
8 3:1 6:1 16:1 19:1 39:1 40:1 50:1 63:1 67:1 73:1 74:1 76:1 80:1 83:1 
8 5:1 8:1 18:1 20:1 37:1 40:1 51:1 63:1 67:1 73:1 74:1 76:1 80:1 83:1 
8 3:1 7:1 17:1 32:1 39:1 42:1 52:1 64:1 67:1 73:1 74:1 76:1 81:1 83:1 
8 2:1 6:1 15:1 19:1 39:1 40:1 52:1 61:1 67:1 72:1 74:1 77:1 78:1 83:1 
8 3:1 6:1 18:1 19:1 39:1 42:1 51:1 64:1 67:1 73:1 74:1 76:1 82:1 83:1 
8 4:1 6:1 18:1 20:1 37:1 40:1 54:1 63:1 71:1 73:1 74:1 77:1 80:1 83:1 
2.384139481278796 5:1 6:1 15:1 19:1 39:1 40:1 52:1 63:1 67:1 73:1 74:1 76:1 82:1 83:1 
8 2:1 6:1 18:1 29:1 39:1 40:1 51:1 63:1 67:1 73:1 74:1 76:1 80:1 83:1 
8 5:1 7:1 15:1 19:1 39:1 45:1 52:1 64:1 67:1 72:1 74:1 76:1 80:1 83:1 
8 4:1 6:1 16:1 22:1 36:1 40:1 55:1 63:1 67:1 73:1 74:1 76:1 82:1 83:1 
8 3:1 6:1 16:1 19:1 39:1 42:1 50:1 64:1 67:1 73:1 74:1 76:1 80:1 83:1 
8 2:1 8:1 15:1 19:1 39:1 40:1 51:1 63:1 67:1 73:1 74:1 76:1 82:1 83:1 
8 4:1 6:1 16:1 19:1 39:1 40:1 50:1 63:1 67:1 73:1 74:1 76:1 82:1 83:1 
8 2:1 6:1 15:1 22:1 36:1 40:1 48:1 63:1 67:1 73:1 74:1 76:1 80:1 83:1 
8 3:1 6:1 16:1 24:1 38:1 40:1 50:1 63:1 67:1 73:1 74:1 76:1 82:1 83:1 
8 4:1 6:1 17:1 22:1 36:1 40:1 48:1 63:1 67:1 73:1 74:1 76:1 80:1 
8 4:1 6:1 14:1 19:1 39:1 40:1 52:1 63:1 67:1 73:1 74:1 76:1 80:1 83:1 
8 4:1 8:1 15:1 20:1 37:1 40:1 52:1 61:1 67:1 72:1 74:1 76:1 80:1 
8 4:1 6:1 17:1 22:1 36:1 40:1 51:1 61:1 67:1 72:1 74:1 76:1 80:1 83:1 
8 3:1 10:1 14:1 19:1 39:1 40:1 52:1 61:1 67:1 72:1 74:1 76:1 80:1 83:1 
8 2:1 6:1 14:1 19:1 39:1 40:1 51:1 63:1 67:1 73:1 74:1 76:1 82:1 83:1 
8 4:1 7:1 18:1 29:1 39:1 40:1 51:1 63:1 67:1 73:1 74:1 76:1 80:1 103:1 
8 2:1 6:1 15:1 24:1 38:1 40:1 51:1 63:1 67:1 73:1 74:1 76:1 82:1 83:1 
8 2:1 6:1 16:1 19:1 39:1 42:1 52:1 62:1 67:1 72:1 74:1 77:1 80:1 83:1 
8 2:1 6:1 16:1 19:1 39:1 40:1 50:1 63:1 67:1 73:1 74:1 76:1 81:1 83:1 
8 2:1 6:1 14:1 19:1 39:1 40:1 54:1 63:1 67:1 73:1 74:1 77:1 82:1 83:1 
8 3:1 6:1 15:1 25:1 38:1 41:1 48:1 66:1 67:1 73:1 74:1 76:1 82:1 83:1 
5.794666394339554 4:1 10:1 16:1 29:1 39:1 40:1 52:1 63:1 67:1 73:1 74:1 76:1 82:1 83:1 
8 2:1 7:1 18:1 21:1 35:1 42:1 48:1 64:1 67:1 73:1 74:1 76:1 81:1 83:1 
8 1:1 6:1 17:1 19:1 39:1 42:1 55:1 64:1 67:1 73:1 74:1 76:1 80:1 83:1 
8 3:1 11:1 14:1 32:1 39:1 40:1 52:1 63:1 67:1 73:1 74:1 76:1 82:1 83:1 
8 4:1 8:1 17:1 22:1 36:1 40:1 50:1 63:1 67:1 73:1 74:1 77:1 82:1 83:1 
8 2:1 8:1 17:1 22:1 36:1 40:1 50:1 63:1 71:1 73:1 75:1 76:1 80:1 83:1 
8 4:1 6:1 16:1 22:1 36:1 40:1 57:1 63:1 67:1 73:1 74:1 77:1 81:1 83:1 
8 4:1 8:1 14:1 24:1 38:1 40:1 52:1 63:1 67:1 73:1 74:1 76:1 82:1 83:1 
8 1:1 6:1 15:1 21:1 35:1 40:1 57:1 63:1 67:1 73:1 75:1 76:1 80:1 100:1 
0.8247076917456932 4:1 10:1 15:1 29:1 39:1 40:1 52:1 63:1 71:1 73:1 74:1 76:1 79:1 83:1 
8 3:1 6:1 14:1 19:1 39:1 40:1 50:1 63:1 67:1 73:1 74:1 76:1 80:1 83:1 
8 4:1 6:1 17:1 20:1 37:1 40:1 47:1 63:1 67:1 73:1 74:1 76:1 82:1 83:1 
8 4:1 11:1 17:1 32:1 39:1 43:1 52:1 66:1 67:1 72:1 74:1 76:1 80:1 83:1 
8 5:1 6:1 17:1 20:1 37:1 40:1 48:1 63:1 67:1 73:1 74:1 76:1 80:1 83:1 
8 3:1 6:1 18:1 20:1 37:1 40:1 50:1 63:1 67:1 73:1 75:1 76:1 80:1 83:1 
8 3:1 6:1 17:1 22:1 36:1 40:1 53:1 63:1 67:1 73:1 74:1 76:1 82:1 83:1 
8 4:1 9:1 18:1 20:1 37:1 40:1 51:1 63:1 71:1 73:1 74:1 76:1 80:1 83:1 
8 3:1 6:1 14:1 19:1 39:1 41:1 51:1 66:1 67:1 72:1 74:1 76:1 82:1 83:1 
8 5:1 6:1 15:1 22:1 36:1 40:1 48:1 63:1 67:1 73:1 74:1 76:1 80:1 83:1 
8 5:1 6:1 16:1 20:1 37:1 40:1 51:1 61:1 67:1 72:1 74:1 76:1 78:1 83:1 
8 5:1 6:1 15:1 26:1 35:1 40:1 48:1 63:1 71:1 73:1 74:1 76:1 80:1 83:1 
8 3:1 6:1 15:1 22:1 36:1 40:1 55:1 61:1 67:1 72:1 74:1 76:1 80:1 83:1 
8 2:1 6:1 18:1 19:1 39:1 41:1 51:1 64:1 67:1 72:1 74:1 76:1 82:1 83:1 
8 5:1 7:1 14:1 23:1 39:1 40:1 52:1 63:1 67:1 73:1 74:1 76:1 78:1 83:1 
8 5:1 7:1 14:1 19:1 39:1 40:1 51:1 63:1 67:1 73:1 74:1 76:1 82:1 83:1 
8 5:1 16:1 22:1 36:1 40:1 63:1 67:1 73:1 74:1 76:1 80:1 83:1 
8 3:1 6:1 16:1 29:1 39:1 42:1 55:1 64:1 67:1 73:1 75:1 76:1 82:1 83:1 
8 5:1 7:1 18:1 20:1 37:1 41:1 51:1 64:1 67:1 73:1 74:1 76:1 82:1 83:1 
8 3:1 6:1 18:1 31:1 35:1 40:1 48:1 63:1 67:1 73:1 75:1 76:1 80:1 83:1 
8 4:1 10:1 16:1 19:1 39:1 40:1 52:1 61:1 67:1 72:1 74:1 76:1 80:1 83:1 
8 2:1 6:1 14:1 21:1 35:1 42:1 48:1 64:1 69:1 73:1 75:1 76:1 82:1 83:1 
8 2:1 8:1 17:1 32:1 39:1 40:1 52:1 63:1 67:1 73:1 74:1 76:1 79:1 83:1 
8 2:1 6:1 17:1 22:1 36:1 40:1 48:1 63:1 67:1 73:1 74:1 76:1 80:1 83:1 
8 4:1 6:1 17:1 19:1 39:1 40:1 55:1 63:1 67:1 73:1 74:1 76:1 82:1 83:1 
8 4:1 6:1 17:1 19:1 39:1 40:1 50:1 63:1 67:1 73:1 74:1 76:1 80:1 83:1 
8 4:1 6:1 18:1 20:1 37:1 40:1 55:1 63:1 67:1 73:1 74:1 76:1 81:1 83:1 
4.270898025553255 4:1 6:1 15:1 25:1 38:1 40:1 47:1 61:1 67:1 72:1 74:1 77:1 78:1 83:1 
8 5:1 8:1 15:1 20:1 37:1 40:1 50:1 63:1 67:1 73:1 74:1 77:1 79:1 83:1 
8 5:1 6:1 14:1 22:1 36:1 40:1 47:1 63:1 67:1 73:1 74:1 76:1 80:1 83:1 
8 5:1 6:1 17:1 20:1 37:1 40:1 59:1 63:1 71:1 73:1 74:1 76:1 82:1 83:1 
8 5:1 15:1 22:1 36:1 40:1 63:1 67:1 73:1 74:1 76:1 80:1 83:1 
8 5:1 7:1 17:1 20:1 37:1 40:1 49:1 63:1 67:1 73:1 74:1 76:1 81:1 83:1 
8 3:1 8:1 18:1 20:1 37:1 40:1 51:1 63:1 67:1 73:1 74:1 76:1 80:1 83:1 
8 5:1 11:1 15:1 20:1 37:1 40:1 59:1 63:1 67:1 73:1 74:1 76:1 80:1 83:1 
8 4:1 8:1 17:1 29:1 39:1 41:1 50:1 64:1 67:1 73:1 74:1 76:1 82:1 83:1 
8 4:1 10:1 16:1 29:1 39:1 41:1 59:1 64:1 71:1 73:1 74:1 76:1 82:1 83:1 
8 5:1 7:1 14:1 22:1 36:1 40:1 56:1 63:1 67:1 73:1 74:1 76:1 82:1 83:1 
8 3:1 7:1 14:1 22:1 36:1 40:1 48:1 63:1 67:1 73:1 74:1 76:1 80:1 83:1 
8 4:1 6:1 17:1 19:1 39:1 40:1 52:1 61:1 67:1 72:1 74:1 76:1 78:1 95:1 
8 4:1 8:1 14:1 25:1 38:1 40:1 48:1 63:1 67:1 73:1 74:1 76:1 82:1 83:1 
8 2:1 7:1 15:1 22:1 36:1 40:1 50:1 63:1 67:1 73:1 74:1 76:1 82:1 83:1 
8 1:1 6:1 16:1 29:1 39:1 42:1 52:1 62:1 67:1 72:1 74:1 76:1 80:1 83:1 
8 3:1 6:1 17:1 19:1 39:1 40:1 52:1 63:1 67:1 73:1 74:1 76:1 80:1 83:1 
4.036720307705596 3:1 7:1 16:1 23:1 39:1 40:1 52:1 63:1 67:1 73:1 74:1 76:1 81:1 83:1 
8 5:1 6:1 16:1 22:1 36:1 44:1 51:1 66:1 67:1 73:1 74:1 76:1 79:1 83:1 
4.375501409966647 3:1 6:1 17:1 25:1 38:1 40:1 48:1 63:1 67:1 73:1 75:1 76:1 81:1 83:1 
8 4:1 6:1 16:1 19:1 39:1 40:1 47:1 63:1 67:1 73:1 74:1 76:1 80:1 83:1 
8 5:1 6:1 15:1 22:1 36:1 40:1 48:1 63:1 67:1 73:1 74:1 76:1 80:1 83:1 
8 3:1 6:1 18:1 29:1 39:1 42:1 55:1 64:1 67:1 72:1 74:1 76:1 82:1 99:1 
8 4:1 9:1 15:1 20:1 37:1 40:1 51:1 63:1 67:1 73:1 74:1 76:1 82:1 83:1 
8 4:1 11:1 15:1 22:1 36:1 42:1 57:1 64:1 67:1 72:1 75:1 76:1 80:1 83:1 
8 3:1 6:1 14:1 19:1 39:1 40:1 50:1 61:1 67:1 72:1 74:1 76:1 80:1 83:1 
8 3:1 6:1 18:1 25:1 38:1 40:1 57:1 63:1 67:1 73:1 75:1 76:1 82:1 83:1 
8 5:1 8:1 17:1 20:1 37:1 40:1 51:1 63:1 67:1 73:1 75:1 76:1 78:1 83:1 
8 4:1 6:1 16:1 22:1 36:1 40:1 48:1 63:1 67:1 73:1 74:1 76:1 80:1 83:1 
8 4:1 6:1 14:1 22:1 36:1 40:1 54:1 63:1 67:1 73:1 74:1 76:1 80:1 83:1 
8 4:1 10:1 14:1 19:1 39:1 40:1 52:1 63:1 67:1 73:1 74:1 76:1 82:1 83:1 
8 3:1 6:1 17:1 23:1 39:1 41:1 52:1 64:1 67:1 73:1 74:1 76:1 82:1 83:1 
8 4:1 6:1 14:1 19:1 39:1 40:1 48:1 63:1 67:1 73:1 74:1 76:1 81:1 83:1 
8 5:1 8:1 15:1 19:1 39:1 40:1 50:1 63:1 68:1 73:1 74:1 76:1 82:1 93:1 
8 5:1 7:1 16:1 23:1 39:1 40:1 52:1 63:1 67:1 73:1 74:1 76:1 78:1 83:1 
8 4:1 8:1 15:1 19:1 39:1 40:1 50:1 63:1 68:1 73:1 74:1 76:1 82:1 
8 2:1 10:1 18:1 25:1 38:1 40:1 47:1 61:1 67:1 72:1 74:1 76:1 79:1 115:1 
8 4:1 6:1 18:1 20:1 37:1 41:1 52:1 64:1 67:1 73:1 74:1 76:1 82:1 83:1 
8 4:1 11:1 14:1 20:1 37:1 40:1 59:1 63:1 67:1 73:1 74:1 77:1 80:1 83:1 
7.117278444551021 3:1 6:1 15:1 19:1 39:1 40:1 52:1 63:1 68:1 73:1 74:1 76:1 82:1 91:1 
8 5:1 9:1 14:1 24:1 38:1 40:1 49:1 63:1 68:1 73:1 74:1 76:1 80:1 83:1 
8 2:1 6:1 14:1 22:1 36:1 40:1 49:1 61:1 67:1 72:1 75:1 76:1 80:1 83:1 
6.969547111448361 4:1 10:1 18:1 20:1 37:1 40:1 52:1 63:1 67:1 73:1 75:1 76:1 82:1 83:1 
8 3:1 6:1 17:1 24:1 38:1 40:1 52:1 63:1 67:1 73:1 74:1 76:1 80:1 83:1 
8 5:1 7:1 14:1 22:1 36:1 40:1 56:1 63:1 67:1 73:1 74:1 76:1 82:1 83:1 
8 5:1 9:1 14:1 20:1 37:1 40:1 59:1 63:1 67:1 73:1 74:1 76:1 82:1 83:1 
8 3:1 6:1 16:1 19:1 39:1 41:1 55:1 64:1 67:1 73:1 74:1 76:1 82:1 83:1 
8 3:1 6:1 16:1 19:1 39:1 40:1 50:1 61:1 67:1 72:1 74:1 76:1 79:1 83:1 
8 4:1 6:1 15:1 22:1 36:1 40:1 53:1 63:1 67:1 73:1 74:1 76:1 80:1 83:1 
8 5:1 6:1 17:1 20:1 37:1 40:1 55:1 63:1 67:1 73:1 74:1 76:1 81:1 83:1 
8 5:1 10:1 15:1 22:1 36:1 40:1 51:1 63:1 67:1 73:1 75:1 76:1 80:1 83:1 
8 5:1 6:1 17:1 28:1 35:1 40:1 50:1 63:1 67:1 73:1 74:1 76:1 80:1 83:1 
8 5:1 8:1 16:1 20:1 37:1 40:1 57:1 63:1 67:1 73:1 74:1 76:1 80:1 83:1 
8 5:1 6:1 14:1 31:1 35:1 40:1 48:1 63:1 67:1 73:1 74:1 76:1 80:1 83:1 
8 5:1 9:1 17:1 25:1 38:1 41:1 52:1 66:1 67:1 73:1 75:1 76:1 80:1 83:1 
8 3:1 6:1 18:1 20:1 37:1 40:1 55:1 61:1 67:1 72:1 75:1 76:1 80:1 83:1 
8 3:1 6:1 16:1 19:1 39:1 45:1 48:1 64:1 67:1 73:1 74:1 77:1 82:1 
8 4:1 6:1 18:1 20:1 37:1 40:1 48:1 63:1 71:1 73:1 74:1 76:1 81:1 83:1 
8 3:1 7:1 18:1 20:1 37:1 40:1 52:1 61:1 67:1 72:1 74:1 76:1 82:1 83:1 
8 3:1 6:1 17:1 22:1 36:1 40:1 48:1 63:1 67:1 73:1 74:1 76:1 80:1 83:1 
8 5:1 10:1 15:1 22:1 36:1 40:1 55:1 61:1 67:1 72:1 75:1 76:1 78:1 83:1 
8 4:1 10:1 16:1 24:1 38:1 40:1 51:1 63:1 67:1 73:1 74:1 76:1 81:1 83:1 
8 5:1 6:1 16:1 25:1 38:1 40:1 47:1 63:1 67:1 73:1 74:1 76:1 80:1 83:1 
8 4:1 11:1 17:1 19:1 39:1 40:1 51:1 63:1 71:1 73:1 74:1 76:1 80:1 83:1 
8 4:1 6:1 14:1 22:1 36:1 40:1 48:1 63:1 67:1 73:1 74:1 76:1 80:1 83:1 
8 1:1 6:1 14:1 19:1 39:1 42:1 52:1 62:1 67:1 72:1 74:1 77:1 80:1 83:1 
8 4:1 7:1 14:1 22:1 36:1 40:1 47:1 63:1 67:1 73:1 74:1 76:1 78:1 83:1 
8 3:1 6:1 15:1 19:1 39:1 42:1 50:1 64:1 67:1 73:1 74:1 76:1 81:1 
8 5:1 9:1 17:1 19:1 39:1 43:1 52:1 64:1 67:1 73:1 75:1 76:1 80:1 83:1 
8 5:1 6:1 14:1 32:1 39:1 42:1 52:1 64:1 67:1 72:1 74:1 76:1 82:1 83:1 
8 3:1 6:1 18:1 29:1 39:1 42:1 50:1 66:1 67:1 73:1 74:1 76:1 82:1 83:1 
8 2:1 6:1 16:1 21:1 35:1 40:1 53:1 63:1 67:1 73:1 75:1 76:1 80:1 83:1 
8 2:1 6:1 17:1 19:1 39:1 40:1 50:1 63:1 67:1 73:1 74:1 76:1 82:1 83:1 
8 3:1 6:1 18:1 24:1 38:1 42:1 49:1 64:1 67:1 72:1 74:1 76:1 82:1 83:1 
8 2:1 6:1 18:1 19:1 39:1 40:1 51:1 63:1 68:1 73:1 74:1 76:1 80:1 122:1 
8 4:1 6:1 15:1 19:1 39:1 42:1 52:1 64:1 67:1 73:1 74:1 76:1 80:1 83:1 
8 5:1 7:1 14:1 22:1 36:1 40:1 56:1 63:1 67:1 73:1 74:1 76:1 82:1 83:1 
8 5:1 14:1 22:1 36:1 40:1 63:1 67:1 73:1 74:1 76:1 78:1 83:1 
8 2:1 6:1 16:1 24:1 38:1 40:1 52:1 63:1 67:1 73:1 74:1 76:1 80:1 83:1 
8 5:1 10:1 17:1 29:1 39:1 44:1 52:1 66:1 71:1 72:1 74:1 76:1 80:1 83:1 
8 3:1 6:1 17:1 25:1 38:1 41:1 52:1 64:1 67:1 72:1 75:1 76:1 80:1 83:1 
8 5:1 6:1 14:1 31:1 35:1 40:1 50:1 61:1 68:1 72:1 74:1 76:1 78:1 91:1 
8 5:1 8:1 14:1 23:1 39:1 40:1 50:1 63:1 67:1 73:1 74:1 76:1 80:1 83:1 
8 4:1 6:1 16:1 21:1 35:1 40:1 57:1 63:1 67:1 73:1 74:1 76:1 80:1 83:1 
8 3:1 6:1 18:1 20:1 37:1 40:1 52:1 63:1 71:1 73:1 74:1 76:1 80:1 101:1 
8 3:1 9:1 14:1 22:1 36:1 40:1 55:1 63:1 67:1 73:1 74:1 76:1 80:1 85:1 
8 5:1 6:1 14:1 21:1 35:1 40:1 49:1 63:1 67:1 73:1 74:1 76:1 80:1 83:1 
8 3:1 17:1 22:1 36:1 40:1 61:1 67:1 72:1 74:1 76:1 79:1 83:1 
8 5:1 10:1 16:1 29:1 39:1 41:1 51:1 64:1 67:1 72:1 75:1 76:1 82:1 83:1 
8 3:1 6:1 18:1 19:1 39:1 40:1 48:1 63:1 68:1 73:1 74:1 76:1 80:1 84:1 
8 5:1 6:1 14:1 31:1 35:1 40:1 57:1 63:1 67:1 73:1 74:1 76:1 81:1 83:1 
8 4:1 7:1 14:1 19:1 39:1 40:1 56:1 63:1 67:1 73:1 74:1 76:1 82:1 83:1 
8 4:1 6:1 18:1 22:1 36:1 40:1 57:1 63:1 67:1 73:1 74:1 77:1 82:1 83:1 
8 2:1 6:1 14:1 25:1 38:1 40:1 57:1 63:1 67:1 73:1 74:1 76:1 78:1 83:1 
8 4:1 8:1 14:1 19:1 39:1 40:1 50:1 63:1 67:1 73:1 74:1 76:1 82:1 83:1 
8 4:1 6:1 18:1 19:1 39:1 40:1 50:1 63:1 67:1 73:1 74:1 76:1 82:1 83:1 
8 3:1 6:1 15:1 19:1 39:1 40:1 50:1 63:1 67:1 73:1 74:1 76:1 82:1 83:1 
8 5:1 6:1 14:1 22:1 36:1 40:1 48:1 63:1 67:1 73:1 75:1 76:1 80:1 83:1 
8 4:1 11:1 17:1 19:1 39:1 40:1 51:1 63:1 67:1 73:1 74:1 76:1 80:1 83:1 
8 5:1 6:1 15:1 22:1 36:1 40:1 48:1 63:1 67:1 73:1 74:1 76:1 80:1 83:1 
8 3:1 10:1 18:1 19:1 39:1 40:1 55:1 63:1 67:1 73:1 74:1 76:1 80:1 83:1 
8 5:1 6:1 15:1 20:1 37:1 41:1 55:1 66:1 67:1 72:1 74:1 77:1 80:1 83:1 
8 4:1 6:1 17:1 22:1 36:1 40:1 53:1 63:1 67:1 73:1 74:1 76:1 82:1 83:1 
8 5:1 6:1 18:1 22:1 36:1 40:1 51:1 63:1 67:1 73:1 75:1 76:1 80:1 83:1 
8 3:1 6:1 16:1 22:1 36:1 40:1 55:1 63:1 67:1 73:1 74:1 76:1 82:1 83:1 
8 4:1 6:1 16:1 19:1 39:1 42:1 52:1 64:1 67:1 73:1 74:1 76:1 81:1 83:1 
8 5:1 6:1 16:1 20:1 37:1 40:1 52:1 63:1 71:1 73:1 74:1 76:1 82:1 111:1 
8 4:1 6:1 18:1 25:1 38:1 40:1 52:1 63:1 67:1 73:1 74:1 76:1 78:1 83:1 
8 5:1 8:1 14:1 22:1 36:1 40:1 49:1 63:1 67:1 73:1 74:1 76:1 80:1 83:1 
8 4:1 6:1 18:1 24:1 38:1 40:1 50:1 63:1 67:1 73:1 74:1 76:1 82:1 83:1 
8 4:1 6:1 14:1 19:1 39:1 40:1 52:1 63:1 67:1 73:1 74:1 76:1 80:1 83:1 
8 4:1 6:1 14:1 19:1 39:1 41:1 50:1 66:1 67:1 73:1 74:1 76:1 81:1 83:1 
8 4:1 6:1 17:1 32:1 39:1 43:1 51:1 66:1 67:1 73:1 74:1 76:1 80:1 83:1 
8 4:1 10:1 18:1 24:1 38:1 40:1 51:1 63:1 71:1 73:1 74:1 76:1 82:1 83:1 
8 5:1 6:1 17:1 22:1 36:1 40:1 54:1 63:1 67:1 73:1 74:1 76:1 80:1 83:1 
8 5:1 10:1 14:1 19:1 39:1 40:1 55:1 61:1 67:1 72:1 74:1 76:1 80:1 83:1 
8 3:1 6:1 14:1 19:1 39:1 40:1 51:1 63:1 67:1 73:1 74:1 76:1 80:1 83:1 
8 5:1 6:1 15:1 22:1 36:1 40:1 57:1 63:1 67:1 73:1 74:1 76:1 82:1 83:1 
8 5:1 8:1 14:1 19:1 39:1 40:1 56:1 63:1 67:1 73:1 74:1 77:1 82:1 83:1 
8 4:1 9:1 18:1 20:1 37:1 40:1 48:1 63:1 67:1 73:1 74:1 76:1 80:1 83:1 
8 3:1 10:1 17:1 20:1 37:1 40:1 59:1 63:1 67:1 73:1 74:1 76:1 82:1 83:1 
8 4:1 10:1 14:1 29:1 39:1 40:1 52:1 61:1 71:1 72:1 74:1 76:1 79:1 83:1 
8 4:1 9:1 18:1 22:1 36:1 40:1 48:1 63:1 67:1 73:1 74:1 76:1 80:1 83:1 
8 1:1 6:1 18:1 19:1 39:1 40:1 52:1 63:1 67:1 73:1 74:1 76:1 81:1 83:1 
8 5:1 6:1 15:1 22:1 36:1 40:1 55:1 63:1 67:1 73:1 74:1 76:1 80:1 83:1 
8 5:1 7:1 14:1 21:1 35:1 44:1 49:1 66:1 67:1 72:1 74:1 76:1 82:1 92:1 
8 3:1 6:1 18:1 20:1 37:1 41:1 55:1 66:1 67:1 72:1 75:1 76:1 78:1 83:1 
8 2:1 6:1 16:1 19:1 39:1 42:1 51:1 64:1 67:1 72:1 74:1 76:1 81:1 83:1 
8 4:1 8:1 15:1 22:1 36:1 40:1 50:1 63:1 67:1 73:1 74:1 77:1 82:1 83:1 
8 2:1 7:1 17:1 22:1 36:1 40:1 49:1 61:1 67:1 72:1 74:1 77:1 80:1 83:1 
8 3:1 6:1 18:1 29:1 39:1 42:1 52:1 64:1 68:1 72:1 74:1 76:1 80:1 110:1 
8 4:1 9:1 17:1 22:1 36:1 40:1 55:1 61:1 67:1 72:1 74:1 76:1 80:1 83:1 
8 2:1 6:1 17:1 20:1 37:1 40:1 50:1 63:1 67:1 73:1 74:1 76:1 80:1 83:1 
8 4:1 6:1 14:1 20:1 37:1 40:1 48:1 63:1 67:1 73:1 75:1 76:1 81:1 83:1 
8 5:1 9:1 14:1 29:1 39:1 42:1 55:1 64:1 67:1 72:1 74:1 76:1 80:1 83:1 
8 4:1 11:1 16:1 23:1 39:1 41:1 52:1 66:1 71:1 73:1 75:1 76:1 79:1 83:1 
8 5:1 10:1 15:1 22:1 36:1 40:1 48:1 63:1 67:1 73:1 74:1 77:1 79:1 83:1 
8 5:1 6:1 14:1 33:1 35:1 40:1 57:1 63:1 67:1 73:1 74:1 76:1 80:1 83:1 
8 2:1 6:1 17:1 19:1 39:1 40:1 50:1 63:1 67:1 73:1 74:1 76:1 80:1 83:1 
8 3:1 6:1 15:1 26:1 35:1 40:1 50:1 62:1 67:1 73:1 74:1 76:1 82:1 83:1 
8 2:1 6:1 14:1 19:1 39:1 40:1 50:1 63:1 67:1 73:1 74:1 76:1 82:1 83:1 
8 5:1 6:1 16:1 19:1 39:1 40:1 55:1 63:1 67:1 73:1 74:1 76:1 80:1 83:1 
8 2:1 6:1 17:1 20:1 37:1 40:1 55:1 61:1 67:1 72:1 75:1 76:1 78:1 83:1 
8 4:1 7:1 14:1 29:1 39:1 42:1 51:1 64:1 68:1 73:1 74:1 76:1 81:1 83:1 
8 4:1 11:1 15:1 25:1 38:1 40:1 59:1 63:1 67:1 73:1 74:1 76:1 80:1 83:1 
8 4:1 6:1 16:1 24:1 38:1 40:1 51:1 63:1 67:1 73:1 74:1 76:1 81:1 83:1 
8 5:1 8:1 17:1 22:1 36:1 42:1 51:1 64:1 67:1 73:1 75:1 76:1 80:1 83:1 
8 3:1 6:1 15:1 25:1 38:1 41:1 50:1 64:1 67:1 73:1 74:1 76:1 81:1 83:1 
8 5:1 8:1 15:1 24:1 38:1 40:1 50:1 63:1 67:1 73:1 74:1 76:1 82:1 83:1 
8 5:1 6:1 17:1 23:1 39:1 40:1 48:1 63:1 67:1 73:1 74:1 76:1 81:1 83:1 
8 4:1 6:1 14:1 25:1 38:1 40:1 48:1 63:1 67:1 73:1 74:1 76:1 80:1 87:1 
8 5:1 7:1 18:1 29:1 39:1 41:1 51:1 64:1 67:1 73:1 74:1 76:1 82:1 83:1 
8 5:1 6:1 14:1 20:1 37:1 40:1 52:1 63:1 67:1 73:1 74:1 76:1 80:1 88:1 
8 1:1 6:1 18:1 19:1 39:1 40:1 51:1 63:1 67:1 73:1 74:1 76:1 80:1 83:1 
8 3:1 6:1 16:1 22:1 36:1 40:1 57:1 63:1 71:1 73:1 74:1 77:1 80:1 83:1 
8 3:1 6:1 14:1 24:1 38:1 40:1 51:1 63:1 67:1 73:1 74:1 76:1 81:1 83:1 
8 5:1 6:1 17:1 22:1 36:1 40:1 48:1 63:1 67:1 73:1 74:1 76:1 80:1 83:1 
8 4:1 10:1 15:1 29:1 39:1 40:1 52:1 63:1 67:1 73:1 74:1 76:1 80:1 83:1 
8 5:1 11:1 14:1 23:1 39:1 40:1 55:1 63:1 67:1 73:1 74:1 76:1 78:1 83:1 
8 3:1 6:1 18:1 20:1 37:1 41:1 52:1 64:1 67:1 72:1 74:1 76:1 81:1 83:1 
8 2:1 7:1 18:1 22:1 36:1 40:1 52:1 63:1 67:1 73:1 74:1 77:1 78:1 83:1 
8 5:1 6:1 14:1 19:1 39:1 40:1 51:1 63:1 67:1 73:1 74:1 76:1 80:1 83:1 
8 3:1 6:1 16:1 29:1 39:1 43:1 52:1 64:1 67:1 73:1 74:1 76:1 80:1 83:1 
8 3:1 10:1 18:1 24:1 38:1 40:1 48:1 63:1 71:1 73:1 75:1 76:1 80:1 83:1 
8 3:1 6:1 18:1 20:1 37:1 40:1 48:1 63:1 70:1 73:1 74:1 76:1 81:1 83:1 
8 3:1 7:1 17:1 19:1 39:1 40:1 50:1 63:1 67:1 73:1 74:1 76:1 78:1 87:1 
0.9334099719663288 5:1 8:1 18:1 19:1 39:1 40:1 54:1 63:1 68:1 73:1 75:1 76:1 80:1 
8 4:1 6:1 15:1 23:1 39:1 41:1 52:1 64:1 67:1 73:1 74:1 76:1 81:1 83:1 
8 3:1 6:1 17:1 19:1 39:1 40:1 52:1 63:1 67:1 73:1 74:1 76:1 80:1 83:1 
8 3:1 6:1 16:1 19:1 39:1 40:1 48:1 63:1 67:1 73:1 74:1 76:1 80:1 83:1 
5.736611398590633 5:1 10:1 17:1 29:1 39:1 40:1 52:1 63:1 71:1 73:1 74:1 76:1 80:1 83:1 
8 3:1 6:1 15:1 22:1 36:1 40:1 55:1 63:1 67:1 73:1 74:1 76:1 82:1 83:1 
0.2067915532255513 5:1 6:1 15:1 22:1 36:1 40:1 51:1 63:1 67:1 73:1 74:1 77:1 81:1 83:1 
8 2:1 6:1 17:1 19:1 39:1 40:1 51:1 61:1 67:1 72:1 74:1 76:1 80:1 83:1 
8 5:1 8:1 17:1 20:1 37:1 40:1 51:1 63:1 67:1 73:1 74:1 76:1 80:1 83:1 
8 2:1 6:1 18:1 25:1 38:1 40:1 51:1 63:1 67:1 73:1 74:1 76:1 82:1 83:1 
8 4:1 6:1 17:1 25:1 38:1 40:1 47:1 61:1 67:1 72:1 74:1 76:1 79:1 83:1 
8 3:1 6:1 17:1 31:1 35:1 40:1 51:1 63:1 67:1 73:1 74:1 76:1 80:1 83:1 
8 5:1 6:1 15:1 20:1 37:1 40:1 48:1 63:1 67:1 73:1 75:1 76:1 82:1 83:1 
8 4:1 11:1 18:1 20:1 37:1 40:1 59:1 63:1 67:1 73:1 74:1 76:1 80:1 83:1 
8 4:1 6:1 16:1 24:1 38:1 40:1 48:1 63:1 67:1 73:1 74:1 76:1 80:1 83:1 
8 4:1 6:1 16:1 22:1 36:1 40:1 51:1 61:1 67:1 72:1 74:1 76:1 78:1 83:1 
8 2:1 7:1 17:1 24:1 38:1 40:1 49:1 61:1 67:1 72:1 74:1 76:1 79:1 83:1 
8 5:1 9:1 18:1 20:1 37:1 40:1 55:1 63:1 67:1 73:1 74:1 76:1 80:1 83:1 
8 3:1 6:1 14:1 20:1 37:1 40:1 48:1 63:1 67:1 73:1 74:1 76:1 80:1 83:1 
8 3:1 7:1 15:1 23:1 39:1 40:1 52:1 63:1 67:1 73:1 74:1 76:1 82:1 83:1 
8 5:1 6:1 14:1 22:1 36:1 40:1 51:1 63:1 67:1 73:1 74:1 77:1 80:1 83:1 
8 5:1 7:1 15:1 19:1 39:1 40:1 51:1 63:1 67:1 73:1 74:1 76:1 80:1 83:1 
8 5:1 6:1 16:1 20:1 37:1 40:1 50:1 63:1 67:1 73:1 74:1 76:1 80:1 83:1 
8 5:1 6:1 14:1 29:1 39:1 44:1 51:1 64:1 67:1 72:1 74:1 76:1 80:1 83:1 
8 3:1 18:1 19:1 39:1 40:1 61:1 67:1 72:1 74:1 76:1 78:1 83:1 
8 4:1 6:1 16:1 22:1 36:1 41:1 48:1 64:1 71:1 73:1 75:1 76:1 81:1 83:1 
8 2:1 6:1 14:1 19:1 39:1 40:1 51:1 63:1 67:1 73:1 74:1 76:1 80:1 83:1 
8 2:1 6:1 16:1 24:1 38:1 40:1 52:1 63:1 67:1 73:1 74:1 76:1 81:1 83:1 
8 5:1 11:1 15:1 32:1 39:1 42:1 51:1 64:1 67:1 72:1 74:1 76:1 80:1 83:1 
8 5:1 6:1 16:1 22:1 36:1 40:1 50:1 63:1 67:1 73:1 74:1 76:1 80:1 83:1 
8 3:1 6:1 15:1 22:1 36:1 40:1 50:1 63:1 67:1 73:1 74:1 76:1 80:1 83:1 
8 3:1 8:1 15:1 29:1 39:1 41:1 51:1 64:1 68:1 73:1 74:1 76:1 82:1 91:1 
8 5:1 18:1 26:1 35:1 40:1 63:1 67:1 73:1 75:1 76:1 80:1 83:1 
8 5:1 6:1 18:1 25:1 38:1 40:1 51:1 63:1 67:1 73:1 74:1 76:1 80:1 83:1 
8 4:1 6:1 18:1 20:1 37:1 40:1 52:1 63:1 67:1 73:1 75:1 76:1 80:1 83:1 
8 5:1 6:1 17:1 20:1 37:1 40:1 50:1 63:1 67:1 73:1 74:1 77:1 82:1 83:1 
8 4:1 6:1 15:1 19:1 39:1 42:1 51:1 64:1 67:1 73:1 74:1 76:1 81:1 83:1 
8 3:1 10:1 15:1 19:1 39:1 40:1 47:1 63:1 67:1 73:1 74:1 76:1 81:1 83:1 
8 2:1 6:1 17:1 23:1 39:1 40:1 52:1 63:1 67:1 73:1 74:1 76:1 78:1 83:1 
8 3:1 6:1 14:1 29:1 39:1 40:1 51:1 63:1 67:1 73:1 74:1 76:1 80:1 83:1 
8 5:1 8:1 16:1 32:1 39:1 40:1 52:1 63:1 67:1 73:1 74:1 76:1 78:1 83:1 
8 2:1 6:1 15:1 19:1 39:1 40:1 52:1 61:1 67:1 72:1 74:1 76:1 80:1 83:1 
8 5:1 8:1 14:1 21:1 35:1 40:1 51:1 63:1 67:1 73:1 75:1 76:1 79:1 83:1 
8 4:1 6:1 16:1 22:1 36:1 40:1 50:1 63:1 67:1 73:1 74:1 76:1 82:1 83:1 
8 4:1 6:1 17:1 22:1 36:1 40:1 57:1 63:1 67:1 73:1 74:1 76:1 82:1 83:1 
8 3:1 8:1 14:1 25:1 38:1 40:1 50:1 63:1 67:1 73:1 74:1 76:1 80:1 83:1 
8 3:1 6:1 16:1 29:1 39:1 42:1 51:1 64:1 67:1 72:1 74:1 76:1 80:1 83:1 
8 5:1 6:1 16:1 22:1 36:1 41:1 48:1 66:1 71:1 73:1 74:1 76:1 82:1 83:1 
8 4:1 6:1 15:1 32:1 39:1 42:1 52:1 64:1 67:1 73:1 75:1 76:1 78:1 83:1 
8 5:1 6:1 17:1 23:1 39:1 42:1 52:1 64:1 67:1 72:1 74:1 77:1 82:1 83:1 
8 3:1 6:1 18:1 22:1 36:1 41:1 57:1 64:1 67:1 73:1 74:1 76:1 82:1 83:1 
8 2:1 6:1 15:1 22:1 36:1 40:1 49:1 61:1 67:1 72:1 74:1 76:1 80:1 83:1 
6.669692904595118 3:1 11:1 18:1 32:1 39:1 40:1 52:1 63:1 67:1 73:1 74:1 76:1 81:1 88:1 
8 4:1 7:1 17:1 22:1 36:1 40:1 50:1 63:1 67:1 73:1 75:1 76:1 82:1 83:1 
8 5:1 6:1 16:1 19:1 39:1 40:1 48:1 63:1 67:1 73:1 74:1 76:1 80:1 83:1 
8 4:1 6:1 15:1 20:1 37:1 40:1 48:1 63:1 67:1 73:1 74:1 76:1 81:1 83:1 
8 5:1 7:1 17:1 20:1 37:1 40:1 57:1 63:1 67:1 73:1 74:1 76:1 81:1 83:1 
8 4:1 6:1 18:1 20:1 37:1 43:1 50:1 64:1 67:1 73:1 74:1 76:1 82:1 83:1 
8 4:1 6:1 14:1 22:1 36:1 40:1 48:1 63:1 67:1 73:1 74:1 77:1 80:1 83:1 
8 2:1 6:1 14:1 22:1 36:1 40:1 55:1 61:1 67:1 72:1 74:1 76:1 80:1 83:1 
8 4:1 10:1 17:1 29:1 39:1 42:1 52:1 64:1 67:1 73:1 74:1 76:1 79:1 83:1 
8 2:1 10:1 15:1 19:1 39:1 40:1 59:1 63:1 67:1 73:1 74:1 76:1 82:1 83:1 
8 2:1 6:1 16:1 29:1 39:1 45:1 50:1 64:1 67:1 72:1 74:1 76:1 82:1 83:1 
8 2:1 6:1 14:1 20:1 37:1 40:1 57:1 63:1 67:1 73:1 75:1 76:1 82:1 83:1 
8 5:1 11:1 15:1 31:1 35:1 40:1 57:1 63:1 67:1 73:1 74:1 76:1 80:1 83:1 
8 3:1 10:1 16:1 19:1 39:1 42:1 59:1 64:1 67:1 72:1 75:1 76:1 81:1 83:1 
8 4:1 6:1 18:1 20:1 37:1 40:1 55:1 61:1 71:1 72:1 74:1 76:1 79:1 83:1 
4.794575770649712 3:1 11:1 14:1 20:1 37:1 40:1 51:1 61:1 67:1 72:1 75:1 76:1 79:1 83:1 
8 3:1 6:1 18:1 22:1 36:1 40:1 51:1 63:1 67:1 73:1 74:1 76:1 80:1 83:1 
8 5:1 6:1 16:1 22:1 36:1 40:1 57:1 63:1 67:1 73:1 74:1 76:1 80:1 83:1 
8 4:1 6:1 18:1 22:1 36:1 40:1 47:1 63:1 71:1 73:1 74:1 76:1 80:1 83:1 
8 2:1 6:1 16:1 19:1 39:1 42:1 51:1 64:1 67:1 73:1 74:1 76:1 82:1 83:1 
8 5:1 6:1 17:1 22:1 36:1 40:1 50:1 63:1 67:1 73:1 74:1 76:1 79:1 83:1 
8 4:1 6:1 17:1 25:1 38:1 40:1 52:1 63:1 67:1 73:1 74:1 76:1 80:1 83:1 
8 4:1 11:1 14:1 22:1 36:1 40:1 48:1 63:1 67:1 73:1 74:1 76:1 80:1 83:1 
8 5:1 6:1 18:1 20:1 37:1 40:1 52:1 63:1 67:1 73:1 75:1 76:1 80:1 83:1 
8 5:1 10:1 15:1 22:1 36:1 40:1 59:1 63:1 67:1 73:1 74:1 76:1 82:1 83:1 
8 2:1 6:1 17:1 19:1 39:1 40:1 51:1 63:1 67:1 73:1 74:1 76:1 81:1 83:1 
8 2:1 6:1 16:1 19:1 39:1 41:1 51:1 64:1 67:1 72:1 74:1 76:1 82:1 83:1 
8 5:1 8:1 16:1 19:1 39:1 40:1 50:1 63:1 67:1 73:1 74:1 76:1 78:1 83:1 
8 4:1 10:1 18:1 20:1 37:1 40:1 51:1 63:1 67:1 73:1 74:1 76:1 80:1 83:1 
8 2:1 6:1 15:1 19:1 39:1 40:1 51:1 63:1 67:1 73:1 74:1 76:1 80:1 83:1 
8 3:1 6:1 17:1 24:1 38:1 41:1 50:1 64:1 67:1 73:1 74:1 76:1 82:1 83:1 
3.754047429813397 3:1 6:1 16:1 19:1 39:1 40:1 52:1 63:1 68:1 73:1 74:1 76:1 80:1 98:1 
8 2:1 6:1 16:1 19:1 39:1 42:1 55:1 62:1 67:1 72:1 74:1 76:1 80:1 83:1 
8 4:1 10:1 16:1 19:1 39:1 40:1 52:1 61:1 71:1 72:1 74:1 76:1 80:1 83:1 
8 4:1 11:1 16:1 29:1 39:1 40:1 55:1 63:1 67:1 73:1 74:1 76:1 80:1 83:1 
8 2:1 7:1 14:1 22:1 36:1 40:1 56:1 63:1 67:1 73:1 74:1 76:1 82:1 83:1 
7.997206205208485 5:1 7:1 14:1 20:1 37:1 40:1 51:1 61:1 67:1 72:1 74:1 77:1 82:1 83:1 
8 4:1 6:1 16:1 22:1 36:1 40:1 55:1 61:1 67:1 72:1 74:1 76:1 80:1 83:1 
8 5:1 6:1 15:1 22:1 36:1 40:1 48:1 63:1 67:1 73:1 74:1 76:1 81:1 119:1 
8 5:1 6:1 17:1 20:1 37:1 40:1 47:1 61:1 67:1 72:1 74:1 76:1 80:1 83:1 
8 5:1 6:1 15:1 22:1 36:1 40:1 53:1 63:1 67:1 73:1 74:1 76:1 80:1 83:1 
8 2:1 6:1 14:1 22:1 36:1 40:1 52:1 63:1 67:1 73:1 74:1 76:1 79:1 83:1 
8 2:1 9:1 18:1 29:1 39:1 40:1 52:1 63:1 67:1 73:1 74:1 76:1 80:1 83:1 
8 4:1 6:1 14:1 28:1 35:1 40:1 48:1 63:1 67:1 73:1 74:1 76:1 80:1 83:1 
8 3:1 11:1 16:1 22:1 36:1 40:1 48:1 63:1 67:1 73:1 74:1 77:1 80:1 83:1 
8 2:1 6:1 14:1 22:1 36:1 40:1 54:1 63:1 68:1 73:1 74:1 76:1 80:1 102:1 
8 4:1 7:1 16:1 22:1 36:1 40:1 56:1 63:1 67:1 73:1 74:1 76:1 82:1 83:1 
8 5:1 8:1 15:1 25:1 38:1 40:1 51:1 63:1 67:1 73:1 74:1 76:1 80:1 92:1 
8 3:1 10:1 16:1 22:1 36:1 41:1 53:1 64:1 67:1 73:1 74:1 76:1 80:1 83:1 
8 1:1 6:1 18:1 20:1 37:1 40:1 55:1 61:1 71:1 72:1 75:1 76:1 80:1 83:1 
8 5:1 6:1 14:1 22:1 36:1 40:1 57:1 63:1 67:1 73:1 75:1 76:1 81:1 83:1 
8 3:1 6:1 18:1 22:1 36:1 40:1 51:1 63:1 67:1 73:1 75:1 76:1 82:1 83:1 
8 4:1 6:1 18:1 19:1 39:1 40:1 50:1 63:1 67:1 73:1 74:1 76:1 82:1 88:1 
8 4:1 8:1 18:1 19:1 39:1 40:1 50:1 63:1 67:1 73:1 74:1 76:1 82:1 83:1 
8 2:1 10:1 17:1 22:1 36:1 40:1 59:1 63:1 67:1 73:1 74:1 76:1 80:1 83:1 
8 5:1 9:1 18:1 20:1 37:1 40:1 51:1 63:1 67:1 73:1 74:1 76:1 80:1 83:1 
8 4:1 6:1 17:1 29:1 39:1 41:1 51:1 64:1 67:1 72:1 74:1 76:1 82:1 83:1 
8 2:1 6:1 18:1 22:1 36:1 40:1 51:1 63:1 67:1 73:1 74:1 76:1 80:1 83:1 
8 5:1 6:1 18:1 20:1 37:1 40:1 48:1 63:1 67:1 73:1 74:1 76:1 80:1 83:1 
8 2:1 7:1 18:1 24:1 38:1 40:1 48:1 64:1 67:1 73:1 74:1 76:1 82:1 83:1 
8 3:1 6:1 17:1 25:1 38:1 40:1 54:1 63:1 67:1 73:1 75:1 76:1 80:1 83:1 
8 5:1 6:1 14:1 29:1 39:1 40:1 52:1 63:1 68:1 73:1 74:1 76:1 81:1 90:1 
8 5:1 6:1 18:1 22:1 36:1 40:1 48:1 63:1 67:1 73:1 74:1 76:1 82:1 83:1 
8 4:1 6:1 16:1 22:1 36:1 40:1 51:1 63:1 67:1 73:1 74:1 76:1 82:1 83:1 
8 3:1 6:1 18:1 29:1 39:1 42:1 51:1 64:1 71:1 72:1 74:1 76:1 80:1 83:1 
8 2:1 6:1 14:1 19:1 39:1 40:1 50:1 63:1 67:1 73:1 74:1 76:1 82:1 83:1 
8 5:1 9:1 14:1 22:1 36:1 40:1 55:1 63:1 67:1 73:1 74:1 76:1 80:1 83:1 
8 3:1 6:1 18:1 19:1 39:1 40:1 50:1 63:1 67:1 73:1 74:1 76:1 80:1 83:1 
8 3:1 6:1 16:1 22:1 36:1 40:1 54:1 63:1 67:1 73:1 75:1 76:1 80:1 83:1 
8 3:1 9:1 17:1 24:1 38:1 42:1 52:1 64:1 67:1 73:1 74:1 76:1 80:1 83:1 
8 2:1 6:1 15:1 20:1 37:1 40:1 57:1 63:1 67:1 73:1 75:1 76:1 80:1 83:1 
8 2:1 6:1 18:1 25:1 38:1 40:1 48:1 63:1 67:1 73:1 75:1 76:1 80:1 103:1 
8 5:1 6:1 16:1 19:1 39:1 40:1 47:1 63:1 67:1 73:1 74:1 76:1 82:1 83:1 
8 3:1 6:1 15:1 22:1 36:1 40:1 50:1 63:1 67:1 73:1 74:1 77:1 80:1 83:1 
8 2:1 6:1 18:1 22:1 36:1 40:1 57:1 63:1 67:1 73:1 74:1 76:1 82:1 83:1 
8 4:1 6:1 16:1 19:1 39:1 43:1 51:1 66:1 67:1 73:1 75:1 76:1 80:1 83:1 
8 4:1 7:1 18:1 20:1 37:1 40:1 48:1 63:1 67:1 73:1 74:1 77:1 82:1 83:1 
8 3:1 6:1 14:1 19:1 39:1 40:1 51:1 63:1 67:1 73:1 74:1 76:1 80:1 83:1 
8 3:1 6:1 18:1 25:1 38:1 40:1 47:1 61:1 67:1 72:1 74:1 76:1 79:1 83:1 
8 5:1 10:1 17:1 19:1 39:1 44:1 52:1 66:1 67:1 72:1 74:1 76:1 82:1 83:1 
8 3:1 8:1 14:1 20:1 37:1 40:1 57:1 63:1 67:1 73:1 74:1 76:1 80:1 83:1 
8 5:1 10:1 14:1 25:1 38:1 41:1 52:1 66:1 67:1 73:1 74:1 76:1 80:1 83:1 
8 3:1 6:1 16:1 22:1 36:1 40:1 57:1 63:1 67:1 73:1 74:1 76:1 82:1 83:1 
8 4:1 6:1 17:1 20:1 37:1 40:1 52:1 63:1 67:1 73:1 74:1 76:1 80:1 83:1 
8 3:1 6:1 16:1 29:1 39:1 40:1 52:1 63:1 68:1 73:1 74:1 76:1 81:1 90:1 
6.253573392330628 5:1 6:1 14:1 29:1 39:1 40:1 52:1 63:1 67:1 73:1 74:1 76:1 79:1 87:1 
8 2:1 6:1 17:1 19:1 39:1 40:1 50:1 63:1 67:1 73:1 74:1 76:1 82:1 83:1 
8 4:1 6:1 14:1 19:1 39:1 40:1 50:1 63:1 67:1 73:1 74:1 76:1 82:1 83:1 
8 3:1 6:1 18:1 20:1 37:1 40:1 50:1 63:1 71:1 73:1 75:1 76:1 82:1 83:1 
8 5:1 8:1 17:1 22:1 36:1 40:1 51:1 63:1 67:1 73:1 74:1 76:1 78:1 83:1 
8 2:1 7:1 15:1 19:1 39:1 40:1 54:1 63:1 67:1 73:1 74:1 76:1 82:1 83:1 
8 3:1 6:1 18:1 20:1 37:1 40:1 51:1 63:1 67:1 73:1 74:1 76:1 80:1 83:1 
8 3:1 6:1 17:1 25:1 38:1 40:1 48:1 63:1 67:1 73:1 74:1 76:1 80:1 83:1 
8 4:1 6:1 15:1 20:1 37:1 42:1 47:1 64:1 67:1 72:1 74:1 76:1 80:1 83:1 
8 5:1 11:1 16:1 22:1 36:1 40:1 48:1 63:1 67:1 73:1 74:1 76:1 82:1 83:1 
8 5:1 6:1 17:1 20:1 37:1 40:1 52:1 63:1 67:1 73:1 74:1 76:1 80:1 83:1 
8 3:1 6:1 18:1 20:1 37:1 40:1 48:1 63:1 67:1 73:1 74:1 76:1 80:1 83:1 
8 5:1 7:1 18:1 24:1 38:1 40:1 51:1 61:1 67:1 72:1 75:1 76:1 78:1 83:1 
8 2:1 10:1 15:1 22:1 36:1 40:1 51:1 63:1 67:1 73:1 74:1 76:1 82:1 83:1 
8 4:1 6:1 18:1 19:1 39:1 42:1 50:1 64:1 67:1 73:1 74:1 76:1 82:1 83:1 
8 3:1 6:1 18:1 22:1 36:1 40:1 48:1 63:1 67:1 73:1 74:1 76:1 80:1 83:1 
8 4:1 10:1 16:1 19:1 39:1 40:1 48:1 63:1 67:1 73:1 74:1 76:1 79:1 83:1 
8 4:1 6:1 14:1 22:1 36:1 40:1 50:1 63:1 67:1 73:1 74:1 76:1 82:1 83:1 
8 4:1 6:1 17:1 20:1 37:1 42:1 48:1 66:1 67:1 72:1 74:1 76:1 79:1 83:1 
8 5:1 6:1 17:1 20:1 37:1 40:1 48:1 63:1 67:1 73:1 74:1 76:1 82:1 83:1 
8 4:1 6:1 18:1 27:1 35:1 40:1 54:1 63:1 67:1 73:1 74:1 76:1 80:1 83:1 
8 5:1 6:1 16:1 19:1 39:1 40:1 51:1 63:1 67:1 73:1 74:1 76:1 80:1 
8 3:1 6:1 15:1 20:1 37:1 41:1 51:1 64:1 67:1 72:1 74:1 76:1 80:1 83:1 
8 4:1 6:1 14:1 20:1 37:1 40:1 48:1 63:1 67:1 73:1 74:1 77:1 80:1 
8 2:1 9:1 15:1 19:1 39:1 46:1 52:1 63:1 67:1 73:1 74:1 76:1 82:1 83:1 
8 4:1 8:1 17:1 19:1 39:1 41:1 51:1 66:1 67:1 73:1 74:1 76:1 82:1 83:1 
8 2:1 8:1 16:1 22:1 36:1 41:1 51:1 64:1 67:1 73:1 74:1 76:1 82:1 83:1 
8 4:1 10:1 17:1 29:1 39:1 40:1 55:1 63:1 67:1 73:1 74:1 76:1 80:1 99:1 
8 4:1 6:1 15:1 19:1 39:1 40:1 50:1 63:1 67:1 73:1 74:1 76:1 80:1 83:1 
8 3:1 6:1 15:1 19:1 39:1 42:1 50:1 64:1 67:1 72:1 75:1 76:1 81:1 83:1 
8 5:1 6:1 15:1 20:1 37:1 40:1 52:1 63:1 67:1 73:1 74:1 77:1 82:1 83:1 
8 3:1 6:1 17:1 22:1 36:1 41:1 52:1 62:1 67:1 72:1 74:1 76:1 80:1 83:1 
8 2:1 6:1 15:1 29:1 39:1 40:1 51:1 63:1 67:1 73:1 74:1 76:1 81:1 83:1 
8 1:1 6:1 17:1 20:1 37:1 46:1 49:1 61:1 67:1 72:1 74:1 76:1 80:1 83:1 
8 4:1 6:1 17:1 22:1 36:1 40:1 48:1 63:1 67:1 73:1 74:1 76:1 82:1 83:1 
8 1:1 6:1 18:1 20:1 37:1 40:1 55:1 63:1 67:1 73:1 74:1 76:1 80:1 83:1 
8 3:1 9:1 17:1 22:1 36:1 40:1 51:1 63:1 67:1 73:1 74:1 76:1 81:1 83:1 
8 3:1 6:1 14:1 20:1 37:1 40:1 51:1 63:1 67:1 73:1 74:1 76:1 80:1 83:1 
8 4:1 6:1 15:1 25:1 38:1 40:1 49:1 63:1 68:1 73:1 74:1 76:1 82:1 98:1 
8 2:1 11:1 18:1 20:1 37:1 41:1 59:1 64:1 67:1 73:1 74:1 76:1 80:1 83:1 
8 4:1 6:1 16:1 20:1 37:1 40:1 51:1 63:1 67:1 73:1 74:1 76:1 82:1 83:1 
8 3:1 8:1 16:1 19:1 39:1 42:1 51:1 64:1 67:1 72:1 74:1 76:1 82:1 83:1 
8 3:1 6:1 16:1 22:1 36:1 40:1 57:1 63:1 67:1 73:1 74:1 76:1 82:1 83:1 
8 5:1 10:1 18:1 29:1 39:1 44:1 52:1 66:1 67:1 72:1 75:1 76:1 82:1 83:1 
8 5:1 11:1 15:1 22:1 36:1 40:1 51:1 63:1 67:1 73:1 74:1 77:1 80:1 83:1 
8 4:1 6:1 15:1 22:1 36:1 40:1 51:1 63:1 67:1 73:1 74:1 76:1 80:1 83:1 
8 3:1 6:1 16:1 22:1 36:1 41:1 54:1 66:1 67:1 73:1 74:1 76:1 80:1 83:1 
8 4:1 6:1 17:1 20:1 37:1 40:1 57:1 63:1 67:1 73:1 74:1 76:1 80:1 83:1 
8 4:1 6:1 15:1 20:1 37:1 40:1 51:1 62:1 67:1 73:1 74:1 76:1 80:1 83:1 
8 5:1 6:1 17:1 25:1 38:1 40:1 47:1 63:1 67:1 73:1 74:1 76:1 80:1 83:1 
8 3:1 6:1 17:1 22:1 36:1 40:1 54:1 63:1 67:1 73:1 74:1 76:1 80:1 83:1 
8 5:1 6:1 16:1 22:1 36:1 40:1 54:1 63:1 67:1 73:1 74:1 76:1 81:1 83:1 
8 5:1 6:1 15:1 31:1 35:1 40:1 48:1 63:1 67:1 73:1 75:1 76:1 80:1 83:1 
8 3:1 10:1 14:1 19:1 39:1 40:1 52:1 61:1 67:1 72:1 74:1 76:1 81:1 83:1 
8 4:1 6:1 14:1 19:1 39:1 40:1 52:1 63:1 67:1 73:1 74:1 76:1 82:1 83:1 
8 5:1 10:1 14:1 20:1 37:1 40:1 51:1 63:1 67:1 73:1 74:1 76:1 82:1 83:1 
8 3:1 6:1 17:1 19:1 39:1 40:1 55:1 63:1 67:1 73:1 74:1 76:1 82:1 83:1 
8 5:1 6:1 16:1 25:1 38:1 40:1 48:1 63:1 67:1 73:1 74:1 76:1 80:1 83:1 
8 5:1 7:1 14:1 20:1 37:1 40:1 51:1 63:1 67:1 73:1 74:1 76:1 82:1 83:1 
8 3:1 6:1 18:1 22:1 36:1 40:1 51:1 61:1 67:1 72:1 75:1 76:1 80:1 83:1 
8 3:1 6:1 15:1 22:1 36:1 40:1 52:1 63:1 67:1 73:1 74:1 76:1 81:1 109:1 
8 5:1 7:1 14:1 19:1 39:1 41:1 56:1 64:1 67:1 73:1 75:1 76:1 82:1 83:1 
8 3:1 6:1 14:1 19:1 39:1 40:1 51:1 63:1 67:1 73:1 74:1 76:1 80:1 83:1 
8 5:1 6:1 16:1 22:1 36:1 40:1 53:1 63:1 67:1 73:1 74:1 76:1 80:1 83:1 
8 3:1 6:1 15:1 22:1 36:1 40:1 48:1 63:1 67:1 73:1 74:1 76:1 82:1 83:1 
6.193997428607416 5:1 6:1 15:1 25:1 38:1 40:1 48:1 63:1 67:1 73:1 74:1 77:1 82:1 83:1 
8 5:1 6:1 16:1 29:1 39:1 41:1 51:1 64:1 67:1 73:1 74:1 76:1 82:1 83:1 
8 4:1 6:1 15:1 19:1 39:1 40:1 50:1 63:1 67:1 73:1 74:1 76:1 80:1 83:1 
4.641335767067071 2:1 6:1 16:1 19:1 39:1 40:1 50:1 63:1 67:1 73:1 74:1 77:1 80:1 83:1 
8 4:1 10:1 15:1 20:1 37:1 40:1 59:1 63:1 67:1 73:1 74:1 76:1 80:1 83:1 
8 4:1 11:1 15:1 29:1 39:1 40:1 52:1 63:1 67:1 73:1 74:1 76:1 80:1 83:1 
8 5:1 6:1 16:1 19:1 39:1 40:1 52:1 63:1 67:1 73:1 74:1 76:1 80:1 83:1 
8 5:1 6:1 17:1 25:1 38:1 40:1 48:1 63:1 67:1 73:1 74:1 76:1 82:1 83:1 
8 3:1 6:1 14:1 22:1 36:1 40:1 50:1 63:1 67:1 73:1 74:1 76:1 82:1 83:1 
8 4:1 6:1 18:1 20:1 37:1 40:1 51:1 63:1 67:1 73:1 74:1 76:1 82:1 83:1 
8 3:1 6:1 18:1 22:1 36:1 42:1 48:1 64:1 67:1 73:1 74:1 77:1 82:1 83:1 
8 5:1 7:1 18:1 19:1 39:1 40:1 52:1 63:1 67:1 73:1 74:1 76:1 81:1 83:1 
8 5:1 6:1 17:1 22:1 36:1 40:1 51:1 63:1 67:1 73:1 74:1 76:1 80:1 83:1 
8 5:1 6:1 14:1 29:1 39:1 40:1 55:1 63:1 68:1 73:1 74:1 76:1 82:1 93:1 
8 5:1 11:1 15:1 29:1 39:1 45:1 51:1 66:1 67:1 72:1 75:1 76:1 81:1 83:1 
3.992063926621249 3:1 11:1 15:1 19:1 39:1 40:1 52:1 63:1 68:1 73:1 75:1 76:1 82:1 90:1 
8 2:1 6:1 16:1 20:1 37:1 40:1 48:1 63:1 67:1 73:1 74:1 76:1 81:1 83:1 
8 5:1 8:1 17:1 22:1 36:1 40:1 50:1 63:1 67:1 73:1 74:1 76:1 81:1 83:1 
8 3:1 6:1 15:1 19:1 39:1 40:1 55:1 63:1 68:1 73:1 74:1 76:1 80:1 98:1 
8 3:1 6:1 16:1 20:1 37:1 40:1 52:1 63:1 67:1 73:1 74:1 76:1 82:1 83:1 
8 4:1 6:1 17:1 22:1 36:1 40:1 50:1 63:1 67:1 73:1 74:1 76:1 82:1 83:1 
8 4:1 6:1 17:1 20:1 37:1 40:1 48:1 63:1 67:1 73:1 74:1 76:1 82:1 83:1 
8 2:1 6:1 15:1 19:1 39:1 42:1 51:1 64:1 67:1 73:1 74:1 76:1 82:1 83:1 
8 5:1 6:1 16:1 22:1 36:1 40:1 50:1 63:1 67:1 73:1 74:1 76:1 82:1 83:1 
8 5:1 18:1 22:1 36:1 40:1 63:1 67:1 73:1 74:1 76:1 80:1 83:1 
8 5:1 6:1 16:1 22:1 36:1 40:1 48:1 63:1 67:1 73:1 74:1 76:1 82:1 83:1 
8 5:1 8:1 16:1 20:1 37:1 40:1 48:1 63:1 67:1 73:1 74:1 76:1 82:1 83:1 
5.324719949428766 4:1 6:1 18:1 29:1 39:1 40:1 52:1 63:1 67:1 73:1 74:1 76:1 80:1 95:1 
8 5:1 6:1 18:1 19:1 39:1 43:1 50:1 64:1 67:1 73:1 74:1 76:1 80:1 83:1 
8 4:1 6:1 16:1 22:1 36:1 41:1 56:1 64:1 67:1 73:1 74:1 77:1 81:1 83:1 
8 3:1 6:1 15:1 22:1 36:1 40:1 54:1 63:1 67:1 73:1 74:1 77:1 80:1 83:1 
8 2:1 6:1 17:1 19:1 39:1 40:1 51:1 63:1 67:1 73:1 74:1 76:1 82:1 83:1 
8 5:1 9:1 18:1 20:1 37:1 40:1 47:1 63:1 67:1 73:1 74:1 76:1 80:1 83:1 
8 4:1 6:1 14:1 24:1 38:1 40:1 51:1 63:1 67:1 73:1 74:1 76:1 82:1 83:1 
8 4:1 6:1 15:1 22:1 36:1 40:1 48:1 63:1 67:1 73:1 74:1 76:1 80:1 83:1 
8 4:1 9:1 18:1 20:1 37:1 42:1 55:1 64:1 67:1 73:1 75:1 76:1 82:1 83:1 
8 5:1 6:1 16:1 22:1 36:1 40:1 51:1 63:1 67:1 73:1 74:1 76:1 80:1 83:1 
8 4:1 10:1 16:1 19:1 39:1 40:1 59:1 63:1 67:1 73:1 74:1 76:1 82:1 83:1 
8 4:1 8:1 15:1 20:1 37:1 40:1 51:1 63:1 67:1 73:1 74:1 76:1 82:1 83:1 
8 1:1 10:1 16:1 33:1 35:1 42:1 53:1 65:1 67:1 73:1 74:1 76:1 80:1 114:1 
8 4:1 6:1 18:1 22:1 36:1 40:1 49:1 63:1 67:1 73:1 74:1 77:1 80:1 83:1 
8 3:1 7:1 16:1 22:1 36:1 40:1 50:1 63:1 67:1 73:1 74:1 77:1 81:1 83:1 
8 4:1 6:1 16:1 22:1 36:1 40:1 51:1 61:1 67:1 72:1 74:1 76:1 78:1 83:1 
8 5:1 6:1 16:1 29:1 39:1 41:1 52:1 64:1 67:1 72:1 74:1 77:1 80:1 83:1 
8 5:1 6:1 18:1 22:1 36:1 40:1 53:1 63:1 67:1 73:1 74:1 76:1 80:1 83:1 
8 4:1 8:1 14:1 29:1 39:1 40:1 50:1 63:1 67:1 73:1 74:1 76:1 82:1 
8 3:1 6:1 14:1 25:1 38:1 40:1 48:1 63:1 67:1 73:1 74:1 76:1 82:1 83:1 
8 3:1 6:1 15:1 19:1 39:1 41:1 52:1 66:1 71:1 72:1 75:1 76:1 81:1 83:1 
-8 3:1 11:1 14:1 19:1 39:1 42:1 55:1 64:1 67:1 73:1 75:1 76:1 80:1 83:1 
-8 3:1 6:1 14:1 21:1 35:1 40:1 50:1 63:1 67:1 73:1 74:1 76:1 82:1 83:1 
-8 4:1 6:1 15:1 21:1 35:1 40:1 57:1 63:1 67:1 73:1 74:1 77:1 80:1 83:1 
-8 2:1 6:1 16:1 22:1 36:1 40:1 54:1 63:1 67:1 73:1 75:1 76:1 80:1 83:1 
-8 4:1 7:1 15:1 29:1 39:1 42:1 52:1 64:1 67:1 72:1 74:1 76:1 82:1 83:1 
-8 4:1 6:1 17:1 19:1 39:1 43:1 49:1 65:1 71:1 73:1 74:1 76:1 82:1 83:1 
-6.896188358627443 4:1 11:1 14:1 29:1 39:1 44:1 59:1 66:1 67:1 73:1 74:1 76:1 80:1 83:1 
-8 4:1 6:1 15:1 19:1 39:1 40:1 52:1 63:1 67:1 73:1 74:1 76:1 82:1 83:1 
-8 4:1 6:1 18:1 19:1 39:1 40:1 55:1 61:1 71:1 72:1 74:1 76:1 80:1 83:1 
-8 5:1 6:1 15:1 20:1 37:1 40:1 50:1 63:1 67:1 73:1 75:1 76:1 80:1 83:1 
-8 3:1 15:1 29:1 39:1 40:1 61:1 68:1 72:1 75:1 76:1 80:1 
-8 5:1 7:1 16:1 29:1 39:1 40:1 48:1 63:1 67:1 73:1 74:1 76:1 78:1 83:1 
-8 3:1 6:1 18:1 22:1 36:1 40:1 48:1 61:1 67:1 72:1 74:1 76:1 80:1 83:1 
-8 3:1 6:1 17:1 25:1 38:1 41:1 47:1 64:1 67:1 72:1 74:1 76:1 82:1 83:1 
-8 2:1 6:1 15:1 22:1 36:1 40:1 55:1 63:1 67:1 73:1 74:1 76:1 80:1 83:1 
-8 2:1 6:1 15:1 19:1 39:1 40:1 52:1 63:1 67:1 73:1 74:1 76:1 82:1 83:1 
-8 5:1 6:1 17:1 22:1 36:1 40:1 48:1 63:1 67:1 73:1 74:1 76:1 80:1 83:1 
-8 5:1 8:1 14:1 19:1 39:1 41:1 52:1 64:1 67:1 73:1 74:1 76:1 82:1 83:1 
-5.866638707916222 4:1 15:1 22:1 36:1 40:1 63:1 67:1 73:1 74:1 76:1 80:1 83:1 
-8 5:1 14:1 22:1 36:1 40:1 61:1 68:1 72:1 74:1 76:1 80:1 83:1 
-8 5:1 8:1 14:1 19:1 39:1 40:1 50:1 63:1 67:1 73:1 74:1 76:1 82:1 83:1 
-7.039697909134806 3:1 7:1 18:1 22:1 36:1 40:1 50:1 63:1 67:1 73:1 74:1 76:1 82:1 83:1 
-8 4:1 8:1 17:1 33:1 35:1 40:1 57:1 63:1 67:1 73:1 74:1 76:1 82:1 95:1 
-8 5:1 15:1 22:1 36:1 40:1 63:1 67:1 73:1 74:1 76:1 82:1 83:1 
-8 3:1 10:1 15:1 19:1 39:1 42:1 52:1 64:1 67:1 73:1 74:1 76:1 82:1 83:1 
-8 2:1 6:1 16:1 25:1 38:1 40:1 55:1 63:1 67:1 73:1 74:1 77:1 81:1 83:1 
-8 3:1 6:1 14:1 29:1 39:1 40:1 52:1 63:1 67:1 73:1 74:1 76:1 80:1 
-8 4:1 7:1 14:1 20:1 37:1 40:1 51:1 63:1 67:1 73:1 74:1 76:1 82:1 83:1 
-8 5:1 7:1 14:1 22:1 36:1 40:1 56:1 63:1 67:1 73:1 74:1 77:1 82:1 83:1 
-8 2:1 8:1 15:1 20:1 37:1 40:1 51:1 63:1 67:1 73:1 74:1 76:1 82:1 83:1 
-8 3:1 6:1 16:1 29:1 39:1 40:1 52:1 63:1 67:1 73:1 74:1 76:1 80:1 83:1 
-8 2:1 6:1 15:1 22:1 36:1 40:1 47:1 63:1 67:1 73:1 74:1 76:1 80:1 83:1 
-8 4:1 6:1 14:1 29:1 39:1 41:1 52:1 64:1 67:1 73:1 74:1 76:1 81:1 83:1 
-8 3:1 6:1 16:1 29:1 39:1 40:1 52:1 63:1 67:1 73:1 74:1 76:1 78:1 83:1 
-8 5:1 6:1 15:1 22:1 36:1 40:1 54:1 63:1 67:1 73:1 75:1 76:1 80:1 83:1 
-8 2:1 6:1 15:1 19:1 39:1 42:1 50:1 64:1 71:1 72:1 74:1 77:1 80:1 83:1 
-8 2:1 6:1 17:1 20:1 37:1 40:1 55:1 63:1 67:1 73:1 74:1 76:1 80:1 83:1 
-8 4:1 6:1 18:1 25:1 38:1 40:1 57:1 63:1 67:1 73:1 74:1 76:1 82:1 83:1 
-8 4:1 6:1 17:1 22:1 36:1 40:1 57:1 63:1 67:1 73:1 74:1 76:1 82:1 83:1 
-8 5:1 7:1 17:1 20:1 37:1 40:1 50:1 63:1 67:1 73:1 74:1 76:1 82:1 83:1 
-8 5:1 6:1 18:1 22:1 36:1 40:1 48:1 63:1 67:1 73:1 74:1 76:1 82:1 83:1 
-8 4:1 6:1 16:1 22:1 36:1 40:1 48:1 63:1 67:1 73:1 74:1 76:1 80:1 83:1 
-8 2:1 6:1 17:1 19:1 39:1 41:1 51:1 64:1 67:1 73:1 75:1 76:1 81:1 83:1 
-8 5:1 6:1 14:1 20:1 37:1 40:1 48:1 63:1 67:1 73:1 74:1 76:1 80:1 83:1 
-8 4:1 7:1 16:1 20:1 37:1 40:1 56:1 63:1 67:1 73:1 74:1 76:1 82:1 83:1 
-8 3:1 6:1 18:1 20:1 37:1 40:1 55:1 63:1 67:1 73:1 74:1 76:1 79:1 83:1 
-8 3:1 11:1 14:1 20:1 37:1 40:1 51:1 63:1 67:1 73:1 74:1 76:1 80:1 83:1 
-8 4:1 8:1 14:1 19:1 39:1 40:1 50:1 63:1 67:1 73:1 74:1 76:1 82:1 83:1 
-8 5:1 8:1 16:1 22:1 36:1 40:1 48:1 63:1 67:1 73:1 74:1 77:1 82:1 83:1 
-8 3:1 6:1 14:1 20:1 37:1 40:1 48:1 63:1 67:1 73:1 74:1 77:1 81:1 83:1 
-8 5:1 11:1 14:1 22:1 36:1 40:1 51:1 63:1 67:1 73:1 74:1 76:1 80:1 83:1 
-8 5:1 7:1 18:1 25:1 38:1 40:1 52:1 63:1 67:1 73:1 74:1 76:1 82:1 83:1 
-8 5:1 6:1 16:1 23:1 39:1 40:1 52:1 63:1 67:1 73:1 74:1 77:1 82:1 83:1 
-8 5:1 6:1 17:1 20:1 37:1 40:1 59:1 63:1 67:1 73:1 74:1 76:1 78:1 83:1 
-8 3:1 6:1 15:1 20:1 37:1 40:1 53:1 63:1 67:1 73:1 74:1 76:1 80:1 83:1 
-8 5:1 6:1 16:1 29:1 39:1 40:1 52:1 63:1 67:1 73:1 74:1 76:1 82:1 83:1 
-8 2:1 6:1 14:1 25:1 38:1 40:1 49:1 63:1 67:1 73:1 74:1 76:1 81:1 83:1 
-8 4:1 7:1 16:1 19:1 39:1 41:1 51:1 64:1 68:1 73:1 74:1 76:1 82:1 91:1 
-8 3:1 6:1 18:1 22:1 36:1 40:1 51:1 63:1 67:1 73:1 74:1 76:1 80:1 83:1 
-8 2:1 6:1 16:1 19:1 39:1 40:1 55:1 63:1 67:1 73:1 74:1 76:1 80:1 83:1 
-8 4:1 10:1 18:1 20:1 37:1 40:1 52:1 63:1 67:1 73:1 74:1 76:1 78:1 83:1 
-8 5:1 7:1 18:1 22:1 36:1 40:1 56:1 63:1 67:1 73:1 75:1 76:1 80:1 83:1 
-8 3:1 6:1 16:1 29:1 39:1 42:1 52:1 64:1 67:1 73:1 75:1 76:1 82:1 83:1 
-8 2:1 9:1 16:1 24:1 38:1 40:1 55:1 63:1 67:1 73:1 74:1 76:1 82:1 83:1 
-8 4:1 7:1 17:1 19:1 39:1 40:1 56:1 63:1 67:1 73:1 74:1 76:1 81:1 83:1 
-8 4:1 6:1 14:1 20:1 37:1 41:1 51:1 64:1 67:1 73:1 74:1 77:1 80:1 83:1 
-8 3:1 6:1 14:1 19:1 39:1 40:1 56:1 63:1 67:1 73:1 74:1 76:1 82:1 83:1 
-8 3:1 10:1 17:1 19:1 39:1 40:1 55:1 63:1 67:1 73:1 74:1 76:1 80:1 83:1 
-8 5:1 8:1 14:1 19:1 39:1 40:1 54:1 63:1 67:1 73:1 75:1 76:1 78:1 83:1 
-6.348761959992078 5:1 16:1 26:1 35:1 40:1 63:1 71:1 73:1 75:1 76:1 78:1 83:1 
-8 5:1 11:1 15:1 32:1 39:1 40:1 52:1 63:1 68:1 73:1 75:1 76:1 80:1 90:1 
-4.687873670930335 5:1 16:1 22:1 36:1 40:1 63:1 67:1 73:1 74:1 76:1 80:1 83:1 
-8 3:1 6:1 15:1 19:1 39:1 40:1 52:1 63:1 68:1 73:1 74:1 76:1 81:1 
-6.457094062184542 4:1 9:1 18:1 21:1 35:1 42:1 47:1 64:1 67:1 73:1 74:1 77:1 80:1 83:1 
-8 3:1 6:1 18:1 23:1 39:1 42:1 52:1 64:1 67:1 73:1 74:1 76:1 82:1 83:1 
-8 3:1 11:1 17:1 29:1 39:1 41:1 52:1 64:1 67:1 72:1 74:1 76:1 81:1 83:1 
-8 2:1 6:1 16:1 19:1 39:1 40:1 52:1 63:1 67:1 73:1 74:1 76:1 80:1 
-8 3:1 6:1 16:1 20:1 37:1 40:1 52:1 63:1 67:1 73:1 74:1 76:1 82:1 83:1 
-8 2:1 9:1 18:1 19:1 39:1 40:1 51:1 63:1 67:1 73:1 74:1 76:1 80:1 83:1 
-8 4:1 16:1 22:1 36:1 40:1 63:1 67:1 73:1 74:1 76:1 80:1 83:1 
-8 4:1 6:1 17:1 22:1 36:1 40:1 50:1 63:1 67:1 73:1 74:1 76:1 80:1 83:1 
-8 4:1 7:1 17:1 29:1 39:1 40:1 50:1 63:1 67:1 73:1 74:1 76:1 82:1 83:1 
-8 4:1 10:1 17:1 20:1 37:1 40:1 51:1 63:1 67:1 73:1 74:1 76:1 80:1 83:1 
-8 3:1 6:1 18:1 19:1 39:1 40:1 50:1 61:1 67:1 72:1 74:1 76:1 78:1 83:1 
-8 3:1 6:1 15:1 19:1 39:1 40:1 50:1 63:1 67:1 73:1 75:1 76:1 80:1 83:1 
-8 4:1 6:1 18:1 19:1 39:1 40:1 49:1 63:1 67:1 73:1 74:1 76:1 80:1 119:1 
-8 3:1 6:1 18:1 20:1 37:1 40:1 48:1 63:1 67:1 73:1 74:1 76:1 81:1 83:1 
-8 5:1 6:1 15:1 20:1 37:1 40:1 52:1 63:1 67:1 73:1 74:1 76:1 78:1 83:1 
-7.730933282816141 5:1 6:1 15:1 19:1 39:1 41:1 55:1 66:1 67:1 72:1 74:1 76:1 80:1 83:1 
-8 3:1 6:1 18:1 20:1 37:1 40:1 51:1 63:1 67:1 73:1 74:1 76:1 80:1 83:1 
-8 4:1 10:1 15:1 20:1 37:1 40:1 51:1 63:1 67:1 73:1 74:1 76:1 80:1 83:1 
-8 4:1 8:1 18:1 20:1 37:1 40:1 50:1 63:1 67:1 73:1 74:1 76:1 82:1 83:1 
-8 3:1 6:1 18:1 22:1 36:1 41:1 51:1 66:1 67:1 72:1 74:1 77:1 82:1 83:1 
-8 5:1 7:1 15:1 20:1 37:1 40:1 51:1 63:1 67:1 73:1 74:1 76:1 82:1 83:1 
-8 5:1 6:1 17:1 22:1 36:1 40:1 54:1 63:1 67:1 73:1 74:1 76:1 80:1 83:1 
-8 4:1 6:1 15:1 22:1 36:1 40:1 50:1 63:1 67:1 73:1 74:1 76:1 80:1 83:1 
-8 3:1 6:1 15:1 29:1 39:1 40:1 52:1 63:1 68:1 73:1 74:1 76:1 80:1 94:1 
-8 3:1 6:1 18:1 22:1 36:1 40:1 50:1 61:1 67:1 72:1 74:1 76:1 79:1 83:1 
-8 3:1 6:1 14:1 22:1 36:1 40:1 48:1 63:1 67:1 73:1 74:1 77:1 80:1 83:1 
-7.937620855569466 3:1 6:1 16:1 22:1 36:1 40:1 55:1 63:1 68:1 73:1 74:1 76:1 80:1 102:1 
-8 2:1 6:1 17:1 19:1 39:1 40:1 49:1 63:1 67:1 73:1 74:1 76:1 82:1 83:1 
-8 5:1 6:1 14:1 22:1 36:1 40:1 53:1 63:1 67:1 73:1 74:1 76:1 80:1 83:1 
-8 5:1 8:1 16:1 25:1 38:1 40:1 51:1 63:1 67:1 73:1 74:1 76:1 80:1 83:1 
-8 4:1 6:1 18:1 20:1 37:1 40:1 54:1 63:1 67:1 73:1 74:1 76:1 80:1 103:1 
-8 4:1 6:1 18:1 21:1 35:1 40:1 57:1 63:1 67:1 73:1 74:1 77:1 80:1 83:1 
-0.7202976195942123 3:1 6:1 17:1 26:1 35:1 41:1 53:1 64:1 67:1 73:1 75:1 76:1 82:1 83:1 
-8 2:1 6:1 14:1 22:1 36:1 40:1 51:1 63:1 67:1 73:1 74:1 76:1 82:1 83:1 
-8 5:1 6:1 16:1 22:1 36:1 40:1 49:1 63:1 67:1 73:1 74:1 76:1 82:1 83:1 
-8 4:1 11:1 15:1 22:1 36:1 40:1 59:1 63:1 67:1 73:1 74:1 76:1 80:1 83:1 
-8 5:1 7:1 15:1 25:1 38:1 40:1 56:1 63:1 67:1 73:1 74:1 76:1 80:1 83:1 
-8 4:1 8:1 16:1 19:1 39:1 42:1 50:1 64:1 67:1 73:1 75:1 76:1 82:1 83:1 
-8 2:1 6:1 18:1 24:1 38:1 40:1 51:1 61:1 67:1 72:1 74:1 76:1 82:1 83:1 
-8 3:1 6:1 16:1 22:1 36:1 40:1 57:1 63:1 67:1 73:1 75:1 76:1 80:1 83:1 
-8 4:1 6:1 16:1 19:1 39:1 40:1 54:1 63:1 69:1 73:1 74:1 76:1 80:1 83:1 
-7.961154017818304 5:1 6:1 18:1 19:1 39:1 42:1 52:1 64:1 67:1 72:1 74:1 76:1 82:1 83:1 
-8 2:1 6:1 18:1 20:1 37:1 40:1 50:1 63:1 70:1 73:1 74:1 76:1 82:1 
-8 5:1 10:1 15:1 19:1 39:1 40:1 52:1 63:1 68:1 73:1 74:1 76:1 79:1 90:1 
-5.119527967851676 5:1 6:1 15:1 30:1 35:1 40:1 48:1 63:1 67:1 73:1 74:1 76:1 80:1 83:1 
-8 2:1 10:1 16:1 29:1 39:1 40:1 52:1 63:1 67:1 73:1 74:1 76:1 82:1 83:1 
-8 5:1 6:1 16:1 22:1 36:1 40:1 51:1 63:1 67:1 73:1 74:1 76:1 81:1 83:1 
-8 5:1 7:1 15:1 20:1 37:1 40:1 51:1 63:1 67:1 73:1 74:1 76:1 78:1 83:1 
-8 2:1 6:1 17:1 25:1 38:1 40:1 52:1 63:1 67:1 73:1 74:1 76:1 80:1 83:1 
-8 4:1 9:1 18:1 25:1 38:1 40:1 59:1 63:1 67:1 73:1 75:1 76:1 80:1 83:1 
-8 5:1 16:1 19:1 39:1 40:1 63:1 67:1 73:1 74:1 76:1 78:1 83:1 
-8 3:1 6:1 18:1 22:1 36:1 40:1 48:1 63:1 67:1 73:1 74:1 76:1 81:1 83:1 
-8 4:1 10:1 16:1 20:1 37:1 40:1 59:1 63:1 67:1 73:1 74:1 76:1 80:1 83:1 
-8 4:1 10:1 17:1 19:1 39:1 42:1 51:1 64:1 67:1 73:1 74:1 76:1 80:1 83:1 
-8 4:1 7:1 18:1 22:1 36:1 40:1 51:1 63:1 67:1 73:1 74:1 76:1 82:1 83:1 
-8 4:1 6:1 16:1 22:1 36:1 40:1 55:1 61:1 67:1 72:1 74:1 76:1 80:1 83:1 
-8 3:1 6:1 17:1 19:1 39:1 41:1 59:1 64:1 67:1 73:1 74:1 76:1 81:1 83:1 
-8 5:1 6:1 15:1 20:1 37:1 40:1 50:1 63:1 67:1 73:1 74:1 76:1 82:1 83:1 
-8 3:1 6:1 14:1 27:1 35:1 40:1 56:1 63:1 67:1 73:1 75:1 76:1 82:1 83:1 
-8 5:1 6:1 14:1 20:1 37:1 40:1 49:1 63:1 67:1 73:1 74:1 76:1 80:1 83:1 
-8 2:1 6:1 18:1 19:1 39:1 40:1 48:1 63:1 67:1 73:1 74:1 76:1 80:1 83:1 
-8 2:1 6:1 16:1 22:1 36:1 40:1 55:1 61:1 71:1 72:1 74:1 76:1 80:1 83:1 
-8 5:1 7:1 14:1 20:1 37:1 40:1 50:1 63:1 67:1 73:1 74:1 76:1 81:1 83:1 
-8 3:1 6:1 16:1 29:1 39:1 41:1 52:1 64:1 67:1 73:1 74:1 76:1 81:1 83:1 
-8 4:1 6:1 15:1 19:1 39:1 40:1 48:1 63:1 67:1 73:1 74:1 76:1 80:1 83:1 
-8 2:1 6:1 17:1 22:1 36:1 40:1 54:1 63:1 67:1 73:1 75:1 76:1 80:1 83:1 
-8 2:1 6:1 17:1 20:1 37:1 40:1 50:1 63:1 67:1 73:1 74:1 76:1 81:1 83:1 
-8 2:1 6:1 18:1 19:1 39:1 40:1 51:1 63:1 67:1 73:1 74:1 76:1 80:1 83:1 
-5.510560014563159 5:1 10:1 18:1 29:1 39:1 44:1 52:1 64:1 67:1 72:1 74:1 76:1 80:1 83:1 
-8 3:1 6:1 15:1 19:1 39:1 42:1 51:1 62:1 67:1 73:1 74:1 76:1 82:1 83:1 
-0.5500512935208126 5:1 6:1 15:1 33:1 35:1 40:1 53:1 63:1 67:1 73:1 74:1 76:1 82:1 
-8 3:1 10:1 15:1 20:1 37:1 40:1 59:1 63:1 67:1 73:1 74:1 76:1 82:1 83:1 
-8 5:1 6:1 15:1 20:1 37:1 40:1 54:1 63:1 67:1 73:1 74:1 76:1 82:1 83:1 
-8 2:1 7:1 16:1 25:1 38:1 40:1 52:1 63:1 70:1 73:1 74:1 76:1 82:1 83:1 
-8 5:1 6:1 16:1 22:1 36:1 40:1 49:1 63:1 67:1 73:1 74:1 76:1 80:1 83:1 
-8 5:1 6:1 18:1 19:1 39:1 41:1 51:1 64:1 67:1 73:1 74:1 76:1 80:1 83:1 
-8 4:1 7:1 17:1 19:1 39:1 40:1 51:1 63:1 67:1 73:1 74:1 76:1 82:1 88:1 
-8 4:1 6:1 14:1 25:1 38:1 40:1 54:1 63:1 67:1 73:1 74:1 76:1 80:1 83:1 
-8 2:1 6:1 18:1 22:1 36:1 40:1 51:1 61:1 67:1 72:1 74:1 76:1 80:1 83:1 
-8 3:1 7:1 18:1 22:1 36:1 40:1 51:1 63:1 67:1 73:1 74:1 76:1 82:1 83:1 
-8 4:1 6:1 18:1 20:1 37:1 40:1 47:1 63:1 67:1 73:1 74:1 76:1 80:1 83:1 
-8 3:1 6:1 16:1 19:1 39:1 40:1 49:1 61:1 67:1 72:1 74:1 76:1 80:1 83:1 
-8 4:1 6:1 18:1 20:1 37:1 41:1 57:1 64:1 67:1 73:1 75:1 76:1 82:1 83:1 
-8 5:1 6:1 15:1 20:1 37:1 41:1 48:1 64:1 67:1 73:1 75:1 76:1 80:1 83:1 
-8 3:1 10:1 17:1 20:1 37:1 40:1 48:1 63:1 67:1 73:1 74:1 77:1 80:1 83:1 
-8 4:1 8:1 14:1 19:1 39:1 40:1 51:1 63:1 67:1 73:1 74:1 76:1 82:1 83:1 
-8 5:1 8:1 15:1 20:1 37:1 41:1 51:1 64:1 67:1 73:1 74:1 76:1 82:1 83:1 
-8 2:1 11:1 18:1 22:1 36:1 40:1 59:1 63:1 67:1 73:1 74:1 76:1 81:1 83:1 
-8 3:1 6:1 16:1 25:1 38:1 40:1 48:1 63:1 67:1 73:1 74:1 76:1 80:1 83:1 
-8 5:1 6:1 17:1 20:1 37:1 40:1 48:1 63:1 67:1 73:1 74:1 76:1 80:1 83:1 
-2.789326932619859 3:1 6:1 17:1 22:1 36:1 40:1 48:1 63:1 67:1 73:1 74:1 76:1 80:1 103:1 
-8 5:1 10:1 18:1 22:1 36:1 40:1 48:1 63:1 67:1 73:1 74:1 77:1 80:1 83:1 
-8 3:1 6:1 14:1 20:1 37:1 40:1 57:1 63:1 67:1 73:1 74:1 76:1 81:1 83:1 
-8 2:1 6:1 17:1 19:1 39:1 40:1 52:1 63:1 67:1 73:1 75:1 76:1 80:1 88:1 
-8 2:1 6:1 14:1 25:1 38:1 40:1 55:1 61:1 67:1 72:1 74:1 76:1 78:1 83:1 
-8 3:1 6:1 18:1 20:1 37:1 40:1 50:1 63:1 67:1 73:1 74:1 76:1 82:1 83:1 
-8 2:1 11:1 17:1 23:1 39:1 42:1 52:1 64:1 68:1 73:1 75:1 76:1 82:1 90:1 
-8 4:1 6:1 16:1 20:1 37:1 40:1 50:1 63:1 67:1 73:1 74:1 76:1 82:1 83:1 
-8 4:1 6:1 16:1 19:1 39:1 41:1 52:1 64:1 67:1 73:1 74:1 76:1 80:1 83:1 
-8 4:1 6:1 18:1 22:1 36:1 40:1 50:1 63:1 67:1 73:1 75:1 76:1 82:1 83:1 
-8 1:1 6:1 18:1 22:1 36:1 40:1 51:1 63:1 67:1 73:1 74:1 76:1 82:1 83:1 
-4.910964206897548 2:1 6:1 14:1 19:1 39:1 42:1 52:1 64:1 67:1 72:1 75:1 76:1 80:1 83:1 
-8 2:1 6:1 14:1 19:1 39:1 40:1 50:1 63:1 67:1 73:1 74:1 76:1 82:1 83:1 
-0.5747826573379823 1:1 6:1 17:1 22:1 36:1 40:1 55:1 61:1 67:1 72:1 74:1 76:1 80:1 103:1 
-8 3:1 6:1 14:1 20:1 37:1 40:1 48:1 63:1 67:1 73:1 75:1 76:1 79:1 83:1 
-8 1:1 6:1 17:1 19:1 39:1 40:1 52:1 61:1 67:1 72:1 74:1 76:1 80:1 83:1 
-8 4:1 6:1 17:1 22:1 36:1 40:1 52:1 61:1 67:1 72:1 74:1 76:1 78:1 83:1 
-8 5:1 6:1 17:1 25:1 38:1 40:1 47:1 63:1 67:1 73:1 75:1 76:1 80:1 83:1 
-8 5:1 6:1 16:1 22:1 36:1 40:1 52:1 63:1 67:1 73:1 75:1 76:1 80:1 83:1 
-7.264101532279378 4:1 6:1 16:1 19:1 39:1 42:1 52:1 62:1 67:1 73:1 74:1 76:1 80:1 83:1 
-8 3:1 6:1 15:1 19:1 39:1 40:1 51:1 63:1 67:1 73:1 74:1 76:1 80:1 83:1 
-8 4:1 8:1 18:1 25:1 38:1 41:1 51:1 66:1 68:1 72:1 74:1 76:1 82:1 117:1 
-8 3:1 6:1 18:1 19:1 39:1 40:1 51:1 61:1 67:1 72:1 74:1 76:1 82:1 88:1 
-8 4:1 6:1 14:1 22:1 36:1 40:1 47:1 63:1 67:1 73:1 74:1 76:1 82:1 83:1 
-8 2:1 6:1 17:1 19:1 39:1 40:1 52:1 63:1 67:1 73:1 74:1 76:1 80:1 83:1 
-8 3:1 11:1 18:1 29:1 39:1 40:1 59:1 63:1 71:1 73:1 74:1 76:1 80:1 83:1 
-1.816297753605507 3:1 6:1 16:1 31:1 35:1 40:1 48:1 63:1 71:1 73:1 74:1 76:1 81:1 83:1 
-8 4:1 6:1 16:1 20:1 37:1 40:1 54:1 63:1 71:1 73:1 74:1 76:1 80:1 83:1 
-8 3:1 6:1 16:1 22:1 36:1 40:1 48:1 63:1 67:1 73:1 74:1 76:1 82:1 83:1 
-8 3:1 6:1 17:1 19:1 39:1 40:1 55:1 61:1 71:1 72:1 74:1 76:1 80:1 83:1 
-8 3:1 6:1 15:1 20:1 37:1 42:1 55:1 62:1 67:1 72:1 75:1 76:1 81:1 83:1 
-8 2:1 6:1 16:1 19:1 39:1 40:1 51:1 63:1 67:1 73:1 74:1 76:1 80:1 107:1 
-8 2:1 6:1 18:1 22:1 36:1 40:1 48:1 63:1 67:1 73:1 75:1 76:1 80:1 83:1 
-8 5:1 6:1 16:1 22:1 36:1 40:1 55:1 63:1 67:1 73:1 74:1 76:1 80:1 83:1 
-8 3:1 6:1 14:1 19:1 39:1 43:1 51:1 66:1 67:1 72:1 74:1 76:1 81:1 83:1 
-3.206813382392665 2:1 6:1 17:1 22:1 36:1 40:1 55:1 61:1 67:1 72:1 74:1 76:1 78:1 83:1 
-8 3:1 9:1 16:1 20:1 37:1 40:1 48:1 63:1 67:1 73:1 74:1 77:1 80:1 83:1 
-8 2:1 10:1 18:1 29:1 39:1 42:1 52:1 64:1 67:1 72:1 75:1 76:1 80:1 83:1 
-8 5:1 6:1 17:1 29:1 39:1 42:1 52:1 64:1 67:1 73:1 74:1 76:1 82:1 83:1 
-8 4:1 7:1 16:1 22:1 36:1 40:1 50:1 63:1 67:1 73:1 74:1 76:1 82:1 92:1 
-8 1:1 6:1 14:1 19:1 39:1 40:1 51:1 63:1 67:1 73:1 74:1 76:1 80:1 83:1 
-8 4:1 6:1 17:1 19:1 39:1 43:1 47:1 64:1 67:1 73:1 74:1 76:1 80:1 83:1 
-8 4:1 6:1 16:1 21:1 35:1 40:1 55:1 63:1 67:1 73:1 74:1 77:1 82:1 83:1 
-8 5:1 6:1 14:1 29:1 39:1 40:1 52:1 63:1 67:1 73:1 74:1 76:1 82:1 83:1 
-8 5:1 8:1 17:1 22:1 36:1 40:1 50:1 63:1 71:1 73:1 74:1 76:1 82:1 83:1 
-8 4:1 6:1 16:1 22:1 36:1 40:1 51:1 63:1 67:1 73:1 74:1 76:1 81:1 83:1 
-8 4:1 6:1 18:1 20:1 37:1 40:1 49:1 63:1 67:1 73:1 74:1 76:1 82:1 83:1 
-8 4:1 6:1 17:1 23:1 39:1 41:1 55:1 64:1 67:1 73:1 74:1 76:1 80:1 83:1 
-8 4:1 11:1 17:1 22:1 36:1 40:1 55:1 63:1 67:1 73:1 75:1 76:1 80:1 83:1 
-8 3:1 6:1 16:1 19:1 39:1 42:1 50:1 64:1 67:1 73:1 74:1 76:1 79:1 83:1 
-8 4:1 7:1 14:1 19:1 39:1 40:1 56:1 63:1 67:1 73:1 74:1 76:1 82:1 83:1 
-8 4:1 6:1 15:1 22:1 36:1 40:1 51:1 63:1 67:1 73:1 74:1 76:1 82:1 83:1 
-8 5:1 7:1 15:1 22:1 36:1 40:1 50:1 63:1 68:1 73:1 74:1 76:1 82:1 93:1 
-8 5:1 6:1 15:1 22:1 36:1 40:1 50:1 63:1 67:1 73:1 74:1 76:1 80:1 83:1 
-2.227343964048253 2:1 6:1 17:1 22:1 36:1 40:1 50:1 63:1 67:1 73:1 74:1 76:1 80:1 83:1 
-8 5:1 6:1 15:1 20:1 37:1 40:1 55:1 63:1 67:1 73:1 74:1 76:1 78:1 83:1 
-8 5:1 6:1 17:1 25:1 38:1 44:1 51:1 64:1 67:1 72:1 74:1 76:1 80:1 83:1 
-8 4:1 11:1 15:1 22:1 36:1 40:1 59:1 63:1 67:1 73:1 74:1 76:1 80:1 83:1 
-8 2:1 10:1 15:1 19:1 39:1 42:1 52:1 64:1 67:1 72:1 75:1 76:1 79:1 83:1 
-8 4:1 7:1 16:1 22:1 36:1 40:1 48:1 63:1 67:1 73:1 74:1 77:1 80:1 83:1 
-8 5:1 9:1 14:1 22:1 36:1 40:1 55:1 63:1 67:1 73:1 74:1 76:1 80:1 83:1 
-8 5:1 8:1 17:1 22:1 36:1 41:1 51:1 64:1 67:1 73:1 74:1 76:1 82:1 83:1 
-8 5:1 16:1 19:1 39:1 40:1 63:1 67:1 73:1 74:1 76:1 78:1 83:1 
-8 5:1 8:1 16:1 20:1 37:1 40:1 51:1 63:1 67:1 73:1 74:1 76:1 80:1 83:1 
-8 5:1 11:1 16:1 19:1 39:1 40:1 55:1 63:1 67:1 73:1 74:1 76:1 79:1 83:1 
-8 3:1 6:1 14:1 20:1 37:1 40:1 50:1 63:1 67:1 73:1 75:1 76:1 82:1 83:1 
-8 4:1 6:1 15:1 22:1 36:1 40:1 57:1 63:1 67:1 73:1 74:1 76:1 80:1 83:1 
-8 5:1 9:1 14:1 22:1 36:1 40:1 57:1 63:1 67:1 73:1 74:1 76:1 82:1 83:1 
-8 3:1 6:1 17:1 32:1 39:1 41:1 52:1 66:1 67:1 72:1 74:1 76:1 82:1 83:1 
-8 5:1 6:1 15:1 19:1 39:1 40:1 48:1 63:1 68:1 73:1 74:1 76:1 80:1 93:1 
-8 5:1 14:1 19:1 39:1 40:1 63:1 67:1 73:1 74:1 76:1 78:1 83:1 
-8 2:1 6:1 17:1 23:1 39:1 42:1 52:1 64:1 67:1 73:1 74:1 76:1 82:1 83:1 
-4.46282838518189 3:1 6:1 17:1 20:1 37:1 40:1 50:1 65:1 67:1 73:1 74:1 76:1 80:1 83:1 
-8 3:1 6:1 15:1 20:1 37:1 40:1 50:1 63:1 67:1 73:1 75:1 76:1 80:1 83:1 
-8 1:1 6:1 17:1 21:1 35:1 40:1 51:1 63:1 67:1 73:1 74:1 76:1 82:1 83:1 
-8 3:1 6:1 15:1 22:1 36:1 40:1 48:1 63:1 67:1 73:1 74:1 76:1 82:1 83:1 
-8 3:1 6:1 17:1 20:1 37:1 40:1 48:1 63:1 67:1 73:1 74:1 76:1 80:1 83:1 
-7.806954526015769 3:1 10:1 17:1 29:1 39:1 44:1 52:1 64:1 67:1 72:1 74:1 76:1 80:1 83:1 
-8 2:1 10:1 16:1 24:1 38:1 40:1 59:1 63:1 67:1 73:1 74:1 77:1 80:1 85:1 
-8 5:1 6:1 14:1 22:1 36:1 40:1 57:1 63:1 67:1 73:1 74:1 76:1 80:1 83:1 
-8 3:1 6:1 14:1 19:1 39:1 42:1 50:1 64:1 67:1 73:1 74:1 76:1 81:1 83:1 
-8 5:1 10:1 14:1 22:1 36:1 40:1 51:1 63:1 69:1 73:1 74:1 76:1 82:1 83:1 
-8 4:1 7:1 16:1 19:1 39:1 40:1 52:1 63:1 67:1 73:1 74:1 76:1 80:1 83:1 
-8 5:1 7:1 16:1 19:1 39:1 40:1 56:1 63:1 67:1 73:1 74:1 76:1 78:1 83:1 
-8 5:1 6:1 16:1 19:1 39:1 43:1 50:1 64:1 67:1 73:1 74:1 76:1 80:1 83:1 
-8 3:1 6:1 18:1 22:1 36:1 40:1 52:1 63:1 67:1 73:1 74:1 77:1 82:1 83:1 
-8 4:1 6:1 17:1 20:1 37:1 40:1 51:1 61:1 67:1 72:1 74:1 76:1 82:1 83:1 
-8 3:1 6:1 17:1 22:1 36:1 40:1 48:1 63:1 67:1 73:1 74:1 76:1 82:1 83:1 
-8 4:1 6:1 17:1 22:1 36:1 40:1 57:1 63:1 67:1 73:1 74:1 76:1 80:1 83:1 
-8 3:1 6:1 17:1 20:1 37:1 40:1 48:1 63:1 67:1 73:1 74:1 76:1 80:1 83:1 
-8 3:1 6:1 15:1 20:1 37:1 40:1 48:1 63:1 67:1 73:1 74:1 76:1 80:1 83:1 
-8 4:1 6:1 16:1 24:1 38:1 40:1 50:1 63:1 67:1 73:1 74:1 76:1 81:1 83:1 
-8 4:1 6:1 15:1 20:1 37:1 40:1 55:1 61:1 67:1 72:1 74:1 76:1 80:1 83:1 
-8 5:1 10:1 17:1 22:1 36:1 40:1 48:1 63:1 67:1 73:1 74:1 76:1 80:1 83:1 
-8 5:1 6:1 14:1 20:1 37:1 40:1 57:1 63:1 67:1 73:1 74:1 76:1 82:1 83:1 
-8 3:1 6:1 16:1 22:1 36:1 40:1 50:1 63:1 67:1 73:1 74:1 76:1 82:1 83:1 
-8 3:1 6:1 18:1 32:1 39:1 40:1 52:1 63:1 67:1 73:1 74:1 76:1 80:1 83:1 
-8 5:1 6:1 15:1 22:1 36:1 40:1 48:1 63:1 67:1 73:1 74:1 76:1 80:1 83:1 
-8 4:1 10:1 14:1 19:1 39:1 41:1 52:1 66:1 67:1 73:1 74:1 76:1 82:1 83:1 
-8 4:1 6:1 14:1 19:1 39:1 40:1 50:1 63:1 67:1 73:1 75:1 76:1 81:1 83:1 
-8 2:1 6:1 18:1 19:1 39:1 42:1 51:1 64:1 67:1 73:1 74:1 76:1 81:1 83:1 
-8 3:1 7:1 18:1 22:1 36:1 40:1 48:1 63:1 67:1 73:1 75:1 76:1 80:1 83:1 
-8 4:1 11:1 14:1 29:1 39:1 40:1 55:1 63:1 67:1 73:1 74:1 76:1 80:1 90:1 
-8 5:1 6:1 14:1 29:1 39:1 42:1 52:1 64:1 67:1 73:1 74:1 76:1 82:1 83:1 
-8 5:1 9:1 16:1 22:1 36:1 40:1 55:1 63:1 67:1 73:1 74:1 76:1 80:1 83:1 
-8 2:1 9:1 18:1 22:1 36:1 40:1 55:1 63:1 71:1 73:1 74:1 76:1 82:1 83:1 
-8 2:1 6:1 14:1 19:1 39:1 40:1 52:1 61:1 67:1 72:1 74:1 76:1 78:1 83:1 
-8 5:1 6:1 18:1 22:1 36:1 40:1 51:1 63:1 67:1 73:1 74:1 76:1 78:1 83:1 
-8 4:1 7:1 17:1 32:1 39:1 42:1 52:1 64:1 67:1 72:1 74:1 76:1 81:1 83:1 
-8 3:1 6:1 18:1 19:1 39:1 40:1 51:1 62:1 67:1 73:1 74:1 76:1 82:1 83:1 
-8 4:1 6:1 15:1 19:1 39:1 40:1 50:1 63:1 67:1 73:1 74:1 76:1 82:1 83:1 
-8 2:1 6:1 18:1 32:1 39:1 42:1 52:1 64:1 67:1 73:1 74:1 76:1 80:1 
-8 3:1 8:1 15:1 20:1 37:1 40:1 52:1 63:1 67:1 73:1 74:1 76:1 78:1 83:1 
-8 2:1 6:1 17:1 19:1 39:1 40:1 50:1 63:1 67:1 73:1 74:1 76:1 81:1 83:1 
-8 5:1 6:1 18:1 19:1 39:1 40:1 54:1 63:1 67:1 73:1 74:1 76:1 80:1 83:1 
-8 4:1 6:1 16:1 20:1 37:1 40:1 48:1 63:1 67:1 73:1 74:1 76:1 80:1 83:1 
-8 5:1 9:1 14:1 22:1 36:1 40:1 47:1 63:1 67:1 73:1 74:1 76:1 80:1 83:1 
-8 2:1 6:1 16:1 22:1 36:1 40:1 54:1 63:1 67:1 73:1 75:1 76:1 82:1 105:1 
-8 4:1 7:1 15:1 19:1 39:1 41:1 52:1 64:1 67:1 73:1 74:1 76:1 79:1 83:1 
-8 5:1 7:1 17:1 22:1 36:1 40:1 48:1 63:1 67:1 73:1 74:1 76:1 82:1 83:1 
-8 2:1 6:1 15:1 25:1 38:1 40:1 50:1 63:1 67:1 73:1 74:1 76:1 81:1 83:1 
-8 5:1 9:1 16:1 22:1 36:1 40:1 55:1 63:1 67:1 73:1 74:1 76:1 80:1 83:1 
-8 5:1 16:1 29:1 39:1 40:1 63:1 67:1 73:1 74:1 76:1 78:1 83:1 
-8 5:1 6:1 16:1 19:1 39:1 40:1 52:1 63:1 67:1 73:1 74:1 76:1 78:1 83:1 
-2.031653845461423 5:1 6:1 16:1 22:1 36:1 44:1 55:1 64:1 67:1 72:1 74:1 77:1 79:1 83:1 
-8 4:1 6:1 17:1 22:1 36:1 40:1 57:1 63:1 67:1 73:1 74:1 76:1 82:1 83:1 
-8 4:1 8:1 16:1 22:1 36:1 40:1 57:1 63:1 67:1 73:1 74:1 76:1 82:1 83:1 
-8 5:1 6:1 15:1 22:1 36:1 40:1 59:1 63:1 67:1 73:1 74:1 76:1 80:1 83:1 
-8 5:1 6:1 18:1 29:1 39:1 42:1 52:1 64:1 67:1 73:1 74:1 76:1 82:1 83:1 
-8 5:1 6:1 15:1 19:1 39:1 40:1 50:1 63:1 67:1 73:1 74:1 76:1 80:1 83:1 
-8 5:1 7:1 14:1 19:1 39:1 40:1 52:1 63:1 67:1 73:1 74:1 76:1 82:1 83:1 
-8 4:1 6:1 14:1 22:1 36:1 40:1 57:1 63:1 67:1 73:1 74:1 76:1 82:1 83:1 
-8 3:1 8:1 15:1 22:1 36:1 40:1 57:1 63:1 67:1 73:1 74:1 76:1 82:1 83:1 
-8 3:1 6:1 15:1 19:1 39:1 40:1 49:1 61:1 67:1 72:1 74:1 76:1 80:1 86:1 
-8 5:1 9:1 17:1 19:1 39:1 42:1 55:1 64:1 67:1 73:1 74:1 77:1 80:1 83:1 
-8 4:1 11:1 17:1 19:1 39:1 41:1 51:1 64:1 67:1 73:1 74:1 76:1 80:1 83:1 
-8 4:1 11:1 15:1 19:1 39:1 40:1 55:1 63:1 67:1 73:1 75:1 76:1 80:1 83:1 
-8 5:1 9:1 14:1 19:1 39:1 41:1 51:1 66:1 67:1 72:1 74:1 76:1 80:1 83:1 
-8 5:1 11:1 16:1 20:1 37:1 40:1 48:1 63:1 67:1 73:1 74:1 76:1 80:1 83:1 
-8 3:1 10:1 17:1 19:1 39:1 40:1 48:1 63:1 67:1 73:1 74:1 76:1 80:1 83:1 
-8 5:1 6:1 17:1 22:1 36:1 40:1 50:1 61:1 67:1 72:1 74:1 76:1 79:1 83:1 
-8 3:1 6:1 16:1 19:1 39:1 42:1 52:1 64:1 67:1 73:1 74:1 76:1 80:1 87:1 
-8 3:1 6:1 15:1 20:1 37:1 40:1 49:1 63:1 68:1 73:1 74:1 76:1 80:1 98:1 
-8 4:1 6:1 18:1 22:1 36:1 40:1 54:1 63:1 67:1 73:1 74:1 76:1 80:1 83:1 
-8 3:1 6:1 15:1 20:1 37:1 40:1 50:1 63:1 67:1 73:1 75:1 76:1 82:1 83:1 
-8 2:1 6:1 14:1 19:1 39:1 40:1 47:1 63:1 67:1 73:1 74:1 76:1 78:1 83:1 
-8 4:1 6:1 17:1 22:1 36:1 40:1 48:1 63:1 67:1 73:1 74:1 76:1 80:1 83:1 
-8 4:1 6:1 16:1 25:1 38:1 40:1 57:1 63:1 67:1 73:1 74:1 76:1 82:1 83:1 
-8 4:1 6:1 16:1 29:1 39:1 40:1 52:1 63:1 67:1 73:1 74:1 76:1 81:1 83:1 
-8 5:1 6:1 18:1 19:1 39:1 40:1 48:1 65:1 67:1 73:1 74:1 76:1 80:1 83:1 
-8 3:1 6:1 15:1 25:1 38:1 40:1 54:1 63:1 67:1 73:1 74:1 76:1 80:1 83:1 
-8 5:1 10:1 14:1 31:1 35:1 40:1 48:1 63:1 67:1 73:1 75:1 76:1 80:1 83:1 
-8 4:1 7:1 15:1 19:1 39:1 40:1 51:1 63:1 67:1 73:1 74:1 76:1 82:1 83:1 
-2.299713342696708 3:1 6:1 16:1 19:1 39:1 44:1 52:1 64:1 67:1 72:1 74:1 76:1 82:1 83:1 
-8 2:1 6:1 17:1 19:1 39:1 42:1 52:1 64:1 67:1 73:1 74:1 77:1 82:1 83:1 
-8 5:1 6:1 16:1 19:1 39:1 40:1 48:1 63:1 67:1 73:1 74:1 76:1 82:1 83:1 
-8 2:1 6:1 15:1 19:1 39:1 40:1 47:1 63:1 67:1 73:1 74:1 76:1 80:1 83:1 
-8 1:1 6:1 15:1 19:1 39:1 40:1 51:1 63:1 67:1 73:1 74:1 76:1 80:1 83:1 
-8 5:1 7:1 17:1 20:1 37:1 40:1 48:1 63:1 71:1 73:1 74:1 77:1 80:1 83:1 
-8 4:1 8:1 17:1 22:1 36:1 40:1 48:1 63:1 67:1 73:1 74:1 76:1 80:1 83:1 
-8 4:1 8:1 14:1 20:1 37:1 42:1 51:1 64:1 71:1 73:1 75:1 76:1 81:1 83:1 
-8 4:1 6:1 16:1 20:1 37:1 40:1 50:1 63:1 67:1 73:1 74:1 76:1 80:1 83:1 
-8 2:1 6:1 15:1 19:1 39:1 40:1 52:1 63:1 67:1 73:1 74:1 76:1 82:1 83:1 
-8 2:1 6:1 15:1 22:1 36:1 40:1 57:1 63:1 67:1 73:1 74:1 77:1 80:1 83:1 
-8 3:1 6:1 18:1 20:1 37:1 40:1 50:1 63:1 67:1 73:1 74:1 76:1 82:1 83:1 
-8 3:1 6:1 15:1 20:1 37:1 40:1 48:1 63:1 67:1 73:1 74:1 76:1 80:1 83:1 
-8 4:1 10:1 14:1 19:1 39:1 40:1 52:1 61:1 67:1 72:1 74:1 76:1 81:1 83:1 
-0.6793529057325077 2:1 11:1 17:1 22:1 36:1 40:1 49:1 61:1 67:1 72:1 74:1 76:1 82:1 83:1 
-8 4:1 8:1 15:1 24:1 38:1 40:1 51:1 63:1 67:1 73:1 74:1 76:1 82:1 83:1 
-8 5:1 7:1 18:1 19:1 39:1 40:1 51:1 63:1 67:1 73:1 74:1 76:1 82:1 83:1 
-8 3:1 6:1 14:1 19:1 39:1 40:1 50:1 63:1 67:1 73:1 74:1 76:1 81:1 83:1 
-8 2:1 6:1 16:1 23:1 39:1 41:1 52:1 62:1 67:1 72:1 75:1 76:1 82:1 83:1 
-8 5:1 6:1 14:1 22:1 36:1 40:1 50:1 61:1 67:1 72:1 74:1 76:1 82:1 83:1 
-5.171153663456768 4:1 6:1 18:1 22:1 36:1 40:1 57:1 63:1 67:1 73:1 74:1 76:1 80:1 83:1 
-8 3:1 6:1 15:1 22:1 36:1 45:1 53:1 64:1 67:1 73:1 75:1 76:1 82:1 100:1 
-8 4:1 10:1 16:1 22:1 36:1 40:1 57:1 63:1 67:1 73:1 74:1 76:1 82:1 83:1 
-8 4:1 6:1 15:1 27:1 35:1 40:1 52:1 61:1 67:1 72:1 74:1 76:1 81:1 83:1 
-8 2:1 6:1 17:1 29:1 39:1 42:1 51:1 62:1 67:1 73:1 74:1 76:1 79:1 83:1 
-8 5:1 6:1 14:1 22:1 36:1 40:1 48:1 63:1 67:1 73:1 74:1 76:1 80:1 83:1 
-8 4:1 6:1 16:1 22:1 36:1 40:1 48:1 63:1 67:1 73:1 74:1 76:1 80:1 83:1 
-8 3:1 6:1 16:1 22:1 36:1 40:1 50:1 63:1 67:1 73:1 74:1 76:1 82:1 83:1 
-8 1:1 6:1 18:1 20:1 37:1 40:1 59:1 63:1 67:1 73:1 75:1 76:1 80:1 83:1 
-8 2:1 6:1 15:1 22:1 36:1 40:1 48:1 61:1 67:1 72:1 74:1 76:1 81:1 83:1 
-8 5:1 10:1 16:1 29:1 39:1 41:1 52:1 66:1 67:1 72:1 74:1 76:1 82:1 83:1 
-8 4:1 6:1 18:1 20:1 37:1 40:1 48:1 63:1 67:1 73:1 75:1 76:1 79:1 83:1 
-8 5:1 6:1 16:1 20:1 37:1 40:1 57:1 63:1 71:1 73:1 74:1 76:1 79:1 83:1 
-8 5:1 7:1 15:1 22:1 36:1 40:1 50:1 63:1 67:1 73:1 74:1 76:1 82:1 83:1 
-8 4:1 11:1 14:1 19:1 39:1 42:1 51:1 64:1 67:1 73:1 74:1 76:1 81:1 83:1 
-8 4:1 11:1 15:1 29:1 39:1 41:1 52:1 66:1 67:1 72:1 74:1 76:1 80:1 83:1 
-8 2:1 6:1 17:1 19:1 39:1 40:1 52:1 62:1 67:1 73:1 74:1 76:1 82:1 83:1 
-8 4:1 6:1 14:1 24:1 38:1 40:1 48:1 63:1 67:1 73:1 74:1 76:1 81:1 83:1 
-8 5:1 6:1 15:1 27:1 35:1 40:1 57:1 63:1 71:1 73:1 74:1 77:1 80:1 83:1 
-8 1:1 14:1 19:1 39:1 40:1 63:1 67:1 73:1 74:1 76:1 80:1 83:1 
-8 2:1 7:1 18:1 19:1 39:1 40:1 50:1 63:1 67:1 73:1 74:1 76:1 82:1 83:1 
-8 4:1 6:1 14:1 29:1 39:1 41:1 52:1 64:1 67:1 72:1 75:1 76:1 78:1 83:1 
-8 2:1 6:1 17:1 22:1 36:1 40:1 50:1 63:1 67:1 73:1 75:1 76:1 80:1 83:1 
-8 5:1 18:1 20:1 37:1 40:1 63:1 67:1 73:1 74:1 76:1 80:1 83:1 
-8 3:1 9:1 16:1 19:1 39:1 41:1 52:1 66:1 67:1 72:1 75:1 76:1 82:1 83:1 
-8 5:1 7:1 15:1 20:1 37:1 40:1 48:1 63:1 67:1 73:1 74:1 76:1 82:1 83:1 
-8 5:1 7:1 18:1 22:1 36:1 40:1 50:1 61:1 67:1 72:1 74:1 76:1 82:1 83:1 
-8 4:1 6:1 15:1 22:1 36:1 40:1 48:1 63:1 67:1 73:1 74:1 76:1 82:1 83:1 
-8 3:1 11:1 18:1 22:1 36:1 40:1 55:1 63:1 67:1 73:1 75:1 76:1 80:1 83:1 
-8 5:1 8:1 16:1 19:1 39:1 40:1 51:1 63:1 67:1 73:1 74:1 76:1 80:1 83:1 
-8 5:1 6:1 17:1 20:1 37:1 40:1 51:1 63:1 67:1 73:1 74:1 76:1 80:1 83:1 
-0.1600585205305175 2:1 6:1 15:1 25:1 38:1 41:1 50:1 62:1 67:1 72:1 75:1 76:1 79:1 83:1 
-8 2:1 6:1 15:1 22:1 36:1 40:1 50:1 63:1 67:1 73:1 74:1 76:1 82:1 83:1 
-2.815382421487037 2:1 6:1 15:1 19:1 39:1 42:1 51:1 64:1 67:1 72:1 74:1 76:1 82:1 83:1 
-8 4:1 6:1 18:1 22:1 36:1 40:1 54:1 63:1 71:1 73:1 75:1 76:1 79:1 83:1 
-6.411902426381674 4:1 6:1 18:1 20:1 37:1 40:1 56:1 61:1 67:1 72:1 74:1 76:1 78:1 83:1 
-8 4:1 6:1 15:1 20:1 37:1 40:1 52:1 63:1 67:1 73:1 74:1 76:1 82:1 83:1 
-8 4:1 10:1 16:1 19:1 39:1 41:1 52:1 66:1 67:1 72:1 74:1 76:1 81:1 83:1 
-4.300981180146116 3:1 11:1 15:1 19:1 39:1 42:1 52:1 64:1 67:1 73:1 74:1 76:1 79:1 83:1 
-8 5:1 17:1 22:1 36:1 40:1 63:1 67:1 73:1 74:1 76:1 80:1 83:1 
-8 4:1 8:1 16:1 24:1 38:1 40:1 51:1 61:1 67:1 72:1 74:1 76:1 80:1 83:1 
-8 5:1 6:1 17:1 22:1 36:1 40:1 53:1 63:1 71:1 73:1 74:1 76:1 80:1 
-8 3:1 6:1 17:1 24:1 38:1 40:1 48:1 63:1 67:1 73:1 74:1 76:1 81:1 83:1 
-8 5:1 6:1 15:1 22:1 36:1 40:1 57:1 63:1 67:1 73:1 74:1 76:1 82:1 83:1 
-8 5:1 6:1 17:1 19:1 39:1 45:1 51:1 64:1 67:1 72:1 74:1 76:1 81:1 83:1 
-8 2:1 8:1 16:1 19:1 39:1 40:1 50:1 63:1 67:1 73:1 74:1 76:1 81:1 83:1 
-8 4:1 6:1 15:1 25:1 38:1 40:1 47:1 63:1 67:1 73:1 74:1 76:1 80:1 83:1 
-8 3:1 6:1 16:1 22:1 36:1 40:1 54:1 63:1 67:1 73:1 74:1 76:1 82:1 83:1 
-8 4:1 6:1 17:1 20:1 37:1 40:1 48:1 63:1 67:1 73:1 74:1 76:1 81:1 83:1 
-2.17750985486214 2:1 6:1 15:1 24:1 38:1 40:1 54:1 63:1 67:1 73:1 74:1 76:1 82:1 83:1 
-8 4:1 7:1 17:1 22:1 36:1 40:1 48:1 63:1 67:1 73:1 74:1 76:1 82:1 83:1 
-8 5:1 7:1 15:1 22:1 36:1 40:1 50:1 63:1 67:1 73:1 74:1 76:1 79:1 83:1 
-8 3:1 6:1 17:1 29:1 39:1 42:1 52:1 64:1 67:1 72:1 75:1 76:1 80:1 83:1 
-8 3:1 6:1 16:1 22:1 36:1 40:1 57:1 63:1 67:1 73:1 74:1 76:1 82:1 83:1 
-8 4:1 6:1 16:1 31:1 35:1 43:1 51:1 64:1 71:1 73:1 75:1 76:1 82:1 83:1 
-8 5:1 6:1 17:1 22:1 36:1 40:1 50:1 63:1 67:1 73:1 74:1 76:1 79:1 83:1 
-8 3:1 11:1 18:1 19:1 39:1 40:1 59:1 63:1 71:1 73:1 74:1 76:1 82:1 83:1 
-8 3:1 8:1 17:1 19:1 39:1 42:1 51:1 64:1 67:1 73:1 74:1 76:1 82:1 83:1 
-8 5:1 10:1 18:1 22:1 36:1 40:1 51:1 63:1 67:1 73:1 74:1 76:1 80:1 83:1 
-8 5:1 14:1 19:1 39:1 40:1 63:1 67:1 73:1 74:1 76:1 80:1 83:1 
-8 2:1 6:1 14:1 22:1 36:1 40:1 52:1 63:1 67:1 73:1 74:1 76:1 82:1 83:1 
-8 5:1 6:1 15:1 22:1 36:1 40:1 51:1 61:1 67:1 72:1 74:1 76:1 80:1 83:1 
-8 3:1 6:1 17:1 22:1 36:1 40:1 50:1 63:1 67:1 73:1 74:1 76:1 82:1 83:1 
-8 3:1 6:1 15:1 22:1 36:1 40:1 47:1 61:1 71:1 72:1 74:1 76:1 79:1 83:1 
-8 5:1 6:1 17:1 20:1 37:1 40:1 48:1 63:1 67:1 73:1 74:1 76:1 80:1 83:1 
-6.552751971872621 5:1 6:1 17:1 31:1 35:1 40:1 57:1 63:1 67:1 73:1 74:1 76:1 80:1 83:1 
-8 3:1 8:1 14:1 22:1 36:1 40:1 51:1 63:1 67:1 73:1 74:1 76:1 80:1 83:1 
-8 2:1 6:1 14:1 20:1 37:1 40:1 55:1 63:1 67:1 73:1 74:1 76:1 82:1 83:1 
-8 5:1 6:1 17:1 29:1 39:1 41:1 52:1 64:1 67:1 72:1 74:1 76:1 81:1 83:1 
-8 4:1 6:1 16:1 20:1 37:1 40:1 57:1 63:1 67:1 73:1 74:1 76:1 82:1 83:1 
-8 2:1 8:1 15:1 22:1 36:1 40:1 51:1 63:1 67:1 73:1 74:1 76:1 81:1 83:1 
-8 4:1 6:1 18:1 26:1 35:1 40:1 51:1 63:1 67:1 73:1 74:1 76:1 80:1 103:1 
-8 3:1 6:1 15:1 20:1 37:1 40:1 55:1 63:1 67:1 73:1 74:1 76:1 82:1 83:1 
-8 2:1 6:1 16:1 20:1 37:1 40:1 51:1 61:1 67:1 72:1 74:1 76:1 78:1 83:1 
-8 4:1 6:1 18:1 22:1 36:1 40:1 48:1 63:1 67:1 73:1 75:1 76:1 80:1 83:1 
-6.262555134248226 5:1 6:1 15:1 26:1 35:1 40:1 48:1 63:1 67:1 73:1 74:1 76:1 80:1 83:1 
-8 4:1 6:1 14:1 24:1 38:1 40:1 50:1 63:1 67:1 73:1 74:1 76:1 82:1 83:1 
-1.836682901102321 4:1 6:1 15:1 27:1 35:1 40:1 49:1 63:1 68:1 73:1 74:1 77:1 80:1 94:1 
-8 3:1 8:1 16:1 20:1 37:1 40:1 50:1 63:1 67:1 73:1 74:1 77:1 80:1 83:1 
-8 5:1 6:1 16:1 31:1 35:1 40:1 54:1 63:1 67:1 73:1 74:1 76:1 81:1 83:1 
-8 5:1 6:1 14:1 23:1 39:1 45:1 52:1 66:1 67:1 73:1 74:1 76:1 82:1 83:1 
-8 5:1 16:1 19:1 39:1 40:1 63:1 67:1 73:1 74:1 76:1 78:1 83:1 
-8 2:1 11:1 16:1 29:1 39:1 40:1 52:1 63:1 67:1 73:1 74:1 76:1 78:1 83:1 
-8 4:1 7:1 14:1 19:1 39:1 40:1 56:1 63:1 67:1 73:1 74:1 76:1 82:1 83:1 
-8 4:1 6:1 17:1 20:1 37:1 40:1 52:1 61:1 70:1 72:1 74:1 76:1 78:1 86:1 
-8 4:1 7:1 18:1 22:1 36:1 40:1 52:1 63:1 67:1 73:1 74:1 76:1 82:1 83:1 
-8 2:1 9:1 18:1 20:1 37:1 40:1 55:1 63:1 71:1 73:1 74:1 76:1 80:1 83:1 
-8 3:1 6:1 17:1 20:1 37:1 40:1 49:1 63:1 67:1 73:1 74:1 76:1 82:1 83:1 
-8 4:1 6:1 17:1 22:1 36:1 40:1 57:1 63:1 67:1 73:1 74:1 77:1 81:1 83:1 
-8 2:1 6:1 18:1 31:1 35:1 40:1 51:1 61:1 67:1 72:1 74:1 76:1 79:1 83:1 
-8 4:1 6:1 18:1 24:1 38:1 40:1 50:1 63:1 71:1 73:1 74:1 76:1 82:1 83:1 
-8 5:1 16:1 27:1 35:1 40:1 63:1 67:1 73:1 75:1 76:1 80:1 83:1 
-8 4:1 7:1 14:1 25:1 38:1 40:1 48:1 63:1 67:1 73:1 74:1 76:1 80:1 83:1 
-8 3:1 6:1 16:1 22:1 36:1 42:1 52:1 64:1 67:1 72:1 74:1 77:1 81:1 83:1 
-8 2:1 16:1 19:1 39:1 40:1 61:1 67:1 72:1 74:1 76:1 78:1 83:1 
-8 1:1 6:1 17:1 22:1 36:1 40:1 58:1 61:1 67:1 72:1 75:1 76:1 80:1 83:1 
-8 2:1 6:1 15:1 22:1 36:1 40:1 51:1 63:1 67:1 73:1 74:1 76:1 82:1 83:1 
-8 5:1 17:1 29:1 39:1 40:1 63:1 67:1 73:1 74:1 76:1 82:1 83:1 
-8 4:1 9:1 14:1 19:1 39:1 40:1 48:1 63:1 67:1 73:1 74:1 77:1 80:1 83:1 
-8 1:1 11:1 18:1 20:1 37:1 40:1 52:1 61:1 67:1 72:1 74:1 76:1 82:1 83:1 
-8 4:1 6:1 17:1 19:1 39:1 42:1 52:1 64:1 71:1 73:1 74:1 76:1 80:1 83:1 
-8 3:1 18:1 29:1 39:1 42:1 64:1 67:1 73:1 75:1 76:1 78:1 83:1 
-8 4:1 9:1 17:1 25:1 38:1 41:1 47:1 64:1 67:1 73:1 74:1 76:1 80:1 83:1 
-8 2:1 6:1 18:1 23:1 39:1 40:1 52:1 63:1 67:1 73:1 74:1 76:1 82:1 83:1 
-8 4:1 6:1 14:1 20:1 37:1 40:1 48:1 63:1 67:1 73:1 74:1 76:1 80:1 83:1 
-7.613795676968275 5:1 6:1 18:1 22:1 36:1 40:1 48:1 63:1 71:1 73:1 74:1 76:1 80:1 101:1 
-8 5:1 9:1 16:1 20:1 37:1 40:1 51:1 63:1 67:1 73:1 74:1 76:1 80:1 83:1 
-8 5:1 6:1 14:1 22:1 36:1 40:1 50:1 63:1 67:1 73:1 75:1 76:1 80:1 83:1 
-8 5:1 6:1 16:1 23:1 39:1 42:1 52:1 64:1 67:1 73:1 74:1 76:1 82:1 83:1 
-8 4:1 6:1 15:1 22:1 36:1 40:1 51:1 61:1 67:1 72:1 74:1 76:1 80:1 83:1 
-8 4:1 6:1 16:1 29:1 39:1 40:1 52:1 63:1 67:1 73:1 74:1 76:1 82:1 83:1 
-8 5:1 6:1 15:1 31:1 35:1 40:1 50:1 63:1 67:1 73:1 74:1 76:1 80:1 83:1 
-8 2:1 6:1 17:1 20:1 37:1 40:1 52:1 63:1 67:1 73:1 74:1 76:1 80:1 83:1 
-8 5:1 6:1 17:1 24:1 38:1 41:1 55:1 64:1 67:1 73:1 74:1 77:1 80:1 83:1 
-8 3:1 6:1 14:1 20:1 37:1 41:1 55:1 64:1 67:1 72:1 75:1 76:1 80:1 83:1 
-8 5:1 6:1 16:1 24:1 38:1 40:1 50:1 61:1 67:1 72:1 75:1 76:1 80:1 83:1 
-8 3:1 6:1 17:1 22:1 36:1 40:1 48:1 63:1 67:1 73:1 74:1 76:1 82:1 83:1 
-8 3:1 6:1 14:1 22:1 36:1 40:1 53:1 63:1 67:1 73:1 74:1 76:1 81:1 83:1 
-8 3:1 6:1 18:1 22:1 36:1 42:1 50:1 64:1 67:1 73:1 75:1 76:1 82:1 83:1 
-8 4:1 6:1 17:1 22:1 36:1 40:1 54:1 63:1 67:1 73:1 74:1 76:1 80:1 83:1 
-8 2:1 6:1 14:1 22:1 36:1 40:1 48:1 63:1 67:1 73:1 75:1 76:1 80:1 83:1 
-8 4:1 6:1 16:1 24:1 38:1 40:1 54:1 63:1 67:1 73:1 74:1 76:1 80:1 83:1 
-8 4:1 6:1 18:1 29:1 39:1 40:1 50:1 63:1 67:1 73:1 74:1 76:1 80:1 109:1 
-8 3:1 6:1 18:1 22:1 36:1 40:1 55:1 63:1 67:1 73:1 74:1 76:1 80:1 83:1 
-8 5:1 6:1 14:1 27:1 35:1 40:1 51:1 63:1 69:1 73:1 75:1 76:1 81:1 83:1 
-8 4:1 6:1 14:1 22:1 36:1 40:1 48:1 63:1 67:1 73:1 74:1 76:1 80:1 83:1 
-8 1:1 6:1 18:1 20:1 37:1 40:1 55:1 63:1 67:1 73:1 74:1 76:1 81:1 83:1 
-8 5:1 7:1 18:1 24:1 38:1 40:1 50:1 63:1 67:1 73:1 74:1 76:1 82:1 83:1 
-8 3:1 17:1 22:1 36:1 40:1 63:1 67:1 73:1 75:1 76:1 82:1 83:1 
-8 5:1 6:1 14:1 32:1 39:1 41:1 52:1 64:1 67:1 73:1 74:1 76:1 82:1 83:1 
-8 2:1 6:1 14:1 20:1 37:1 42:1 51:1 64:1 67:1 73:1 74:1 77:1 82:1 83:1 
-8 5:1 6:1 16:1 22:1 36:1 40:1 54:1 63:1 67:1 73:1 74:1 76:1 82:1 83:1 
-8 3:1 6:1 15:1 22:1 36:1 40:1 48:1 63:1 67:1 73:1 74:1 76:1 81:1 83:1 
-8 4:1 9:1 17:1 20:1 37:1 45:1 55:1 64:1 71:1 73:1 75:1 76:1 80:1 83:1 
-8 4:1 7:1 15:1 29:1 39:1 41:1 51:1 66:1 67:1 72:1 74:1 76:1 80:1 83:1 
-5.081194335439658 5:1 15:1 22:1 36:1 40:1 63:1 67:1 73:1 74:1 76:1 80:1 83:1 
-8 3:1 11:1 18:1 19:1 39:1 40:1 51:1 63:1 67:1 73:1 74:1 76:1 79:1 83:1 
-8 3:1 11:1 16:1 22:1 36:1 40:1 59:1 63:1 67:1 73:1 74:1 76:1 79:1 83:1 
-6.339458986701805 5:1 7:1 16:1 22:1 36:1 40:1 48:1 63:1 67:1 73:1 75:1 76:1 78:1 83:1 
-3.126534087955113 5:1 6:1 18:1 21:1 35:1 40:1 48:1 63:1 67:1 73:1 74:1 76:1 80:1 83:1 
-8 5:1 6:1 17:1 20:1 37:1 40:1 51:1 63:1 67:1 73:1 74:1 76:1 82:1 83:1 
-8 3:1 6:1 17:1 22:1 36:1 40:1 48:1 63:1 67:1 73:1 74:1 76:1 80:1 83:1 
-8 2:1 6:1 16:1 29:1 39:1 40:1 51:1 61:1 67:1 72:1 74:1 76:1 80:1 83:1 
-8 3:1 8:1 15:1 24:1 38:1 40:1 55:1 61:1 67:1 72:1 74:1 76:1 79:1 83:1 
-8 5:1 6:1 18:1 20:1 37:1 40:1 59:1 63:1 67:1 73:1 74:1 76:1 80:1 83:1 
-8 3:1 6:1 18:1 22:1 36:1 40:1 52:1 63:1 67:1 73:1 74:1 76:1 80:1 83:1 
