svm_type c_svc
kernel_type rbf
gamma 3.05176e-05
nr_class 2
total_sv 335
rho -0.479187
label 1 -1
nr_sv 179 156
SV
2048 1:0 2:21.67 3:11.5 4:1 5:5 6:3 7:0 8:1 9:1 10:11 11:1 12:2 13:0 14:1 
229.2205969111152 1:1 2:34.919998 3:5 4:2 5:14 6:8 7:7.5 8:1 9:1 10:6 11:1 12:2 13:0 14:1001 
0.5472851171586264 1:1 2:48.080002 3:6.04 4:2 5:4 6:4 7:0.04 8:0 9:0 10:0 11:0 12:2 13:0 14:2691 
2048 1:1 2:29.58 3:4.5 4:2 5:9 6:4 7:7.5 8:1 9:1 10:2 11:1 12:2 13:330 14:1 
81.77463007214956 1:0 2:18.92 3:9 4:2 5:6 6:4 7:0.75 8:1 9:1 10:2 11:0 12:2 13:88 14:592 
0.5208108695249425 1:1 2:33.169998 3:3.04 4:1 5:8 6:8 7:2.04 8:1 9:1 10:1 11:1 12:2 13:180 14:18028 
2048 1:0 2:30.67 3:12 4:2 5:8 6:4 7:2 8:1 9:1 10:1 11:0 12:2 13:220 14:20 
1113.041876186395 1:1 2:27 3:0.75 4:2 5:8 6:8 7:4.25 8:1 9:1 10:3 11:1 12:2 13:312 14:151 
0.5800778954348769 1:0 2:47.419998 3:3 4:2 5:14 6:4 7:13.875 8:1 9:1 10:2 11:1 12:2 13:519 14:1705 
0.8896981140747581 1:1 2:26.75 3:1.125 4:2 5:14 6:8 7:1.25 8:1 9:0 10:0 11:0 12:2 13:0 14:5299 
2048 1:1 2:16.17 3:0.04 4:2 5:8 6:4 7:0.04 8:0 9:0 10:0 11:0 12:2 13:0 14:1 
728.7955703041688 1:1 2:40 3:6.5 4:2 5:6 6:5 7:3.5 8:1 9:1 10:1 11:0 12:2 13:0 14:501 
45.96501263386912 1:1 2:18.5 3:2 4:2 5:3 6:4 7:1.5 8:1 9:1 10:2 11:0 12:2 13:120 14:301 
2048 1:1 2:28.25 3:5.04 4:1 5:8 6:5 7:1.5 8:1 9:1 10:8 11:1 12:2 13:144 14:8 
0.5150758269653836 1:1 2:25.17 3:3.5 4:2 5:13 6:4 7:0.625 8:1 9:1 10:7 11:0 12:2 13:0 14:7060 
2048 1:1 2:37.580002 3:0 4:2 5:8 6:4 7:0 8:0 9:0 10:0 11:0 12:3 13:184 14:1 
2048 1:1 2:34.169998 3:5.25 4:2 5:9 6:4 7:0.085 8:0 9:0 10:0 11:1 12:2 13:290 14:7 
180.8960276649914 1:1 2:36.25 3:5 4:2 5:8 6:5 7:2.5 8:1 9:1 10:6 11:0 12:2 13:0 14:368 
2048 1:1 2:21.25 3:1.5 4:2 5:9 6:4 7:1.5 8:0 9:0 10:0 11:0 12:2 13:150 14:9 
2048 1:1 2:38.669998 3:0.21 4:2 5:4 6:4 7:0.085 8:1 9:0 10:0 11:1 12:2 13:280 14:1 
44.67389499802641 1:1 2:27.75 3:0.585 4:1 5:13 6:4 7:0.25 8:1 9:1 10:2 11:0 12:2 13:260 14:501 
0.01401083003453644 1:0 2:25 3:0.875 4:2 5:14 6:8 7:1.04 8:1 9:0 10:0 11:1 12:2 13:160 14:5861 
0.520808364693261 1:1 2:27.67 3:2 4:2 5:14 6:8 7:1 8:1 9:1 10:4 11:0 12:2 13:140 14:7545 
2048 1:0 2:49.830002 3:13.585 4:2 5:4 6:8 7:8.5 8:1 9:0 10:0 11:1 12:2 13:0 14:1 
70.25087051890176 1:1 2:34.080002 3:0.08 4:1 5:7 6:5 7:0.04 8:1 9:1 10:1 11:1 12:2 13:280 14:2001 
666.7186292666806 1:0 2:20.75 3:10.335 4:2 5:13 6:8 7:0.335 8:1 9:1 10:1 11:1 12:2 13:80 14:51 
0.3798764356681833 1:1 2:33.169998 3:1 4:2 5:14 6:4 7:0.75 8:1 9:1 10:7 11:1 12:2 13:340 14:4072 
286.2308724275121 1:1 2:22.75 3:11 4:2 5:11 6:4 7:2.5 8:1 9:1 10:7 11:1 12:2 13:100 14:810 
1.547093023308823 1:1 2:48.75 3:8.5 4:2 5:8 6:8 7:12.5 8:1 9:1 10:9 11:0 12:2 13:181 14:1656 
0.109133539835302 1:1 2:40.580002 3:5 4:2 5:8 6:4 7:5 8:1 9:1 10:7 11:0 12:2 13:0 14:3066 
0.09839796969987179 1:0 2:57.080002 3:19.5 4:2 5:8 6:4 7:5.5 8:1 9:1 10:7 11:0 12:2 13:0 14:3001 
55.04884378282749 1:0 2:46 3:4 4:2 5:5 6:3 7:0 8:1 9:0 10:0 11:0 12:2 13:100 14:961 
2048 1:1 2:21 3:3 4:1 5:2 6:4 7:1.085 8:1 9:1 10:8 11:1 12:2 13:160 14:2 
0.8687254130758337 1:1 2:39.25 3:9.5 4:2 5:7 6:4 7:6.5 8:1 9:1 10:14 11:0 12:2 13:240 14:4608 
2048 1:1 2:25.75 3:0.5 4:2 5:8 6:4 7:1.46 8:1 9:1 10:5 11:1 12:2 13:312 14:1 
0.4873738928181355 1:0 2:46.080002 3:3 4:2 5:8 6:4 7:2.375 8:1 9:1 10:8 11:1 12:2 13:396 14:4160 
0.5066854212757954 1:0 2:68.669998 3:15 4:2 5:10 6:9 7:0 8:1 9:1 10:14 11:0 12:2 13:0 14:3377 
0.5208241294383866 1:0 2:47.419998 3:8 4:2 5:10 6:5 7:6.5 8:1 9:1 10:6 11:0 12:2 13:375 14:51101 
2048 1:1 2:23.17 3:0 4:2 5:8 6:4 7:0 8:0 9:0 10:0 11:0 12:3 13:184 14:1 
0.5194349247770332 1:1 2:52.5 3:6.5 4:2 5:4 6:4 7:6.29 8:1 9:1 10:15 11:0 12:2 13:0 14:11203 
662.7747285031343 1:1 2:19.17 3:0 4:1 5:7 6:5 7:0 8:0 9:0 10:0 11:1 12:1 13:500 14:2 
2048 1:1 2:18 3:0.165 4:2 5:11 6:7 7:0.21 8:0 9:0 10:0 11:0 12:2 13:200 14:41 
2048 1:1 2:34.5 3:4.04 4:1 5:3 6:5 7:8.5 8:1 9:1 10:7 11:1 12:2 13:195 14:1 
2048 1:0 2:22.5 3:8.46 4:1 5:14 6:4 7:2.46 8:0 9:0 10:0 11:0 12:2 13:164 14:1 
2.497019827032995 1:1 2:25.67 3:12.5 4:2 5:13 6:4 7:1.21 8:1 9:1 10:67 11:1 12:2 13:140 14:259 
2048 1:1 2:24.33 3:6.625 4:1 5:2 6:4 7:5.5 8:1 9:0 10:0 11:1 12:1 13:100 14:1 
108.1709479001648 1:1 2:25 3:11.25 4:2 5:8 6:4 7:2.5 8:1 9:1 10:17 11:0 12:2 13:200 14:1209 
0.5204133951331533 1:0 2:18.75 3:7.5 4:2 5:11 6:4 7:2.71 8:1 9:1 10:5 11:0 12:2 13:184 14:26727 
0.5208096578959793 1:1 2:33.169998 3:1.04 4:2 5:12 6:8 7:6.5 8:1 9:0 10:0 11:1 12:2 13:164 14:31286 
2048 1:1 2:30.83 3:0 4:2 5:9 6:4 7:1.25 8:1 9:1 10:1 11:0 12:2 13:202 14:1 
7.772264433268329 1:1 2:24.17 3:0.875 4:2 5:11 6:4 7:4.625 8:1 9:1 10:2 11:1 12:2 13:520 14:2001 
2.418571973387666 1:1 2:25.33 3:0.58 4:2 5:8 6:4 7:0.29 8:1 9:1 10:7 11:1 12:2 13:96 14:5125 
2048 1:1 2:20.25 3:9.96 4:2 5:10 6:2 7:0 8:1 9:0 10:0 11:0 12:2 13:0 14:1 
2048 1:0 2:20.67 3:3 4:2 5:11 6:4 7:0.165 8:1 9:1 10:3 11:0 12:2 13:100 14:7 
1266.953875275427 1:0 2:64.080002 3:0.165 4:2 5:1 6:1 7:0 8:1 9:1 10:1 11:0 12:2 13:232 14:101 
86.9711820064317 1:0 2:22.42 3:11.25 4:1 5:14 6:8 7:0.75 8:1 9:1 10:4 11:0 12:2 13:0 14:322 
1598.11347960904 1:1 2:48.330002 3:12 4:2 5:7 6:4 7:16 8:1 9:0 10:0 11:0 12:1 13:110 14:1 
0.5208812610013529 1:0 2:28.08 3:15 4:1 5:10 6:9 7:0 8:1 9:0 10:0 11:0 12:2 13:0 14:13213 
43.63705629187685 1:1 2:35.169998 3:2.5 4:2 5:4 6:4 7:4.5 8:1 9:1 10:7 11:0 12:2 13:150 14:1271 
22.04644333023692 1:1 2:60.080002 3:14.5 4:2 5:1 6:1 7:18 8:1 9:1 10:15 11:1 12:2 13:0 14:1001 
2048 1:1 2:28 3:2 4:2 5:4 6:8 7:4.165 8:1 9:1 10:2 11:1 12:2 13:181 14:1 
2048 1:1 2:41.5 3:1.54 4:2 5:3 6:5 7:3.5 8:0 9:0 10:0 11:0 12:2 13:216 14:1 
402.1503763792257 1:1 2:34.75 3:15 4:2 5:12 6:7 7:5.375 8:1 9:1 10:9 11:1 12:2 13:0 14:135 
2048 1:1 2:20.42 3:1.835 4:2 5:8 6:4 7:2.25 8:1 9:1 10:1 11:0 12:2 13:100 14:151 
2048 1:1 2:37.5 3:1.125 4:1 5:2 6:4 7:1.5 8:0 9:0 10:0 11:1 12:2 13:431 14:1 
2048 1:1 2:48.5 3:4.25 4:2 5:7 6:4 7:0.125 8:1 9:0 10:0 11:1 12:2 13:225 14:1 
833.4145308215678 1:1 2:22.67 3:10.5 4:2 5:11 6:8 7:1.335 8:1 9:0 10:0 11:0 12:2 13:100 14:1 
2048 1:0 2:25.08 3:2.54 4:1 5:6 6:4 7:0.25 8:1 9:0 10:0 11:1 12:2 13:370 14:1 
0.5206413642220301 1:1 2:34.169998 3:1.54 4:2 5:13 6:4 7:1.54 8:1 9:1 10:1 11:1 12:2 13:520 14:50001 
2048 1:1 2:23.25 3:1 4:2 5:8 6:4 7:0.835 8:1 9:0 10:0 11:0 12:1 13:300 14:1 
350.1019639012673 1:0 2:20.08 3:0.125 4:2 5:11 6:4 7:1 8:0 9:1 10:1 11:0 12:2 13:240 14:769 
17.94224483705683 1:1 2:32.830002 3:2.5 4:2 5:13 6:8 7:2.75 8:1 9:1 10:6 11:0 12:2 13:160 14:2073 
924.1136403956441 1:1 2:48.25 3:25.084999 4:2 5:9 6:4 7:1.75 8:1 9:1 10:3 11:0 12:2 13:120 14:15 
1720.189308593216 1:1 2:25.08 3:1.71 4:2 5:14 6:4 7:1.665 8:1 9:1 10:1 11:1 12:2 13:395 14:21 
73.40775444148834 1:1 2:24.83 3:2.75 4:2 5:8 6:4 7:2.25 8:1 9:1 10:6 11:0 12:2 13:184 14:601 
363.8763817673112 1:1 2:21.33 3:10.5 4:2 5:8 6:4 7:3 8:1 9:0 10:0 11:1 12:2 13:0 14:1 
8.172760318379936 1:0 2:19.67 3:0.21 4:2 5:11 6:8 7:0.29 8:1 9:1 10:11 11:0 12:2 13:80 14:100 
1120.793904375337 1:1 2:21.83 3:0.25 4:2 5:2 6:8 7:0.665 8:1 9:0 10:0 11:1 12:2 13:0 14:1 
2048 1:0 2:50.080002 3:12.54 4:2 5:6 6:4 7:2.29 8:1 9:1 10:3 11:1 12:2 13:156 14:1 
1480.854225188924 1:1 2:21 3:4.79 4:1 5:9 6:4 7:2.25 8:1 9:1 10:1 11:1 12:2 13:80 14:301 
1600.148604307459 1:1 2:22.08 3:11 4:2 5:13 6:4 7:0.665 8:1 9:0 10:0 11:0 12:2 13:100 14:1 
2048 1:1 2:18.08 3:5.5 4:2 5:4 6:4 7:0.5 8:1 9:0 10:0 11:0 12:2 13:80 14:1 
220.2611405367816 1:1 2:36.669998 3:4.415 4:1 5:4 6:4 7:0.25 8:1 9:1 10:10 11:1 12:2 13:320 14:1 
9.58341287723878 1:1 2:38.169998 3:10.125 4:2 5:14 6:4 7:2.5 8:1 9:1 10:6 11:0 12:2 13:520 14:197 
2048 1:1 2:20.17 3:5.625 4:2 5:9 6:4 7:1.71 8:1 9:0 10:0 11:0 12:1 13:120 14:1 
2048 1:1 2:23.25 3:4 4:2 5:8 6:5 7:0.25 8:1 9:0 10:0 11:1 12:2 13:160 14:1 
2048 1:0 2:18.83 3:4.415 4:1 5:8 6:8 7:3 8:1 9:0 10:0 11:0 12:2 13:240 14:1 
409.0346319288047 1:1 2:39.919998 3:6.21 4:2 5:11 6:4 7:0.04 8:1 9:1 10:1 11:0 12:2 13:200 14:301 
2048 1:1 2:22.67 3:0.165 4:2 5:8 6:3 7:2.25 8:0 9:0 10:0 11:1 12:1 13:0 14:1 
453.9388125529401 1:0 2:23.42 3:0.79 4:1 5:11 6:4 7:1.5 8:1 9:1 10:2 11:1 12:2 13:80 14:401 
108.1924022443502 1:0 2:30 3:5.29 4:2 5:10 6:2 7:2.25 8:1 9:1 10:5 11:1 12:2 13:99 14:501 
122.5841519460799 1:0 2:36.75 3:5.125 4:2 5:10 6:4 7:5 8:1 9:0 10:0 11:1 12:2 13:0 14:4001 
2048 1:0 2:25.17 3:2.875 4:2 5:14 6:8 7:0.875 8:1 9:0 10:0 11:0 12:2 13:360 14:1 
4.995887777315175 1:1 2:31.57 3:4 4:2 5:14 6:4 7:5 8:1 9:1 10:3 11:1 12:2 13:290 14:2280 
16.53483479908121 1:1 2:27.25 3:1.665 4:2 5:13 6:8 7:5.085 8:1 9:1 10:9 11:0 12:2 13:399 14:828 
2048 1:0 2:20.83 3:3 4:2 5:6 6:4 7:0.04 8:1 9:0 10:0 11:0 12:2 13:100 14:1 
742.8742852053521 1:1 2:35.169998 3:4.5 4:2 5:14 6:8 7:5.75 8:0 9:0 10:0 11:1 12:1 13:711 14:1 
0.2939496508936297 1:0 2:58.419998 3:21 4:2 5:3 6:5 7:10 8:1 9:1 10:13 11:0 12:2 13:0 14:6701 
1878.550941888751 1:1 2:28.25 3:0.875 4:2 5:7 6:4 7:0.96 8:1 9:1 10:3 11:1 12:2 13:396 14:1 
159.9130683079682 1:1 2:39.080002 3:6 4:2 5:7 6:4 7:1.29 8:1 9:1 10:5 11:1 12:2 13:108 14:1098 
2048 1:0 2:41.169998 3:6.5 4:2 5:11 6:4 7:0.5 8:1 9:1 10:3 11:1 12:2 13:145 14:1 
8.479689223898387 1:1 2:38.580002 3:3.335 4:2 5:9 6:4 7:4 8:1 9:1 10:14 11:0 12:2 13:383 14:1345 
1770.114572791369 1:1 2:25.17 3:6 4:2 5:8 6:4 7:1 8:1 9:1 10:3 11:0 12:2 13:0 14:1 
2048 1:1 2:73.419998 3:17.75 4:2 5:1 6:1 7:0 8:1 9:0 10:0 11:1 12:2 13:0 14:1 
2048 1:0 2:25.58 3:0 4:2 5:8 6:4 7:0 8:0 9:0 10:0 11:0 12:3 13:184 14:1 
146.5909838803466 1:1 2:27 3:1.5 4:1 5:9 6:4 7:0.375 8:1 9:0 10:0 11:1 12:2 13:260 14:1066 
2048 1:0 2:28.75 3:3.75 4:2 5:8 6:4 7:1.085 8:1 9:1 10:1 11:1 12:2 13:371 14:1 
0.5204841926502064 1:1 2:32.25 3:0.165 4:1 5:8 6:8 7:3.25 8:1 9:1 10:1 11:1 12:2 13:432 14:8001 
2048 1:0 2:20.5 3:11.835 4:2 5:8 6:8 7:6 8:1 9:0 10:0 11:0 12:2 13:340 14:1 
0.5195865896672813 1:0 2:32.330002 3:0.54 4:2 5:13 6:4 7:0.04 8:1 9:0 10:0 11:0 12:2 13:440 14:11178 
1469.002706465087 1:1 2:23.92 3:1.5 4:2 5:2 6:8 7:1.875 8:1 9:1 10:6 11:0 12:2 13:200 14:328 
2048 1:1 2:36.75 3:0.125 4:1 5:8 6:4 7:1.5 8:0 9:0 10:0 11:1 12:2 13:232 14:114 
5.108781108463853 1:0 2:47.25 3:0.75 4:2 5:11 6:8 7:2.75 8:1 9:1 10:1 11:0 12:2 13:333 14:893 
1692.937321183701 1:1 2:27.83 3:1.54 4:2 5:9 6:4 7:3.75 8:1 9:1 10:5 11:1 12:2 13:100 14:4 
46.31967089961774 1:1 2:16.08 3:0.75 4:2 5:8 6:4 7:1.75 8:1 9:1 10:5 11:1 12:2 13:352 14:691 
0.7688842056373658 1:1 2:32.669998 3:5.5 4:2 5:11 6:8 7:5.5 8:1 9:1 10:12 11:1 12:2 13:408 14:1001 
2048 1:1 2:29.92 3:1.835 4:2 5:8 6:8 7:4.335 8:1 9:0 10:0 11:0 12:2 13:260 14:201 
1525.30002278256 1:0 2:71.580002 3:0 4:2 5:8 6:4 7:0 8:0 9:0 10:0 11:0 12:3 13:184 14:1 
2048 1:1 2:42 3:0.205 4:2 5:3 6:8 7:5.125 8:1 9:0 10:0 11:0 12:2 13:400 14:1 
2048 1:1 2:44.330002 3:0.5 4:2 5:3 6:8 7:5 8:1 9:0 10:0 11:1 12:2 13:320 14:1 
2048 1:0 2:17.58 3:9 4:2 5:6 6:4 7:1.375 8:1 9:0 10:0 11:1 12:2 13:0 14:1 
47.44109402750345 1:1 2:31.67 3:16.165001 4:2 5:2 6:4 7:3 8:1 9:1 10:9 11:0 12:2 13:250 14:731 
847.3296400881341 1:1 2:59.669998 3:1.54 4:2 5:11 6:4 7:0.125 8:1 9:0 10:0 11:1 12:2 13:260 14:1 
2048 1:1 2:48.580002 3:6.5 4:2 5:11 6:8 7:6 8:1 9:0 10:0 11:1 12:2 13:350 14:1 
1845.374355688882 1:1 2:20.17 3:9.25 4:2 5:8 6:4 7:1.665 8:1 9:1 10:3 11:1 12:2 13:40 14:29 
38.47324067054061 1:1 2:23.25 3:1.5 4:2 5:11 6:4 7:2.375 8:1 9:1 10:3 11:1 12:2 13:0 14:583 
0.5205316202439676 1:0 2:60.580002 3:16.5 4:2 5:11 6:4 7:11 8:1 9:0 10:0 11:1 12:2 13:21 14:10562 
1863.099138192093 1:1 2:42.830002 3:4.625 4:2 5:11 6:4 7:4.58 8:1 9:0 10:0 11:0 12:1 13:0 14:1 
0.5978342599772715 1:1 2:26.67 3:1.75 4:1 5:8 6:4 7:1 8:1 9:1 10:5 11:1 12:2 13:160 14:5778 
9.03781737635396 1:1 2:57.830002 3:7.04 4:2 5:7 6:4 7:14 8:1 9:1 10:6 11:1 12:2 13:360 14:1333 
0.5203694521608453 1:1 2:55.919998 3:11.5 4:2 5:1 6:1 7:5 8:1 9:1 10:5 11:0 12:2 13:0 14:8852 
2048 1:0 2:33.669998 3:0.375 4:2 5:13 6:4 7:0.375 8:0 9:0 10:0 11:0 12:2 13:300 14:45 
2048 1:1 2:25.75 3:0.75 4:2 5:8 6:5 7:0.25 8:1 9:0 10:0 11:0 12:2 13:349 14:24 
2048 1:0 2:18.08 3:0.375 4:3 5:13 6:1 7:10 8:0 9:0 10:0 11:1 12:1 13:300 14:1 
0.5210064578064004 1:1 2:17.5 3:22 4:3 5:1 6:7 7:0 8:0 9:0 10:0 11:1 12:3 13:450 14:100001 
636.8942482339456 1:1 2:13.75 3:4 4:1 5:9 6:4 7:1.75 8:1 9:1 10:2 11:1 12:2 13:120 14:1001 
1184.048865502261 1:1 2:19.33 3:9.5 4:2 5:11 6:4 7:1 8:1 9:0 10:0 11:1 12:2 13:60 14:401 
1237.832419784436 1:0 2:20.42 3:7.5 4:2 5:4 6:4 7:1.5 8:1 9:1 10:1 11:0 12:2 13:160 14:235 
2048 1:0 2:21.25 3:2.335 4:2 5:3 6:5 7:0.5 8:1 9:1 10:4 11:0 12:1 13:80 14:1 
0.5196775309480101 1:1 2:42.080002 3:1.04 4:2 5:9 6:4 7:5 8:1 9:1 10:6 11:1 12:2 13:500 14:10001 
93.23163715496392 1:0 2:21.5 3:6 4:2 5:6 6:4 7:2.5 8:1 9:1 10:3 11:0 12:2 13:80 14:919 
2048 1:1 2:32.669998 3:9 4:1 5:9 6:8 7:5.25 8:1 9:0 10:0 11:1 12:2 13:154 14:1 
2048 1:1 2:29.67 3:1.415 4:2 5:9 6:8 7:0.75 8:1 9:1 10:1 11:0 12:2 13:240 14:101 
2048 1:1 2:22.08 3:0.83 4:2 5:8 6:8 7:2.165 8:0 9:0 10:0 11:1 12:2 13:128 14:1 
0.3214668805330534 1:0 2:35.419998 3:12 4:2 5:11 6:8 7:14 8:1 9:1 10:8 11:0 12:2 13:0 14:6591 
255.885081131817 1:1 2:31.92 3:4.46 4:2 5:13 6:8 7:6.04 8:1 9:1 10:3 11:0 12:2 13:311 14:301 
2048 1:1 2:44 3:2 4:2 5:7 6:4 7:1.75 8:1 9:1 10:2 11:1 12:2 13:0 14:16 
1064.132343691032 1:1 2:59.5 3:2.75 4:2 5:9 6:4 7:1.75 8:1 9:1 10:5 11:1 12:2 13:60 14:59 
0.4793769143437378 1:1 2:25.5 3:0.375 4:2 5:7 6:4 7:0.25 8:1 9:1 10:3 11:0 12:2 13:260 14:15109 
55.08938722730127 1:1 2:23.33 3:1.5 4:2 5:8 6:8 7:1.415 8:1 9:0 10:0 11:0 12:2 13:422 14:201 
0.4798290675565096 1:1 2:47.669998 3:0.29 4:2 5:8 6:5 7:15 8:1 9:1 10:20 11:0 12:2 13:0 14:15001 
1996.991378147085 1:0 2:44.330002 3:0 4:2 5:8 6:4 7:2.5 8:1 9:0 10:0 11:0 12:2 13:0 14:1 
2048 1:0 2:41.330002 3:1 4:2 5:3 6:5 7:2.25 8:1 9:0 10:0 11:1 12:2 13:0 14:301 
0.6220677819633095 1:1 2:31.67 3:0.83 4:2 5:14 6:4 7:1.335 8:1 9:1 10:8 11:1 12:2 13:303 14:3291 
2048 1:1 2:32.080002 3:4 4:2 5:7 6:4 7:2.5 8:1 9:0 10:0 11:1 12:2 13:360 14:1 
2048 1:0 2:38.25 3:6 4:2 5:4 6:4 7:1 8:1 9:0 10:0 11:1 12:2 13:0 14:1 
0.4195500289345209 1:1 2:37.419998 3:2.04 4:2 5:9 6:4 7:0.04 8:1 9:0 10:0 11:1 12:2 13:400 14:5801 
1.18822951306603 1:1 2:20.5 3:2.415 4:2 5:8 6:4 7:2 8:1 9:1 10:11 11:1 12:2 13:200 14:3001 
1220.090480424725 1:1 2:20.5 3:10 4:1 5:8 6:4 7:2.5 8:1 9:0 10:0 11:0 12:1 13:40 14:1 
2048 1:1 2:34.919998 3:2.5 4:2 5:9 6:4 7:0 8:1 9:0 10:0 11:1 12:2 13:239 14:201 
4.947952807861054 1:1 2:19.17 3:9.5 4:2 5:9 6:4 7:1.5 8:1 9:0 10:0 11:0 12:2 13:120 14:2207 
2048 1:1 2:26.17 3:0.25 4:2 5:3 6:5 7:0 8:1 9:0 10:0 11:1 12:2 13:0 14:1 
0.5198404403547231 1:1 2:21.33 3:7.5 4:2 5:6 6:4 7:1.415 8:1 9:1 10:1 11:0 12:2 13:80 14:9801 
2048 1:1 2:28.25 3:5.125 4:2 5:14 6:4 7:4.75 8:1 9:1 10:2 11:0 12:2 13:420 14:8 
2048 1:1 2:32 3:1.75 4:1 5:10 6:8 7:0.04 8:1 9:0 10:0 11:1 12:2 13:393 14:1 
2048 1:0 2:28.42 3:3.5 4:2 5:9 6:4 7:0.835 8:1 9:0 10:0 11:0 12:1 13:280 14:1 
2048 1:1 2:48.169998 3:3.5 4:2 5:6 6:4 7:3.5 8:1 9:0 10:0 11:0 12:1 13:230 14:1 
2048 1:1 2:26 3:1 4:2 5:11 6:4 7:1.75 8:1 9:0 10:0 11:1 12:2 13:280 14:1 
2048 1:1 2:23.92 3:0.665 4:2 5:8 6:4 7:0.165 8:0 9:0 10:0 11:0 12:2 13:100 14:1 
2048 1:1 2:26.67 3:2.71 4:1 5:13 6:4 7:5.25 8:1 9:1 10:1 11:0 12:2 13:211 14:1 
105.5082091974457 1:1 2:39.919998 3:0.54 4:1 5:6 6:4 7:0.5 8:1 9:1 10:3 11:0 12:2 13:200 14:1001 
2048 1:0 2:26.08 3:8.665 4:2 5:6 6:4 7:1.415 8:1 9:0 10:0 11:0 12:2 13:160 14:151 
2048 1:0 2:37.75 3:5.5 4:2 5:11 6:4 7:0.125 8:1 9:0 10:0 11:1 12:2 13:228 14:1 
2048 1:1 2:22.67 3:2.54 4:1 5:8 6:8 7:2.585 8:1 9:0 10:0 11:0 12:2 13:0 14:1 
2048 1:1 2:24.42 3:12.335 4:2 5:11 6:8 7:1.585 8:1 9:0 10:0 11:1 12:2 13:120 14:1 
1075.548088443734 1:0 2:25.75 3:0.5 4:2 5:8 6:8 7:0.875 8:1 9:0 10:0 11:1 12:2 13:491 14:1 
5.154093137618405 1:1 2:48.580002 3:0.205 4:1 5:4 6:4 7:0.25 8:1 9:1 10:11 11:0 12:2 13:380 14:2733 
2048 1:0 2:18.83 3:9.54 4:2 5:6 6:4 7:0.085 8:1 9:0 10:0 11:0 12:2 13:100 14:1 
1154.602936253164 1:1 2:41 3:0.04 4:2 5:10 6:4 7:0.04 8:0 9:1 10:1 11:0 12:1 13:560 14:1 
-57.46046536420717 1:1 2:22.08 3:11.46 4:2 5:4 6:4 7:1.585 8:0 9:0 10:0 11:1 12:2 13:100 14:1213 
-534.953157611455 1:0 2:55.75 3:7.08 4:2 5:4 6:8 7:6.75 8:1 9:1 10:3 11:1 12:2 13:100 14:51 
-1800.62575145643 1:1 2:20.67 3:1.25 4:1 5:8 6:8 7:1.375 8:1 9:1 10:3 11:1 12:2 13:140 14:211 
-2048 1:1 2:58.580002 3:2.71 4:2 5:8 6:4 7:2.415 8:0 9:0 10:0 11:1 12:2 13:320 14:1 
-9.238678743665911 1:0 2:28.17 3:0.585 4:2 5:6 6:4 7:0.04 8:0 9:0 10:0 11:0 12:2 13:260 14:1005 
-1033.933691102387 1:1 2:41.580002 3:1.75 4:2 5:4 6:4 7:0.21 8:1 9:0 10:0 11:0 12:2 13:160 14:1 
-2048 1:1 2:19.5 3:9.585 4:2 5:6 6:4 7:0.79 8:0 9:0 10:0 11:0 12:2 13:80 14:351 
-1382.705303155363 1:1 2:52.330002 3:1.375 4:1 5:8 6:8 7:9.46 8:1 9:0 10:0 11:1 12:2 13:200 14:101 
-436.6808288109942 1:1 2:42.830002 3:1.25 4:2 5:7 6:4 7:13.875 8:0 9:1 10:1 11:1 12:2 13:352 14:113 
-2048 1:1 2:63.330002 3:0.54 4:2 5:8 6:4 7:0.585 8:1 9:1 10:3 11:1 12:2 13:180 14:1 
-2048 1:0 2:29.5 3:2 4:1 5:10 6:8 7:2 8:0 9:0 10:0 11:0 12:2 13:256 14:18 
-38.25103026171927 1:1 2:28.17 3:0.125 4:1 5:4 6:4 7:0.085 8:0 9:0 10:0 11:0 12:2 13:216 14:2101 
-2048 1:1 2:27.58 3:3.25 4:1 5:11 6:8 7:5.085 8:0 9:1 10:2 11:1 12:2 13:369 14:2 
-563.33804848385 1:0 2:37.330002 3:2.5 4:2 5:3 6:8 7:0.21 8:0 9:0 10:0 11:0 12:2 13:260 14:247 
-2048 1:0 2:19.5 3:0.165 4:2 5:11 6:4 7:0.04 8:0 9:0 10:0 11:1 12:2 13:380 14:1 
-1065.354670371122 1:1 2:21.5 3:11.5 4:2 5:3 6:4 7:0.5 8:1 9:0 10:0 11:1 12:2 13:100 14:69 
-1404.631210644363 1:1 2:48.75 3:26.334999 4:1 5:1 6:1 7:0 8:1 9:0 10:0 11:1 12:2 13:0 14:1 
-1598.138315793348 1:1 2:29.42 3:1.25 4:2 5:9 6:4 7:1.75 8:0 9:0 10:0 11:0 12:2 13:200 14:1 
-2048 1:1 2:23.08 3:0 4:2 5:4 6:4 7:1 8:0 9:1 10:11 11:0 12:1 13:0 14:1 
-2048 1:0 2:17.33 3:9.5 4:2 5:6 6:4 7:1.75 8:0 9:1 10:10 11:1 12:2 13:0 14:11 
-92.81066977823704 1:1 2:47.330002 3:6.5 4:2 5:8 6:4 7:1 8:0 9:0 10:0 11:1 12:2 13:0 14:229 
-2048 1:1 2:27.83 3:4 4:1 5:3 6:8 7:5.75 8:1 9:1 10:2 11:1 12:2 13:75 14:1 
-60.40779659119305 1:1 2:22 3:0.79 4:2 5:9 6:4 7:0.29 8:0 9:1 10:1 11:0 12:2 13:420 14:284 
-1810.614600901406 1:1 2:28.92 3:0.375 4:2 5:8 6:4 7:0.29 8:0 9:0 10:0 11:0 12:2 13:220 14:141 
-6.648100700608031 1:1 2:19.67 3:10 4:1 5:4 6:8 7:0.835 8:1 9:0 10:0 11:1 12:2 13:140 14:1 
-866.3456928515895 1:0 2:16.5 3:1.25 4:2 5:11 6:4 7:0.25 8:0 9:1 10:1 11:0 12:2 13:108 14:99 
-2048 1:0 2:15.92 3:2.875 4:2 5:11 6:4 7:0.085 8:0 9:0 10:0 11:0 12:2 13:120 14:1 
-2048 1:1 2:34.830002 3:4 4:2 5:2 6:5 7:12.5 8:1 9:0 10:0 11:1 12:2 13:184 14:1 
-2048 1:1 2:45.169998 3:1.5 4:2 5:8 6:4 7:2.5 8:1 9:0 10:0 11:1 12:2 13:140 14:1 
-302.4112830277613 1:1 2:15.17 3:7 4:2 5:10 6:4 7:1 8:0 9:0 10:0 11:0 12:2 13:600 14:1 
-619.4523834297171 1:1 2:47.830002 3:4.165 4:2 5:14 6:5 7:0.085 8:0 9:0 10:0 11:1 12:2 13:520 14:1 
-114.8435660497237 1:0 2:33.080002 3:1.625 4:2 5:2 6:4 7:0.54 8:0 9:0 10:0 11:1 12:2 13:0 14:1 
-203.5121586854958 1:1 2:42.75 3:3 4:2 5:3 6:5 7:1 8:1 9:0 10:0 11:0 12:2 13:0 14:201 
-1.370105209173869 1:1 2:23.08 3:2.5 4:2 5:1 6:1 7:0.085 8:0 9:0 10:0 11:1 12:2 13:100 14:4209 
-306.5284778602516 1:1 2:17.92 3:0.205 4:2 5:6 6:4 7:0.04 8:0 9:0 10:0 11:0 12:2 13:280 14:751 
-2048 1:0 2:27.67 3:1.5 4:2 5:7 6:4 7:2 8:1 9:0 10:0 11:0 12:1 13:368 14:1 
-525.6961453058531 1:1 2:22.67 3:0.75 4:2 5:3 6:4 7:1.585 8:0 9:1 10:1 11:1 12:2 13:400 14:10 
-1994.188063717578 1:1 2:62.5 3:12.75 4:1 5:8 6:8 7:5 8:1 9:0 10:0 11:0 12:2 13:112 14:1 
-317.7351897468084 1:1 2:35.25 3:3.165 4:2 5:14 6:8 7:3.75 8:1 9:0 10:0 11:1 12:2 13:680 14:1 
-2048 1:0 2:33.75 3:0.75 4:2 5:4 6:5 7:1 8:1 9:1 10:3 11:1 12:2 13:212 14:1 
-74.22402945131688 1:1 2:30.67 3:2.5 4:2 5:13 6:8 7:2.25 8:0 9:0 10:0 11:1 12:1 13:340 14:1 
-2048 1:1 2:37.169998 3:4 4:2 5:8 6:5 7:5 8:1 9:0 10:0 11:1 12:1 13:280 14:1 
-2048 1:1 2:23.42 3:0.585 4:2 5:8 6:8 7:0.085 8:1 9:0 10:0 11:0 12:2 13:180 14:1 
-2048 1:1 2:17.08 3:0.25 4:2 5:11 6:4 7:0.335 8:0 9:1 10:4 11:0 12:2 13:160 14:9 
-410.5425193780251 1:1 2:32.919998 3:2.5 4:2 5:6 6:4 7:1.75 8:0 9:1 10:2 11:1 12:2 13:720 14:1 
-2048 1:0 2:25.33 3:2.085 4:2 5:8 6:8 7:2.75 8:1 9:0 10:0 11:1 12:2 13:360 14:2 
-2048 1:1 2:25 3:12 4:2 5:4 6:4 7:2.25 8:1 9:1 10:2 11:1 12:2 13:120 14:6 
-95.74239258958369 1:1 2:36.169998 3:5.5 4:2 5:3 6:5 7:5 8:0 9:0 10:0 11:0 12:2 13:210 14:688 
-2048 1:1 2:20 3:7 4:2 5:8 6:4 7:0.5 8:0 9:0 10:0 11:0 12:2 13:0 14:1 
-689.3794285045573 1:1 2:43.169998 3:2.25 4:2 5:3 6:5 7:0.75 8:1 9:0 10:0 11:0 12:2 13:560 14:1 
-2048 1:1 2:40.919998 3:2.25 4:1 5:14 6:8 7:10 8:1 9:0 10:0 11:1 12:2 13:176 14:1 
-947.1552921182987 1:0 2:69.5 3:6 4:2 5:1 6:1 7:0 8:0 9:0 10:0 11:0 12:1 13:0 14:1 
-2048 1:1 2:24.08 3:9 4:2 5:6 6:4 7:0.25 8:0 9:0 10:0 11:1 12:2 13:0 14:1 
-2048 1:1 2:35 3:3.375 4:2 5:8 6:8 7:8.29 8:0 9:0 10:0 11:1 12:2 13:0 14:1 
-1209.614787912284 1:0 2:28.58 3:3.75 4:2 5:8 6:4 7:0.25 8:0 9:1 10:1 11:1 12:2 13:40 14:155 
-2048 1:1 2:22.17 3:12.125 4:2 5:8 6:4 7:3.335 8:0 9:1 10:2 11:1 12:2 13:180 14:174 
-502.6623179407101 1:0 2:19.17 3:5.415 4:2 5:3 6:8 7:0.29 8:0 9:0 10:0 11:0 12:2 13:80 14:485 
-397.8294164497208 1:1 2:16.25 3:0.835 4:2 5:7 6:4 7:0.085 8:1 9:0 10:0 11:0 12:1 13:200 14:1 
-2048 1:1 2:44.25 3:0.5 4:2 5:7 6:4 7:10.75 8:1 9:0 10:0 11:0 12:1 13:400 14:1 
-547.524443193027 1:1 2:32.330002 3:7.5 4:2 5:10 6:5 7:1.585 8:1 9:0 10:0 11:1 12:1 13:420 14:1 
-43.85200531384641 1:1 2:18.17 3:2.46 4:2 5:8 6:7 7:0.96 8:0 9:1 10:2 11:1 12:2 13:160 14:588 
-2048 1:1 2:25.67 3:3.25 4:2 5:8 6:8 7:2.29 8:0 9:1 10:1 11:1 12:2 13:416 14:22 
-2048 1:1 2:20.67 3:5.29 4:2 5:11 6:4 7:0.375 8:1 9:1 10:1 11:0 12:2 13:160 14:1 
-269.7183613326805 1:1 2:52.419998 3:1.5 4:2 5:2 6:4 7:3.75 8:0 9:0 10:0 11:1 12:2 13:0 14:351 
-2048 1:1 2:27.25 3:0.625 4:2 5:6 6:4 7:0.455 8:1 9:0 10:0 11:1 12:2 13:200 14:1 
-2048 1:1 2:19.42 3:1.5 4:1 5:13 6:4 7:2 8:1 9:0 10:0 11:1 12:2 13:100 14:21 
-1568.194614560643 1:1 2:34.080002 3:6.5 4:2 5:6 6:4 7:0.125 8:1 9:0 10:0 11:1 12:2 13:443 14:1 
-2048 1:1 2:31.57 3:0.5 4:2 5:8 6:5 7:0.835 8:1 9:0 10:0 11:1 12:1 13:320 14:1 
-275.674430480743 1:1 2:16 3:3.125 4:2 5:9 6:4 7:0.085 8:0 9:1 10:1 11:0 12:2 13:0 14:7 
-1547.559606700743 1:0 2:27.25 3:0.29 4:2 5:7 6:8 7:0.125 8:0 9:1 10:1 11:1 12:2 13:272 14:109 
-1.479159721918092 1:0 2:19.58 3:0.665 4:1 5:8 6:4 7:1 8:0 9:1 10:1 11:0 12:2 13:2000 14:3 
-2048 1:0 2:50.25 3:0.835 4:2 5:6 6:4 7:0.5 8:0 9:0 10:0 11:1 12:2 13:240 14:118 
-954.6138249282504 1:0 2:36.580002 3:0.29 4:2 5:1 6:1 7:0 8:0 9:1 10:10 11:0 12:2 13:200 14:19 
-1.562346220870927 1:1 2:36.169998 3:18.125 4:2 5:9 6:4 7:0.085 8:0 9:0 10:0 11:0 12:2 13:320 14:3553 
-24.65194606727193 1:1 2:31.57 3:0.625 4:2 5:4 6:4 7:0.25 8:0 9:0 10:0 11:0 12:2 13:380 14:2011 
-2048 1:1 2:16.25 3:0 4:1 5:6 6:4 7:0.25 8:0 9:0 10:0 11:0 12:2 13:60 14:1 
-122.8075357342543 1:1 2:22.5 3:11.5 4:1 5:7 6:4 7:1.5 8:0 9:0 10:0 11:1 12:2 13:0 14:4001 
-686.5521178607274 1:0 2:27.17 3:1.25 4:2 5:1 6:1 7:0 8:0 9:1 10:1 11:0 12:2 13:92 14:301 
-625.5617867064973 1:0 2:22.5 3:8.5 4:2 5:11 6:4 7:1.75 8:1 9:1 10:10 11:0 12:2 13:80 14:991 
-415.2383827372069 1:0 2:22.92 3:1.25 4:2 5:11 6:4 7:0.25 8:0 9:0 10:0 11:1 12:2 13:120 14:810 
-1.641697379859184 1:1 2:23.25 3:12.625 4:2 5:8 6:4 7:0.125 8:0 9:1 10:2 11:0 12:2 13:0 14:5553 
-2048 1:0 2:29.5 3:1.085 4:1 5:14 6:4 7:1 8:0 9:0 10:0 11:0 12:2 13:280 14:14 
-2048 1:1 2:35.75 3:2.415 4:2 5:9 6:4 7:0.125 8:0 9:1 10:2 11:0 12:2 13:220 14:2 
-2048 1:0 2:24.58 3:0.67 4:2 5:6 6:8 7:1.75 8:1 9:0 10:0 11:0 12:2 13:400 14:1 
-3.287998545466034 1:0 2:31.57 3:11.25 4:2 5:1 6:1 7:0 8:0 9:0 10:0 11:0 12:2 13:184 14:5201 
-2048 1:1 2:31.42 3:15.5 4:2 5:8 6:4 7:0.5 8:1 9:0 10:0 11:0 12:2 13:120 14:1 
-219.8136626786138 1:0 2:24.83 3:4.5 4:2 5:9 6:4 7:1 8:0 9:0 10:0 11:1 12:2 13:360 14:7 
-2048 1:1 2:36.330002 3:3.79 4:2 5:9 6:4 7:1.165 8:1 9:0 10:0 11:1 12:2 13:200 14:1 
-2048 1:0 2:30.58 3:10.665 4:2 5:11 6:8 7:0.085 8:0 9:1 10:12 11:1 12:2 13:129 14:4 
-142.0469359166045 1:1 2:54.830002 3:15.5 4:2 5:10 6:9 7:0 8:1 9:1 10:20 11:0 12:2 13:152 14:131 
-2048 1:1 2:24.58 3:12.5 4:2 5:9 6:4 7:0.875 8:1 9:0 10:0 11:1 12:2 13:260 14:1 
-2048 1:1 2:25.83 3:12.835 4:2 5:13 6:4 7:0.5 8:0 9:0 10:0 11:0 12:2 13:0 14:3 
-2001.874641266033 1:1 2:62.75 3:7 4:2 5:10 6:9 7:0 8:0 9:0 10:0 11:0 12:2 13:0 14:13 
-5.836910114624754 1:1 2:29.5 3:0.58 4:2 5:9 6:4 7:0.29 8:0 9:1 10:1 11:0 12:2 13:340 14:2804 
-2048 1:1 2:34 3:4.5 4:2 5:6 6:4 7:1 8:1 9:0 10:0 11:1 12:2 13:240 14:1 
-2048 1:0 2:22.5 3:11 4:1 5:11 6:4 7:3 8:1 9:0 10:0 11:1 12:2 13:268 14:1 
-27.06812430228064 1:1 2:24.42 3:2 4:2 5:10 6:2 7:0.165 8:0 9:1 10:2 11:0 12:2 13:320 14:1301 
-1.668652012997207 1:1 2:34.419998 3:1.335 4:2 5:3 6:5 7:0.125 8:0 9:0 10:0 11:1 12:2 13:440 14:4501 
-820.3647168386346 1:0 2:57.580002 3:2 4:2 5:1 6:1 7:6.5 8:0 9:1 10:1 11:0 12:2 13:0 14:11 
-1220.391742268339 1:1 2:23.58 3:0.46 4:1 5:9 6:4 7:2.625 8:1 9:1 10:6 11:1 12:2 13:208 14:348 
-189.3100969081283 1:0 2:20.83 3:8.5 4:2 5:8 6:4 7:0.165 8:0 9:0 10:0 11:0 12:2 13:0 14:352 
-2048 1:1 2:31.57 3:5 4:1 5:6 6:4 7:8.5 8:1 9:0 10:0 11:0 12:2 13:0 14:1 
-2048 1:1 2:21.5 3:9.75 4:2 5:8 6:4 7:0.25 8:1 9:0 10:0 11:0 12:2 13:140 14:1 
-2048 1:1 2:39.830002 3:0.5 4:2 5:7 6:4 7:0.25 8:1 9:0 10:0 11:0 12:1 13:288 14:1 
-2048 1:0 2:25 3:11 4:1 5:6 6:4 7:4.5 8:1 9:0 10:0 11:0 12:2 13:120 14:1 
-2048 1:1 2:17.58 3:10 4:2 5:9 6:8 7:0.165 8:0 9:1 10:1 11:0 12:2 13:120 14:2 
-2048 1:1 2:29.17 3:3.5 4:2 5:9 6:4 7:3.5 8:1 9:1 10:3 11:1 12:2 13:329 14:1 
-927.3685031116313 1:1 2:18.17 3:10.25 4:2 5:8 6:8 7:1.085 8:0 9:0 10:0 11:0 12:2 13:320 14:14 
-2048 1:1 2:28 3:3 4:2 5:9 6:4 7:0.75 8:0 9:0 10:0 11:1 12:2 13:300 14:68 
-1917.229850351238 1:0 2:31.57 3:3.5 4:2 5:2 6:4 7:3 8:1 9:0 10:0 11:1 12:2 13:300 14:1 
-2048 1:0 2:18.25 3:10 4:2 5:9 6:4 7:1 8:0 9:1 10:1 11:0 12:2 13:120 14:2 
-2048 1:1 2:21.92 3:0.5 4:2 5:8 6:4 7:0.125 8:0 9:0 10:0 11:0 12:2 13:360 14:1 
-1777.684449143546 1:0 2:45.330002 3:1 4:2 5:11 6:4 7:0.125 8:0 9:0 10:0 11:1 12:2 13:263 14:1 
-2048 1:0 2:17.92 3:0.54 4:2 5:8 6:4 7:1.75 8:0 9:1 10:1 11:1 12:2 13:80 14:6 
-286.7624175298714 1:1 2:33 3:2.5 4:1 5:9 6:4 7:7 8:0 9:0 10:0 11:1 12:2 13:280 14:1 
-35.25279815373086 1:1 2:34.669998 3:1.08 4:2 5:7 6:4 7:1.165 8:0 9:0 10:0 11:0 12:1 13:28 14:1 
-189.5382167201638 1:1 2:31.83 3:2.5 4:2 5:6 6:4 7:7.5 8:1 9:0 10:0 11:1 12:2 13:523 14:1 
-2048 1:1 2:37.75 3:7 4:2 5:11 6:8 7:11.5 8:1 9:1 10:7 11:1 12:2 13:300 14:6 
-689.1039539761567 1:1 2:49.169998 3:2.29 4:2 5:1 6:1 7:0.29 8:0 9:0 10:0 11:0 12:2 13:200 14:4 
-2048 1:1 2:22.92 3:0.17 4:2 5:7 6:4 7:0.085 8:0 9:0 10:0 11:0 12:1 13:0 14:1 
-2048 1:1 2:44.25 3:11 4:1 5:2 6:4 7:1.5 8:1 9:0 10:0 11:0 12:1 13:0 14:1 
-1342.288108376702 1:0 2:41.580002 3:1.04 4:2 5:6 6:4 7:0.665 8:0 9:0 10:0 11:0 12:2 13:240 14:238 
-110.237332442407 1:0 2:33.919998 3:1.585 4:1 5:1 6:1 7:0 8:1 9:0 10:0 11:0 12:2 13:320 14:1 
-21.69572026134031 1:1 2:19.17 3:4 4:1 5:3 6:4 7:1 8:0 9:0 10:0 11:1 12:2 13:360 14:1001 
-2041.355533697484 1:0 2:33.25 3:2.5 4:1 5:8 6:4 7:2.5 8:0 9:0 10:0 11:1 12:2 13:0 14:3 
-2048 1:1 2:34.75 3:2.5 4:2 5:13 6:5 7:0.5 8:0 9:0 10:0 11:0 12:2 13:348 14:1 
-2048 1:1 2:34.25 3:1.75 4:2 5:9 6:5 7:0.25 8:1 9:0 10:0 11:1 12:2 13:163 14:1 
-306.5341600114138 1:1 2:27.67 3:0.75 4:2 5:11 6:8 7:0.165 8:0 9:0 10:0 11:1 12:2 13:220 14:252 
-218.4994800281559 1:0 2:52.5 3:7 4:2 5:6 6:8 7:3 8:0 9:0 10:0 11:0 12:2 13:0 14:1 
-2048 1:0 2:25.42 3:1.125 4:2 5:11 6:4 7:1.29 8:1 9:1 10:2 11:0 12:2 13:200 14:1 
-1583.17253044596 1:1 2:21.17 3:0.875 4:1 5:8 6:8 7:0.25 8:0 9:0 10:0 11:0 12:2 13:280 14:205 
-11.03364300220862 1:1 2:43.25 3:25.209999 4:2 5:11 6:8 7:0.21 8:1 9:1 10:1 11:0 12:2 13:760 14:91 
-803.8263400761127 1:1 2:37.330002 3:2.665 4:2 5:13 6:4 7:0.165 8:0 9:0 10:0 11:1 12:2 13:0 14:502 
-167.7549412034329 1:1 2:36.080002 3:2.54 4:2 5:1 6:1 7:0 8:0 9:0 10:0 11:0 12:2 13:0 14:1001 
-43.20633780875737 1:1 2:24.08 3:0.875 4:2 5:7 6:4 7:0.085 8:0 9:1 10:4 11:0 12:2 13:254 14:1951 
-116.943924612845 1:0 2:20.75 3:9.54 4:2 5:3 6:4 7:0.04 8:0 9:0 10:0 11:0 12:2 13:200 14:1001 
-1035.104413583921 1:1 2:39.419998 3:1.71 4:1 5:7 6:4 7:0.165 8:0 9:0 10:0 11:0 12:1 13:400 14:1 
-2048 1:0 2:20.08 3:1.25 4:2 5:8 6:4 7:0 8:0 9:0 10:0 11:0 12:2 13:0 14:1 
-1.535541636911928 1:1 2:26.92 3:2.25 4:2 5:3 6:5 7:0.5 8:0 9:0 10:0 11:1 12:2 13:640 14:4001 
-2048 1:1 2:25.67 3:2.21 4:1 5:6 6:4 7:4 8:1 9:0 10:0 11:0 12:2 13:188 14:1 
-2048 1:0 2:28.58 3:1.665 4:2 5:11 6:4 7:2.415 8:1 9:0 10:0 11:1 12:2 13:440 14:1 
-304.6593679300344 1:1 2:22.92 3:3.165 4:1 5:8 6:4 7:0.165 8:0 9:0 10:0 11:0 12:2 13:160 14:1059 
-1168.972309499048 1:1 2:21.67 3:1.165 4:1 5:4 6:4 7:2.5 8:1 9:1 10:1 11:0 12:2 13:180 14:21 
-42.47721553900652 1:1 2:18.67 3:5 4:2 5:11 6:4 7:0.375 8:1 9:1 10:2 11:0 12:2 13:0 14:39 
-2048 1:0 2:19.75 3:0.75 4:2 5:8 6:4 7:0.795 8:1 9:1 10:5 11:1 12:2 13:140 14:6 
-199.6929682818887 1:1 2:26.17 3:0.835 4:2 5:13 6:4 7:1.165 8:0 9:0 10:0 11:0 12:2 13:100 14:1 
-50.8818655749665 1:1 2:28.75 3:1.5 4:1 5:8 6:4 7:1.5 8:1 9:0 10:0 11:1 12:2 13:0 14:226 
-10.6703289079321 1:1 2:31.57 3:0.375 4:2 5:2 6:4 7:0.875 8:1 9:0 10:0 11:1 12:1 13:928 14:1 
-1692.946111902906 1:1 2:39.5 3:1.625 4:2 5:8 6:4 7:1.5 8:0 9:0 10:0 11:0 12:2 13:0 14:317 
-121.2553612780276 1:1 2:26.75 3:4.5 4:1 5:8 6:5 7:2.5 8:0 9:0 10:0 11:0 12:2 13:200 14:1211 
-2048 1:0 2:24.92 3:1.25 4:2 5:1 6:1 7:0 8:1 9:0 10:0 11:0 12:2 13:80 14:1 
-2048 1:1 2:17.67 3:4.46 4:2 5:8 6:4 7:0.25 8:0 9:0 10:0 11:0 12:1 13:80 14:1 
-129.9030488068576 1:0 2:22.75 3:6.165 4:2 5:6 6:4 7:0.165 8:0 9:0 10:0 11:0 12:2 13:220 14:1001 
-1448.780473173187 1:1 2:23 3:0.75 4:2 5:7 6:4 7:0.5 8:1 9:0 10:0 11:1 12:1 13:320 14:1 
-2048 1:1 2:21.17 3:0 4:2 5:8 6:4 7:0.5 8:0 9:0 10:0 11:1 12:1 13:0 14:1 
-2048 1:1 2:35.25 3:16.5 4:1 5:8 6:4 7:4 8:1 9:0 10:0 11:0 12:2 13:80 14:1 
