svm_type c_svc
kernel_type rbf
gamma 0.0078125
nr_class 2
total_sv 669
rho -0.2648
label 2 4
nr_sv 433 236
SV
0.7352960556045071 1:1000025 2:5 3:1 4:1 5:1 6:2 7:1 8:3 9:1 10:1 
0.7352505190405654 1:1002945 2:5 3:4 4:4 5:5 6:7 7:10 8:3 9:2 10:1 
0.7352505190423224 1:1015425 2:3 3:1 4:1 5:1 6:2 7:2 8:3 9:1 10:1 
0.7354840409993603 1:1016277 2:6 3:8 4:8 5:1 6:3 7:4 8:3 9:7 10:1 
0.5263891101872189 1:1017023 2:4 3:1 4:1 5:3 6:2 7:1 8:3 9:1 10:1 
0.7354841858921062 1:1018099 2:1 3:1 4:1 5:1 6:2 7:10 8:3 9:1 10:1 
0.735416001124378 1:1018561 2:2 3:1 4:2 5:1 6:2 7:1 8:3 9:1 10:1 
0.3970212972608543 1:1033078 2:2 3:1 4:1 5:1 6:2 7:1 8:1 9:1 10:5 
0.4008917114672739 1:1033078 2:4 3:2 4:1 5:1 6:2 7:1 8:2 9:1 10:1 
0.7354286050876788 1:1035283 2:1 3:1 4:1 5:1 6:1 7:1 8:3 9:1 10:1 
0.7354180089308473 1:1036172 2:2 3:1 4:1 5:1 6:2 7:1 8:2 9:1 10:1 
0.7354171065051001 1:1043999 2:1 3:1 4:1 5:1 6:2 7:3 8:3 9:1 10:1 
0.7354165035390614 1:1048672 2:4 3:1 4:1 5:1 6:2 7:1 8:2 9:1 10:1 
0.7203393144481565 1:1049815 2:4 3:1 4:1 5:1 6:2 7:1 8:3 9:1 10:1 
0.735466515934032 1:1050718 2:6 3:1 4:1 5:1 6:2 7:1 8:3 9:1 10:1 
0.7354162586861577 1:1056784 2:3 3:1 4:1 5:1 6:2 7:1 8:2 9:1 10:1 
0.7354208235946988 1:1059552 2:1 3:1 4:1 5:1 6:2 7:1 8:3 9:1 10:1 
0.7354136333020882 1:1066373 2:3 3:2 4:1 5:1 6:1 7:1 8:2 9:1 10:1 
0.7354136333021697 1:1066979 2:5 3:1 4:1 5:1 6:2 7:1 8:2 9:1 10:1 
0.7354039030042294 1:1067444 2:2 3:1 4:1 5:1 6:2 7:1 8:2 9:1 10:1 
0.3809800212446579 1:1070935 2:1 3:1 4:3 5:1 6:2 7:1 8:1 9:1 10:1 
0.3827143062053842 1:1070935 2:3 3:1 4:1 5:1 6:1 7:1 8:2 9:1 10:1 
0.7353322008251577 1:1071760 2:2 3:1 4:1 5:1 6:2 7:1 8:3 9:1 10:1 
0.7353199399701127 1:1074610 2:2 3:1 4:1 5:2 6:2 7:1 8:3 9:1 10:1 
0.7353289265333767 1:1075123 2:3 3:1 4:2 5:1 6:2 7:1 8:2 9:1 10:1 
0.7353289265333767 1:1079304 2:2 3:1 4:1 5:1 6:2 7:1 8:2 9:1 10:1 
0.7353090662718761 1:1081791 2:6 3:2 4:1 5:1 6:1 7:1 8:7 9:1 10:1 
0.735287624785715 1:1103722 2:1 3:1 4:1 5:1 6:2 7:1 8:2 9:1 10:2 
0.3816783068282981 1:1105524 2:1 3:1 4:1 5:1 6:2 7:1 8:2 9:1 10:1 
0.7352334124787915 1:1106095 2:4 3:1 4:1 5:3 6:2 7:1 8:3 9:1 10:1 
0.8093794441184242 1:1115293 2:1 3:1 4:1 5:1 6:2 7:2 8:2 9:1 10:1 
0.3931968492959034 1:1116192 2:1 3:1 4:1 5:1 6:2 7:1 8:2 9:1 10:1 
0.7352224046484572 1:1117152 2:4 3:1 4:1 5:1 6:2 7:1 8:3 9:1 10:1 
0.7352224046484572 1:1121732 2:1 3:1 4:1 5:1 6:2 7:1 8:3 9:2 10:1 
0.7352224046484572 1:1121919 2:5 3:1 4:3 5:1 6:2 7:1 8:2 9:1 10:1 
0.7352204701937866 1:1124651 2:1 3:3 4:3 5:2 6:2 7:1 8:7 9:2 10:1 
0.7352197557443412 1:1131294 2:1 3:1 4:2 5:1 6:2 7:2 8:4 9:2 10:1 
0.7352197557443412 1:1132347 2:1 3:1 4:4 5:1 6:2 7:1 8:2 9:1 10:1 
0.7352230633208094 1:1133041 2:5 3:3 4:1 5:2 6:2 7:1 8:2 9:1 10:1 
0.7352103867680331 1:1133136 2:3 3:1 4:1 5:1 6:2 7:3 8:3 9:1 10:1 
0.7352103867680331 1:1136142 2:2 3:1 4:1 5:1 6:3 7:1 8:2 9:1 10:1 
0.7352103867680331 1:1137156 2:2 3:2 4:2 5:1 6:1 7:1 8:7 9:1 10:1 
0.3722193833241119 1:1143978 2:4 3:1 4:1 5:2 6:2 7:1 8:2 9:1 10:1 
0.3746275414162957 1:1143978 2:5 3:2 4:1 5:1 6:2 7:1 8:3 9:1 10:1 
0.7352103867649949 1:1147044 2:3 3:1 4:1 5:1 6:2 7:2 8:7 9:1 10:1 
0.7351900083655452 1:1152331 2:4 3:1 4:1 5:1 6:2 7:1 8:3 9:1 10:1 
0.7351870487803485 1:1155546 2:2 3:1 4:1 5:2 6:3 7:1 8:2 9:1 10:1 
0.735183994853986 1:1156272 2:1 3:1 4:1 5:1 6:2 7:1 8:3 9:1 10:1 
0.7351835746382025 1:1156948 2:3 3:1 4:1 5:2 6:2 7:1 8:1 9:1 10:1 
0.7351835746382025 1:1157734 2:4 3:1 4:1 5:1 6:2 7:1 8:3 9:1 10:1 
0.3719924588401179 1:1158247 2:1 3:1 4:1 5:1 6:2 7:1 8:2 9:1 10:1 
0.7351817515806043 1:1160476 2:2 3:1 4:1 5:1 6:2 7:1 8:3 9:1 10:1 
0.7351806001415846 1:1164066 2:1 3:1 4:1 5:1 6:2 7:1 8:3 9:1 10:1 
0.7351806001405872 1:1165297 2:2 3:1 4:1 5:2 6:2 7:1 8:1 9:1 10:1 
0.7351785197860803 1:1165790 2:5 3:1 4:1 5:1 6:2 7:1 8:3 9:1 10:1 
0.7356846283095828 1:1167471 2:4 3:1 4:2 5:1 6:2 7:1 8:3 9:1 10:1 
1.11883710482883 1:1171710 2:1 3:1 4:1 5:1 6:2 7:1 8:2 9:3 10:1 
0.7354165050542176 1:1171795 2:1 3:3 4:1 5:2 6:2 7:2 8:5 9:3 10:2 
0.7439870535192462 1:1173235 2:3 3:3 4:2 5:1 6:2 7:3 8:3 9:1 10:1 
0.4669343008232596 1:1173347 2:1 3:1 4:1 5:1 6:2 7:5 8:1 9:1 10:1 
0.466933022638258 1:1173347 2:8 3:3 4:3 5:1 6:2 7:2 8:3 9:2 10:1 
0.8676127723978618 1:1173514 2:1 3:1 4:1 5:1 6:4 7:3 8:1 9:1 10:1 
0.7351785197860803 1:1173681 2:3 3:2 4:1 5:1 6:2 7:2 8:3 9:1 10:1 
0.3856508604368359 1:1174057 2:1 3:1 4:2 5:2 6:2 7:1 8:3 9:1 10:1 
0.3870719002667585 1:1174057 2:4 3:2 4:1 5:1 6:2 7:2 8:3 9:1 10:1 
0.7352445963758706 1:1176406 2:1 3:1 4:1 5:1 6:2 7:1 8:2 9:1 10:1 
0.7352321494679727 1:1177027 2:3 3:1 4:1 5:1 6:2 7:1 8:3 9:1 10:1 
0.7352026276019648 1:1177512 2:1 3:1 4:1 5:1 6:10 7:1 8:1 9:1 10:1 
0.7351745707872013 1:1178580 2:5 3:1 4:3 5:1 6:2 7:1 8:2 9:1 10:1 
0.7351749163730406 1:1179818 2:2 3:1 4:1 5:1 6:2 7:1 8:3 9:1 10:1 
0.7351749163730403 1:1180523 2:3 3:1 4:1 5:1 6:2 7:1 8:2 9:2 10:1 
0.7351715932347076 1:1180831 2:3 3:1 4:1 5:1 6:3 7:1 8:2 9:1 10:1 
0.7351715932347076 1:1181356 2:5 3:1 4:1 5:1 6:2 7:2 8:3 9:3 10:1 
0.3654631833105353 1:1182410 2:3 3:1 4:1 5:1 6:2 7:1 8:1 9:1 10:1 
0.7351298098884499 1:1183240 2:4 3:1 4:2 5:1 6:2 7:1 8:2 9:1 10:1 
0.7350934424878529 1:1183516 2:3 3:1 4:1 5:1 6:2 7:1 8:1 9:1 10:1 
0.7350766290785412 1:1183911 2:2 3:1 4:1 5:1 6:2 7:1 8:1 9:1 10:1 
0.7354180089247959 1:1184184 2:1 3:1 4:1 5:1 6:2 7:5 8:1 9:1 10:1 
0.7354286050816411 1:1184241 2:2 3:1 4:1 5:1 6:2 7:1 8:2 9:1 10:1 
1.805487646092122 1:1185610 2:1 3:1 4:1 5:1 6:3 7:2 8:2 9:1 10:1 
0.7350646992497466 1:1187457 2:3 3:1 4:1 5:3 6:8 7:1 8:5 9:8 10:1 
0.7350645079206959 1:1188472 2:1 3:1 4:1 5:1 6:1 7:1 8:3 9:1 10:1 
0.9517087495469453 1:1190394 2:4 3:1 4:1 5:1 6:2 7:3 8:1 9:1 10:1 
0.7350887776001712 1:1190485 2:1 3:1 4:1 5:1 6:2 7:1 8:1 9:1 10:1 
0.7350887776003239 1:1193091 2:1 3:2 4:2 5:1 6:2 7:1 8:2 9:1 10:1 
0.7350770892567881 1:1193210 2:2 3:1 4:1 5:1 6:2 7:1 8:3 9:1 10:1 
0.7354978476920869 1:1197080 2:4 3:1 4:1 5:1 6:2 7:1 8:3 9:2 10:1 
0.7354765272891057 1:1197270 2:3 3:1 4:1 5:1 6:2 7:1 8:3 9:1 10:1 
0.7354765272891057 1:1197440 2:1 3:1 4:1 5:2 6:1 7:3 8:1 9:1 10:7 
0.7665782200819024 1:1197979 2:4 3:1 4:1 5:1 6:2 7:2 8:3 9:2 10:1 
0.7354718605773887 1:1199219 2:1 3:1 4:1 5:2 6:1 7:1 8:1 9:1 10:1 
0.7354029036630689 1:1199731 2:3 3:1 4:1 5:1 6:2 7:1 8:1 9:1 10:1 
0.7353574989200519 1:1199983 2:1 3:1 4:1 5:1 6:2 7:1 8:3 9:1 10:1 
0.7353104038684188 1:1200772 2:1 3:1 4:1 5:1 6:2 7:1 8:2 9:1 10:1 
0.7345877143561664 1:1201834 2:2 3:1 4:1 5:1 6:2 7:1 8:3 9:1 10:1 
0.7353104038684188 1:1202125 2:4 3:1 4:1 5:1 6:2 7:1 8:3 9:1 10:1 
0.7353104038684188 1:1203096 2:1 3:1 4:1 5:1 6:1 7:1 8:3 9:1 10:1 
0.7353104038684188 1:1204242 2:1 3:1 4:1 5:1 6:2 7:1 8:1 9:1 10:1 
0.7353104038684188 1:1204898 2:6 3:1 4:1 5:1 6:2 7:1 8:3 9:1 10:1 
0.7353104038684188 1:1206089 2:2 3:1 4:1 5:1 6:1 7:1 8:3 9:1 10:1 
0.7353104038684188 1:1208301 2:1 3:2 4:3 5:1 6:2 7:1 8:3 9:1 10:1 
0.6990770769901768 1:1212232 2:5 3:1 4:1 5:1 6:2 7:1 8:2 9:1 10:1 
0.6987747283769074 1:1212251 2:1 3:1 4:1 5:1 6:2 7:1 8:3 9:1 10:1 
0.3680253898089635 1:1212422 2:3 3:1 4:1 5:1 6:2 7:1 8:3 9:1 10:1 
0.370211512577499 1:1212422 2:4 3:1 4:1 5:1 6:2 7:1 8:3 9:1 10:1 
0.6061003672300944 1:1213375 2:8 3:4 4:4 5:5 6:4 7:7 8:7 9:8 10:2 
0.6060267563024517 1:1213383 2:5 3:1 4:1 5:4 6:2 7:1 8:3 9:1 10:1 
0.7353104038684188 1:1214092 2:1 3:1 4:1 5:1 6:2 7:1 8:1 9:1 10:1 
0.7352977998040331 1:1214556 2:3 3:1 4:1 5:1 6:2 7:1 8:2 9:1 10:1 
0.7352835690648192 1:1216947 2:1 3:1 4:1 5:1 6:2 7:1 8:3 9:1 10:1 
0.7351902562662926 1:1217051 2:5 3:1 4:1 5:1 6:2 7:1 8:3 9:1 10:1 
0.7351902562661782 1:1217264 2:1 3:1 4:1 5:1 6:2 7:1 8:3 9:1 10:1 
0.7351902562661782 1:1218860 2:1 3:1 4:1 5:1 6:1 7:1 8:3 9:1 10:1 
0.7351902562661782 1:1219406 2:5 3:1 4:1 5:1 6:1 7:1 8:3 9:1 10:1 
0.7351902562661782 1:1220330 2:1 3:1 4:1 5:1 6:2 7:1 8:3 9:1 10:1 
0.7279958204722731 1:1223282 2:1 3:1 4:1 5:1 6:2 7:1 8:2 9:1 10:1 
0.7351902562661782 1:1223426 2:1 3:1 4:1 5:1 6:2 7:1 8:3 9:1 10:1 
0.7351902562661782 1:1223967 2:6 3:1 4:3 5:1 6:2 7:1 8:3 9:1 10:1 
0.7351902562661782 1:1224329 2:1 3:1 4:1 5:2 6:2 7:1 8:3 9:1 10:1 
0.734794092812167 1:1227244 2:1 3:1 4:1 5:1 6:2 7:1 8:2 9:1 10:1 
0.7351902562660657 1:1228311 2:1 3:1 4:1 5:1 6:1 7:1 8:3 9:1 10:1 
0.7351902562660657 1:1231706 2:8 3:4 4:6 5:3 6:3 7:1 8:4 9:3 10:1 
0.7351902562660657 1:1236043 2:3 3:3 4:2 5:1 6:3 7:1 8:3 9:6 10:1 
0.7351902562660657 1:1270479 2:5 3:1 4:3 5:3 6:2 7:2 8:2 9:3 10:1 
0.7351727812383843 1:1277018 2:2 3:1 4:1 5:1 6:2 7:1 8:3 9:1 10:1 
0.7351727812383843 1:128059 2:1 3:1 4:1 5:1 6:2 7:5 8:5 9:1 10:1 
0.7351727812383843 1:1285531 2:1 3:1 4:1 5:1 6:2 7:1 8:3 9:1 10:1 
0.7351727812383843 1:1287775 2:5 3:1 4:1 5:2 6:2 7:2 8:3 9:1 10:1 
0.7351727812383843 1:167528 2:4 3:1 4:1 5:1 6:2 7:1 8:3 9:6 10:1 
0.7243665823657504 1:183913 2:1 3:2 4:2 5:1 6:2 7:1 8:1 9:1 10:1 
0.5252893644247631 1:1017023 2:6 3:3 4:3 5:5 6:3 7:10 8:3 9:5 10:3 
0.9387811122115263 1:1198641 2:3 3:1 4:1 5:1 6:2 7:1 8:3 9:1 10:1 
0.7351727812383843 1:242970 2:5 3:7 4:7 5:1 6:5 7:8 8:3 9:4 10:1 
0.3298300416233142 1:1182404 2:5 3:1 4:4 5:1 6:2 7:1 8:3 9:2 10:1 
0.390409731843485 1:385103 2:1 3:1 4:1 5:1 6:2 7:1 8:3 9:1 10:1 
0.3958705259435941 1:411453 2:5 3:1 4:1 5:1 6:2 7:1 8:3 9:1 10:1 
0.7351511444914823 1:431495 2:3 3:1 4:1 5:1 6:2 7:1 8:3 9:2 10:1 
0.7351485499875364 1:434518 2:3 3:1 4:1 5:1 6:2 7:1 8:2 9:1 10:1 
0.7351485499875364 1:452264 2:1 3:1 4:1 5:1 6:2 7:1 8:2 9:1 10:1 
0.7351485499875364 1:456282 2:1 3:1 4:1 5:1 6:2 7:1 8:3 9:1 10:1 
0.7351485499875364 1:486283 2:3 3:1 4:1 5:1 6:2 7:1 8:3 9:1 10:1 
0.7351485499875364 1:486662 2:2 3:1 4:1 5:2 6:2 7:1 8:3 9:1 10:1 
0.7351485499875364 1:535331 2:3 3:1 4:1 5:1 6:3 7:1 8:2 9:1 10:1 
0.3758115156174723 1:560680 2:1 3:1 4:1 5:1 6:2 7:1 8:1 9:1 10:1 
0.7351485499875364 1:561477 2:1 3:1 4:1 5:1 6:2 7:1 8:3 9:1 10:1 
0.7351485499875364 1:616240 2:5 3:3 4:4 5:3 6:4 7:5 8:4 9:7 10:1 
0.7350185257964768 1:625201 2:8 3:2 4:1 5:1 6:5 7:1 8:1 9:1 10:1 
0.7350185257964768 1:636130 2:1 3:1 4:1 5:1 6:2 7:1 8:3 9:1 10:1 
0.7350185257964768 1:646904 2:1 3:1 4:1 5:1 6:2 7:1 8:3 9:1 10:1 
0.7350185257964768 1:666090 2:1 3:1 4:1 5:1 6:2 7:1 8:3 9:1 10:1 
0.7350027774039376 1:666942 2:1 3:1 4:1 5:1 6:2 7:1 8:3 9:1 10:1 
0.7350027774039376 1:673637 2:3 3:1 4:1 5:1 6:2 7:5 8:5 9:1 10:1 
0.7350027774039376 1:684955 2:2 3:1 4:1 5:1 6:3 7:1 8:2 9:1 10:1 
0.7350027774039376 1:688033 2:1 3:1 4:1 5:1 6:2 7:1 8:1 9:1 10:1 
0.734976110102234 1:693702 2:1 3:1 4:1 5:1 6:2 7:1 8:1 9:1 10:1 
0.7352591411253369 1:718641 2:1 3:1 4:1 5:1 6:5 7:1 8:3 9:1 10:1 
0.734964893423366 1:721482 2:4 3:4 4:4 5:4 6:6 7:5 8:7 9:3 10:1 
0.7352197557443412 1:733639 2:3 3:1 4:1 5:1 6:2 7:1 8:3 9:1 10:1 
0.7354136333020781 1:740492 2:1 3:1 4:1 5:1 6:2 7:1 8:3 9:1 10:1 
0.7353199399701127 1:743348 2:3 3:2 4:2 5:1 6:2 7:1 8:2 9:3 10:1 
0.7351918497372293 1:756136 2:1 3:1 4:1 5:1 6:2 7:1 8:2 9:1 10:1 
0.7354455622352754 1:764974 2:5 3:1 4:1 5:1 6:2 7:1 8:3 9:1 10:2 
0.7354170114199798 1:770066 2:5 3:2 4:2 5:2 6:2 7:1 8:2 9:2 10:1 
0.7352504325781357 1:792744 2:1 3:1 4:1 5:1 6:2 7:1 8:1 9:1 10:1 
0.375 1:798429 2:1 3:1 4:1 5:1 6:2 7:1 8:3 9:1 10:1 
0.7350734028460655 1:704097 2:1 3:1 4:1 5:1 6:1 7:1 8:2 9:1 10:1 
0.7353289265333767 1:810104 2:1 3:1 4:1 5:1 6:2 7:1 8:3 9:1 10:1 
0.7351718868197682 1:814265 2:2 3:1 4:1 5:1 6:2 7:1 8:1 9:1 10:1 
0.7350983850771109 1:814911 2:1 3:1 4:1 5:1 6:2 7:1 8:1 9:1 10:1 
0.7354143362505419 1:826923 2:1 3:1 4:1 5:1 6:2 7:1 8:1 9:1 10:1 
0.7354144595252244 1:830690 2:5 3:2 4:2 5:2 6:3 7:1 8:1 9:3 10:1 
0.7352591410609288 1:831268 2:1 3:1 4:1 5:1 6:1 7:1 8:1 9:3 10:1 
0.7351777744378424 1:836433 2:5 3:1 4:1 5:3 6:2 7:1 8:1 9:1 10:1 
0.7349226462093226 1:837082 2:2 3:1 4:1 5:1 6:2 7:1 8:3 9:1 10:1 
0.7351485499875364 1:846832 2:3 3:4 4:5 5:3 6:7 7:3 8:4 9:6 10:1 
0.7353104038684188 1:855524 2:1 3:1 4:1 5:1 6:2 7:1 8:2 9:1 10:1 
0.7354208235946988 1:857774 2:4 3:1 4:1 5:1 6:3 7:1 8:2 9:2 10:1 
0.7353808433414675 1:888169 2:3 3:2 4:2 5:1 6:4 7:3 8:2 9:1 10:1 
0.7353556065692448 1:888523 2:4 3:4 4:4 5:2 6:2 7:3 8:2 9:1 10:1 
0.7354063069770427 1:896404 2:2 3:1 4:1 5:1 6:2 7:1 8:3 9:1 10:1 
0.7352224046484571 1:897172 2:2 3:1 4:1 5:1 6:2 7:1 8:2 9:1 10:1 
0.7351777744378424 1:342245 2:1 3:1 4:3 5:1 6:2 7:1 8:1 9:1 10:1 
0.7354162586861577 1:428598 2:1 3:1 4:3 5:1 6:1 7:1 8:2 9:1 10:1 
0.7353199399701126 1:492561 2:4 3:3 4:2 5:1 6:3 7:1 8:2 9:1 10:1 
0.3832121833846633 1:493452 2:1 3:1 4:3 5:1 6:2 7:1 8:1 9:1 10:1 
0.3832121833846638 1:493452 2:4 3:1 4:2 5:1 6:2 7:1 8:2 9:1 10:1 
0.7352505190405654 1:521441 2:5 3:1 4:1 5:2 6:2 7:1 8:2 9:1 10:1 
0.3765629086160843 1:560680 2:3 3:1 4:2 5:1 6:2 7:1 8:2 9:1 10:1 
0.7350934424877942 1:636437 2:1 3:1 4:1 5:1 6:2 7:1 8:1 9:1 10:1 
0.7351646615555372 1:640712 2:1 3:1 4:1 5:1 6:2 7:1 8:2 9:1 10:1 
0.7350733234331503 1:654244 2:1 3:1 4:1 5:1 6:1 7:1 8:2 9:1 10:1 
0.7354156551098074 1:657753 2:3 3:1 4:1 5:4 6:3 7:1 8:2 9:2 10:1 
0.7351297572174001 1:685977 2:5 3:3 4:4 5:1 6:4 7:1 8:3 9:1 10:1 
0.735309066271876 1:805448 2:1 3:1 4:1 5:1 6:2 7:1 8:1 9:1 10:1 
0.7353671199423706 1:1002504 2:3 3:2 4:2 5:2 6:2 7:1 8:3 9:2 10:1 
0.7354144595252244 1:1022257 2:2 3:1 4:1 5:1 6:2 7:1 8:1 9:1 10:1 
0.7354364278777169 1:1026122 2:2 3:1 4:1 5:1 6:2 7:1 8:1 9:1 10:1 
0.7353256440113448 1:1071084 2:3 3:3 4:2 5:2 6:3 7:1 8:1 9:2 10:3 
0.3973513195582939 1:1114570 2:5 3:3 4:3 5:2 6:3 7:1 8:3 9:1 10:1 
0.3973513195582938 1:1114570 2:2 3:1 4:1 5:1 6:2 7:1 8:2 9:2 10:1 
0.7350027774039376 1:1116715 2:5 3:1 4:1 5:1 6:3 7:2 8:2 9:2 10:1 
0.7350027774039376 1:1131411 2:1 3:1 4:1 5:2 6:2 7:1 8:2 9:1 10:1 
0.7351805990835358 1:1156017 2:3 3:1 4:1 5:1 6:2 7:1 8:2 9:1 10:1 
0.3692589438829289 1:1158247 2:1 3:1 4:1 5:1 6:1 7:1 8:1 9:1 10:1 
0.734947822326026 1:1158405 2:1 3:2 4:3 5:1 6:2 7:1 8:2 9:1 10:1 
0.7349226462093226 1:1168278 2:3 3:1 4:1 5:1 6:2 7:1 8:2 9:1 10:1 
0.7349226462093226 1:1176187 2:3 3:1 4:1 5:1 6:2 7:1 8:3 9:1 10:1 
0.7349285236647148 1:1196263 2:4 3:1 4:1 5:1 6:2 7:1 8:1 9:1 10:1 
0.7349226462093226 1:1196475 2:3 3:2 4:1 5:1 6:2 7:1 8:2 9:2 10:1 
0.7349226462093226 1:1206314 2:1 3:2 4:3 5:1 6:2 7:1 8:1 9:1 10:1 
0.7348171714333361 1:1213784 2:3 3:1 4:1 5:1 6:2 7:1 8:1 9:1 10:1 
0.7352160339649482 1:1223003 2:5 3:3 4:3 5:1 6:2 7:1 8:2 9:1 10:1 
0.727971058716109 1:1223306 2:3 3:1 4:1 5:1 6:2 7:4 8:1 9:1 10:1 
0.7348171714333361 1:1223543 2:1 3:2 4:1 5:3 6:2 7:1 8:1 9:2 10:1 
0.7350646992497466 1:1229929 2:1 3:1 4:1 5:1 6:2 7:1 8:2 9:1 10:1 
0.7351745707872013 1:1231853 2:4 3:2 4:2 5:1 6:2 7:1 8:2 9:1 10:1 
0.7352357662684017 1:1234554 2:1 3:1 4:1 5:1 6:2 7:1 8:2 9:1 10:1 
0.7353520883233436 1:1236837 2:2 3:3 4:2 5:2 6:2 7:2 8:3 9:1 10:1 
0.7354455622352754 1:1237674 2:3 3:1 4:2 5:1 6:2 7:1 8:2 9:1 10:1 
0.73547782404582 1:1238021 2:1 3:1 4:1 5:1 6:2 7:1 8:2 9:1 10:1 
0.7354899766052688 1:1238915 2:5 3:1 4:2 5:1 6:2 7:1 8:3 9:1 10:1 
0.7355122993906176 1:1239232 2:3 3:3 4:2 5:6 6:3 7:3 8:3 9:5 10:1 
0.7354665118927105 1:1239967 2:1 3:1 4:1 5:1 6:2 7:1 8:2 9:1 10:1 
0.7354665119159698 1:1240337 2:5 3:2 4:2 5:2 6:2 7:2 8:3 9:2 10:2 
0.7354856492881878 1:1253505 2:2 3:3 4:1 5:1 6:5 7:1 8:1 9:1 10:1 
0.7353638091872184 1:1255384 2:3 3:2 4:2 5:3 6:2 7:3 8:3 9:1 10:1 
0.735264998086874 1:1257648 2:4 3:3 4:3 5:1 6:2 7:1 8:3 9:3 10:1 
0.7353724254426703 1:1257815 2:5 3:1 4:3 5:1 6:2 7:1 8:2 9:1 10:1 
0.7353671199423706 1:1257938 2:3 3:1 4:1 5:1 6:2 7:1 8:1 9:1 10:1 
0.7577205137845213 1:1258556 2:5 3:3 4:6 5:1 6:2 7:1 8:1 9:1 10:1 
0.7353671199423706 1:1272039 2:1 3:1 4:1 5:1 6:2 7:1 8:2 9:1 10:1 
0.388702530542809 1:1276091 2:1 3:3 4:1 5:1 6:2 7:1 8:2 9:2 10:1 
0.1286211942501447 1:1276091 2:5 3:1 4:1 5:3 6:4 7:1 8:3 9:2 10:1 
0.7353013104299067 1:1277629 2:5 3:1 4:1 5:1 6:2 7:1 8:2 9:2 10:1 
0.5667075601307868 1:1293439 2:3 3:2 4:2 5:3 6:2 7:1 8:1 9:1 10:1 
0.5661740635654308 1:1293439 2:6 3:9 4:7 5:5 6:5 7:8 8:4 9:2 10:1 
0.7355364531454518 1:527337 2:4 3:1 4:1 5:1 6:2 7:1 8:1 9:1 10:1 
0.7352694490171593 1:558538 2:4 3:1 4:3 5:3 6:2 7:1 8:1 9:1 10:1 
0.7352505190405654 1:566509 2:5 3:1 4:1 5:1 6:2 7:1 8:1 9:1 10:1 
0.7352505190423224 1:677910 2:5 3:2 4:2 5:4 6:2 7:4 8:1 9:1 10:1 
0.3812394265520908 1:734111 2:1 3:1 4:1 5:3 6:2 7:3 8:1 9:1 10:1 
0.368052887527997 1:734111 2:1 3:1 4:1 5:1 6:2 7:2 8:1 9:1 10:1 
0.7352591410609288 1:780555 2:5 3:1 4:1 5:6 6:3 7:1 8:2 9:1 10:1 
0.7352591411253369 1:827627 2:2 3:1 4:1 5:1 6:2 7:1 8:1 9:1 10:1 
0.720315946446157 1:1049837 2:1 3:1 4:1 5:1 6:2 7:1 8:1 9:1 10:1 
0.7351606484076005 1:1058849 2:5 3:1 4:1 5:1 6:2 7:1 8:1 9:1 10:1 
0.211066035063693 1:1182404 2:1 3:1 4:1 5:1 6:1 7:1 8:1 9:1 10:1 
0.7353847332475741 1:1201870 2:4 3:1 4:1 5:3 6:1 7:1 8:2 9:1 10:1 
0.7351606499779211 1:1202253 2:5 3:1 4:1 5:1 6:2 7:1 8:1 9:1 10:1 
0.7351606499779211 1:1227081 2:3 3:1 4:1 5:3 6:2 7:1 8:1 9:1 10:1 
0.7351003723755791 1:1238410 2:2 3:3 4:1 5:1 6:3 7:1 8:1 9:1 10:1 
0.7354836028847926 1:1266124 2:5 3:1 4:2 5:1 6:2 7:1 8:1 9:1 10:1 
0.7349648934233659 1:1267898 2:5 3:1 4:3 5:1 6:2 7:1 8:1 9:1 10:1 
0.7351645733840013 1:1268313 2:5 3:1 4:1 5:3 6:2 7:1 8:1 9:1 10:1 
0.7351215767288669 1:1268804 2:3 3:1 4:1 5:1 6:2 7:5 8:1 9:1 10:1 
0.3202472365347883 1:1276091 2:6 3:1 4:1 5:3 6:2 7:1 8:1 9:1 10:1 
0.734965230866056 1:1280258 2:4 3:1 4:1 5:1 6:2 7:1 8:1 9:2 10:1 
0.7349652308660561 1:1293966 2:4 3:1 4:1 5:1 6:2 7:1 8:1 9:1 10:1 
0.3816783068282981 1:1105524 2:4 3:1 4:1 5:1 6:2 7:1 8:1 9:1 10:1 
0.7349654542979838 1:1181685 2:1 3:1 4:2 5:1 6:2 7:1 8:2 9:1 10:1 
0.7348778155801454 1:1211594 2:3 3:1 4:1 5:1 6:1 7:1 8:2 9:1 10:1 
0.4085516288922835 1:1238777 2:6 3:1 4:1 5:3 6:2 7:1 8:1 9:1 10:1 
0.7354135058248046 1:1257608 2:6 3:1 4:1 5:1 6:1 7:1 8:1 9:1 10:1 
0.7348708021122834 1:1269574 2:4 3:1 4:1 5:1 6:2 7:1 8:1 9:1 10:1 
0.7347823270144606 1:1277145 2:5 3:1 4:1 5:1 6:2 7:1 8:1 9:1 10:1 
0.7347823270144647 1:1287282 2:3 3:1 4:1 5:1 6:2 7:1 8:1 9:1 10:1 
0.7350887776003239 1:1296025 2:4 3:1 4:2 5:1 6:2 7:1 8:1 9:1 10:1 
0.7350822863947425 1:1296263 2:4 3:1 4:1 5:1 6:2 7:1 8:1 9:1 10:1 
0.7390612404430175 1:1296593 2:5 3:2 4:1 5:1 6:2 7:1 8:1 9:1 10:1 
0.7351749117580213 1:1301945 2:5 3:1 4:1 5:1 6:1 7:1 8:1 9:1 10:1 
0.7351749163730406 1:1302428 2:5 3:3 4:2 5:4 6:2 7:1 8:1 9:1 10:1 
0.7351715912674213 1:787451 2:5 3:1 4:2 5:1 6:2 7:1 8:1 9:1 10:1 
0.7351715932347076 1:1002025 2:1 3:1 4:1 5:3 6:1 7:3 8:1 9:1 10:1 
0.7351388358951286 1:1070522 2:3 3:1 4:1 5:1 6:1 7:1 8:2 9:1 10:1 
0.109109069088339 1:1115293 2:1 3:1 4:1 5:1 6:2 7:1 8:1 9:1 10:1 
0.7351549427346549 1:1133991 2:4 3:1 4:1 5:1 6:1 7:1 8:2 9:1 10:1 
0.7353090652537224 1:1155967 2:5 3:1 4:2 5:10 6:4 7:5 8:2 9:1 10:1 
0.7351177926145228 1:1170945 2:3 3:1 4:1 5:1 6:1 7:1 8:2 9:1 10:1 
0.7351924305155899 1:1181567 2:1 3:1 4:1 5:1 6:1 7:1 8:1 9:1 10:1 
0.7352026276019648 1:1204558 2:4 3:1 4:1 5:1 6:2 7:1 8:2 9:1 10:1 
0.7352579299644788 1:1217952 2:4 3:1 4:1 5:1 6:2 7:1 8:2 9:1 10:1 
0.735244596385199 1:1224565 2:6 3:1 4:1 5:1 6:2 7:1 8:3 9:1 10:1 
0.7352388407609846 1:1238186 2:4 3:1 4:1 5:1 6:2 7:1 8:2 9:1 10:1 
0.7350776149625324 1:1253917 2:4 3:1 4:1 5:2 6:2 7:1 8:2 9:1 10:1 
0.7351918497372293 1:1265899 2:4 3:1 4:1 5:1 6:2 7:1 8:3 9:1 10:1 
0.7350704557648805 1:1268766 2:1 3:1 4:1 5:1 6:2 7:1 8:1 9:1 10:1 
0.7351785197860803 1:1277268 2:3 3:3 4:1 5:1 6:2 7:1 8:1 9:1 10:1 
0.7451995535860512 1:1295508 2:1 3:1 4:1 5:1 6:2 7:4 8:1 9:1 10:1 
0.7351806001405872 1:1297327 2:5 3:1 4:1 5:1 6:2 7:1 8:1 9:1 10:1 
0.7352197557443412 1:1297522 2:2 3:1 4:1 5:1 6:2 7:1 8:1 9:1 10:1 
0.7354136280325149 1:1298360 2:1 3:1 4:1 5:1 6:2 7:1 8:1 9:1 10:1 
0.3811535795999937 1:1299924 2:5 3:1 4:1 5:1 6:2 7:1 8:2 9:1 10:1 
0.7352224046484572 1:1299994 2:5 3:1 4:1 5:1 6:2 7:1 8:1 9:1 10:1 
0.735206412847394 1:1304595 2:3 3:1 4:1 5:1 6:1 7:1 8:2 9:1 10:1 
0.3680148495531138 1:1320077 2:1 3:1 4:1 5:1 6:1 7:1 8:1 9:1 10:1 
0.3702299008139512 1:1320077 2:1 3:1 4:1 5:1 6:1 7:1 8:2 9:1 10:1 
0.735206412847394 1:1320304 2:3 3:1 4:2 5:2 6:2 7:1 8:1 9:1 10:1 
0.7352091917565466 1:333093 2:1 3:1 4:1 5:1 6:3 7:1 8:1 9:1 10:1 
0.7352057379472372 1:369565 2:4 3:1 4:1 5:1 6:3 7:1 8:1 9:1 10:1 
0.7352876198843846 1:749653 2:3 3:1 4:1 5:1 6:2 7:1 8:2 9:1 10:1 
0.3649249103398883 1:769612 2:3 3:1 4:1 5:2 6:2 7:1 8:1 9:1 10:1 
0.3761446870617895 1:769612 2:4 3:1 4:1 5:1 6:2 7:1 8:1 9:1 10:1 
0.3859393860236833 1:798429 2:4 3:1 4:1 5:1 6:2 7:1 8:3 9:1 10:1 
0.7354136319805211 1:807657 2:6 3:1 4:3 5:2 6:2 7:1 8:1 9:1 10:1 
0.7354136333020882 1:8233704 2:4 3:1 4:1 5:1 6:1 7:1 8:2 9:1 10:1 
0.7354037363800378 1:867392 2:4 3:2 4:2 5:1 6:2 7:1 8:2 9:1 10:1 
0.7354165035390614 1:869828 2:1 3:1 4:1 5:1 6:1 7:1 8:3 9:1 10:1 
0.7354165035390614 1:1043068 2:3 3:1 4:1 5:1 6:2 7:1 8:2 9:1 10:1 
0.7354156551098074 1:1056171 2:2 3:1 4:1 5:1 6:2 7:1 8:2 9:1 10:1 
0.3880189741865036 1:1061990 2:1 3:1 4:3 5:2 6:2 7:1 8:3 9:1 10:1 
0.748983094806671 1:1113061 2:5 3:1 4:1 5:1 6:2 7:1 8:3 9:1 10:1 
0.3931968492965279 1:1116192 2:5 3:1 4:2 5:1 6:2 7:1 8:3 9:1 10:1 
0.7353322008251577 1:1135090 2:4 3:1 4:1 5:1 6:2 7:1 8:2 9:1 10:1 
0.7353331375318284 1:1145420 2:6 3:1 4:1 5:1 6:2 7:1 8:2 9:1 10:1 
0.7353090662718761 1:1158157 2:5 3:1 4:1 5:1 6:2 7:2 8:2 9:1 10:1 
0.7353090662718761 1:1171578 2:3 3:1 4:1 5:1 6:2 7:1 8:1 9:1 10:1 
0.7353090663127302 1:1174841 2:5 3:3 4:1 5:1 6:2 7:1 8:1 9:1 10:1 
0.7354208235946988 1:1184586 2:4 3:1 4:1 5:1 6:2 7:1 8:2 9:1 10:1 
0.7354074192040221 1:1186936 2:2 3:1 4:3 5:2 6:2 7:1 8:2 9:1 10:1 
0.7354143638899948 1:1197527 2:5 3:1 4:1 5:1 6:2 7:1 8:2 9:1 10:1 
0.3662303832851067 1:1240603 2:2 3:1 4:1 5:1 6:1 7:1 8:1 9:1 10:1 
0.3720876321300006 1:1240603 2:3 3:1 4:1 5:1 6:1 7:1 8:1 9:1 10:1 
0.735416001124378 1:1287971 2:3 3:1 4:1 5:1 6:2 7:1 8:2 9:1 10:1 
0.7353968638034331 1:1289391 2:1 3:1 4:1 5:1 6:2 7:1 8:3 9:1 10:1 
0.3881914828361927 1:1299924 2:3 3:2 4:2 5:2 6:2 7:1 8:4 9:2 10:1 
0.7353968638050421 1:1306339 2:4 3:4 4:2 5:1 6:2 7:5 8:2 9:1 10:2 
0.7353556065692448 1:1313658 2:3 3:1 4:1 5:1 6:2 7:1 8:1 9:1 10:1 
0.7353289265333767 1:1313982 2:4 3:3 4:1 5:1 6:2 7:1 8:4 9:8 10:1 
0.7351902562597101 1:1321264 2:5 3:2 4:2 5:2 6:1 7:1 8:2 9:1 10:1 
0.7331547705094282 1:1321321 2:5 3:1 4:1 5:3 6:2 7:1 8:1 9:1 10:1 
0.7330727112523869 1:1321348 2:2 3:1 4:1 5:1 6:2 7:1 8:2 9:1 10:1 
0.5299280347540376 1:1321931 2:5 3:1 4:1 5:1 6:2 7:1 8:2 9:1 10:1 
0.5309534257499148 1:1321942 2:5 3:1 4:1 5:1 6:2 7:1 8:3 9:1 10:1 
0.7345906408917615 1:1328331 2:1 3:1 4:1 5:1 6:2 7:1 8:3 9:1 10:1 
0.7350784098090983 1:1328755 2:3 3:1 4:1 5:1 6:2 7:1 8:2 9:1 10:1 
0.7732999787955512 1:1331405 2:4 3:1 4:1 5:1 6:2 7:1 8:3 9:2 10:1 
0.7354060212726552 1:1333104 2:3 3:1 4:2 5:1 6:2 7:1 8:3 9:1 10:1 
0.7354229217898416 1:1334071 2:4 3:1 4:1 5:1 6:2 7:3 8:2 9:1 10:1 
0.7242683987269558 1:183936 2:3 3:1 4:1 5:1 6:2 7:1 8:2 9:1 10:1 
0.7354996509850974 1:324382 2:1 3:1 4:1 5:1 6:2 7:1 8:2 9:1 10:1 
0.3932381696567078 1:385103 2:5 3:1 4:2 5:1 6:2 7:1 8:3 9:1 10:1 
0.7351785572750937 1:690557 2:5 3:1 4:1 5:1 6:2 7:1 8:2 9:1 10:1 
0.978094621299706 1:695091 2:1 3:1 4:1 5:1 6:2 7:1 8:2 9:1 10:1 
0.7350708439826972 1:695219 2:1 3:1 4:1 5:1 6:2 7:1 8:2 9:1 10:1 
0.735094420137729 1:824249 2:1 3:1 4:1 5:1 6:2 7:1 8:3 9:1 10:1 
0.7351388358951286 1:871549 2:5 3:1 4:2 5:1 6:2 7:1 8:2 9:1 10:1 
0.7352611103525156 1:1115762 2:3 3:1 4:1 5:1 6:2 7:1 8:1 9:1 10:1 
0.7352579299644788 1:1217717 2:5 3:1 4:1 5:6 6:3 7:1 8:1 9:1 10:1 
0.7353641308293082 1:1239420 2:1 3:1 4:1 5:1 6:2 7:1 8:1 9:1 10:1 
0.7354156551098073 1:1261751 2:5 3:1 4:1 5:1 6:2 7:1 8:2 9:2 10:1 
0.7354156551098073 1:1272166 2:5 3:1 4:1 5:1 6:2 7:1 8:1 9:1 10:1 
0.7354145194750752 1:1311875 2:5 3:1 4:2 5:1 6:2 7:1 8:1 9:1 10:1 
0.7351606499779129 1:1320141 2:5 3:1 4:1 5:1 6:2 7:1 8:2 9:1 10:1 
0.7354063069770427 1:1325309 2:4 3:1 4:2 5:1 6:2 7:1 8:2 9:1 10:1 
0.7351284101252787 1:1333063 2:5 3:1 4:3 5:1 6:2 7:1 8:3 9:1 10:1 
0.7352171554577077 1:1333495 2:3 3:1 4:1 5:1 6:2 7:1 8:2 9:1 10:1 
0.4931197807060765 1:1334659 2:5 3:2 4:4 5:1 6:1 7:1 8:1 9:1 10:1 
0.7351726550290099 1:1336798 2:3 3:1 4:1 5:1 6:2 7:1 8:2 9:1 10:1 
0.735094420137729 1:1344449 2:1 3:1 4:1 5:1 6:1 7:1 8:2 9:1 10:1 
0.7352140998767629 1:1350568 2:4 3:1 4:1 5:1 6:2 7:1 8:2 9:1 10:1 
0.735287624785715 1:353098 2:4 3:1 4:1 5:2 6:2 7:1 8:1 9:1 10:1 
0.3964585106703062 1:411453 2:1 3:1 4:1 5:1 6:2 7:1 8:1 9:1 10:1 
0.7351749163729817 1:636375 2:5 3:1 4:1 5:1 6:2 7:1 8:1 9:1 10:1 
0.7350690633631498 1:1016634 2:2 3:3 4:1 5:1 6:2 7:1 8:2 9:1 10:1 
0.7351833694794876 1:1031608 2:2 3:1 4:1 5:1 6:1 7:1 8:2 9:1 10:1 
0.7352579299644788 1:1041043 2:4 3:1 4:3 5:1 6:2 7:1 8:2 9:1 10:1 
0.7352225807030648 1:1042252 2:3 3:1 4:1 5:1 6:2 7:1 8:2 9:1 10:1 
0.3900065684312668 1:1061990 2:4 3:1 4:1 5:1 6:2 7:1 8:2 9:1 10:1 
0.7352103867680331 1:1073836 2:5 3:1 4:1 5:1 6:2 7:1 8:2 9:1 10:1 
0.7351785197860803 1:1083817 2:3 3:1 4:1 5:1 6:2 7:1 8:2 9:1 10:1 
0.7353322008251577 1:1096352 2:6 3:3 4:3 5:3 6:3 7:2 8:6 9:1 10:1 
0.7353199399701126 1:1140597 2:7 3:1 4:2 5:3 6:2 7:1 8:2 9:1 10:1 
0.7354417246316194 1:1149548 2:1 3:1 4:1 5:1 6:2 7:1 8:1 9:1 10:1 
0.7352445856874948 1:1174009 2:5 3:1 4:1 5:2 6:1 7:1 8:2 9:1 10:1 
0.7354171065051001 1:1183596 2:3 3:1 4:3 5:1 6:3 7:4 8:1 9:1 10:1 
0.7350770892566355 1:1190546 2:2 3:1 4:1 5:1 6:2 7:5 8:1 9:1 10:1 
0.735209700817097 1:1213273 2:2 3:1 4:1 5:1 6:2 7:1 8:1 9:1 10:1 
0.7354136333020882 1:1218982 2:4 3:1 4:1 5:1 6:2 7:1 8:1 9:1 10:1 
0.7354162586861577 1:1225382 2:6 3:2 4:3 5:1 6:2 7:1 8:1 9:1 10:1 
0.7351835746382025 1:1235807 2:5 3:1 4:1 5:1 6:2 7:1 8:2 9:1 10:1 
0.4096367755449691 1:1238777 2:1 3:1 4:1 5:1 6:2 7:1 8:1 9:1 10:1 
0.7349648934233659 1:1257366 2:3 3:1 4:1 5:1 6:2 7:1 8:1 9:1 10:1 
0.7349652308660561 1:1260659 2:3 3:1 4:4 5:1 6:2 7:1 8:1 9:1 10:1 
0.7348778155801454 1:1275807 2:4 3:2 4:4 5:3 6:2 7:2 8:2 9:1 10:1 
0.3743032104885173 1:1277792 2:4 3:1 4:1 5:1 6:2 7:1 8:1 9:1 10:1 
0.3752915455751374 1:1277792 2:5 3:1 4:1 5:3 6:2 7:1 8:1 9:1 10:1 
0.7348708021122834 1:1285722 2:4 3:1 4:1 5:3 6:2 7:1 8:1 9:1 10:1 
0.7347823270144647 1:1288608 2:3 3:1 4:1 5:1 6:2 7:1 8:2 9:1 10:1 
0.7351715932347076 1:1290203 2:3 3:1 4:1 5:1 6:2 7:1 8:2 9:1 10:1 
0.7351606484076005 1:1294413 2:1 3:1 4:1 5:1 6:2 7:1 8:1 9:1 10:1 
0.9739126498155675 1:1299596 2:2 3:1 4:1 5:1 6:2 7:1 8:1 9:1 10:1 
0.7351606499779211 1:1303489 2:3 3:1 4:1 5:1 6:2 7:1 8:2 9:1 10:1 
0.7351003723755791 1:1311033 2:1 3:2 4:2 5:1 6:2 7:1 8:1 9:1 10:1 
0.7352591411253369 1:1311108 2:1 3:1 4:1 5:3 6:2 7:1 8:1 9:1 10:1 
0.7352047808115328 1:1318671 2:3 3:1 4:1 5:1 6:2 7:1 8:2 9:1 10:1 
0.7353671199423706 1:1319609 2:3 3:1 4:1 5:2 6:3 7:4 8:1 9:1 10:1 
0.7353457485914149 1:1323477 2:1 3:2 4:1 5:3 6:2 7:1 8:2 9:1 10:1 
0.7353013104299067 1:1324572 2:5 3:1 4:1 5:1 6:2 7:1 8:2 9:2 10:1 
0.7352883402711038 1:1324681 2:4 3:1 4:1 5:1 6:2 7:1 8:2 9:1 10:1 
0.7354996360719159 1:1325159 2:3 3:1 4:1 5:1 6:2 7:1 8:3 9:1 10:1 
0.735496366108715 1:1326892 2:3 3:1 4:1 5:1 6:2 7:1 8:2 9:1 10:1 
0.7354143362505419 1:1330361 2:5 3:1 4:1 5:1 6:2 7:1 8:2 9:1 10:1 
0.7354171065051001 1:1333877 2:5 3:4 4:5 5:1 6:8 7:1 8:3 9:6 10:1 
0.4926752829836966 1:1334667 2:1 3:1 4:1 5:1 6:2 7:1 8:1 9:1 10:1 
0.3816783068282981 1:1339781 2:1 3:1 4:1 5:1 6:2 7:1 8:2 9:1 10:1 
0.3816783068282981 1:1339781 2:4 3:1 4:1 5:1 6:2 7:1 8:3 9:1 10:1 
0.7354165035390614 1:13454352 2:1 3:1 4:3 5:1 6:2 7:1 8:2 9:1 10:1 
0.7354165036105507 1:1345452 2:1 3:1 4:3 5:1 6:2 7:1 8:2 9:1 10:1 
0.7354208235938052 1:1345593 2:3 3:1 4:1 5:3 6:2 7:1 8:2 9:1 10:1 
0.7354136333020781 1:1347749 2:1 3:1 4:1 5:1 6:2 7:1 8:1 9:1 10:1 
0.7354136333020882 1:1347943 2:5 3:2 4:2 5:2 6:2 7:1 8:1 9:1 10:2 
0.7354136319805211 1:1348851 2:3 3:1 4:1 5:1 6:2 7:1 8:3 9:1 10:1 
0.7353322008251577 1:1353092 2:3 3:2 4:1 5:2 6:2 7:1 8:3 9:1 10:1 
0.3945612054432057 1:1354840 2:2 3:1 4:1 5:1 6:2 7:1 8:3 9:1 10:1 
0.3945612054432057 1:1354840 2:5 3:3 4:2 5:1 6:3 7:1 8:1 9:1 10:1 
0.7353199399701126 1:1355260 2:1 3:1 4:1 5:1 6:2 7:1 8:2 9:1 10:1 
0.7353339296273743 1:1365075 2:4 3:1 4:4 5:1 6:2 7:1 8:1 9:1 10:1 
0.7354417246316194 1:1365328 2:1 3:1 4:2 5:1 6:2 7:1 8:2 9:1 10:1 
0.4411142113714688 1:1368267 2:5 3:1 4:1 5:1 6:2 7:1 8:1 9:1 10:1 
0.4410965032808659 1:1368273 2:1 3:1 4:1 5:1 6:2 7:1 8:1 9:1 10:1 
0.7353208396643256 1:1368882 2:2 3:1 4:1 5:1 6:2 7:1 8:1 9:1 10:1 
0.7353090663127302 1:1371920 2:5 3:1 4:1 5:1 6:2 7:1 8:3 9:2 10:1 
0.7352876198843846 1:466906 2:1 3:1 4:1 5:1 6:2 7:1 8:1 9:1 10:1 
0.7352140998767629 1:534555 2:1 3:1 4:1 5:1 6:2 7:1 8:1 9:1 10:1 
0.735209700817097 1:536708 2:1 3:1 4:1 5:1 6:2 7:1 8:1 9:1 10:1 
0.7352092559750379 1:566346 2:3 3:1 4:1 5:1 6:2 7:1 8:2 9:3 10:1 
0.7352224046484572 1:603148 2:4 3:1 4:1 5:1 6:2 7:1 8:1 9:1 10:1 
0.442482439269287 1:654546 2:1 3:1 4:1 5:1 6:2 7:1 8:1 9:1 10:8 
0.4422883110879972 1:654546 2:1 3:1 4:1 5:3 6:2 7:1 8:1 9:1 10:1 
0.7352057379472372 1:714039 2:3 3:1 4:1 5:1 6:2 7:1 8:1 9:1 10:1 
0.7352226651458436 1:763235 2:3 3:1 4:1 5:1 6:2 7:1 8:2 9:1 10:2 
0.7352091917565466 1:776715 2:3 3:1 4:1 5:1 6:3 7:2 8:1 9:1 10:1 
0.735208875542859 1:841769 2:2 3:1 4:1 5:1 6:2 7:1 8:1 9:1 10:1 
-1.264744573593974 1:1017122 2:8 3:10 4:10 5:8 6:7 7:10 8:9 9:7 10:1 
-1.264761159239015 1:1041801 2:5 3:3 4:3 5:3 6:2 7:3 8:4 9:4 10:1 
-1.264761159239015 1:1044572 2:8 3:7 4:5 5:10 6:7 7:9 8:5 9:5 10:4 
-1.264558275368381 1:1047630 2:7 3:4 4:6 5:4 6:6 7:1 8:4 9:3 10:1 
-1.264789615582892 1:1050670 2:10 3:7 4:7 5:6 6:4 7:10 8:4 9:1 10:2 
-0.9458502359463856 1:1054590 2:7 3:3 4:2 5:10 6:5 7:10 8:5 9:4 10:4 
-0.9454769141267645 1:1054593 2:10 3:5 4:5 5:3 6:6 7:7 8:7 9:10 10:1 
-1.264808150262771 1:1065726 2:5 3:2 4:3 5:4 6:2 7:7 8:3 9:6 10:1 
-1.264755403614801 1:1072179 2:10 3:7 4:7 5:3 6:8 7:5 8:7 9:4 10:3 
-1.264488597469837 1:1080185 2:10 3:10 4:10 5:8 6:6 7:1 8:8 9:9 10:1 
-1.264828408732579 1:1084584 2:5 3:4 4:4 5:9 6:2 7:10 8:5 9:6 10:1 
-1.2648702427826 1:1091262 2:2 3:5 4:3 5:3 6:6 7:7 8:7 9:5 10:1 
-1.264923370921459 1:1099510 2:10 3:4 4:3 5:1 6:3 7:3 8:6 9:5 10:2 
-1.264916650784146 1:1102573 2:5 3:6 4:5 5:6 6:10 7:1 8:3 9:1 10:1 
-1.264911222399676 1:1103608 2:10 3:10 4:10 5:4 6:8 7:1 8:8 9:10 10:1 
-1.264502152307913 1:1105257 2:3 3:7 4:7 5:4 6:4 7:9 8:4 9:8 10:1 
-1.264523472710894 1:1106829 2:7 3:8 4:7 5:2 6:4 7:8 8:3 9:8 10:2 
-1.264528139422611 1:1108370 2:9 3:5 4:8 5:1 6:2 7:3 8:2 9:1 10:5 
-1.264642501079948 1:1108449 2:5 3:3 4:3 5:4 6:2 7:4 8:3 9:4 10:1 
-1.264689596131581 1:1110102 2:10 3:3 4:6 5:2 6:3 7:5 8:4 9:10 10:2 
-1.242584508440892 1:1110503 2:5 3:5 4:5 5:8 6:10 7:8 8:7 9:3 10:7 
-1.242229981753018 1:1110524 2:10 3:5 4:5 5:6 6:8 7:8 8:7 9:1 10:1 
-1.264689596131581 1:1111249 2:10 3:6 4:6 5:3 6:4 7:5 8:3 9:6 10:1 
-1.264689596131581 1:1112209 2:8 3:10 4:10 5:1 6:3 7:6 8:3 9:9 10:1 
-1.272728023371023 1:1113038 2:8 3:2 4:4 5:1 6:5 7:1 8:5 9:4 10:4 
-1.264689596131581 1:1113483 2:5 3:2 4:3 5:1 6:6 7:10 8:5 9:1 10:1 
-1.264809743733822 1:1113906 2:9 3:5 4:5 5:2 6:2 7:2 8:5 9:1 10:1 
-1.384372340655504 1:1115282 2:5 3:3 4:5 5:5 6:3 7:3 8:4 9:10 10:1 
-1.227578503955946 1:1116132 2:6 3:3 4:4 5:1 6:5 7:2 8:3 9:9 10:1 
-1.264809743733822 1:1116998 2:10 3:4 4:2 5:1 6:3 7:2 8:4 9:3 10:10 
-1.264809743733822 1:1118039 2:5 3:3 4:4 5:1 6:8 7:10 8:4 9:9 10:1 
-1.264809743733822 1:1120559 2:8 3:3 4:8 5:3 6:4 7:9 8:8 9:9 10:8 
-1.264809743733934 1:1123061 2:6 3:10 4:2 5:8 6:10 7:2 8:7 9:8 10:10 
-1.264809743733934 1:1125035 2:9 3:4 4:5 5:10 6:6 7:10 8:4 9:8 10:1 
-1.264827218761616 1:1126417 2:10 3:6 4:4 5:1 6:3 7:4 8:3 9:2 10:3 
-1.264514347338476 1:1147699 2:3 3:5 4:7 5:8 6:8 7:9 8:7 9:10 10:7 
-1.264685948514784 1:1147748 2:5 3:10 4:6 5:1 6:10 7:4 8:4 9:10 10:10 
-1.264827218761616 1:1148278 2:3 3:3 4:6 5:4 6:5 7:8 8:4 9:4 10:1 
-1.264827218761616 1:1148873 2:3 3:6 4:6 5:6 6:5 7:10 8:6 9:8 10:3 
-1.264848855508518 1:1165926 2:9 3:6 4:9 5:2 6:10 7:6 8:2 9:9 10:10 
-1.260903038795298 1:1166630 2:7 3:5 4:6 5:10 6:5 7:10 8:7 9:9 10:4 
-1.260958536228341 1:1166654 2:10 3:3 4:5 5:1 6:10 7:5 8:3 9:10 10:2 
-1.265380841567223 1:1167439 2:2 3:3 4:4 5:4 6:2 7:5 8:2 9:5 10:1 
-1.264851450012463 1:1168359 2:8 3:2 4:3 5:1 6:6 7:3 8:7 9:1 10:1 
-1.166013036984312 1:1168736 2:10 3:10 4:10 5:10 6:10 7:1 8:8 9:8 10:8 
-1.264851450012463 1:1169049 2:7 3:3 4:4 5:4 6:3 7:3 8:3 9:2 10:7 
-1.014433240844103 1:1170419 2:10 3:10 4:10 5:8 6:2 7:10 8:4 9:1 10:1 
-1.01438360319244 1:1170420 2:1 3:6 4:8 5:10 6:8 7:10 8:5 9:7 10:1 
-1.543656422963265 1:1171710 2:6 3:5 4:4 5:4 6:3 7:9 8:7 9:8 10:3 
-1.264579177249868 1:1171845 2:8 3:6 4:4 5:3 6:5 7:9 8:3 9:1 10:1 
-1.264736867277607 1:1172152 2:10 3:3 4:3 5:10 6:2 7:10 8:7 9:3 10:3 
-1.269458674874317 1:1173216 2:10 3:10 4:10 5:3 6:10 7:8 8:8 9:1 10:1 
-1.349795051911199 1:1173509 2:4 3:5 4:5 5:10 6:4 7:10 8:7 9:5 10:8 
-1.264851450012463 1:1174131 2:10 3:10 4:10 5:2 6:10 7:10 8:5 9:3 10:3 
-1.264851450012463 1:1174428 2:5 3:3 4:5 5:1 6:8 7:10 8:5 9:3 10:1 
-1.26493678025137 1:1175937 2:5 3:4 4:6 5:7 6:9 7:7 8:8 9:10 10:1 
-1.264927025759863 1:1176881 2:7 3:5 4:3 5:7 6:4 7:10 8:7 9:5 10:5 
-1.264913608572705 1:1177399 2:8 3:3 4:5 5:4 6:5 7:10 8:1 9:6 10:2 
-1.264901614922889 1:1180194 2:5 3:10 4:8 5:10 6:8 7:10 8:3 9:6 10:3 
-1.264966303500276 1:1183983 2:9 3:5 4:5 5:4 6:4 7:5 8:4 9:3 10:3 
-2 1:1185609 2:3 3:4 4:5 5:2 6:6 7:8 8:4 9:1 10:1 
-1.264791124457141 1:1187805 2:8 3:8 4:7 5:4 6:10 7:10 8:7 9:8 10:7 
-1.252397290929359 1:1189266 2:7 3:2 4:4 5:1 6:6 7:10 8:5 9:4 10:3 
-1.252454537929811 1:1189286 2:10 3:10 4:8 5:6 6:4 7:5 8:8 9:10 10:1 
-1.265217672985535 1:1192325 2:5 3:5 4:5 5:6 6:3 7:10 8:3 9:1 10:1 
-1.264936357405866 1:1196295 2:9 3:9 4:10 5:3 6:6 7:10 8:7 9:10 10:6 
-1.264742070035521 1:1196915 2:10 3:7 4:7 5:4 6:5 7:10 8:5 9:7 10:2 
-1.283348462681412 1:1197993 2:5 3:6 4:7 5:8 6:8 7:10 8:3 9:10 10:3 
-1.264777419296935 1:1198128 2:10 3:8 4:10 5:10 6:6 7:1 8:3 9:1 10:10 
-1.264737030085047 1:1200847 2:6 3:10 4:10 5:10 6:8 7:10 8:10 9:10 10:7 
-1.264788462417844 1:1200892 2:8 3:6 4:5 5:4 6:3 7:10 8:6 9:1 10:1 
-1.264667001101687 1:1200952 2:5 3:8 4:7 5:7 6:10 7:10 8:5 9:7 10:1 
-1.264743549008043 1:1201936 2:5 3:10 4:10 5:3 6:8 7:1 8:5 9:10 10:3 
-1.265035258303935 1:1202812 2:5 3:3 4:3 5:3 6:6 7:10 8:3 9:1 10:1 
-1.264690933689943 1:1205138 2:5 3:8 4:8 5:8 6:5 7:10 8:7 9:8 10:1 
-1.264886254577498 1:1205579 2:8 3:7 4:6 5:4 6:4 7:10 8:5 9:1 10:1 
-1.265291532667288 1:1206695 2:1 3:5 4:8 5:6 6:5 7:8 8:7 9:10 10:1 
-1.264981474203523 1:1206841 2:10 3:5 4:6 5:10 6:6 7:10 8:7 9:7 10:10 
-1.264981474203523 1:1207986 2:5 3:8 4:4 5:10 6:5 7:8 8:9 9:10 10:1 
-1.264997222596062 1:1210963 2:10 3:10 4:10 5:8 6:6 7:8 8:7 9:10 10:1 
-1.264665194302152 1:1211202 2:7 3:5 4:10 5:10 6:10 7:10 8:4 9:10 10:3 
-1.264997222596062 1:1214966 2:9 3:7 4:7 5:5 6:5 7:10 8:7 9:8 10:3 
-1.264997222596062 1:1216694 2:10 3:8 4:8 5:4 6:10 7:10 8:8 9:1 10:1 
-1.265052177673974 1:1218105 2:5 3:10 4:10 5:9 6:6 7:10 8:7 9:10 10:5 
-1.265077353790677 1:1218741 2:10 3:10 4:9 5:3 6:7 7:5 8:3 9:5 10:1 
-1.265077353790677 1:1219525 2:8 3:10 4:10 5:10 6:5 7:10 8:8 9:10 10:6 
-1.265182828566664 1:1219859 2:8 3:10 4:8 5:8 6:4 7:8 8:7 9:7 10:1 
-1.264554437764725 1:1221863 2:10 3:10 4:10 5:10 6:7 7:10 8:7 9:10 10:4 
-1.264484740742164 1:1222047 2:10 3:10 4:10 5:10 6:3 7:10 8:10 9:6 10:1 
-1.264619084165694 1:1222936 2:8 3:7 4:8 5:7 6:5 7:5 8:5 9:10 10:2 
-1.264514350692226 1:1223793 2:6 3:10 4:7 5:7 6:6 7:4 8:8 9:10 10:2 
-1.264500364014865 1:1225799 2:10 3:6 4:4 5:3 6:10 7:10 8:9 9:10 10:1 
-1.264625694072144 1:1226012 2:4 3:1 4:1 5:3 6:1 7:5 8:2 9:1 10:1 
-1.265448559808349 1:1226612 2:7 3:5 4:6 5:3 6:3 7:8 8:7 9:4 10:1 
-1.264912470751772 1:1227210 2:10 3:5 4:5 5:6 6:3 7:10 8:7 9:9 10:2 
-1.264632879535132 1:1227481 2:10 3:5 4:7 5:4 6:4 7:10 8:8 9:9 10:1 
-1.264749480957677 1:1228152 2:8 3:9 4:9 5:5 6:3 7:5 8:7 9:7 10:1 
-1.264743549008043 1:1230175 2:10 3:10 4:10 5:3 6:10 7:10 8:9 9:10 10:1 
-1.264740858874663 1:1230688 2:7 3:4 4:7 5:4 6:3 7:7 8:7 9:6 10:1 
-1.264873916232696 1:1231387 2:6 3:8 4:7 5:5 6:6 7:8 8:8 9:9 10:2 
-1.2648393739872 1:1232225 2:10 3:4 4:5 5:5 6:5 7:10 8:4 9:1 10:1 
-1.265035258303935 1:1241559 2:10 3:8 4:8 5:2 6:8 7:10 8:4 9:8 10:10 
-1.265035106576634 1:1241679 2:9 3:8 4:8 5:5 6:6 7:2 8:4 9:10 10:4 
-1.265448559808349 1:1242364 2:8 3:10 4:10 5:8 6:6 7:9 8:3 9:10 10:10 
-1.264904669996201 1:1243256 2:10 3:4 4:3 5:2 6:3 7:10 8:5 9:3 10:2 
-1.264904484881602 1:144888 2:8 3:10 4:10 5:8 6:5 7:10 8:7 9:8 10:1 
-1.264910524010511 1:145447 2:8 3:4 4:4 5:1 6:2 7:9 8:3 9:3 10:1 
-1.264923370921459 1:191250 2:10 3:4 4:4 5:10 6:2 7:10 8:5 9:3 10:3 
-1.264767850532027 1:1100524 2:6 3:10 4:10 5:2 6:8 7:10 8:7 9:3 10:3 
-1.227172666898022 1:1116116 2:9 3:10 4:10 5:1 6:10 7:8 8:3 9:3 10:1 
-1.165915665111473 1:1168736 2:5 3:6 4:6 5:2 6:4 7:10 8:3 9:6 10:1 
-1.264809856247462 1:255644 2:10 3:5 4:8 5:10 6:3 7:10 8:5 9:1 10:3 
-1.264816425361798 1:263538 2:5 3:10 4:10 5:6 6:10 7:10 8:10 9:6 10:5 
-1.264789613231967 1:274137 2:8 3:8 4:9 5:4 6:5 7:10 8:7 9:8 10:1 
-1.264789613231967 1:303213 2:10 3:4 4:4 5:10 6:6 7:10 8:5 9:5 10:1 
-1.265217672985535 1:314428 2:7 3:9 4:4 5:10 6:10 7:3 8:5 9:3 10:3 
-1.40121549754782 1:1198641 2:10 3:10 4:6 5:3 6:3 7:10 8:4 9:3 10:2 
-1.26463288828195 1:324427 2:10 3:8 4:8 5:2 6:3 7:4 8:8 9:7 10:8 
-1.264772941210417 1:390840 2:8 3:4 4:7 5:1 6:3 7:10 8:3 9:9 10:2 
-1.26458636669783 1:320675 2:3 3:3 4:5 5:2 6:3 7:10 8:7 9:1 10:1 
-1.264596450548963 1:428903 2:7 3:2 4:4 5:1 6:3 7:4 8:3 9:3 10:1 
-1.264585480524925 1:476903 2:10 3:5 4:7 5:3 6:3 7:7 8:3 9:3 10:8 
-1.264667001102007 1:488173 2:1 3:4 4:3 5:10 6:4 7:10 8:5 9:6 10:1 
-1.264680060029887 1:492268 2:10 3:4 4:6 5:1 6:2 7:10 8:5 9:3 10:1 
-1.264596450548963 1:508234 2:7 3:4 4:5 5:10 6:2 7:10 8:3 9:8 10:2 
-1.265003634700036 1:527363 2:8 3:10 4:10 5:10 6:8 7:10 8:10 9:7 10:3 
-1.264579176405301 1:529329 2:10 3:10 4:10 5:10 6:10 7:10 8:4 9:10 10:10 
-1.264816005146014 1:543558 2:6 3:1 4:3 5:1 6:4 7:5 8:5 9:10 10:1 
-1.264750578834898 1:555977 2:5 3:6 4:6 5:8 6:6 7:10 8:4 9:10 10:4 
-1.264923034857494 1:601265 2:10 3:4 4:4 5:6 6:2 7:10 8:2 9:3 10:1 
-1.264926552712763 1:606722 2:5 3:5 4:7 5:8 6:6 7:10 8:7 9:4 10:1 
-1.264736867277607 1:63375 2:9 3:1 4:2 5:6 6:4 7:10 8:7 9:7 10:2 
-1.264899627624421 1:635844 2:8 3:4 4:10 5:5 6:4 7:4 8:7 9:10 10:1 
-1.264667558579135 1:640744 2:10 3:10 4:10 5:7 6:9 7:10 8:7 9:10 10:10 
-1.264750578834898 1:653777 2:8 3:3 4:4 5:9 6:3 7:10 8:3 9:3 10:1 
-1.264562752201026 1:659642 2:10 3:8 4:4 5:4 6:4 7:10 8:3 9:10 10:4 
-1.264554437764725 1:667204 2:7 3:8 4:7 5:6 6:4 7:3 8:8 9:8 10:4 
-1.264777595351543 1:691628 2:8 3:6 4:4 5:10 6:10 7:1 8:3 9:5 10:1 
-1.264674355988655 1:706426 2:5 3:5 4:5 5:2 6:5 7:10 8:4 9:3 10:1 
-1.264805535533473 1:709287 2:6 3:8 4:7 5:8 6:6 7:8 8:8 9:9 10:1 
-1.264761159239015 1:730881 2:7 3:6 4:3 5:2 6:5 7:10 8:7 9:4 10:6 
-1.264690933728124 1:733823 2:5 3:4 4:6 5:10 6:2 7:10 8:4 9:1 10:1 
-1.264577078215229 1:752904 2:10 3:1 4:1 5:1 6:2 7:10 8:5 9:4 10:1 
-1.264583496398266 1:760001 2:8 3:10 4:3 5:2 6:6 7:4 8:3 9:10 10:1 
-1.264563572122283 1:760239 2:10 3:4 4:6 5:4 6:5 7:10 8:7 9:1 10:1 
-1.264913608572705 1:76389 2:10 3:4 4:7 5:2 6:2 7:8 8:6 9:1 10:1 
-1.265448559808349 1:785208 2:5 3:4 4:6 5:6 6:4 7:10 8:4 9:3 10:1 
-1.26492657127667 1:785615 2:8 3:6 4:7 5:3 6:3 7:10 8:3 9:4 10:2 
-1.264966303500276 1:797327 2:6 3:5 4:5 5:8 6:4 7:10 8:3 9:4 10:1 
-1.265035258303935 1:806423 2:8 3:5 4:5 5:5 6:2 7:10 8:4 9:3 10:1 
-1.264730550982841 1:809912 2:10 3:3 4:3 5:1 6:2 7:10 8:7 9:6 10:1 
-0.9620745554701605 1:822829 2:7 3:6 4:4 5:8 6:10 7:10 8:9 9:5 10:3 
-1.264749480959435 1:832226 2:3 3:4 4:4 5:10 6:5 7:1 8:3 9:3 10:1 
-1.26453348808403 1:832567 2:4 3:2 4:3 5:5 6:3 7:8 8:7 9:6 10:1 
-1.264583741313842 1:850831 2:2 3:7 4:10 5:10 6:7 7:10 8:4 9:9 10:4 
-1.264593757705796 1:859164 2:5 3:3 4:3 5:1 6:3 7:3 8:3 9:3 10:3 
-1.264596263619962 1:859350 2:8 3:10 4:10 5:7 6:10 7:10 8:7 9:3 10:8 
-1.264667001102007 1:866325 2:8 3:10 4:5 5:3 6:8 7:4 8:4 9:10 10:3 
-1.264680060029888 1:873549 2:10 3:3 4:5 5:4 6:3 7:7 8:3 9:5 10:3 
-1.264690933728124 1:877291 2:6 3:10 4:10 5:10 6:10 7:10 8:8 9:10 10:10 
-1.264690933728124 1:877943 2:3 3:10 4:3 5:10 6:6 7:10 8:5 9:1 10:4 
-1.264777419296935 1:95719 2:6 3:10 4:10 5:10 6:8 7:10 8:7 9:10 10:7 
-1.264777419296935 1:160296 2:5 3:8 4:8 5:10 6:5 7:10 8:8 9:10 10:3 
-1.264793587152606 1:846423 2:10 3:6 4:3 5:6 6:4 7:10 8:7 9:8 10:4 
-1.264741112650353 1:1080233 2:7 3:6 4:6 5:3 6:2 7:10 8:7 9:1 10:1 
-1.264808150262771 1:1151734 2:10 3:8 4:7 5:4 6:3 7:10 8:7 9:9 10:1 
-1.264680060029876 1:1211265 2:3 3:10 4:8 5:7 6:6 7:9 8:9 9:3 10:8 
-1.264777334854156 1:1238633 2:10 3:10 4:10 5:6 6:8 7:4 8:8 9:5 10:1 
-1.265006392322148 1:1238948 2:8 3:5 4:6 5:2 6:3 7:10 8:6 9:6 10:1 
-1.264809856247462 1:1239347 2:8 3:7 4:8 5:5 6:10 7:10 8:7 9:2 10:1 
-1.264574666116865 1:1257200 2:10 3:10 4:10 5:7 6:10 7:10 8:8 9:2 10:1 
-1.277855047194516 1:1258549 2:9 3:10 4:10 5:10 6:10 7:10 8:10 9:10 10:1 
-1.264781234889135 1:1266154 2:8 3:7 4:8 5:2 6:4 7:2 8:5 9:10 10:1 
-1.264828408732579 1:1294562 2:10 3:8 4:10 5:1 6:3 7:10 8:5 9:1 10:1 
-1.264523472710894 1:1295186 2:10 3:10 4:10 5:1 6:6 7:1 8:2 9:8 10:1 
-1.264689596131581 1:608157 2:10 3:4 4:3 5:10 6:4 7:10 8:10 9:1 10:1 
-1.264689596131581 1:1193544 2:5 3:7 4:9 5:8 6:6 7:10 8:8 9:10 10:1 
-1.264809743733822 1:1230994 2:4 3:5 4:5 5:8 6:6 7:10 8:10 9:7 10:1 
-1.264809743733822 1:1246562 2:10 3:2 4:2 5:1 6:2 7:6 8:1 9:1 10:2 
-1.264809743733934 1:1257470 2:10 3:6 4:5 5:8 6:5 7:10 8:8 9:6 10:1 
-1.264658799125934 1:1259008 2:8 3:8 4:9 5:6 6:6 7:3 8:10 9:10 10:1 
-1.267093207607687 1:1296572 2:10 3:9 4:8 5:7 6:6 7:4 8:7 9:10 10:3 
-1.265034769135362 1:1298416 2:10 3:6 4:6 5:2 6:4 7:10 8:9 9:7 10:1 
-1.42804171469775 1:1299596 2:6 3:6 4:6 5:5 6:4 7:10 8:7 9:6 10:2 
-1.264827218761616 1:1299161 2:4 3:8 4:7 5:10 6:4 7:10 8:7 9:5 10:1 
-1.264827218761616 1:1318169 2:9 3:10 4:10 5:10 6:10 7:5 8:10 9:10 10:10 
-1.264851450012463 1:474162 2:8 3:7 4:8 5:5 6:5 7:10 8:9 9:10 10:1 
-1.264851450012463 1:1073960 2:10 3:10 4:10 5:10 6:6 7:10 8:8 9:1 10:5 
-1.264981474203523 1:1076352 2:3 3:6 4:4 5:10 6:3 7:3 8:3 9:4 10:1 
-1.264997222596062 1:1084139 2:6 3:3 4:2 5:1 6:3 7:4 8:4 9:1 10:1 
-1.264997222596062 1:1119189 2:5 3:8 4:9 5:4 6:3 7:10 8:7 9:1 10:1 
-1.265077353790677 1:1142706 2:5 3:10 4:10 5:10 6:6 7:10 8:6 9:5 10:2 
-1.264596450548963 1:1286943 2:8 3:10 4:10 5:10 6:7 7:5 8:4 9:8 10:7 
-1.265217672986477 1:1306282 2:6 3:6 4:7 5:10 6:3 7:10 8:8 9:10 10:2 
-1.264500363928084 1:1313325 2:4 3:10 4:4 5:7 6:3 7:10 8:9 9:10 10:1 
-1.264608391435456 1:1330439 2:4 3:7 4:8 5:3 6:4 7:10 8:9 9:1 10:1 
-1.264839368989282 1:412300 2:10 3:4 4:5 5:4 6:3 7:5 8:7 9:3 10:1 
-1.265448559808349 1:672113 2:7 3:5 4:6 5:10 6:4 7:10 8:5 9:3 10:1 
-1.264923370921459 1:837480 2:7 3:4 4:4 5:3 6:4 7:10 8:6 9:9 10:1 
-1.264932520327396 1:1222464 2:6 3:10 4:10 5:10 6:4 7:10 8:7 9:10 10:1 
-1.264904484881602 1:1241035 2:7 3:8 4:3 5:7 6:4 7:5 8:7 9:8 10:2 
-1.287718347078954 1:1331412 2:5 3:7 4:10 5:10 6:5 7:10 8:10 9:10 10:1 
-1.264812951219652 1:1343068 2:8 3:4 4:4 5:1 6:6 7:10 8:2 9:5 10:2 
-1.264916650784146 1:1343374 2:10 3:10 4:8 5:10 6:6 7:5 8:10 9:3 10:1 
-1.264577586175677 1:1344121 2:8 3:10 4:4 5:4 6:8 7:10 8:8 9:2 10:1 
-1.264776936679191 1:142932 2:7 3:6 4:10 5:5 6:3 7:10 8:9 9:10 10:2 
-1.264579176405301 1:378275 2:10 3:9 4:7 5:3 6:4 7:2 8:7 9:7 10:1 
-1.264584165767571 1:878358 2:5 3:7 4:10 5:6 6:5 7:10 8:7 9:5 10:1 
-1.264825088241979 1:1107684 2:6 3:10 4:5 5:5 6:4 7:10 8:6 9:10 10:1 
-1.265035258303935 1:1254538 2:8 3:10 4:10 5:10 6:6 7:10 8:10 9:10 10:1 
-1.264588661077857 1:1268275 2:9 3:8 4:8 5:9 6:6 7:3 8:4 9:1 10:1 
-1.264665194302163 1:1294261 2:4 3:10 4:8 5:5 6:4 7:1 8:10 9:1 10:1 
-1.270656773311093 1:1295529 2:2 3:5 4:7 5:6 6:4 7:10 8:7 9:6 10:1 
-1.264690933728124 1:1298484 2:10 3:3 4:4 5:5 6:3 7:10 8:4 9:1 10:1 
-1.264828408732579 1:1315506 2:4 3:8 4:6 5:3 6:4 7:10 8:7 9:1 10:1 
-1.265035258303935 1:1352663 2:5 3:4 4:6 5:8 6:4 7:1 8:8 9:10 10:1 
-1.264749480957677 1:188336 2:5 3:3 4:2 5:8 6:5 7:10 8:8 9:1 10:2 
-1.264596450548963 1:352431 2:10 3:5 4:10 5:3 6:5 7:8 8:7 9:8 10:3 
-1.264777595351543 1:557583 2:5 3:10 4:10 5:10 6:10 7:10 8:10 9:1 10:1 
-1.264793587152606 1:736150 2:10 3:4 4:3 5:10 6:3 7:10 8:7 9:1 10:2 
-1.264689596131581 1:803531 2:5 3:10 4:10 5:10 6:5 7:2 8:8 9:5 10:1 
-0.9622023437522272 1:822829 2:8 3:10 4:10 5:10 6:6 7:10 8:10 9:10 10:10 
-1.410437869924928 1:1190386 2:4 3:6 4:6 5:5 6:7 7:6 8:7 9:7 10:3 
-1.264760319852748 1:1253955 2:8 3:7 4:4 5:4 6:5 7:3 8:5 9:10 10:1 
-1.264809743733822 1:1268952 2:10 3:10 4:7 5:8 6:7 7:1 8:10 9:10 10:3 
-1.264579176405301 1:1315807 2:5 3:10 4:10 5:10 6:10 7:2 8:10 9:10 10:10 
-1.264583496392405 1:1334015 2:7 3:8 4:8 5:7 6:3 7:10 8:7 9:2 10:3 
-1.264809743733934 1:1350319 2:5 3:7 4:4 5:1 6:6 7:1 8:7 9:10 10:3 
-1.264827218761616 1:1350423 2:5 3:10 4:10 5:8 6:5 7:5 8:7 9:10 10:1 
-1.264851450012463 1:1352848 2:3 3:10 4:7 5:8 6:5 7:8 8:7 9:4 10:1 
-1.264981474203523 1:1369821 2:10 3:10 4:10 5:10 6:5 7:10 8:10 9:10 10:7 
-1.264606990445821 1:1371026 2:5 3:10 4:10 5:10 6:4 7:10 8:5 9:6 10:3 
-1.431174480083112 1:695091 2:5 3:10 4:10 5:5 6:4 7:5 8:4 9:4 10:1 
-1.264997222596062 1:888820 2:5 3:10 4:10 5:3 6:7 7:3 8:8 9:10 10:2 
-0.6597788838682831 1:897471 2:4 3:8 4:6 5:4 6:3 7:4 8:10 9:6 10:1 
-0.6597788838682829 1:897471 2:4 3:8 4:8 5:5 6:4 7:5 8:10 9:4 10:1 
