svm_type c_svc
kernel_type rbf
gamma 3.05176e-05
nr_class 2
total_sv 417
rho 0.801489
label 1 -1
nr_sv 209 208
SV
8 1:10 2:115 3:0 4:0 5:0 6:35.299999 7:0.134 8:29 
8 1:4 2:110 3:92 4:0 5:0 6:37.599998 7:0.191 8:30 
8 1:10 2:139 3:80 4:0 5:0 6:27.1 7:1.441 8:57 
8 1:1 2:103 3:30 4:38 5:83 6:43.299999 7:0.183 8:33 
8 1:3 2:126 3:88 4:41 5:235 6:39.299999 7:0.704 8:27 
8 1:8 2:99 3:84 4:0 5:0 6:35.400002 7:0.388 8:50 
8 1:13 2:145 3:82 4:19 5:110 6:22.200001 7:0.245 8:57 
8 1:5 2:117 3:92 4:0 5:0 6:34.099998 7:0.337 8:38 
8 1:5 2:109 3:75 4:26 5:0 6:36 7:0.546 8:60 
8 1:10 2:122 3:78 4:31 5:0 6:27.6 7:0.512 8:45 
8 1:11 2:138 3:76 4:0 5:0 6:33.200001 7:0.42 8:35 
8 1:3 2:180 3:64 4:25 5:70 6:34 7:0.271 8:26 
8 1:7 2:133 3:84 4:0 5:0 6:40.200001 7:0.696 8:37 
8 1:7 2:159 3:64 4:0 5:0 6:27.4 7:0.294 8:40 
8 1:1 2:146 3:56 4:0 5:0 6:29.700001 7:0.564 8:29 
8 1:7 2:150 3:66 4:42 5:342 6:34.700001 7:0.718 8:42 
8 1:0 2:100 3:88 4:60 5:110 6:46.799999 7:0.962 8:31 
8 1:0 2:146 3:82 4:0 5:0 6:40.5 7:1.781 8:44 
6.983152309797261 1:0 2:105 3:64 4:41 5:142 6:41.5 7:0.173 8:22 
8 1:2 2:141 3:58 4:34 5:128 6:25.4 7:0.699 8:24 
8 1:2 2:109 3:92 4:0 5:0 6:42.700001 7:0.845 8:54 
8 1:4 2:146 3:85 4:27 5:100 6:28.9 7:0.189 8:27 
8 1:5 2:139 3:64 4:35 5:140 6:28.6 7:0.411 8:26 
8 1:5 2:95 3:72 4:33 5:0 6:37.700001 7:0.37 8:27 
8 1:13 2:106 3:72 4:54 5:0 6:36.599998 7:0.178 8:45 
8 1:4 2:123 3:80 4:15 5:176 6:32 7:0.443 8:34 
8 1:7 2:81 3:78 4:40 5:48 6:46.700001 7:0.261 8:42 
8 1:2 2:142 3:82 4:18 5:64 6:24.700001 7:0.761 8:21 
8 1:6 2:144 3:72 4:27 5:228 6:33.900002 7:0.255 8:40 
8 1:1 2:151 3:60 4:0 5:0 6:26.1 7:0.179 8:22 
8 1:4 2:144 3:58 4:28 5:140 6:29.5 7:0.287 8:37 
8 1:6 2:111 3:64 4:39 5:0 6:34.200001 7:0.26 8:24 
8 1:5 2:132 3:80 4:0 5:0 6:26.799999 7:0.186 8:69 
8 1:3 2:120 3:70 4:30 5:135 6:42.900002 7:0.452 8:30 
8 1:8 2:84 3:74 4:31 5:0 6:38.299999 7:0.457 8:39 
8 1:2 2:125 3:60 4:20 5:140 6:33.799999 7:0.088 8:31 
8 1:0 2:129 3:80 4:0 5:0 6:31.200001 7:0.703 8:29 
8 1:5 2:106 3:82 4:30 5:0 6:39.5 7:0.286 8:38 
8 1:4 2:154 3:62 4:31 5:284 6:32.799999 7:0.237 8:23 
8 1:5 2:147 3:78 4:0 5:0 6:33.700001 7:0.218 8:65 
8 1:1 2:136 3:74 4:50 5:204 6:37.400002 7:0.399 8:24 
8 1:1 2:153 3:82 4:42 5:485 6:40.599998 7:0.687 8:23 
8 1:4 2:151 3:90 4:38 5:0 6:29.700001 7:0.294 8:36 
8 1:7 2:102 3:74 4:40 5:105 6:37.200001 7:0.204 8:45 
8 1:3 2:148 3:66 4:25 5:0 6:32.5 7:0.256 8:22 
8 1:4 2:120 3:68 4:0 5:0 6:29.6 7:0.709 8:34 
8 1:4 2:110 3:66 4:0 5:0 6:31.9 7:0.471 8:29 
2.684068842917188 1:2 2:87 3:0 4:23 5:0 6:28.9 7:0.773 8:25 
8 1:5 2:143 3:78 4:0 5:0 6:45 7:0.19 8:47 
5.186850474555098 1:1 2:0 3:74 4:20 5:23 6:27.700001 7:0.299 8:21 
8 1:4 2:141 3:74 4:0 5:0 6:27.6 7:0.244 8:40 
8 1:9 2:123 3:70 4:44 5:94 6:33.099998 7:0.374 8:40 
8 1:1 2:138 3:82 4:0 5:0 6:40.099998 7:0.236 8:28 
8 1:6 2:103 3:72 4:32 5:190 6:37.700001 7:0.324 8:55 
8 1:0 2:147 3:85 4:54 5:0 6:42.799999 7:0.375 8:24 
8 1:7 2:179 3:95 4:31 5:0 6:34.200001 7:0.164 8:60 
8 1:6 2:125 3:68 4:30 5:120 6:30 7:0.464 8:32 
8 1:7 2:119 3:0 4:0 5:0 6:25.200001 7:0.209 8:37 
8 1:7 2:142 3:60 4:33 5:190 6:28.799999 7:0.687 8:61 
1.732254052626514 1:4 2:197 3:70 4:39 5:744 6:36.700001 7:2.329 8:31 
8 1:0 2:117 3:80 4:31 5:53 6:45.200001 7:0.089 8:24 
8 1:4 2:122 3:68 4:0 5:0 6:35 7:0.394 8:29 
8 1:2 2:146 3:76 4:35 5:194 6:38.200001 7:0.329 8:29 
8 1:10 2:122 3:68 4:0 5:0 6:31.200001 7:0.258 8:41 
6.89902570801105 1:0 2:165 3:90 4:33 5:680 6:52.299999 7:0.427 8:23 
8 1:9 2:124 3:70 4:33 5:402 6:35.400002 7:0.282 8:34 
8 1:9 2:106 3:52 4:0 5:0 6:31.200001 7:0.38 8:42 
8 1:2 2:129 3:84 4:0 5:0 6:28 7:0.284 8:27 
8 1:3 2:111 3:56 4:39 5:0 6:30.1 7:0.557 8:30 
8 1:1 2:193 3:50 4:16 5:375 6:25.9 7:0.655 8:24 
8 1:3 2:191 3:68 4:15 5:130 6:30.9 7:0.299 8:34 
8 1:3 2:142 3:80 4:15 5:0 6:32.400002 7:0.2 8:63 
8 1:2 2:128 3:64 4:42 5:0 6:40 7:1.101 8:24 
8 1:13 2:106 3:70 4:0 5:0 6:34.200001 7:0.251 8:52 
8 1:10 2:129 3:76 4:28 5:122 6:35.900002 7:0.28 8:39 
8 1:7 2:133 3:88 4:15 5:155 6:32.400002 7:0.262 8:37 
8 1:7 2:136 3:74 4:26 5:135 6:26 7:0.647 8:51 
8 1:5 2:155 3:84 4:44 5:545 6:38.700001 7:0.619 8:34 
8 1:0 2:161 3:50 4:0 5:0 6:21.9 7:0.254 8:65 
8 1:6 2:151 3:62 4:31 5:120 6:35.5 7:0.692 8:28 
2.488986834941245 1:0 2:126 3:84 4:29 5:215 6:30.700001 7:0.52 8:24 
8 1:3 2:150 3:76 4:0 5:0 6:21 7:0.207 8:37 
8 1:2 2:120 3:76 4:37 5:105 6:39.700001 7:0.215 8:29 
7.569700198898465 1:0 2:137 3:68 4:14 5:148 6:24.799999 7:0.143 8:21 
8 1:3 2:115 3:66 4:39 5:140 6:38.099998 7:0.15 8:28 
3.401680937373543 1:4 2:129 3:60 4:12 5:231 6:27.5 7:0.527 8:31 
8 1:2 2:112 3:75 4:32 5:0 6:35.700001 7:0.148 8:21 
8 1:1 2:157 3:72 4:21 5:168 6:25.6 7:0.123 8:24 
8 1:10 2:179 3:70 4:0 5:0 6:35.099998 7:0.2 8:37 
8 1:0 2:165 3:76 4:43 5:255 6:47.900002 7:0.259 8:26 
8 1:0 2:117 3:0 4:0 5:0 6:33.799999 7:0.932 8:44 
8 1:1 2:0 3:68 4:35 5:0 6:32 7:0.389 8:22 
8 1:5 2:122 3:86 4:0 5:0 6:34.700001 7:0.29 8:33 
8 1:8 2:95 3:72 4:0 5:0 6:36.799999 7:0.485 8:57 
8 1:8 2:126 3:88 4:36 5:108 6:38.5 7:0.349 8:49 
8 1:1 2:139 3:46 4:19 5:83 6:28.700001 7:0.654 8:22 
8 1:3 2:116 3:0 4:0 5:0 6:23.5 7:0.187 8:23 
8 1:4 2:92 3:80 4:0 5:0 6:42.200001 7:0.237 8:29 
8 1:4 2:137 3:84 4:0 5:0 6:31.200001 7:0.252 8:30 
7.363071508092313 1:3 2:90 3:78 4:0 5:0 6:42.700001 7:0.559 8:21 
8 1:5 2:158 3:70 4:0 5:0 6:29.799999 7:0.207 8:63 
8 1:5 2:103 3:108 4:37 5:0 6:39.200001 7:0.305 8:65 
8 1:4 2:147 3:74 4:25 5:293 6:34.900002 7:0.385 8:30 
8 1:2 2:122 3:52 4:43 5:158 6:36.200001 7:0.816 8:28 
8 1:1 2:100 3:66 4:29 5:196 6:32 7:0.444 8:42 
8 1:6 2:137 3:61 4:0 5:0 6:24.200001 7:0.151 8:55 
8 1:2 2:123 3:48 4:32 5:165 6:42.099998 7:0.52 8:26 
8 1:6 2:102 3:90 4:39 5:0 6:35.700001 7:0.674 8:28 
5.880787390624236 1:1 2:143 3:84 4:23 5:310 6:42.400002 7:1.076 8:22 
8 1:1 2:143 3:74 4:22 5:61 6:26.200001 7:0.256 8:21 
8 1:1 2:119 3:88 4:41 5:170 6:45.299999 7:0.507 8:26 
8 1:2 2:115 3:64 4:22 5:0 6:30.799999 7:0.421 8:21 
8 1:0 2:135 3:94 4:46 5:145 6:40.599998 7:0.284 8:26 
3.463283523987084 1:2 2:99 3:0 4:0 5:0 6:22.200001 7:0.108 8:23 
8 1:2 2:139 3:75 4:0 5:0 6:25.6 7:0.167 8:29 
8 1:12 2:140 3:85 4:33 5:0 6:37.400002 7:0.244 8:41 
8 1:5 2:147 3:75 4:0 5:0 6:29.9 7:0.434 8:28 
8 1:6 2:107 3:88 4:0 5:0 6:36.799999 7:0.727 8:31 
3.275378195718962 1:4 2:117 3:64 4:27 5:120 6:33.200001 7:0.23 8:24 
7.233670989855618 1:2 2:119 3:0 4:0 5:0 6:19.6 7:0.832 8:72 
8 1:1 2:135 3:54 4:0 5:0 6:26.700001 7:0.687 8:62 
8 1:9 2:134 3:74 4:33 5:60 6:25.9 7:0.46 8:81 
6.10637440937865 1:10 2:115 3:98 4:0 5:0 6:24 7:1.022 8:34 
8 1:6 2:154 3:78 4:41 5:140 6:46.099998 7:0.571 8:27 
8 1:1 2:144 3:82 4:40 5:0 6:41.299999 7:0.607 8:28 
8 1:0 2:137 3:70 4:38 5:0 6:33.200001 7:0.17 8:22 
8 1:0 2:119 3:66 4:27 5:0 6:38.799999 7:0.259 8:22 
8 1:7 2:136 3:90 4:0 5:0 6:29.9 7:0.21 8:50 
8 1:4 2:114 3:64 4:0 5:0 6:28.9 7:0.126 8:24 
8 1:0 2:137 3:84 4:27 5:0 6:27.299999 7:0.231 8:59 
8 1:8 2:126 3:74 4:38 5:75 6:25.9 7:0.162 8:39 
8 1:4 2:132 3:86 4:31 5:0 6:28 7:0.419 8:63 
8 1:0 2:123 3:88 4:37 5:0 6:35.200001 7:0.197 8:29 
8 1:1 2:139 3:62 4:41 5:480 6:40.700001 7:0.536 8:21 
8 1:0 2:173 3:78 4:32 5:265 6:46.5 7:1.159 8:58 
8 1:8 2:194 3:80 4:0 5:0 6:26.1 7:0.551 8:67 
8 1:6 2:166 3:74 4:0 5:0 6:26.6 7:0.304 8:66 
8 1:6 2:154 3:74 4:32 5:193 6:29.299999 7:0.839 8:39 
8 1:1 2:130 3:60 4:23 5:170 6:28.6 7:0.692 8:21 
8 1:8 2:120 3:78 4:0 5:0 6:25 7:0.409 8:64 
8 1:7 2:125 3:86 4:0 5:0 6:37.599998 7:0.304 8:51 
8 1:6 2:129 3:90 4:7 5:326 6:19.6 7:0.582 8:60 
8 1:3 2:124 3:80 4:33 5:130 6:33.200001 7:0.305 8:26 
8 1:3 2:125 3:58 4:0 5:0 6:31.6 7:0.151 8:24 
8 1:0 2:107 3:76 4:0 5:0 6:45.299999 7:0.686 8:24 
8 1:6 2:91 3:0 4:0 5:0 6:29.799999 7:0.501 8:31 
8 1:0 2:127 3:80 4:37 5:210 6:36.299999 7:0.804 8:23 
8 1:4 2:131 3:68 4:21 5:166 6:33.099998 7:0.16 8:28 
8 1:1 2:164 3:82 4:43 5:67 6:32.799999 7:0.341 8:50 
8 1:4 2:189 3:110 4:31 5:0 6:28.5 7:0.68 8:37 
8 1:7 2:124 3:70 4:33 5:215 6:25.5 7:0.161 8:37 
8 1:11 2:103 3:68 4:40 5:0 6:46.200001 7:0.126 8:42 
8 1:6 2:92 3:62 4:32 5:126 6:32 7:0.085 8:46 
8 1:4 2:154 3:72 4:29 5:126 6:31.299999 7:0.338 8:37 
0.741498863775496 1:1 2:143 3:86 4:30 5:330 6:30.1 7:0.892 8:23 
4.736772318121074 1:1 2:119 3:44 4:47 5:63 6:35.5 7:0.28 8:25 
8 1:10 2:133 3:68 4:0 5:0 6:27 7:0.245 8:36 
8 1:12 2:121 3:78 4:17 5:0 6:26.5 7:0.259 8:62 
8 1:8 2:100 3:76 4:0 5:0 6:38.700001 7:0.19 8:42 
8 1:2 2:112 3:78 4:50 5:140 6:39.400002 7:0.175 8:24 
8 1:6 2:123 3:72 4:45 5:230 6:33.599998 7:0.733 8:34 
8 1:6 2:96 3:0 4:0 5:0 6:23.700001 7:0.19 8:28 
5.450289940381685 1:1 2:124 3:74 4:36 5:0 6:27.799999 7:0.1 8:30 
8 1:1 2:124 3:60 4:32 5:0 6:35.799999 7:0.514 8:21 
8 1:0 2:152 3:82 4:39 5:272 6:41.5 7:0.27 8:27 
8 1:6 2:117 3:96 4:0 5:0 6:28.700001 7:0.157 8:30 
8 1:2 2:112 3:86 4:42 5:160 6:38.400002 7:0.246 8:28 
8 1:6 2:183 3:94 4:0 5:0 6:40.799999 7:1.461 8:45 
8 1:0 2:132 3:78 4:0 5:0 6:32.400002 7:0.393 8:21 
8 1:5 2:128 3:80 4:0 5:0 6:34.599998 7:0.144 8:45 
8 1:4 2:128 3:70 4:0 5:0 6:34.299999 7:0.303 8:24 
8 1:2 2:157 3:74 4:35 5:440 6:39.400002 7:0.134 8:30 
8 1:5 2:123 3:74 4:40 5:77 6:34.099998 7:0.269 8:28 
8 1:2 2:120 3:54 4:0 5:0 6:26.799999 7:0.455 8:27 
8 1:1 2:120 3:80 4:48 5:200 6:38.900002 7:1.162 8:41 
8 1:11 2:127 3:106 4:0 5:0 6:39 7:0.19 8:51 
8 1:10 2:162 3:84 4:0 5:0 6:27.700001 7:0.182 8:54 
8 1:6 2:98 3:58 4:33 5:190 6:34 7:0.43 8:43 
8 1:9 2:154 3:78 4:30 5:100 6:30.9 7:0.164 8:45 
8 1:6 2:165 3:68 4:26 5:168 6:33.599998 7:0.631 8:49 
3.852433637316414 1:10 2:68 3:106 4:23 5:49 6:35.5 7:0.285 8:47 
8 1:3 2:123 3:100 4:35 5:240 6:57.299999 7:0.88 8:22 
2.769946176395915 1:8 2:91 3:82 4:0 5:0 6:35.599998 7:0.587 8:68 
8 1:2 2:129 3:74 4:26 5:205 6:33.200001 7:0.591 8:25 
8 1:3 2:130 3:64 4:0 5:0 6:23.1 7:0.314 8:22 
8 1:1 2:140 3:74 4:26 5:180 6:24.1 7:0.828 8:23 
8 1:2 2:121 3:70 4:32 5:95 6:39.099998 7:0.886 8:23 
8 1:0 2:99 3:0 4:0 5:0 6:25 7:0.253 8:22 
8 1:4 2:127 3:88 4:11 5:155 6:34.5 7:0.598 8:28 
8 1:4 2:118 3:70 4:0 5:0 6:44.5 7:0.904 8:26 
8 1:2 2:122 3:76 4:27 5:200 6:35.900002 7:0.483 8:26 
8 1:2 2:129 3:0 4:0 5:0 6:38.5 7:0.304 8:41 
8 1:3 2:158 3:64 4:13 5:387 6:31.200001 7:0.295 8:24 
8 1:5 2:126 3:78 4:27 5:22 6:29.6 7:0.439 8:40 
8 1:1 2:108 3:60 4:46 5:178 6:35.5 7:0.415 8:24 
6.813117797220853 1:1 2:114 3:66 4:36 5:200 6:38.099998 7:0.289 8:21 
8 1:5 2:117 3:86 4:30 5:105 6:39.099998 7:0.251 8:42 
8 1:1 2:111 3:94 4:0 5:0 6:32.799999 7:0.265 8:45 
8 1:4 2:112 3:78 4:40 5:0 6:39.400002 7:0.236 8:38 
8 1:1 2:116 3:78 4:29 5:180 6:36.099998 7:0.496 8:25 
8 1:0 2:141 3:84 4:26 5:0 6:32.400002 7:0.433 8:22 
8 1:2 2:175 3:88 4:0 5:0 6:22.9 7:0.326 8:22 
8 1:13 2:153 3:88 4:37 5:140 6:40.599998 7:1.174 8:39 
8 1:12 2:100 3:84 4:33 5:105 6:30 7:0.488 8:46 
8 1:1 2:121 3:78 4:39 5:74 6:39 7:0.261 8:28 
8 1:7 2:137 3:90 4:41 5:0 6:32 7:0.391 8:39 
8 1:1 2:106 3:76 4:0 5:0 6:37.5 7:0.197 8:26 
8 1:10 2:101 3:76 4:48 5:180 6:32.900002 7:0.171 8:63 
8 1:2 2:122 3:70 4:27 5:0 6:36.799999 7:0.34 8:27 
-8 1:6 2:148 3:72 4:35 5:0 6:33.599998 7:0.627 8:50 
-8 1:0 2:137 3:40 4:35 5:168 6:43.099998 7:2.288 8:33 
-8 1:3 2:78 3:50 4:32 5:88 6:31 7:0.248 8:26 
-8 1:8 2:125 3:96 4:0 5:0 6:0 7:0.232 8:54 
-2.969714454212712 1:1 2:189 3:60 4:23 5:846 6:30.1 7:0.398 8:59 
-8 1:7 2:100 3:0 4:0 5:0 6:30 7:0.484 8:32 
-8 1:0 2:118 3:84 4:47 5:230 6:45.799999 7:0.551 8:31 
-8 1:7 2:107 3:74 4:0 5:0 6:29.6 7:0.254 8:31 
-8 1:1 2:115 3:70 4:30 5:96 6:34.599998 7:0.529 8:32 
-8 1:9 2:119 3:80 4:35 5:0 6:29 7:0.263 8:29 
-8 1:11 2:143 3:94 4:33 5:146 6:36.599998 7:0.254 8:51 
-8 1:10 2:125 3:70 4:26 5:115 6:31.1 7:0.205 8:41 
-8 1:7 2:147 3:76 4:0 5:0 6:39.400002 7:0.257 8:43 
-8 1:3 2:158 3:76 4:36 5:245 6:31.6 7:0.851 8:28 
-8 1:9 2:102 3:76 4:37 5:0 6:32.900002 7:0.665 8:46 
-8 1:2 2:90 3:68 4:42 5:0 6:38.200001 7:0.503 8:27 
-8 1:4 2:111 3:72 4:47 5:207 6:37.099998 7:1.39 8:56 
-8 1:7 2:103 3:66 4:32 5:0 6:39.099998 7:0.344 8:31 
-8 1:8 2:133 3:72 4:0 5:0 6:32.900002 7:0.27 8:39 
-8 1:7 2:114 3:66 4:0 5:0 6:32.799999 7:0.258 8:42 
-8 1:0 2:109 3:88 4:30 5:0 6:32.5 7:0.855 8:38 
-8 1:2 2:100 3:66 4:20 5:90 6:32.900002 7:0.867 8:28 
-8 1:13 2:126 3:90 4:0 5:0 6:43.400002 7:0.583 8:42 
-8 1:0 2:131 3:0 4:0 5:0 6:43.200001 7:0.27 8:26 
-8 1:5 2:137 3:108 4:0 5:0 6:48.799999 7:0.227 8:37 
-8 1:15 2:136 3:70 4:32 5:110 6:37.099998 7:0.153 8:43 
-8 1:4 2:134 3:72 4:0 5:0 6:23.799999 7:0.277 8:60 
-8 1:1 2:122 3:90 4:51 5:220 6:49.700001 7:0.325 8:31 
-8 1:1 2:163 3:72 4:0 5:0 6:39 7:1.222 8:33 
-8 1:0 2:95 3:85 4:25 5:36 6:37.400002 7:0.247 8:24 
-8 1:3 2:171 3:72 4:33 5:135 6:33.299999 7:0.199 8:24 
-8 1:7 2:160 3:54 4:32 5:175 6:30.5 7:0.588 8:39 
-8 1:4 2:146 3:92 4:0 5:0 6:31.200001 7:0.539 8:61 
-8 1:5 2:124 3:74 4:0 5:0 6:34 7:0.22 8:38 
-4.29098061202522 1:0 2:162 3:76 4:56 5:100 6:53.200001 7:0.759 8:25 
-8 1:0 2:113 3:76 4:0 5:0 6:33.299999 7:0.278 8:23 
-8 1:1 2:88 3:30 4:42 5:99 6:55 7:0.496 8:26 
-8 1:1 2:117 3:88 4:24 5:145 6:34.5 7:0.403 8:40 
-8 1:0 2:105 3:84 4:0 5:0 6:27.9 7:0.741 8:62 
-8 1:4 2:173 3:70 4:14 5:168 6:29.700001 7:0.361 8:33 
-8 1:9 2:122 3:56 4:0 5:0 6:33.299999 7:1.114 8:33 
-3.206694208602067 1:3 2:170 3:64 4:37 5:225 6:34.5 7:0.356 8:30 
-8 1:10 2:108 3:66 4:0 5:0 6:32.400002 7:0.272 8:42 
-7.334847312861823 1:9 2:156 3:86 4:28 5:155 6:34.299999 7:1.189 8:42 
-8 1:7 2:152 3:88 4:44 5:0 6:50 7:0.337 8:36 
-8 1:0 2:131 3:88 4:0 5:0 6:31.6 7:0.743 8:32 
-8 1:6 2:104 3:74 4:18 5:156 6:29.9 7:0.722 8:41 
-8 1:6 2:102 3:82 4:0 5:0 6:30.799999 7:0.18 8:36 
-8 1:6 2:134 3:70 4:23 5:130 6:35.400002 7:0.542 8:29 
-8 1:0 2:129 3:110 4:46 5:130 6:67.099998 7:0.319 8:26 
-8 1:5 2:130 3:82 4:0 5:0 6:39.099998 7:0.956 8:37 
-8 1:1 2:128 3:98 4:41 5:58 6:32 7:1.321 8:33 
-8 1:8 2:109 3:76 4:39 5:114 6:27.9 7:0.64 8:31 
-8 1:5 2:139 3:80 4:35 5:160 6:31.6 7:0.361 8:25 
-8 1:7 2:159 3:66 4:0 5:0 6:30.4 7:0.383 8:36 
-8 1:5 2:158 3:84 4:41 5:210 6:39.400002 7:0.395 8:29 
-8 1:3 2:107 3:62 4:13 5:48 6:22.9 7:0.678 8:23 
-8 1:4 2:109 3:64 4:44 5:99 6:34.799999 7:0.905 8:26 
-8 1:4 2:148 3:60 4:27 5:318 6:30.9 7:0.15 8:29 
-8 1:5 2:162 3:104 4:0 5:0 6:37.700001 7:0.151 8:52 
-8 1:0 2:140 3:65 4:26 5:130 6:42.599998 7:0.431 8:24 
-8 1:9 2:112 3:82 4:32 5:175 6:34.200001 7:0.26 8:36 
-8 1:12 2:151 3:70 4:40 5:271 6:41.799999 7:0.742 8:38 
-8 1:5 2:109 3:62 4:41 5:129 6:35.799999 7:0.514 8:25 
-8 1:5 2:85 3:74 4:22 5:0 6:29 7:1.224 8:32 
-8 1:5 2:112 3:66 4:0 5:0 6:37.799999 7:0.261 8:41 
-8 1:0 2:177 3:60 4:29 5:478 6:34.599998 7:1.072 8:21 
-8 1:2 2:158 3:90 4:0 5:0 6:31.6 7:0.805 8:66 
-8 1:3 2:162 3:52 4:38 5:0 6:37.200001 7:0.652 8:24 
-8 1:4 2:142 3:86 4:0 5:0 6:44 7:0.645 8:22 
-8 1:6 2:134 3:80 4:37 5:370 6:46.200001 7:0.238 8:46 
-8 1:9 2:164 3:84 4:21 5:0 6:30.799999 7:0.831 8:32 
-8 1:3 2:139 3:54 4:0 5:0 6:25.6 7:0.402 8:22 
-8 1:6 2:119 3:50 4:22 5:176 6:27.1 7:1.318 8:33 
-8 1:12 2:92 3:62 4:7 5:258 6:27.6 7:0.926 8:44 
-8 1:1 2:113 3:64 4:35 5:0 6:33.599998 7:0.543 8:21 
-8 1:3 2:141 3:0 4:0 5:0 6:30 7:0.761 8:27 
-8 1:4 2:123 3:62 4:0 5:0 6:32 7:0.226 8:35 
-8 1:0 2:138 3:0 4:0 5:0 6:36.299999 7:0.933 8:25 
-8 1:2 2:146 3:0 4:0 5:0 6:27.5 7:0.24 8:28 
-8 1:10 2:101 3:86 4:37 5:0 6:45.599998 7:1.136 8:38 
-8 1:7 2:106 3:60 4:24 5:0 6:26.5 7:0.296 8:29 
-8 1:0 2:146 3:70 4:0 5:0 6:37.900002 7:0.334 8:28 
-8 1:7 2:161 3:86 4:0 5:0 6:30.4 7:0.165 8:47 
-8 1:2 2:108 3:80 4:0 5:0 6:27 7:0.259 8:52 
-8 1:1 2:119 3:86 4:39 5:220 6:45.599998 7:0.808 8:29 
-8 1:0 2:107 3:62 4:30 5:74 6:36.599998 7:0.757 8:25 
-8 1:2 2:128 3:78 4:37 5:182 6:43.299999 7:1.224 8:31 
-8 1:1 2:128 3:48 4:45 5:194 6:40.5 7:0.613 8:24 
-8 1:2 2:146 3:70 4:38 5:360 6:28 7:0.337 8:29 
-8 1:14 2:100 3:78 4:25 5:184 6:36.599998 7:0.412 8:46 
-8 1:2 2:144 3:58 4:33 5:135 6:31.6 7:0.422 8:25 
-8 1:5 2:115 3:98 4:0 5:0 6:52.900002 7:0.209 8:28 
-8 1:10 2:161 3:68 4:23 5:132 6:25.5 7:0.326 8:47 
-8 1:0 2:128 3:68 4:19 5:180 6:30.5 7:1.391 8:25 
-8 1:2 2:124 3:68 4:28 5:205 6:32.900002 7:0.875 8:30 
-8 1:2 2:155 3:74 4:17 5:96 6:26.6 7:0.433 8:27 
-8 1:7 2:109 3:80 4:31 5:0 6:35.900002 7:1.127 8:43 
-0.07321389540206508 1:6 2:194 3:78 4:0 5:0 6:23.5 7:0.129 8:59 
-8 1:3 2:112 3:74 4:30 5:0 6:31.6 7:0.197 8:25 
-8 1:0 2:124 3:70 4:20 5:0 6:27.4 7:0.254 8:36 
-8 1:13 2:152 3:90 4:33 5:29 6:26.799999 7:0.731 8:43 
-8 1:1 2:122 3:64 4:32 5:156 6:35.099998 7:0.692 8:30 
-8 1:2 2:102 3:86 4:36 5:120 6:45.5 7:0.127 8:23 
-8 1:5 2:115 3:76 4:0 5:0 6:31.200001 7:0.343 8:44 
-8 1:9 2:152 3:78 4:34 5:171 6:34.200001 7:0.893 8:33 
-8 1:5 2:0 3:80 4:32 5:0 6:41 7:0.346 8:37 
-8 1:9 2:165 3:88 4:0 5:0 6:30.4 7:0.302 8:49 
-8 1:1 2:125 3:50 4:40 5:167 6:33.299999 7:0.962 8:28 
-8 1:13 2:129 3:0 4:30 5:0 6:39.900002 7:0.569 8:44 
-7.337051647347142 1:5 2:189 3:64 4:33 5:325 6:31.200001 7:0.583 8:29 
-8 1:4 2:146 3:78 4:0 5:0 6:38.5 7:0.52 8:67 
-8 1:6 2:124 3:72 4:0 5:0 6:27.6 7:0.368 8:29 
-8 1:1 2:133 3:102 4:28 5:140 6:32.799999 7:0.234 8:45 
-2.503561704357856 1:3 2:173 3:82 4:48 5:465 6:38.400002 7:2.137 8:25 
-8 1:12 2:140 3:82 4:43 5:325 6:39.200001 7:0.528 8:58 
-8 1:5 2:116 3:74 4:29 5:0 6:32.299999 7:0.66 8:35 
-8 1:8 2:105 3:100 4:36 5:0 6:43.299999 7:0.239 8:45 
-8 1:5 2:144 3:82 4:26 5:285 6:32 7:0.452 8:58 
-8 1:4 2:158 3:78 4:0 5:0 6:32.900002 7:0.803 8:31 
-8 1:0 2:131 3:66 4:40 5:0 6:34.299999 7:0.196 8:22 
-8 1:4 2:95 3:64 4:0 5:0 6:32 7:0.161 8:31 
-8 1:5 2:136 3:84 4:41 5:88 6:35 7:0.286 8:35 
-8 1:5 2:168 3:64 4:0 5:0 6:32.900002 7:0.135 8:41 
-8 1:4 2:115 3:72 4:0 5:0 6:28.9 7:0.376 8:46 
-5.993216848278245 1:1 2:172 3:68 4:49 5:579 6:42.400002 7:0.702 8:28 
-8 1:0 2:138 3:60 4:35 5:167 6:34.599998 7:0.534 8:21 
-8 1:3 2:173 3:84 4:33 5:474 6:35.700001 7:0.258 8:22 
-8 1:4 2:144 3:82 4:32 5:0 6:38.5 7:0.554 8:37 
-8 1:3 2:129 3:64 4:29 5:115 6:26.4 7:0.219 8:28 
-8 1:8 2:151 3:78 4:32 5:210 6:42.900002 7:0.516 8:36 
-8 1:1 2:95 3:82 4:25 5:180 6:35 7:0.233 8:43 
-8 1:0 2:189 3:104 4:25 5:0 6:34.299999 7:0.435 8:41 
-8 1:8 2:108 3:70 4:0 5:0 6:30.5 7:0.955 8:33 
-8 1:4 2:117 3:62 4:12 5:0 6:29.700001 7:0.38 8:30 
-8 1:0 2:104 3:64 4:37 5:64 6:33.599998 7:0.51 8:22 
-8 1:2 2:134 3:70 4:0 5:0 6:28.9 7:0.542 8:23 
-8 1:8 2:120 3:0 4:0 5:0 6:30 7:0.183 8:38 
-8 1:2 2:105 3:80 4:45 5:191 6:33.700001 7:0.711 8:29 
-8 1:3 2:158 3:70 4:30 5:328 6:35.5 7:0.344 8:35 
-8 1:0 2:135 3:68 4:42 5:250 6:42.299999 7:0.365 8:24 
-8 1:4 2:125 3:70 4:18 5:122 6:28.9 7:1.144 8:45 
-8 1:6 2:0 3:68 4:41 5:0 6:39 7:0.727 8:41 
-0.2896382686366049 1:0 2:180 3:90 4:26 5:90 6:36.5 7:0.314 8:35 
-8 1:12 2:84 3:72 4:31 5:0 6:29.700001 7:0.297 8:46 
-8 1:3 2:163 3:70 4:18 5:105 6:31.6 7:0.268 8:28 
-8 1:9 2:145 3:88 4:34 5:165 6:30.299999 7:0.771 8:53 
-8 1:9 2:130 3:70 4:0 5:0 6:34.200001 7:0.652 8:45 
-8 1:4 2:132 3:0 4:0 5:0 6:32.900002 7:0.302 8:23 
-8 1:3 2:129 3:92 4:49 5:155 6:36.400002 7:0.968 8:32 
-8 1:8 2:100 3:74 4:40 5:215 6:39.400002 7:0.661 8:43 
-8 1:3 2:128 3:72 4:25 5:190 6:32.400002 7:0.549 8:27 
-8 1:10 2:90 3:85 4:32 5:0 6:34.900002 7:0.825 8:56 
-8 1:6 2:125 3:76 4:0 5:0 6:33.799999 7:0.121 8:54 
-8 1:0 2:121 3:66 4:30 5:165 6:34.299999 7:0.203 8:33 
-8 1:2 2:118 3:80 4:0 5:0 6:42.900002 7:0.693 8:21 
-2.52684958864717 1:2 2:197 3:70 4:99 5:0 6:34.700001 7:0.575 8:62 
-8 1:0 2:151 3:90 4:46 5:0 6:42.099998 7:0.371 8:21 
-6.120632370986009 1:8 2:124 3:76 4:24 5:600 6:28.700001 7:0.687 8:52 
-8 1:8 2:143 3:66 4:0 5:0 6:34.900002 7:0.129 8:41 
-8 1:11 2:111 3:84 4:40 5:0 6:46.799999 7:0.925 8:45 
-8 1:3 2:132 3:80 4:0 5:0 6:34.400002 7:0.402 8:44 
-6.941347887524162 1:1 2:173 3:74 4:0 5:0 6:36.799999 7:0.088 8:38 
-8 1:7 2:150 3:78 4:29 5:126 6:35.200001 7:0.692 8:54 
-8 1:1 2:181 3:78 4:42 5:293 6:40 7:1.258 8:22 
-8 1:11 2:138 3:74 4:26 5:144 6:36.099998 7:0.557 8:50 
-8 1:9 2:112 3:82 4:24 5:0 6:28.200001 7:1.282 8:50 
-8 1:0 2:119 3:0 4:0 5:0 6:32.400002 7:0.141 8:24 
-8 1:7 2:114 3:64 4:0 5:0 6:27.4 7:0.732 8:34 
-8 1:13 2:104 3:72 4:0 5:0 6:31.200001 7:0.465 8:38 
-8 1:7 2:97 3:76 4:32 5:91 6:40.900002 7:0.871 8:32 
-8 1:6 2:147 3:80 4:0 5:0 6:29.5 7:0.178 8:50 
-8 1:1 2:167 3:74 4:17 5:144 6:23.4 7:0.447 8:33 
-8 1:11 2:136 3:84 4:35 5:130 6:28.299999 7:0.26 8:42 
-0.9168828483254778 1:2 2:155 3:52 4:27 5:540 6:38.700001 7:0.24 8:25 
-8 1:3 2:80 3:82 4:31 5:70 6:34.200001 7:1.292 8:27 
-8 1:9 2:145 3:80 4:46 5:130 6:37.900002 7:0.637 8:40 
-8 1:6 2:115 3:60 4:39 5:0 6:33.700001 7:0.245 8:40 
-8 1:4 2:145 3:82 4:18 5:0 6:32.5 7:0.235 8:70 
-8 1:10 2:111 3:70 4:27 5:0 6:27.5 7:0.141 8:40 
-8 1:9 2:156 3:86 4:0 5:0 6:24.799999 7:0.23 8:53 
-8 1:3 2:121 3:52 4:0 5:0 6:36 7:0.127 8:25 
-8 1:4 2:125 3:80 4:0 5:0 6:32.299999 7:0.536 8:27 
-8 1:13 2:158 3:114 4:0 5:0 6:42.299999 7:0.257 8:44 
-8 1:7 2:129 3:68 4:49 5:125 6:38.5 7:0.439 8:43 
-8 1:7 2:142 3:90 4:24 5:480 6:30.4 7:0.128 8:43 
-8 1:3 2:169 3:74 4:19 5:125 6:29.9 7:0.268 8:31 
-8 1:6 2:125 3:78 4:31 5:0 6:27.6 7:0.565 8:49 
-8 1:1 2:168 3:88 4:29 5:0 6:35 7:0.905 8:52 
-8 1:10 2:115 3:0 4:0 5:0 6:0 7:0.261 8:30 
-8 1:9 2:164 3:78 4:0 5:0 6:32.799999 7:0.148 8:45 
-8 1:2 2:93 3:64 4:32 5:160 6:38 7:0.674 8:23 
-8 1:10 2:129 3:62 4:36 5:0 6:41.200001 7:0.441 8:38 
-4.127712462782095 1:7 2:187 3:50 4:33 5:392 6:33.900002 7:0.826 8:34 
-8 1:5 2:97 3:76 4:27 5:0 6:35.599998 7:0.378 8:52 
-8 1:1 2:149 3:68 4:29 5:127 6:29.299999 7:0.349 8:42 
-8 1:3 2:130 3:78 4:23 5:79 6:28.4 7:0.323 8:34 
-8 1:8 2:120 3:86 4:0 5:0 6:28.4 7:0.259 8:22 
-8 1:1 2:102 3:74 4:0 5:0 6:39.5 7:0.293 8:42 
-8 1:11 2:120 3:80 4:37 5:150 6:42.299999 7:0.785 8:48 
-8 1:9 2:140 3:94 4:0 5:0 6:32.700001 7:0.734 8:45 
-8 1:1 2:147 3:94 4:41 5:0 6:49.299999 7:0.358 8:27 
-8 1:6 2:162 3:62 4:0 5:0 6:24.299999 7:0.178 8:50 
-8 1:4 2:136 3:70 4:0 5:0 6:31.200001 7:1.182 8:22 
-8 1:8 2:154 3:78 4:32 5:0 6:32.400002 7:0.443 8:45 
-8 1:1 2:128 3:88 4:39 5:110 6:36.5 7:1.057 8:37 
-8 1:0 2:123 3:72 4:0 5:0 6:36.299999 7:0.258 8:52 
-8 1:1 2:126 3:60 4:0 5:0 6:30.1 7:0.349 8:47 
