svm_type c_svc
kernel_type rbf
gamma 0.0078125
nr_class 2
total_sv 265
rho 0.299613
label 1 -1
nr_sv 114 151
SV
0.1882382893865425 1:169 2:74 
0.5 1:79 2:79 
0.5 1:182 2:117 
0.2074272987633013 1:155 2:32 
0.3790463223355566 1:182 2:108 
0.5 1:182 2:73 
0.0740709481983334 1:169 2:47 
0.5 1:126 2:144 
0.1728931757098517 1:156 2:144 
0.09621679163944727 1:182 2:105 
0.07201813240445704 1:169 2:35 
0.02758106377116715 1:179 2:52 
0.5 1:128 2:159 
0.1546876302951806 1:149 2:152 
0.5 1:168 2:74 
0.5 1:118 2:51 
0.5 1:104 2:59 
0.225775801937228 1:132 2:156 
0.03710094335782139 1:117 2:53 
0.03344240518562556 1:86 2:158 
0.5 1:160 2:128 
0.4301278677802246 1:134 2:142 
0.5 1:109 2:146 
0.5 1:177 2:133 
0.2832045279919476 1:117 2:157 
0.4865177123571578 1:67 2:68 
0.5 1:183 2:33 
0.5 1:83 2:159 
0.3515396441693282 1:168 2:87 
0.5 1:160 2:16 
0.1983422377348227 1:103 2:77 
0.5 1:176 2:17 
0.5 1:129 2:40 
0.5 1:99 2:148 
0.5 1:89 2:76 
0.2363486739873085 1:83 2:171 
0.5 1:169 2:103 
0.5 1:140 2:27 
0.2794970399629436 1:181 2:31 
0.1128069585221114 1:150 2:137 
0.5 1:112 2:54 
0.1480853022414246 1:150 2:43 
0.5 1:182 2:65 
0.5 1:148 2:135 
0.5 1:74 2:80 
0.5 1:96 2:147 
0.5 1:168 2:89 
0.5 1:144 2:156 
0.05509985038352856 1:161 2:129 
0.5 1:138 2:157 
0.0345789811564774 1:113 2:159 
0.5 1:113 2:74 
0.5 1:169 2:54 
0.4485259308245463 1:163 2:34 
0.2531237976874644 1:107 2:59 
0.06338431959240615 1:128 2:45 
0.2859827361312861 1:167 2:116 
0.5 1:135 2:60 
0.09346155090763482 1:171 2:110 
0.3152616865870174 1:60 2:75 
0.5 1:93 2:63 
0.1062418515927821 1:171 2:29 
0.5 1:84 2:174 
0.3511229401163079 1:180 2:123 
0.5 1:182 2:53 
0.5 1:148 2:47 
0.5 1:125 2:44 
0.2985791511109855 1:172 2:65 
0.5 1:121 2:145 
0.1133949606367973 1:160 2:142 
0.5 1:171 2:140 
0.4448895961771047 1:144 2:24 
0.3959991689382254 1:182 2:93 
0.5 1:76 2:63 
0.4071426624519058 1:98 2:167 
0.2726002686098583 1:176 2:20 
0.5 1:121 2:66 
0.4633047640738215 1:131 2:62 
0.5 1:106 2:78 
0.2792084948715146 1:151 2:38 
0.03447805499780102 1:120 2:51 
0.5 1:183 2:42 
0.5 1:165 2:119 
0.5 1:86 2:155 
0.1048997179954222 1:178 2:128 
0.5 1:156 2:151 
0.5 1:56 2:79 
0.3190808426240299 1:169 2:16 
0.3772293882007645 1:75 2:78 
0.0517933083828044 1:157 2:135 
0.4750108799403773 1:168 2:44 
0.09371652085759988 1:84 2:77 
0.1578443011758545 1:141 2:27 
0.2692256854935229 1:137 2:41 
0.5 1:112 2:160 
0.5 1:102 2:77 
0.5 1:108 2:145 
0.5 1:78 2:65 
0.4179566167506377 1:156 2:20 
0.5 1:182 2:85 
0.03061141182070772 1:63 2:69 
0.08796412180614754 1:115 2:71 
0.07562536950360341 1:165 2:29 
0.5 1:90 2:175 
0.4102246172323354 1:169 2:141 
0.5 1:101 2:78 
0.3846095358877686 1:141 2:140 
0.1574617781861767 1:85 2:65 
0.3606748712260944 1:182 2:100 
0.5 1:59 2:68 
0.5 1:90 2:62 
0.4277038684885061 1:142 2:52 
0.329924931444006 1:94 2:150 
0.4201117682409194 1:103 2:164 
-0.5 1:184 2:149 
-0.04982745631491642 1:131 2:116 
-0.2145704589834346 1:62 2:93 
-0.4915236447263149 1:25 2:132 
-0.379568727336115 1:9 2:117 
-0.3455018271213871 1:175 2:158 
-0.3418822220900141 1:134 2:169 
-0.03994905700459375 1:82 2:39 
-0.4381756239148101 1:51 2:170 
-0.2871328791734995 1:113 2:102 
-0.4832790984680295 1:121 2:31 
-0.1515021734008797 1:34 2:112 
-0.1588212733216477 1:122 2:132 
-0.3269940223017452 1:48 2:92 
-0.3089453515176821 1:171 2:180 
-0.5 1:132 2:81 
-0.2177710202315271 1:119 2:19 
-0.2433321172548806 1:66 2:136 
-0.3778177128772839 1:97 2:138 
-0.4006920014778472 1:53 2:30 
-0.2154020636318157 1:133 2:95 
-0.4401686745934665 1:80 2:143 
-0.07744873864217433 1:178 2:154 
-0.5 1:118 2:134 
-0.09811473397609197 1:32 2:94 
-0.1194158893204172 1:134 2:182 
-0.02617292622151311 1:31 2:56 
-0.1196734482603732 1:79 2:128 
-0.07275151045460644 1:37 2:156 
-0.341174957095063 1:91 2:107 
-0.09049479466973223 1:31 2:111 
-0.4152506658898905 1:44 2:182 
-0.5 1:67 2:58 
-0.3870324452850154 1:23 2:55 
-0.5 1:106 2:45 
-0.04547995997517553 1:62 2:39 
-0.5 1:70 2:55 
-0.5 1:104 2:137 
-0.3998330045475283 1:152 2:185 
-0.5 1:101 2:84 
-0.3107924688215748 1:8 2:129 
-0.5 1:75 2:88 
-0.5 1:158 2:171 
-0.4576329297994166 1:147 2:92 
-0.1914613026322355 1:40 2:153 
-0.01271177778834336 1:63 2:39 
-0.1311799472121409 1:118 2:110 
-0.3198192759892451 1:42 2:87 
-0.2085453156944377 1:56 2:108 
-0.1561651991017369 1:128 2:106 
-0.1236949389346473 1:130 2:83 
-0.5 1:113 2:85 
-0.1194362822464003 1:19 2:161 
-0.3215450683919521 1:56 2:51 
-0.1038543540406203 1:40 2:183 
-0.1804398541376828 1:26 2:45 
-0.3964076684886989 1:12 2:157 
-0.5 1:107 2:44 
-0.5 1:102 2:140 
-0.103427545593368 1:125 2:111 
-0.1175909829163722 1:102 2:123 
-0.436244511868195 1:23 2:67 
-0.5 1:70 2:88 
-0.5 1:93 2:54 
-0.286649027682822 1:66 2:34 
-0.2855743182359459 1:57 2:158 
-0.2663271133558932 1:101 2:106 
-0.2615133307311699 1:116 2:134 
-0.2706954459284089 1:107 2:16 
-0.3801178383149534 1:17 2:187 
-0.2848439860263726 1:76 2:128 
-0.3056057957843745 1:74 2:34 
-0.5 1:119 2:35 
-0.3027268372087779 1:38 2:76 
-0.03838665083599953 1:102 2:46 
-0.146184512404171 1:46 2:31 
-0.3774993796965819 1:36 2:33 
-0.1263054709813354 1:90 2:35 
-0.1293118535930727 1:39 2:114 
-0.2939402078548078 1:27 2:106 
-0.2623252999236114 1:91 2:25 
-0.4635690612794126 1:78 2:89 
-0.4630373105089876 1:45 2:124 
-0.3920760026282234 1:188 2:164 
-0.363069705780458 1:23 2:83 
-0.03142361911644079 1:57 2:41 
-0.3893082382581077 1:180 2:176 
-0.04091763800702463 1:35 2:174 
-0.2043539658229577 1:144 2:185 
-0.3712744735884242 1:16 2:176 
-0.1455221740002912 1:49 2:109 
-0.268145914081731 1:16 2:115 
-0.1953253401550437 1:190 2:151 
-0.05570804482208362 1:67 2:114 
-0.0713376185915682 1:15 2:161 
-0.007252814881599948 1:42 2:60 
-0.2099059833493986 1:145 2:86 
-0.3880073003036723 1:35 2:167 
-0.29094549108966 1:45 2:151 
-0.2312349398094194 1:115 2:16 
-0.107164934550915 1:141 2:114 
-0.3185677683344025 1:66 2:155 
-0.4768473709368408 1:119 2:178 
-0.1648847118161638 1:38 2:49 
-0.5 1:75 2:150 
-0.5 1:137 2:169 
-0.4140639517241433 1:96 2:87 
-0.0377734822383583 1:42 2:44 
-0.1485404134499276 1:81 2:104 
-0.003518159802708734 1:52 2:124 
-0.1879048302588107 1:41 2:102 
-0.3259257037418189 1:109 2:89 
-0.3638781246047373 1:71 2:108 
-0.1403592152431293 1:50 2:42 
-0.141232170960201 1:56 2:97 
-0.02959019107175202 1:18 2:124 
-0.1234858925310036 1:55 2:122 
-0.2371485494136079 1:26 2:153 
-0.08909192536372709 1:13 2:148 
-0.090124959705914 1:87 2:105 
-0.2883698700673593 1:28 2:39 
-0.1701140763360165 1:132 2:103 
-0.3161667334406127 1:63 2:120 
-0.3764520746160384 1:91 2:138 
-0.5 1:129 2:126 
-0.1005583787792848 1:118 2:115 
-0.2409436922127302 1:44 2:53 
-0.3679798927748249 1:10 2:139 
-0.3610276302841826 1:23 2:93 
-0.5 1:94 2:85 
-0.04152242210276449 1:27 2:78 
-0.1884324389519302 1:90 2:127 
-0.314549012794353 1:108 2:118 
-0.06006896538839106 1:87 2:39 
-0.5 1:144 2:112 
-0.1953468976528078 1:84 2:31 
-0.02990600319326706 1:55 2:106 
-0.1072109320123363 1:24 2:175 
-0.5 1:86 2:54 
-0.01642495539811508 1:44 2:108 
-0.09196707971905808 1:164 2:180 
-0.5 1:81 2:55 
-0.2369734951485778 1:24 2:145 
-0.3790174917034753 1:28 2:187 
-0.5 1:42 2:66 
-0.4471024001433708 1:55 2:140 
-0.199116679995781 1:170 2:166 
-0.5 1:124 2:169 
-0.07904837040228498 1:95 2:30 
-0.314868280568197 1:99 2:20 
-0.142676332033261 1:138 2:183 
