svm_type c_svc
kernel_type rbf
gamma 3.05176e-05
nr_class 2
total_sv 489
rho -10.7114
label 1 -1
nr_sv 240 249
SV
25068.43050136779 1:2 2:48 3:2 4:60 5:1 6:3 7:2 8:2 9:1 10:22 11:3 12:1 13:1 14:1 15:1 16:0 17:0 18:1 19:0 20:0 21:1 22:0 23:0 24:1 
32768 1:1 2:24 3:3 4:49 5:1 6:3 7:3 8:4 9:4 10:53 11:3 12:2 13:2 14:1 15:1 16:1 17:0 18:1 19:0 20:0 21:0 22:0 23:0 24:1 
32768 1:2 2:30 3:4 4:52 5:1 6:1 7:4 8:2 9:3 10:28 11:3 12:2 13:1 14:1 15:1 16:1 17:0 18:1 19:0 20:0 21:1 22:0 23:0 24:0 
32768 1:2 2:12 3:2 4:13 5:1 6:2 7:2 8:1 9:3 10:25 11:3 12:1 13:1 14:1 15:1 16:1 17:0 18:1 19:0 20:1 21:0 22:0 23:0 24:1 
32768 1:1 2:24 3:4 4:12 5:1 6:5 7:3 8:4 9:3 10:60 11:3 12:2 13:1 14:1 15:1 16:1 17:0 18:1 19:0 20:0 21:1 22:0 23:1 24:0 
32768 1:1 2:24 3:2 4:13 5:2 6:3 7:2 8:2 9:3 10:32 11:3 12:1 13:1 14:1 15:1 16:0 17:0 18:1 19:0 20:0 21:1 22:0 23:1 24:0 
32768 1:3 2:18 3:2 4:21 5:1 6:3 7:3 8:2 9:1 10:37 11:2 12:1 13:1 14:1 15:1 16:0 17:0 18:0 19:1 20:0 21:1 22:0 23:0 24:1 
13538.70710796385 1:1 2:48 3:4 4:61 5:1 6:5 7:2 8:4 9:4 10:58 11:2 12:2 13:1 14:1 15:1 16:0 17:1 18:1 19:0 20:0 21:0 22:0 23:1 24:0 
7047.781210918571 1:2 2:36 3:3 4:22 5:1 6:5 7:3 8:4 9:4 10:57 11:1 12:2 13:1 14:2 15:1 16:1 17:0 18:1 19:0 20:0 21:0 22:0 23:0 24:1 
32768 1:2 2:12 3:2 4:65 5:5 6:1 7:3 8:1 9:4 10:52 11:3 12:1 13:1 14:2 15:1 16:0 17:0 18:1 19:0 20:0 21:1 22:0 23:0 24:0 
2215.862970802044 1:2 2:36 3:0 4:20 5:1 6:5 7:3 8:4 9:4 10:61 11:3 12:1 13:1 14:2 15:1 16:0 17:0 18:1 19:0 20:0 21:0 22:0 23:0 24:0 
32768 1:4 2:36 3:2 4:18 5:1 6:3 7:3 8:4 9:4 10:37 11:2 12:1 13:1 14:2 15:1 16:0 17:0 18:1 19:0 20:0 21:0 22:0 23:0 24:1 
32768 1:1 2:36 3:2 4:20 5:5 6:5 7:3 8:4 9:4 10:40 11:3 12:1 13:1 14:2 15:1 16:0 17:0 18:1 19:0 20:0 21:1 22:0 23:0 24:0 
32768 1:1 2:42 3:2 4:40 5:1 6:2 7:3 8:3 9:3 10:34 11:3 12:1 13:1 14:1 15:1 16:0 17:0 18:1 19:0 20:0 21:1 22:0 23:0 24:1 
32768 1:4 2:24 3:2 4:59 5:5 6:2 7:2 8:1 9:3 10:44 11:3 12:2 13:1 14:2 15:1 16:0 17:0 18:1 19:0 20:0 21:1 22:0 23:0 24:1 
32768 1:2 2:36 3:2 4:126 5:2 6:3 7:3 8:4 9:4 10:47 11:3 12:1 13:2 14:2 15:1 16:0 17:0 18:1 19:0 20:0 21:0 22:0 23:0 24:1 
32768 1:1 2:12 3:0 4:11 5:1 6:4 7:3 8:3 9:1 10:28 11:3 12:2 13:1 14:1 15:1 16:0 17:0 18:1 19:0 20:0 21:1 22:0 23:0 24:1 
32768 1:4 2:12 3:4 4:8 5:5 6:5 7:2 8:3 9:2 10:33 11:1 12:1 13:2 14:1 15:1 16:0 17:0 18:1 19:0 20:0 21:1 22:0 23:1 24:0 
2258.287650461828 1:2 2:54 3:0 4:159 5:1 6:2 7:3 8:4 9:4 10:58 11:3 12:1 13:1 14:2 15:1 16:0 17:0 18:1 19:0 20:1 21:0 22:0 23:0 24:1 
25493.07764528591 1:2 2:24 3:4 4:119 5:1 6:3 7:3 8:3 9:3 10:39 11:3 12:2 13:2 14:2 15:1 16:0 17:0 18:0 19:1 20:0 21:1 22:0 23:0 24:0 
32768 1:4 2:18 3:1 4:65 5:1 6:5 7:3 8:4 9:4 10:39 11:1 12:2 13:2 14:2 15:1 16:1 17:0 18:1 19:0 20:0 21:1 22:0 23:0 24:0 
24020.48399746004 1:4 2:36 3:4 4:79 5:1 6:3 7:2 8:2 9:1 10:25 11:2 12:2 13:1 14:2 15:1 16:1 17:0 18:1 19:0 20:0 21:1 22:0 23:0 24:1 
32768 1:1 2:42 3:2 4:72 5:5 6:4 7:2 8:3 9:3 10:30 11:3 12:1 13:1 14:2 15:1 16:0 17:0 18:1 19:0 20:0 21:1 22:0 23:0 24:0 
32768 1:1 2:33 3:4 4:43 5:3 6:3 7:2 8:4 9:3 10:23 11:3 12:2 13:1 14:1 15:1 16:0 17:0 18:1 19:0 20:0 21:1 22:0 23:0 24:1 
32768 1:1 2:21 3:2 4:18 5:1 6:3 7:2 8:2 9:1 10:25 11:3 12:2 13:1 14:2 15:1 16:0 17:0 18:1 19:0 20:0 21:1 22:0 23:0 24:1 
32768 1:2 2:18 3:2 4:19 5:5 6:2 7:2 8:3 9:1 10:27 11:3 12:1 13:1 14:1 15:1 16:0 17:0 18:1 19:0 20:1 21:0 22:0 23:0 24:1 
32768 1:2 2:12 3:2 4:6 5:1 6:3 7:3 8:2 9:3 10:30 11:3 12:1 13:1 14:1 15:1 16:0 17:0 18:1 19:0 20:0 21:1 22:0 23:0 24:1 
32768 1:1 2:12 3:4 4:35 5:1 6:3 7:2 8:2 9:1 10:29 11:3 12:2 13:1 14:1 15:1 16:1 17:0 18:0 19:1 20:0 21:1 22:0 23:0 24:1 
32768 1:1 2:36 3:3 4:69 5:1 6:3 7:3 8:3 9:2 10:29 11:2 12:1 13:1 14:2 15:1 16:0 17:0 18:1 19:0 20:0 21:1 22:0 23:0 24:1 
32768 1:2 2:12 3:2 4:8 5:3 6:3 7:3 8:3 9:1 10:66 11:3 12:1 13:1 14:1 15:1 16:0 17:0 18:1 19:0 20:0 21:1 22:0 23:1 24:0 
32768 1:1 2:18 3:2 4:25 5:1 6:3 7:3 8:2 9:3 10:22 11:3 12:1 13:1 14:1 15:1 16:0 17:0 18:1 19:0 20:0 21:1 22:0 23:0 24:1 
32768 1:1 2:12 3:2 4:13 5:1 6:3 7:2 8:4 9:3 10:20 11:3 12:1 13:1 14:1 15:1 16:0 17:0 18:1 19:0 20:1 21:0 22:0 23:0 24:1 
32768 1:2 2:24 3:4 4:19 5:1 6:5 7:1 8:4 9:1 10:31 11:3 12:2 13:1 14:2 15:1 16:0 17:0 18:1 19:0 20:0 21:1 22:0 23:0 24:1 
32768 1:2 2:24 3:3 4:21 5:1 6:1 7:2 8:2 9:2 10:34 11:3 12:1 13:1 14:2 15:1 16:0 17:0 18:1 19:0 20:0 21:1 22:0 23:0 24:0 
32768 1:1 2:21 3:3 4:34 5:1 6:2 7:3 8:1 9:2 10:26 11:3 12:2 13:1 14:1 15:1 16:0 17:0 18:1 19:0 20:0 21:1 22:0 23:0 24:1 
32768 1:4 2:30 3:1 4:75 5:5 6:1 7:2 8:1 9:1 10:53 11:1 12:1 13:1 14:2 15:1 16:0 17:1 18:1 19:0 20:0 21:1 22:0 23:0 24:0 
32768 1:4 2:36 3:3 4:96 5:1 6:2 7:1 8:1 9:3 10:28 11:3 12:2 13:1 14:1 15:1 16:0 17:0 18:1 19:0 20:0 21:1 22:0 23:0 24:1 
32768 1:2 2:36 3:3 4:45 5:1 6:3 7:1 8:2 9:1 10:30 11:2 12:2 13:1 14:2 15:1 16:0 17:0 18:1 19:0 20:0 21:1 22:0 23:0 24:0 
32768 1:2 2:18 3:4 4:9 5:1 6:5 7:3 8:4 9:3 10:36 11:1 12:1 13:2 14:2 15:1 16:1 17:0 18:1 19:0 20:0 21:1 22:0 23:0 24:1 
29971.35927158959 1:2 2:9 3:1 4:51 5:1 6:5 7:2 8:4 9:4 10:74 11:1 12:1 13:2 14:2 15:1 16:0 17:1 18:1 19:0 20:0 21:0 22:0 23:0 24:0 
32768 1:1 2:12 3:2 4:7 5:2 6:4 7:4 8:1 9:2 10:20 11:3 12:1 13:1 14:1 15:1 16:0 17:0 18:1 19:0 20:0 21:1 22:0 23:0 24:1 
32768 1:4 2:24 3:2 4:46 5:4 6:3 7:3 8:3 9:2 10:54 11:3 12:3 13:1 14:2 15:1 16:0 17:0 18:1 19:0 20:0 21:1 22:0 23:0 24:0 
15666.19580237877 1:2 2:48 3:0 4:38 5:2 6:4 7:3 8:4 9:4 10:34 11:3 12:1 13:2 14:1 15:1 16:0 17:0 18:1 19:0 20:0 21:0 22:0 23:1 24:0 
32768 1:2 2:27 3:2 4:39 5:1 6:3 7:3 8:2 9:3 10:36 11:3 12:1 13:2 14:2 15:1 16:0 17:0 18:1 19:0 20:0 21:1 22:0 23:0 24:1 
14344.88793868272 1:2 2:45 3:2 4:30 5:2 6:3 7:3 8:4 9:2 10:21 11:3 12:1 13:1 14:1 15:1 16:0 17:0 18:0 19:0 20:1 21:0 22:0 23:0 24:1 
32768 1:2 2:9 3:4 4:15 5:1 6:5 7:2 8:3 9:3 10:34 11:3 12:2 13:1 14:2 15:1 16:0 17:0 18:1 19:0 20:0 21:1 22:0 23:0 24:0 
32768 1:2 2:18 3:3 4:43 5:1 6:5 7:1 8:3 9:4 10:40 11:3 12:1 13:1 14:2 15:1 16:0 17:0 18:1 19:0 20:0 21:1 22:0 23:0 24:0 
32768 1:1 2:12 3:2 4:9 5:1 6:4 7:4 8:4 9:2 10:21 11:3 12:1 13:1 14:1 15:1 16:0 17:0 18:1 19:0 20:1 21:0 22:0 23:0 24:1 
32768 1:1 2:27 3:0 4:53 5:1 6:1 7:3 8:4 9:2 10:50 11:2 12:2 13:1 14:2 15:1 16:0 17:0 18:1 19:0 20:0 21:1 22:0 23:0 24:1 
32768 1:3 2:30 3:3 4:19 5:1 6:5 7:3 8:4 9:1 10:66 11:3 12:1 13:1 14:2 15:1 16:0 17:0 18:1 19:0 20:0 21:1 22:0 23:0 24:0 
32768 1:4 2:9 3:2 4:15 5:1 6:4 7:3 8:2 9:3 10:22 11:3 12:1 13:1 14:1 15:1 16:0 17:0 18:1 19:0 20:0 21:1 22:0 23:0 24:1 
32768 1:3 2:36 3:2 4:42 5:1 6:3 7:3 8:2 9:3 10:26 11:3 12:1 13:1 14:1 15:1 16:0 17:0 18:1 19:0 20:0 21:1 22:0 23:0 24:1 
32768 1:2 2:21 3:2 4:28 5:2 6:5 7:1 8:2 9:3 10:61 11:1 12:2 13:1 14:1 15:1 16:0 17:0 18:1 19:0 20:1 21:0 22:0 23:1 24:0 
32768 1:1 2:48 3:0 4:46 5:1 6:5 7:3 8:4 9:4 10:24 11:3 12:2 13:2 14:1 15:1 16:0 17:1 18:1 19:0 20:0 21:0 22:0 23:0 24:1 
32768 1:4 2:18 3:2 4:4 5:1 6:1 7:2 8:4 9:1 10:22 11:3 12:1 13:1 14:1 15:1 16:0 17:0 18:0 19:1 20:1 21:0 22:0 23:0 24:1 
32768 1:2 2:30 3:2 4:22 5:1 6:3 7:2 8:2 9:4 10:24 11:1 12:1 13:1 14:1 15:1 16:1 17:0 18:0 19:0 20:0 21:1 22:0 23:0 24:1 
32768 1:1 2:12 3:1 4:21 5:1 6:3 7:1 8:1 9:4 10:29 11:3 12:1 13:1 14:1 15:1 16:0 17:0 18:1 19:0 20:0 21:0 22:0 23:0 24:1 
32768 1:2 2:15 3:2 4:8 5:1 6:5 7:3 8:3 9:3 10:37 11:3 12:1 13:2 14:1 15:1 16:0 17:0 18:1 19:0 20:0 21:1 22:0 23:0 24:1 
14176.631325407 1:1 2:14 3:2 4:90 5:1 6:5 7:1 8:4 9:2 10:45 11:3 12:1 13:1 14:2 15:2 16:1 17:0 18:1 19:0 20:0 21:1 22:0 23:0 24:0 
12852.52653670579 1:1 2:30 3:2 4:120 5:1 6:2 7:1 8:1 9:4 10:34 11:3 12:1 13:1 14:2 15:1 16:0 17:0 18:1 19:0 20:0 21:1 22:0 23:1 24:0 
32768 1:4 2:6 3:2 4:46 5:1 6:2 7:2 8:4 9:2 10:32 11:3 12:1 13:1 14:1 15:1 16:0 17:0 18:1 19:0 20:0 21:1 22:0 23:0 24:1 
32768 1:1 2:24 3:3 4:10 5:1 6:2 7:4 8:4 9:1 10:48 11:2 12:1 13:1 14:1 15:1 16:0 17:0 18:1 19:0 20:0 21:1 22:0 23:0 24:1 
32768 1:2 2:36 3:2 4:94 5:1 6:2 7:4 8:4 9:3 10:28 11:3 12:1 13:1 14:2 15:1 16:0 17:1 18:1 19:0 20:1 21:0 22:0 23:0 24:0 
26738.6690589934 1:2 2:48 3:2 4:100 5:1 6:2 7:2 8:2 9:3 10:26 11:3 12:1 13:1 14:2 15:1 16:0 17:0 18:1 19:0 20:0 21:1 22:0 23:0 24:1 
32768 1:2 2:36 3:0 4:38 5:1 6:3 7:2 8:1 9:3 10:42 11:3 12:1 13:1 14:2 15:1 16:0 17:0 18:1 19:0 20:0 21:1 22:0 23:0 24:1 
32768 1:3 2:24 3:4 4:13 5:5 6:4 7:3 8:2 9:1 10:37 11:1 12:2 13:2 14:1 15:1 16:1 17:0 18:1 19:0 20:0 21:1 22:0 23:1 24:0 
32768 1:4 2:48 3:4 4:101 5:3 6:3 7:3 8:2 9:4 10:44 11:1 12:1 13:1 14:1 15:1 16:1 17:0 18:1 19:0 20:0 21:0 22:0 23:0 24:1 
32768 1:1 2:12 3:2 4:7 5:2 6:2 7:4 8:3 9:4 10:33 11:3 12:1 13:1 14:2 15:1 16:0 17:0 18:1 19:0 20:0 21:1 22:0 23:1 24:0 
32768 1:2 2:8 3:2 4:12 5:1 6:3 7:2 8:4 9:1 10:24 11:3 12:1 13:1 14:1 15:1 16:0 17:0 18:1 19:0 20:0 21:1 22:0 23:0 24:1 
32768 1:2 2:12 3:2 4:7 5:1 6:4 7:4 8:3 9:3 10:25 11:1 12:1 13:1 14:1 15:1 16:1 17:0 18:1 19:0 20:0 21:1 22:0 23:1 24:0 
32768 1:2 2:30 3:4 4:42 5:1 6:1 7:4 8:2 9:3 10:28 11:3 12:2 13:1 14:1 15:1 16:1 17:0 18:1 19:0 20:0 21:1 22:0 23:0 24:0 
32768 1:1 2:24 3:2 4:19 5:1 6:2 7:1 8:3 9:2 10:32 11:3 12:1 13:1 14:1 15:1 16:0 17:0 18:1 19:0 20:0 21:1 22:0 23:0 24:1 
32768 1:4 2:18 3:4 4:19 5:2 6:3 7:2 8:2 9:1 10:30 11:3 12:2 13:1 14:1 15:1 16:0 17:0 18:1 19:0 20:0 21:1 22:0 23:0 24:1 
32768 1:4 2:48 3:4 4:116 5:2 6:3 7:2 8:4 9:3 10:24 11:1 12:2 13:1 14:1 15:1 16:0 17:1 18:1 19:0 20:1 21:0 22:0 23:1 24:0 
32768 1:1 2:24 3:0 4:41 5:1 6:5 7:3 8:4 9:4 10:23 11:1 12:2 13:2 14:1 15:1 16:0 17:0 18:1 19:0 20:1 21:0 22:0 23:0 24:1 
32768 1:1 2:6 3:4 4:34 5:1 6:3 7:1 8:4 9:1 10:44 11:3 12:1 13:1 14:2 15:1 16:0 17:0 18:1 19:0 20:1 21:0 22:0 23:0 24:0 
32768 1:1 2:15 3:2 4:13 5:5 6:3 7:2 8:2 9:3 10:24 11:3 12:1 13:1 14:1 15:1 16:0 17:0 18:1 19:0 20:1 21:0 22:0 23:0 24:1 
32768 1:2 2:9 3:4 4:11 5:4 6:5 7:3 8:3 9:4 10:32 11:3 12:2 13:2 14:1 15:1 16:0 17:0 18:1 19:0 20:0 21:0 22:0 23:0 24:1 
32768 1:2 2:9 3:2 4:10 5:1 6:3 7:2 8:2 9:3 10:29 11:3 12:1 13:1 14:1 15:2 16:0 17:0 18:1 19:0 20:0 21:1 22:0 23:0 24:1 
28115.08296590698 1:1 2:12 3:0 4:62 5:1 6:3 7:3 8:2 9:2 10:28 11:3 12:2 13:1 14:2 15:1 16:0 17:0 18:1 19:0 20:1 21:0 22:0 23:0 24:1 
32768 1:4 2:36 3:3 4:45 5:1 6:3 7:3 8:2 9:3 10:26 11:3 12:2 13:1 14:2 15:1 16:0 17:0 18:1 19:0 20:0 21:1 22:0 23:0 24:0 
32768 1:1 2:18 3:2 4:25 5:1 6:1 7:3 8:1 9:3 10:25 11:3 12:1 13:1 14:1 15:1 16:0 17:0 18:1 19:0 20:0 21:1 22:1 23:0 24:0 
32768 1:1 2:36 3:2 4:34 5:1 6:5 7:3 8:2 9:3 10:42 11:3 12:1 13:2 14:1 15:1 16:0 17:0 18:1 19:0 20:0 21:1 22:0 23:0 24:1 
11953.35355694656 1:2 2:60 3:1 4:148 5:2 6:5 7:2 8:4 9:4 10:60 11:1 12:2 13:1 14:2 15:1 16:0 17:0 18:1 19:0 20:0 21:0 22:0 23:0 24:0 
18923.01909509903 1:1 2:48 3:1 4:77 5:1 6:4 7:2 8:4 9:3 10:37 11:3 12:1 13:1 14:1 15:1 16:0 17:0 18:0 19:0 20:1 21:0 22:0 23:0 24:1 
32768 1:2 2:12 3:2 4:12 5:1 6:5 7:1 8:1 9:1 10:46 11:3 12:2 13:1 14:1 15:1 16:1 17:0 18:1 19:0 20:1 21:0 22:0 23:0 24:1 
32768 1:4 2:24 3:3 4:86 5:1 6:2 7:3 8:2 9:3 10:27 11:1 12:2 13:1 14:2 15:1 16:0 17:0 18:1 19:0 20:0 21:1 22:0 23:0 24:1 
32768 1:2 2:24 3:2 4:20 5:1 6:2 7:4 8:1 9:2 10:22 11:3 12:1 13:1 14:2 15:1 16:0 17:0 18:1 19:0 20:0 21:1 22:0 23:0 24:1 
32768 1:3 2:12 3:4 4:9 5:3 6:4 7:4 8:2 9:1 10:28 11:3 12:3 13:1 14:2 15:1 16:1 17:0 18:1 19:0 20:0 21:1 22:0 23:0 24:1 
32768 1:4 2:12 3:4 4:23 5:1 6:1 7:3 8:2 9:3 10:42 11:2 12:2 13:1 14:2 15:1 16:0 17:0 18:1 19:0 20:0 21:1 22:0 23:0 24:0 
32768 1:1 2:24 3:2 4:14 5:5 6:3 7:2 8:2 9:2 10:35 11:3 12:1 13:1 14:1 15:1 16:1 17:0 18:1 19:0 20:0 21:1 22:0 23:0 24:1 
32768 1:1 2:12 3:2 4:26 5:1 6:2 7:3 8:1 9:1 10:33 11:3 12:1 13:2 14:1 15:1 16:1 17:0 18:1 19:0 20:0 21:1 22:0 23:1 24:0 
32768 1:2 2:18 3:2 4:10 5:5 6:3 7:2 8:2 9:2 10:33 11:3 12:1 13:1 14:1 15:1 16:1 17:0 18:1 19:0 20:0 21:1 22:0 23:0 24:1 
32768 1:2 2:12 3:2 4:28 5:5 6:5 7:2 8:2 9:2 10:25 11:1 12:1 13:1 14:2 15:1 16:0 17:0 18:1 19:0 20:0 21:1 22:0 23:0 24:1 
32768 1:1 2:18 3:4 4:12 5:1 6:1 7:2 8:4 9:4 10:55 11:3 12:3 13:2 14:1 15:1 16:0 17:0 18:1 19:0 20:0 21:0 22:1 23:0 24:0 
32768 1:2 2:12 3:2 4:15 5:5 6:3 7:4 8:1 9:1 10:25 11:3 12:1 13:1 14:2 15:1 16:0 17:0 18:1 19:0 20:0 21:1 22:0 23:0 24:1 
32768 1:3 2:12 3:1 4:6 5:1 6:2 7:2 8:1 9:1 10:26 11:3 12:1 13:1 14:1 15:1 16:0 17:0 18:1 19:0 20:0 21:1 22:1 23:0 24:0 
32768 1:4 2:12 3:2 4:7 5:1 6:5 7:3 8:4 9:3 10:41 11:1 12:1 13:2 14:1 15:1 16:0 17:0 18:1 19:0 20:0 21:1 22:0 23:1 24:0 
32768 1:2 2:48 3:4 4:51 5:1 6:3 7:2 8:3 9:3 10:30 11:3 12:1 13:1 14:2 15:1 16:0 17:0 18:1 19:0 20:0 21:1 22:0 23:0 24:0 
32768 1:2 2:15 3:3 4:15 5:4 6:3 7:4 8:3 9:2 10:61 11:2 12:2 13:1 14:1 15:1 16:0 17:0 18:1 19:0 20:0 21:1 22:0 23:0 24:1 
32768 1:1 2:24 3:2 4:48 5:1 6:4 7:3 8:3 9:2 10:31 11:3 12:1 13:1 14:2 15:1 16:1 17:0 18:0 19:1 20:0 21:1 22:0 23:0 24:1 
32768 1:1 2:12 3:2 4:34 5:1 6:5 7:3 8:4 9:4 10:35 11:3 12:1 13:1 14:2 15:1 16:0 17:1 18:1 19:0 20:0 21:0 22:0 23:0 24:1 
32768 1:1 2:24 3:3 4:17 5:1 6:2 7:2 8:2 9:3 10:29 11:3 12:1 13:1 14:2 15:1 16:0 17:0 18:1 19:0 20:1 21:0 22:0 23:1 24:0 
32768 1:2 2:24 3:2 4:31 5:2 6:2 7:4 8:2 9:3 10:22 11:3 12:1 13:1 14:2 15:1 16:0 17:0 18:1 19:0 20:1 21:0 22:0 23:0 24:1 
32768 1:1 2:6 3:2 4:4 5:1 6:2 7:2 8:4 9:2 10:23 11:3 12:1 13:1 14:1 15:1 16:0 17:0 18:1 19:0 20:0 21:1 22:0 23:0 24:1 
32768 1:1 2:9 3:2 4:7 5:1 6:3 7:3 8:3 9:3 10:28 11:3 12:1 13:1 14:1 15:1 16:1 17:0 18:1 19:0 20:0 21:1 22:0 23:1 24:0 
32768 1:2 2:18 3:4 4:12 5:1 6:3 7:4 8:2 9:3 10:33 11:3 12:1 13:1 14:1 15:1 16:0 17:0 18:1 19:0 20:0 21:1 22:0 23:0 24:1 
32768 1:1 2:18 3:0 4:31 5:1 6:2 7:2 8:4 9:2 10:26 11:3 12:1 13:1 14:1 15:1 16:0 17:0 18:1 19:0 20:1 21:0 22:0 23:0 24:1 
32768 1:2 2:6 3:3 4:12 5:1 6:1 7:3 8:4 9:2 10:47 11:3 12:1 13:1 14:2 15:1 16:1 17:0 18:1 19:0 20:0 21:1 22:0 23:0 24:0 
32768 1:1 2:24 3:2 4:30 5:5 6:3 7:4 8:4 9:3 10:20 11:3 12:1 13:1 14:1 15:1 16:0 17:0 18:1 19:0 20:0 21:1 22:0 23:0 24:1 
32768 1:1 2:24 3:2 4:31 5:1 6:2 7:2 8:1 9:2 10:27 11:3 12:1 13:1 14:1 15:1 16:1 17:0 18:1 19:0 20:0 21:1 22:0 23:0 24:1 
13821.22875529442 1:2 2:24 3:4 4:12 5:2 6:2 7:3 8:4 9:4 10:38 11:1 12:2 13:2 14:1 15:1 16:0 17:0 18:1 19:0 20:0 21:1 22:0 23:0 24:1 
32768 1:4 2:10 3:2 4:13 5:5 6:3 7:3 8:4 9:2 10:27 11:3 12:1 13:1 14:1 15:1 16:1 17:0 18:0 19:0 20:0 21:1 22:0 23:1 24:0 
32768 1:2 2:15 3:1 4:68 5:2 6:1 7:3 8:2 9:2 10:34 11:3 12:1 13:2 14:2 15:1 16:1 17:0 18:1 19:0 20:0 21:1 22:0 23:0 24:0 
32768 1:1 2:12 3:2 4:8 5:1 6:4 7:3 8:2 9:1 10:26 11:3 12:1 13:1 14:1 15:1 16:1 17:0 18:1 19:0 20:0 21:1 22:0 23:0 24:1 
32768 1:1 2:18 3:2 4:32 5:1 6:3 7:2 8:2 9:1 10:24 11:3 12:1 13:1 14:1 15:1 16:0 17:0 18:1 19:0 20:0 21:1 22:0 23:0 24:1 
12066.49443330249 1:1 2:48 3:0 4:71 5:1 6:3 7:3 8:4 9:4 10:53 11:3 12:2 13:2 14:1 15:1 16:0 17:0 18:1 19:0 20:0 21:0 22:0 23:0 24:1 
32768 1:2 2:15 3:2 4:26 5:2 6:3 7:2 8:4 9:3 10:28 11:3 12:2 13:1 14:2 15:1 16:1 17:0 18:1 19:0 20:1 21:0 22:0 23:0 24:1 
32768 1:3 2:21 3:4 4:23 5:1 6:2 7:1 8:1 9:3 10:33 11:3 12:1 13:1 14:1 15:1 16:0 17:0 18:1 19:0 20:1 21:0 22:0 23:0 24:1 
32768 1:2 2:12 3:2 4:15 5:1 6:2 7:4 8:1 9:1 10:23 11:3 12:1 13:1 14:1 15:1 16:0 17:0 18:1 19:0 20:1 21:0 22:0 23:0 24:1 
32768 1:1 2:30 3:2 4:64 5:5 6:5 7:3 8:4 9:2 10:31 11:3 12:1 13:1 14:1 15:1 16:0 17:0 18:1 19:0 20:0 21:1 22:0 23:0 24:1 
32768 1:3 2:18 3:2 4:29 5:1 6:3 7:3 8:1 9:1 10:34 11:3 12:1 13:2 14:1 15:1 16:0 17:0 18:1 19:0 20:0 21:1 22:0 23:1 24:0 
32768 1:1 2:12 3:1 4:6 5:1 6:3 7:2 8:4 9:1 10:24 11:1 12:1 13:1 14:1 15:1 16:0 17:0 18:1 19:0 20:0 21:1 22:0 23:1 24:0 
32768 1:1 2:48 3:2 4:70 5:1 6:4 7:4 8:1 9:1 10:34 11:3 12:2 13:1 14:2 15:1 16:0 17:0 18:0 19:0 20:0 21:1 22:0 23:0 24:1 
32768 1:2 2:12 3:2 4:13 5:1 6:2 7:3 8:1 9:3 10:22 11:2 12:1 13:1 14:1 15:1 16:0 17:0 18:1 19:0 20:0 21:1 22:0 23:0 24:1 
263.9330396298882 1:2 2:18 3:0 4:23 5:2 6:2 7:2 8:3 9:3 10:28 11:3 12:2 13:1 14:1 15:1 16:1 17:0 18:1 19:0 20:0 21:1 22:0 23:0 24:1 
32768 1:4 2:21 3:0 4:50 5:5 6:3 7:2 8:4 9:2 10:29 11:1 12:2 13:1 14:2 15:1 16:1 17:0 18:1 19:0 20:0 21:1 22:0 23:0 24:1 
32768 1:1 2:24 3:1 4:36 5:1 6:4 7:3 8:4 9:3 10:27 11:1 12:1 13:1 14:1 15:1 16:0 17:0 18:1 19:0 20:0 21:1 22:0 23:0 24:1 
32768 1:2 2:18 3:4 4:19 5:1 6:2 7:3 8:2 9:1 10:31 11:3 12:2 13:1 14:1 15:1 16:0 17:0 18:1 19:0 20:0 21:1 22:0 23:1 24:0 
7540.943944157822 1:1 2:24 3:1 4:15 5:1 6:4 7:3 8:4 9:3 10:24 11:1 12:1 13:1 14:1 15:1 16:0 17:0 18:0 19:0 20:1 21:0 22:0 23:1 24:0 
32768 1:2 2:36 3:2 4:124 5:5 6:3 7:3 8:4 9:4 10:37 11:3 12:1 13:1 14:2 15:1 16:1 17:0 18:1 19:0 20:0 21:0 22:0 23:0 24:1 
32768 1:1 2:12 3:2 4:14 5:1 6:4 7:1 8:3 9:3 10:36 11:3 12:1 13:1 14:1 15:1 16:1 17:0 18:1 19:0 20:0 21:1 22:0 23:0 24:1 
32768 1:1 2:24 3:2 4:32 5:1 6:2 7:2 8:4 9:1 10:23 11:3 12:1 13:1 14:2 15:1 16:0 17:0 18:1 19:0 20:1 21:0 22:0 23:1 24:0 
32768 1:2 2:18 3:4 4:11 5:1 6:5 7:3 8:3 9:1 10:30 11:1 12:2 13:1 14:1 15:1 16:1 17:0 18:0 19:0 20:0 21:1 22:0 23:0 24:1 
32768 1:1 2:18 3:2 4:20 5:1 6:3 7:2 8:4 9:1 10:20 11:1 12:1 13:1 14:1 15:1 16:0 17:0 18:1 19:0 20:1 21:0 22:0 23:0 24:1 
32768 1:1 2:18 3:2 4:12 5:1 6:3 7:4 8:3 9:1 10:47 11:3 12:1 13:1 14:2 15:1 16:0 17:0 18:1 19:0 20:0 21:1 22:0 23:1 24:0 
32768 1:1 2:12 3:4 4:22 5:1 6:5 7:3 8:3 9:2 10:60 11:3 12:2 13:1 14:1 15:1 16:0 17:0 18:1 19:0 20:0 21:1 22:0 23:0 24:1 
32768 1:2 2:24 3:2 4:27 5:1 6:3 7:2 8:4 9:2 10:20 11:3 12:1 13:1 14:2 15:1 16:1 17:0 18:1 19:0 20:1 21:0 22:0 23:1 24:0 
32768 1:1 2:24 3:1 4:14 5:5 6:5 7:3 8:3 9:3 10:40 11:2 12:1 13:1 14:2 15:1 16:0 17:0 18:1 19:0 20:0 21:1 22:0 23:0 24:0 
32768 1:2 2:6 3:1 4:9 5:2 6:2 7:2 8:1 9:2 10:32 11:2 12:1 13:1 14:1 15:1 16:1 17:0 18:1 19:0 20:0 21:1 22:0 23:1 24:0 
32768 1:2 2:24 3:0 4:42 5:1 6:3 7:3 8:4 9:1 10:36 11:3 12:3 13:1 14:2 15:1 16:0 17:0 18:1 19:0 20:0 21:1 22:0 23:1 24:0 
32768 1:4 2:18 3:4 4:28 5:1 6:4 7:3 8:2 9:2 10:31 11:1 12:2 13:1 14:1 15:1 16:1 17:0 18:1 19:0 20:0 21:1 22:0 23:0 24:1 
32768 1:2 2:9 3:2 4:9 5:1 6:3 7:2 8:1 9:2 10:30 11:3 12:1 13:1 14:1 15:1 16:0 17:0 18:1 19:0 20:0 21:1 22:0 23:0 24:1 
9058.470551391145 1:2 2:24 3:1 4:18 5:1 6:4 7:2 8:4 9:4 10:34 11:1 12:1 13:1 14:1 15:1 16:0 17:0 18:1 19:0 20:0 21:0 22:0 23:1 24:0 
32768 1:4 2:36 3:2 4:33 5:1 6:3 7:2 8:2 9:3 10:28 11:3 12:1 13:1 14:2 15:1 16:0 17:0 18:1 19:0 20:0 21:1 22:0 23:0 24:0 
32768 1:2 2:36 3:2 4:27 5:2 6:3 7:2 8:4 9:4 10:50 11:3 12:1 13:1 14:1 15:1 16:0 17:0 18:0 19:1 20:0 21:0 22:0 23:0 24:1 
23043.63987104757 1:1 2:12 3:2 4:7 5:2 6:1 7:2 8:3 9:2 10:22 11:3 12:1 13:1 14:1 15:1 16:0 17:0 18:1 19:0 20:0 21:1 22:0 23:0 24:1 
32768 1:3 2:10 3:2 4:12 5:2 6:5 7:2 8:4 9:4 10:48 11:3 12:1 13:2 14:1 15:1 16:1 17:0 18:1 19:0 20:0 21:0 22:0 23:1 24:0 
32768 1:4 2:18 3:3 4:18 5:1 6:4 7:2 8:1 9:1 10:22 11:3 12:1 13:1 14:1 15:1 16:0 17:0 18:1 19:0 20:0 21:1 22:0 23:0 24:1 
20722.68617886431 1:2 2:30 3:2 4:34 5:2 6:3 7:2 8:4 9:3 10:21 11:3 12:1 13:1 14:1 15:1 16:0 17:0 18:0 19:1 20:1 21:0 22:0 23:0 24:1 
32768 1:4 2:18 3:4 4:15 5:1 6:3 7:3 8:2 9:2 10:32 11:1 12:2 13:1 14:1 15:1 16:1 17:0 18:1 19:0 20:0 21:1 22:0 23:0 24:1 
32768 1:4 2:48 3:2 4:39 5:5 6:3 7:1 8:2 9:1 10:38 11:1 12:1 13:1 14:1 15:1 16:0 17:0 18:1 19:0 20:0 21:1 22:0 23:0 24:1 
32768 1:1 2:18 3:2 4:26 5:1 6:3 7:3 8:4 9:4 10:65 11:3 12:2 13:1 14:1 15:1 16:0 17:0 18:1 19:0 20:0 21:0 22:0 23:0 24:1 
32768 1:2 2:9 3:1 4:14 5:2 6:4 7:3 8:3 9:4 10:29 11:3 12:1 13:1 14:1 15:1 16:1 17:0 18:1 19:0 20:0 21:1 22:0 23:0 24:1 
32768 1:1 2:18 3:1 4:16 5:1 6:3 7:3 8:3 9:3 10:44 11:1 12:1 13:1 14:1 15:1 16:0 17:0 18:1 19:0 20:0 21:1 22:0 23:0 24:1 
32768 1:4 2:9 3:2 4:20 5:1 6:2 7:2 8:2 9:3 10:19 11:3 12:2 13:1 14:1 15:1 16:0 17:0 18:0 19:1 20:1 21:0 22:0 23:0 24:1 
32768 1:1 2:18 3:2 4:8 5:1 6:1 7:2 8:1 9:1 10:27 11:3 12:1 13:1 14:1 15:1 16:0 17:0 18:1 19:0 20:0 21:1 22:1 23:0 24:0 
32768 1:4 2:15 3:2 4:46 5:2 6:3 7:3 8:2 9:2 10:40 11:3 12:1 13:1 14:2 15:1 16:0 17:0 18:1 19:0 20:0 21:1 22:0 23:0 24:0 
32768 1:4 2:36 3:3 4:80 5:5 6:2 7:3 8:4 9:3 10:27 11:3 12:2 13:1 14:2 15:1 16:0 17:0 18:1 19:0 20:1 21:0 22:0 23:0 24:1 
32768 1:4 2:12 3:2 4:14 5:3 6:3 7:2 8:2 9:2 10:26 11:3 12:1 13:1 14:1 15:1 16:1 17:0 18:1 19:0 20:0 21:1 22:0 23:0 24:1 
32768 1:1 2:12 3:2 4:7 5:1 6:3 7:3 8:4 9:3 10:40 11:3 12:1 13:2 14:1 15:1 16:0 17:0 18:1 19:0 20:1 21:0 22:0 23:1 24:0 
32768 1:2 2:12 3:2 4:19 5:1 6:3 7:3 8:2 9:2 10:37 11:3 12:1 13:1 14:1 15:1 16:0 17:0 18:1 19:0 20:0 21:1 22:0 23:1 24:0 
32768 1:1 2:24 3:2 4:23 5:1 6:5 7:3 8:1 9:1 10:45 11:3 12:1 13:1 14:1 15:1 16:1 17:0 18:0 19:1 20:0 21:1 22:0 23:0 24:1 
9629.925785746114 1:2 2:36 3:3 4:81 5:2 6:5 7:3 8:4 9:3 10:42 11:3 12:4 13:1 14:2 15:1 16:1 17:0 18:1 19:0 20:0 21:1 22:0 23:0 24:0 
32768 1:2 2:12 3:2 4:9 5:1 6:5 7:3 8:4 9:3 10:41 11:1 12:1 13:2 14:1 15:1 16:1 17:0 18:1 19:0 20:0 21:1 22:0 23:1 24:0 
32768 1:1 2:12 3:2 4:9 5:5 6:3 7:4 8:2 9:3 10:23 11:3 12:1 13:1 14:1 15:1 16:1 17:0 18:1 19:0 20:0 21:1 22:0 23:0 24:1 
32768 1:1 2:12 3:4 4:48 5:1 6:5 7:3 8:4 9:2 10:43 11:3 12:2 13:1 14:2 15:1 16:1 17:0 18:0 19:1 20:1 21:0 22:0 23:0 24:1 
32768 1:4 2:21 3:3 4:26 5:3 6:2 7:3 8:2 9:1 10:41 11:1 12:1 13:2 14:1 15:1 16:0 17:0 18:1 19:0 20:0 21:1 22:0 23:1 24:0 
32768 1:4 2:12 3:2 4:11 5:3 6:3 7:2 8:4 9:3 10:29 11:3 12:1 13:1 14:1 15:1 16:0 17:0 18:1 19:0 20:1 21:0 22:0 23:1 24:0 
32768 1:1 2:48 3:4 4:63 5:1 6:5 7:3 8:4 9:4 10:46 11:3 12:2 13:1 14:2 15:1 16:0 17:1 18:1 19:0 20:0 21:0 22:0 23:0 24:1 
32768 1:2 2:48 3:2 4:66 5:2 6:4 7:3 8:2 9:2 10:24 11:3 12:1 13:1 14:1 15:1 16:1 17:0 18:1 19:0 20:0 21:1 22:0 23:0 24:1 
32768 1:2 2:12 3:0 4:30 5:1 6:2 7:2 8:3 9:2 10:25 11:3 12:2 13:1 14:1 15:1 16:0 17:0 18:1 19:0 20:1 21:0 22:0 23:0 24:1 
32768 1:1 2:6 3:1 4:12 5:1 6:5 7:2 8:4 9:4 10:35 11:3 12:1 13:1 14:1 15:1 16:0 17:0 18:1 19:0 20:0 21:0 22:0 23:0 24:1 
32768 1:2 2:60 3:2 4:140 5:1 6:4 7:3 8:2 9:4 10:27 11:3 12:1 13:1 14:2 15:1 16:1 17:0 18:1 19:0 20:0 21:1 22:0 23:0 24:0 
32768 1:3 2:9 3:0 4:13 5:1 6:2 7:3 8:2 9:3 10:34 11:3 12:2 13:1 14:2 15:1 16:0 17:0 18:1 19:0 20:0 21:1 22:0 23:0 24:0 
32768 1:2 2:6 3:1 4:4 5:4 6:2 7:2 8:2 9:2 10:24 11:1 12:1 13:2 14:1 15:1 16:0 17:0 18:1 19:0 20:1 21:0 22:0 23:0 24:1 
32768 1:1 2:12 3:2 4:12 5:1 6:3 7:2 8:2 9:1 10:24 11:3 12:1 13:1 14:1 15:1 16:1 17:0 18:1 19:0 20:0 21:1 22:0 23:1 24:0 
32768 1:4 2:27 3:2 4:26 5:1 6:3 7:2 8:3 9:1 10:21 11:3 12:1 13:1 14:1 15:1 16:1 17:0 18:1 19:0 20:1 21:0 22:0 23:0 24:1 
16640.79164931281 1:2 2:48 3:1 4:64 5:1 6:5 7:2 8:3 9:4 10:59 11:3 12:1 13:1 14:1 15:1 16:0 17:0 18:1 19:0 20:1 21:0 22:0 23:0 24:1 
32768 1:1 2:24 3:2 4:20 5:1 6:3 7:3 8:4 9:1 10:21 11:3 12:1 13:2 14:1 15:1 16:0 17:0 18:1 19:0 20:1 21:0 22:0 23:1 24:0 
32768 1:2 2:30 3:0 4:43 5:2 6:3 7:2 8:4 9:3 10:26 11:3 12:2 13:1 14:1 15:1 16:0 17:0 18:1 19:0 20:1 21:0 22:0 23:1 24:0 
32768 1:1 2:12 3:2 4:13 5:1 6:2 7:2 8:1 9:1 10:37 11:3 12:1 13:1 14:1 15:1 16:1 17:0 18:1 19:0 20:0 21:1 22:0 23:1 24:0 
32768 1:4 2:12 3:3 4:16 5:4 6:5 7:3 8:4 9:4 10:55 11:3 12:2 13:2 14:1 15:1 16:0 17:0 18:1 19:0 20:0 21:0 22:0 23:0 24:1 
32768 1:3 2:15 3:4 4:13 5:5 6:3 7:3 8:4 9:4 10:39 11:3 12:2 13:1 14:2 15:1 16:0 17:0 18:1 19:0 20:0 21:0 22:0 23:0 24:1 
32768 1:1 2:12 3:4 4:7 5:1 6:5 7:3 8:3 9:2 10:35 11:3 12:2 13:1 14:1 15:1 16:1 17:0 18:1 19:0 20:0 21:1 22:0 23:0 24:1 
32768 1:1 2:18 3:4 4:21 5:1 6:3 7:2 8:4 9:1 10:24 11:3 12:2 13:1 14:1 15:1 16:0 17:0 18:1 19:0 20:1 21:0 22:0 23:0 24:1 
32768 1:1 2:30 3:2 4:31 5:1 6:2 7:1 8:4 9:2 10:31 11:3 12:1 13:1 14:1 15:1 16:0 17:0 18:1 19:0 20:0 21:1 22:0 23:1 24:0 
32768 1:1 2:36 3:4 4:81 5:1 6:3 7:2 8:2 9:4 10:25 11:3 12:2 13:1 14:2 15:1 16:0 17:0 18:1 19:0 20:0 21:1 22:0 23:0 24:0 
23727.28139039334 1:1 2:24 3:2 4:14 5:5 6:3 7:2 8:4 9:1 10:25 11:3 12:1 13:1 14:1 15:1 16:1 17:0 18:1 19:0 20:1 21:0 22:0 23:0 24:1 
32768 1:2 2:39 3:4 4:49 5:1 6:4 7:3 8:2 9:1 10:25 11:3 12:2 13:1 14:1 15:1 16:0 17:0 18:0 19:0 20:0 21:1 22:0 23:0 24:1 
32768 1:2 2:48 3:3 4:62 5:1 6:5 7:3 8:4 9:4 10:50 11:3 12:1 13:1 14:1 15:1 16:0 17:0 18:1 19:0 20:0 21:0 22:0 23:0 24:1 
3324.239862486928 1:1 2:40 3:4 4:60 5:1 6:3 7:3 8:3 9:4 10:27 11:1 12:1 13:1 14:2 15:1 16:0 17:0 18:1 19:0 20:0 21:1 22:0 23:0 24:1 
32768 1:2 2:21 3:2 4:12 5:1 6:5 7:2 8:4 9:2 10:39 11:3 12:1 13:2 14:1 15:1 16:0 17:0 18:1 19:0 20:0 21:1 22:0 23:0 24:1 
32768 1:1 2:18 3:2 4:75 5:5 6:5 7:3 8:4 9:2 10:51 11:3 12:1 13:2 14:2 15:1 16:0 17:1 18:1 19:0 20:0 21:0 22:0 23:0 24:1 
244.4479176501265 1:2 2:15 3:0 4:18 5:1 6:2 7:2 8:1 9:1 10:26 11:3 12:2 13:1 14:1 15:1 16:1 17:0 18:1 19:0 20:1 21:0 22:1 23:0 24:0 
17945.00289112454 1:1 2:36 3:4 4:96 5:1 6:4 7:3 8:4 9:3 10:24 11:3 12:2 13:1 14:2 15:1 16:0 17:1 18:1 19:0 20:0 21:1 22:0 23:0 24:1 
32768 1:1 2:18 3:2 4:13 5:1 6:3 7:4 8:3 9:1 10:26 11:1 12:1 13:1 14:1 15:1 16:0 17:0 18:1 19:0 20:0 21:1 22:0 23:0 24:1 
22380.54585861162 1:1 2:36 3:2 4:27 5:1 6:5 7:3 8:2 9:2 10:41 11:1 12:1 13:2 14:1 15:1 16:0 17:0 18:1 19:0 20:0 21:1 22:0 23:0 24:1 
32768 1:1 2:18 3:4 4:40 5:1 6:5 7:2 8:4 9:1 10:33 11:1 12:3 13:1 14:2 15:1 16:1 17:0 18:1 19:0 20:1 21:0 22:0 23:0 24:1 
32768 1:4 2:18 3:0 4:42 5:1 6:3 7:3 8:2 9:3 10:36 11:2 12:2 13:2 14:1 15:1 16:0 17:0 18:1 19:0 20:0 21:1 22:0 23:0 24:1 
32768 1:1 2:36 3:2 4:83 5:5 6:5 7:3 8:4 9:4 10:47 11:3 12:1 13:1 14:1 15:1 16:0 17:1 18:1 19:0 20:0 21:0 22:0 23:0 24:1 
32768 1:3 2:15 3:2 4:23 5:1 6:2 7:2 8:3 9:1 10:25 11:3 12:1 13:1 14:1 15:1 16:0 17:0 18:1 19:0 20:0 21:1 22:0 23:1 24:0 
32768 1:1 2:36 3:2 4:52 5:1 6:4 7:3 8:2 9:2 10:29 11:3 12:1 13:1 14:1 15:1 16:0 17:0 18:1 19:0 20:0 21:1 22:0 23:0 24:1 
32768 1:4 2:18 3:2 4:19 5:1 6:2 7:2 8:4 9:1 10:23 11:3 12:1 13:1 14:1 15:1 16:0 17:0 18:1 19:0 20:0 21:1 22:0 23:0 24:1 
3627.089083167411 1:4 2:18 3:2 4:68 5:5 6:3 7:3 8:4 9:3 10:68 11:3 12:2 13:1 14:1 15:1 16:1 17:0 18:1 19:0 20:1 21:0 22:0 23:0 24:1 
32768 1:1 2:12 3:2 4:7 5:1 6:5 7:3 8:4 9:1 10:57 11:2 12:1 13:1 14:1 15:1 16:0 17:0 18:1 19:0 20:0 21:1 22:0 23:1 24:0 
32768 1:1 2:20 3:4 4:22 5:1 6:3 7:4 8:2 9:2 10:33 11:1 12:2 13:1 14:1 15:2 16:1 17:0 18:0 19:0 20:1 21:0 22:0 23:0 24:1 
32768 1:1 2:15 3:2 4:40 5:1 6:3 7:2 8:2 9:2 10:29 11:3 12:1 13:1 14:2 15:1 16:1 17:0 18:1 19:0 20:0 21:1 22:0 23:0 24:1 
32768 1:4 2:18 3:3 4:22 5:1 6:3 7:4 8:2 9:3 10:28 11:3 12:1 13:1 14:2 15:1 16:0 17:0 18:1 19:0 20:0 21:1 22:0 23:0 24:1 
32768 1:1 2:24 3:2 4:24 5:1 6:2 7:2 8:4 9:1 10:35 11:3 12:1 13:1 14:2 15:1 16:0 17:0 18:1 19:0 20:0 21:1 22:0 23:0 24:1 
32768 1:4 2:10 3:2 4:22 5:1 6:3 7:3 8:2 9:1 10:25 11:1 12:1 13:1 14:1 15:1 16:0 17:0 18:1 19:0 20:1 21:0 22:0 23:1 24:0 
32768 1:1 2:9 3:2 4:14 5:1 6:2 7:3 8:2 9:4 10:27 11:3 12:1 13:1 14:2 15:1 16:1 17:0 18:1 19:0 20:0 21:0 22:0 23:0 24:0 
32768 1:2 2:24 3:2 4:41 5:1 6:4 7:1 8:3 9:3 10:43 11:3 12:1 13:1 14:2 15:1 16:0 17:0 18:1 19:0 20:0 21:1 22:0 23:0 24:1 
32768 1:1 2:12 3:2 4:8 5:1 6:2 7:2 8:4 9:2 10:53 11:3 12:1 13:1 14:1 15:1 16:0 17:0 18:1 19:0 20:0 21:1 22:0 23:0 24:1 
32768 1:1 2:18 3:2 4:42 5:1 6:3 7:3 8:3 9:3 10:42 11:3 12:1 13:1 14:1 15:1 16:0 17:0 18:0 19:1 20:0 21:1 22:0 23:0 24:1 
32768 1:1 2:16 3:4 4:26 5:1 6:5 7:3 8:4 9:2 10:43 11:1 12:1 13:1 14:2 15:1 16:1 17:0 18:0 19:0 20:1 21:0 22:0 23:0 24:1 
32768 1:2 2:24 3:4 4:47 5:1 6:2 7:2 8:4 9:3 10:25 11:1 12:1 13:1 14:1 15:1 16:0 17:0 18:1 19:0 20:0 21:1 22:0 23:1 24:0 
32768 1:1 2:24 3:1 4:32 5:1 6:3 7:3 8:2 9:2 10:31 11:3 12:1 13:1 14:2 15:1 16:0 17:0 18:1 19:0 20:1 21:0 22:0 23:0 24:1 
9365.031377825771 1:2 2:48 3:0 4:184 5:1 6:3 7:2 8:2 9:2 10:32 11:1 12:1 13:1 14:2 15:2 16:0 17:0 18:1 19:0 20:0 21:1 22:0 23:0 24:0 
32768 1:1 2:24 3:2 4:24 5:2 6:1 7:1 8:1 9:2 10:33 11:3 12:1 13:1 14:1 15:1 16:0 17:0 18:1 19:0 20:0 21:1 22:0 23:0 24:1 
32768 1:1 2:24 3:2 4:33 5:1 6:5 7:3 8:2 9:2 10:39 11:3 12:1 13:1 14:2 15:1 16:0 17:0 18:1 19:0 20:1 21:0 22:0 23:0 24:0 
32768 1:1 2:9 3:2 4:14 5:1 6:2 7:2 8:4 9:2 10:22 11:3 12:1 13:1 14:1 15:1 16:0 17:0 18:1 19:0 20:1 21:0 22:0 23:0 24:1 
13129.04358559485 1:1 2:24 3:1 4:69 5:1 6:2 7:1 8:1 9:2 10:55 11:1 12:1 13:1 14:2 15:1 16:0 17:0 18:1 19:0 20:0 21:1 22:0 23:0 24:1 
32768 1:2 2:9 3:2 4:17 5:1 6:2 7:2 8:2 9:3 10:22 11:3 12:1 13:1 14:2 15:1 16:0 17:0 18:1 19:0 20:0 21:1 22:0 23:0 24:1 
32768 1:2 2:30 3:3 4:19 5:2 6:2 7:3 8:3 9:4 10:30 11:2 12:2 13:1 14:1 15:1 16:0 17:0 18:1 19:0 20:0 21:1 22:0 23:0 24:0 
32768 1:3 2:9 3:2 4:7 5:1 6:3 7:2 8:2 9:1 10:28 11:3 12:1 13:1 14:1 15:1 16:0 17:0 18:1 19:0 20:0 21:1 22:0 23:1 24:0 
32768 1:1 2:24 3:1 4:33 5:3 6:2 7:3 8:4 9:4 10:30 11:3 12:1 13:2 14:2 15:1 16:0 17:0 18:1 19:0 20:0 21:0 22:0 23:0 24:1 
32768 1:4 2:18 3:2 4:15 5:1 6:2 7:4 8:1 9:2 10:43 11:3 12:1 13:2 14:1 15:1 16:0 17:0 18:0 19:1 20:0 21:1 22:0 23:1 24:0 
32768 1:4 2:24 3:2 4:36 5:2 6:5 7:3 8:4 9:3 10:31 11:3 12:2 13:1 14:1 15:1 16:0 17:0 18:1 19:0 20:0 21:1 22:0 23:0 24:1 
32768 1:1 2:36 3:3 4:21 5:1 6:4 7:3 8:1 9:3 10:24 11:3 12:2 13:1 14:2 15:1 16:0 17:0 18:1 19:0 20:0 21:1 22:0 23:0 24:1 
32768 1:2 2:24 3:2 4:41 5:3 6:2 7:2 8:4 9:3 10:28 11:3 12:1 13:1 14:1 15:1 16:0 17:1 18:1 19:0 20:1 21:0 22:0 23:0 24:1 
18139.12521026747 1:4 2:36 3:2 4:110 5:1 6:1 7:2 8:2 9:3 10:26 11:3 12:2 13:1 14:2 15:1 16:0 17:0 18:1 19:0 20:0 21:1 22:0 23:0 24:0 
32768 1:1 2:28 3:2 4:40 5:1 6:3 7:3 8:2 9:3 10:45 11:3 12:1 13:1 14:1 15:1 16:1 17:0 18:1 19:0 20:0 21:1 22:0 23:1 24:0 
32768 1:4 2:24 3:2 4:24 5:3 6:5 7:3 8:2 9:3 10:35 11:1 12:2 13:1 14:2 15:1 16:0 17:0 18:1 19:0 20:0 21:1 22:0 23:0 24:1 
32768 1:2 2:27 3:4 4:25 5:3 6:3 7:3 8:2 9:2 10:23 11:3 12:2 13:1 14:1 15:1 16:0 17:0 18:1 19:0 20:0 21:1 22:0 23:1 24:0 
32768 1:4 2:24 3:3 4:25 5:1 6:5 7:3 8:4 9:3 10:47 11:3 12:2 13:2 14:1 15:1 16:1 17:0 18:1 19:0 20:0 21:1 22:0 23:1 24:0 
32768 1:2 2:15 3:1 4:13 5:2 6:3 7:4 8:2 9:2 10:25 11:3 12:1 13:1 14:1 15:1 16:1 17:0 18:1 19:0 20:1 21:0 22:0 23:0 24:1 
32768 1:2 2:30 3:4 4:84 5:1 6:4 7:3 8:2 9:2 10:49 11:3 12:1 13:1 14:1 15:1 16:0 17:0 18:1 19:0 20:0 21:1 22:0 23:0 24:1 
32768 1:4 2:48 3:2 4:48 5:1 6:1 7:3 8:2 9:3 10:33 11:1 12:1 13:1 14:2 15:1 16:0 17:0 18:1 19:0 20:1 21:0 22:0 23:0 24:0 
32768 1:1 2:36 3:2 4:82 5:1 6:3 7:3 8:2 9:2 10:26 11:3 12:1 13:2 14:1 15:1 16:0 17:1 18:1 19:0 20:0 21:1 22:0 23:0 24:1 
-32768 1:1 2:42 3:2 4:79 5:1 6:4 7:3 8:4 9:2 10:45 11:3 12:1 13:2 14:1 15:1 16:0 17:0 18:0 19:0 20:0 21:0 22:0 23:0 24:1 
-32768 1:2 2:36 3:2 4:69 5:1 6:3 7:3 8:2 9:3 10:35 11:3 12:1 13:1 14:2 15:1 16:0 17:1 18:1 19:0 20:1 21:0 22:0 23:0 24:0 
-32768 1:2 2:12 3:2 4:16 5:1 6:3 7:2 8:1 9:3 10:22 11:3 12:1 13:1 14:2 15:1 16:0 17:0 18:1 19:0 20:0 21:1 22:0 23:0 24:1 
-32768 1:1 2:15 3:2 4:14 5:1 6:3 7:2 8:4 9:3 10:28 11:3 12:1 13:1 14:1 15:1 16:1 17:0 18:1 19:0 20:1 21:0 22:0 23:0 24:1 
-32768 1:1 2:30 3:0 4:81 5:5 6:2 7:3 8:3 9:3 10:25 11:1 12:3 13:1 14:1 15:1 16:0 17:0 18:1 19:0 20:0 21:1 22:0 23:0 24:1 
-32768 1:1 2:6 3:2 4:26 5:3 6:3 7:3 8:3 9:1 10:44 11:3 12:1 13:2 14:1 15:1 16:0 17:0 18:1 19:0 20:1 21:0 22:0 23:0 24:1 
-32768 1:4 2:6 3:0 4:4 5:1 6:5 7:4 8:4 9:3 10:39 11:3 12:1 13:1 14:1 15:1 16:0 17:0 18:1 19:0 20:0 21:1 22:0 23:1 24:0 
-32768 1:3 2:12 3:1 4:4 5:4 6:3 7:2 8:3 9:1 10:42 11:3 12:2 13:1 14:1 15:1 16:0 17:0 18:1 19:0 20:1 21:0 22:0 23:0 24:1 
-3418.294626864099 1:2 2:18 3:2 4:19 5:4 6:2 7:4 8:3 9:1 10:36 11:1 12:1 13:1 14:2 15:1 16:0 17:0 18:1 19:0 20:0 21:1 22:0 23:0 24:1 
-32768 1:1 2:24 3:2 4:40 5:1 6:3 7:3 8:2 9:3 10:27 11:2 12:1 13:1 14:1 15:1 16:0 17:0 18:1 19:0 20:0 21:1 22:0 23:0 24:1 
-32768 1:2 2:18 3:2 4:59 5:2 6:3 7:3 8:2 9:3 10:30 11:3 12:2 13:1 14:2 15:1 16:1 17:0 18:1 19:0 20:0 21:1 22:0 23:0 24:1 
-32768 1:3 2:12 3:2 4:15 5:1 6:2 7:2 8:1 9:2 10:33 11:1 12:1 13:1 14:2 15:1 16:0 17:0 18:1 19:0 20:0 21:1 22:0 23:0 24:0 
-32768 1:4 2:48 3:4 4:61 5:1 6:3 7:3 8:3 9:4 10:31 11:1 12:1 13:1 14:2 15:1 16:0 17:0 18:1 19:0 20:0 21:0 22:0 23:0 24:1 
-32768 1:2 2:9 3:2 4:5 5:1 6:3 7:3 8:3 9:1 10:24 11:3 12:1 13:1 14:1 15:1 16:0 17:0 18:1 19:0 20:0 21:1 22:0 23:0 24:1 
-32768 1:2 2:12 3:2 4:12 5:3 6:3 7:1 8:1 9:3 10:26 11:3 12:1 13:1 14:2 15:1 16:0 17:0 18:1 19:0 20:0 21:1 22:0 23:0 24:1 
-32768 1:2 2:18 3:3 4:62 5:1 6:3 7:3 8:4 9:1 10:44 11:3 12:1 13:2 14:2 15:1 16:0 17:0 18:1 19:0 20:0 21:1 22:0 23:1 24:0 
-21361.72025813735 1:1 2:30 3:4 4:62 5:2 6:4 7:4 8:4 9:3 10:24 11:3 12:2 13:1 14:1 15:1 16:0 17:1 18:1 19:0 20:1 21:0 22:0 23:0 24:1 
-32768 1:4 2:11 3:4 4:14 5:1 6:2 7:2 8:4 9:3 10:35 11:3 12:2 13:1 14:1 15:1 16:1 17:0 18:1 19:0 20:0 21:1 22:0 23:0 24:0 
-7217.095170426524 1:4 2:12 3:2 4:21 5:2 6:3 7:2 8:2 9:1 10:28 11:3 12:1 13:1 14:1 15:1 16:0 17:0 18:0 19:1 20:0 21:1 22:0 23:0 24:1 
-32768 1:2 2:24 3:3 4:23 5:5 6:2 7:3 8:2 9:2 10:29 11:1 12:1 13:1 14:1 15:1 16:0 17:0 18:1 19:0 20:0 21:1 22:0 23:1 24:0 
-32768 1:4 2:36 3:4 4:96 5:1 6:3 7:2 8:2 9:3 10:31 11:2 12:2 13:1 14:1 15:1 16:0 17:0 18:1 19:0 20:0 21:1 22:0 23:0 24:1 
-32768 1:3 2:18 3:2 4:20 5:1 6:5 7:2 8:2 9:3 10:23 11:3 12:1 13:1 14:1 15:1 16:1 17:0 18:1 19:0 20:0 21:1 22:0 23:0 24:0 
-32768 1:4 2:27 3:2 4:52 5:5 6:5 7:3 8:4 9:2 10:48 11:3 12:4 13:2 14:2 15:1 16:0 17:0 18:1 19:0 20:0 21:1 22:0 23:0 24:1 
-22514.59183288234 1:4 2:12 3:2 4:22 5:1 6:2 7:2 8:2 9:3 10:29 11:1 12:1 13:1 14:1 15:1 16:0 17:0 18:1 19:0 20:0 21:1 22:0 23:0 24:1 
-32768 1:2 2:12 3:2 4:10 5:4 6:3 7:4 8:1 9:1 10:22 11:3 12:1 13:1 14:1 15:1 16:1 17:0 18:1 19:0 20:0 21:1 22:0 23:0 24:1 
-8303.025510705058 1:4 2:36 3:2 4:81 5:1 6:3 7:2 8:2 9:2 10:30 11:1 12:1 13:1 14:1 15:1 16:0 17:1 18:1 19:0 20:0 21:1 22:0 23:0 24:1 
-32768 1:1 2:8 3:4 4:12 5:1 6:5 7:3 8:4 9:4 10:51 11:1 12:2 13:2 14:2 15:1 16:0 17:0 18:1 19:0 20:0 21:0 22:0 23:0 24:0 
-32768 1:2 2:42 3:4 4:60 5:1 6:4 7:2 8:1 9:1 10:41 11:1 12:2 13:1 14:1 15:1 16:0 17:0 18:1 19:0 20:0 21:1 22:0 23:1 24:0 
-32768 1:2 2:30 3:2 4:38 5:1 6:2 7:4 8:1 9:2 10:22 11:3 12:1 13:1 14:1 15:1 16:0 17:0 18:1 19:0 20:0 21:1 22:0 23:0 24:1 
-32768 1:4 2:18 3:2 4:16 5:2 6:3 7:2 8:4 9:2 10:24 11:3 12:1 13:1 14:1 15:1 16:0 17:0 18:1 19:0 20:1 21:0 22:0 23:1 24:0 
-32768 1:2 2:18 3:4 4:13 5:1 6:2 7:2 8:1 9:2 10:27 11:3 12:2 13:1 14:1 15:1 16:0 17:0 18:1 19:0 20:0 21:1 22:0 23:0 24:1 
-32768 1:1 2:18 3:2 4:22 5:2 6:4 7:3 8:3 9:3 10:30 11:3 12:1 13:2 14:2 15:1 16:1 17:0 18:1 19:0 20:0 21:1 22:0 23:0 24:0 
-32768 1:2 2:18 3:2 4:26 5:2 6:3 7:3 8:4 9:3 10:34 11:3 12:1 13:1 14:1 15:1 16:0 17:0 18:1 19:0 20:0 21:1 22:0 23:0 24:1 
-32768 1:2 2:36 3:4 4:23 5:1 6:5 7:3 8:4 9:1 10:36 11:3 12:1 13:1 14:1 15:1 16:0 17:0 18:1 19:0 20:0 21:1 22:0 23:0 24:1 
-32768 1:2 2:36 3:2 4:23 5:1 6:4 7:3 8:4 9:3 10:24 11:3 12:1 13:1 14:1 15:1 16:0 17:0 18:1 19:0 20:1 21:0 22:0 23:0 24:1 
-32768 1:2 2:12 3:2 4:61 5:1 6:4 7:3 8:2 9:3 10:32 11:3 12:1 13:1 14:1 15:1 16:1 17:0 18:1 19:0 20:0 21:1 22:0 23:0 24:1 
-7565.030502408995 1:1 2:24 3:2 4:77 5:5 6:2 7:2 8:2 9:2 10:30 11:3 12:1 13:1 14:2 15:2 16:0 17:0 18:1 19:0 20:0 21:1 22:0 23:0 24:1 
-15915.76779133917 1:2 2:6 3:3 4:14 5:2 6:5 7:1 8:2 9:3 10:31 11:1 12:2 13:2 14:1 15:1 16:0 17:0 18:1 19:0 20:0 21:1 22:0 23:0 24:1 
-32768 1:3 2:15 3:2 4:4 5:1 6:2 7:2 8:4 9:2 10:23 11:3 12:1 13:1 14:2 15:1 16:0 17:0 18:1 19:0 20:1 21:0 22:0 23:0 24:1 
-32768 1:2 2:18 3:2 4:63 5:1 6:4 7:3 8:3 9:1 10:28 11:3 12:1 13:1 14:1 15:1 16:1 17:0 18:1 19:0 20:1 21:0 22:0 23:1 24:0 
-32768 1:1 2:12 3:4 4:21 5:1 6:3 7:3 8:2 9:2 10:30 11:3 12:2 13:1 14:1 15:1 16:1 17:0 18:1 19:0 20:0 21:1 22:0 23:0 24:1 
-32768 1:1 2:12 3:2 4:7 5:1 6:3 7:4 8:2 9:1 10:40 11:3 12:1 13:1 14:1 15:1 16:0 17:0 18:1 19:0 20:0 21:1 22:0 23:1 24:0 
-28365.98065127079 1:2 2:48 3:2 4:85 5:5 6:4 7:2 8:2 9:3 10:24 11:3 12:1 13:1 14:1 15:1 16:1 17:0 18:1 19:0 20:0 21:1 22:0 23:0 24:1 
-32768 1:4 2:18 3:2 4:20 5:1 6:3 7:3 8:4 9:4 10:47 11:1 12:2 13:1 14:1 15:1 16:0 17:0 18:1 19:0 20:0 21:0 22:0 23:0 24:1 
-32768 1:4 2:60 3:2 4:101 5:2 6:4 7:2 8:4 9:1 10:21 11:3 12:1 13:1 14:2 15:1 16:0 17:0 18:1 19:0 20:0 21:1 22:0 23:0 24:1 
-32768 1:2 2:36 3:2 4:48 5:1 6:2 7:2 8:1 9:4 10:30 11:3 12:1 13:1 14:2 15:1 16:0 17:0 18:1 19:0 20:0 21:1 22:0 23:0 24:0 
-32768 1:1 2:27 3:2 4:34 5:1 6:3 7:3 8:2 9:3 10:27 11:3 12:1 13:1 14:1 15:1 16:0 17:0 18:1 19:0 20:0 21:1 22:0 23:0 24:0 
-32768 1:2 2:48 3:1 4:36 5:2 6:4 7:3 8:2 9:3 10:30 11:3 12:1 13:1 14:1 15:1 16:0 17:0 18:1 19:0 20:0 21:1 22:0 23:0 24:1 
-5005.09388029214 1:1 2:6 3:4 4:9 5:1 6:5 7:2 8:4 9:4 10:39 11:3 12:2 13:1 14:2 15:1 16:1 17:0 18:1 19:0 20:0 21:1 22:0 23:0 24:1 
-32768 1:1 2:36 3:4 4:54 5:1 6:3 7:3 8:2 9:2 10:28 11:3 12:2 13:1 14:1 15:1 16:0 17:0 18:0 19:0 20:0 21:1 22:0 23:0 24:1 
-32768 1:3 2:36 3:2 4:58 5:1 6:3 7:3 8:1 9:3 10:24 11:3 12:1 13:1 14:1 15:1 16:0 17:0 18:1 19:0 20:0 21:1 22:0 23:0 24:1 
-32768 1:2 2:24 3:3 4:70 5:2 6:4 7:3 8:4 9:3 10:36 11:3 12:1 13:1 14:2 15:1 16:0 17:0 18:1 19:0 20:1 21:0 22:0 23:0 24:0 
-32768 1:1 2:12 3:1 4:3 5:1 6:5 7:4 8:1 9:3 10:45 11:1 12:1 13:1 14:1 15:1 16:0 17:0 18:1 19:0 20:0 21:1 22:0 23:1 24:0 
-32768 1:2 2:24 3:2 4:35 5:2 6:4 7:3 8:3 9:3 10:38 11:1 12:2 13:1 14:2 15:1 16:1 17:0 18:1 19:0 20:0 21:1 22:0 23:0 24:1 
-32768 1:4 2:18 3:4 4:11 5:1 6:2 7:2 8:1 9:2 10:30 11:3 12:2 13:1 14:1 15:1 16:1 17:0 18:1 19:0 20:0 21:1 22:0 23:0 24:1 
-32768 1:2 2:10 3:2 4:73 5:1 6:1 7:3 8:4 9:4 10:70 11:1 12:1 13:1 14:2 15:1 16:1 17:0 18:1 19:0 20:0 21:0 22:0 23:0 24:0 
-32768 1:2 2:11 3:2 4:16 5:4 6:2 7:2 8:1 9:1 10:20 11:3 12:1 13:1 14:1 15:1 16:0 17:0 18:1 19:0 20:0 21:1 22:0 23:0 24:1 
-32768 1:4 2:24 3:2 4:40 5:1 6:4 7:2 8:4 9:2 10:25 11:3 12:1 13:1 14:2 15:1 16:0 17:0 18:1 19:0 20:1 21:0 22:0 23:0 24:1 
-32768 1:1 2:12 3:2 4:26 5:1 6:3 7:1 8:1 9:3 10:42 11:3 12:1 13:1 14:1 15:1 16:0 17:0 18:1 19:0 20:0 21:1 22:0 23:0 24:1 
-32768 1:1 2:21 3:4 4:6 5:1 6:5 7:3 8:4 9:1 10:65 11:3 12:2 13:1 14:1 15:1 16:1 17:0 18:1 19:0 20:0 21:1 22:0 23:0 24:1 
-32768 1:2 2:18 3:0 4:32 5:1 6:3 7:2 8:4 9:3 10:33 11:1 12:2 13:1 14:2 15:1 16:0 17:0 18:1 19:0 20:0 21:1 22:0 23:0 24:1 
-32768 1:1 2:12 3:2 4:12 5:1 6:3 7:4 8:3 9:1 10:27 11:3 12:1 13:1 14:1 15:1 16:1 17:0 18:1 19:0 20:0 21:1 22:0 23:1 24:0 
-32768 1:1 2:30 3:4 4:106 5:1 6:5 7:3 8:4 9:4 10:38 11:3 12:3 13:2 14:2 15:1 16:0 17:1 18:1 19:0 20:0 21:0 22:0 23:0 24:0 
-32768 1:1 2:18 3:0 4:31 5:1 6:4 7:3 8:1 9:2 10:31 11:1 12:1 13:1 14:2 15:1 16:0 17:0 18:1 19:0 20:0 21:1 22:0 23:0 24:1 
-32768 1:3 2:36 3:2 4:39 5:1 6:3 7:3 8:2 9:1 10:23 11:3 12:1 13:1 14:2 15:1 16:0 17:0 18:1 19:0 20:0 21:1 22:0 23:0 24:1 
-32768 1:1 2:24 3:2 4:30 5:1 6:3 7:1 8:2 9:1 10:24 11:3 12:1 13:1 14:1 15:1 16:0 17:0 18:1 19:0 20:1 21:0 22:0 23:1 24:0 
-8883.427636922104 1:2 2:12 3:2 4:6 5:1 6:2 7:4 8:1 9:1 10:26 11:1 12:1 13:1 14:1 15:1 16:0 17:0 18:0 19:0 20:0 21:1 22:0 23:1 24:0 
-32768 1:1 2:12 3:2 4:12 5:5 6:3 7:2 8:4 9:2 10:23 11:1 12:1 13:1 14:2 15:1 16:0 17:0 18:1 19:0 20:1 21:0 22:0 23:0 24:1 
-26303.26162587654 1:4 2:12 3:2 4:7 5:1 6:3 7:3 8:2 9:1 10:30 11:1 12:2 13:1 14:1 15:1 16:0 17:0 18:1 19:0 20:0 21:1 22:0 23:0 24:1 
-32768 1:4 2:36 3:0 4:26 5:1 6:3 7:3 8:2 9:3 10:27 11:3 12:2 13:1 14:1 15:1 16:0 17:0 18:1 19:0 20:0 21:1 22:0 23:0 24:1 
-32768 1:1 2:24 3:2 4:31 5:1 6:2 7:3 8:1 9:4 10:22 11:1 12:1 13:1 14:1 15:1 16:0 17:0 18:1 19:0 20:0 21:0 22:0 23:0 24:1 
-32768 1:1 2:30 3:2 4:25 5:1 6:5 7:3 8:3 9:2 10:39 11:3 12:1 13:2 14:1 15:1 16:0 17:0 18:0 19:0 20:0 21:1 22:0 23:0 24:1 
-32768 1:4 2:6 3:0 4:12 5:2 6:3 7:3 8:1 9:4 10:35 11:1 12:1 13:1 14:1 15:2 16:1 17:0 18:1 19:0 20:1 21:0 22:0 23:0 24:1 
-31903.67017973855 1:3 2:24 3:2 4:19 5:1 6:3 7:3 8:2 9:1 10:26 11:3 12:1 13:1 14:1 15:1 16:0 17:0 18:1 19:0 20:0 21:1 22:0 23:0 24:1 
-26656.80004856961 1:3 2:12 3:2 4:23 5:1 6:3 7:2 8:2 9:3 10:46 11:3 12:1 13:1 14:1 15:1 16:0 17:0 18:1 19:0 20:0 21:1 22:0 23:1 24:0 
-32768 1:1 2:12 3:2 4:17 5:1 6:3 7:3 8:2 9:1 10:27 11:3 12:1 13:1 14:1 15:1 16:0 17:0 18:1 19:0 20:0 21:1 22:0 23:0 24:1 
-32768 1:1 2:24 3:2 4:16 5:1 6:5 7:2 8:4 9:3 10:55 11:3 12:1 13:1 14:1 15:1 16:0 17:0 18:1 19:0 20:0 21:1 22:0 23:0 24:1 
-14062.64456464578 1:1 2:18 3:4 4:53 5:1 6:5 7:3 8:4 9:4 10:36 11:3 12:3 13:1 14:2 15:1 16:1 17:0 18:1 19:0 20:0 21:0 22:0 23:0 24:0 
-14507.20094743617 1:4 2:24 3:2 4:15 5:1 6:2 7:2 8:3 9:3 10:38 11:2 12:1 13:1 14:2 15:1 16:0 17:0 18:1 19:0 20:0 21:1 22:0 23:0 24:1 
-417.56870731343 1:2 2:48 3:1 4:122 5:5 6:1 7:3 8:4 9:4 10:36 11:3 12:1 13:1 14:2 15:1 16:1 17:0 18:0 19:1 20:0 21:0 22:0 23:0 24:0 
-32768 1:3 2:18 3:1 4:14 5:5 6:4 7:3 8:4 9:3 10:49 11:1 12:1 13:1 14:1 15:1 16:0 17:0 18:1 19:0 20:0 21:1 22:0 23:1 24:0 
-32768 1:2 2:24 3:4 4:39 5:2 6:2 7:1 8:2 9:3 10:37 11:3 12:1 13:1 14:2 15:1 16:1 17:0 18:1 19:0 20:0 21:1 22:0 23:0 24:1 
-32768 1:1 2:47 3:2 4:107 5:1 6:2 7:2 8:1 9:1 10:35 11:3 12:1 13:1 14:2 15:1 16:1 17:0 18:1 19:0 20:0 21:1 22:0 23:1 24:0 
-32768 1:1 2:48 3:2 4:48 5:1 6:4 7:3 8:3 9:2 10:26 11:3 12:1 13:2 14:1 15:1 16:0 17:1 18:1 19:0 20:0 21:1 22:0 23:0 24:1 
-32768 1:2 2:48 3:3 4:76 5:2 6:1 7:3 8:4 9:4 10:31 11:3 12:1 13:1 14:2 15:1 16:0 17:0 18:1 19:0 20:0 21:0 22:0 23:0 24:0 
-32768 1:1 2:10 3:4 4:10 5:1 6:4 7:3 8:3 9:2 10:49 11:3 12:2 13:1 14:2 15:1 16:1 17:0 18:0 19:1 20:0 21:1 22:0 23:0 24:1 
-32768 1:2 2:9 3:2 4:3 5:1 6:3 7:4 8:4 9:1 10:22 11:3 12:1 13:1 14:1 15:1 16:1 17:0 18:1 19:0 20:1 21:0 22:0 23:1 24:0 
-19729.56282659517 1:2 2:48 3:2 4:54 5:5 6:1 7:3 8:4 9:4 10:40 11:1 12:1 13:1 14:2 15:1 16:0 17:0 18:1 19:0 20:0 21:0 22:1 23:0 24:0 
-32768 1:3 2:24 3:2 4:37 5:1 6:2 7:2 8:4 9:3 10:26 11:3 12:1 13:1 14:1 15:1 16:0 17:0 18:1 19:0 20:0 21:1 22:0 23:0 24:1 
-32768 1:1 2:12 3:2 4:7 5:1 6:3 7:3 8:3 9:2 10:38 11:3 12:1 13:2 14:1 15:1 16:0 17:0 18:0 19:0 20:0 21:1 22:0 23:1 24:0 
-9569.732089092993 1:1 2:18 3:2 4:27 5:4 6:3 7:3 8:2 9:3 10:28 11:3 12:1 13:1 14:1 15:1 16:0 17:0 18:1 19:0 20:0 21:1 22:0 23:0 24:1 
-32768 1:1 2:24 3:2 4:42 5:1 6:3 7:3 8:4 9:2 10:28 11:3 12:1 13:1 14:1 15:1 16:0 17:0 18:1 19:0 20:0 21:1 22:0 23:0 24:1 
-32768 1:2 2:10 3:2 4:15 5:1 6:3 7:1 8:2 9:3 10:31 11:3 12:1 13:1 14:1 15:1 16:0 17:0 18:1 19:0 20:0 21:1 22:0 23:1 24:0 
-32768 1:2 2:24 3:4 4:57 5:1 6:2 7:2 8:4 9:4 10:24 11:3 12:2 13:1 14:2 15:1 16:0 17:0 18:1 19:0 20:0 21:0 22:0 23:0 24:1 
-32768 1:1 2:21 3:2 4:36 5:1 6:4 7:2 8:4 9:3 10:26 11:3 12:1 13:1 14:1 15:1 16:0 17:0 18:1 19:0 20:1 21:0 22:0 23:1 24:0 
-32768 1:2 2:18 3:2 4:32 5:3 6:2 7:4 8:3 9:1 10:25 11:3 12:1 13:1 14:1 15:1 16:0 17:0 18:1 19:0 20:1 21:0 22:0 23:0 24:1 
-32768 1:2 2:18 3:2 4:44 5:1 6:5 7:3 8:1 9:1 10:33 11:1 12:1 13:1 14:2 15:1 16:0 17:0 18:0 19:1 20:0 21:1 22:0 23:0 24:0 
-32768 1:2 2:24 3:2 4:38 5:3 6:1 7:2 8:4 9:4 10:23 11:3 12:1 13:1 14:1 15:1 16:0 17:0 18:1 19:0 20:1 21:0 22:1 23:0 24:0 
-32768 1:2 2:18 3:2 4:12 5:5 6:3 7:3 8:4 9:4 10:61 11:3 12:1 13:1 14:1 15:1 16:0 17:0 18:1 19:0 20:0 21:0 22:0 23:0 24:1 
-32768 1:3 2:12 3:3 4:22 5:1 6:3 7:2 8:2 9:3 10:36 11:2 12:2 13:1 14:2 15:1 16:1 17:0 18:1 19:0 20:0 21:1 22:0 23:0 24:1 
-32768 1:1 2:18 3:2 4:36 5:1 6:2 7:2 8:4 9:3 10:22 11:3 12:1 13:1 14:1 15:1 16:0 17:0 18:1 19:0 20:1 21:0 22:0 23:0 24:1 
-32768 1:2 2:18 3:2 4:30 5:1 6:4 7:2 8:4 9:1 10:40 11:3 12:1 13:1 14:1 15:1 16:0 17:0 18:1 19:0 20:1 21:0 22:0 23:0 24:1 
-3101.844452976965 1:4 2:60 3:4 4:138 5:5 6:5 7:3 8:4 9:4 10:63 11:1 12:1 13:1 14:2 15:1 16:1 17:0 18:1 19:0 20:0 21:0 22:0 23:0 24:0 
-32768 1:1 2:20 3:2 4:22 5:5 6:4 7:3 8:4 9:3 10:39 11:3 12:1 13:1 14:2 15:1 16:0 17:0 18:1 19:0 20:0 21:1 22:0 23:0 24:1 
-32768 1:4 2:22 3:2 4:13 5:5 6:4 7:2 8:4 9:2 10:25 11:3 12:1 13:1 14:1 15:1 16:1 17:0 18:1 19:0 20:1 21:0 22:0 23:0 24:1 
-32768 1:3 2:12 3:2 4:13 5:1 6:2 7:3 8:1 9:1 10:26 11:3 12:1 13:1 14:1 15:1 16:1 17:0 18:1 19:0 20:0 21:1 22:0 23:0 24:1 
-15566.96808115158 1:2 2:18 3:4 4:74 5:1 6:1 7:3 8:4 9:2 10:40 11:2 12:2 13:1 14:2 15:1 16:0 17:0 18:1 19:0 20:0 21:1 22:0 23:0 24:0 
-32768 1:2 2:12 3:2 4:10 5:4 6:2 7:2 8:4 9:1 10:19 11:3 12:1 13:1 14:1 15:1 16:0 17:0 18:1 19:0 20:1 21:0 22:0 23:1 24:0 
-32768 1:1 2:36 3:2 4:32 5:1 6:4 7:3 8:4 9:4 10:39 11:1 12:1 13:2 14:2 15:1 16:1 17:0 18:1 19:0 20:0 21:0 22:0 23:0 24:0 
-32768 1:2 2:39 3:3 4:118 5:2 6:4 7:3 8:3 9:4 10:32 11:3 12:1 13:1 14:2 15:1 16:0 17:0 18:1 19:0 20:1 21:0 22:0 23:0 24:1 
-32768 1:1 2:12 3:2 4:26 5:1 6:1 7:2 8:4 9:4 10:55 11:3 12:1 13:1 14:1 15:1 16:0 17:0 18:1 19:0 20:0 21:0 22:0 23:0 24:0 
-32768 1:1 2:36 3:4 4:23 5:1 6:3 7:4 8:2 9:2 10:46 11:3 12:2 13:1 14:2 15:1 16:0 17:0 18:1 19:0 20:0 21:1 22:0 23:0 24:1 
-32768 1:4 2:14 3:3 4:8 5:1 6:3 7:3 8:2 9:3 10:27 11:3 12:2 13:1 14:1 15:1 16:1 17:0 18:1 19:0 20:0 21:1 22:0 23:1 24:0 
-466.8400112423229 1:2 2:18 3:3 4:29 5:5 6:5 7:3 8:4 9:3 10:43 11:3 12:1 13:2 14:1 15:1 16:1 17:0 18:1 19:0 20:0 21:1 22:0 23:0 24:1 
-23611.92421034363 1:1 2:15 3:2 4:11 5:1 6:2 7:4 8:2 9:1 10:27 11:3 12:1 13:1 14:1 15:2 16:0 17:0 18:1 19:0 20:0 21:1 22:0 23:0 24:1 
-32768 1:2 2:24 3:2 4:20 5:1 6:5 7:2 8:4 9:3 10:20 11:3 12:1 13:1 14:2 15:1 16:0 17:0 18:1 19:0 20:0 21:1 22:0 23:0 24:1 
-32768 1:1 2:18 3:3 4:85 5:5 6:3 7:2 8:2 9:3 10:23 11:3 12:2 13:1 14:2 15:1 16:0 17:0 18:1 19:0 20:1 21:0 22:0 23:0 24:1 
-25871.17480011842 1:4 2:21 3:2 4:28 5:3 6:4 7:2 8:2 9:3 10:31 11:1 12:1 13:1 14:1 15:1 16:1 17:0 18:1 19:0 20:0 21:1 22:0 23:0 24:0 
-32768 1:2 2:12 3:4 4:10 5:1 6:4 7:3 8:3 9:1 10:47 11:3 12:2 13:2 14:1 15:1 16:1 17:0 18:1 19:0 20:0 21:1 22:0 23:1 24:0 
-11257.83986772317 1:4 2:5 3:2 4:34 5:1 6:4 7:3 8:4 9:1 10:74 11:3 12:1 13:1 14:1 15:1 16:0 17:0 18:1 19:0 20:0 21:1 22:0 23:1 24:0 
-32768 1:1 2:42 3:4 4:34 5:1 6:1 7:3 8:4 9:3 10:65 11:3 12:2 13:1 14:1 15:1 16:0 17:0 18:0 19:1 20:0 21:1 22:1 23:0 24:0 
-32768 1:1 2:12 3:2 4:16 5:1 6:3 7:2 8:3 9:2 10:30 11:3 12:1 13:1 14:1 15:1 16:0 17:0 18:0 19:1 20:0 21:1 22:0 23:0 24:1 
-32768 1:2 2:20 3:3 4:26 5:1 6:3 7:3 8:3 9:3 10:29 11:1 12:2 13:1 14:2 15:1 16:0 17:0 18:1 19:0 20:0 21:1 22:0 23:0 24:1 
-28227.0081311584 1:4 2:12 3:0 4:28 5:1 6:5 7:3 8:4 9:2 10:34 11:3 12:2 13:1 14:1 15:1 16:0 17:0 18:1 19:0 20:0 21:1 22:0 23:0 24:1 
-32768 1:1 2:11 3:4 4:39 5:1 6:3 7:3 8:2 9:1 10:36 11:3 12:2 13:2 14:1 15:1 16:1 17:0 18:1 19:0 20:1 21:0 22:0 23:0 24:1 
-32768 1:1 2:6 3:2 4:3 5:1 6:2 7:2 8:1 9:1 10:27 11:3 12:1 13:1 14:1 15:1 16:0 17:0 18:1 19:0 20:0 21:1 22:0 23:0 24:1 
-32768 1:1 2:36 3:2 4:36 5:1 6:3 7:3 8:2 9:2 10:37 11:3 12:1 13:2 14:1 15:1 16:0 17:0 18:0 19:0 20:0 21:1 22:0 23:0 24:1 
-32768 1:1 2:15 3:2 4:17 5:1 6:2 7:3 8:3 9:1 10:36 11:3 12:1 13:1 14:1 15:1 16:1 17:0 18:1 19:0 20:0 21:1 22:0 23:0 24:1 
-32768 1:2 2:12 3:2 4:30 5:1 6:2 7:2 8:1 9:1 10:34 11:3 12:1 13:1 14:1 15:1 16:0 17:0 18:1 19:0 20:1 21:0 22:0 23:0 24:0 
-20013.71658956766 1:2 2:12 3:2 4:8 5:5 6:5 7:3 8:4 9:2 10:38 11:3 12:2 13:1 14:1 15:1 16:0 17:0 18:1 19:0 20:0 21:1 22:0 23:0 24:1 
-11549.45860352771 1:1 2:15 3:4 4:15 5:1 6:5 7:3 8:4 9:3 10:44 11:3 12:2 13:2 14:2 15:1 16:0 17:0 18:1 19:0 20:0 21:1 22:0 23:0 24:1 
-32768 1:2 2:24 3:2 4:12 5:1 6:2 7:3 8:1 9:2 10:26 11:3 12:1 13:1 14:1 15:1 16:1 17:0 18:1 19:0 20:0 21:1 22:0 23:0 24:1 
-32768 1:1 2:30 3:2 4:36 5:4 6:5 7:2 8:4 9:2 10:57 11:3 12:2 13:1 14:2 15:1 16:0 17:0 18:1 19:0 20:1 21:0 22:0 23:0 24:1 
-32768 1:4 2:24 3:2 4:38 5:1 6:5 7:2 8:4 9:4 10:62 11:3 12:1 13:1 14:2 15:1 16:1 17:0 18:0 19:1 20:0 21:0 22:0 23:0 24:1 
-32768 1:1 2:36 3:2 4:55 5:1 6:5 7:3 8:4 9:4 10:42 11:3 12:1 13:2 14:1 15:1 16:0 17:1 18:1 19:0 20:0 21:0 22:0 23:0 24:1 
-32768 1:2 2:12 3:3 4:6 5:1 6:3 7:4 8:4 9:1 10:20 11:3 12:2 13:1 14:1 15:1 16:0 17:0 18:0 19:1 20:1 21:0 22:0 23:0 24:1 
-32768 1:1 2:6 3:2 4:12 5:2 6:5 7:3 8:2 9:2 10:43 11:3 12:1 13:1 14:2 15:1 16:1 17:0 18:1 19:0 20:0 21:1 22:0 23:0 24:1 
-32768 1:2 2:18 3:2 4:11 5:1 6:3 7:2 8:4 9:1 10:26 11:3 12:1 13:2 14:1 15:1 16:0 17:0 18:0 19:0 20:0 21:1 22:0 23:1 24:0 
-32768 1:2 2:26 3:2 4:80 5:1 6:2 7:3 8:3 9:3 10:30 11:3 12:2 13:1 14:1 15:1 16:0 17:1 18:1 19:0 20:0 21:1 22:0 23:0 24:1 
-32768 1:1 2:6 3:2 4:7 5:1 6:2 7:3 8:4 9:1 10:41 11:3 12:1 13:2 14:2 15:1 16:1 17:0 18:1 19:0 20:0 21:1 22:0 23:1 24:0 
-32768 1:2 2:36 3:2 4:23 5:1 6:4 7:3 8:1 9:3 10:32 11:3 12:2 13:2 14:1 15:1 16:0 17:0 18:1 19:0 20:0 21:1 22:0 23:0 24:1 
-32768 1:3 2:18 3:2 4:30 5:1 6:2 7:2 8:1 9:2 10:45 11:2 12:1 13:1 14:1 15:1 16:0 17:0 18:1 19:0 20:0 21:1 22:0 23:1 24:0 
-32768 1:4 2:24 3:2 4:16 5:1 6:4 7:3 8:1 9:3 10:32 11:1 12:1 13:2 14:1 15:1 16:0 17:0 18:1 19:0 20:0 21:1 22:0 23:0 24:1 
-32768 1:2 2:12 3:4 4:20 5:2 6:2 7:3 8:1 9:3 10:27 11:3 12:1 13:1 14:1 15:1 16:1 17:0 18:1 19:0 20:0 21:1 22:0 23:0 24:1 
-32768 1:1 2:24 3:2 4:30 5:5 6:5 7:3 8:4 9:4 10:49 11:1 12:1 13:2 14:2 15:1 16:0 17:1 18:1 19:0 20:0 21:0 22:0 23:0 24:1 
-32768 1:3 2:6 3:3 4:7 5:1 6:2 7:2 8:1 9:2 10:29 11:1 12:1 13:1 14:1 15:1 16:0 17:0 18:1 19:0 20:0 21:1 22:0 23:0 24:1 
-32768 1:2 2:24 3:3 4:16 5:2 6:4 7:2 8:2 9:2 10:23 11:3 12:2 13:1 14:2 15:1 16:0 17:0 18:1 19:0 20:1 21:0 22:0 23:0 24:1 
-32768 1:1 2:15 3:2 4:8 5:1 6:3 7:2 8:4 9:2 10:22 11:3 12:1 13:1 14:1 15:1 16:0 17:0 18:1 19:0 20:0 21:1 22:0 23:1 24:0 
-32768 1:2 2:9 3:2 4:11 5:1 6:5 7:3 8:4 9:3 10:27 11:3 12:2 13:1 14:1 15:1 16:0 17:0 18:1 19:0 20:0 21:1 22:0 23:1 24:0 
-32768 1:4 2:24 3:2 4:9 5:1 6:2 7:4 8:3 9:3 10:27 11:3 12:2 13:1 14:1 15:1 16:0 17:0 18:1 19:0 20:0 21:1 22:0 23:1 24:0 
-11651.44693031709 1:1 2:9 3:4 4:28 5:1 6:3 7:3 8:2 9:1 10:36 11:3 12:2 13:2 14:1 15:1 16:1 17:0 18:1 19:0 20:1 21:0 22:0 23:0 24:1 
-32768 1:2 2:24 3:3 4:20 5:5 6:3 7:2 8:4 9:3 10:42 11:3 12:2 13:1 14:2 15:1 16:1 17:0 18:1 19:0 20:1 21:0 22:0 23:0 24:1 
-32768 1:3 2:10 3:2 4:13 5:1 6:2 7:2 8:2 9:2 10:23 11:3 12:1 13:1 14:1 15:1 16:0 17:0 18:1 19:0 20:0 21:1 22:0 23:0 24:1 
-32768 1:1 2:24 3:1 4:28 5:3 6:3 7:3 8:4 9:1 10:22 11:2 12:1 13:1 14:2 15:1 16:0 17:0 18:1 19:0 20:0 21:1 22:0 23:0 24:1 
-32768 1:1 2:21 3:2 4:34 5:4 6:2 7:2 8:2 9:3 10:29 11:1 12:1 13:1 14:1 15:1 16:0 17:0 18:1 19:0 20:0 21:1 22:0 23:0 24:1 
-32768 1:2 2:48 3:0 4:122 5:5 6:3 7:3 8:2 9:3 10:48 11:1 12:1 13:1 14:2 15:1 16:0 17:0 18:1 19:0 20:0 21:1 22:0 23:0 24:0 
-32768 1:1 2:12 3:2 4:19 5:1 6:2 7:2 8:1 9:3 10:22 11:3 12:1 13:1 14:1 15:1 16:0 17:0 18:1 19:0 20:1 21:0 22:0 23:0 24:1 
-32768 1:4 2:9 3:2 4:38 5:5 6:5 7:3 8:4 9:1 10:64 11:3 12:1 13:1 14:1 15:1 16:0 17:0 18:1 19:0 20:0 21:1 22:0 23:1 24:0 
-32768 1:1 2:24 3:2 4:37 5:1 6:3 7:2 8:4 9:3 10:28 11:3 12:1 13:1 14:1 15:1 16:0 17:0 18:1 19:0 20:0 21:1 22:0 23:0 24:1 
-32768 1:2 2:15 3:2 4:14 5:5 6:2 7:3 8:1 9:2 10:23 11:3 12:1 13:1 14:1 15:1 16:0 17:0 18:1 19:0 20:0 21:1 22:0 23:0 24:1 
-25818.549174991 1:4 2:60 3:3 4:157 5:1 6:4 7:3 8:4 9:3 10:21 11:3 12:2 13:1 14:2 15:1 16:0 17:0 18:1 19:0 20:0 21:1 22:0 23:0 24:1 
-32768 1:4 2:12 3:2 4:15 5:1 6:2 7:2 8:3 9:3 10:34 11:3 12:1 13:2 14:1 15:1 16:0 17:0 18:1 19:0 20:0 21:1 22:0 23:0 24:1 
-32768 1:2 2:15 3:2 4:13 5:1 6:5 7:3 8:4 9:3 10:38 11:3 12:2 13:1 14:1 15:1 16:0 17:0 18:1 19:0 20:0 21:1 22:0 23:1 24:0 
-32768 1:1 2:30 3:0 4:46 5:1 6:3 7:1 8:2 9:1 10:32 11:3 12:2 13:1 14:1 15:1 16:0 17:0 18:0 19:0 20:0 21:1 22:0 23:0 24:1 
-32768 1:1 2:48 3:2 4:75 5:1 6:4 7:3 8:1 9:4 10:50 11:3 12:1 13:1 14:2 15:1 16:0 17:0 18:1 19:0 20:0 21:0 22:0 23:0 24:0 
-32768 1:1 2:14 3:2 4:40 5:1 6:1 7:3 8:4 9:4 10:22 11:3 12:1 13:1 14:1 15:1 16:1 17:0 18:1 19:0 20:0 21:0 22:0 23:0 24:1 
-32768 1:2 2:30 3:0 4:42 5:1 6:3 7:2 8:1 9:3 10:28 11:3 12:2 13:1 14:1 15:1 16:0 17:0 18:1 19:0 20:0 21:1 22:0 23:0 24:1 
-17779.0356943829 1:2 2:18 3:4 4:64 5:1 6:5 7:3 8:1 9:4 10:41 11:3 12:1 13:1 14:2 15:1 16:0 17:0 18:1 19:0 20:0 21:1 22:0 23:0 24:1 
-8087.051349277481 1:2 2:6 3:3 4:10 5:1 6:1 7:3 8:1 9:2 10:35 11:2 12:2 13:1 14:2 15:1 16:0 17:0 18:1 19:0 20:0 21:1 22:0 23:0 24:0 
-32768 1:4 2:24 3:4 4:63 5:1 6:1 7:3 8:2 9:4 10:27 11:1 12:2 13:1 14:2 15:1 16:0 17:0 18:0 19:1 20:0 21:1 22:0 23:0 24:0 
-32768 1:2 2:30 3:1 4:35 5:4 6:3 7:3 8:2 9:3 10:34 11:2 12:1 13:2 14:2 15:1 16:0 17:0 18:1 19:0 20:0 21:1 22:0 23:0 24:1 
-32768 1:4 2:48 3:1 4:36 5:1 6:3 7:2 8:1 9:1 10:27 11:2 12:1 13:1 14:1 15:1 16:0 17:0 18:1 19:0 20:0 21:1 22:0 23:0 24:1 
-2986.03081886506 1:4 2:60 3:2 4:104 5:1 6:5 7:3 8:4 9:2 10:42 11:3 12:1 13:1 14:2 15:1 16:1 17:0 18:1 19:0 20:0 21:1 22:0 23:0 24:0 
-27059.81514601999 1:4 2:30 3:4 4:45 5:1 6:4 7:2 8:4 9:3 10:26 11:3 12:1 13:1 14:2 15:1 16:0 17:0 18:1 19:0 20:1 21:0 22:0 23:0 24:0 
-32768 1:1 2:24 3:2 4:24 5:1 6:5 7:3 8:4 9:1 10:64 11:1 12:1 13:1 14:1 15:1 16:0 17:0 18:1 19:0 20:1 21:0 22:0 23:1 24:0 
-8300.19419070963 1:4 2:6 3:2 4:15 5:1 6:2 7:2 8:2 9:4 10:56 11:3 12:1 13:1 14:1 15:1 16:0 17:0 18:1 19:0 20:0 21:1 22:0 23:0 24:1 
-32768 1:2 2:36 3:3 4:99 5:2 6:4 7:3 8:3 9:2 10:31 11:3 12:2 13:2 14:2 15:1 16:0 17:0 18:1 19:0 20:0 21:1 22:0 23:1 24:0 
-32768 1:2 2:36 3:3 4:29 5:2 6:5 7:3 8:3 9:4 10:30 11:3 12:1 13:1 14:1 15:1 16:1 17:0 18:1 19:0 20:0 21:0 22:0 23:0 24:1 
-5756.066330595726 1:1 2:12 3:2 4:37 5:4 6:3 7:3 8:3 9:2 10:31 11:3 12:1 13:2 14:1 15:1 16:1 17:0 18:1 19:0 20:0 21:1 22:0 23:0 24:1 
-32768 1:1 2:15 3:4 4:10 5:1 6:3 7:1 8:3 9:2 10:25 11:3 12:2 13:1 14:1 15:1 16:0 17:0 18:1 19:0 20:0 21:1 22:0 23:0 24:1 
-32768 1:2 2:24 3:2 4:29 5:2 6:2 7:3 8:1 9:3 10:29 11:3 12:1 13:1 14:1 15:1 16:0 17:0 18:1 19:0 20:0 21:1 22:0 23:0 24:1 
-14734.65335608972 1:4 2:12 3:4 4:9 5:1 6:1 7:2 8:2 9:2 10:38 11:3 12:1 13:1 14:1 15:1 16:1 17:0 18:1 19:0 20:0 21:1 22:1 23:0 24:0 
-32768 1:3 2:24 3:2 4:14 5:2 6:5 7:2 8:2 9:4 10:47 11:3 12:1 13:1 14:2 15:1 16:0 17:0 18:1 19:0 20:0 21:0 22:0 23:0 24:1 
-32768 1:2 2:30 3:3 4:25 5:2 6:5 7:3 8:2 9:2 10:41 11:2 12:2 13:1 14:1 15:1 16:0 17:0 18:1 19:0 20:0 21:1 22:0 23:0 24:1 
-32768 1:2 2:27 3:2 4:25 5:1 6:2 7:2 8:1 9:2 10:32 11:3 12:1 13:2 14:2 15:1 16:0 17:0 18:1 19:0 20:0 21:1 22:0 23:0 24:1 
-32768 1:2 2:20 3:0 4:61 5:2 6:5 7:4 8:4 9:3 10:31 11:1 12:2 13:1 14:2 15:1 16:0 17:1 18:1 19:0 20:0 21:1 22:0 23:0 24:1 
-32768 1:1 2:18 3:2 4:44 5:2 6:3 7:3 8:4 9:3 10:35 11:3 12:1 13:2 14:2 15:1 16:1 17:0 18:1 19:0 20:0 21:1 22:0 23:1 24:0 
-14751.02430258224 1:4 2:6 3:4 4:68 5:1 6:4 7:3 8:3 9:4 10:45 11:3 12:2 13:2 14:2 15:1 16:1 17:0 18:1 19:0 20:0 21:1 22:0 23:0 24:0 
-32768 1:1 2:24 3:1 4:23 5:2 6:4 7:3 8:3 9:3 10:32 11:1 12:1 13:1 14:1 15:1 16:1 17:0 18:1 19:0 20:0 21:1 22:0 23:0 24:1 
-32768 1:2 2:10 3:1 4:10 5:1 6:3 7:3 8:4 9:1 10:23 11:2 12:1 13:1 14:1 15:1 16:0 17:0 18:1 19:0 20:0 21:1 22:0 23:1 24:0 
-32768 1:1 2:24 3:1 4:25 5:3 6:3 7:3 8:4 9:1 10:22 11:2 12:1 13:1 14:2 15:1 16:0 17:0 18:1 19:0 20:0 21:1 22:0 23:0 24:1 
-9121.557087697282 1:1 2:39 3:4 4:142 5:5 6:4 7:3 8:4 9:2 10:30 11:3 12:2 13:1 14:2 15:1 16:0 17:0 18:1 19:0 20:0 21:1 22:0 23:0 24:0 
-32768 1:1 2:13 3:4 4:18 5:1 6:2 7:3 8:1 9:2 10:28 11:1 12:2 13:1 14:1 15:1 16:0 17:0 18:1 19:0 20:0 21:1 22:0 23:1 24:0 
-32768 1:1 2:15 3:2 4:25 5:1 6:1 7:2 8:4 9:3 10:23 11:3 12:1 13:1 14:1 15:1 16:1 17:0 18:1 19:0 20:1 21:0 22:0 23:0 24:1 
-23768.51787148288 1:1 2:6 3:2 4:4 5:1 6:5 7:2 8:1 9:2 10:49 11:1 12:1 13:1 14:2 15:1 16:0 17:0 18:1 19:0 20:0 21:1 22:0 23:0 24:1 
-32768 1:2 2:12 3:2 4:8 5:2 6:4 7:2 8:4 9:1 10:23 11:3 12:1 13:1 14:1 15:1 16:0 17:0 18:1 19:0 20:1 21:0 22:0 23:1 24:0 
-764.7629105231879 1:4 2:36 3:4 4:35 5:1 6:4 7:3 8:4 9:3 10:37 11:3 12:2 13:1 14:2 15:1 16:1 17:0 18:1 19:0 20:0 21:1 22:0 23:0 24:1 
-21276.08406506548 1:2 2:18 3:2 4:39 5:1 6:1 7:2 8:4 9:3 10:67 11:3 12:1 13:1 14:2 15:1 16:0 17:0 18:1 19:0 20:0 21:1 22:0 23:0 24:1 
-32768 1:2 2:12 3:0 4:14 5:1 6:3 7:3 8:2 9:1 10:31 11:3 12:1 13:1 14:2 15:1 16:0 17:0 18:1 19:0 20:0 21:1 22:0 23:1 24:0 
-32768 1:3 2:24 3:2 4:29 5:1 6:5 7:1 8:4 9:4 10:51 11:3 12:1 13:1 14:1 15:1 16:0 17:0 18:1 19:0 20:0 21:0 22:0 23:0 24:1 
-32768 1:2 2:9 3:2 4:15 5:5 6:2 7:3 8:2 9:1 10:35 11:3 12:1 13:1 14:1 15:1 16:1 17:0 18:1 19:0 20:0 21:1 22:1 23:0 24:0 
-7420.383551052594 1:2 2:12 3:2 4:75 5:5 6:1 7:2 8:2 9:1 10:24 11:3 12:1 13:1 14:1 15:1 16:1 17:0 18:1 19:0 20:1 21:0 22:1 23:0 24:0 
-32768 1:2 2:42 3:1 4:93 5:1 6:1 7:3 8:2 9:4 10:55 11:1 12:1 13:1 14:2 15:1 16:0 17:1 18:1 19:0 20:0 21:0 22:0 23:0 24:0 
-32768 1:2 2:36 3:3 4:74 5:1 6:3 7:2 8:2 9:2 10:54 11:3 12:1 13:1 14:1 15:1 16:1 17:0 18:1 19:0 20:1 21:0 22:0 23:0 24:1 
-24020.62896290758 1:1 2:36 3:2 4:159 5:1 6:1 7:1 8:3 9:3 10:43 11:3 12:1 13:1 14:1 15:1 16:0 17:0 18:0 19:1 20:0 21:1 22:0 23:0 24:0 
-32768 1:1 2:21 3:4 4:16 5:1 6:5 7:4 8:3 9:3 10:30 11:3 12:2 13:1 14:2 15:1 16:1 17:0 18:1 19:0 20:0 21:1 22:0 23:0 24:1 
-4901.774183300123 1:4 2:12 3:2 4:9 5:5 6:3 7:2 8:2 9:3 10:21 11:3 12:1 13:1 14:1 15:1 16:0 17:0 18:1 19:0 20:0 21:1 22:0 23:0 24:1 
-29759.98234174811 1:4 2:4 3:2 4:6 5:1 6:2 7:2 8:3 9:1 10:23 11:3 12:1 13:2 14:1 15:1 16:0 17:0 18:1 19:0 20:1 21:0 22:0 23:1 24:0 
-2981.200305280824 1:4 2:18 3:2 4:34 5:1 6:5 7:3 8:4 9:2 10:47 11:1 12:3 13:2 14:2 15:1 16:0 17:0 18:1 19:0 20:0 21:1 22:0 23:0 24:1 
-32768 1:4 2:24 3:2 4:12 5:1 6:2 7:4 8:2 9:1 10:28 11:3 12:1 13:1 14:1 15:1 16:1 17:0 18:1 19:0 20:0 21:1 22:0 23:0 24:1 
-32768 1:4 2:36 3:3 4:109 5:1 6:5 7:3 8:2 9:3 10:45 11:3 12:2 13:2 14:2 15:1 16:1 17:0 18:1 19:0 20:0 21:1 22:0 23:0 24:1 
-32768 1:1 2:18 3:2 4:24 5:1 6:2 7:2 8:1 9:3 10:27 11:2 12:1 13:1 14:1 15:1 16:0 17:0 18:1 19:0 20:0 21:1 22:0 23:0 24:1 
-32768 1:1 2:12 3:2 4:7 5:1 6:5 7:2 8:4 9:2 10:24 11:3 12:1 13:1 14:1 15:1 16:0 17:0 18:1 19:0 20:1 21:0 22:0 23:0 24:1 
-29294.40737301362 1:1 2:24 3:4 4:14 5:2 6:4 7:3 8:1 9:1 10:26 11:3 12:2 13:1 14:2 15:1 16:0 17:0 18:1 19:0 20:0 21:1 22:0 23:0 24:1 
-32768 1:1 2:12 3:2 4:36 5:1 6:3 7:3 8:2 9:2 10:29 11:3 12:1 13:2 14:1 15:1 16:0 17:0 18:0 19:1 20:0 21:1 22:0 23:1 24:0 
-32768 1:2 2:11 3:4 4:13 5:4 6:3 7:2 8:4 9:3 10:40 11:3 12:2 13:1 14:1 15:1 16:1 17:0 18:1 19:0 20:0 21:1 22:0 23:0 24:1 
-32768 1:1 2:18 3:1 4:19 5:1 6:2 7:3 8:4 9:4 10:36 11:1 12:1 13:1 14:2 15:1 16:0 17:0 18:0 19:1 20:0 21:0 22:0 23:0 24:0 
-32768 1:4 2:24 3:2 4:93 5:5 6:3 7:1 8:4 9:4 10:48 11:3 12:1 13:1 14:2 15:1 16:0 17:1 18:1 19:0 20:0 21:0 22:0 23:0 24:1 
-32768 1:2 2:30 3:4 4:22 5:5 6:5 7:3 8:4 9:1 10:36 11:3 12:2 13:1 14:1 15:1 16:1 17:0 18:1 19:0 20:0 21:1 22:0 23:0 24:1 
-32768 1:4 2:36 3:4 4:66 5:1 6:5 7:3 8:4 9:3 10:34 11:3 12:2 13:1 14:2 15:1 16:1 17:0 18:1 19:0 20:0 21:1 22:0 23:0 24:0 
-32768 1:1 2:27 3:4 4:24 5:1 6:5 7:3 8:4 9:3 10:43 11:2 12:4 13:2 14:2 15:1 16:0 17:0 18:1 19:0 20:0 21:1 22:0 23:0 24:0 
-9054.421762873315 1:2 2:36 3:4 4:58 5:1 6:3 7:3 8:4 9:3 10:34 11:3 12:2 13:1 14:2 15:1 16:0 17:1 18:1 19:0 20:0 21:1 22:0 23:0 24:1 
-32768 1:1 2:21 3:2 4:26 5:1 6:2 7:2 8:4 9:2 10:28 11:3 12:1 13:1 14:2 15:1 16:0 17:0 18:1 19:0 20:1 21:0 22:0 23:0 24:0 
-32768 1:1 2:12 3:2 4:11 5:1 6:3 7:3 8:2 9:1 10:20 11:3 12:1 13:2 14:2 15:1 16:0 17:0 18:1 19:0 20:1 21:0 22:0 23:0 24:0 
-32768 1:4 2:36 3:3 4:45 5:1 6:3 7:2 8:4 9:1 10:34 11:3 12:2 13:1 14:1 15:1 16:0 17:0 18:1 19:0 20:0 21:1 22:0 23:0 24:1 
-32768 1:2 2:12 3:2 4:20 5:1 6:4 7:3 8:4 9:2 10:30 11:3 12:1 13:2 14:2 15:1 16:1 17:0 18:1 19:0 20:1 21:0 22:0 23:0 24:1 
-32768 1:1 2:18 3:4 4:10 5:1 6:2 7:2 8:4 9:2 10:21 11:3 12:1 13:1 14:1 15:1 16:0 17:0 18:1 19:0 20:1 21:0 22:0 23:0 24:1 
-32768 1:1 2:12 3:3 4:13 5:1 6:3 7:3 8:2 9:1 10:43 11:3 12:2 13:2 14:1 15:1 16:1 17:0 18:1 19:0 20:0 21:1 22:0 23:1 24:0 
-32768 1:1 2:24 3:2 4:17 5:1 6:2 7:3 8:1 9:2 10:24 11:3 12:1 13:1 14:1 15:2 16:0 17:0 18:0 19:1 20:0 21:1 22:0 23:1 24:0 
-32768 1:1 2:12 3:2 4:15 5:1 6:3 7:2 8:1 9:3 10:23 11:1 12:1 13:1 14:1 15:1 16:0 17:0 18:1 19:0 20:0 21:1 22:0 23:0 24:1 
-32768 1:1 2:15 3:2 4:18 5:1 6:2 7:2 8:1 9:2 10:46 11:3 12:1 13:1 14:1 15:1 16:0 17:0 18:0 19:0 20:1 21:0 22:0 23:0 24:1 
-32768 1:2 2:48 3:0 4:84 5:3 6:2 7:2 8:1 9:3 10:30 11:3 12:2 13:1 14:1 15:1 16:1 17:0 18:1 19:0 20:0 21:1 22:0 23:0 24:1 
-32768 1:1 2:12 3:2 4:19 5:1 6:3 7:2 8:4 9:2 10:29 11:3 12:1 13:1 14:2 15:1 16:1 17:0 18:0 19:0 20:0 21:1 22:0 23:0 24:1 
-26916.99843836078 1:1 2:24 3:4 4:12 5:4 6:5 7:2 8:4 9:2 10:57 11:3 12:2 13:1 14:2 15:1 16:0 17:0 18:1 19:0 20:1 21:0 22:0 23:0 24:0 
-22226.26644921348 1:2 2:24 3:2 4:31 5:2 6:5 7:3 8:4 9:4 10:30 11:3 12:1 13:1 14:1 15:1 16:0 17:0 18:1 19:0 20:0 21:0 22:0 23:0 24:1 
-32768 1:2 2:21 3:3 4:24 5:1 6:3 7:1 8:4 9:2 10:47 11:3 12:2 13:1 14:1 15:1 16:1 17:0 18:1 19:0 20:0 21:1 22:0 23:0 24:1 
-32768 1:2 2:6 3:2 4:5 5:1 6:2 7:4 8:1 9:2 10:22 11:3 12:1 13:1 14:1 15:1 16:0 17:0 18:1 19:0 20:0 21:1 22:0 23:1 24:0 
-32768 1:2 2:30 3:2 4:17 5:5 6:3 7:2 8:1 9:3 10:26 11:3 12:1 13:1 14:1 15:1 16:0 17:0 18:1 19:0 20:0 21:1 22:0 23:0 24:1 
-10460.97058646871 1:4 2:42 3:2 4:72 5:5 6:4 7:4 8:4 9:2 10:29 11:3 12:1 13:1 14:2 15:1 16:0 17:0 18:1 19:0 20:1 21:0 22:0 23:0 24:1 
-32768 1:3 2:24 3:2 4:13 5:3 6:3 7:2 8:3 9:3 10:57 11:3 12:1 13:1 14:1 15:1 16:0 17:0 18:1 19:0 20:0 21:1 22:0 23:1 24:0 
-32768 1:3 2:21 3:2 4:29 5:2 6:3 7:2 8:1 9:3 10:28 11:1 12:1 13:1 14:2 15:1 16:1 17:0 18:1 19:0 20:0 21:1 22:0 23:0 24:0 
-32768 1:1 2:15 3:4 4:14 5:1 6:3 7:2 8:3 9:2 10:25 11:3 12:2 13:1 14:1 15:1 16:0 17:0 18:1 19:0 20:1 21:0 22:0 23:0 24:1 
-32768 1:3 2:42 3:0 4:63 5:1 6:2 7:1 8:1 9:2 10:33 11:3 12:2 13:1 14:1 15:1 16:0 17:0 18:1 19:0 20:0 21:1 22:0 23:0 24:1 
-32768 1:2 2:24 3:4 4:17 5:1 6:5 7:3 8:2 9:2 10:48 11:3 12:2 13:1 14:1 15:1 16:0 17:0 18:1 19:0 20:0 21:1 22:0 23:1 24:0 
-21707.21124069309 1:4 2:15 3:1 4:16 5:2 6:5 7:3 8:4 9:3 10:34 11:1 12:1 13:2 14:1 15:1 16:0 17:0 18:1 19:0 20:0 21:1 22:0 23:1 24:0 
-32768 1:1 2:18 3:2 4:19 5:5 6:4 7:4 8:4 9:3 10:23 11:3 12:2 13:1 14:1 15:1 16:0 17:0 18:1 19:0 20:1 21:0 22:0 23:1 24:0 
-32768 1:1 2:36 3:2 4:40 5:1 6:1 7:3 8:3 9:2 10:30 11:3 12:1 13:1 14:2 15:1 16:0 17:0 18:1 19:0 20:0 21:1 22:0 23:0 24:0 
-32768 1:1 2:30 3:2 4:39 5:1 6:3 7:1 8:4 9:2 10:40 11:3 12:1 13:1 14:2 15:1 16:0 17:1 18:1 19:0 20:0 21:1 22:0 23:0 24:0 
-32768 1:2 2:45 3:4 4:46 5:2 6:1 7:3 8:4 9:3 10:27 11:3 12:1 13:1 14:1 15:1 16:0 17:1 18:1 19:0 20:0 21:1 22:0 23:0 24:1 
