svm_type c_svc
kernel_type rbf
gamma 3.05176e-05
nr_class 2
total_sv 129
rho -2.23606
label 1 -1
nr_sv 63 66
SV
512 1:57 2:1 3:2 4:124 5:261 6:0 7:0 8:141 9:0 10:0.3 11:1 12:0 13:7 
512 1:56 2:1 3:3 4:130 5:256 6:1 7:2 8:142 9:1 10:0.6 11:2 12:1 13:6 
29.39401446700424 1:59 2:1 3:4 4:110 5:239 6:0 7:2 8:142 9:1 10:1.2 11:2 12:1 13:7 
211.9517580883941 1:63 2:0 3:4 4:150 5:407 6:0 7:2 8:154 9:0 10:4 11:2 12:3 13:7 
512 1:61 2:1 3:1 4:134 5:234 6:0 7:0 8:145 9:0 10:2.6 11:2 12:2 13:3 
512 1:53 2:1 3:4 4:140 5:203 6:1 7:2 8:155 9:1 10:3.1 11:3 12:0 13:7 
512 1:58 2:1 3:3 4:112 5:230 6:0 7:2 8:165 9:0 10:2.5 11:2 12:1 13:7 
512 1:57 2:1 3:3 4:128 5:229 6:0 7:2 8:150 9:0 10:0.4 11:2 12:1 13:7 
291.166538239233 1:50 2:1 3:4 4:144 5:200 6:0 7:2 8:126 9:1 10:0.9 11:2 12:0 13:7 
15.61882122746287 1:61 2:1 3:4 4:140 5:207 6:0 7:2 8:138 9:1 10:1.9 11:1 12:1 13:7 
512 1:59 2:1 3:1 4:160 5:273 6:0 7:2 8:125 9:0 10:0 11:1 12:0 13:3 
512 1:40 2:1 3:4 4:152 5:223 6:0 7:0 8:181 9:0 10:0 11:1 12:0 13:7 
512 1:59 2:1 3:3 4:126 5:218 6:1 7:0 8:134 9:0 10:2.2 11:2 12:1 13:6 
323.2659152259293 1:49 2:1 3:3 4:118 5:149 6:0 7:2 8:126 9:0 10:0.8 11:1 12:3 13:3 
512 1:44 2:1 3:4 4:110 5:197 6:0 7:2 8:177 9:0 10:0 11:1 12:1 13:3 
423.9995487286945 1:66 2:1 3:2 4:160 5:246 6:0 7:0 8:120 9:1 10:0 11:2 12:3 13:6 
512 1:59 2:0 3:4 4:174 5:249 6:0 7:0 8:143 9:1 10:0 11:2 12:0 13:3 
450.5351376178347 1:51 2:0 3:4 4:130 5:305 6:0 7:0 8:142 9:1 10:1.2 11:2 12:0 13:7 
512 1:58 2:0 3:2 4:136 5:319 6:1 7:2 8:152 9:0 10:0 11:1 12:2 13:3 
512 1:47 2:1 3:3 4:108 5:243 6:0 7:0 8:152 9:0 10:0 11:1 12:0 13:3 
512 1:61 2:0 3:4 4:130 5:330 6:0 7:2 8:169 9:0 10:0 11:1 12:0 13:3 
512 1:54 2:1 3:4 4:110 5:206 6:0 7:2 8:108 9:1 10:0 11:2 12:1 13:3 
512 1:52 2:1 3:4 4:125 5:212 6:0 7:0 8:168 9:0 10:1 11:1 12:2 13:7 
512 1:47 2:1 3:4 4:110 5:275 6:0 7:2 8:118 9:1 10:1 11:2 12:1 13:3 
512 1:58 2:1 3:4 4:100 5:234 6:0 7:0 8:156 9:0 10:0.1 11:1 12:1 13:7 
292.0941838113569 1:67 2:1 3:4 4:120 5:237 6:0 7:0 8:71 9:0 10:1 11:2 12:0 13:3 
512 1:48 2:1 3:4 4:124 5:274 6:0 7:2 8:166 9:0 10:0.5 11:2 12:0 13:7 
512 1:59 2:1 3:4 4:140 5:177 6:0 7:0 8:162 9:1 10:0 11:1 12:1 13:7 
154.3929180272495 1:55 2:0 3:4 4:180 5:327 6:0 7:1 8:117 9:1 10:3.4 11:2 12:0 13:3 
512 1:60 2:0 3:4 4:158 5:305 6:0 7:2 8:161 9:0 10:0 11:1 12:0 13:3 
512 1:46 2:1 3:4 4:120 5:249 6:0 7:2 8:144 9:0 10:0.8 11:1 12:0 13:7 
512 1:63 2:0 3:4 4:108 5:269 6:0 7:0 8:169 9:1 10:1.8 11:2 12:2 13:3 
512 1:66 2:1 3:4 4:112 5:212 6:0 7:2 8:132 9:1 10:0.1 11:1 12:1 13:3 
224.8873566587039 1:64 2:1 3:4 4:120 5:246 6:0 7:2 8:96 9:1 10:2.2 11:3 12:1 13:3 
512 1:56 2:1 3:4 4:125 5:249 6:1 7:2 8:144 9:1 10:1.2 11:2 12:1 13:3 
512 1:50 2:1 3:3 4:140 5:233 6:0 7:0 8:163 9:0 10:0.6 11:2 12:1 13:7 
242.0834922254915 1:54 2:1 3:2 4:192 5:283 6:0 7:2 8:195 9:0 10:0 11:1 12:1 13:7 
512 1:52 2:1 3:4 4:112 5:230 6:0 7:0 8:160 9:0 10:0 11:1 12:1 13:3 
275.6495445988218 1:66 2:0 3:4 4:178 5:228 6:1 7:0 8:165 9:1 10:1 11:2 12:2 13:7 
512 1:38 2:1 3:1 4:120 5:231 6:0 7:0 8:182 9:1 10:3.8 11:2 12:0 13:7 
512 1:62 2:0 3:4 4:150 5:244 6:0 7:0 8:154 9:1 10:1.4 11:2 12:0 13:3 
512 1:65 2:1 3:1 4:138 5:282 6:1 7:2 8:174 9:0 10:1.4 11:2 12:1 13:3 
512 1:67 2:1 3:4 4:100 5:299 6:0 7:2 8:125 9:1 10:0.9 11:2 12:2 13:3 
512 1:46 2:1 3:3 4:150 5:231 6:0 7:0 8:147 9:0 10:3.6 11:2 12:0 13:3 
33.00442255256808 1:67 2:1 3:4 4:125 5:254 6:1 7:0 8:163 9:0 10:0.2 11:2 12:2 13:7 
200.473578435965 1:56 2:0 3:4 4:134 5:409 6:0 7:2 8:150 9:1 10:1.9 11:2 12:2 13:7 
512 1:41 2:1 3:4 4:110 5:172 6:0 7:2 8:158 9:0 10:0 11:1 12:0 13:7 
454.2755181687191 1:70 2:1 3:4 4:145 5:174 6:0 7:0 8:125 9:1 10:2.6 11:3 12:0 13:7 
512 1:35 2:1 3:4 4:126 5:282 6:0 7:2 8:156 9:1 10:0 11:1 12:0 13:7 
399.1542052903563 1:77 2:1 3:4 4:125 5:304 6:0 7:2 8:162 9:1 10:0 11:1 12:3 13:3 
512 1:51 2:1 3:4 4:140 5:299 6:0 7:0 8:173 9:1 10:1.6 11:1 12:0 13:7 
488.3546571742228 1:64 2:1 3:3 4:125 5:309 6:0 7:0 8:131 9:1 10:1.8 11:2 12:0 13:7 
512 1:59 2:1 3:1 4:170 5:288 6:0 7:2 8:159 9:0 10:0.2 11:2 12:0 13:7 
512 1:39 2:1 3:4 4:118 5:219 6:0 7:0 8:140 9:0 10:1.2 11:2 12:0 13:7 
512 1:52 2:1 3:4 4:128 5:255 6:0 7:0 8:161 9:1 10:0 11:1 12:1 13:7 
512 1:62 2:0 3:4 4:140 5:268 6:0 7:2 8:160 9:0 10:3.6 11:3 12:2 13:3 
512 1:65 2:1 3:4 4:110 5:248 6:0 7:2 8:158 9:0 10:0.6 11:1 12:2 13:6 
512 1:60 2:1 3:3 4:140 5:185 6:0 7:2 8:155 9:0 10:3 11:2 12:0 13:3 
512 1:54 2:1 3:4 4:120 5:188 6:0 7:0 8:113 9:0 10:1.4 11:2 12:1 13:7 
512 1:44 2:1 3:4 4:112 5:290 6:0 7:2 8:153 9:0 10:0 11:1 12:1 13:3 
512 1:64 2:1 3:3 4:140 5:335 6:0 7:0 8:158 9:0 10:0 11:1 12:0 13:3 
512 1:58 2:1 3:2 4:120 5:284 6:0 7:2 8:160 9:0 10:1.8 11:2 12:0 13:3 
512 1:48 2:1 3:2 4:110 5:229 6:0 7:0 8:168 9:0 10:1 11:3 12:0 13:7 
-11.19314756205121 1:67 2:0 3:3 4:115 5:564 6:0 7:2 8:160 9:0 10:1.6 11:2 12:0 13:7 
-512 1:64 2:1 3:4 4:128 5:263 6:0 7:0 8:105 9:1 10:0.2 11:2 12:1 13:7 
-312.9721365416499 1:74 2:0 3:2 4:120 5:269 6:0 7:2 8:121 9:1 10:0.2 11:1 12:1 13:3 
-512 1:65 2:1 3:4 4:120 5:177 6:0 7:0 8:140 9:0 10:0.4 11:1 12:0 13:7 
-512 1:59 2:1 3:4 4:135 5:234 6:0 7:0 8:161 9:0 10:0.5 11:2 12:0 13:7 
-512 1:53 2:1 3:4 4:142 5:226 6:0 7:2 8:111 9:1 10:0 11:1 12:0 13:7 
-512 1:57 2:0 3:4 4:128 5:303 6:0 7:2 8:159 9:0 10:0 11:1 12:1 13:3 
-106.8509998993867 1:71 2:0 3:4 4:112 5:149 6:0 7:0 8:125 9:0 10:1.6 11:2 12:0 13:3 
-18.6018836554712 1:54 2:0 3:2 4:132 5:288 6:1 7:2 8:159 9:1 10:0 11:1 12:1 13:3 
-512 1:46 2:0 3:4 4:138 5:243 6:0 7:2 8:152 9:1 10:0 11:2 12:0 13:3 
-512 1:66 2:1 3:4 4:160 5:228 6:0 7:2 8:138 9:0 10:2.3 11:1 12:0 13:6 
-83.51919217790017 1:46 2:1 3:2 4:101 5:197 6:1 7:0 8:156 9:0 10:0 11:1 12:0 13:7 
-17.95369110034813 1:65 2:0 3:3 4:140 5:417 6:1 7:2 8:157 9:0 10:0.8 11:1 12:1 13:3 
-512 1:60 2:0 3:3 4:120 5:178 6:1 7:0 8:96 9:0 10:0 11:1 12:0 13:3 
-114.3716972951896 1:57 2:1 3:3 4:150 5:126 6:1 7:0 8:173 9:0 10:0.2 11:1 12:1 13:7 
-512 1:63 2:1 3:1 4:145 5:233 6:1 7:2 8:150 9:0 10:2.3 11:3 12:0 13:6 
-268.7124013820664 1:51 2:1 3:4 4:140 5:261 6:0 7:2 8:186 9:1 10:0 11:1 12:0 13:3 
-378.35881969896 1:67 2:0 3:4 4:106 5:223 6:0 7:0 8:142 9:0 10:0.3 11:1 12:2 13:3 
-512 1:45 2:1 3:4 4:104 5:208 6:0 7:2 8:148 9:1 10:3 11:2 12:0 13:3 
-502.1082101666187 1:41 2:1 3:3 4:130 5:214 6:0 7:2 8:168 9:0 10:2 11:2 12:0 13:3 
-512 1:57 2:1 3:4 4:110 5:201 6:0 7:0 8:126 9:1 10:1.5 11:2 12:0 13:6 
-512 1:59 2:1 3:1 4:178 5:270 6:0 7:2 8:145 9:0 10:4.2 11:3 12:0 13:7 
-512 1:66 2:1 3:4 4:120 5:302 6:0 7:2 8:151 9:0 10:0.4 11:2 12:0 13:3 
-512 1:64 2:0 3:3 4:140 5:313 6:0 7:0 8:133 9:0 10:0.2 11:1 12:0 13:7 
-193.0192182039358 1:44 2:0 3:3 4:108 5:141 6:0 7:0 8:175 9:0 10:0.6 11:2 12:0 13:3 
-189.8273233002104 1:66 2:0 3:1 4:150 5:226 6:0 7:0 8:114 9:0 10:2.6 11:3 12:0 13:3 
-512 1:54 2:1 3:3 4:125 5:273 6:0 7:2 8:152 9:0 10:0.5 11:3 12:1 13:3 
-512 1:54 2:1 3:3 4:150 5:232 6:0 7:2 8:165 9:0 10:1.6 11:1 12:0 13:7 
-175.4806259392201 1:46 2:0 3:3 4:142 5:177 6:0 7:2 8:160 9:1 10:1.4 11:3 12:0 13:3 
-189.9804497594062 1:67 2:0 3:3 4:152 5:277 6:0 7:0 8:172 9:0 10:0 11:1 12:1 13:3 
-512 1:57 2:1 3:4 4:132 5:207 6:0 7:0 8:168 9:1 10:0 11:1 12:0 13:7 
-512 1:59 2:1 3:4 4:138 5:271 6:0 7:2 8:182 9:0 10:0 11:1 12:0 13:3 
-512 1:51 2:1 3:1 4:125 5:213 6:0 7:2 8:125 9:1 10:1.4 11:1 12:1 13:3 
-512 1:64 2:0 3:4 4:130 5:303 6:0 7:0 8:122 9:0 10:2 11:2 12:2 13:3 
-512 1:56 2:1 3:1 4:120 5:193 6:0 7:2 8:162 9:0 10:1.9 11:2 12:0 13:7 
-512 1:43 2:1 3:4 4:110 5:211 6:0 7:0 8:161 9:0 10:0 11:1 12:0 13:7 
-512 1:64 2:0 3:4 4:180 5:325 6:0 7:0 8:154 9:1 10:0 11:1 12:0 13:3 
-512 1:45 2:0 3:4 4:138 5:236 6:0 7:2 8:152 9:1 10:0.2 11:2 12:0 13:3 
-512 1:42 2:1 3:3 4:120 5:240 6:1 7:0 8:194 9:0 10:0.8 11:3 12:0 13:7 
-512 1:42 2:0 3:4 4:102 5:265 6:0 7:2 8:122 9:0 10:0.6 11:2 12:0 13:3 
-512 1:53 2:1 3:3 4:130 5:246 6:1 7:2 8:173 9:0 10:0 11:1 12:3 13:3 
-512 1:43 2:1 3:3 4:130 5:315 6:0 7:0 8:162 9:0 10:1.9 11:1 12:1 13:3 
-512 1:52 2:1 3:4 4:108 5:233 6:1 7:0 8:147 9:0 10:0.1 11:1 12:3 13:7 
-512 1:62 2:0 3:4 4:140 5:394 6:0 7:2 8:157 9:0 10:1.2 11:2 12:0 13:3 
-512 1:54 2:1 3:2 4:108 5:309 6:0 7:0 8:156 9:0 10:0 11:1 12:0 13:7 
-419.5202420137904 1:48 2:1 3:3 4:124 5:255 6:1 7:0 8:175 9:0 10:0 11:1 12:2 13:3 
-471.4764989398163 1:58 2:0 3:4 4:100 5:248 6:0 7:2 8:122 9:0 10:1 11:2 12:0 13:3 
-512 1:68 2:1 3:3 4:118 5:277 6:0 7:0 8:151 9:0 10:1 11:1 12:1 13:7 
-512 1:52 2:1 3:1 4:152 5:298 6:1 7:0 8:178 9:0 10:1.2 11:2 12:0 13:7 
-512 1:60 2:0 3:3 4:102 5:318 6:0 7:0 8:160 9:0 10:0 11:1 12:1 13:3 
-512 1:58 2:1 3:3 4:105 5:240 6:0 7:2 8:154 9:1 10:0.6 11:2 12:0 13:7 
-90.94065351895027 1:37 2:1 3:3 4:130 5:250 6:0 7:0 8:187 9:0 10:3.5 11:3 12:0 13:3 
-512 1:51 2:1 3:3 4:125 5:245 6:1 7:2 8:166 9:0 10:2.4 11:2 12:0 13:3 
-512 1:51 2:1 3:3 4:94 5:227 6:0 7:0 8:154 9:1 10:0 11:1 12:1 13:7 
-512 1:54 2:1 3:3 4:120 5:258 6:0 7:2 8:147 9:0 10:0.4 11:2 12:0 13:7 
-512 1:41 2:1 3:2 4:135 5:203 6:0 7:0 8:132 9:0 10:0 11:2 12:0 13:6 
-512 1:62 2:1 3:3 4:130 5:231 6:0 7:0 8:146 9:0 10:1.8 11:2 12:3 13:7 
-512 1:53 2:0 3:4 4:130 5:264 6:0 7:2 8:143 9:0 10:0.4 11:2 12:0 13:3 
-512 1:51 2:0 3:3 4:140 5:308 6:0 7:2 8:142 9:0 10:1.5 11:1 12:1 13:3 
-512 1:71 2:0 3:2 4:160 5:302 6:0 7:0 8:162 9:0 10:0.4 11:1 12:2 13:3 
-512 1:61 2:1 3:3 4:150 5:243 6:1 7:0 8:137 9:1 10:1 11:2 12:0 13:3 
-121.8326553783852 1:43 2:1 3:4 4:150 5:247 6:0 7:0 8:171 9:0 10:1.5 11:1 12:0 13:3 
-512 1:52 2:1 3:3 4:172 5:199 6:1 7:0 8:162 9:0 10:0.5 11:1 12:0 13:7 
-512 1:44 2:1 3:2 4:120 5:263 6:0 7:0 8:173 9:0 10:0 11:1 12:0 13:7 
-331.5817640046501 1:56 2:0 3:2 4:140 5:294 6:0 7:2 8:153 9:0 10:1.3 11:2 12:0 13:3 
-512 1:57 2:1 3:4 4:140 5:192 6:0 7:0 8:148 9:0 10:0.4 11:2 12:0 13:6 
