svm_type c_svc
kernel_type rbf
gamma 2
nr_class 26
total_sv 7643
rho 0.0104219 0.141021 0.105519 -0.0263114 0.109752 -0.148513 0.2319 -0.150359 -0.0859195 -0.0411168 0.0152888 -0.0956751 -0.211119 0.0424433 -0.0069278 -0.154411 0.160472 -0.106559 0.0469191 -0.00609056 -0.0677513 -0.0680802 -0.0462346 -0.272235 0.0393315 0.0696936 0.218417 -0.0487867 0.0721527 -0.0626081 0.217975 -0.13071 -0.148379 -0.0596225 0.162274 -0.0129037 -0.207866 0.167947 0.0671219 -0.109553 0.183511 -0.0991387 0.039215 -0.0102594 -0.0847079 -0.0482613 0.0483079 -0.252992 0.0483344 0.00015942 -0.0435868 -0.0131048 -0.295988 0.122354 -0.350436 -0.187928 -0.138215 -0.0660695 -0.137118 -0.343087 -0.0484884 -0.135629 -0.197973 0.0541008 -0.142213 -0.0560215 -0.130921 -0.166182 -0.180388 -0.198882 -0.212011 -0.00405272 -0.0647531 0.00441433 -0.126958 0.152863 0.0178004 -0.204756 -0.14284 0.178047 -0.300803 -0.245625 -0.0262427 -0.0895742 -0.141377 0.0716595 -0.134051 -0.033852 -0.0606074 -0.181653 -0.113817 -0.0494059 -0.350566 -0.0919964 0.0752151 -0.102829 0.225493 -0.109338 -0.0936589 -0.037052 0.0440751 -0.117557 -0.195433 0.105452 0.0362132 -0.135864 0.24789 -0.00636042 0.0457198 0.0104763 -0.122186 -0.0947702 0.0283371 -0.2089 0.133525 -0.257235 0.194442 -0.221235 -0.188227 -0.126443 -0.0777444 -0.218585 -0.209639 -0.00332214 -0.115388 -0.188295 0.0545806 -0.150925 -0.0115822 -0.0315427 -0.197482 -0.230093 -0.135324 -0.353816 -0.0787132 0.332246 0.190104 -0.046698 0.131277 0.0915261 0.003171 -0.0204293 0.334639 0.222689 0.102441 0.29009 0.11418 0.215833 0.127322 -0.0385791 0.0288526 0.14117 -0.120012 0.201378 -0.407467 -0.321237 -0.309243 -0.239382 -0.298666 -0.440386 -0.189637 -0.222705 -0.316427 -0.102259 -0.301624 -0.23058 -0.31244 -0.310907 -0.341506 -0.246591 -0.385816 -0.191263 0.0246415 0.153131 0.146602 -0.0120627 -0.238254 0.154429 0.0906341 0.0432056 0.23387 0.0923198 0.16549 0.276127 -0.0853967 0.0142134 0.00184849 -0.190528 0.112941 0.0328494 0.102982 0.0106077 -0.0900206 0.150893 0.0893695 -0.00710756 0.346264 0.0298208 0.168207 0.0741279 0.0671391 -0.0434533 0.0817207 0.0376311 0.150501 0.0695967 -0.0714414 -0.217239 0.0491815 0.0338676 -0.0667936 0.227353 -0.0368354 0.120343 0.0174687 -0.0508631 -0.0941678 -0.0519455 -0.223336 0.102763 -0.181216 -0.260281 0.0388893 0.0354818 -0.0665193 0.123625 -0.0674908 0.0378466 -0.0370687 -0.17265 -0.0689646 -0.0837162 -0.382091 0.0400999 -0.0740277 0.231605 0.165765 0.181326 0.292483 0.067963 0.143473 0.0689189 4.87722e-05 0.00515438 0.386182 -0.138203 0.186647 0.194723 0.160745 0.0686033 0.342653 0.171221 0.320456 0.150599 0.0886599 -0.00876136 0.139305 -0.0968246 0.195986 -0.0864674 -0.173842 0.14969 -0.127749 -0.00939147 -0.0810996 -0.13715 -0.143341 -0.160739 -0.308273 -0.00216585 -0.055686 0.163793 -0.0572839 0.0340835 0.0051462 -0.152398 -0.120128 -0.0696528 -0.261065 0.0759491 0.27355 0.126831 0.124027 0.0783786 -0.0306477 0.0425341 0.103151 -0.134171 0.153438 -0.231759 -0.113885 -0.212186 -0.33167 -0.252071 -0.215204 -0.364543 -0.0970265 0.109719 0.0447435 -0.0136361 0.00292242 -0.00526046 -0.225151 0.197562 -0.108954 -0.118947 -0.158706 -0.111346 -0.286187 0.016283 -0.0942969 -0.0821212 -0.0796271 -0.2134 0.0590659 0.0437409 0.060398 -0.0831194 0.123517 -0.25833 -0.135177 0.145335 -0.229049 0.106078 0.35234
label 26 16 19 8 6 14 18 13 4 22 1 11 5 15 17 12 24 25 9 23 21 20 3 7 2 10
nr_sv 231 265 381 376 302 311 347 306 350 239 193 375 340 302 311 202 322 313 193 234 289 262 256 354 341 248
SV
0 0 0 0 0 0 0 0 0 0 0 0 0 0 0 0.7702063875548588 0 0 0 0 0 0 0 0 0 1:-0.733333 2:-0.466667 3:-0.333333 4:-0.6 5:-0.733333 6:-0.0666667 7:0.0666667 8:-0.733333 9:0.2 10:0.466667 11:-0.0666667 12:-0.0666667 13:-0.866667 14:0.0666667 15:-0.333333 16:-0.2 
0 0.00195155682929688 0 0 0 0.5083727817355447 0 0 0 0 0 0 0 0.1038068575618604 0 0.2728160696877346 0 0 0 0 0 0 0 0 0 1:-0.466667 2:0.0666667 3:-0.333333 4:-0.2 5:-0.466667 6:0.2 7:0.2 8:-0.2 9:-0.466667 10:-0.0666667 11:-0.333333 12:0.0666667 13:-0.6 14:0.0666667 15:0.333333 16:-0.0666667 
0 0 0 0 0 0 0 0 0 0 0 0 0 0 0 0 0 0 0 0 0 0 0 0.219040471712227 0 1:-0.733333 2:-0.2 3:-0.6 4:-0.466667 5:-0.6 6:0.0666667 7:-0.0666667 8:-0.333333 9:0.2 10:-0.0666667 11:-0.0666667 12:-0.0666667 13:-0.866667 14:0.0666667 15:-0.0666667 16:0.0666667 
0.1210089682012957 0.1426254373569109 0.1228986824609621 0.1088984228790714 0.11540333598704 0.08660344468156149 0.1263476821169759 0.05776372383703506 0.09151034398675112 0.08158526356013303 0.1008570580846716 0.102902070363487 0.09311868233706605 0.1116123359685705 0.08890406109944812 0.07630792390552936 0.1296921899018544 0.09229089828647977 0.1096275577713171 0.1010598220080624 0.0912811558867179 0.1079864371229002 0.119615624755835 0.07019445541774293 0.2225233585845255 1:0.2 2:0.333333 3:-0.0666667 4:0.866667 5:-0.2 6:0.0666667 7:-0.0666667 8:-0.466667 9:-0.733333 10:0.6 11:-0.2 12:0.0666667 13:-0.6 14:0.2 15:0.733333 16:-0.2 
0.09428541976427375 0 0.2267714665953751 0.02465659068768654 0.03344552892152567 0.2174722183555836 0.1706102262635603 0.06038589781110352 0.1209804387307272 0.1615436622114624 0.43818031185462 0.09935306590186092 0.04598698950502573 0.4249098412144927 0.2550124655391255 0.6116693919213045 0.07433933972722183 0.2013233402169561 0.1510681805956336 0.1239785786336858 0.09245787977285207 0.1267295420449635 0.1560837397283755 0 0.439972363085528 1:-0.333333 2:0.0666667 3:-0.0666667 4:0.333333 5:-0.0666667 6:0.333333 7:-0.333333 8:-0.466667 9:-0.466667 10:0.0666667 11:-0.6 12:-0.2 13:-0.6 14:-0.333333 15:0.0666667 16:0.0666667 
0 0 0.1242577696333921 0 0 0.1375673746365969 0 0 0 0 0.2562089024836159 0.3204044845810505 0 0 0 0 0 0 0 0 0 0 0 0.08032579068734433 0.3340541801407306 1:-0.6 2:-0.333333 3:-0.333333 4:0.0666667 5:-0.6 6:0.466667 7:-0.333333 8:-0.6 9:-0.333333 10:0.333333 11:-0.733333 12:-0.0666667 13:-0.733333 14:-0.0666667 15:-0.333333 16:0.466667 
0.3681942099142125 2.703925280049888 0.2056365934899337 0.3483688685598339 0 0.3159645172311682 0 0.2097732021979682 0 0 0.3308875133625603 0 0 0 0 0.9007480341619035 0 0.2855827682230205 0 0 0 0 0 0.4285609023822868 0 1:-0.733333 2:-0.466667 3:-0.333333 4:-0.6 5:-0.733333 6:-0.0666667 7:0.0666667 8:-0.733333 9:0.2 10:0.466667 11:-0.0666667 12:-0.2 13:-0.866667 14:0.0666667 15:-0.333333 16:-0.0666667 
0.5397612226298223 0.6225069708163279 0.5858376294418788 0.5018850203589021 0.6071404103775302 0.4096579649494907 0.6705179176958272 0.4166172600469266 0.5012184419222749 0.5255999785792935 0.4911723956274981 0.2758719438112878 0.4246601649154447 0.5413210202078437 0.5093272410093863 0.4285028162272168 0.6311469537641564 0.4186769787144084 0.568663812963601 0.5466185872328703 0.5867746591638325 0.494650705154539 0.5347392135622322 0.3520296104034549 0.5940694251986508 1:-0.333333 2:-0.333333 3:-0.0666667 4:0.0666667 5:-0.6 6:-0.0666667 7:-0.0666667 8:-0.466667 9:1 10:0.2 11:-0.2 12:0.0666667 13:-1 14:0.0666667 15:0.2 16:0.0666667 
0.7199833360125263 0.9321520639993701 0.8790785747934885 0.6642820033374446 0.8295186008229709 0.6342186682127889 0.9007512716863847 0.6115363998523619 0.6701780788187152 0.7048341240996414 0.8377512825159618 0.8027133950701563 0.6456300473415304 0.7065621751925512 0.7205526443845732 0.7818087338628846 0.9232706259771274 0.6405237031377536 0.7591128721717828 0.8384738599146612 0.6417017858459308 0.6685307200126552 0.6644879174050516 0.4759001920447719 0.7606227715094758 1:0.0666667 2:0.733333 3:0.2 4:-0.0666667 5:-0.2 6:-0.333333 7:0.2 8:-0.733333 9:0.2 10:0.6 11:0.0666667 12:0.0666667 13:-0.2 14:-0.333333 15:0.0666667 16:-0.733333 
0 0 0 0 0 0 0 0 0 0 0 0 0 0.2737052321450612 0 0 0 0 0.005047098854300369 0 0 0 0 0 0 1:-0.2 2:0.333333 3:0.0666667 4:0.0666667 5:-0.333333 6:0.0666667 7:-0.2 8:-0.733333 9:0.2 10:0.6 11:-0.466667 12:0.466667 13:-0.6 14:-0.0666667 15:0.0666667 16:0.2 
0 0 0 0 0 0 0 0 0.04759959672304442 0 0 0 0 0 0 0 0 0 0 0 0.4437960733856666 0 0 0 0 1:-0.6 2:-0.0666667 3:-0.466667 4:-0.333333 5:-0.6 6:-0.2 7:0.0666667 8:-0.333333 9:0.333333 10:-0.0666667 11:-0.0666667 12:0.333333 13:-0.733333 14:0.2 15:0.0666667 16:0.0666667 
0 0 0 0 0 0 0 0 0 0 0 0 0 0 0.3316876519959505 0 0 0 0 0 0 0 0 0 0 1:-0.466667 2:0.2 3:-0.2 4:-0.0666667 5:-0.466667 6:0.0666667 7:-0.333333 8:-0.733333 9:0.2 10:0.466667 11:-0.466667 12:0.333333 13:-0.733333 14:-0.0666667 15:-0.0666667 16:0.2 
0 0 0.5508052713713433 0 0 0 0 0.3520978731296533 0 0 0.1844447397006362 2.096836049166025 0.4186276615466511 0.05971011353337596 0 3.788513608899415 0 0 0 0.2234225349751755 0 0 0 0 0 1:-0.866667 2:-0.6 3:-0.733333 4:-0.733333 5:-0.866667 6:-0.0666667 7:-0.0666667 8:-0.333333 9:0.0666667 10:-0.2 11:-0.2 12:0.0666667 13:-0.733333 14:0.0666667 15:-0.2 16:0.0666667 
0.4136310104256229 0.5745254477415892 1.135336866194982 0.8803799718514278 0.6923976523897172 0.4196938703547886 0.7172457174649826 0.3316938833117662 0.5934298039513537 0.4518366940597344 1.961185767050392 2.715664431958459 0.333944978228901 0.4790767480577406 0.5894944638417161 3.893640096842458 1.182101415010643 0.3287713092017533 0.5666085535381672 1.148059666303881 0.5904943117827037 1.238696394928694 0.5357952148970586 0.1640640114156001 0.2423105414679092 1:-0.333333 2:0.2 3:-0.333333 4:-0.466667 5:-0.6 6:-0.333333 7:0.0666667 8:-0.733333 9:0.0666667 10:0.466667 11:0.2 12:0.2 13:-0.6 14:0.2 15:-0.333333 16:-0.333333 
0 0 0 0 0.0172064794217824 0 0.06463632081277114 0 0.03033276841621339 0 0 0 0 0 0 0 0.1278367581603015 0 0.03401017282251982 0 0 0 0 0 0 1:-0.6 2:0.2 3:-0.466667 4:-0.2 5:-0.6 6:-0.0666667 7:-0.0666667 8:-0.2 9:0.466667 10:-0.2 11:-0.2 12:0.0666667 13:-0.866667 14:0.0666667 15:0.0666667 16:0.0666667 
0.4214061262990695 0 0.4483017766733663 0.3981877642359082 0.4568907998161097 0.2130019155269397 0.510685454875479 0.2349658079213799 0.378850915700832 0.4014370133397519 0.3176238217842305 0 0.2873411653827104 0.444956323677017 0.2792380314500685 0.106138097038527 0.4680387296200552 0.2295166300000354 0.4367667640123406 0.4178102157533598 0.1869781530837953 0.3630418062189238 0.3233581604304904 0.09253000773575207 0.3398032759143905 1:-0.6 2:0.466667 3:-0.466667 4:0.0666667 5:-0.733333 6:-0.0666667 7:-0.0666667 8:-0.466667 9:0.866667 10:0.333333 11:-0.2 12:0.0666667 13:-1 14:0.0666667 15:0.0666667 16:0.0666667 
0 0 0 0 0.1247273717766307 0 0.1408711178263133 0.02644668043334248 0.05863427147442859 0 0 0 0 0 0 0 0 0 0.1064600147458978 0 0 0 0 0 0 1:-0.733333 2:-0.0666667 3:-0.6 4:-0.333333 5:-0.6 6:-0.2 7:0.0666667 8:-0.333333 9:0.333333 10:-0.0666667 11:-0.2 12:0.333333 13:-0.866667 14:0.2 15:0.0666667 16:-0.0666667 
0.2557754063278925 0 0 0.08817072337657182 0.2672614812268178 0 0.1927972206226292 0.2507209955536225 0.1054430097243952 0.1831286041695746 0 0 0 0.03983336378356065 0 0.6142054164442293 0.1378701173784718 0 0.1800899755051677 0.259602065796845 0 0 0 0 0.03001526342902828 1:-0.733333 2:-0.6 3:-0.733333 4:-0.866667 5:-0.866667 6:0.0666667 7:-0.0666667 8:-0.333333 9:0.0666667 10:-0.2 11:-0.2 12:-0.0666667 13:-0.866667 14:0.0666667 15:-0.2 16:0.0666667 
0 0 0 0 0 0 0 0 0 0 0 1.564811030818225 0 0 0 0 0 0 0 0 0 0.1689176766533191 0 0 0 1:-0.333333 2:-0.0666667 3:-0.2 4:-0.333333 5:-0.6 6:0.0666667 7:-0.0666667 8:-0.733333 9:0.2 10:0.6 11:-0.333333 12:0.333333 13:-0.733333 14:0.2 15:-0.2 16:0.2 
0 0 0 0 0 0 0 0 0 0 0 1.831812175449477 0 0 0 0 0 0 0 0 0 0 0 0 0 1:-0.733333 2:-0.466667 3:-0.466667 4:-0.6 5:-0.733333 6:-0.0666667 7:-0.0666667 8:-0.733333 9:0.2 10:0.466667 11:-0.2 12:0.0666667 13:-0.866667 14:0.0666667 15:-0.333333 16:0.0666667 
0 0 0 0 0 0 0 0 0 0 0 0 0 0 0 0 0 0.1686501733885442 0 0 0 0 0 0 0 1:-0.466667 2:0.466667 3:-0.2 4:0.0666667 5:-0.0666667 6:0.0666667 7:-0.0666667 8:-0.733333 9:0.0666667 10:-0.0666667 11:-0.2 12:0.0666667 13:-1 14:0.0666667 15:0.2 16:0.0666667 
0.05205614578092561 0.5428354946613996 0.09315193328085976 0.02547895280819428 0 0.181821010258539 0 0.3848728066728399 0 0.6663212757544038 0 0 0.016661550530467 0 0 0 0 0 0 0 0 0 0.09594885151295858 0 0.457607278593023 1:-0.2 2:0.466667 3:0.0666667 4:0.0666667 5:0.0666667 6:0.333333 7:0.2 8:-0.333333 9:-0.466667 10:-0.0666667 11:-0.333333 12:-0.0666667 13:-0.6 14:0.0666667 15:0.2 16:-0.333333 
0 0 0 0 0 0 0 0 0 0 0 0 0 0.06114008599230694 0 0 0 0 0 0 0 0 0 0 0 1:-0.2 2:0.466667 3:0.0666667 4:0.2 5:-0.333333 6:-0.0666667 7:0.0666667 8:-0.6 9:0.466667 10:0.6 11:-0.0666667 12:0.0666667 13:-0.733333 14:0.2 15:-0.0666667 16:0.0666667 
0.09442266536061011 0 0.05429762259204072 0 0.1269598399446879 0 0.1669567703121362 0 0.1084988769426729 0 0.08386561050621694 0 0.2482324962103269 0 0.5755896486990483 0 0.1656084488283868 0 0.1456021960563264 0.1274762166702486 0.02285091514125004 0.1819766438987481 0.1978947672068594 0 0 1:-0.2 2:0.2 3:0.0666667 4:-0.0666667 5:-0.333333 6:0.2 7:-0.333333 8:-0.6 9:0.2 10:0.466667 11:-0.6 12:0.466667 13:-0.6 14:-0.2 15:-0.0666667 16:0.2 
0.156155953153857 0.5154340362138532 0.2013505808829463 0.09060480449597332 0.1322455415971246 0.2356812867614206 0.1785483727739453 0.2500410817433129 0.1078362810214738 0.4101830213835857 0.202648498403677 0 0.1694412162033536 4.418757602324738 0.5233962788365898 0 0.1274032287909052 0.02385096457711984 0.1276846184649929 0.1116903137546619 0 0.1011692454837645 0.2069339871520855 0.2798244818422608 0.0651705499336783 1:0.0666667 2:0.6 3:0.0666667 4:-0.2 5:-0.333333 6:0.333333 7:-0.6 8:-0.466667 9:-0.0666667 10:0.6 11:-0.6 12:0.466667 13:-0.6 14:-0.2 15:-0.0666667 16:0.466667 
0 0 0 0 0 0 0 0.3492806742333659 0 0 0 0 0 0 0 0 0 0 0 0 0 0 0 0 0 1:-0.466667 2:0.0666667 3:-0.333333 4:-0.2 5:-0.333333 6:0.0666667 7:0.333333 8:-0.333333 9:-0.466667 10:-0.2 11:-0.333333 12:-0.2 13:-0.6 14:0.0666667 15:0.0666667 16:-0.6 
0.2283457444584283 0 0.2647790428091794 0.08066779976575507 0.2870177845933415 0.009882642622862793 0.3383063796751023 0 0.2325063472146012 0.1635919066314853 0.3636549882050552 0 0.03744514479029725 0.9174502466011458 0.6451681456801145 0.1594339712884687 0.2468635111093459 0 0.3056497081027249 0.2532844384696423 0 0.2896993598261968 0.3089760784758889 0.01477784243351087 0.1835154524830919 1:-0.6 2:0.2 3:-0.333333 4:-0.0666667 5:-0.333333 6:0.0666667 7:-0.2 8:-0.733333 9:-0.0666667 10:0.0666667 11:-0.2 12:0.0666667 13:-0.866667 14:-0.0666667 15:0.466667 16:0.333333 
0.6758099256305345 0.7466489225401928 0.7226584235391761 0.6856810231712557 0.7121807755319607 0.5467540503868203 0.7872566844310798 0.5489997744881496 0.5937038586034717 0.6094175502088545 0.6481115850614163 0.585522283091413 0.511929642497631 0.6774658036585907 0.6358259826274215 0.5411196623535154 1.09813743177255 0.5858586919582491 0.6710521074165428 0.6344279674776944 0.611180597772366 0.6168052127021981 0.6194798852837391 0.4702695462890016 0.906407611892912 1:0.2 2:0.466667 3:-0.2 4:1 5:-0.2 6:-0.333333 7:0.466667 8:-0.6 9:-0.6 10:0.6 11:0.0666667 12:-0.2 13:-0.6 14:0.2 15:0.466667 16:-0.333333 
0.240772147573965 0 0.2313072789753571 0.1645426456982128 0.3227021166575919 0.2078656038179901 0.3652110184084875 0.1049320891288378 0.277146946340799 0.2988073680140633 0.134262853797936 0 0.1439039872999265 0.365432445014585 0.2945287523549774 0 0.360864763362428 0 0.3191173557406297 0.2536160389722556 0.1309155036841708 0.120508351616371 0.0258847057972339 0 0.198764308682098 1:-0.6 2:-0.6 3:-0.466667 4:-0.466667 5:-0.733333 6:-0.0666667 7:-0.0666667 8:-0.6 9:0.866667 10:0.2 11:-0.2 12:0.0666667 13:-1 14:0.0666667 15:0.0666667 16:0.0666667 
0 1.003316458289074 0 0 0 0 0 0 0 0 0 0 0 0 0.0458242397215901 0 0 0 0 0 0.003896503594035935 0 0 0 0 1:-0.6 2:-0.0666667 3:-0.333333 4:-0.333333 5:-0.733333 6:0.2 7:-0.2 8:-0.6 9:0.2 10:0.466667 11:-0.6 12:0.2 13:-0.866667 14:-0.0666667 15:-0.2 16:0.2 
0 1.656106609873464 0.07064619481996613 0.3400692719739361 0 0.08734007028909846 0.1447025526770287 0.5341258777756543 0.2768500712469855 0 0.2102439222488085 0.159423058423264 0 0.005185684754051988 0.1223535411684623 0.1492764365154012 0.1214592467092155 0 0 0 0.09744427405479215 0.007208766090827884 0.3219832354764898 0.1307319788568399 0.04550250671115087 1:-0.466667 2:0.2 3:-0.333333 4:-0.0666667 5:-0.333333 6:0.2 7:0.2 8:-0.2 9:-0.466667 10:-0.0666667 11:-0.333333 12:0.0666667 13:-0.466667 14:0.2 15:0.333333 16:-0.2 
0.04138825269897152 0.5550781344385569 0 0 0.1699256491431607 0.1573867155348403 0.1985433961555376 0.110019493899699 0.1106557247698827 0.1213862856730203 0 1.540541788489677 0.1545742571882913 0.1283502999148974 0 0.3229127106765038 0 0.004477969349114032 0.1468067793966455 0.02258005983564793 0 0.001159961417214451 0.1446711652726902 0.09446580242497057 0.08082506187501778 1:-0.333333 2:0.333333 3:-0.333333 4:-0.333333 5:-0.6 6:-0.333333 7:0.0666667 8:-0.733333 9:0.2 10:0.466667 11:0.0666667 12:0.0666667 13:-0.6 14:-0.2 15:-0.2 16:-0.333333 
0 0 0 0 0 0 0 0 0 0 0 0 0 0 0 0.03411212984314674 0 0 0 0 0 0 0 0 0 1:-0.466667 2:0.333333 3:-0.333333 4:0.0666667 5:-0.733333 6:-0.0666667 7:-0.0666667 8:-0.466667 9:1 10:0.2 11:-0.2 12:0.0666667 13:-1 14:0.0666667 15:0.0666667 16:0.0666667 
0.2017532596293215 0 0 0 0 0 0 0 0 0 0 0 0 0 0.6697130406955539 0 0.0598727803977905 0 0 0 0 0.0155968920271306 0 0 0.1880180303234893 1:-0.466667 2:-0.0666667 3:-0.333333 4:-0.333333 5:-0.333333 6:0.0666667 7:0.0666667 8:-0.733333 9:-0.0666667 10:-0.0666667 11:-0.2 12:0.0666667 13:-1 14:0.2 15:0.2 16:0.2 
0.4355365498409194 0.8952920923150716 0.54125590183293 0.3831774931159545 0.4657527244573746 0.5762268494915886 0.4383138024926042 0.7484569196577419 0.3206485322024465 0.3424412427624662 0.3944537717949144 0.3573000940637495 0.5362477266763539 0.8663308988982411 0.4375670492097666 1.067973952895035 0.4208559266314619 0.4379733284127381 0.366148741383094 0.3556048132626218 0.5472557683450476 0.4406486577141157 0.659860805305244 0.5043634109323897 0.6110720287584539 1:-0.333333 2:0.466667 3:-0.0666667 4:0.2 5:-0.333333 6:0.0666667 7:-0.2 8:-0.2 9:0.466667 10:-0.0666667 11:-0.333333 12:-0.2 13:-0.733333 14:-0.0666667 15:0.0666667 16:0.0666667 
0.5438325400057262 1.921165090138574 0.05097402065966172 0.64983787806494 0 0.1594832094916391 0 0.1223402578553119 0.08176201346071384 0 0.04297061063632633 0.5688378136662114 0.04844704057970287 0.9332517757461396 0.5451537781181355 0.2061648383668396 0 1.073405300790816 0 0 0.3454246679960404 0.1988937953146843 0.3870327372454845 1.212262903352482 1.662385577101668 1:-0.333333 2:-0.2 3:-0.466667 4:0.0666667 5:-0.6 6:0.0666667 7:-0.2 8:-0.333333 9:-0.333333 10:0.333333 11:-0.2 12:-0.0666667 13:-0.6 14:0.2 15:0.2 16:0.2 
0.3542296338494996 1.204864589035 0.422184540950259 0.1315059481806615 0.5148182708923755 0.1873763231329729 0.551661646101518 0.6278939232247399 0.3928175563039888 0.258353594085045 0.4718111507946601 0.3792375513702735 0.2297787054625692 0.08943698243949071 0.6062633205567128 0.6087964305221238 0.4783898410826041 0.7073482537887565 0.479689734056498 0.4193516012283018 0.1941816221808266 0.4670162192676781 0.3562146294959534 0.09455262985202205 0.6662924876033358 1:-0.0666667 2:0.866667 3:-0.0666667 4:0.0666667 5:-0.466667 6:0.333333 7:-0.466667 8:-0.6 9:0.0666667 10:0.6 11:-0.466667 12:0.333333 13:-0.6 14:0.2 15:-0.466667 16:0.466667 
0 0 0 0 0 0 0 0 0 0 0 0 0 0 0 0 0 0 0 0 0 0 0 0.2244311278778659 0 1:-0.6 2:-0.0666667 3:-0.333333 4:-0.333333 5:-0.6 6:0.0666667 7:-0.0666667 8:-0.733333 9:0.2 10:0.466667 11:-0.333333 12:-0.0666667 13:-0.866667 14:-0.0666667 15:-0.2 16:0.0666667 
0.3925566524871973 0.746534511351518 0.5842590691237632 0.3134164257000406 0.4165984036570747 0.472323096177014 0.4470848245035267 0.4864715872635235 0.3385782083347248 0.1000965653335636 0.4076815027933165 0.6112481785094931 0.05886885923897889 0.4601925337781237 0.2385343888263971 0.6999085936550209 0.4475419713648092 0.2016813757947308 0.3960481591091598 0.3659715236057143 0.3125107581803408 0.3159593723815186 0.2855944579296683 0.7389381202076827 0.2587371390492978 1:-0.466667 2:-0.2 3:-0.2 4:0.0666667 5:-0.466667 6:0.733333 7:-0.466667 8:-0.6 9:-0.0666667 10:0.333333 11:-0.733333 12:-0.0666667 13:-0.733333 14:-0.0666667 15:-0.333333 16:0.6 
0 0.07692439292703057 0 0.05540490575569315 0 0 0 0 0 0 0 0.0135156252479481 0 0 0 0 0 0 0 0 0 0.007352490585895094 0.009240617350273711 0 0.05724439888260134 1:0.2 2:0.2 3:-0.2 4:0.6 5:-0.2 6:-0.2 7:0.2 8:-0.466667 9:-0.733333 10:0.6 11:-0.0666667 12:-0.0666667 13:-0.6 14:0.0666667 15:0.733333 16:-0.2 
0.5123975383884913 0.7360711716810533 0.6854925156018196 0.9342547587427661 0.572303973939598 0.4344832297526758 0.6680650735499443 0.3433322651489823 0.5061189454618085 0.5213292678411265 0.7321483398952554 1.631722139779288 0.5008307923961608 0.5181826264316471 0.51451133138713 0.7028076003747897 1.065451284356712 0.336145992339643 0.5641251539961676 0.7943853365237626 0.6671853115176785 0.7110233083292536 0.4925427807758644 0.2738982031378945 0.4680132383584927 1:-0.2 2:0.333333 3:0.2 4:-0.0666667 5:-0.333333 6:-0.333333 7:0.333333 8:-0.466667 9:0.333333 10:0.466667 11:0.333333 12:-0.2 13:-0.866667 14:0.2 15:-0.2 16:-0.333333 
0 0 0 0 0 0 0 0 0 0 0 0.4853029017761334 0 0 0 0 0 0 0 0 0 0 0 0 0 1:-0.733333 2:-0.6 3:-0.733333 4:-0.733333 5:-0.733333 6:-0.0666667 7:-0.0666667 8:-0.333333 9:0.2 10:-0.2 11:-0.2 12:0.0666667 13:-0.866667 14:0.0666667 15:-0.2 16:0.0666667 
0.4191087846206992 1.878253713852389 0.4017479498684544 0.5658487635788413 0.3424666847744926 0.4896849151974635 0.3893165171455868 1.032524858758471 0.2865736292384756 0.5727822710401171 0.4111145627424834 0.946623165739265 0.3393624799144342 4.409936568852602 1.306363924567914 0.4034376246590921 0.3630254700948234 0.974355219690947 0.3182082149365855 0.3104791715214437 0.4295830255524087 0.3796175278130526 0.8045149633688236 0.6659648343151089 0.7459355080060207 1:-0.0666667 2:1 3:-0.0666667 4:0.2 5:-0.333333 6:0.466667 7:-0.6 8:-0.466667 9:-0.2 10:0.6 11:-0.6 12:0.333333 13:-0.6 14:-0.0666667 15:-0.0666667 16:0.466667 
0 0.8801293256251869 0 0 0 0 0 0 0 0.02088134187843537 0 0 0 0 0 0 0 0 0 0 0 0 0.02240922174622261 0 0 1:-0.6 2:0.333333 3:-0.466667 4:0.0666667 5:-0.466667 6:-0.0666667 7:-0.0666667 8:-0.2 9:0.333333 10:-0.2 11:-0.2 12:0.0666667 13:-0.866667 14:0.0666667 15:0.0666667 16:0.0666667 
0 0.1634952593522697 0 0 0 0 0 0 0 0 0 0 0 0 0 0 0 0.1422396129458699 0 0 0 0 0 0 0.3647052725452366 1:-0.466667 2:-0.0666667 3:-0.2 4:0.2 5:-0.466667 6:0.466667 7:-0.466667 8:-0.733333 9:-0.2 10:0.2 11:-0.733333 12:-0.2 13:-0.866667 14:0.0666667 15:-0.2 16:0.2 
0 0 0 0.002578553165871134 0 0 0 0 0.009257274475346791 0 0 0 0 0 0 0.3378175433905792 0.5071565685073862 0 0 0 0.1610706840579045 0 0 0 0 1:-0.866667 2:-0.6 3:-0.6 4:-0.733333 5:-0.866667 6:-0.0666667 7:0.0666667 8:-0.866667 9:0.2 10:0.466667 11:-0.0666667 12:-0.0666667 13:-0.866667 14:0.0666667 15:-0.333333 16:-0.0666667 
0 0 0 0 0 0 0.02564310924767279 0 0 0 0 0 0 0.0358703382215116 0.05860750814922981 0 0 0 0.02002246226957076 0 0 0 0 0 0 1:-0.466667 2:-0.2 3:-0.2 4:-0.466667 5:-0.6 6:-0.2 7:0.2 8:-0.6 9:0.2 10:0.466667 11:0.2 12:-0.2 13:-0.866667 14:0.2 15:-0.2 16:-0.333333 
0 0 0 0.1117031404121362 0 0 0 0 0 0 0 0 0 0 0 0 0 0 0 0 0 0 0 0 0 1:-0.466667 2:0.333333 3:-0.2 4:0.0666667 5:-0.466667 6:-0.2 7:0.2 8:-0.733333 9:0.2 10:0.466667 11:0.0666667 12:-0.0666667 13:-0.733333 14:0.333333 15:-0.0666667 16:-0.2 
0.02186206694209286 0 0.05847349936284116 0.03603135475224659 0 0.1400353095183404 0 0.134127392476813 0 0 0.2040019206124387 0 0.06156931730984636 0.04798572687194583 0.09356275420487305 0 0 0.2289545326172965 0 0 0.03226838237617349 0.01455927393129476 0.1048985375227803 0.148873719019667 0.07920953436917251 1:-0.466667 2:-0.466667 3:-0.333333 4:-0.2 5:-0.733333 6:-0.0666667 7:-0.0666667 8:-0.466667 9:1 10:0.2 11:-0.2 12:0.0666667 13:-1 14:0.0666667 15:0.0666667 16:0.0666667 
0.183209458590306 0.4579673164986277 0.1396155027021765 0.186482256273922 0.236660015183809 0.006172608931403075 0.2757051648032193 0.1576894775074852 0.2143833366899395 0.3348494871129314 0.4172269468852929 0 0.1616901587494586 0.2466736143647607 0.6763733147168163 0.1880356019219057 0.47084906120735 0 0.1988694844145135 0.1340834286901057 0.6947729335826299 0.2870702885707375 0.1186036318760165 0 0.1198745856316823 1:-0.6 2:-0.0666667 3:-0.466667 4:-0.333333 5:-0.466667 6:-0.2 7:-0.2 8:-0.6 9:-0.0666667 10:-0.0666667 11:-0.2 12:0.333333 13:-0.866667 14:-0.0666667 15:0.333333 16:-0.0666667 
0 0.1201446544722666 0 0.1439757970808639 0 0 0 0 0 0 0.0413827248720836 0.2553137595944742 0 0.5208883572472063 0 0 0 0 0 0 0 0 0 0 1.231480933855233 1:-0.333333 2:-0.2 3:-0.466667 4:0.0666667 5:-0.6 6:0.466667 7:-0.466667 8:-0.6 9:-0.333333 10:0.466667 11:-0.466667 12:0.0666667 13:-0.6 14:0.2 15:-0.0666667 16:0.333333 
0 0 0 0 0 0 0 0 0 0 0 3.112518622028121 0 0 0 0 0 0 0 0 0 0 0 0 0 1:-0.6 2:-0.333333 3:-0.333333 4:-0.466667 5:-0.6 6:-0.0666667 7:0.0666667 8:-0.733333 9:0.2 10:0.6 11:-0.2 12:0.0666667 13:-0.866667 14:0.0666667 15:-0.333333 16:-0.0666667 
0 0 0 0 0 0 0 0 0 0 0.1396152713364969 1.341393045388031 0 0 0 0 0 0 0 0 0.1996052985247848 0 0 0 0 1:-0.733333 2:-0.466667 3:-0.733333 4:-0.6 5:-0.733333 6:-0.0666667 7:0.0666667 8:-0.333333 9:0.0666667 10:-0.2 11:-0.2 12:0.2 13:-0.733333 14:0.0666667 15:-0.0666667 16:0.0666667 
0.05245622071347272 0 0 0 0.1147406157094142 0 0.113909027831543 0 0.02030509823913797 0.01892519871830276 0 0 0.05252918842295567 0.3297484316697252 0 0 0.05240981260207061 0 0.09317093980339829 0.05291416565193059 0 0 0 0.1490543371015992 0 1:-0.466667 2:0.2 3:-0.466667 4:-0.2 5:-0.6 6:-0.2 7:0.0666667 8:-0.2 9:0.333333 10:-0.0666667 11:-0.0666667 12:0.333333 13:-0.866667 14:0.2 15:0.0666667 16:0.0666667 
0 0 0 0 0.068235443811791 0 0.1108637010183771 0 0.07677201338146337 0 0 0 0 0 0 0 0.04286474582366879 0 0.1170541784580898 0.05355490326430713 0 0 0 0 0 1:-0.466667 2:-0.2 3:-0.333333 4:-0.466667 5:-0.6 6:0.0666667 7:-0.2 8:-0.733333 9:0.333333 10:0.6 11:-0.333333 12:0.333333 13:-0.866667 14:0.2 15:-0.2 16:0.2 
0.09949467432645349 0.6723186150959657 0.6396697362781768 0 0.2390135301143417 0.1045687484652461 0.2807096503138715 0 0.2031073840614496 0.1585002604102612 0.8049563464714334 8.109294013567348 0.1224067957439618 0.09737003392938774 0.06232036529073488 0.1331529730964479 0.0963388995106286 0 0.213752789938093 0.2212198744226465 0 0.2164390556265662 0.1753721938203829 0.1788163568503076 0.154061318460561 1:-0.0666667 2:0.466667 3:0.2 4:0.0666667 5:-0.0666667 6:-0.0666667 7:-0.0666667 8:-0.733333 9:0.2 10:0.6 11:-0.2 12:0.2 13:-0.733333 14:0.2 15:-0.2 16:0.0666667 
0 1.403409770128779 0 0 0 0 0 0 0 0 0 0 0 0 0 0.5726424921405994 0 0 0 0 0 0 0 0.6515062400094028 0 1:-0.333333 2:-0.0666667 3:-0.2 4:-0.333333 5:-0.333333 6:0.2 7:-0.2 8:-0.333333 9:-0.466667 10:-0.0666667 11:-0.333333 12:-0.0666667 13:-0.6 14:0.0666667 15:0.333333 16:-0.2 
0 4.800979397332656 0 0 0 0 0 0 0 0 0 0 0 0 0 0 0 0 0 0 0 0 0 0 0 1:-0.6 2:0.0666667 3:-0.466667 4:-0.2 5:-0.6 6:-0.0666667 7:-0.0666667 8:-0.2 9:0.333333 10:-0.2 11:-0.2 12:0.0666667 13:-0.866667 14:0.0666667 15:0.0666667 16:0.0666667 
0.03479756892913233 0.6905361930454069 0 0.6069729396988521 0 0 0 0 0 0 0 0 0 0 0 0.009662620760222101 0 0.7371328071367587 0 0 0.4457348476253014 0 0 0 0.2268125868841757 1:-0.466667 2:0.2 3:-0.2 4:-0.0666667 5:-0.466667 6:-0.0666667 7:0.2 8:-0.733333 9:0.2 10:0.466667 11:-0.0666667 12:-0.2 13:-0.866667 14:-0.0666667 15:-0.2 16:-0.2 
0 0 0 0 0 0 0 0 0 0 0 2.03732858547039 0 0 0 0 0 0 0 0 0 0 0 0 0 1:-0.733333 2:-0.466667 3:-0.466667 4:-0.733333 5:-0.733333 6:-0.0666667 7:-0.0666667 8:-0.733333 9:0.2 10:0.6 11:-0.2 12:0.0666667 13:-0.866667 14:0.0666667 15:-0.333333 16:0.0666667 
0.5207812481009476 0 0.4005544509868111 0.02983575617151054 0.5785552557639708 0 0.6527706353777046 0.2645508552116935 0.4512960963966198 0.4838460755803491 0.3359956475596161 0 0.4000612968695241 0 1.702120675976956 0 0.6098690389856356 0 0.5407993803024302 0.5052901758351188 0.0387378888687316 0.448536560306025 0.3173595462072833 0 0.07831151521248061 1:-0.333333 2:0.2 3:-0.2 4:-0.466667 5:-0.6 6:0.333333 7:-0.6 8:-0.6 9:-0.0666667 10:0.6 11:-0.466667 12:0.333333 13:-0.733333 14:0.2 15:-0.466667 16:0.466667 
0 0 0 0 0 0 0 0 0 0 0 0.325524147316262 0 0 0 0 0 0 0 0 0 0 0 0 0 1:-0.333333 2:0.0666667 3:-0.0666667 4:-0.2 5:-0.466667 6:-0.333333 7:0.333333 8:-0.6 9:0.333333 10:0.466667 11:0.2 12:-0.2 13:-0.866667 14:0.2 15:-0.2 16:-0.333333 
0 0 0 0 0 0.2565839643527261 0 0.7839306083881282 0.08003697930397376 1.582540171190095 0 0 0.02487293195096381 0 0 0 0 0.1854451180048959 0 0 0 0 0 0 1.778532205477762 1:-0.466667 2:-0.0666667 3:-0.333333 4:-0.333333 5:-0.466667 6:0.2 7:0.0666667 8:-0.333333 9:-0.6 10:-0.0666667 11:-0.333333 12:-0.0666667 13:-0.6 14:-0.0666667 15:0.0666667 16:-0.466667 
0 0 0.3544700010359005 0.02421837153040178 0.1126300833446601 0 0.1209487901779286 0 0.1357728046888521 0.01115530928606667 0 1.803404411836409 0.1207673088784669 0.1309110506371275 0 0 0 0 0.1093830659436045 0.3178600127303418 0 0.1185937298368877 0.1308429863924259 0 0 1:-0.733333 2:-0.6 3:-0.466667 4:-0.733333 5:-0.733333 6:-0.0666667 7:0.0666667 8:-0.733333 9:0.2 10:0.6 11:-0.0666667 12:-0.0666667 13:-0.866667 14:0.0666667 15:-0.333333 16:-0.0666667 
0 0 0 0.1486343868422405 0 0.4310174134265403 0 0.8199365225729482 0 0 0 0 0 1.634303798513792 0 0 0 0 0 0 0 0 0 0.6976132696126648 0 1:-0.0666667 2:0.466667 3:-0.0666667 4:-0.2 5:-0.466667 6:0.2 7:-0.333333 8:-0.6 9:0.0666667 10:0.466667 11:-0.466667 12:0.2 13:-0.6 14:-0.2 15:-0.0666667 16:0.2 
0.1332351107826345 0 0.2992551809086127 0.07533727038684677 0.4988903222031014 0.07050672343514605 0.3527129393525066 0.2559720137507375 0.1961969517296471 0.3932283720229634 0.1716446843472482 0.05469473898666947 0 0 0 0.0947121870392226 0.628883121446985 0.07630117255680012 0.1356856681067314 0.2390881200301508 0 0.02224097754547826 0.0550139131715837 0.1404768165903844 0.02848627008857873 1:-0.2 2:0.466667 3:0.0666667 4:0.2 5:0.0666667 6:0.333333 7:-0.0666667 8:-0.333333 9:-0.466667 10:-0.0666667 11:-0.333333 12:-0.0666667 13:-0.466667 14:0.0666667 15:0.333333 16:-0.333333 
0 0 0 0 0 0 0 0 0 0 0 0 0 0 0 0 0 0.1935297819573496 0 0 0 0 0 0 0 1:-0.466667 2:0.0666667 3:-0.2 4:-0.2 5:-0.2 6:0.0666667 7:0.0666667 8:-0.6 9:-0.0666667 10:-0.0666667 11:-0.0666667 12:-0.0666667 13:-0.866667 14:0.2 15:0.333333 16:0.0666667 
0 3.62605691402634 0 0 0 1.33941580724054 0 0 0 0 0.4319775153698721 0 0 0.160500750538535 0.4609968832788899 4.177583750669262 0 1.65914331682696 0 0 0.1582517427180592 0 1.07421345435713 0.9047115486767227 0 1:-0.866667 2:-0.6 3:-0.733333 4:-0.733333 5:-0.866667 6:-0.0666667 7:-0.0666667 8:-0.466667 9:-0.0666667 10:-0.2 11:-0.2 12:0.0666667 13:-0.866667 14:0.0666667 15:-0.2 16:0.0666667 
0 0 0 0 0.05820394478200903 0 0.02059498025296971 0 0.0008943628574220242 0 0 0 0 0 0 0.9193383393874425 0 0 0.01720075993359835 0 0 0 0 0 0 1:-0.6 2:-0.333333 3:-0.6 4:-0.6 5:-0.733333 6:0.0666667 7:-0.0666667 8:-0.333333 9:0.333333 10:-0.2 11:-0.2 12:-0.0666667 13:-0.733333 14:0.0666667 15:-0.0666667 16:0.0666667 
0 0 0 0 0 0 0 0 0 0 0 0 0 0 0 0 0 0.504280874996111 0 0 0 0 0 0 0.1851551099827836 1:-0.733333 2:-0.2 3:-0.466667 4:-0.466667 5:-0.733333 6:0.0666667 7:-0.0666667 8:-0.733333 9:0.2 10:0.466667 11:-0.333333 12:0.2 13:-0.866667 14:0.0666667 15:-0.333333 16:0.0666667 
0 0 0 0 0 0 0 0 0 0 0 1.142851758516907 0 0 0 0 0 0 0 0 0 0 0 0 0 1:-0.333333 2:0.2 3:-0.0666667 4:-0.0666667 5:-0.333333 6:0.2 7:-0.2 8:-0.733333 9:0.2 10:0.466667 11:-0.466667 12:0.2 13:-0.6 14:-0.0666667 15:-0.0666667 16:0.2 
0 0.6651741616059162 0 0 0 0 0 0 0 0 0 0 0 0 0 0 0 0 0 0 0 0 0 0 0 1:-0.6 2:-0.333333 3:-0.466667 4:-0.466667 5:-0.6 6:-0.0666667 7:-0.0666667 8:-0.333333 9:0.2 10:-0.2 11:-0.2 12:0.0666667 13:-0.866667 14:0.0666667 15:-0.0666667 16:0.0666667 
0.1502768225464337 0 0.02154697799522578 0.08911245093661621 0.2369680481713321 0 0.2919819672851606 0 0.2373514644760238 0.1038672307539602 0 0 0.01458891134373139 0 0.2204742702610899 0 0.296350579804313 0 0.2688557833110114 0.2464793582053128 0.2035997768276171 0.2245650063752026 0.1923182192830865 0 0 1:-0.6 2:-0.2 3:-0.333333 4:0.2 5:-0.466667 6:0.466667 7:-0.6 8:-0.733333 9:-0.2 10:0.0666667 11:-0.733333 12:-0.2 13:-0.866667 14:0.0666667 15:-0.2 16:0.2 
0 0.5789613652485693 0 0 0 0 0 0 0 0 0 0 0 0 0 0 0 0 0 0 0 0 0 0.2822629877588528 0.2140080165872413 1:-0.333333 2:0.333333 3:-0.2 4:0.0666667 5:-0.2 6:0.2 7:-0.2 8:-0.333333 9:0.2 10:0.0666667 11:-0.333333 12:-0.0666667 13:-0.866667 14:-0.0666667 15:-0.0666667 16:0.0666667 
0 0 0.06204885532674189 0.02619139184055259 0 0.4388862911983701 0.005234501636923362 0.09849161945786508 0.07372689213945721 0 0.6075885978953695 0.4716218252085063 0.06359910380885336 0 0.6221608562513251 1.525165694971634 0 0.192721272208819 0 0.03741202115983948 0.4928307000388877 0 0 0 0.1868507545328959 1:-0.6 2:0.333333 3:-0.466667 4:0.0666667 5:-0.333333 6:-0.2 7:0.0666667 8:-0.333333 9:0.2 10:-0.0666667 11:-0.0666667 12:0.2 13:-0.733333 14:0.2 15:-0.0666667 16:0.0666667 
0 0 0 0 0 0 0 0 0 0 0 0 0 0 0.0009316594851479349 0 0 0 0 0 0 0 0 0 0 1:-0.333333 2:0.333333 3:-0.2 4:0.0666667 5:-0.466667 6:0.2 7:-0.333333 8:-0.6 9:0.333333 10:0.466667 11:-0.6 12:0.333333 13:-0.866667 14:0.0666667 15:-0.2 16:0.333333 
0.16116150975284 0 0.5053967190120983 0.1026770908357772 0.07627833945916429 0.2117993253651418 0.2364025350932727 0.127096007084025 0.1112390861622499 0.5670530744045686 0.1857902691346599 0 0 0 0.2481726871754248 0.3294563934344713 0.1568740524756077 0.5064119900928437 0.1331032316294203 0.08601188382576064 0.00108079132118252 0.03255267859438123 0.05923424392871381 0.2853999233278887 1.038716104429501 1:-0.733333 2:-0.466667 3:-0.466667 4:-0.2 5:-0.6 6:0.466667 7:-0.333333 8:-0.6 9:-0.466667 10:0.2 11:-0.6 12:-0.0666667 13:-0.733333 14:-0.0666667 15:-0.2 16:0.0666667 
0.04224907938832744 0.8734919138233858 0.5891812484766857 0.1807825376044908 0 0.7563192310635138 0 0.416938067028513 0 0 0.4429007793786106 0.6852673551540046 0 0 0 0.4066993225047538 0 0.2935377075927611 0 0 0 0 0 0.7885929998094886 0.8233072013486047 1:-0.333333 2:0.0666667 3:-0.0666667 4:0.333333 5:-0.2 6:0.466667 7:-0.333333 8:-0.6 9:-0.333333 10:0.2 11:-0.733333 12:-0.0666667 13:-0.733333 14:-0.0666667 15:-0.2 16:0.2 
0 0 0 0 0 0 0 0 0 0 0 0 0 0 0 0.9936039664338616 0 0 0 0 0 0 0 0 0.06830852129456015 1:-0.466667 2:-0.0666667 3:-0.333333 4:-0.333333 5:-0.333333 6:-0.0666667 7:-0.2 8:-0.733333 9:-0.0666667 10:-0.0666667 11:-0.2 12:0.2 13:-0.866667 14:-0.0666667 15:0.333333 16:0.0666667 
0 0 0.1484510535909474 0 0 0 0 0 0.01333876396149212 0 0.07870842794819678 0 0 0 0 0 0 0 0 0.2052321682180434 0 0 0 0 0 1:-0.6 2:-0.2 3:-0.466667 4:-0.466667 5:-0.6 6:-0.2 7:0.0666667 8:-0.333333 9:0.333333 10:-0.0666667 11:-0.0666667 12:0.333333 13:-0.866667 14:0.2 15:-0.0666667 16:0.0666667 
0 0.2638742953981842 0 0 0 0 0 0 0 0 0 0 0 0 0 0 0 0 0 0 0 0 0 0 0 1:-0.333333 2:0.2 3:-0.2 4:-0.0666667 5:-0.466667 6:0.0666667 7:-0.2 8:-0.2 9:0.466667 10:-0.0666667 11:-0.333333 12:-0.2 13:-0.866667 14:-0.0666667 15:0.0666667 16:0.0666667 
0.2150186461220837 0.4728134534200145 0.4108847647530975 0.08098589409349172 0.1422633280068649 0.2470669592563476 0.1798399642270578 0.6336661446321129 0.1183094944481966 0.1481795660931507 0 0 0.2980714476014688 0.4362935423913908 0.02964409920698031 0 0.07335004562789012 0.3590181535970174 0.1461997472556583 0.2037533229186799 0.07465528747421339 0.03804634803673235 0 0 1.091698003052269 1:-0.733333 2:-0.333333 3:-0.466667 4:-0.2 5:-0.466667 6:0.2 7:-0.2 8:-0.333333 9:-0.466667 10:-0.0666667 11:-0.6 12:-0.2 13:-0.733333 14:-0.0666667 15:-0.0666667 16:-0.2 
0 0.125264140587426 0 0.07527036289415574 0 0 0 0.1117979150120637 0 0 0 0 0 0 0 0.127619866869018 0 0 0 0 0.5671204123801029 0 0 0 0 1:-0.0666667 2:0.2 3:-0.0666667 4:-0.333333 5:-0.466667 6:-0.0666667 7:-0.0666667 8:-0.733333 9:0.2 10:0.6 11:-0.2 12:0.0666667 13:-0.6 14:-0.0666667 15:-0.2 16:-0.2 
0 0.5519651260121353 0 0 0 0 0 0 0 0 0 0 0 0 0 0 0 0 0 0 0 0 0.2486744552512439 0 0 1:-0.466667 2:0.333333 3:-0.333333 4:0.0666667 5:-0.466667 6:-0.2 7:0.0666667 8:-0.2 9:0.333333 10:-0.0666667 11:-0.0666667 12:0.333333 13:-0.866667 14:0.2 15:0.0666667 16:0.0666667 
0 1.359419782730116 0 0 0 0 0 0.5283324162707597 0.2417970292230522 0 0 0 0 0 0 0 0.1983828065943422 0.01837587289764844 0 0 0 0 0 0 0 1:-0.6 2:-0.0666667 3:-0.466667 4:-0.333333 5:-0.466667 6:0.2 7:0.2 8:-0.333333 9:-0.6 10:-0.0666667 11:-0.333333 12:-0.0666667 13:-0.6 14:0.0666667 15:0.2 16:-0.466667 
0.1803492719582327 1.022465578766284 0.2021425115229644 0.03496462859617715 0.2576278253900156 0 0.2452802384943708 0 0.2103523578152764 0.1696272890281053 0.8624289580436475 1.526822490391011 0.1518502040023911 0.2995332798151748 0.3396728685571611 0 0.2449884295973495 0.795029111910842 0.2230105583592107 0.3813216460564015 0.4235761011519229 0.5582183191428323 0.2951009177966415 0 0 1:-0.866667 2:-0.6 3:-0.733333 4:-0.733333 5:-0.866667 6:-0.0666667 7:-0.0666667 8:-0.866667 9:0.0666667 10:0.466667 11:-0.2 12:0.2 13:-0.866667 14:0.2 15:-0.333333 16:0.0666667 
0 0 0 0 0 0 0 0 0 0 0 2.711019139635478 0 0 0 0 0 0 0 0 0 0 0 0 0 1:-0.333333 2:0.2 3:-0.0666667 4:-0.0666667 5:-0.466667 6:-0.0666667 7:0.0666667 8:-0.733333 9:0.333333 10:0.6 11:-0.2 12:0.2 13:-0.733333 14:0.333333 15:-0.2 16:0.0666667 
0.6612230770125104 1.075778334970697 1.113855629703509 0.5437843640371741 0.6587792159869348 0.7901740258975491 0.7920244653900965 0.9945284024180271 0.5023493919823755 1.350575454561003 0.9539564869262646 0.4284216795939332 0.5929179078681392 0.71321427023409 0.6893755684068806 0.4948537148722465 0.6480797697079598 0.3883547556599538 0.5810041265013753 0.5643991378824043 0.5217735616784607 0.5473167754896522 0.6998308714392869 0.5913613592357405 0.3684698216329781 1:-0.466667 2:-0.466667 3:-0.2 4:-0.2 5:-0.6 6:0.6 7:-0.466667 8:-0.466667 9:-0.466667 10:0.466667 11:-0.733333 12:0.2 13:-0.733333 14:-0.0666667 15:-0.466667 16:0.466667 
0.04794635619444183 0.9574297478600103 0 0.003465469075355007 0 0 0 0 0 0.02522561916131344 0 0 0 0 0.06925411712578915 0 0.1053572884605033 0.5099679366141373 0 0 0 0 0.04175136633419554 0 0.4567717724246125 1:-0.6 2:-0.733333 3:-0.466667 4:-0.466667 5:-0.6 6:-0.0666667 7:-0.0666667 8:-0.333333 9:0.2 10:-0.2 11:-0.2 12:0.0666667 13:-0.866667 14:0.0666667 15:-0.0666667 16:0.0666667 
0 0 0 0 0 0 0 0.04019277888230517 0 0 0 0 0 0 0 0 0 0 0 0 0 0 0 0 0 1:-0.333333 2:0.2 3:-0.0666667 4:-0.0666667 5:-0.333333 6:-0.2 7:0.2 8:-0.6 9:0.2 10:0.6 11:0.0666667 12:-0.2 13:-0.6 14:0.333333 15:0.0666667 16:-0.2 
0.5566828236163677 0.5864685232677427 0.5783265423487911 0.5271133042112842 0.6318592210133566 0.4609568784093694 0.7057193743622371 0.431346770598175 0.5269480476067595 0.4536137652748272 0.5553164315050055 0.6325293389205484 0.4318244245346823 0.8548153312823888 0.523934746921082 0.3581594507447834 0.625109811079444 0.5032540434930486 0.6042433956242244 0.5634158600280763 0.4860372590855269 0.54162370328274 0.5331827561392144 0.4532194439661234 0.888947928205669 1:0.0666667 2:0.0666667 3:-0.333333 4:0.6 5:-0.333333 6:0.333333 7:-0.6 8:-0.466667 9:-0.333333 10:0.6 11:-0.333333 12:0.2 13:-0.6 14:0.0666667 15:0.2 16:0.466667 
0 0 0 0 0 0 0 0 0 0 0 0.2327131062904632 0 0 0 0 0 1.457366075225934 0 0 0 0 0.229678389918464 0 0.08804740508532857 1:-0.333333 2:0.0666667 3:-0.0666667 4:-0.2 5:-0.333333 6:0.2 7:0.0666667 8:-0.2 9:-0.466667 10:-0.0666667 11:-0.333333 12:0.0666667 13:-0.6 14:0.0666667 15:0.333333 16:-0.0666667 
0.07489124176772909 0 0 0 0 0 0 0.2396525228694985 0 0 0 0.2276382687670825 0 0 0 0 0 0 0 0 0 0 0 0.646241613067025 0 1:-0.733333 2:-0.333333 3:-0.6 4:-0.6 5:-0.6 6:0.0666667 7:-0.0666667 8:-0.333333 9:0.2 10:-0.2 11:-0.2 12:-0.0666667 13:-0.733333 14:0.0666667 15:-0.0666667 16:0.0666667 
0.3123606397898933 0 0.02870696582009413 0.2552978027295973 0 0.282333670994711 0 0 0.05286964554465066 0 0 2.593420572710474 0.0815866036471467 0.6635339837201767 0.9629590433204762 0 0 0 0 0 1.067300324629345 0 0 0.09076559191144765 0.4586519089978764 1:-0.733333 2:-0.333333 3:-0.733333 4:-0.466667 5:-0.733333 6:-0.0666667 7:-0.0666667 8:-0.333333 9:0.0666667 10:-0.2 11:-0.2 12:0.0666667 13:-0.733333 14:0.0666667 15:-0.0666667 16:0.0666667 
0 0 0 0 0 0 0 0 0 0 0 1.781824295058624 0 0 0 0.1218460793208999 0 0 0 0 0.9469219785434418 0 0 0 0 1:-0.2 2:0.466667 3:0.0666667 4:0.0666667 5:-0.333333 6:-0.2 7:0.2 8:-0.6 9:0.466667 10:0.466667 11:0.2 12:-0.2 13:-0.733333 14:0.0666667 15:-0.2 16:-0.333333 
0.2662541844177216 0.02858418730231697 0.2660622161079967 0.2133620644099234 0.2943692766919945 0.2065309971803863 0.3248134623878893 0.110858366676075 0.2479582072954965 0.2609592547393677 0.2081135480082422 0 0.157171374233886 0.2985868408904174 0.1950498791451052 0.1663664709330995 0.2689529797314112 0.1151072167159677 0.2733228472159767 0.2504101125137927 0.07097273038039759 0.1215456396834405 0.227480284550107 0.1660581630716282 0.2088077044646724 1:-0.333333 2:0.466667 3:-0.0666667 4:0.0666667 5:-0.6 6:-0.0666667 7:-0.0666667 8:-0.466667 9:1 10:0.2 11:-0.2 12:0.0666667 13:-1 14:0.0666667 15:0.2 16:0.0666667 
0 0 0 0.2268928167081035 0.004150796510781426 0.1354615623552562 0 0.600864941785955 0 0.08507275943709194 0 0.8393620482401467 0.1870168312887547 0.1542356817258889 1.12771742903702 0 0 0 0 0 0.1549826980960934 0 0.2852558489716196 0 0.3019895827920718 1:-0.333333 2:0.2 3:-0.333333 4:-0.466667 5:-0.6 6:0.0666667 7:-0.2 8:-0.733333 9:0.0666667 10:0.466667 11:-0.2 12:0.2 13:-0.6 14:-0.0666667 15:-0.2 16:-0.0666667 
0.3877988020600466 0.4289020769371046 0.4275839035604236 0.401976079621904 0.4241370325533033 0.3300147356648864 0.4760587282683614 0.3459248467005457 0.3542537565792884 0.364747352449066 0.4027758235460326 0.3533526902730993 0.3037138950101927 0.4110548145917499 0.3933397535675142 0.3441472619767097 0.419931022427233 0.3777100835082772 0.4068550847499846 0.3859119698998431 0.350422061108823 0.3887238333007055 0.3820442186409611 0.2828129946922278 0.5628607734270586 1:-0.0666667 2:0.333333 3:-0.333333 4:0.866667 5:-0.333333 6:-0.0666667 7:0.333333 8:-0.6 9:-0.6 10:0.466667 11:-0.0666667 12:-0.0666667 13:-0.6 14:0.0666667 15:0.866667 16:-0.0666667 
0.9072187006072637 2.770122047975888 0.5404684382316643 1.683351406344337 0.3362016738449624 0.242314815725957 0.2095167134541471 0.7309912824353341 0.4587506955814022 0.2714430427177328 0.0268782610907554 0 0.3149061872677751 0.3145312014683145 0.09571829703800044 0 1.898234629637059 0.1871357749768894 0.188766290517937 0.585270506360739 2.796154868211426 0.3075732499331934 0.470680942081499 0.7146958082915683 0.4407682989391583 1:-0.466667 2:-0.2 3:-0.333333 4:-0.466667 5:-0.6 6:-0.2 7:0.2 8:-0.6 9:0.0666667 10:0.466667 11:0.2 12:-0.2 13:-0.733333 14:0.2 15:-0.2 16:-0.333333 
0.01747184457826944 0 0 0.1641765487260574 0 0 0 0 0 0 0 0 0 0 0 0 0 0 0 0 0 0 0 0 0 1:-0.733333 2:-0.333333 3:-0.333333 4:-0.6 5:-0.733333 6:-0.0666667 7:0.0666667 8:-0.733333 9:0.2 10:0.6 11:-0.2 12:0.0666667 13:-0.866667 14:0.2 15:-0.333333 16:0.0666667 
0.2363697739859509 0.5001205319601987 1.379724978894237 0.4579066532586253 0.4007046465935104 2.535578826393243 0.5092101069912385 0.9877854393290945 0.3505176490032969 0 1.162792669335425 1.380700423878897 1.14545034348552 0.9017540440520477 0.6627270391864349 1.207789570371626 0.04189025098558324 0.5950855699238413 0.1704422074366007 0.2877032875989423 0.7446687709328818 0.4192176320659914 0.847975638577401 1.049008093730061 1.107490561192041 1:-0.6 2:-0.466667 3:-0.333333 4:-0.2 5:-0.466667 6:0.2 7:-0.0666667 8:-0.333333 9:-0.2 10:0.0666667 11:-0.6 12:-0.0666667 13:-0.6 14:-0.2 15:-0.2 16:0.0666667 
0 0 0 0 0 0 0 0 0.006837361911942182 0 0 0 0.05982232239795875 0 0 0 0 0 0 0 0 0 0 0 0 1:-0.466667 2:0.0666667 3:-0.333333 4:-0.2 5:-0.6 6:-0.2 7:0.0666667 8:-0.2 9:0.466667 10:-0.0666667 11:-0.0666667 12:0.333333 13:-0.866667 14:0.2 15:0.0666667 16:0.0666667 
0.1241445696398525 0 0.1414609604294965 0.1678642259724443 0.1519871693705319 0 0.1667292587810471 0.08283317666756898 0.116245108078823 0.1274982629582032 0 0 0.1270164953966295 0.04499285268373692 0 0 0.132872814066746 0 0.1410940543776349 0.161048196322722 0 0.2603767665383694 0.2234783644583977 0 0.06909495653975206 1:-0.466667 2:-0.6 3:-0.466667 4:-0.333333 5:-0.733333 6:-0.0666667 7:-0.0666667 8:-0.466667 9:0.866667 10:0.2 11:-0.2 12:0.0666667 13:-1 14:0.0666667 15:0.0666667 16:0.0666667 
0 5.559004814873494 0.3681713087830626 0 0 0.3136999168018098 0 0.4845204378406352 0 0 0.6222905141827586 1.596048371403792 0.2640478209992271 0 0.5541581745716665 2.146062076351583 0 0 0 0 0 0 0.3839379639932078 0.1025399377495953 0.4251860737790394 1:-0.733333 2:-0.6 3:-0.466667 4:-0.733333 5:-0.866667 6:0.0666667 7:-0.2 8:-0.733333 9:0.0666667 10:0.466667 11:-0.333333 12:0.2 13:-0.866667 14:0.0666667 15:-0.333333 16:0.0666667 
0.04619629427424722 0.7309051662144287 0 0 0.01204370912789897 0.05514720898986263 0.07008441834862582 0 0.03183001721947259 0.004390407060813391 0.06060532056705335 0 0 0 0.04915738481119276 0.118104732006971 0.04704391868045193 0.06703365296579034 0.06323150299271031 0 0 0 0.005148071440324061 0.1088084936795309 0 1:-0.466667 2:0.466667 3:-0.2 4:0.0666667 5:-0.0666667 6:0.0666667 7:-0.0666667 8:-0.6 9:0.2 10:-0.0666667 11:-0.2 12:-0.0666667 13:-0.866667 14:-0.0666667 15:0.466667 16:0.2 
0.4528706932293756 0.6438520723262471 0.3378667633465592 0.3805120984433672 0.5189398610658963 0.3634704519271975 0.6015273492081823 0.3972890535170641 0.4675821029929105 0.4829255018846664 0.4891700087790948 0.4288989234585757 0.4052812819159414 0.4398613180659512 0.3612676871439054 0.2421823268096079 0.5810489258933144 0.2417999000009567 0.5089240150059288 0.4571302901019569 0.4422575064220892 0.5895514883625628 0.5690673631293887 0.298848205065429 0.09437505417132369 1:-0.333333 2:-0.2 3:-0.466667 4:0.2 5:-0.6 6:-0.2 7:0.2 8:-0.333333 9:-0.6 10:0.6 11:-0.0666667 12:-0.0666667 13:-0.733333 14:0.2 15:0.333333 16:-0.2 
0 0 0 0 0 0 0 0 0 0 0 0 0 0 0 0 0 0 0 0 0.05869121795122488 0 0 0 0 1:-0.6 2:0.0666667 3:-0.333333 4:-0.2 5:-0.6 6:-0.0666667 7:0.2 8:-0.733333 9:0.2 10:0.466667 11:-0.0666667 12:-0.0666667 13:-0.866667 14:0.2 15:-0.2 16:-0.2 
0.05004080926005498 0 0.6413006179228273 0.5071271659408769 0.1846789607965902 0.07426903292085234 0.0008116261201754578 0.6603333204697952 0 0.6044088528958091 0.2275434781556066 0 0.1963974026916533 0.3645956782144754 0 0.9492078793800524 0 0.9593393911705034 0 0.0784800691688137 0 0 0 0.085141111529836 1.342871328110091 1:-0.466667 2:-0.333333 3:-0.2 4:-0.0666667 5:-0.333333 6:0.333333 7:-0.333333 8:-0.6 9:-0.333333 10:-0.0666667 11:-0.6 12:-0.2 13:-0.6 14:-0.0666667 15:-0.2 16:-0.0666667 
0.2171064178394719 1.057107146216234 0 0.2992589141619327 0.2854575303727052 0 0.2687037681407626 0 0.2078115681639972 0.209621386408341 0 0 0 0.114763803692639 0 0 0.3670215659992936 0 0.2963651439557222 0.1914996018404091 0 0.4905111461117445 0 0 0.2464887118175755 1:-0.866667 2:-0.866667 3:-0.733333 4:-0.6 5:-0.866667 6:-0.0666667 7:0.0666667 8:-0.333333 9:0.0666667 10:-0.2 11:-0.2 12:0.2 13:-0.866667 14:0.2 15:-0.0666667 16:0.0666667 
0.1287990503875858 0 0.06726061849659504 0 0 0.01402402360762778 0 0 0 0 0.5170945427347581 3.677834940846719 0.2117055475603768 0 0.3189258344396187 0.09475266586115663 0 0.6570008708868238 0 0 0 1.848953970160641 0.8765389161616433 0 0 1:-0.6 2:-0.0666667 3:-0.466667 4:-0.333333 5:-0.6 6:-0.2 7:0.0666667 8:-0.333333 9:0.2 10:-0.0666667 11:-0.0666667 12:0.333333 13:-0.866667 14:0.2 15:-0.0666667 16:0.0666667 
0 0.9727568210595311 0 0 0 0.07532804611524711 0 0 0 0 0 0.7499487701474554 0 0 0 0.476861409566127 0 0.1447350440896516 0 0 0.7143454989866441 0 0 0 0 1:-0.333333 2:0.466667 3:-0.2 4:0.0666667 5:-0.2 6:-0.0666667 7:0.0666667 8:-0.333333 9:0.2 10:-0.0666667 11:-0.0666667 12:0.2 13:-0.866667 14:0.2 15:-0.0666667 16:-0.0666667 
0 0 0 0.006696048868703959 0 0.1460346461546229 0 0.2689179828035388 0 0 0 0 0.07001499285504172 0.4259614224536357 0 0 0 0 0 0 0.1274483477902819 0 0.07272379696748986 0.03277517477464523 0 1:-0.0666667 2:0.733333 3:-0.0666667 4:-0.0666667 5:-0.333333 6:-0.2 7:-0.0666667 8:-0.733333 9:0.2 10:0.466667 11:-0.2 12:0.0666667 13:-0.466667 14:-0.333333 15:0.0666667 16:-0.2 
0.1670872591069143 0 0.2416368318717572 0 0.3388867081100444 0.1023628883530272 0.3429114895089663 0.1731667883259025 0.30648653818038 0.2206050394859575 0.1495094743209882 0 0.1547873605006501 0.04878674284283453 0 0 0.4568462771697197 0 0.2940303888158315 0.2585340854251602 0.8745550483130858 0.1652926891612097 0.0770225007215119 0 0 1:-0.466667 2:0.2 3:-0.2 4:-0.0666667 5:-0.2 6:-0.0666667 7:0.2 8:-0.6 9:0.0666667 10:-0.0666667 11:-0.2 12:0.0666667 13:-0.733333 14:0.333333 15:0.733333 16:-0.2 
0.46408872796898 4.483409760802964 0.3495461371870451 1.287972155667555 0 0.1207360441108243 0 0 0 0 0 0.3613893011655619 0 0.2111039446385411 0.5893489535858303 0 0 0.3645580297506154 0 0 0 0.2980223847042619 0.2212060968685203 0.47247715142862 1.948132747962959 1:-0.466667 2:-0.0666667 3:-0.333333 4:-0.333333 5:-0.466667 6:0.2 7:0.2 8:-0.2 9:-0.466667 10:-0.0666667 11:-0.333333 12:0.0666667 13:-0.6 14:0.2 15:0.333333 16:-0.0666667 
0 1.768124519720598 0 0 0 0 0 0 0 0.04031333802304931 0 0 0 0 0.2297523611961173 0 0 0.3298230154386585 0 0 0.8336841439745164 0 0 0 0 1:-0.6 2:-0.2 3:-0.333333 4:-0.466667 5:-0.466667 6:-0.2 7:-0.0666667 8:-0.6 9:-0.0666667 10:-0.0666667 11:-0.2 12:0.2 13:-1 14:0.0666667 15:0.0666667 16:-0.0666667 
0 0 0 0 0 0 0 0 0 0 0 0 0 0 0 0.127987662698859 0 0 0 0 0 0 0 0 0 1:-0.733333 2:-0.866667 3:-0.733333 4:-0.866667 5:-0.866667 6:0.0666667 7:-0.0666667 8:-0.333333 9:0.2 10:-0.2 11:-0.2 12:0.0666667 13:-0.866667 14:0.0666667 15:-0.2 16:0.0666667 
0.04382643813173795 3.248953665225983 0.2410262077538141 0.03795025774852494 0 0.396520647498413 0 0.5560789252361373 0 0 0.2244460840300144 0.6012116947914398 0.2062013695733966 0.9594259799874103 0 0.09666364365178577 0 0 0 0 0 0 0.006024753771795672 1.535196186672006 0 1:-0.466667 2:-0.2 3:-0.333333 4:-0.466667 5:-0.6 6:0.2 7:-0.333333 8:-0.6 9:0.0666667 10:0.466667 11:-0.466667 12:0.2 13:-0.733333 14:-0.0666667 15:-0.2 16:0.333333 
0.2349672249158647 0.4609354361322449 0.02575184096343004 0.2107883187164359 0.10738972415665 0.09321596956548886 0.07232867657858398 0.2381102194911534 0.1062811557393635 0.1347911889591433 0.1101473443354994 0.2549706819215842 0.4022944227885821 0.69693242965415 0.2680647127643774 0.09897012977332206 0.457059095039448 0.2845522297736549 0.05768172794235285 0.1214426873033898 0.4473616000322884 0.2526243324556189 0.3587309566870288 0.1957810315359449 0.6255728345579705 1:-0.0666667 2:0.0666667 3:-0.333333 4:0.466667 5:-0.466667 6:-0.0666667 7:-0.2 8:-0.2 9:-0.333333 10:0.333333 11:-0.0666667 12:-0.0666667 13:-0.6 14:0.2 15:0.2 16:-0.0666667 
0 0.6260284826561804 0 0 0 0 0 0 0 0 0.05570129921910885 4.830123232177162 0 0 0 0.9766555690290117 0 0 0 0 0 0 0 0 0 1:-0.6 2:-0.466667 3:-0.333333 4:-0.6 5:-0.733333 6:-0.0666667 7:0.0666667 8:-0.733333 9:0.2 10:0.466667 11:-0.2 12:0.0666667 13:-0.866667 14:0.2 15:-0.333333 16:0.0666667 
0.4240219929260938 0.3600794356948298 0.2245761753416133 0.2729436085627323 0.2582154893738005 0.3647100272524622 0.3561476581968727 0.819412657474598 0.4088650453779489 0.9640589077860302 0.4922174080600047 0.1707321812024138 0.4378424214909509 0.7605636144766463 0.29603537375445 0 0.9883669072454616 0.2736488840822968 0.2620373518693063 0.3097815726127848 0.2716286017492253 0.2310264801518083 0.209603412652593 0.1217227710158406 0.2974023900358673 1:-0.333333 2:-0.0666667 3:-0.0666667 4:-0.333333 5:-0.2 6:0.2 7:-0.333333 8:-0.333333 9:-0.466667 10:-0.0666667 11:-0.333333 12:-0.0666667 13:-0.6 14:-0.0666667 15:0.333333 16:-0.333333 
0 0 0 0 0 0 0 0 0 0 0 0 0 0 0 0 0 0.2268103023871544 0 0 0 0 0 0 0 1:-0.6 2:-0.333333 3:-0.333333 4:0.0666667 5:-0.466667 6:0.6 7:-0.466667 8:-0.733333 9:-0.333333 10:0.2 11:-0.6 12:-0.0666667 13:-0.866667 14:0.0666667 15:-0.333333 16:0.333333 
0 0 0 0 0 0 0 0 0 0 0 1.020433077931164 0 0 0 0 0 0 0 0 0 0 0 0 0 1:-0.333333 2:0.0666667 3:-0.0666667 4:-0.2 5:-0.466667 6:-0.0666667 7:0.0666667 8:-0.733333 9:0.333333 10:0.6 11:-0.2 12:-0.0666667 13:-0.733333 14:0.0666667 15:-0.2 16:0.0666667 
0.8164392565922302 1.064715382815387 0.7015845152862548 0.8437488960810189 0.4069208371222321 0.5280293522536463 0.4190545265422168 0.3629071776802341 0.4442949314313341 0.4158360042381072 0.3067326703067817 0.5345484259172616 0.5412526371119772 0.7907958900176377 0.8476363699406904 0 0.6318167617627053 0.2835304283691346 0.2892478767801761 0.4253419904236997 1.292115107635654 1.085876875902162 1.122762103075637 0.70729033959372 0.3661411424761821 1:-0.466667 2:0.466667 3:-0.333333 4:0.0666667 5:-0.2 6:-0.2 7:0.0666667 8:-0.333333 9:0.0666667 10:0.0666667 11:0.0666667 12:0.2 13:-0.866667 14:0.333333 15:-0.0666667 16:0.0666667 
0.03310529165467375 0 0 0 0.05430843825681345 0 0.06814192080421869 0 0.0618023408472839 0.006883780943011588 0 0 0 0 0 0 0 0 0.04773552237038262 0 0 0.03507727704652117 0 0 0 1:-0.466667 2:0.0666667 3:-0.2 4:-0.2 5:-0.6 6:-0.0666667 7:-0.0666667 8:-0.733333 9:0.333333 10:0.6 11:-0.333333 12:0.2 13:-0.733333 14:0.333333 15:-0.2 16:0.2 
0 0 0 0 0 0 0 0 0 0 0 7.51450651751449 0 0 0 0 0 0 0 0 0 0 0 0 0 1:-0.6 2:0.0666667 3:-0.333333 4:-0.2 5:-0.6 6:0.0666667 7:-0.0666667 8:-0.733333 9:0.2 10:0.466667 11:-0.2 12:0.0666667 13:-0.733333 14:0.0666667 15:-0.2 16:0.0666667 
0.3243034371939259 0 0.0336730912692669 0 0 0.01910170551629854 0 0.1633048692081212 0 0 0 1.767727905598056 0 0 0 0 0 0 0 0 0 0 0 0.3061463019943684 0.07698632408860108 1:-0.466667 2:-0.2 3:-0.2 4:-0.466667 5:-0.466667 6:0.0666667 7:-0.0666667 8:-0.733333 9:0.2 10:0.6 11:-0.2 12:0.0666667 13:-0.866667 14:0.0666667 15:-0.333333 16:0.0666667 
0.5474376144776356 0.8337371568996286 1.188149668166759 1.096536034339113 1.258681053913087 1.625370149267241 0.4183814089932533 2.51218383531728 0.6637277089321205 0.931735668076077 0.8855052158456207 0.6824225040650326 0.6801424462508001 0.3370768389287402 0.4897726108862324 1.836270547888408 0.5820878324396799 1.558910392732463 0.3103759306321058 0.7685773194720557 1.159536399855873 0.3283589459002345 0.9228628994422889 2.851121705856785 2.197086219446029 1:-0.466667 2:-0.2 3:-0.2 4:-0.466667 5:-0.466667 6:0.2 7:0.333333 8:-0.333333 9:-0.333333 10:-0.2 11:-0.333333 12:-0.0666667 13:-0.6 14:0.0666667 15:-0.2 16:-0.333333 
0 0 0 0 0.2387643315922634 0 0.2421178123449991 0 0.06435292629870638 0.2321511366286959 0 0 0.093929354768546 0.1411691250721013 0.05126316814762422 0 0 0 0.1875679291301982 0.2240603849852133 0 0.1465369711430671 0 0 0.3212198801795781 1:-0.733333 2:-0.466667 3:-0.333333 4:-0.6 5:-0.733333 6:-0.0666667 7:0.0666667 8:-0.733333 9:0.2 10:0.6 11:-0.0666667 12:-0.0666667 13:-0.866667 14:0.0666667 15:-0.333333 16:-0.2 
0.09255883768923744 0 0 0.06049945802763083 0.1576474677723126 0 0.2162611910077715 0 0.1491415176499615 0.1680589812302456 0 0 0 0 0.06218303621853719 0 0.1074649834874356 0 0.1852618522659033 0.07815401881322191 0.01511635887545443 0 0 0 0.001324639467196837 1:-0.866667 2:-1 3:-0.733333 4:-0.866667 5:-1 6:-0.0666667 7:-0.0666667 8:-0.733333 9:0.466667 10:0.0666667 11:-0.2 12:0.0666667 13:-1 14:0.0666667 15:-0.2 16:0.0666667 
0 0 0 0 0 0 0 0 0 0 0 2.732224278603528 0 0 0 0 0 0 0 0 0 0.3621637010661948 0 0 0 1:-0.733333 2:-0.6 3:-0.733333 4:-0.866667 5:-0.866667 6:-0.0666667 7:-0.0666667 8:-0.333333 9:0.0666667 10:-0.2 11:-0.2 12:0.0666667 13:-0.866667 14:0.0666667 15:-0.2 16:0.0666667 
0 0 0 0.05251653125720344 0 0 0 0 0 0 0 0 0 0 0 0 0 0 0.008773517605644801 0 0.1525281089741446 0 0 0 0 1:0.0666667 2:0.866667 3:0.0666667 4:0.0666667 5:-0.333333 6:0.0666667 7:-0.333333 8:-0.733333 9:0.2 10:0.6 11:-0.2 12:0.2 13:-0.6 14:-0.0666667 15:-0.2 16:-0.0666667 
0 0 0 0 0 0 0 0 0 0 0 3.543858657563628 0 0 0 0 0 0 0 0 0 0 0 0 0 1:-0.0666667 2:0.466667 3:0.2 4:0.0666667 5:-0.2 6:0.0666667 7:-0.0666667 8:-0.6 9:0.333333 10:0.6 11:-0.2 12:0.0666667 13:-0.733333 14:-0.0666667 15:-0.2 16:0.0666667 
0 0 0 0 0 0 0 0 0 0 0 5.206880725106695 0 0 0 0 0 0.3483004981518334 0 0 0 0 0 0 0.1416613814520059 1:-0.466667 2:0.0666667 3:-0.333333 4:-0.2 5:-0.466667 6:0.0666667 7:-0.2 8:-0.733333 9:0.2 10:0.466667 11:-0.333333 12:0.2 13:-0.866667 14:0.0666667 15:-0.333333 16:0.2 
0 0 0 0 0 0 0 0 0 0 0 3.453899439473977 0 0 0 0 0 0 0 0 0 0 0 0 0 1:-0.733333 2:-0.333333 3:-0.466667 4:-0.6 5:-0.733333 6:-0.0666667 7:-0.0666667 8:-0.733333 9:0.2 10:0.466667 11:-0.2 12:0.0666667 13:-0.866667 14:0.0666667 15:-0.333333 16:0.0666667 
0 0 0 0 0 0 0 0 0 0 0 0 0 0 0 0 0 0 0 0 0.5375377689519562 0 0 0 0 1:-0.733333 2:-0.466667 3:-0.466667 4:-0.6 5:-0.866667 6:-0.0666667 7:0.0666667 8:-0.733333 9:0.2 10:0.466667 11:-0.0666667 12:-0.0666667 13:-0.866667 14:0.0666667 15:-0.333333 16:-0.2 
0.4477935343019178 0 0 0.4609379182869718 0.02878744098095818 0.1567608809791549 0.0276224806452524 0 0 0.03092664817976954 0.02440281246938101 0 0 0 0 0 0 0.540827827017699 0.04280971175541829 0 0.123084825378847 0 0.03404059173032165 0.177780405996734 0.3018676815934466 1:-0.0666667 2:0.333333 3:0.2 4:0.0666667 5:-0.2 6:-0.0666667 7:0.0666667 8:-0.733333 9:0.2 10:0.6 11:-0.0666667 12:-0.0666667 13:-0.866667 14:0.0666667 15:-0.2 16:0.0666667 
0.07965257928882435 0.06873669179000297 0.08852292107987461 0.02490611788993152 0.09362438802081492 0.07552394226109266 0.1030306161513779 0.07080829536417911 0.0662500014925997 0.07896315752566459 0.076881028536401 0.06671798794401504 0.06436431040958754 0.07821395306744947 0.07915674019674758 0.05330453235065501 0 0.04259657507199847 0.08192842224440981 0.08051683904572651 0.07146098212341499 0.05208049321727622 0.06109916615170755 0.06883158742787249 0 1:0.2 2:0.333333 3:-0.2 4:0.866667 5:-0.2 6:-0.2 7:0.333333 8:-0.466667 9:-0.733333 10:0.6 11:-0.0666667 12:-0.2 13:-0.6 14:0.2 15:0.866667 16:-0.2 
0 0 0 0 0 0 0 0 0 0 0 0 0 0 0 0 0 0.1460180822335382 0 0 0 0 0 0 0 1:-0.333333 2:0.333333 3:-0.2 4:0.0666667 5:-0.2 6:0.0666667 7:-0.0666667 8:-0.333333 9:0.333333 10:-0.0666667 11:-0.2 12:-0.0666667 13:-0.866667 14:0.0666667 15:-0.0666667 16:0.0666667 
0 3.633674776257249 0 0 0 0 0 0 0 0 0 0 0 0 0 0 0 0 0 0 0 0 0 0 0 1:-0.866667 2:-0.6 3:-0.733333 4:-0.733333 5:-0.866667 6:0.0666667 7:-0.0666667 8:-0.333333 9:0.0666667 10:-0.2 11:-0.2 12:-0.0666667 13:-0.866667 14:0.0666667 15:-0.0666667 16:0.0666667 
0 0.6826216384086913 0 0 0 0 0 0 0 0 0 0 0 0.1334314839536064 0 0.5494136283474342 0 0 0 0 0 0 0 0 0 1:-0.2 2:0.333333 3:0.0666667 4:-0.0666667 5:-0.2 6:0.333333 7:-0.2 8:-0.333333 9:-0.466667 10:0.0666667 11:-0.333333 12:-0.0666667 13:-0.6 14:-0.0666667 15:0.466667 16:-0.0666667 
0 0 0 0 0 0 0.01501452699084814 0 0 0 0.05010771535122974 0 0 0 0 0.003814705322800975 0 0 0.02501261300974287 0 0 0 0 0 0 1:-0.0666667 2:-0.0666667 3:-0.333333 4:0.333333 5:-0.333333 6:0.2 7:-0.466667 8:-0.466667 9:-0.6 10:0.466667 11:-0.2 12:0.2 13:-0.6 14:0.2 15:0.466667 16:0.0666667 
0.2414727117426761 0.136008140366213 0 0.6852830638907517 0.09681263291879152 0.5244173408500712 0.08090725517315343 0.3800816225561081 0.1004469229595945 0.1987879850511939 0.5798052297697898 0 0.3940554023582574 0 0.8045085856345797 0.3734842859070803 0.1470273607550313 0.6030312314574438 0.05492513559256686 0.127591421525904 1.328250210821612 0.2109842229484596 0.6584831780518643 0.0519563422232979 0.2974130721859335 1:-0.0666667 2:0.733333 3:-0.0666667 4:-0.0666667 5:-0.466667 6:0.0666667 7:-0.333333 8:-0.733333 9:0.0666667 10:0.466667 11:-0.333333 12:0.2 13:-0.6 14:0.2 15:-0.333333 16:0.2 
0 0 0 0 0 0 0 0.005182280496741389 0 0 0 0 0.9884885801176601 0.2403747276967262 0 0 0 0 0 0 0 0 1.024968421792065 0.4384240055398254 0 1:-0.733333 2:-0.866667 3:-0.733333 4:-0.866667 5:-0.866667 6:-0.0666667 7:-0.0666667 8:-0.333333 9:0.0666667 10:-0.2 11:-0.2 12:0.0666667 13:-0.866667 14:0.0666667 15:-0.2 16:0.0666667 
0 0 0 0 0 0 0 0 0 0 0 0 0 0 0 0 0 0 0 0 0 0 0 0.4046643261320138 0 1:-0.333333 2:0.0666667 3:-0.0666667 4:-0.2 5:-0.2 6:0.2 7:-0.0666667 8:-0.333333 9:-0.466667 10:-0.0666667 11:-0.333333 12:-0.0666667 13:-0.466667 14:0.0666667 15:0.333333 16:-0.333333 
0 0 0 0 0 0 0 0 0 0 0 0 0 0 0 0 0 0 0 0 0 0 0 0.1333355552104006 0 1:-0.2 2:0.333333 3:0.0666667 4:0.0666667 5:-0.2 6:0.0666667 7:-0.0666667 8:-0.733333 9:0.2 10:0.6 11:-0.333333 12:0.0666667 13:-0.866667 14:0.0666667 15:-0.2 16:0.0666667 
0 0 0.01605640383210729 0.003397879953937343 0.04552224423161494 0.009324469857608941 0.07100351280523355 0.03733330955806794 0.04619150169282429 0.0309799865097786 0.08270583288062562 0.2701272719641598 0.01472216397425728 0 0.09845088236215865 0.09899443031185788 0.06519290378665907 0.1117381038541374 0.05878133153091327 0.03046935401543118 0.07771943398773959 0.1289538002993842 0.006183484349618549 0 0.02682913453500408 1:-0.333333 2:0.466667 3:-0.2 4:0.2 5:-0.6 6:-0.0666667 7:-0.0666667 8:-0.466667 9:1 10:0.2 11:-0.2 12:0.0666667 13:-1 14:0.0666667 15:0.0666667 16:0.0666667 
0.5648210265642469 0.6707834652941279 0.6616852202562601 0.5905559410173647 0.6366860057346607 0.7142828091925258 0.7040068708029106 0.6767911577211577 0.5238627421867449 0.5236339954174684 0.6433001954427151 0.5076157585806631 0.3984155802651974 1.615877916149047 0.1316751284324554 0.6923205445413473 0.6686172441274909 0.5188032731385966 0.6006827375389819 0.5733230120802072 0.5740383395064227 0.5305575096045059 0.583640997667169 0.8872099635950698 0.5160726814595927 1:0.0666667 2:0.866667 3:0.0666667 4:0.0666667 5:-0.333333 6:0.466667 7:-0.466667 8:-0.333333 9:0.0666667 10:0.6 11:-0.6 12:0.333333 13:-0.466667 14:-0.466667 15:0.0666667 16:0.6 
0 0 0 0 0 0 0 0.0877740874206101 0 1.154806980520364 0 0 0.1672967671783318 0 0.5963709300865551 0 0 0 0 0 0.05861085775508239 0 0.2079432808912728 0 0 1:-0.333333 2:0.0666667 3:-0.0666667 4:0.333333 5:-0.2 6:0.466667 7:-0.466667 8:-0.6 9:-0.333333 10:0.2 11:-0.733333 12:-0.0666667 13:-0.733333 14:-0.0666667 15:-0.2 16:0.2 
0 0 0 0 0 0 0 0 0 0 0 0 0 0 0 0 0 0.008611558586101582 0 0 0 0 0 0 0 1:-0.2 2:0.333333 3:0.0666667 4:0.0666667 5:-0.2 6:0.0666667 7:-0.0666667 8:-0.733333 9:0.2 10:0.6 11:-0.333333 12:0.0666667 13:-0.866667 14:-0.0666667 15:-0.2 16:0.0666667 
0 0.5959732931701817 0.4099301652832983 0 0 0.05701256610792878 0 0 0 0 0 0 0 0 0 0.3450564721969971 0.3252943912304467 0 0 0 0 0 0.6553800069108288 0.1834214000438332 0 1:-0.466667 2:-0.0666667 3:-0.333333 4:-0.333333 5:-0.466667 6:0.2 7:-0.0666667 8:-0.333333 9:-0.6 10:-0.0666667 11:-0.333333 12:-0.0666667 13:-0.6 14:0.0666667 15:0.2 16:-0.333333 
0 0 0 0 0 0 0 0 0 0 0 0 0 0 0 0 0 0 0 0 0.6407573744492203 0 0 0 0 1:-0.6 2:-0.0666667 3:-0.466667 4:-0.333333 5:-0.6 6:-0.2 7:0.0666667 8:-0.333333 9:0.2 10:-0.0666667 11:-0.0666667 12:0.2 13:-0.866667 14:0.2 15:-0.0666667 16:-0.0666667 
0 0 0 0 0 0 0 0 0 0 0 0 0 0 0.0446264022139246 0 0 0 0 0 0 0 0 0 0 1:-0.733333 2:-0.466667 3:-0.466667 4:-0.6 5:-0.733333 6:0.0666667 7:-0.2 8:-0.733333 9:0.2 10:0.6 11:-0.333333 12:0.2 13:-0.866667 14:0.0666667 15:-0.333333 16:0.2 
0.7887109197552887 0.6493670629846046 0.6806598141526953 1.219054223857386 0.7837640331445754 0.4786378150719607 0.5994220801454669 0.6392096172094965 0.5520398778497972 1.239236313024661 0.3559923292035065 0.5927656422600303 0.6953246667064473 0.573509930102666 0.4402117866084674 0.1387616177607041 1.265215884773445 0.3691505035700386 0.4606031795867877 0.7831953278137959 0.7365613723472176 0.5016794984721183 0.6015721766877319 0.4357336303608745 0.7172836328254089 1:-0.466667 2:0.0666667 3:-0.333333 4:-0.2 5:-0.333333 6:0.0666667 7:0.466667 8:-0.2 9:-0.333333 10:-0.2 11:-0.333333 12:-0.0666667 13:-0.6 14:0.2 15:-0.2 16:-0.466667 
0.1136823718903637 0.201607718161763 0 0.01639408275237438 0 0.1772505645954368 0 0 0 0 0.1598208715440205 2.350448861853129 0 0.6118215559653398 0 0 0 0.2383457724253778 0 0 0 0.02293309825089314 0 0.7956544348536794 0 1:-0.333333 2:0.6 3:-0.2 4:-0.2 5:-0.466667 6:0.2 7:-0.333333 8:-0.6 9:0.0666667 10:0.6 11:-0.466667 12:0.2 13:-0.6 14:0.2 15:-0.333333 16:0.466667 
0.2898709592987115 4.480270560103177 0.9556315739048542 0.9275284557398139 0.1246533779716957 0.8435637784111689 0.1236061905108755 1.421652807171075 0.09372821129692448 0.5011571463209775 0.6725172757443566 1.155934747750774 0.3326813398007404 2.061809976016574 0.7291878199358569 0.7515728052808255 0.05148456644948712 2.018491402508097 0.05327808753018023 0.09466627051332564 0.4432955427149297 0.1642220622298664 0.6912944118506817 1.016102972580654 1.190956921786357 1:-0.333333 2:0.333333 3:-0.333333 4:-0.333333 5:-0.6 6:0.466667 7:-0.466667 8:-0.6 9:-0.0666667 10:0.466667 11:-0.466667 12:0.2 13:-0.733333 14:0.2 15:-0.466667 16:0.466667 
0 0 0.2372303529431887 0 0 0.1362970115430614 0 0 0 0 1.67297017479352 6.487605759356149 0 0 0.2829926123025003 0.2366723033708737 0 0 0 0 0 0 0 0 0 1:-0.466667 2:-0.0666667 3:-0.2 4:-0.333333 5:-0.466667 6:0.2 7:-0.2 8:-0.733333 9:0.0666667 10:0.466667 11:-0.466667 12:0.333333 13:-0.733333 14:-0.0666667 15:-0.2 16:0.333333 
0 0.03665878381525272 0 0.09479300567442385 0 0 0 0 0 0 0 0 0 0.005102316628061878 0.05402095630037305 0.06585354982284601 0.03422978784245288 0.1851941378849427 0 0 0.1514199614252753 0.3326580723145545 0.01721491435701399 0 0.04025253991883661 1:-0.0666667 2:0.866667 3:-0.0666667 4:0.0666667 5:-0.333333 6:-0.2 7:-0.0666667 8:-0.733333 9:0.2 10:0.6 11:-0.0666667 12:0.0666667 13:-0.466667 14:-0.2 15:-0.0666667 16:-0.2 
0 0 0 0 0 0 0 0 0 0 0 0 0 0 0.791866341723469 0 0 0 0 0 0 0 0 0 0 1:0.0666667 2:0.6 3:0.0666667 4:-0.2 5:-0.333333 6:0.0666667 7:-0.333333 8:-0.733333 9:0.0666667 10:0.6 11:-0.2 12:0.333333 13:-0.6 14:-0.0666667 15:-0.0666667 16:0.0666667 
0 0 0 0 0 0 0 0 0 0 0.4659286617870567 1.210498985787617 0 0 0 1.896048993718444 0 0 0 0 0 0 0 0 0 1:-0.6 2:-0.333333 3:-0.466667 4:-0.466667 5:-0.6 6:-0.0666667 7:-0.0666667 8:-0.333333 9:0.333333 10:-0.2 11:-0.2 12:0.0666667 13:-0.733333 14:0.0666667 15:-0.0666667 16:0.0666667 
0 0 0 0 0 0 0 0 0 0 0 0 0 0 0 0 0 0 0.02126402028431696 0 0 0 0 0 0 1:-0.466667 2:0.2 3:-0.466667 4:-0.2 5:-0.6 6:-0.0666667 7:0.333333 8:-0.6 9:0.466667 10:0.0666667 11:-0.2 12:-0.0666667 13:-1 14:0.0666667 15:-0.0666667 16:-0.0666667 
0 1.102629517986852 0 0 0 0 0 0 0 0 0 0 0 0 0 0 0 0.100472277812429 0 0 0.001615326501183708 0 0 0 0.01974029226477478 1:-0.333333 2:0.466667 3:-0.0666667 4:0.0666667 5:-0.466667 6:0.2 7:-0.2 8:-0.6 9:0.333333 10:0.6 11:-0.466667 12:0.0666667 13:-0.866667 14:-0.0666667 15:-0.2 16:0.2 
0 0 0 0 0.07205573606433394 0 0.1324568794225902 0 0.1506345120794181 0.03140682711783303 0 0 0 0 0 0 0.1933289111496674 0 0.03987277864261828 0 0 0 0 0.04800441765384467 0.1856615704633481 1:-0.866667 2:-0.466667 3:-0.733333 4:-0.6 5:-0.733333 6:0.0666667 7:-0.0666667 8:-0.333333 9:0.0666667 10:-0.2 11:-0.2 12:-0.0666667 13:-0.733333 14:0.0666667 15:-0.0666667 16:0.0666667 
0.3026717066309678 0.1694729710782667 0.3815233406178721 0.330277637732109 0.3200034807257282 0.3255434881458706 0.3450721034573594 0.8902384371055838 0.2594349830499749 0.2664862066775294 0.2737366419410351 0.1958705291865149 0.1691903064520339 0.03995516032056143 0.1970126447020871 0 0.2593178304093461 0.2034150633803007 0.287141665914467 0.2819382128804013 0.03323976242818581 0.1101463938599753 0.285013962649022 0.6494455646092576 0.2642190240804604 1:0.0666667 2:1 3:0.0666667 4:0.0666667 5:-0.2 6:-0.0666667 7:-0.0666667 8:-0.733333 9:0.2 10:0.6 11:-0.0666667 12:0.0666667 13:-0.2 14:-0.333333 15:0.0666667 16:-0.333333 
0 1.593088778577149 0 0 0 0 0 0 0 0 0 0 0 0 0 0 0 0 0 0 0 0 0 0 0 1:-0.466667 2:0.0666667 3:-0.333333 4:-0.2 5:-0.333333 6:0.0666667 7:0.0666667 8:-0.6 9:-0.0666667 10:-0.0666667 11:-0.2 12:-0.0666667 13:-0.866667 14:0.2 15:0.333333 16:0.0666667 
0.4017877976513419 0 0.2969353368547203 0.3186069889606762 0.1745010344332852 0.252180143727005 0.1385851179982465 0.3843631027071053 0.09312639696183335 0.116769975749258 0.6420364008672805 0.7753731180551978 0.1868706387445368 0.03141007698878081 0.4751336554137542 0 0.1772266907427015 2.895757008532909 0.09425134520272506 0.2695900336573649 0.1649965568805811 0.5396630008608375 0 0.0424073179516913 0 1:-0.866667 2:-1 3:-0.866667 4:-1 5:-1 6:-0.0666667 7:-0.0666667 8:-0.733333 9:0.2 10:0.0666667 11:-0.2 12:0.0666667 13:-1 14:0.0666667 15:-0.333333 16:0.0666667 
0.1024193402648945 1.079467388440266 0.2464801613347056 0.162798203199492 0.3190884318025206 0 0.3993181704345459 0 0.3272671663231959 0.3006944585963596 0 0 0.1966302318897446 0.4829607290517284 0.1172626371000427 1.979603489807326 0.4219513017024856 0.3130748052516777 0.3672311572804431 0.241962190440031 0.3369233119074609 0.08718654076937965 0.3334003095489893 0 0.5634204410294028 1:-0.866667 2:-1 3:-0.866667 4:-1 5:-1 6:0.0666667 7:-0.0666667 8:-0.733333 9:0.2 10:0.0666667 11:-0.2 12:0.0666667 13:-1 14:0.0666667 15:-0.333333 16:0.0666667 
0.6550361374358454 0.8055378882630883 0.8616026595528162 1.388000951864483 0.6693690502083588 0.6547452022185835 0.7408032552912719 0.7541808957384334 0.5455364509788023 0.5639366843483422 0.7514784976516433 0.2966038532439177 0.5271321665771405 1.235898505779745 0.6887116532938784 0.6448983275015521 0.6697930521454518 0.5114573536024416 0.6243408986256005 0.6018702836351764 0.6568915370635687 0.6068183393436697 0.7296541857408839 0.6086008755777049 0.6371855618824855 1:0.333333 2:1 3:0.333333 4:0.2 5:-0.0666667 6:0.0666667 7:-0.2 8:-0.6 9:0.2 10:0.6 11:-0.2 12:0.2 13:-0.466667 14:-0.333333 15:0.0666667 16:-0.0666667 
0.4012357518514623 0.6713481051201033 0.4377824119631416 0.3250050396870385 0.4780360015714634 0.3991225903650024 0.5414998956571649 0.483385533143804 0.4108851107483579 0.553264152581239 0.5170653202865619 0.3775451290300487 0.3580092311513454 0.4446132834245372 0.6121291966953711 0.400231211808861 0.599670708053491 0.3809824889226402 0.4438437306855127 0.4393339349590246 1.00002056093972 0.3812415717200576 0.3992707422032596 0.2164384124797618 0.5499631888564435 1:-0.333333 2:0.466667 3:-0.0666667 4:0.0666667 5:0.0666667 6:-0.2 7:-0.0666667 8:-0.6 9:0.2 10:-0.0666667 11:-0.2 12:0.333333 13:-0.866667 14:0.0666667 15:0.466667 16:-0.333333 
0.1916997362250048 0 0.1369549671555545 0.1170317226423609 0.1895898402063069 0.06215470104615952 0.1792572147335911 0.02718561725403157 0.1374984375113355 0.1828363498936332 0 0 0.01823479651032141 0 0 0 0.2004606749725713 0 0.1375714404943261 0.1351760926247285 0 0.2045417678370251 0.1986319215801615 0 0.1189143834383073 1:-0.6 2:-0.466667 3:-0.333333 4:-0.6 5:-0.733333 6:0.0666667 7:-0.2 8:-0.733333 9:0.2 10:0.6 11:-0.333333 12:0.2 13:-0.866667 14:0.0666667 15:-0.333333 16:0.2 
0 0 0 0.221408209462173 0 0 0 0 0 0 0 0 0 0 0 0 0 0 0 0 0 0 0 0 0 1:-0.2 2:0.333333 3:-0.2 4:-0.333333 5:-0.6 6:0.2 7:-0.333333 8:-0.733333 9:0.0666667 10:0.466667 11:-0.333333 12:0.2 13:-0.733333 14:0.2 15:-0.333333 16:0.2 
0.1783785260208073 0.1995378979792679 0.4589359627412983 0.1578987061979761 0.325433126077103 0.2158859262165238 0.3344094749832172 0.2837097697765052 0.2592892028352317 0.2490187952647251 0.2751459747034019 0.1505747401093908 0.1030948679651093 0.1638081801969151 0.2225049393420269 0.2722298917650028 0.3673081331537467 0.1597593839079049 0.2873839985927559 0.2652831025183277 0.1894945568522921 0.1359669915158352 0.1319676788586621 0.1229243872467173 0.4170583410826773 1:-0.333333 2:-0.0666667 3:-0.466667 4:0.466667 5:-0.466667 6:-0.0666667 7:0.0666667 8:-0.466667 9:-0.733333 10:0.6 11:-0.0666667 12:-0.0666667 13:-0.6 14:0.2 15:0.466667 16:-0.333333 
0 0 0 0 0 0 0 0 0 0 0 0 0 0 0 0 0 0 0 0 0 0 0 0 0.06132747582483835 1:-0.2 2:-0.0666667 3:-0.466667 4:0.333333 5:-0.466667 6:0.0666667 7:-0.2 8:-0.466667 9:-0.466667 10:0.466667 11:-0.2 12:-0.0666667 13:-0.733333 14:0.333333 15:0.2 16:0.0666667 
0.06980279293873683 1.674513122028185 0.5519876076906868 0.07521888050713603 0.03615230775483507 0.6715078603703146 0 0.9128440284897945 0 0.03249822745630387 0 0.8890274504295164 0.3189438429920072 0.3329376735117758 0 0 0.01489859349406408 0 0.02099255176056169 0.06798581253984241 0 0 0 1.337901407660606 0 1:-0.733333 2:-0.866667 3:-0.733333 4:-0.733333 5:-0.733333 6:0.0666667 7:-0.0666667 8:-0.333333 9:0.0666667 10:-0.2 11:-0.2 12:-0.0666667 13:-0.866667 14:0.0666667 15:-0.2 16:0.0666667 
0.1798271683689524 0 0.6264882805765432 0.2156883438229522 0.2267156898956502 0.1878980496018708 0.3373877358990371 0 0.2527448742035448 0.2157634426280312 2.082481243463933 3.554781792920146 0 0.3718604111746672 0.3631281570717786 1.41197426549182 0.1517088381332051 0 0.1901196515481547 0.238593131685509 0.3378369071343437 0.4257313592551052 1.265032447224213 0 0.1210494123609555 1:-0.733333 2:-0.866667 3:-0.6 4:-0.733333 5:-0.733333 6:-0.0666667 7:-0.0666667 8:-0.333333 9:0.0666667 10:-0.2 11:-0.2 12:0.2 13:-0.733333 14:0.0666667 15:-0.0666667 16:0.0666667 
0 0 0 0.8090422369707613 0 0.3035127458423428 0 0.3550160859524201 0 0 0.03836922264876467 0 0 0 0.2480087914687252 2.4694415130829 0 1.183879749682155 0 0 0.6587343800365242 0 0 0.6516026952858694 1.147552060762151 1:-0.466667 2:0.0666667 3:-0.2 4:-0.2 5:-0.2 6:-0.0666667 7:0.0666667 8:-0.733333 9:-0.0666667 10:-0.0666667 11:-0.2 12:-0.0666667 13:-0.866667 14:0.2 15:0.2 16:0.0666667 
0 0 0 0 0 0 0 0 0 0 0 0 0 0 0 0 0 0 0 0 0 0.01319867677922952 0 0 0 1:-0.866667 2:-1 3:-0.733333 4:-0.866667 5:-1 6:-0.0666667 7:-0.0666667 8:-0.6 9:0.466667 10:0.0666667 11:-0.2 12:0.0666667 13:-1 14:0.0666667 15:-0.2 16:0.0666667 
0 0 0 0 0 0 0 0.02376025121345426 0 0 0 0 0.07746967743856407 0 0 1.269289016320828 0 0 0 0.01974677747629372 0.7052510352806524 0 0 0 0 1:-0.6 2:-0.6 3:-0.466667 4:-0.466667 5:-0.6 6:-0.0666667 7:-0.0666667 8:-0.333333 9:0.333333 10:-0.2 11:-0.2 12:0.0666667 13:-0.733333 14:0.0666667 15:-0.0666667 16:0.0666667 
0 0 0 0 0 0 0.01897415825347118 0 0 0 0 0 0 0 0 0 0 0 0.03909749101741776 0.04929829352644073 0 0.1224565430247122 0 0 0 1:-0.2 2:0.2 3:0.0666667 4:-0.0666667 5:-0.466667 6:0.0666667 7:-0.2 8:-0.6 9:0.466667 10:0.6 11:-0.333333 12:0.333333 13:-0.866667 14:0.0666667 15:-0.2 16:0.0666667 
0 0 0 0 0 0 0 0 0 0 0 0 0 0 0 0 0 0 0 0 0 0 0.1729821588468669 0 0 1:-0.6 2:-0.0666667 3:-0.466667 4:-0.333333 5:-0.6 6:-0.2 7:-0.0666667 8:-0.333333 9:0.2 10:-0.0666667 11:-0.0666667 12:0.2 13:-0.866667 14:0.2 15:-0.0666667 16:0.0666667 
0 0 0 0 0 0 0 0 0 0.658486159390912 0 0.02834681458390241 0 0 0 0 0 0.2418022107809299 0 0.06879472250801474 0.372047343474861 0 0 0 0.3420695308746914 1:-0.333333 2:0.0666667 3:-0.2 4:-0.2 5:-0.333333 6:0.2 7:0.466667 8:-0.2 9:-0.2 10:-0.2 11:-0.333333 12:0.2 13:-0.6 14:0.0666667 15:0.0666667 16:-0.333333 
0 0.5995353371125733 0 0 0 0 0 0 0 0 0 0 0 0 0 0 0.4639703415972938 0 0 0 0.1078056895500082 0 0 0 0 1:-0.2 2:0.333333 3:0.0666667 4:0.0666667 5:-0.466667 6:-0.2 7:0.2 8:-0.6 9:0.333333 10:0.466667 11:0.2 12:-0.333333 13:-0.733333 14:0.0666667 15:-0.0666667 16:-0.333333 
0 0 0 0 0 0 0 0 0 0 0 0 0 0 0 0 0 0.4119674466639008 0 0 0 0 0 0 0 1:-0.466667 2:0.0666667 3:-0.2 4:-0.2 5:-0.333333 6:0.2 7:0.333333 8:-0.2 9:-0.333333 10:-0.0666667 11:-0.333333 12:0.0666667 13:-0.6 14:0.2 15:0.333333 16:-0.0666667 
0.2064269497496936 0 0 0 0.09223257923629005 0.0482580308678346 0.1303093912483601 0.09944159505413187 0 0.1250978219156741 0 0 0 0.03217478802288094 0 0 0 0 0.1162899125897289 0 0.5122269175660575 0 0 0.05707783258917008 0 1:-0.466667 2:-0.0666667 3:-0.2 4:-0.333333 5:-0.466667 6:-0.0666667 7:0.2 8:-0.733333 9:0.2 10:0.466667 11:0.0666667 12:-0.333333 13:-0.866667 14:0.0666667 15:-0.2 16:-0.333333 
0 0.4537262514705667 0 0 0 0.0592801624507425 0 0 0 0 0 0 0 0 0 0 0 0 0 0 0 0 0 0.2390478565105279 0 1:-0.6 2:-0.466667 3:-0.466667 4:-0.2 5:-0.6 6:0.466667 7:-0.333333 8:-0.6 9:-0.466667 10:0.2 11:-0.6 12:-0.0666667 13:-0.866667 14:-0.0666667 15:-0.2 16:0.2 
0 0 0 0 0 0 0 0 0 0 0 2.505623994889972 0 0 0 0.3626530563153267 0 0 0 0 0 0 0 0 0 1:-0.466667 2:-0.2 3:-0.2 4:-0.466667 5:-0.6 6:0.0666667 7:-0.2 8:-0.733333 9:0.2 10:0.466667 11:-0.333333 12:0.2 13:-0.866667 14:0.0666667 15:-0.333333 16:0.2 
0 0 0 0.04905271911743343 0 0 0 0 0 0 0 0 0.2854330888048638 0 0 0 0 0 0 0 0 0 0 0 0 1:-0.6 2:-0.333333 3:-0.333333 4:-0.0666667 5:-0.466667 6:0.2 7:-0.333333 8:-0.466667 9:-0.466667 10:-0.0666667 11:-0.6 12:-0.2 13:-0.733333 14:0.0666667 15:-0.0666667 16:-0.2 
0 0 0 0 0 0 0 0 0 0 0 0 0 0 0 0.2079914149985749 0 0 0 0 0 0 0 0 0 1:-0.2 2:0.6 3:-0.2 4:-0.2 5:-0.466667 6:-0.2 7:-0.0666667 8:-0.733333 9:0.2 10:0.466667 11:-0.0666667 12:0.0666667 13:-0.6 14:-0.0666667 15:-0.2 16:-0.2 
0.1874511478627248 0.2102794277286252 0.2275153006572048 0.1972554044440976 0.2084558276774708 0.153381041726509 0.2373087167251817 0.17122638303805 0.1838722386092131 0.2031779168204047 0.2044233960099082 0.1667523253996217 0.1433745379961819 0.1989192160348729 0.1925452365969645 0.1725339556185447 0.2037242545308995 0.1836382584335437 0.2065373073111217 0.1942143748859407 0.1822568147822818 0.1794631692120942 0.1848140751443209 0.1367009733075337 0.1018588971482842 1:0.333333 2:0.333333 3:-0.0666667 4:0.866667 5:-0.2 6:-0.0666667 7:0.0666667 8:-0.466667 9:-0.733333 10:0.466667 11:-0.0666667 12:-0.0666667 13:-0.6 14:0.0666667 15:0.733333 16:-0.333333 
0 0 0 0 0 0 0 0.403716294190659 0 0 0 0 0 2.649357335254832 0.4614934822627963 0 0 0 0 0 0 0 0.2235407867672972 0 0 1:-0.0666667 2:0.6 3:-0.0666667 4:-0.2 5:-0.466667 6:0.333333 7:-0.6 8:-0.466667 9:-0.0666667 10:0.6 11:-0.466667 12:0.333333 13:-0.6 14:0.0666667 15:-0.2 16:0.333333 
0.5876315491972673 1.01799677885253 0.7897892255713149 0.8470123925444504 0.5669223423756438 0.8062142714655963 0.5584403702580908 0.9380867336247215 0.476269429896589 0.5703589453337375 0.6478999532896837 0.3577864291893788 0.6263765180677775 0.6275582044857588 0.3924840890089725 0.7043980881503933 0.3464296272858809 1.092249009579969 0.4752907019730969 0.4084950327605804 0.5303699935877475 0.4054889777378556 0.4948329863234112 0.7764145568261214 1.4825640718509 1:-0.2 2:-0.0666667 3:0.0666667 4:0.2 5:0.0666667 6:0.2 7:0.0666667 8:-0.2 9:-0.333333 10:0.2 11:-0.6 12:-0.2 13:-0.6 14:-0.333333 15:0.0666667 16:-0.0666667 
1.107249299066247 1.291211746146381 1.048769843270423 1.130681619294337 0.5095112475004229 0.8867799303071705 0.7885231676544899 0.514569556274188 0.7602720821836502 0.3504600721708369 0.7706290626619243 1.30716065164724 0.5713650278319006 1.024011948212452 1.041244455531736 1.124102564403967 1.213770264987767 1.691721679230277 0.5122348656350603 0.4677388048090526 1.207767461923671 0.6636036178076229 1.005654602736839 1.254214113898983 2.148759214586368 1:-0.2 2:0.333333 3:0.2 4:0.0666667 5:-0.0666667 6:0.333333 7:0.2 8:-0.2 9:-0.333333 10:-0.0666667 11:-0.2 12:0.0666667 13:-0.466667 14:0.2 15:0.333333 16:-0.0666667 
0 0 0 0 0 0 0 0 0 0 0 2.847151221198739 0 0 0 0 0 0 0 0 0 0.03306420365003034 0 0 0 1:-0.466667 2:0.333333 3:-0.466667 4:-0.0666667 5:-0.333333 6:-0.2 7:0.0666667 8:-0.333333 9:0.2 10:0.0666667 11:-0.0666667 12:0.333333 13:-0.866667 14:0.2 15:-0.0666667 16:0.0666667 
0.4210860735561011 1.005150906502729 0.5464324187231981 0.4149458529117932 1.035481107664868 0.4740611986019329 0.6471971219562538 0.891298261548934 0.5658109610545493 1.457883467142149 0.318305726977293 0.2153650501479971 0.2191703674601104 0.2759606541246358 0.3593325889577073 0 0.8348374945176997 0.05870440459535659 0.4901615595668304 0.4112291860926667 0.1488703212833396 0.3198330956678694 0.2107073873558339 1.43216562261134 0 1:-0.6 2:-0.0666667 3:-0.333333 4:-0.333333 5:-0.333333 6:0.0666667 7:0.0666667 8:-0.2 9:-0.6 10:-0.2 11:-0.466667 12:-0.2 13:-0.6 14:0.2 15:0.0666667 16:-0.6 
0 0.509080322631316 0 0 0 0 0 0 0 0 0 0 0 0 0 0 0 0 0 0 0 0 0 0 0 1:-0.2 2:0.2 3:0.0666667 4:-0.0666667 5:-0.466667 6:0.2 7:-0.2 8:-0.6 9:0.333333 10:0.466667 11:-0.466667 12:0.2 13:-0.866667 14:-0.0666667 15:-0.2 16:0.0666667 
0 0.163907176363344 0 0.2715222645072893 0 0 0 0.1753538796397837 0 0 0.1142945950805016 0.1458719218840517 0.07170521197318114 0 0.04060027738954653 1.134866843926172 0.1534523056342808 0 0 0.09659200766687369 0.9785066375160577 0 0.07062848900541757 0 0 1:0.0666667 2:0.866667 3:0.0666667 4:0.0666667 5:-0.333333 6:-0.0666667 7:-0.0666667 8:-0.733333 9:0.2 10:0.466667 11:-0.0666667 12:0.2 13:-0.466667 14:-0.0666667 15:-0.0666667 16:-0.333333 
0 0 0 0 0 0 0 0.1546087544196676 0 0 0 0 0 0 0 0 0 0 0 0 0 0 0 0.1202608416650929 0.03584304719487771 1:-0.733333 2:-0.466667 3:-0.466667 4:-0.6 5:-0.733333 6:0.0666667 7:-0.0666667 8:-0.733333 9:0.2 10:0.6 11:-0.2 12:-0.0666667 13:-0.866667 14:0.0666667 15:-0.333333 16:0.0666667 
0.3014101504850512 0.3513295742870131 0.1574149694352063 0.1633144163157516 0.05853110859627181 0.3407602562135721 0.09438344421032162 1.305981627268809 0.1521034999639023 0.4077114875863997 0.2188427867812191 0.2809963334475664 0.6025579183612637 0.7530766158496921 0.302338348805187 0.1245317374948866 0.4676631595094725 0.1001070842408896 0.1581706569949975 0.2731696400587629 0.4154470174152014 0.1589664463759305 0.422440115784607 0.5289657370821302 0.9029501086462692 1:-0.2 2:0.466667 3:0.0666667 4:0.0666667 5:-0.0666667 6:0.333333 7:-0.333333 8:-0.333333 9:-0.333333 10:0.0666667 11:-0.333333 12:-0.0666667 13:-0.466667 14:-0.0666667 15:0.333333 16:-0.333333 
0 0 0 0 0.03750073590568159 0 0.04131792910986896 0 0 0.06725883649698608 0.004664878447987067 0 0.0952151762590903 0 0 0 0.003163750797914826 0 0.06470712778279707 0.1512803692391481 0 0.2525776382719688 0 0 0.0208170228083765 1:-0.333333 2:0.466667 3:-0.2 4:0.0666667 5:-0.333333 6:-0.2 7:0.0666667 8:-0.2 9:0.466667 10:-0.0666667 11:-0.0666667 12:0.333333 13:-0.866667 14:0.2 15:0.0666667 16:-0.0666667 
0.02966487599941861 0 0.03799624769028608 0.03982047094952618 0.1179365872992332 0 0.1391670805271719 0 0.1076150448791025 0.09397553712176195 0 0 0 0.008439608244835778 0 0 0.09367931643849042 0 0.1122112024491535 0.05712171002335848 0 0 0 0 0 1:-0.733333 2:-0.0666667 3:-0.6 4:-0.333333 5:-0.866667 6:-0.0666667 7:-0.0666667 8:-0.6 9:0.733333 10:0.2 11:-0.2 12:0.0666667 13:-1 14:0.0666667 15:0.0666667 16:0.0666667 
0 0.7093495288078663 0 0.1057786264893385 0 0 0 0.2435359151923001 0 0 0 0.7112392391463018 0 0 0 0.1004157796421647 0 0 0 0 0.06343249698310105 0 0 0 0 1:-0.2 2:0.466667 3:0.0666667 4:0.0666667 5:-0.333333 6:0.2 7:-0.2 8:-0.6 9:0.333333 10:0.6 11:-0.466667 12:0.0666667 13:-0.733333 14:-0.0666667 15:-0.2 16:0.0666667 
0 0 0.4155486948286527 0 0 0 0 0 0 0.2333432385263972 0 0 0.6999203590531117 0.4777892753437831 0.00871091063596331 0 0 0 0 0 0 0 0 0 0 1:-0.466667 2:-0.333333 3:-0.2 4:-0.0666667 5:-0.466667 6:0.466667 7:-0.333333 8:-0.466667 9:-0.466667 10:0.2 11:-0.6 12:0.0666667 13:-0.733333 14:-0.2 15:-0.333333 16:0.2 
0.2281651790062983 1.159676611077404 0.159066834654509 0.3853400299871078 0.204725694906703 0.3771432378342482 0.2155360997919135 0.2862578022390366 0.1165625076191431 0.2035297917013989 0 0.5860543454382318 0.0384864045192274 0.07103694931052565 0 1.025494186619233 0 0.3719147544666764 0.1533573716349077 0 0 0 0 0.9303865544812679 0.6490091551496344 1:-0.866667 2:-0.6 3:-0.733333 4:-0.866667 5:-0.866667 6:0.0666667 7:-0.0666667 8:-0.866667 9:0.0666667 10:0.466667 11:-0.2 12:0.0666667 13:-0.866667 14:0.0666667 15:-0.333333 16:0.0666667 
0 0.4210310245452746 0 0 0 0 0 0 0 0 0 0 0 0 0 0 0 0 0 0 0 0 0 0 0 1:-0.6 2:0.0666667 3:-0.466667 4:-0.2 5:-0.6 6:0.2 7:-0.2 8:-0.333333 9:0.333333 10:-0.0666667 11:-0.333333 12:-0.2 13:-0.866667 14:-0.0666667 15:0.0666667 16:0.0666667 
0.46829981833004 0.5079435764396326 0.6403242480039764 0.2577723003532265 0.4942208915725019 0.2486156145051331 0.5326721759197036 0.2347008662903182 0.4077707397864522 0.383708818637196 0.3627837803174662 0.4379257409048646 0.5067590590672534 0.6314318951405689 0.7475031567705418 0.4422774771144404 0.5948723606528287 0.2091063106576954 0.4482951363349959 0.4458281890333464 0.3085359180450696 0.5089779692477744 0.5032158320461751 0 0.07532457573487868 1:-0.333333 2:-0.2 3:-0.466667 4:0.2 5:-0.466667 6:0.2 7:-0.466667 8:-0.466667 9:-0.6 10:0.466667 11:-0.2 12:0.2 13:-0.733333 14:0.333333 15:0.0666667 16:0.0666667 
0.3114473366167627 3.113969830961673 0.9460603895219575 1.20736145892428 0.1509822558961312 0.07337103687123328 0 0.213927950476326 0.02768354987268316 0 1.093836825013231 3.882154280002518 0.09787072980754398 0 0 3.662275448469838 0.1728203279172501 0.2825055329969686 0 0.07547283134404377 1.612589016275998 0.4597817059547314 0.3201684579842659 0.2037853535711627 0.3669683699951197 1:-0.0666667 2:0.466667 3:-0.0666667 4:-0.2 5:-0.466667 6:0.0666667 7:-0.2 8:-0.733333 9:0.0666667 10:0.466667 11:-0.2 12:0.2 13:-0.6 14:0.2 15:-0.333333 16:0.0666667 
0 2.01749837958934 0 0 0 0 0 0 0 0 0 0 0 0 0 0 0 0 0 0 0 0 0 0 0 1:-0.466667 2:0.2 3:-0.333333 4:-0.0666667 5:-0.333333 6:0.0666667 7:-0.0666667 8:-0.333333 9:0.2 10:-0.0666667 11:-0.333333 12:-0.0666667 13:-0.866667 14:-0.0666667 15:-0.0666667 16:0.0666667 
0 1.277298944466729 0.4602613408444803 0 0.005196218895041535 0 0 0.1651202615642999 0 0.06866375349964501 0 1.017178346505287 0.1763942197643453 0 0 0 0 0.3349213130550814 0 0 2.547376604336219 0 0.05516330395399983 0.08388699628659166 0.3429028452161445 1:-0.333333 2:0.2 3:-0.333333 4:-0.466667 5:-0.6 6:-0.2 7:-0.0666667 8:-0.733333 9:0.0666667 10:0.466667 11:0.0666667 12:0.2 13:-0.6 14:0.0666667 15:-0.333333 16:-0.333333 
0 1.006949025695412 0 0 0 0 0 0 0 0 0 0 0 0 0 0 0 0.220870232644606 0 0 0 0 0 0 0.5381660212645046 1:-0.6 2:-0.0666667 3:-0.333333 4:-0.333333 5:-0.466667 6:0.0666667 7:0.0666667 8:-0.6 9:-0.0666667 10:-0.0666667 11:-0.2 12:0.0666667 13:-0.866667 14:0.0666667 15:0.333333 16:0.2 
0.420111997977513 0.6004140675928059 0.184841701808058 0.2841107861651787 0.3562321304822241 0.06969956874514192 0.3673459970311501 0.1137679923640963 0.2778161674685753 0.3324383007402001 0.2548650494375402 0 0.3155246110503735 0.4787169359647931 0.5188457373151397 0.545389780783738 0.4064431411161021 0.5711801396048073 0.343876789601681 0.3193089893144742 0.3114767546819933 0.3226650111431303 0.3352985194794559 0.08527906621640832 0.1234100047572905 1:-0.6 2:-0.333333 3:-0.333333 4:-0.2 5:-0.6 6:0.333333 7:-0.6 8:-0.733333 9:-0.2 10:-0.0666667 11:-0.6 12:-0.2 13:-0.866667 14:0.0666667 15:-0.0666667 16:-0.0666667 
0 0 0 0 0 0 0 0 0 0 0 1.543298638619178 0 0 0 0 0 0 0 0 0 0 0 0 0 1:-0.733333 2:-0.466667 3:-0.333333 4:-0.6 5:-0.733333 6:-0.0666667 7:-0.0666667 8:-0.733333 9:0.2 10:0.6 11:-0.2 12:0.0666667 13:-0.866667 14:0.0666667 15:-0.333333 16:0.0666667 
0 0 0 0 0 0 0 0 0 0 0 0 0 0 0 0 0 0 0 0 0 0.1026157844259745 0.1947140221026099 0 0 1:-0.6 2:-0.0666667 3:-0.333333 4:-0.333333 5:-0.6 6:0.0666667 7:-0.0666667 8:-0.733333 9:0.2 10:0.466667 11:-0.333333 12:0.333333 13:-0.866667 14:0.2 15:-0.2 16:0.333333 
0.1548267844914288 1.349885375851047 0.390447553820443 0.6567660445639647 0.9834930332992903 0.6805556932557668 0.4311444012578906 1.326654479901958 0.6538247310956006 0.269284458301926 0.586506742283437 0.2038997566308778 0.2666509695284142 0 0.2263363725224626 0.7948136777188077 0.1040403399694885 0.8667215287847536 0.4133060282717152 0.255583400709988 0.3602337519728492 0.2249106572617532 0.254771785040637 0.4420231292428897 0.7953562130615086 1:-0.2 2:0.2 3:0.0666667 4:-0.0666667 5:0.0666667 6:0.2 7:0.0666667 8:-0.466667 9:-0.466667 10:-0.2 11:-0.466667 12:-0.2 13:-0.466667 14:0.0666667 15:0.333333 16:-0.466667 
0.1039424900394882 0 0.03167862068961889 0.1865315674196916 0 0.20001035575399 0.01569310255250868 0.1648475781989204 0.03506568722352993 0.02823979143443487 0.2568429997846788 0 0 0 0.1476920406596014 1.010617215634297 0 0.8861641344032134 0 0 0 0 0.007211377838330129 0.2712650880682509 0.1429246602880189 1:-0.6 2:-0.2 3:-0.333333 4:-0.466667 5:-0.333333 6:-0.0666667 7:0.0666667 8:-0.733333 9:-0.0666667 10:-0.0666667 11:-0.2 12:0.0666667 13:-1 14:0.0666667 15:0.0666667 16:0.0666667 
0.5107814026154366 0.9735336925857585 0.4631917294196217 1.152849919618736 0.3488319637115218 0.2156097300963303 0.2567192724336037 0.5434533916083052 0.344033629156666 0.2409240894551716 0.2932395227890472 0 0.2709249598709432 0.2782817034835645 0.2198873566583023 0.7376926276592105 0.5779581422353108 0.2246527380399871 0.2248283432197462 0.2519232624583981 2.18593564860721 0.2473692129694409 0.2809563116262114 0.2718574149788397 0.3746832527693197 1:-0.0666667 2:0.333333 3:0.2 4:0.0666667 5:-0.2 6:-0.2 7:0.2 8:-0.6 9:0.2 10:0.6 11:0.0666667 12:-0.2 13:-0.6 14:0.333333 15:-0.0666667 16:-0.2 
0 0 0 0 0 0 0 0 0 0 0 0 0 0 0 2.450468063091324 0 0 0 0 0 0 0 0 0 1:-0.866667 2:-0.866667 3:-0.733333 4:-0.733333 5:-0.866667 6:-0.0666667 7:-0.0666667 8:-0.466667 9:0.0666667 10:-0.2 11:-0.2 12:0.0666667 13:-0.866667 14:0.0666667 15:-0.2 16:0.0666667 
0.5280122812564038 0 0.1960947979242733 0.2234459797933975 0.3635366968226901 0 0.3345465455531986 0 0.1654292732509996 0 0 0 0.3271192531888047 0.3766856424629197 0 0 0.2897990171370034 0.5395410659406706 0.2533876947763101 0.2506438256900239 0.1763359209535314 0.2348996348233622 0.1444712748057127 0.08491868349710285 0.1115065151234889 1:-0.2 2:0.0666667 3:0.0666667 4:0.333333 5:-0.0666667 6:0.466667 7:-0.333333 8:-0.466667 9:-0.333333 10:0.0666667 11:-0.733333 12:-0.2 13:-0.733333 14:-0.0666667 15:-0.0666667 16:0.0666667 
0 0 0 0 0.05468145821884575 0 0.08103121943170387 0 0.02539356355510758 0.06646778331522614 0 0 0 0 0 0 0.07759804632086324 0 0.08664846351383612 0 0 0 0 0 0 1:-0.866667 2:-0.466667 3:-0.733333 4:-0.733333 5:-0.866667 6:-0.0666667 7:0.0666667 8:-0.333333 9:0.0666667 10:-0.2 11:-0.2 12:0.2 13:-0.866667 14:0.0666667 15:-0.0666667 16:-0.0666667 
0.1766987578751913 0 0.5374812251264875 0.6767611988219688 0 0 0 0 0 0 0 0 0 0 0 0.1584523038153119 0.01026632512751303 0.4395961849894713 0 0 0 0 0 0 0.6930598767169507 1:-0.2 2:-0.2 3:-0.333333 4:0.2 5:-0.466667 6:-0.0666667 7:0.0666667 8:-0.333333 9:-0.6 10:0.466667 11:-0.0666667 12:-0.0666667 13:-0.733333 14:0.2 15:0.2 16:-0.0666667 
0.04709816364643504 0.6635775082126106 0.05417303643415933 0.4591879301048529 0.0443499035442672 0 0.04684677174257599 0.4093343455771373 0 0 0.08458694896421068 0.2210383641650635 0 0.2302894264736966 0.354325154612322 0.3032711623788069 0 0.415059267878905 0.0652645703105979 0.0418892764323214 0.3261376278672228 0.2135095137067176 0.08012481963626983 0 0.4453328523606735 1:-0.333333 2:0.333333 3:-0.2 4:0.0666667 5:-0.0666667 6:0.0666667 7:0.2 8:-0.6 9:-0.0666667 10:0.0666667 11:-0.2 12:0.0666667 13:-0.733333 14:0.333333 15:0.733333 16:-0.0666667 
0 11.64543480402314 0.3633109349522953 0.1183142897304007 0 0 0 0 0 0 0.8124963667859596 3.386710498883964 0 0 0 0.7267970747531547 0 0.9123473910890479 0 0 1.083108449303983 0 0.02785197687795789 0.005639840197893209 0.1689192624951538 1:-0.466667 2:-0.2 3:-0.2 4:-0.466667 5:-0.6 6:-0.0666667 7:0.0666667 8:-0.733333 9:0.0666667 10:0.466667 11:-0.0666667 12:0.0666667 13:-0.866667 14:0.2 15:-0.333333 16:-0.0666667 
0 0 0 0 0 0 0 0 0 0 0.5044543023119235 0 0 0 0 0 0 0 0 0 0 0 0 0 0 1:-0.466667 2:-0.2 3:-0.2 4:0.0666667 5:-0.466667 6:0.466667 7:-0.466667 8:-0.6 9:-0.333333 10:0.333333 11:-0.733333 12:0.0666667 13:-0.733333 14:-0.0666667 15:-0.333333 16:0.466667 
0.2022010135856403 0 0.6568203414819694 0.01354898322388956 0.2166699243971402 0.3587314088914774 0.2332426755862482 0.5593140240799886 0.2096202948156767 0.3770889047161847 0.9217618562972937 1.100423523337815 0.4409681920325453 0 0.02724903553839104 1.057027807870035 0.1402548382248671 0.2519073847078913 0.1546801953517692 0.168847578230674 0.1945875098819225 0.03171047168217086 0.05186969760291939 0.3892691362844542 0.5210104832599192 1:-0.2 2:0.2 3:0.2 4:-0.0666667 5:-0.2 6:0.0666667 7:-0.2 8:-0.733333 9:0.2 10:0.466667 11:-0.333333 12:0.2 13:-0.6 14:-0.333333 15:-0.0666667 16:0.0666667 
0.09893923310393017 0 0 0.3242915835622768 0 0 0 0 0 0 0 0 0 0 0 0 0 0 0 0 0 0.06744524352298847 0 0 0 1:-0.733333 2:-0.6 3:-0.466667 4:-0.733333 5:-0.733333 6:-0.0666667 7:0.0666667 8:-0.733333 9:0.2 10:0.6 11:-0.2 12:0.0666667 13:-0.866667 14:0.2 15:-0.333333 16:0.0666667 
0 1.693560375498941 0 0 0 0 0 0 0 0 0 0 0 0 0 0 0 0 0 0 0 0 0 0 0 1:-0.0666667 2:0.333333 3:0.2 4:0.0666667 5:-0.333333 6:-0.0666667 7:0.0666667 8:-0.6 9:0.333333 10:0.6 11:-0.0666667 12:-0.0666667 13:-0.866667 14:0.0666667 15:-0.2 16:-0.0666667 
0.2342262972311829 0 0.3626202771264375 0.009364562065415562 0.1509959524423913 1.377209520276563 0 1.111504022014244 0 0.1659383633510565 0.127440041038337 0.1368255590941527 0.3420565619713568 0.5537608755673926 0.07590650343257063 1.197710832499355 0.1435628111355403 0.5929134878967119 0 0.1874892264390947 0.1737267875072954 0 0.3241454335972724 1.510506555094939 0.7059222416976683 1:-0.6 2:0.2 3:-0.466667 4:-0.0666667 5:-0.466667 6:0.0666667 7:-0.2 8:-0.333333 9:0.2 10:-0.0666667 11:-0.2 12:-0.2 13:-0.733333 14:-0.0666667 15:-0.0666667 16:0.0666667 
0.321395389455053 1.479767857498047 0 0.1569875746889621 0.1604385325616616 0 0 0.369207211285271 0 0.06025412064272367 0 0 0 0 0 0 0.1447887036017624 0 0.02545817788879266 0 0 0 0 0.9097776805329274 0 1:-0.6 2:-0.466667 3:-0.333333 4:-0.2 5:-0.466667 6:0.2 7:-0.0666667 8:-0.333333 9:-0.333333 10:0.2 11:-0.6 12:-0.2 13:-0.733333 14:-0.2 15:-0.2 16:-0.0666667 
0 0.5376206295384971 0 0.09975289043862087 0 0 0 0.02874934763801812 0 0.3016603029427282 0 0 0.2713937902138905 0.1234860979470178 0.1716066343784748 0 0.07968190205327165 0.1706210694814028 0 0.3060534846084131 0.4909290667329766 0 0 0 0.2007759605108082 1:-0.733333 2:-0.0666667 3:-0.6 4:-0.333333 5:-0.6 6:-0.0666667 7:0.0666667 8:-0.333333 9:0.0666667 10:-0.0666667 11:-0.2 12:0.333333 13:-0.866667 14:0.2 15:-0.0666667 16:-0.0666667 
0.5562257467215556 0.6163356945851347 0.6179932961207657 0.5354663433274399 0.6240665263617574 0.4797839462826553 0.700531023231156 0.4622041771571555 0.5135452393823274 0.5480019579108455 0.5658119260389293 0.4969788042343884 0.4189400554916781 0.6210395791204593 0.5900916245601097 0.4811763114433745 0.6143153394707144 0.4851193874736781 0.5908908940729234 0.5536677291852657 0.479846072336226 0.5359813250204452 0.5289466899634013 0.396062554286111 0.4789579595868348 1:0.2 2:0.333333 3:-0.2 4:0.866667 5:-0.2 6:0.0666667 7:-0.466667 8:-0.333333 9:-0.466667 10:0.6 11:-0.0666667 12:0.2 13:-0.6 14:0.0666667 15:0.6 16:-0.0666667 
0 0 0 0 0 0 0.0180905607328285 0 0 0 0 0 0 0 0 0 0 0 0.05992738028843455 0 0 0 0 0 0 1:-0.733333 2:-0.0666667 3:-0.6 4:-0.333333 5:-0.733333 6:0.0666667 7:-0.2 8:-0.333333 9:0.333333 10:-0.0666667 11:-0.2 12:-0.0666667 13:-0.866667 14:-0.0666667 15:0.0666667 16:0.0666667 
0 0 0 0 0 0 0 0 0 0.2379901881699627 0 0 0 0 0 0 0.5462735518579102 0 0 0 0 0 0 0 0 1:-0.2 2:0.2 3:0.0666667 4:-0.2 5:-0.2 6:0.2 7:0.333333 8:-0.2 9:-0.333333 10:-0.2 11:-0.333333 12:-0.2 13:-0.6 14:0.2 15:0.2 16:-0.466667 
0 0 0 0 0 0 0.5016738440415385 0 0.3273404187540278 0 0.2189191744876315 0.4300758741082431 0.1087807224278752 0.3120965011164074 0.3596112017420906 0 0.3822259541006514 0.6914601907337377 0.3893884859352074 0.2273109611972517 0.2047437512264943 0.3538541764161225 0.4256500326375876 0 0.04834567623981501 1:-0.466667 2:-0.2 3:-0.2 4:-0.466667 5:-0.466667 6:0.2 7:0.466667 8:-0.2 9:-0.333333 10:-0.2 11:-0.333333 12:0.2 13:-0.6 14:0.0666667 15:0.2 16:-0.2 
-0.431106854230542 0.2506937557333054 0.01102287307782583 2.771294137366626 0.2080136960310679 0.7048004858329402 0.2973852556142958 0.38744999914693 0.3146809997103843 0.2588988132707908 0.203132799470703 1.97134007344277 0.07037635263746639 0.02577621715613272 0 0 0.4041950772502561 0.6252420018398616 0.2886100764167317 0.340173634436817 1.033597098509173 1.389810448856778 0.7409241201037824 0.272176228043771 0.1908180536820162 1:-0.466667 2:-0.0666667 3:-0.333333 4:-0.333333 5:-0.333333 6:-0.333333 7:0.2 8:-0.2 9:-0.466667 10:0.0666667 11:-0.0666667 12:0.2 13:-0.733333 14:0.2 15:-0.0666667 16:0.333333 
-0.2611922194028908 0.6550371267130245 0 0 0 0 0 0 0 0 0.9761721131983093 0 0.1940992799825637 0 2.026200829005712 0.4282841015537467 0 0.3224691421502083 0 0 0.1743732232770506 0.8221572856598469 1.568599174469741 0.3752282568778612 0.2124787455484961 1:-0.466667 2:0.2 3:-0.333333 4:-0.0666667 5:-0.333333 6:-0.333333 7:0.0666667 8:-0.2 9:-0.466667 10:0.0666667 11:-0.0666667 12:0.2 13:-0.6 14:0.0666667 15:-0.0666667 16:0.333333 
-0.1641882560096985 0.4175057154592698 0.6814671809230572 0 0 0.9005131620960082 0.08766704588690213 1.197585211383384 0 0.03473405337595378 0.09602232373331394 0.09732522730871905 0.60573695233574 0.6174198236279482 0.2728079037520363 0.1892142760327642 0 0.1870158869877379 0.01299630811912299 0.3030040953559014 0.7163255557681143 0.3572695080005696 0.2127727685795605 1.031131008864385 0.2068380834435477 1:-0.6 2:0.0666667 3:-0.6 4:-0.2 5:-0.733333 6:-0.333333 7:0.2 8:0.333333 9:-0.333333 10:0.0666667 11:-0.2 12:-0.333333 13:-0.733333 14:0.2 15:-0.466667 16:0.0666667 
-0.427844481351305 0.4112122364609773 0.6843295166082162 0.3090160324292768 0.5893112004827298 0.5544683228150941 0.5969362713663199 0.3267069789533373 0.3758535833699056 0.3763189033749587 0.7550168147430542 0.3896789958747529 0.3722882261895855 0.4785282701593752 0.6459170478134603 0.4059391606729474 0.5415195512233032 0.4125244483847177 0.7174668807564264 0.6516127968439346 0.509684295206685 0.4428491095606726 0.350136958457195 0.257514337764026 0.4776443962149737 1:-0.333333 2:0.0666667 3:-0.2 4:0.333333 5:0.0666667 6:0.2 7:0.2 8:-0.733333 9:-0.6 10:-0.2 11:0.2 12:-0.2 13:0.2 14:0.466667 15:-0.0666667 16:-0.333333 
-0 0 0 0 0 0 0 0 0 0 0 0 0 0 0 0.1121356038403208 0.03123150178190432 0.03042127255182189 0 0 0 0 0 0 0 1:-0.6 2:-0.333333 3:-0.466667 4:0.0666667 5:-0.2 6:0.0666667 7:0.2 8:-0.6 9:-0.866667 10:0.0666667 11:-0.0666667 12:-0.2 13:-0.466667 14:0.333333 15:-0.333333 16:0.0666667 
-0 0 0 0 0 0 0 0 0.3323565113004857 0 0 0 0 0 0 0 0 0 0 0 0 0 0 0 0 1:-0.466667 2:0.2 3:-0.333333 4:-0.0666667 5:-0.466667 6:-0.333333 7:0.333333 8:-0.466667 9:-0.333333 10:0.333333 11:0.2 12:-0.466667 13:-0.466667 14:0.333333 15:-0.466667 16:-0.0666667 
-0 0 0 0 0 0 0 0 0 0 0 0 0 0 0 0 0.04511344548049794 0 0 0 0 0 0 0 0 1:-0.0666667 2:0.733333 3:-0.2 4:-0.0666667 5:-0.466667 6:0.2 7:0.0666667 8:-0.466667 9:-0.333333 10:0.733333 11:-0.466667 12:-0.466667 13:-0.466667 14:0.333333 15:-0.2 16:-0.2 
-0 0 0 0 0 0 0 0 0 0 0 0 0 0 0.696800758984931 0 0 0 0 0 0 0 0 0 0 1:-0.333333 2:0.333333 3:-0.0666667 4:0.0666667 5:-0.2 6:-0.2 7:-0.2 8:-0.2 9:-0.466667 10:-0.0666667 11:-0.2 12:0.2 13:-0.333333 14:0.0666667 15:-0.0666667 16:0.333333 
-0.224471168341088 0.2490354909260522 0 0.6964831621482125 0.1349288780124875 0 0 0.04714888371219866 0.07307326672885965 1.062470575918432 0.2182622662007486 0 0 0.2060166521776257 0.3085088810830611 0.497692217296431 0.7975627020510706 0.6202515783535295 0.02070581576800194 0 0.01393848115248227 0 0 0 0.4343051430814434 1:-0.466667 2:-0.466667 3:-0.333333 4:-0.2 5:-0.333333 6:0.2 7:0.333333 8:-0.733333 9:-0.6 10:-0.0666667 11:0.2 12:-0.333333 13:-0.466667 14:0.333333 15:-0.333333 16:-0.333333 
-0 0 0 0 0 0 0 0 0 0 0 0 0 0 0 0 0 0.4290747554475829 0 0 0 0 0 0 0 1:-0.466667 2:-0.0666667 3:-0.333333 4:-0.333333 5:-0.733333 6:-0.0666667 7:0.333333 8:-0.6 9:-0.333333 10:0.866667 11:-0.333333 12:-0.6 13:-1 14:0.333333 15:-0.6 16:0.0666667 
-0.6022507605581597 1.072080126203958 0.5272834679079874 13.34485407607799 0.3675757431363374 0.3084912760319569 0.38909184340567 0.5095019095918174 0.3454646098599159 0.298963992260706 0.4067883358187936 0.581118239889177 0.319792974400631 0.4452770018589414 0.3553655903742536 0.4073063574572184 1.809155337182592 1.041922471483695 0.1848130758761089 0.4306597796148317 3.061268982522799 0.5558046010181621 0.5412933636676761 0.28784444681049 0.5573222506832267 1:-0.733333 2:-0.0666667 3:-0.466667 4:-0.333333 5:-0.733333 6:-0.333333 7:0.466667 8:-0.6 9:-0.2 10:0.466667 11:0.2 12:-0.333333 13:-1 14:0.2 15:-0.6 16:-0.2 
