svm_type c_svc
kernel_type rbf
gamma 0.0078125
nr_class 2
total_sv 316
rho -0.317323
label 1 2
nr_sv 115 201
SV
1.405035803503876 6:1 7:1 15:1 21:1 29:1 33:1 34:1 37:1 48:1 50:1 53:1 57:1 67:1 76:1 78:1 81:1 84:1 86:1 95:1 103:1 111:1 
1.808941265686213 6:1 7:1 15:1 21:1 29:1 33:1 34:1 37:1 44:1 50:1 53:1 57:1 67:1 76:1 78:1 81:1 84:1 86:1 95:1 104:1 111:1 
1.779956569342683 6:1 7:1 15:1 21:1 29:1 33:1 34:1 37:1 42:1 50:1 53:1 57:1 67:1 76:1 78:1 81:1 84:1 86:1 93:1 103:1 111:1 
4.878266698413374 6:1 7:1 15:1 21:1 29:1 33:1 34:1 37:1 45:1 50:1 53:1 57:1 67:1 76:1 78:1 81:1 84:1 86:1 95:1 104:1 111:1 
2.298736178845326 6:1 7:1 15:1 21:1 29:1 33:1 34:1 37:1 45:1 50:1 53:1 57:1 67:1 76:1 78:1 81:1 84:1 86:1 95:1 103:1 111:1 
4.860756476854227 6:1 8:1 15:1 21:1 29:1 33:1 34:1 37:1 44:1 50:1 53:1 57:1 67:1 76:1 78:1 81:1 84:1 86:1 95:1 104:1 111:1 
0.1283962446176148 6:1 7:1 15:1 21:1 29:1 33:1 34:1 37:1 48:1 50:1 53:1 57:1 67:1 76:1 78:1 81:1 84:1 86:1 93:1 103:1 111:1 
0.3712883298866292 3:1 7:1 15:1 21:1 29:1 33:1 34:1 37:1 44:1 50:1 53:1 57:1 67:1 76:1 78:1 81:1 84:1 86:1 95:1 103:1 111:1 
0.4989815160692126 6:1 7:1 15:1 21:1 29:1 33:1 34:1 37:1 44:1 50:1 53:1 57:1 67:1 76:1 78:1 81:1 84:1 86:1 93:1 103:1 111:1 
2.180370340033194 3:1 7:1 15:1 21:1 29:1 33:1 34:1 37:1 45:1 50:1 53:1 57:1 67:1 76:1 78:1 81:1 84:1 86:1 95:1 103:1 111:1 
0.8144468596535201 3:1 8:1 15:1 21:1 29:1 33:1 34:1 37:1 42:1 50:1 53:1 57:1 67:1 76:1 78:1 81:1 84:1 86:1 95:1 103:1 111:1 
4.392111273649686 3:1 8:1 15:1 21:1 29:1 33:1 34:1 37:1 44:1 50:1 53:1 57:1 67:1 76:1 78:1 81:1 84:1 86:1 95:1 103:1 111:1 
3.272724113449884 3:1 7:1 15:1 21:1 29:1 33:1 34:1 37:1 44:1 50:1 53:1 57:1 67:1 76:1 78:1 81:1 84:1 86:1 93:1 103:1 111:1 
3.183556532550174 3:1 7:1 15:1 21:1 29:1 33:1 34:1 37:1 45:1 50:1 53:1 57:1 67:1 76:1 78:1 81:1 84:1 86:1 93:1 103:1 111:1 
1.971907924473466 3:1 7:1 15:1 21:1 29:1 33:1 34:1 37:1 42:1 50:1 53:1 57:1 67:1 76:1 78:1 81:1 84:1 86:1 93:1 103:1 111:1 
2.72286381204739 6:1 10:1 19:1 22:1 24:1 33:1 35:1 37:1 47:1 50:1 53:1 57:1 67:1 76:1 78:1 81:1 84:1 86:1 95:1 104:1 106:1 
2.597141090220892 6:1 10:1 14:1 22:1 24:1 33:1 35:1 37:1 40:1 50:1 53:1 57:1 67:1 76:1 78:1 81:1 84:1 86:1 93:1 103:1 106:1 
1.556884614780852 3:1 10:1 20:1 22:1 25:1 33:1 34:1 36:1 40:1 50:1 54:1 58:1 65:1 74:1 78:1 81:1 84:1 89:1 92:1 105:1 110:1 
2.82083308417808 6:1 8:1 19:1 22:1 24:1 33:1 35:1 37:1 40:1 50:1 53:1 57:1 67:1 76:1 78:1 81:1 84:1 86:1 95:1 103:1 106:1 
1.304104714119813 6:1 10:1 14:1 22:1 24:1 33:1 35:1 37:1 47:1 50:1 53:1 57:1 67:1 76:1 78:1 81:1 84:1 86:1 93:1 104:1 106:1 
7.273467310034407 6:1 8:1 19:1 22:1 24:1 33:1 35:1 37:1 44:1 50:1 53:1 57:1 67:1 76:1 78:1 81:1 84:1 86:1 95:1 104:1 106:1 
5.40237462427309 6:1 10:1 14:1 22:1 24:1 33:1 35:1 37:1 40:1 50:1 53:1 57:1 67:1 76:1 78:1 81:1 84:1 86:1 95:1 104:1 106:1 
3.405643285615789 6:1 10:1 14:1 22:1 24:1 33:1 35:1 37:1 44:1 50:1 53:1 57:1 67:1 76:1 78:1 81:1 84:1 86:1 95:1 104:1 106:1 
1.103770481947826 6:1 10:1 19:1 22:1 24:1 33:1 35:1 37:1 40:1 50:1 53:1 57:1 67:1 76:1 78:1 81:1 84:1 86:1 93:1 103:1 106:1 
8 6:1 10:1 14:1 22:1 24:1 33:1 35:1 37:1 45:1 50:1 53:1 57:1 67:1 76:1 78:1 81:1 84:1 86:1 95:1 104:1 106:1 
8 6:1 8:1 19:1 22:1 24:1 33:1 35:1 37:1 45:1 50:1 53:1 57:1 67:1 76:1 78:1 81:1 84:1 86:1 95:1 104:1 106:1 
8 6:1 10:1 19:1 22:1 24:1 33:1 35:1 37:1 45:1 50:1 53:1 57:1 67:1 76:1 78:1 81:1 84:1 86:1 95:1 104:1 106:1 
7.587646777072646 6:1 10:1 14:1 22:1 24:1 33:1 35:1 37:1 45:1 50:1 53:1 57:1 67:1 76:1 78:1 81:1 84:1 86:1 93:1 104:1 106:1 
3.455484318231999 6:1 8:1 19:1 22:1 24:1 33:1 35:1 37:1 40:1 50:1 53:1 57:1 67:1 76:1 78:1 81:1 84:1 86:1 93:1 103:1 106:1 
0.1184420511785006 6:1 8:1 19:1 22:1 24:1 33:1 35:1 37:1 47:1 50:1 53:1 57:1 67:1 76:1 78:1 81:1 84:1 86:1 95:1 104:1 106:1 
6.950760841001616 6:1 10:1 19:1 22:1 24:1 33:1 35:1 37:1 44:1 50:1 53:1 57:1 67:1 76:1 78:1 81:1 84:1 86:1 95:1 104:1 106:1 
2.412468860764546 3:1 10:1 14:1 22:1 25:1 33:1 34:1 36:1 40:1 50:1 54:1 58:1 65:1 74:1 78:1 81:1 84:1 89:1 92:1 105:1 110:1 
0.2471638270541112 6:1 8:1 19:1 22:1 24:1 33:1 35:1 37:1 47:1 50:1 53:1 57:1 67:1 76:1 78:1 81:1 84:1 86:1 93:1 103:1 106:1 
6.563372923485833 6:1 10:1 14:1 22:1 24:1 33:1 35:1 37:1 44:1 50:1 53:1 57:1 67:1 76:1 78:1 81:1 84:1 86:1 93:1 104:1 106:1 
8 4:1 7:1 15:1 22:1 28:1 33:1 34:1 37:1 48:1 50:1 54:1 56:1 67:1 74:1 78:1 81:1 84:1 88:1 98:1 104:1 106:1 
8 2:1 7:1 19:1 21:1 28:1 33:1 35:1 37:1 48:1 50:1 53:1 57:1 67:1 76:1 78:1 81:1 84:1 86:1 98:1 101:1 109:1 
0.1419533995390009 3:1 8:1 19:1 21:1 28:1 33:1 34:1 36:1 40:1 50:1 53:1 57:1 67:1 76:1 78:1 81:1 83:1 86:1 96:1 104:1 108:1 
8 3:1 8:1 16:1 21:1 28:1 33:1 34:1 36:1 48:1 50:1 53:1 57:1 67:1 76:1 78:1 81:1 83:1 86:1 96:1 104:1 107:1 
6.060430756916868 4:1 10:1 15:1 22:1 28:1 33:1 34:1 37:1 48:1 50:1 54:1 56:1 67:1 74:1 78:1 81:1 84:1 88:1 98:1 104:1 106:1 
8 2:1 8:1 19:1 21:1 28:1 33:1 34:1 36:1 40:1 50:1 53:1 57:1 67:1 76:1 78:1 81:1 83:1 86:1 96:1 104:1 108:1 
1.934661671563662 3:1 7:1 20:1 22:1 25:1 33:1 34:1 36:1 41:1 50:1 54:1 58:1 65:1 74:1 78:1 81:1 84:1 89:1 92:1 105:1 110:1 
8 3:1 7:1 15:1 22:1 28:1 33:1 34:1 37:1 48:1 50:1 54:1 56:1 67:1 74:1 78:1 81:1 84:1 88:1 98:1 104:1 106:1 
0.2739712695786793 3:1 8:1 14:1 21:1 25:1 33:1 34:1 36:1 45:1 51:1 53:1 59:1 67:1 76:1 78:1 81:1 84:1 86:1 92:1 103:1 111:1 
4.71954485161803 3:1 7:1 16:1 21:1 28:1 33:1 34:1 36:1 40:1 50:1 53:1 57:1 67:1 76:1 78:1 81:1 83:1 86:1 96:1 104:1 107:1 
0.3078303841505518 6:1 7:1 15:1 22:1 31:1 33:1 34:1 37:1 38:1 51:1 53:1 57:1 67:1 75:1 78:1 81:1 84:1 88:1 98:1 104:1 109:1 
8 6:1 7:1 15:1 22:1 28:1 33:1 34:1 37:1 48:1 50:1 54:1 56:1 67:1 74:1 78:1 81:1 84:1 88:1 98:1 104:1 106:1 
2.533666645904933 6:1 8:1 19:1 21:1 25:1 33:1 34:1 36:1 45:1 51:1 53:1 59:1 67:1 76:1 78:1 81:1 84:1 86:1 92:1 103:1 111:1 
5.890112949407935 2:1 7:1 16:1 21:1 28:1 33:1 34:1 36:1 48:1 50:1 53:1 57:1 67:1 76:1 78:1 81:1 83:1 86:1 96:1 104:1 107:1 
8 3:1 9:1 19:1 21:1 28:1 33:1 35:1 37:1 48:1 50:1 53:1 57:1 67:1 76:1 78:1 81:1 84:1 86:1 98:1 101:1 109:1 
3.691793384564019 6:1 8:1 19:1 21:1 25:1 33:1 34:1 36:1 48:1 51:1 53:1 59:1 67:1 76:1 78:1 81:1 84:1 86:1 92:1 103:1 111:1 
6.543489695870229 2:1 9:1 19:1 21:1 28:1 33:1 35:1 37:1 48:1 50:1 53:1 57:1 67:1 76:1 78:1 81:1 84:1 86:1 98:1 101:1 109:1 
8 6:1 10:1 15:1 22:1 28:1 33:1 34:1 37:1 48:1 50:1 54:1 56:1 67:1 74:1 78:1 81:1 84:1 88:1 98:1 104:1 106:1 
8 3:1 7:1 16:1 21:1 28:1 33:1 34:1 36:1 48:1 50:1 53:1 57:1 67:1 76:1 78:1 81:1 83:1 86:1 96:1 104:1 107:1 
8 3:1 10:1 15:1 22:1 28:1 33:1 34:1 37:1 48:1 50:1 54:1 56:1 67:1 74:1 78:1 81:1 84:1 88:1 98:1 104:1 106:1 
1.620970575868755 6:1 8:1 14:1 21:1 25:1 33:1 34:1 36:1 45:1 51:1 53:1 57:1 67:1 76:1 78:1 81:1 84:1 86:1 92:1 104:1 111:1 
8 3:1 7:1 16:1 21:1 28:1 33:1 34:1 36:1 48:1 50:1 53:1 57:1 67:1 76:1 78:1 81:1 83:1 86:1 96:1 104:1 108:1 
0.252148439378526 2:1 7:1 15:1 22:1 28:1 33:1 34:1 37:1 48:1 50:1 54:1 56:1 67:1 74:1 78:1 81:1 84:1 88:1 98:1 104:1 106:1 
8 4:1 7:1 19:1 21:1 28:1 33:1 35:1 37:1 48:1 50:1 53:1 57:1 67:1 76:1 78:1 81:1 84:1 86:1 98:1 101:1 109:1 
3.864832230253086 6:1 7:1 15:1 22:1 31:1 33:1 34:1 37:1 38:1 51:1 53:1 57:1 67:1 76:1 78:1 81:1 84:1 88:1 98:1 104:1 110:1 
8 3:1 7:1 19:1 21:1 28:1 33:1 35:1 37:1 48:1 50:1 53:1 57:1 67:1 76:1 78:1 81:1 84:1 86:1 98:1 101:1 109:1 
0.1599027814169162 6:1 8:1 14:1 21:1 25:1 33:1 34:1 36:1 48:1 51:1 53:1 59:1 67:1 76:1 78:1 81:1 84:1 86:1 92:1 104:1 111:1 
8 3:1 8:1 14:1 21:1 25:1 33:1 34:1 36:1 48:1 51:1 53:1 59:1 67:1 76:1 78:1 81:1 84:1 86:1 92:1 103:1 111:1 
0.314959711028769 6:1 8:1 19:1 21:1 25:1 33:1 34:1 36:1 41:1 51:1 53:1 59:1 67:1 76:1 78:1 81:1 84:1 86:1 92:1 103:1 111:1 
3.625631174867806 6:1 7:1 20:1 22:1 28:1 33:1 34:1 37:1 48:1 50:1 54:1 56:1 67:1 74:1 78:1 81:1 84:1 88:1 98:1 104:1 106:1 
6.690407544401087 3:1 8:1 16:1 21:1 28:1 33:1 34:1 36:1 48:1 50:1 53:1 57:1 67:1 76:1 78:1 81:1 83:1 86:1 96:1 104:1 108:1 
8 6:1 8:1 19:1 21:1 25:1 33:1 34:1 36:1 45:1 51:1 53:1 59:1 67:1 76:1 78:1 81:1 84:1 86:1 92:1 104:1 111:1 
1.897567107822402 6:1 8:1 14:1 21:1 25:1 33:1 34:1 36:1 48:1 51:1 55:1 57:1 67:1 76:1 78:1 81:1 84:1 86:1 92:1 103:1 111:1 
2.637317505172264 6:1 8:1 14:1 21:1 25:1 33:1 34:1 36:1 48:1 51:1 53:1 57:1 67:1 76:1 78:1 81:1 84:1 86:1 92:1 104:1 111:1 
5.029395920313116 3:1 7:1 12:1 21:1 28:1 33:1 34:1 36:1 48:1 50:1 53:1 57:1 67:1 76:1 78:1 81:1 83:1 86:1 96:1 104:1 108:1 
0.9732544316161824 2:1 8:1 16:1 21:1 28:1 33:1 34:1 36:1 48:1 50:1 53:1 57:1 67:1 76:1 78:1 81:1 83:1 86:1 96:1 104:1 107:1 
0.9096694326960252 3:1 8:1 19:1 21:1 25:1 33:1 34:1 36:1 45:1 51:1 53:1 59:1 67:1 76:1 78:1 81:1 84:1 86:1 92:1 103:1 111:1 
2.041831699129167 6:1 8:1 19:1 21:1 25:1 33:1 34:1 36:1 45:1 51:1 53:1 59:1 67:1 76:1 78:1 81:1 84:1 86:1 92:1 103:1 107:1 
2.299896976771451 6:1 8:1 19:1 21:1 25:1 33:1 34:1 36:1 45:1 51:1 55:1 59:1 67:1 76:1 78:1 81:1 84:1 86:1 92:1 103:1 107:1 
8 1:1 7:1 19:1 21:1 28:1 33:1 35:1 37:1 48:1 50:1 53:1 57:1 67:1 76:1 78:1 81:1 84:1 86:1 98:1 101:1 109:1 
0.09095071979009992 6:1 8:1 19:1 21:1 25:1 33:1 34:1 36:1 48:1 51:1 53:1 59:1 67:1 76:1 78:1 81:1 84:1 86:1 92:1 104:1 111:1 
8 2:1 8:1 19:1 21:1 28:1 33:1 34:1 36:1 40:1 50:1 53:1 57:1 67:1 76:1 78:1 81:1 83:1 86:1 96:1 104:1 107:1 
2.171650910643241 3:1 7:1 20:1 22:1 28:1 33:1 34:1 37:1 48:1 50:1 54:1 56:1 67:1 74:1 78:1 81:1 84:1 88:1 98:1 104:1 106:1 
0.6879715006047437 3:1 7:1 20:1 22:1 25:1 33:1 34:1 36:1 45:1 50:1 54:1 58:1 65:1 74:1 78:1 81:1 84:1 89:1 92:1 105:1 110:1 
1.48597325234107 3:1 10:1 20:1 22:1 28:1 33:1 34:1 37:1 48:1 50:1 54:1 56:1 67:1 74:1 78:1 81:1 84:1 88:1 98:1 104:1 106:1 
0.8932836243627394 2:1 7:1 12:1 21:1 28:1 33:1 34:1 36:1 48:1 50:1 53:1 57:1 67:1 76:1 78:1 81:1 83:1 86:1 96:1 104:1 107:1 
8 4:1 9:1 19:1 21:1 28:1 33:1 35:1 37:1 48:1 50:1 53:1 57:1 67:1 76:1 78:1 81:1 84:1 86:1 98:1 101:1 109:1 
6.004572776119868 6:1 7:1 15:1 22:1 30:1 33:1 34:1 37:1 38:1 51:1 53:1 57:1 67:1 76:1 78:1 81:1 84:1 88:1 98:1 104:1 110:1 
1.1924125155088 6:1 8:1 19:1 21:1 25:1 33:1 34:1 36:1 41:1 51:1 53:1 59:1 67:1 76:1 78:1 81:1 84:1 86:1 92:1 104:1 111:1 
8 3:1 7:1 19:1 21:1 28:1 33:1 34:1 36:1 48:1 50:1 53:1 57:1 67:1 76:1 78:1 81:1 83:1 86:1 96:1 104:1 107:1 
5.593181401552868 3:1 8:1 12:1 21:1 28:1 33:1 34:1 36:1 48:1 50:1 53:1 57:1 67:1 76:1 78:1 81:1 83:1 86:1 96:1 104:1 107:1 
5.558526311838623 3:1 8:1 19:1 21:1 28:1 33:1 34:1 36:1 48:1 50:1 53:1 57:1 67:1 76:1 78:1 81:1 83:1 86:1 96:1 104:1 107:1 
3.195605406469074 6:1 8:1 14:1 21:1 25:1 33:1 34:1 36:1 48:1 51:1 53:1 57:1 67:1 76:1 78:1 81:1 84:1 86:1 92:1 103:1 111:1 
1.164382966910463 3:1 8:1 19:1 21:1 28:1 33:1 34:1 36:1 40:1 50:1 53:1 57:1 67:1 76:1 78:1 81:1 83:1 86:1 96:1 104:1 107:1 
0.3371178858587647 2:1 8:1 16:1 21:1 28:1 33:1 34:1 36:1 40:1 50:1 53:1 57:1 67:1 76:1 78:1 81:1 83:1 86:1 96:1 104:1 108:1 
8 3:1 7:1 12:1 21:1 28:1 33:1 34:1 36:1 48:1 50:1 53:1 57:1 67:1 76:1 78:1 81:1 83:1 86:1 96:1 104:1 107:1 
0.9538460899610021 2:1 10:1 15:1 22:1 28:1 33:1 34:1 37:1 48:1 50:1 54:1 56:1 67:1 74:1 78:1 81:1 84:1 88:1 98:1 104:1 106:1 
3.30927739687155 3:1 7:1 12:1 21:1 28:1 33:1 34:1 36:1 40:1 50:1 53:1 57:1 67:1 76:1 78:1 81:1 83:1 86:1 96:1 104:1 107:1 
1.040042201788127 3:1 8:1 19:1 21:1 25:1 33:1 34:1 36:1 41:1 51:1 53:1 59:1 67:1 76:1 78:1 81:1 84:1 86:1 92:1 103:1 111:1 
2.405665072692742 3:1 7:1 15:1 22:1 30:1 33:1 34:1 37:1 38:1 51:1 53:1 57:1 67:1 76:1 78:1 81:1 84:1 88:1 98:1 104:1 110:1 
1.237902619207761 6:1 7:1 13:1 22:1 31:1 33:1 34:1 37:1 38:1 51:1 53:1 57:1 67:1 76:1 78:1 81:1 84:1 88:1 98:1 104:1 110:1 
0.8562953951589715 3:1 8:1 13:1 22:1 31:1 33:1 34:1 37:1 38:1 51:1 53:1 57:1 67:1 76:1 78:1 81:1 84:1 88:1 98:1 104:1 110:1 
3.884192192568745 3:1 8:1 15:1 22:1 31:1 33:1 34:1 37:1 38:1 51:1 53:1 57:1 67:1 76:1 78:1 81:1 84:1 88:1 98:1 104:1 110:1 
0.5155319239953563 3:1 8:1 15:1 22:1 31:1 33:1 34:1 37:1 38:1 51:1 53:1 57:1 66:1 76:1 78:1 81:1 84:1 88:1 98:1 104:1 110:1 
0.4894553626115919 6:1 7:1 13:1 22:1 30:1 33:1 34:1 37:1 38:1 51:1 53:1 57:1 67:1 76:1 78:1 81:1 84:1 88:1 98:1 104:1 110:1 
1.347451829729979 3:1 8:1 13:1 22:1 30:1 33:1 34:1 37:1 38:1 51:1 53:1 57:1 67:1 76:1 78:1 81:1 84:1 88:1 98:1 104:1 110:1 
4.754881178340895 3:1 8:1 15:1 22:1 30:1 33:1 34:1 37:1 38:1 51:1 53:1 57:1 67:1 76:1 78:1 81:1 84:1 88:1 98:1 104:1 110:1 
4.37301932047499 3:1 7:1 15:1 22:1 31:1 33:1 34:1 37:1 38:1 51:1 53:1 57:1 67:1 76:1 78:1 81:1 84:1 88:1 98:1 104:1 110:1 
0.1456916551570499 4:1 7:1 15:1 22:1 30:1 33:1 34:1 37:1 38:1 51:1 53:1 57:1 67:1 75:1 78:1 81:1 84:1 88:1 98:1 104:1 109:1 
0.5295771127835659 4:1 7:1 20:1 22:1 28:1 33:1 35:1 37:1 49:1 50:1 52:1 56:1 68:1 77:1 78:1 79:1 84:1 88:1 98:1 101:1 109:1 
8 3:1 7:1 20:1 22:1 28:1 33:1 35:1 37:1 48:1 50:1 52:1 56:1 68:1 77:1 78:1 79:1 84:1 88:1 98:1 101:1 109:1 
0.9642325042859774 3:1 7:1 20:1 22:1 28:1 33:1 35:1 37:1 49:1 50:1 52:1 56:1 68:1 77:1 78:1 79:1 84:1 88:1 98:1 101:1 109:1 
0.1909037650211606 4:1 7:1 15:1 22:1 30:1 33:1 34:1 37:1 38:1 51:1 53:1 57:1 67:1 75:1 78:1 81:1 84:1 88:1 98:1 104:1 110:1 
0.7381806184115491 4:1 8:1 15:1 22:1 31:1 33:1 34:1 37:1 38:1 51:1 53:1 57:1 66:1 75:1 78:1 81:1 84:1 88:1 98:1 104:1 110:1 
1.142610281973418 4:1 7:1 20:1 22:1 28:1 33:1 35:1 37:1 48:1 50:1 52:1 56:1 68:1 77:1 78:1 79:1 84:1 88:1 98:1 101:1 109:1 
2.209161747732611 3:1 7:1 11:1 22:1 26:1 32:1 34:1 36:1 48:1 50:1 54:1 56:1 60:1 69:1 78:1 81:1 85:1 87:1 98:1 101:1 106:1 
0.8241088026974579 4:1 8:1 15:1 22:1 30:1 33:1 34:1 37:1 38:1 51:1 53:1 57:1 66:1 75:1 78:1 81:1 84:1 88:1 98:1 104:1 110:1 
0.177167785087545 4:1 8:1 15:1 22:1 31:1 33:1 34:1 37:1 38:1 51:1 53:1 57:1 67:1 76:1 78:1 81:1 84:1 88:1 98:1 104:1 110:1 
0.2157509286565281 4:1 7:1 15:1 22:1 31:1 33:1 34:1 37:1 38:1 51:1 53:1 57:1 67:1 75:1 78:1 81:1 84:1 88:1 98:1 104:1 110:1 
0.2134432427747247 4:1 7:1 11:1 22:1 26:1 32:1 34:1 36:1 49:1 50:1 54:1 56:1 60:1 69:1 78:1 81:1 85:1 87:1 98:1 101:1 106:1 
0.1156076090807513 3:1 7:1 11:1 22:1 26:1 32:1 34:1 36:1 49:1 50:1 54:1 56:1 60:1 69:1 78:1 81:1 85:1 87:1 98:1 101:1 106:1 
-5.317406627962066 2:1 8:1 19:1 21:1 27:1 33:1 34:1 36:1 40:1 50:1 53:1 57:1 67:1 76:1 78:1 81:1 84:1 86:1 93:1 103:1 108:1 
-0.1522145056794898 5:1 10:1 14:1 22:1 28:1 33:1 34:1 37:1 42:1 50:1 53:1 57:1 67:1 76:1 78:1 81:1 84:1 86:1 93:1 104:1 111:1 
-1.484773044882662 3:1 7:1 20:1 21:1 23:1 33:1 34:1 36:1 48:1 50:1 53:1 56:1 67:1 76:1 78:1 81:1 84:1 86:1 95:1 103:1 107:1 
-7.918377048343664 6:1 10:1 14:1 22:1 28:1 33:1 34:1 37:1 45:1 50:1 53:1 57:1 67:1 76:1 78:1 81:1 84:1 86:1 95:1 104:1 111:1 
-0.7271046708237392 2:1 7:1 19:1 21:1 27:1 33:1 34:1 36:1 40:1 50:1 53:1 57:1 67:1 76:1 78:1 81:1 84:1 86:1 95:1 103:1 108:1 
-4.59440536678107 3:1 7:1 20:1 21:1 27:1 33:1 34:1 36:1 48:1 50:1 53:1 56:1 67:1 76:1 78:1 81:1 84:1 86:1 95:1 103:1 107:1 
-1.306014178148837 2:1 7:1 19:1 21:1 23:1 33:1 34:1 36:1 40:1 50:1 53:1 57:1 67:1 76:1 78:1 81:1 84:1 86:1 95:1 103:1 108:1 
-0.4093378905188116 6:1 10:1 19:1 21:1 23:1 33:1 35:1 37:1 48:1 51:1 53:1 57:1 67:1 76:1 78:1 81:1 84:1 86:1 97:1 104:1 106:1 
-1.435257175477005 6:1 8:1 20:1 21:1 27:1 33:1 35:1 37:1 45:1 51:1 53:1 57:1 67:1 76:1 78:1 81:1 84:1 86:1 97:1 104:1 106:1 
-4.741438829579192 3:1 8:1 19:1 21:1 27:1 33:1 35:1 37:1 48:1 51:1 53:1 57:1 67:1 76:1 78:1 81:1 84:1 86:1 97:1 104:1 106:1 
-0.4199617623552107 2:1 7:1 19:1 21:1 23:1 33:1 34:1 36:1 40:1 50:1 53:1 57:1 67:1 76:1 78:1 81:1 84:1 86:1 93:1 102:1 108:1 
-1.25043826886262 2:1 8:1 19:1 21:1 23:1 33:1 34:1 36:1 48:1 50:1 53:1 57:1 67:1 76:1 78:1 81:1 84:1 86:1 93:1 103:1 108:1 
-1.186625968110029 3:1 10:1 15:1 22:1 28:1 33:1 34:1 37:1 40:1 50:1 53:1 57:1 67:1 76:1 78:1 81:1 84:1 86:1 93:1 104:1 111:1 
-0.01498837520033847 3:1 10:1 14:1 22:1 28:1 33:1 34:1 37:1 45:1 50:1 53:1 57:1 67:1 76:1 78:1 81:1 84:1 86:1 93:1 104:1 111:1 
-1.402340983700552 6:1 8:1 19:1 21:1 27:1 33:1 35:1 37:1 48:1 51:1 53:1 57:1 67:1 76:1 78:1 81:1 84:1 86:1 95:1 104:1 106:1 
-0.1526291752397771 2:1 8:1 19:1 21:1 23:1 33:1 34:1 36:1 42:1 50:1 53:1 57:1 67:1 76:1 78:1 81:1 84:1 86:1 93:1 103:1 108:1 
-0.4214361626915573 5:1 10:1 14:1 22:1 28:1 33:1 34:1 37:1 45:1 50:1 53:1 57:1 67:1 76:1 78:1 81:1 84:1 86:1 95:1 104:1 111:1 
-1.114753185115946 3:1 10:1 15:1 22:1 28:1 33:1 34:1 37:1 42:1 50:1 53:1 57:1 67:1 76:1 78:1 81:1 84:1 86:1 93:1 104:1 111:1 
-1.442614395298027 6:1 10:1 19:1 21:1 27:1 33:1 35:1 37:1 48:1 51:1 53:1 57:1 67:1 76:1 78:1 81:1 84:1 86:1 95:1 104:1 106:1 
-0.07392629297136417 6:1 8:1 19:1 21:1 27:1 33:1 35:1 37:1 45:1 51:1 53:1 57:1 67:1 76:1 78:1 81:1 84:1 86:1 97:1 104:1 106:1 
-0.398333675239916 3:1 7:1 20:1 21:1 23:1 33:1 34:1 36:1 48:1 50:1 53:1 56:1 67:1 76:1 78:1 81:1 84:1 86:1 95:1 105:1 107:1 
-2.348451300661599 3:1 10:1 15:1 22:1 28:1 33:1 34:1 37:1 42:1 50:1 53:1 57:1 67:1 76:1 78:1 81:1 84:1 86:1 95:1 104:1 111:1 
-0.2859551388089403 2:1 7:1 19:1 21:1 23:1 33:1 34:1 36:1 40:1 50:1 53:1 57:1 67:1 76:1 78:1 81:1 84:1 86:1 95:1 102:1 108:1 
-3.916361223274369 3:1 7:1 15:1 21:1 27:1 33:1 34:1 36:1 48:1 50:1 53:1 56:1 67:1 76:1 78:1 81:1 84:1 86:1 95:1 103:1 107:1 
-4.776641070891436 3:1 10:1 14:1 22:1 28:1 33:1 34:1 37:1 40:1 50:1 53:1 57:1 67:1 76:1 78:1 81:1 84:1 86:1 93:1 104:1 111:1 
-0.4261361039309075 3:1 7:1 15:1 21:1 23:1 33:1 34:1 36:1 44:1 50:1 53:1 56:1 67:1 76:1 78:1 81:1 84:1 86:1 93:1 103:1 107:1 
-1.75280418088659 6:1 10:1 19:1 21:1 23:1 33:1 35:1 37:1 45:1 51:1 53:1 57:1 67:1 76:1 78:1 81:1 84:1 86:1 95:1 104:1 106:1 
-0.08050941506124668 3:1 8:1 19:1 21:1 27:1 33:1 35:1 37:1 48:1 51:1 53:1 57:1 67:1 76:1 78:1 81:1 84:1 86:1 95:1 104:1 106:1 
-7.87902008318279 6:1 10:1 14:1 22:1 28:1 33:1 34:1 37:1 40:1 50:1 53:1 57:1 67:1 76:1 78:1 81:1 84:1 86:1 95:1 104:1 111:1 
-0.4020035963266601 3:1 10:1 15:1 22:1 28:1 33:1 34:1 37:1 45:1 50:1 53:1 57:1 67:1 76:1 78:1 81:1 84:1 86:1 93:1 104:1 111:1 
-1.906999291781291 3:1 7:1 15:1 21:1 23:1 33:1 34:1 36:1 48:1 50:1 53:1 56:1 67:1 76:1 78:1 81:1 84:1 86:1 93:1 103:1 107:1 
-4.504047460294703 6:1 10:1 14:1 22:1 28:1 33:1 34:1 37:1 44:1 50:1 53:1 57:1 67:1 76:1 78:1 81:1 84:1 86:1 93:1 104:1 111:1 
-1.595291311074215 3:1 7:1 15:1 21:1 27:1 33:1 34:1 36:1 48:1 50:1 53:1 56:1 67:1 76:1 78:1 81:1 84:1 86:1 93:1 103:1 107:1 
-8 6:1 8:1 19:1 21:1 23:1 33:1 35:1 37:1 44:1 51:1 53:1 57:1 67:1 76:1 78:1 81:1 84:1 86:1 95:1 104:1 106:1 
-0.06748544801501685 3:1 10:1 14:1 22:1 28:1 33:1 34:1 37:1 44:1 50:1 53:1 57:1 67:1 76:1 78:1 81:1 84:1 86:1 95:1 104:1 111:1 
-0.1268671809894263 3:1 8:1 19:1 21:1 27:1 33:1 35:1 37:1 44:1 51:1 53:1 57:1 67:1 76:1 78:1 81:1 84:1 86:1 95:1 104:1 106:1 
-2.857726075763077 6:1 7:1 15:1 21:1 27:1 33:1 34:1 36:1 45:1 50:1 53:1 56:1 67:1 76:1 78:1 81:1 84:1 86:1 93:1 103:1 107:1 
-0.8356064390004809 2:1 8:1 19:1 21:1 27:1 33:1 34:1 36:1 48:1 50:1 53:1 57:1 67:1 76:1 78:1 81:1 84:1 86:1 93:1 103:1 108:1 
-1.0502973777745 6:1 10:1 15:1 22:1 28:1 33:1 34:1 37:1 42:1 50:1 53:1 57:1 67:1 76:1 78:1 81:1 84:1 86:1 93:1 104:1 111:1 
-8 6:1 8:1 19:1 21:1 23:1 33:1 35:1 37:1 45:1 51:1 53:1 57:1 67:1 76:1 78:1 81:1 84:1 86:1 95:1 104:1 106:1 
-1.978172539347081 3:1 8:1 19:1 21:1 27:1 33:1 35:1 37:1 45:1 51:1 53:1 57:1 67:1 76:1 78:1 81:1 84:1 86:1 97:1 104:1 106:1 
-2.189465994541116 3:1 8:1 19:1 21:1 23:1 33:1 35:1 37:1 48:1 51:1 53:1 57:1 67:1 76:1 78:1 81:1 84:1 86:1 95:1 104:1 106:1 
-0.4158139804287422 3:1 7:1 15:1 21:1 23:1 33:1 34:1 36:1 45:1 50:1 53:1 56:1 67:1 76:1 78:1 81:1 84:1 86:1 95:1 103:1 107:1 
-0.1923471012599419 6:1 10:1 19:1 21:1 23:1 33:1 35:1 37:1 44:1 51:1 53:1 57:1 67:1 76:1 78:1 81:1 84:1 86:1 95:1 104:1 106:1 
-0.09866464572491598 3:1 10:1 14:1 22:1 28:1 33:1 34:1 37:1 45:1 50:1 53:1 57:1 67:1 76:1 78:1 81:1 84:1 86:1 95:1 104:1 111:1 
-1.441993924665451 5:1 10:1 14:1 22:1 28:1 33:1 34:1 37:1 44:1 50:1 53:1 57:1 67:1 76:1 78:1 81:1 84:1 86:1 95:1 104:1 111:1 
-0.4599710554872116 6:1 10:1 15:1 22:1 28:1 33:1 34:1 37:1 42:1 50:1 53:1 57:1 67:1 76:1 78:1 81:1 84:1 86:1 95:1 104:1 111:1 
-0.299778410395017 3:1 8:1 19:1 21:1 23:1 33:1 35:1 37:1 45:1 51:1 53:1 57:1 67:1 76:1 78:1 81:1 84:1 86:1 97:1 104:1 106:1 
-0.3961139701089015 3:1 10:1 14:1 22:1 28:1 33:1 34:1 37:1 40:1 50:1 53:1 57:1 67:1 76:1 78:1 81:1 84:1 86:1 95:1 104:1 111:1 
-1.895295473780371 3:1 8:1 19:1 21:1 27:1 33:1 35:1 37:1 45:1 51:1 53:1 57:1 67:1 76:1 78:1 81:1 84:1 86:1 95:1 104:1 106:1 
-5.294219785626664 6:1 10:1 19:1 21:1 27:1 33:1 35:1 37:1 48:1 51:1 53:1 57:1 67:1 76:1 78:1 81:1 84:1 86:1 97:1 104:1 106:1 
-1.151448340719605 6:1 8:1 20:1 21:1 23:1 33:1 35:1 37:1 44:1 51:1 53:1 57:1 67:1 76:1 78:1 81:1 84:1 86:1 97:1 104:1 106:1 
-2.33439132426536 6:1 10:1 15:1 22:1 28:1 33:1 34:1 37:1 45:1 50:1 53:1 57:1 67:1 76:1 78:1 81:1 84:1 86:1 95:1 104:1 111:1 
-5.68456534685996 3:1 7:1 20:1 21:1 23:1 33:1 34:1 36:1 48:1 50:1 53:1 56:1 67:1 76:1 78:1 81:1 84:1 86:1 93:1 103:1 107:1 
-0.3067120803043245 3:1 10:1 14:1 22:1 28:1 33:1 34:1 37:1 44:1 50:1 53:1 57:1 67:1 76:1 78:1 81:1 84:1 86:1 93:1 104:1 111:1 
-1.056616904184959 6:1 7:1 15:1 21:1 27:1 33:1 34:1 36:1 44:1 50:1 53:1 56:1 67:1 76:1 78:1 81:1 84:1 86:1 93:1 103:1 107:1 
-4.506727751389199 6:1 7:1 15:1 21:1 23:1 33:1 34:1 36:1 45:1 50:1 53:1 56:1 67:1 76:1 78:1 81:1 84:1 86:1 95:1 103:1 107:1 
-0.5330530524928013 6:1 8:1 20:1 21:1 27:1 33:1 35:1 37:1 44:1 51:1 53:1 57:1 67:1 76:1 78:1 81:1 84:1 86:1 97:1 104:1 106:1 
-2.394776891584034 3:1 7:1 20:1 21:1 23:1 33:1 34:1 36:1 48:1 50:1 53:1 56:1 67:1 76:1 78:1 81:1 84:1 86:1 93:1 105:1 107:1 
-0.9045893528931233 3:1 7:1 15:1 21:1 23:1 33:1 34:1 36:1 48:1 50:1 53:1 56:1 67:1 76:1 78:1 81:1 84:1 86:1 95:1 103:1 107:1 
-0.9300570993122378 3:1 10:1 15:1 22:1 28:1 33:1 34:1 37:1 45:1 50:1 53:1 57:1 67:1 76:1 78:1 81:1 84:1 86:1 95:1 104:1 111:1 
-2.755375169361068 2:1 8:1 19:1 21:1 23:1 33:1 34:1 36:1 40:1 50:1 53:1 57:1 67:1 76:1 78:1 81:1 84:1 86:1 93:1 103:1 108:1 
-8 6:1 8:1 19:1 21:1 27:1 33:1 35:1 37:1 44:1 51:1 53:1 57:1 67:1 76:1 78:1 81:1 84:1 86:1 95:1 104:1 106:1 
-1.132324321730085 3:1 10:1 14:1 22:1 28:1 33:1 34:1 37:1 42:1 50:1 53:1 57:1 67:1 76:1 78:1 81:1 84:1 86:1 93:1 104:1 111:1 
-0.1270766747734396 6:1 7:1 15:1 21:1 23:1 33:1 34:1 36:1 44:1 50:1 53:1 56:1 67:1 76:1 78:1 81:1 84:1 86:1 95:1 103:1 107:1 
-0.3582534333555309 3:1 7:1 15:1 21:1 23:1 33:1 34:1 36:1 44:1 50:1 53:1 56:1 67:1 76:1 78:1 81:1 84:1 86:1 95:1 103:1 107:1 
-1.499459923992018 3:1 7:1 20:1 21:1 27:1 33:1 34:1 36:1 48:1 50:1 53:1 56:1 67:1 76:1 78:1 81:1 84:1 86:1 93:1 105:1 107:1 
-2.563637068424645 6:1 10:1 19:1 21:1 23:1 33:1 35:1 37:1 48:1 51:1 53:1 57:1 67:1 76:1 78:1 81:1 84:1 86:1 95:1 104:1 106:1 
-8 6:1 10:1 14:1 22:1 28:1 33:1 34:1 37:1 45:1 50:1 53:1 57:1 67:1 76:1 78:1 81:1 84:1 86:1 93:1 104:1 111:1 
-0.6583541239260874 6:1 7:1 15:1 21:1 23:1 33:1 34:1 36:1 45:1 50:1 53:1 56:1 67:1 76:1 78:1 81:1 84:1 86:1 93:1 103:1 107:1 
-0.4333550010836307 3:1 8:1 19:1 21:1 23:1 33:1 35:1 37:1 44:1 51:1 53:1 57:1 67:1 76:1 78:1 81:1 84:1 86:1 97:1 104:1 106:1 
-8 6:1 8:1 19:1 21:1 27:1 33:1 35:1 37:1 45:1 51:1 53:1 57:1 67:1 76:1 78:1 81:1 84:1 86:1 95:1 104:1 106:1 
-0.9848375589704685 6:1 10:1 15:1 22:1 28:1 33:1 34:1 37:1 44:1 50:1 53:1 57:1 67:1 76:1 78:1 81:1 84:1 86:1 93:1 104:1 111:1 
-1.305221326193431 3:1 7:1 20:1 21:1 27:1 33:1 34:1 36:1 48:1 50:1 53:1 56:1 67:1 76:1 78:1 81:1 84:1 86:1 93:1 103:1 107:1 
-0.5778753894084481 6:1 10:1 14:1 22:1 28:1 33:1 34:1 37:1 42:1 50:1 53:1 57:1 67:1 76:1 78:1 81:1 84:1 86:1 93:1 104:1 111:1 
-1.629804318470872 3:1 10:1 19:1 21:1 23:1 33:1 35:1 37:1 48:1 51:1 53:1 57:1 67:1 76:1 78:1 81:1 84:1 86:1 97:1 104:1 106:1 
-0.4127438883692351 5:1 10:1 14:1 22:1 28:1 33:1 34:1 37:1 45:1 50:1 53:1 57:1 67:1 76:1 78:1 81:1 84:1 86:1 93:1 104:1 111:1 
-0.05898299316862753 3:1 7:1 15:1 21:1 23:1 33:1 34:1 36:1 45:1 50:1 53:1 56:1 67:1 76:1 78:1 81:1 84:1 86:1 93:1 103:1 107:1 
-4.343942410099038 3:1 10:1 15:1 22:1 28:1 33:1 34:1 37:1 44:1 50:1 53:1 57:1 67:1 76:1 78:1 81:1 84:1 86:1 95:1 104:1 111:1 
-1.639849044739472 3:1 7:1 20:1 21:1 27:1 33:1 34:1 36:1 48:1 50:1 53:1 56:1 67:1 76:1 78:1 81:1 84:1 86:1 95:1 105:1 107:1 
-2.835725712607924 6:1 8:1 19:1 21:1 23:1 33:1 35:1 37:1 45:1 51:1 53:1 57:1 67:1 76:1 78:1 81:1 84:1 86:1 97:1 104:1 106:1 
-0.1071370252712062 6:1 7:1 15:1 21:1 27:1 33:1 34:1 36:1 45:1 50:1 53:1 56:1 67:1 76:1 78:1 81:1 84:1 86:1 95:1 103:1 107:1 
-0.9982269201466399 2:1 8:1 19:1 21:1 27:1 33:1 34:1 36:1 42:1 50:1 53:1 57:1 67:1 76:1 78:1 81:1 84:1 86:1 93:1 103:1 108:1 
-2.041458701161887 3:1 10:1 15:1 22:1 28:1 33:1 34:1 37:1 44:1 50:1 53:1 57:1 67:1 76:1 78:1 81:1 84:1 86:1 93:1 104:1 111:1 
-7.647317491922162 3:1 8:1 19:1 21:1 23:1 33:1 35:1 37:1 48:1 51:1 53:1 57:1 67:1 76:1 78:1 81:1 84:1 86:1 97:1 104:1 106:1 
-0.6716623910574602 3:1 7:1 15:1 21:1 27:1 33:1 34:1 36:1 44:1 50:1 53:1 56:1 67:1 76:1 78:1 81:1 84:1 86:1 95:1 103:1 107:1 
-2.793937578011783 6:1 10:1 15:1 22:1 28:1 33:1 34:1 37:1 44:1 50:1 53:1 57:1 67:1 76:1 78:1 81:1 84:1 86:1 95:1 104:1 111:1 
-1.140336132271187 6:1 10:1 19:1 21:1 27:1 33:1 35:1 37:1 45:1 51:1 53:1 57:1 67:1 76:1 78:1 81:1 84:1 86:1 95:1 104:1 106:1 
-0.06529063466605275 6:1 7:1 15:1 21:1 27:1 33:1 34:1 36:1 44:1 50:1 53:1 56:1 67:1 76:1 78:1 81:1 84:1 86:1 95:1 103:1 107:1 
-1.02406230093756 3:1 7:1 15:1 21:1 27:1 33:1 34:1 36:1 45:1 50:1 53:1 56:1 67:1 76:1 78:1 81:1 84:1 86:1 93:1 103:1 107:1 
-2.142562184662766 6:1 10:1 14:1 22:1 28:1 33:1 34:1 37:1 40:1 50:1 53:1 57:1 67:1 76:1 78:1 81:1 84:1 86:1 93:1 104:1 111:1 
-4.446674708424009 3:1 10:1 15:1 22:1 28:1 33:1 34:1 37:1 40:1 50:1 53:1 57:1 67:1 76:1 78:1 81:1 84:1 86:1 95:1 104:1 111:1 
-0.3354414588429716 2:1 7:1 19:1 21:1 27:1 33:1 34:1 36:1 40:1 50:1 53:1 57:1 67:1 76:1 78:1 81:1 84:1 86:1 93:1 102:1 108:1 
-0.1879799270171645 6:1 8:1 20:1 21:1 23:1 33:1 35:1 37:1 45:1 51:1 53:1 57:1 67:1 76:1 78:1 81:1 84:1 86:1 97:1 104:1 106:1 
-0.256891159191928 6:1 10:1 19:1 21:1 23:1 33:1 35:1 37:1 45:1 51:1 53:1 57:1 67:1 76:1 78:1 81:1 84:1 86:1 97:1 104:1 106:1 
-0.2545022542764297 2:1 7:1 19:1 21:1 27:1 33:1 34:1 36:1 40:1 50:1 53:1 57:1 67:1 76:1 78:1 81:1 84:1 86:1 95:1 102:1 108:1 
-1.158696581327485 6:1 7:1 15:1 21:1 23:1 33:1 34:1 36:1 44:1 50:1 53:1 56:1 67:1 76:1 78:1 81:1 84:1 86:1 93:1 103:1 107:1 
-3.040260092822322 6:1 10:1 14:1 22:1 28:1 33:1 34:1 37:1 44:1 50:1 53:1 57:1 67:1 76:1 78:1 81:1 84:1 86:1 95:1 104:1 111:1 
-1.343834536415634 3:1 8:1 19:1 21:1 27:1 33:1 35:1 37:1 44:1 51:1 53:1 57:1 67:1 76:1 78:1 81:1 84:1 86:1 97:1 104:1 106:1 
-2.073984427608697 2:1 8:1 19:1 21:1 23:1 33:1 34:1 36:1 40:1 50:1 53:1 57:1 67:1 76:1 78:1 81:1 84:1 86:1 95:1 103:1 108:1 
-0.1634765470176456 3:1 7:1 13:1 21:1 28:1 33:1 34:1 36:1 48:1 51:1 53:1 57:1 66:1 75:1 78:1 81:1 84:1 86:1 93:1 104:1 106:1 
-1.811329399358677 3:1 7:1 13:1 21:1 28:1 33:1 34:1 36:1 47:1 51:1 53:1 57:1 66:1 75:1 78:1 81:1 84:1 86:1 93:1 104:1 106:1 
-0.0149493456974887 3:1 7:1 13:1 21:1 28:1 33:1 34:1 36:1 47:1 51:1 53:1 57:1 66:1 72:1 78:1 81:1 84:1 86:1 93:1 104:1 106:1 
-0.2128022401160461 3:1 7:1 13:1 21:1 28:1 33:1 34:1 36:1 47:1 51:1 53:1 57:1 63:1 75:1 78:1 81:1 84:1 86:1 93:1 104:1 106:1 
-0.06987427374279007 3:1 7:1 13:1 21:1 28:1 33:1 34:1 36:1 48:1 51:1 53:1 57:1 63:1 75:1 78:1 81:1 84:1 86:1 93:1 104:1 106:1 
-0.0403492385604256 3:1 7:1 13:1 21:1 28:1 33:1 34:1 36:1 47:1 51:1 53:1 57:1 63:1 72:1 78:1 81:1 84:1 86:1 93:1 104:1 106:1 
-0.1169217218362877 3:1 7:1 13:1 21:1 28:1 33:1 34:1 36:1 48:1 51:1 53:1 57:1 66:1 72:1 78:1 81:1 84:1 86:1 93:1 104:1 106:1 
-0.2837895304106489 6:1 7:1 18:1 22:1 28:1 33:1 34:1 37:1 41:1 50:1 53:1 59:1 67:1 76:1 78:1 81:1 84:1 90:1 92:1 104:1 106:1 
-8 3:1 7:1 12:1 21:1 28:1 33:1 34:1 36:1 48:1 50:1 53:1 57:1 67:1 76:1 78:1 81:1 83:1 88:1 98:1 101:1 112:1 
-7.1752675230195 4:1 7:1 15:1 22:1 28:1 33:1 35:1 37:1 48:1 50:1 55:1 57:1 67:1 74:1 78:1 81:1 84:1 88:1 98:1 104:1 109:1 
-0.01804682157176336 3:1 7:1 16:1 21:1 28:1 33:1 34:1 36:1 48:1 50:1 53:1 57:1 62:1 71:1 78:1 81:1 83:1 88:1 98:1 101:1 112:1 
-0.3913588566900384 3:1 7:1 16:1 21:1 28:1 33:1 34:1 36:1 39:1 50:1 53:1 57:1 62:1 71:1 78:1 81:1 83:1 88:1 98:1 101:1 112:1 
-5.741240034992263 3:1 7:1 19:1 22:1 28:1 33:1 34:1 37:1 41:1 50:1 53:1 59:1 67:1 76:1 78:1 81:1 84:1 90:1 92:1 104:1 106:1 
-5.392762485951307 3:1 8:1 12:1 21:1 28:1 33:1 34:1 36:1 48:1 50:1 53:1 57:1 67:1 76:1 78:1 81:1 83:1 88:1 98:1 101:1 112:1 
-0.5652878968145286 3:1 8:1 12:1 21:1 28:1 33:1 34:1 36:1 48:1 50:1 53:1 57:1 67:1 71:1 78:1 81:1 83:1 88:1 98:1 101:1 112:1 
-0.618512990942806 3:1 7:1 12:1 21:1 28:1 33:1 34:1 36:1 48:1 50:1 53:1 57:1 62:1 76:1 78:1 81:1 83:1 88:1 98:1 101:1 112:1 
-0.7179526098521833 3:1 7:1 11:1 22:1 28:1 33:1 35:1 37:1 48:1 50:1 55:1 57:1 67:1 74:1 78:1 81:1 84:1 88:1 98:1 104:1 109:1 
-0.03946644406987695 3:1 7:1 16:1 21:1 28:1 33:1 34:1 36:1 48:1 50:1 53:1 57:1 67:1 71:1 78:1 81:1 83:1 88:1 98:1 101:1 112:1 
-0.7235236661538936 6:1 7:1 19:1 22:1 28:1 33:1 34:1 37:1 41:1 50:1 53:1 59:1 67:1 76:1 78:1 81:1 84:1 90:1 92:1 104:1 106:1 
-0.4016166373194289 4:1 8:1 12:1 21:1 28:1 33:1 34:1 36:1 48:1 50:1 53:1 57:1 67:1 76:1 78:1 81:1 83:1 88:1 98:1 101:1 112:1 
-1.135255235549078 4:1 10:1 15:1 22:1 28:1 33:1 35:1 37:1 48:1 50:1 55:1 59:1 67:1 74:1 78:1 81:1 84:1 88:1 98:1 104:1 109:1 
-1.459465928283843 4:1 10:1 15:1 22:1 28:1 33:1 35:1 37:1 48:1 50:1 53:1 57:1 67:1 74:1 78:1 81:1 84:1 88:1 98:1 104:1 109:1 
-1.828801976767928 3:1 7:1 19:1 22:1 28:1 33:1 34:1 37:1 45:1 50:1 53:1 59:1 67:1 76:1 78:1 81:1 84:1 90:1 92:1 104:1 106:1 
-0.5911560637826734 6:1 7:1 17:1 22:1 28:1 33:1 34:1 37:1 41:1 50:1 53:1 59:1 67:1 76:1 78:1 81:1 84:1 90:1 92:1 104:1 106:1 
-0.9394327918539115 3:1 7:1 11:1 22:1 28:1 33:1 35:1 37:1 48:1 50:1 53:1 57:1 67:1 74:1 78:1 81:1 84:1 88:1 98:1 104:1 109:1 
-0.009467570360138546 3:1 7:1 17:1 22:1 28:1 33:1 34:1 37:1 48:1 50:1 53:1 59:1 67:1 76:1 78:1 81:1 84:1 90:1 92:1 104:1 106:1 
-4.88990829316329 4:1 7:1 11:1 22:1 28:1 33:1 35:1 37:1 48:1 50:1 53:1 57:1 67:1 74:1 78:1 81:1 84:1 88:1 98:1 104:1 109:1 
-8 4:1 7:1 15:1 22:1 28:1 33:1 35:1 37:1 48:1 50:1 53:1 57:1 67:1 74:1 78:1 81:1 84:1 88:1 98:1 104:1 109:1 
-0.02098779424582965 3:1 7:1 16:1 21:1 28:1 33:1 34:1 36:1 39:1 50:1 53:1 57:1 67:1 71:1 78:1 81:1 83:1 88:1 98:1 101:1 112:1 
-8 3:1 7:1 15:1 22:1 28:1 33:1 35:1 37:1 48:1 50:1 55:1 57:1 67:1 74:1 78:1 81:1 84:1 88:1 98:1 104:1 109:1 
-8 3:1 7:1 15:1 22:1 28:1 33:1 35:1 37:1 48:1 50:1 53:1 57:1 67:1 74:1 78:1 81:1 84:1 88:1 98:1 104:1 109:1 
-8 6:1 7:1 15:1 22:1 28:1 33:1 35:1 37:1 48:1 50:1 53:1 57:1 67:1 74:1 78:1 81:1 84:1 88:1 98:1 104:1 109:1 
-0.2149234509837512 3:1 7:1 16:1 21:1 28:1 33:1 34:1 36:1 48:1 50:1 53:1 57:1 62:1 76:1 78:1 81:1 83:1 88:1 98:1 101:1 112:1 
-2.474482394070665 3:1 7:1 16:1 21:1 28:1 33:1 34:1 36:1 48:1 50:1 53:1 57:1 67:1 76:1 78:1 81:1 83:1 88:1 98:1 101:1 112:1 
-0.2649373169740027 3:1 7:1 18:1 22:1 28:1 33:1 34:1 37:1 48:1 50:1 53:1 59:1 67:1 76:1 78:1 81:1 84:1 90:1 92:1 104:1 106:1 
-0.0401707135700436 3:1 7:1 16:1 21:1 28:1 33:1 34:1 36:1 39:1 50:1 53:1 57:1 62:1 76:1 78:1 81:1 83:1 88:1 98:1 101:1 112:1 
-1.091800544266293 4:1 7:1 16:1 21:1 28:1 33:1 34:1 36:1 48:1 50:1 53:1 57:1 67:1 76:1 78:1 81:1 83:1 88:1 98:1 101:1 112:1 
-3.514832203554919 3:1 8:1 16:1 21:1 28:1 33:1 34:1 36:1 48:1 50:1 53:1 57:1 67:1 76:1 78:1 81:1 83:1 88:1 98:1 101:1 112:1 
-0.1579493641613949 3:1 7:1 19:1 22:1 28:1 33:1 34:1 37:1 47:1 50:1 53:1 59:1 67:1 76:1 78:1 81:1 84:1 90:1 92:1 104:1 106:1 
-0.2690897094696829 4:1 8:1 13:1 21:1 28:1 33:1 34:1 36:1 48:1 50:1 53:1 57:1 67:1 76:1 78:1 81:1 83:1 88:1 98:1 101:1 112:1 
-5.407030393878801 6:1 7:1 19:1 22:1 28:1 33:1 34:1 37:1 47:1 50:1 53:1 59:1 67:1 76:1 78:1 81:1 84:1 90:1 92:1 104:1 106:1 
-3.665178030253414 4:1 7:1 12:1 21:1 28:1 33:1 34:1 36:1 48:1 50:1 53:1 57:1 67:1 76:1 78:1 81:1 83:1 88:1 98:1 101:1 112:1 
-0.05015129688783963 6:1 7:1 18:1 22:1 28:1 33:1 34:1 37:1 45:1 50:1 53:1 59:1 67:1 76:1 78:1 81:1 84:1 90:1 92:1 104:1 106:1 
-8 6:1 7:1 19:1 22:1 28:1 33:1 34:1 37:1 48:1 50:1 53:1 59:1 67:1 76:1 78:1 81:1 84:1 90:1 92:1 104:1 106:1 
-8 3:1 7:1 19:1 22:1 28:1 33:1 34:1 37:1 48:1 50:1 53:1 59:1 67:1 76:1 78:1 81:1 84:1 90:1 92:1 104:1 106:1 
-4.35218200682429 6:1 7:1 19:1 22:1 28:1 33:1 34:1 37:1 45:1 50:1 53:1 59:1 67:1 76:1 78:1 81:1 84:1 90:1 92:1 104:1 106:1 
-1.616278656714633 3:1 7:1 12:1 21:1 28:1 33:1 34:1 36:1 39:1 50:1 53:1 57:1 67:1 76:1 78:1 81:1 83:1 88:1 98:1 101:1 112:1 
-1.896603089038418 3:1 7:1 16:1 21:1 28:1 33:1 34:1 36:1 39:1 50:1 53:1 57:1 67:1 76:1 78:1 81:1 83:1 88:1 98:1 101:1 112:1 
-4.564834246773402 6:1 7:1 15:1 22:1 28:1 33:1 35:1 37:1 48:1 50:1 55:1 57:1 67:1 74:1 78:1 81:1 84:1 88:1 98:1 104:1 109:1 
-1.893180084733879 6:1 10:1 15:1 22:1 28:1 33:1 35:1 37:1 48:1 50:1 55:1 59:1 67:1 74:1 78:1 81:1 84:1 88:1 98:1 104:1 109:1 
-1.209486421146374 4:1 8:1 19:1 22:1 28:1 33:1 35:1 36:1 40:1 50:1 54:1 57:1 67:1 76:1 78:1 81:1 83:1 86:1 98:1 103:1 107:1 
-1.56457105334544 6:1 8:1 19:1 22:1 28:1 33:1 35:1 36:1 40:1 50:1 54:1 57:1 67:1 76:1 78:1 81:1 83:1 86:1 98:1 103:1 107:1 
-0.8446986936412312 2:1 8:1 15:1 22:1 28:1 32:1 34:1 36:1 49:1 50:1 53:1 57:1 64:1 73:1 78:1 82:1 84:1 86:1 94:1 101:1 109:1 
-1.922528693736145 4:1 8:1 19:1 22:1 28:1 33:1 35:1 36:1 40:1 50:1 54:1 58:1 67:1 76:1 78:1 81:1 83:1 86:1 98:1 103:1 107:1 
-0.4810610684445391 4:1 8:1 19:1 22:1 28:1 33:1 35:1 36:1 40:1 50:1 54:1 58:1 67:1 76:1 78:1 81:1 83:1 86:1 98:1 102:1 107:1 
-0.4153637135526319 4:1 8:1 19:1 22:1 28:1 33:1 35:1 36:1 45:1 50:1 54:1 57:1 67:1 76:1 78:1 81:1 83:1 86:1 98:1 103:1 107:1 
-5.201011906077831 3:1 8:1 14:1 21:1 28:1 33:1 34:1 36:1 48:1 50:1 53:1 57:1 67:1 76:1 78:1 81:1 83:1 86:1 98:1 104:1 110:1 
-0.07602033769284458 4:1 8:1 15:1 22:1 28:1 32:1 34:1 36:1 49:1 50:1 53:1 57:1 64:1 73:1 78:1 82:1 84:1 86:1 91:1 101:1 109:1 
-0.05509579450072983 2:1 8:1 15:1 22:1 28:1 32:1 34:1 36:1 49:1 50:1 53:1 57:1 64:1 73:1 78:1 82:1 84:1 86:1 99:1 101:1 109:1 
-0.1507620154629314 4:1 10:1 19:1 22:1 28:1 33:1 35:1 36:1 48:1 50:1 54:1 58:1 67:1 76:1 78:1 81:1 83:1 86:1 98:1 102:1 107:1 
-0.1857945930227969 2:1 8:1 15:1 22:1 28:1 32:1 34:1 36:1 49:1 50:1 53:1 57:1 64:1 73:1 78:1 80:1 84:1 86:1 99:1 101:1 109:1 
-0.997262208926179 4:1 7:1 15:1 22:1 28:1 33:1 34:1 36:1 48:1 50:1 52:1 56:1 65:1 74:1 78:1 81:1 83:1 86:1 98:1 105:1 106:1 
-0.06707521947725995 4:1 8:1 15:1 22:1 28:1 32:1 34:1 36:1 49:1 50:1 53:1 57:1 64:1 73:1 78:1 80:1 84:1 86:1 99:1 101:1 109:1 
-0.2920601417471431 2:1 8:1 15:1 22:1 28:1 32:1 34:1 36:1 43:1 50:1 53:1 57:1 64:1 73:1 78:1 82:1 84:1 86:1 91:1 101:1 109:1 
-0.2212558747002612 2:1 8:1 15:1 22:1 28:1 32:1 34:1 36:1 43:1 50:1 53:1 57:1 64:1 73:1 78:1 80:1 84:1 86:1 94:1 101:1 109:1 
-3.738667579087957 2:1 8:1 19:1 22:1 28:1 33:1 35:1 36:1 48:1 50:1 54:1 57:1 67:1 76:1 78:1 81:1 83:1 86:1 98:1 103:1 107:1 
-4.133874174857671 2:1 10:1 19:1 22:1 28:1 33:1 35:1 36:1 48:1 50:1 54:1 58:1 67:1 76:1 78:1 81:1 83:1 86:1 98:1 102:1 107:1 
-0.0795902171479759 4:1 8:1 15:1 22:1 28:1 32:1 34:1 36:1 43:1 50:1 53:1 57:1 64:1 73:1 78:1 80:1 84:1 86:1 94:1 101:1 109:1 
-8 6:1 7:1 16:1 21:1 28:1 33:1 34:1 36:1 48:1 50:1 53:1 57:1 67:1 76:1 78:1 81:1 83:1 86:1 98:1 104:1 110:1 
-0.4155211195169378 3:1 8:1 15:1 22:1 28:1 32:1 34:1 36:1 49:1 50:1 53:1 57:1 64:1 73:1 78:1 82:1 84:1 86:1 91:1 101:1 109:1 
-0.2281326588691514 3:1 8:1 15:1 22:1 28:1 32:1 34:1 36:1 43:1 50:1 53:1 57:1 64:1 73:1 78:1 82:1 84:1 86:1 94:1 101:1 109:1 
-0.2673356375929569 2:1 8:1 15:1 22:1 28:1 32:1 34:1 36:1 49:1 50:1 53:1 57:1 64:1 73:1 78:1 82:1 84:1 86:1 91:1 101:1 109:1 
-8 3:1 8:1 16:1 21:1 28:1 33:1 34:1 36:1 48:1 50:1 53:1 57:1 67:1 76:1 78:1 81:1 83:1 86:1 98:1 104:1 110:1 
-3.978259541344439 2:1 8:1 19:1 22:1 28:1 33:1 35:1 36:1 40:1 50:1 54:1 57:1 67:1 76:1 78:1 81:1 83:1 86:1 98:1 103:1 107:1 
-0.604227161424061 4:1 8:1 19:1 22:1 28:1 33:1 35:1 36:1 45:1 50:1 54:1 58:1 67:1 76:1 78:1 81:1 83:1 86:1 98:1 103:1 107:1 
-0.31480929255602 3:1 8:1 15:1 22:1 28:1 32:1 34:1 36:1 49:1 50:1 53:1 57:1 64:1 73:1 78:1 80:1 84:1 86:1 91:1 101:1 109:1 
-3.015313601741515 2:1 8:1 19:1 22:1 28:1 33:1 35:1 36:1 40:1 50:1 54:1 57:1 67:1 76:1 78:1 81:1 83:1 86:1 98:1 102:1 107:1 
-0.04515591298991665 3:1 8:1 15:1 22:1 28:1 32:1 34:1 36:1 49:1 50:1 53:1 57:1 64:1 73:1 78:1 82:1 84:1 86:1 99:1 101:1 109:1 
-0.7114305706069997 2:1 8:1 19:1 22:1 28:1 33:1 35:1 36:1 45:1 50:1 54:1 57:1 67:1 76:1 78:1 81:1 83:1 86:1 98:1 103:1 107:1 
-0.6265490757253322 4:1 8:1 19:1 22:1 28:1 33:1 35:1 36:1 48:1 50:1 54:1 58:1 67:1 76:1 78:1 81:1 83:1 86:1 98:1 103:1 107:1 
-0.1487581162043426 2:1 8:1 15:1 22:1 28:1 32:1 34:1 36:1 43:1 50:1 53:1 57:1 64:1 73:1 78:1 80:1 84:1 86:1 99:1 101:1 109:1 
-6.613285343304025 6:1 8:1 16:1 21:1 28:1 33:1 34:1 36:1 48:1 50:1 53:1 57:1 67:1 76:1 78:1 81:1 83:1 86:1 98:1 104:1 110:1 
-0.2482379974006681 4:1 8:1 15:1 22:1 28:1 32:1 34:1 36:1 43:1 50:1 53:1 57:1 64:1 73:1 78:1 80:1 84:1 86:1 91:1 101:1 109:1 
-3.809791004717574 2:1 7:1 15:1 22:1 28:1 33:1 34:1 36:1 48:1 50:1 52:1 56:1 65:1 74:1 78:1 81:1 83:1 86:1 98:1 105:1 106:1 
-0.05796584494883122 3:1 8:1 15:1 22:1 28:1 32:1 34:1 36:1 43:1 50:1 53:1 57:1 64:1 73:1 78:1 82:1 84:1 86:1 91:1 101:1 109:1 
-0.5205513991051369 2:1 8:1 19:1 22:1 28:1 33:1 35:1 36:1 48:1 50:1 54:1 58:1 67:1 76:1 78:1 81:1 83:1 86:1 98:1 102:1 107:1 
-1.249511888799982 6:1 8:1 19:1 22:1 28:1 33:1 35:1 36:1 40:1 50:1 54:1 58:1 67:1 76:1 78:1 81:1 83:1 86:1 98:1 103:1 107:1 
-0.3185636117423216 4:1 8:1 15:1 22:1 28:1 33:1 34:1 36:1 48:1 50:1 52:1 56:1 65:1 74:1 78:1 81:1 83:1 86:1 98:1 105:1 106:1 
-0.2374741317465593 2:1 8:1 15:1 22:1 28:1 32:1 34:1 36:1 49:1 50:1 53:1 57:1 64:1 73:1 78:1 80:1 84:1 86:1 91:1 101:1 109:1 
-0.6189837657294731 3:1 8:1 15:1 22:1 28:1 32:1 34:1 36:1 49:1 50:1 53:1 57:1 64:1 73:1 78:1 80:1 84:1 86:1 99:1 101:1 109:1 
-5.896511563502924 3:1 7:1 14:1 21:1 28:1 33:1 34:1 36:1 48:1 50:1 53:1 57:1 67:1 76:1 78:1 81:1 83:1 86:1 98:1 104:1 110:1 
-8 3:1 7:1 16:1 21:1 28:1 33:1 34:1 36:1 48:1 50:1 53:1 57:1 67:1 76:1 78:1 81:1 83:1 86:1 98:1 104:1 110:1 
-0.01219018850036856 4:1 8:1 15:1 22:1 28:1 32:1 34:1 36:1 43:1 50:1 53:1 57:1 64:1 73:1 78:1 82:1 84:1 86:1 94:1 101:1 109:1 
-0.8496051120270665 2:1 8:1 15:1 22:1 28:1 32:1 34:1 36:1 49:1 50:1 53:1 57:1 64:1 73:1 78:1 80:1 84:1 86:1 94:1 101:1 109:1 
-5.366140005070013 3:1 8:1 15:1 22:1 28:1 33:1 34:1 36:1 48:1 50:1 52:1 56:1 65:1 74:1 78:1 81:1 83:1 86:1 98:1 105:1 106:1 
-0.2944490887833925 4:1 8:1 15:1 22:1 28:1 32:1 34:1 36:1 49:1 50:1 53:1 57:1 64:1 73:1 78:1 82:1 84:1 86:1 99:1 101:1 109:1 
-0.4246626681136204 2:1 8:1 15:1 22:1 28:1 32:1 34:1 36:1 43:1 50:1 53:1 57:1 64:1 73:1 78:1 80:1 84:1 86:1 91:1 101:1 109:1 
-0.1264292844817193 3:1 8:1 15:1 22:1 28:1 32:1 34:1 36:1 43:1 50:1 53:1 57:1 64:1 73:1 78:1 80:1 84:1 86:1 94:1 101:1 109:1 
-0.9608362591684609 2:1 8:1 15:1 22:1 28:1 32:1 34:1 36:1 43:1 50:1 53:1 57:1 64:1 73:1 78:1 82:1 84:1 86:1 99:1 101:1 109:1 
-0.01552821884570445 4:1 8:1 15:1 22:1 28:1 32:1 34:1 36:1 49:1 50:1 53:1 57:1 64:1 73:1 78:1 82:1 84:1 86:1 94:1 101:1 109:1 
-0.04531782976366062 4:1 8:1 15:1 22:1 28:1 32:1 34:1 36:1 49:1 50:1 53:1 57:1 64:1 73:1 78:1 80:1 84:1 86:1 91:1 101:1 109:1 
