svm_type c_svc
kernel_type rbf
gamma 0.0078125
nr_class 2
total_sv 595
rho -1.36635
label 1 -1
nr_sv 285 310
SV
0.3659437432029443 1:1 2:3 3:3 4:4 5:2 6:1 7:2 8:2 9:4 10:3 11:2 12:2 13:2 14:1 15:2 16:4 17:4 18:3 19:2 20:1 21:2 22:1 23:3 24:3 25:1 26:2 27:3 28:3 29:4 30:2 31:1 32:3 33:3 34:1 35:1 36:3 37:1 38:4 39:2 40:2 41:4 42:2 43:1 44:1 45:1 46:3 47:3 48:3 49:3 50:1 51:4 52:3 53:4 54:4 55:4 56:1 57:3 58:4 59:1 60:1 
3.316943133853091 1:2 2:1 3:3 4:4 5:3 6:3 7:1 8:1 9:4 10:2 11:1 12:1 13:4 14:4 15:4 16:4 17:3 18:4 19:2 20:4 21:1 22:1 23:4 24:4 25:2 26:3 27:4 28:2 29:1 30:3 31:3 32:3 33:1 34:1 35:2 36:1 37:2 38:2 39:1 40:1 41:1 42:3 43:1 44:3 45:4 46:3 47:4 48:1 49:2 50:2 51:1 52:3 53:2 54:2 55:2 56:2 57:1 58:1 59:3 60:2 
2.219178807616506 1:1 2:1 3:3 4:1 5:1 6:3 7:1 8:1 9:2 10:1 11:1 12:1 13:3 14:3 15:4 16:3 17:3 18:4 19:1 20:4 21:2 22:3 23:1 24:2 25:1 26:4 27:2 28:2 29:2 30:3 31:3 32:4 33:4 34:1 35:1 36:1 37:4 38:1 39:3 40:2 41:2 42:3 43:4 44:2 45:2 46:4 47:2 48:2 49:1 50:2 51:4 52:2 53:2 54:2 55:1 56:1 57:3 58:1 59:3 60:2 
8 1:2 2:1 3:3 4:1 5:3 6:2 7:3 8:4 9:2 10:3 11:4 12:2 13:2 14:2 15:3 16:3 17:2 18:3 19:1 20:4 21:2 22:3 23:4 24:2 25:3 26:3 27:3 28:3 29:1 30:2 31:3 32:4 33:2 34:2 35:4 36:3 37:4 38:2 39:3 40:3 41:2 42:3 43:3 44:4 45:3 46:2 47:4 48:3 49:3 50:4 51:3 52:3 53:2 54:2 55:4 56:2 57:3 58:4 59:3 60:3 
0.9079165232764617 1:3 2:1 3:3 4:4 5:2 6:2 7:1 8:2 9:4 10:2 11:3 12:4 13:3 14:1 15:3 16:1 17:2 18:4 19:3 20:4 21:3 22:3 23:4 24:2 25:2 26:2 27:1 28:2 29:1 30:2 31:2 32:1 33:2 34:3 35:1 36:3 37:3 38:1 39:3 40:3 41:3 42:3 43:1 44:2 45:1 46:3 47:1 48:4 49:4 50:1 51:3 52:4 53:2 54:2 55:4 56:4 57:1 58:4 59:1 60:2 
0.8067442846503308 1:4 2:4 3:3 4:4 5:2 6:2 7:1 8:2 9:2 10:3 11:1 12:2 13:4 14:1 15:3 16:3 17:1 18:2 19:3 20:1 21:4 22:2 23:2 24:1 25:4 26:2 27:3 28:1 29:2 30:3 31:1 32:4 33:3 34:4 35:2 36:3 37:4 38:4 39:3 40:3 41:2 42:2 43:4 44:2 45:3 46:2 47:2 48:2 49:3 50:3 51:4 52:3 53:1 54:2 55:2 56:1 57:1 58:3 59:3 60:4 
2.131851608660775 1:4 2:2 3:3 4:3 5:4 6:1 7:2 8:4 9:1 10:3 11:1 12:2 13:3 14:3 15:4 16:2 17:4 18:4 19:1 20:3 21:4 22:1 23:4 24:2 25:3 26:1 27:2 28:3 29:4 30:1 31:1 32:4 33:3 34:1 35:2 36:2 37:2 38:1 39:2 40:1 41:4 42:1 43:1 44:4 45:3 46:3 47:4 48:4 49:2 50:4 51:1 52:1 53:1 54:3 55:3 56:1 57:2 58:4 59:1 60:1 
1.646158771564867 1:4 2:4 3:2 4:2 5:1 6:1 7:1 8:1 9:1 10:3 11:4 12:1 13:1 14:1 15:2 16:1 17:4 18:3 19:4 20:4 21:4 22:3 23:4 24:3 25:1 26:1 27:1 28:1 29:4 30:1 31:2 32:4 33:1 34:1 35:4 36:2 37:1 38:1 39:1 40:4 41:2 42:4 43:3 44:4 45:1 46:4 47:2 48:1 49:4 50:4 51:2 52:1 53:1 54:1 55:2 56:3 57:4 58:4 59:1 60:1 
2.946345784198442 1:2 2:3 3:1 4:1 5:3 6:4 7:3 8:1 9:4 10:2 11:1 12:1 13:3 14:4 15:4 16:2 17:2 18:3 19:3 20:1 21:4 22:4 23:3 24:4 25:4 26:4 27:2 28:2 29:2 30:4 31:1 32:4 33:2 34:2 35:2 36:1 37:3 38:1 39:4 40:4 41:3 42:3 43:4 44:3 45:4 46:2 47:1 48:4 49:3 50:3 51:4 52:1 53:1 54:4 55:2 56:3 57:1 58:2 59:4 60:2 
1.629747552502407 1:2 2:1 3:1 4:4 5:3 6:3 7:3 8:1 9:2 10:3 11:1 12:2 13:4 14:4 15:4 16:3 17:4 18:4 19:4 20:3 21:4 22:2 23:4 24:4 25:4 26:4 27:4 28:2 29:3 30:2 31:1 32:2 33:2 34:1 35:3 36:1 37:3 38:1 39:2 40:1 41:4 42:4 43:1 44:4 45:3 46:3 47:4 48:4 49:1 50:4 51:4 52:4 53:2 54:2 55:2 56:4 57:1 58:3 59:3 60:1 
2.471694681729533 1:2 2:2 3:3 4:2 5:1 6:3 7:3 8:3 9:4 10:3 11:3 12:4 13:3 14:4 15:2 16:2 17:4 18:1 19:4 20:3 21:3 22:4 23:2 24:2 25:2 26:3 27:3 28:4 29:3 30:1 31:3 32:4 33:2 34:1 35:2 36:1 37:4 38:2 39:3 40:4 41:4 42:4 43:4 44:3 45:3 46:4 47:1 48:4 49:3 50:4 51:2 52:3 53:1 54:3 55:1 56:2 57:1 58:4 59:3 60:1 
1.653247243465137 1:1 2:4 3:4 4:4 5:4 6:2 7:4 8:4 9:4 10:4 11:2 12:3 13:4 14:4 15:4 16:4 17:4 18:3 19:4 20:2 21:1 22:3 23:4 24:3 25:3 26:1 27:2 28:4 29:2 30:2 31:2 32:2 33:3 34:1 35:1 36:2 37:1 38:4 39:4 40:4 41:4 42:3 43:3 44:4 45:4 46:4 47:4 48:4 49:4 50:1 51:4 52:1 53:3 54:1 55:3 56:1 57:4 58:1 59:1 60:4 
8 1:4 2:2 3:1 4:3 5:4 6:2 7:3 8:2 9:2 10:2 11:2 12:1 13:3 14:2 15:2 16:3 17:4 18:3 19:4 20:2 21:1 22:3 23:2 24:1 25:2 26:2 27:1 28:2 29:2 30:1 31:3 32:4 33:2 34:3 35:1 36:2 37:3 38:1 39:4 40:3 41:2 42:1 43:3 44:3 45:3 46:3 47:1 48:1 49:2 50:3 51:4 52:2 53:1 54:3 55:3 56:1 57:2 58:3 59:4 60:2 
0.7777925920709433 1:3 2:4 3:4 4:3 5:1 6:4 7:4 8:4 9:1 10:1 11:3 12:4 13:3 14:1 15:1 16:3 17:4 18:1 19:4 20:1 21:2 22:1 23:1 24:4 25:4 26:1 27:4 28:4 29:1 30:2 31:2 32:3 33:4 34:2 35:2 36:4 37:2 38:3 39:2 40:3 41:1 42:1 43:2 44:4 45:2 46:1 47:3 48:4 49:2 50:3 51:1 52:2 53:4 54:4 55:4 56:4 57:4 58:1 59:3 60:3 
4.159191592476982 1:2 2:4 3:3 4:3 5:1 6:3 7:4 8:2 9:4 10:2 11:1 12:3 13:3 14:3 15:3 16:4 17:2 18:4 19:4 20:3 21:3 22:3 23:1 24:4 25:2 26:3 27:4 28:2 29:1 30:3 31:3 32:4 33:2 34:4 35:2 36:4 37:4 38:4 39:3 40:3 41:4 42:3 43:3 44:3 45:3 46:1 47:2 48:4 49:3 50:1 51:4 52:3 53:4 54:4 55:4 56:3 57:4 58:4 59:2 60:4 
0.02225089122316589 1:2 2:3 3:4 4:2 5:1 6:2 7:2 8:1 9:4 10:2 11:1 12:1 13:2 14:1 15:1 16:4 17:2 18:2 19:1 20:1 21:2 22:1 23:2 24:1 25:4 26:4 27:1 28:3 29:2 30:1 31:4 32:3 33:1 34:4 35:4 36:2 37:3 38:4 39:2 40:4 41:3 42:4 43:3 44:3 45:1 46:1 47:3 48:3 49:4 50:4 51:3 52:1 53:3 54:3 55:1 56:2 57:4 58:2 59:2 60:1 
6.970610785157364 1:1 2:2 3:4 4:4 5:4 6:2 7:3 8:1 9:3 10:3 11:4 12:2 13:4 14:3 15:3 16:3 17:3 18:1 19:3 20:3 21:3 22:4 23:3 24:3 25:1 26:3 27:4 28:3 29:1 30:2 31:3 32:4 33:2 34:4 35:3 36:3 37:4 38:2 39:3 40:1 41:2 42:3 43:1 44:1 45:1 46:3 47:1 48:3 49:4 50:3 51:3 52:1 53:3 54:3 55:3 56:4 57:3 58:3 59:1 60:3 
3.560791211384319 1:3 2:3 3:4 4:1 5:4 6:2 7:4 8:1 9:3 10:3 11:4 12:4 13:4 14:3 15:4 16:1 17:4 18:3 19:3 20:3 21:4 22:3 23:4 24:3 25:4 26:2 27:1 28:1 29:2 30:3 31:4 32:4 33:3 34:4 35:2 36:3 37:1 38:2 39:1 40:1 41:4 42:4 43:3 44:3 45:3 46:1 47:2 48:3 49:1 50:1 51:2 52:1 53:3 54:1 55:2 56:1 57:2 58:3 59:4 60:4 
7.545565385356353 1:2 2:3 3:2 4:3 5:2 6:3 7:3 8:2 9:1 10:2 11:3 12:2 13:3 14:3 15:3 16:3 17:2 18:3 19:4 20:3 21:3 22:2 23:3 24:3 25:4 26:3 27:1 28:3 29:3 30:4 31:2 32:3 33:3 34:1 35:3 36:3 37:1 38:2 39:2 40:2 41:1 42:2 43:4 44:2 45:2 46:2 47:3 48:2 49:2 50:2 51:3 52:1 53:4 54:4 55:2 56:4 57:4 58:3 59:2 60:3 
1.24661339650428 1:4 2:2 3:1 4:2 5:1 6:2 7:3 8:3 9:4 10:3 11:4 12:2 13:1 14:2 15:3 16:2 17:3 18:4 19:4 20:3 21:4 22:4 23:2 24:3 25:1 26:3 27:4 28:4 29:3 30:1 31:4 32:2 33:3 34:4 35:2 36:2 37:2 38:3 39:4 40:2 41:2 42:4 43:4 44:4 45:2 46:3 47:1 48:3 49:1 50:3 51:3 52:3 53:3 54:2 55:4 56:3 57:4 58:4 59:4 60:2 
4.131409621994185 1:1 2:2 3:3 4:2 5:1 6:4 7:4 8:2 9:4 10:4 11:1 12:3 13:3 14:3 15:4 16:4 17:2 18:2 19:2 20:3 21:3 22:4 23:2 24:2 25:3 26:1 27:3 28:4 29:2 30:2 31:3 32:3 33:1 34:2 35:2 36:2 37:2 38:4 39:4 40:4 41:4 42:4 43:4 44:3 45:2 46:2 47:2 48:2 49:2 50:3 51:3 52:1 53:2 54:1 55:1 56:2 57:4 58:3 59:3 60:1 
8 1:2 2:1 3:2 4:2 5:4 6:2 7:2 8:2 9:3 10:2 11:2 12:3 13:1 14:2 15:3 16:2 17:4 18:3 19:2 20:3 21:3 22:2 23:2 24:3 25:4 26:4 27:3 28:3 29:1 30:2 31:1 32:3 33:1 34:3 35:3 36:1 37:1 38:4 39:2 40:2 41:2 42:1 43:1 44:4 45:3 46:3 47:3 48:1 49:1 50:4 51:2 52:2 53:2 54:2 55:1 56:1 57:2 58:4 59:3 60:2 
2.439181097831405 1:4 2:4 3:2 4:1 5:3 6:1 7:2 8:3 9:1 10:1 11:1 12:2 13:2 14:3 15:4 16:3 17:4 18:3 19:2 20:2 21:3 22:4 23:3 24:3 25:4 26:2 27:2 28:1 29:2 30:4 31:3 32:3 33:4 34:3 35:1 36:3 37:4 38:2 39:4 40:3 41:3 42:1 43:2 44:3 45:4 46:3 47:1 48:2 49:1 50:2 51:2 52:2 53:1 54:2 55:1 56:2 57:2 58:1 59:2 60:3 
1.774220769877621 1:3 2:4 3:3 4:4 5:3 6:4 7:4 8:3 9:4 10:1 11:3 12:3 13:4 14:4 15:1 16:1 17:1 18:1 19:4 20:2 21:4 22:1 23:1 24:1 25:1 26:3 27:1 28:1 29:1 30:1 31:1 32:4 33:2 34:4 35:1 36:1 37:4 38:2 39:1 40:4 41:3 42:1 43:4 44:1 45:1 46:2 47:4 48:3 49:4 50:1 51:1 52:1 53:4 54:1 55:1 56:1 57:4 58:2 59:1 60:1 
0.5826131857908059 1:3 2:4 3:2 4:2 5:2 6:1 7:2 8:3 9:2 10:3 11:4 12:3 13:4 14:4 15:4 16:2 17:2 18:1 19:4 20:3 21:3 22:3 23:1 24:4 25:3 26:3 27:3 28:4 29:3 30:1 31:2 32:2 33:3 34:4 35:2 36:2 37:3 38:3 39:1 40:2 41:1 42:2 43:4 44:3 45:3 46:3 47:4 48:2 49:2 50:3 51:1 52:2 53:3 54:4 55:2 56:1 57:2 58:2 59:2 60:1 
1.588716730595015 1:4 2:3 3:3 4:1 5:4 6:3 7:4 8:4 9:3 10:4 11:2 12:3 13:1 14:2 15:2 16:2 17:4 18:4 19:1 20:2 21:4 22:2 23:1 24:4 25:1 26:3 27:1 28:2 29:1 30:4 31:2 32:3 33:4 34:1 35:2 36:3 37:4 38:4 39:4 40:4 41:4 42:3 43:1 44:3 45:4 46:1 47:1 48:1 49:2 50:1 51:2 52:2 53:4 54:3 55:4 56:4 57:4 58:4 59:1 60:2 
1.144218646246453 1:2 2:4 3:4 4:3 5:4 6:1 7:1 8:4 9:3 10:1 11:4 12:4 13:4 14:3 15:1 16:3 17:3 18:1 19:4 20:4 21:4 22:4 23:4 24:2 25:4 26:4 27:1 28:4 29:4 30:3 31:2 32:4 33:4 34:4 35:4 36:1 37:1 38:1 39:1 40:3 41:1 42:4 43:3 44:4 45:1 46:4 47:3 48:4 49:2 50:2 51:1 52:2 53:2 54:3 55:1 56:2 57:2 58:1 59:3 60:1 
0.1624478584456785 1:2 2:1 3:4 4:1 5:4 6:1 7:4 8:4 9:4 10:2 11:1 12:2 13:1 14:3 15:1 16:4 17:4 18:4 19:4 20:3 21:1 22:1 23:2 24:4 25:3 26:4 27:4 28:1 29:1 30:4 31:2 32:1 33:1 34:1 35:3 36:1 37:4 38:4 39:3 40:4 41:2 42:3 43:3 44:4 45:2 46:4 47:2 48:1 49:4 50:1 51:3 52:1 53:1 54:1 55:4 56:3 57:4 58:3 59:3 60:1 
1.152532415204518 1:1 2:4 3:3 4:4 5:4 6:3 7:2 8:3 9:3 10:4 11:4 12:4 13:2 14:3 15:3 16:1 17:3 18:1 19:4 20:2 21:3 22:2 23:2 24:3 25:1 26:2 27:3 28:4 29:1 30:3 31:1 32:2 33:4 34:2 35:2 36:2 37:2 38:1 39:2 40:3 41:4 42:3 43:3 44:1 45:2 46:3 47:4 48:2 49:1 50:2 51:3 52:2 53:4 54:2 55:2 56:1 57:4 58:4 59:2 60:4 
5.818658308341504 1:4 2:4 3:2 4:1 5:1 6:3 7:4 8:2 9:2 10:2 11:2 12:1 13:1 14:2 15:3 16:2 17:1 18:1 19:2 20:2 21:4 22:2 23:2 24:3 25:1 26:2 27:4 28:2 29:1 30:2 31:3 32:4 33:2 34:1 35:2 36:1 37:4 38:4 39:2 40:3 41:2 42:3 43:3 44:1 45:4 46:4 47:1 48:3 49:1 50:3 51:4 52:3 53:3 54:1 55:2 56:3 57:3 58:4 59:2 60:2 
1.516144286624172 1:3 2:3 3:3 4:1 5:2 6:4 7:1 8:4 9:2 10:4 11:3 12:2 13:4 14:2 15:1 16:1 17:2 18:4 19:2 20:4 21:1 22:1 23:3 24:2 25:1 26:2 27:2 28:2 29:3 30:3 31:3 32:4 33:1 34:3 35:1 36:3 37:4 38:3 39:3 40:3 41:3 42:2 43:1 44:3 45:1 46:4 47:3 48:4 49:3 50:4 51:4 52:4 53:3 54:3 55:1 56:3 57:3 58:4 59:2 60:2 
0.4233198352098372 1:3 2:1 3:1 4:1 5:3 6:3 7:3 8:3 9:2 10:3 11:3 12:3 13:4 14:4 15:2 16:3 17:4 18:3 19:3 20:2 21:2 22:1 23:3 24:1 25:3 26:3 27:3 28:3 29:3 30:1 31:4 32:3 33:3 34:1 35:3 36:3 37:1 38:2 39:2 40:1 41:2 42:2 43:2 44:4 45:4 46:4 47:4 48:3 49:4 50:2 51:2 52:3 53:2 54:2 55:3 56:4 57:3 58:3 59:4 60:2 
1.460987446390121 1:2 2:4 3:1 4:4 5:3 6:3 7:3 8:3 9:1 10:3 11:4 12:2 13:3 14:3 15:4 16:4 17:2 18:4 19:1 20:4 21:2 22:4 23:2 24:2 25:4 26:2 27:1 28:1 29:1 30:3 31:3 32:1 33:1 34:1 35:2 36:2 37:2 38:4 39:4 40:1 41:3 42:4 43:4 44:4 45:4 46:1 47:3 48:1 49:3 50:4 51:4 52:1 53:1 54:4 55:3 56:4 57:1 58:4 59:1 60:2 
5.367678729132467 1:4 2:3 3:2 4:4 5:3 6:3 7:3 8:4 9:4 10:3 11:3 12:3 13:4 14:3 15:3 16:3 17:3 18:2 19:1 20:3 21:1 22:2 23:2 24:4 25:3 26:1 27:3 28:1 29:4 30:1 31:1 32:3 33:1 34:2 35:3 36:4 37:2 38:3 39:1 40:4 41:3 42:1 43:4 44:4 45:2 46:1 47:3 48:3 49:2 50:3 51:1 52:3 53:1 54:2 55:3 56:2 57:3 58:3 59:1 60:4 
0.5046981044647013 1:3 2:3 3:1 4:3 5:3 6:1 7:3 8:1 9:3 10:4 11:2 12:3 13:1 14:4 15:2 16:4 17:2 18:2 19:3 20:4 21:3 22:3 23:3 24:3 25:1 26:2 27:2 28:2 29:3 30:1 31:3 32:1 33:2 34:3 35:3 36:1 37:4 38:2 39:2 40:3 41:4 42:2 43:4 44:3 45:1 46:2 47:4 48:1 49:3 50:3 51:4 52:4 53:3 54:3 55:2 56:1 57:1 58:1 59:2 60:3 
1.828312484503751 1:3 2:2 3:2 4:4 5:2 6:4 7:2 8:3 9:3 10:2 11:2 12:2 13:3 14:4 15:3 16:3 17:4 18:2 19:1 20:4 21:2 22:1 23:3 24:3 25:3 26:4 27:3 28:1 29:1 30:2 31:2 32:2 33:1 34:3 35:4 36:4 37:3 38:3 39:3 40:1 41:2 42:3 43:1 44:3 45:3 46:4 47:1 48:3 49:1 50:1 51:3 52:1 53:1 54:1 55:2 56:1 57:3 58:4 59:4 60:1 
3.741507390233488 1:3 2:1 3:2 4:3 5:2 6:3 7:1 8:2 9:1 10:3 11:2 12:4 13:3 14:1 15:2 16:2 17:2 18:1 19:4 20:1 21:4 22:4 23:4 24:1 25:4 26:1 27:1 28:3 29:1 30:1 31:1 32:3 33:3 34:3 35:3 36:3 37:4 38:4 39:4 40:3 41:1 42:1 43:2 44:3 45:1 46:1 47:2 48:4 49:2 50:1 51:4 52:2 53:3 54:4 55:2 56:1 57:1 58:2 59:2 60:2 
4.15843968124505 1:4 2:1 3:3 4:1 5:2 6:3 7:3 8:1 9:3 10:3 11:1 12:4 13:2 14:1 15:2 16:1 17:1 18:2 19:2 20:1 21:3 22:1 23:3 24:4 25:3 26:2 27:3 28:4 29:2 30:3 31:3 32:4 33:2 34:2 35:2 36:4 37:2 38:3 39:2 40:1 41:3 42:4 43:2 44:3 45:1 46:3 47:1 48:2 49:3 50:1 51:2 52:4 53:4 54:3 55:3 56:1 57:3 58:1 59:2 60:2 
0.7506876730581975 1:2 2:1 3:4 4:4 5:3 6:4 7:4 8:1 9:3 10:1 11:2 12:1 13:1 14:1 15:1 16:3 17:1 18:1 19:2 20:4 21:2 22:2 23:4 24:4 25:1 26:4 27:1 28:2 29:1 30:4 31:2 32:2 33:4 34:2 35:1 36:1 37:1 38:3 39:3 40:4 41:2 42:4 43:4 44:4 45:2 46:4 47:4 48:2 49:2 50:1 51:3 52:1 53:4 54:1 55:3 56:4 57:2 58:2 59:1 60:4 
1.718706296696753 1:4 2:4 3:3 4:4 5:3 6:3 7:4 8:4 9:3 10:4 11:1 12:3 13:3 14:1 15:3 16:4 17:3 18:1 19:2 20:3 21:4 22:2 23:4 24:1 25:4 26:2 27:2 28:1 29:1 30:4 31:2 32:2 33:2 34:2 35:2 36:4 37:1 38:1 39:3 40:3 41:3 42:4 43:1 44:3 45:1 46:2 47:2 48:4 49:1 50:1 51:1 52:2 53:2 54:2 55:3 56:2 57:1 58:2 59:4 60:2 
0.2953500207463327 1:1 2:2 3:1 4:4 5:2 6:3 7:4 8:4 9:4 10:3 11:3 12:4 13:1 14:1 15:2 16:3 17:3 18:1 19:2 20:1 21:2 22:2 23:1 24:1 25:2 26:4 27:2 28:4 29:2 30:1 31:2 32:3 33:3 34:3 35:1 36:1 37:1 38:2 39:2 40:1 41:3 42:3 43:3 44:4 45:4 46:2 47:1 48:4 49:3 50:1 51:1 52:4 53:4 54:3 55:4 56:2 57:1 58:1 59:4 60:4 
0.6243225420294047 1:3 2:3 3:3 4:1 5:4 6:3 7:4 8:4 9:1 10:1 11:4 12:3 13:3 14:3 15:2 16:1 17:2 18:1 19:2 20:4 21:3 22:3 23:2 24:2 25:1 26:2 27:2 28:2 29:3 30:4 31:2 32:4 33:2 34:3 35:4 36:1 37:3 38:3 39:3 40:3 41:1 42:1 43:2 44:1 45:1 46:2 47:1 48:2 49:2 50:1 51:1 52:2 53:2 54:1 55:4 56:3 57:1 58:2 59:2 60:2 
7.225861533691728 1:3 2:4 3:2 4:4 5:3 6:4 7:3 8:4 9:3 10:4 11:3 12:3 13:3 14:3 15:4 16:3 17:3 18:3 19:4 20:3 21:3 22:3 23:4 24:3 25:3 26:4 27:4 28:2 29:2 30:3 31:2 32:3 33:3 34:4 35:4 36:3 37:4 38:3 39:2 40:2 41:3 42:4 43:3 44:2 45:3 46:3 47:2 48:3 49:3 50:2 51:3 52:3 53:2 54:3 55:3 56:2 57:3 58:3 59:4 60:3 
4.824324890188472 1:2 2:2 3:3 4:4 5:2 6:4 7:4 8:4 9:3 10:3 11:4 12:4 13:4 14:2 15:2 16:2 17:3 18:4 19:1 20:4 21:3 22:3 23:1 24:4 25:2 26:4 27:3 28:3 29:1 30:3 31:3 32:4 33:1 34:3 35:1 36:3 37:4 38:2 39:3 40:3 41:3 42:4 43:4 44:4 45:4 46:4 47:1 48:1 49:4 50:3 51:3 52:4 53:4 54:1 55:3 56:1 57:1 58:4 59:4 60:4 
3.425563030054261 1:1 2:3 3:2 4:2 5:1 6:2 7:3 8:2 9:2 10:2 11:4 12:2 13:3 14:2 15:2 16:4 17:4 18:3 19:3 20:4 21:2 22:3 23:1 24:3 25:1 26:2 27:1 28:2 29:1 30:3 31:1 32:4 33:3 34:4 35:1 36:4 37:1 38:1 39:3 40:3 41:1 42:1 43:2 44:1 45:2 46:2 47:1 48:2 49:2 50:1 51:3 52:4 53:4 54:2 55:3 56:2 57:3 58:4 59:4 60:3 
2.699723489120527 1:2 2:2 3:4 4:2 5:1 6:4 7:1 8:2 9:2 10:1 11:3 12:4 13:1 14:2 15:1 16:2 17:2 18:1 19:2 20:4 21:1 22:1 23:3 24:4 25:2 26:2 27:1 28:4 29:1 30:4 31:4 32:4 33:3 34:1 35:3 36:3 37:4 38:4 39:3 40:1 41:1 42:3 43:4 44:4 45:1 46:4 47:1 48:3 49:3 50:4 51:2 52:1 53:1 54:2 55:3 56:4 57:2 58:3 59:3 60:3 
2.89084628869936 1:4 2:2 3:2 4:2 5:4 6:4 7:3 8:3 9:1 10:1 11:1 12:4 13:4 14:1 15:1 16:4 17:1 18:2 19:4 20:4 21:2 22:4 23:1 24:1 25:2 26:4 27:1 28:4 29:2 30:1 31:2 32:4 33:3 34:4 35:2 36:3 37:3 38:1 39:2 40:4 41:3 42:1 43:1 44:4 45:1 46:1 47:1 48:4 49:1 50:3 51:1 52:4 53:2 54:2 55:1 56:4 57:1 58:4 59:1 60:1 
1.571192188102711 1:3 2:4 3:4 4:3 5:1 6:1 7:1 8:2 9:3 10:4 11:2 12:1 13:2 14:1 15:1 16:2 17:1 18:1 19:1 20:4 21:3 22:4 23:2 24:3 25:1 26:2 27:1 28:1 29:3 30:1 31:1 32:4 33:2 34:3 35:4 36:2 37:1 38:2 39:4 40:2 41:2 42:2 43:4 44:4 45:4 46:1 47:4 48:3 49:1 50:1 51:2 52:2 53:2 54:2 55:3 56:3 57:1 58:4 59:4 60:1 
0.7206773906712828 1:2 2:2 3:1 4:3 5:3 6:3 7:4 8:1 9:1 10:2 11:3 12:4 13:3 14:3 15:1 16:2 17:1 18:4 19:2 20:2 21:2 22:3 23:1 24:1 25:2 26:1 27:1 28:2 29:3 30:4 31:3 32:3 33:3 34:2 35:3 36:4 37:3 38:3 39:1 40:3 41:3 42:4 43:3 44:1 45:3 46:3 47:3 48:4 49:2 50:3 51:3 52:3 53:3 54:1 55:2 56:2 57:3 58:3 59:4 60:4 
0.2998854891948949 1:1 2:4 3:4 4:4 5:4 6:4 7:3 8:1 9:2 10:1 11:4 12:1 13:3 14:1 15:1 16:4 17:2 18:4 19:2 20:1 21:1 22:2 23:1 24:3 25:1 26:4 27:4 28:2 29:1 30:1 31:2 32:1 33:4 34:1 35:4 36:2 37:4 38:2 39:2 40:4 41:3 42:3 43:4 44:3 45:3 46:4 47:2 48:1 49:1 50:1 51:2 52:4 53:3 54:1 55:3 56:4 57:2 58:2 59:3 60:4 
5.301582359913989 1:4 2:4 3:4 4:2 5:2 6:1 7:1 8:3 9:3 10:4 11:1 12:2 13:1 14:3 15:1 16:4 17:3 18:3 19:3 20:3 21:3 22:3 23:4 24:4 25:2 26:3 27:3 28:4 29:2 30:2 31:1 32:3 33:4 34:3 35:4 36:2 37:1 38:2 39:3 40:4 41:2 42:1 43:3 44:3 45:2 46:1 47:1 48:4 49:4 50:3 51:3 52:3 53:3 54:3 55:4 56:2 57:3 58:2 59:3 60:1 
3.210399920289699 1:3 2:2 3:2 4:2 5:2 6:4 7:3 8:1 9:3 10:2 11:4 12:2 13:3 14:4 15:3 16:2 17:3 18:3 19:1 20:1 21:2 22:2 23:1 24:2 25:3 26:4 27:3 28:2 29:1 30:2 31:2 32:3 33:2 34:4 35:4 36:3 37:1 38:2 39:2 40:2 41:1 42:2 43:2 44:3 45:3 46:1 47:1 48:1 49:3 50:2 51:4 52:3 53:1 54:3 55:3 56:2 57:4 58:3 59:3 60:3 
1.40817916754923 1:3 2:4 3:3 4:4 5:4 6:4 7:2 8:4 9:3 10:3 11:4 12:4 13:4 14:2 15:2 16:2 17:3 18:3 19:3 20:4 21:4 22:2 23:2 24:4 25:2 26:2 27:1 28:2 29:1 30:1 31:3 32:1 33:2 34:4 35:2 36:3 37:1 38:4 39:3 40:3 41:4 42:4 43:3 44:1 45:2 46:1 47:1 48:3 49:1 50:2 51:4 52:2 53:3 54:1 55:4 56:3 57:4 58:4 59:1 60:1 
3.885171024404389 1:4 2:2 3:4 4:4 5:3 6:3 7:4 8:2 9:3 10:3 11:4 12:4 13:1 14:1 15:3 16:4 17:2 18:1 19:4 20:2 21:1 22:3 23:1 24:4 25:4 26:2 27:4 28:3 29:4 30:4 31:2 32:4 33:2 34:1 35:1 36:1 37:2 38:4 39:3 40:3 41:4 42:4 43:3 44:4 45:3 46:3 47:4 48:2 49:2 50:3 51:4 52:3 53:1 54:4 55:3 56:3 57:4 58:2 59:2 60:3 
0.6563108035951705 1:4 2:4 3:4 4:2 5:3 6:3 7:3 8:3 9:4 10:2 11:2 12:3 13:1 14:1 15:1 16:4 17:2 18:3 19:1 20:3 21:1 22:3 23:1 24:3 25:3 26:4 27:3 28:1 29:4 30:2 31:3 32:4 33:1 34:2 35:3 36:3 37:4 38:3 39:1 40:3 41:2 42:1 43:1 44:1 45:3 46:4 47:2 48:2 49:1 50:1 51:4 52:1 53:1 54:2 55:3 56:3 57:4 58:4 59:3 60:2 
0.8027637690232049 1:1 2:1 3:3 4:4 5:3 6:1 7:1 8:1 9:3 10:1 11:2 12:1 13:1 14:2 15:2 16:4 17:2 18:4 19:3 20:4 21:2 22:4 23:4 24:1 25:1 26:4 27:2 28:1 29:2 30:1 31:2 32:1 33:2 34:4 35:2 36:1 37:4 38:2 39:3 40:3 41:3 42:1 43:4 44:3 45:4 46:2 47:3 48:3 49:4 50:1 51:3 52:3 53:1 54:4 55:3 56:3 57:1 58:1 59:2 60:2 
0.3596147624005839 1:3 2:1 3:4 4:1 5:4 6:2 7:4 8:4 9:2 10:1 11:1 12:1 13:1 14:1 15:4 16:2 17:1 18:4 19:3 20:1 21:1 22:1 23:4 24:3 25:1 26:2 27:2 28:1 29:4 30:1 31:4 32:4 33:4 34:1 35:2 36:2 37:1 38:4 39:2 40:4 41:2 42:3 43:1 44:4 45:3 46:1 47:2 48:3 49:4 50:3 51:1 52:4 53:2 54:4 55:1 56:4 57:4 58:4 59:1 60:3 
1.157734202354671 1:2 2:1 3:2 4:3 5:4 6:2 7:1 8:2 9:3 10:1 11:2 12:3 13:3 14:4 15:2 16:1 17:2 18:1 19:4 20:3 21:4 22:2 23:1 24:2 25:2 26:1 27:3 28:1 29:3 30:2 31:2 32:3 33:3 34:2 35:4 36:2 37:4 38:1 39:4 40:4 41:1 42:3 43:4 44:2 45:4 46:2 47:3 48:2 49:1 50:3 51:3 52:2 53:3 54:1 55:1 56:3 57:4 58:2 59:2 60:1 
6.862396050548858 1:1 2:1 3:2 4:2 5:2 6:1 7:2 8:4 9:2 10:2 11:3 12:4 13:4 14:3 15:3 16:4 17:3 18:4 19:3 20:4 21:2 22:3 23:3 24:4 25:3 26:4 27:2 28:4 29:2 30:3 31:3 32:3 33:1 34:3 35:4 36:2 37:1 38:3 39:1 40:4 41:2 42:4 43:1 44:2 45:2 46:2 47:2 48:1 49:2 50:1 51:2 52:2 53:2 54:2 55:1 56:1 57:2 58:1 59:4 60:2 
1.209861555760615 1:4 2:4 3:4 4:1 5:3 6:1 7:3 8:3 9:4 10:2 11:3 12:3 13:1 14:1 15:2 16:4 17:2 18:2 19:1 20:2 21:3 22:1 23:3 24:3 25:3 26:1 27:1 28:2 29:3 30:2 31:4 32:2 33:1 34:3 35:2 36:1 37:2 38:3 39:3 40:3 41:4 42:3 43:4 44:3 45:1 46:3 47:1 48:2 49:4 50:2 51:2 52:1 53:1 54:4 55:2 56:2 57:1 58:2 59:1 60:2 
5.370994423740354 1:3 2:3 3:2 4:3 5:2 6:3 7:3 8:3 9:4 10:2 11:2 12:4 13:4 14:3 15:3 16:3 17:3 18:1 19:2 20:2 21:2 22:3 23:3 24:3 25:3 26:1 27:2 28:3 29:2 30:2 31:1 32:3 33:2 34:4 35:2 36:2 37:4 38:3 39:3 40:1 41:4 42:3 43:3 44:3 45:3 46:4 47:4 48:3 49:4 50:2 51:3 52:1 53:4 54:3 55:3 56:4 57:3 58:3 59:2 60:3 
3.247987930302617 1:3 2:1 3:4 4:3 5:2 6:4 7:3 8:4 9:1 10:3 11:3 12:4 13:2 14:2 15:2 16:4 17:3 18:2 19:3 20:4 21:3 22:1 23:1 24:2 25:2 26:3 27:4 28:4 29:1 30:1 31:3 32:4 33:3 34:3 35:1 36:1 37:3 38:1 39:3 40:2 41:3 42:1 43:1 44:2 45:2 46:2 47:2 48:1 49:2 50:1 51:4 52:2 53:1 54:1 55:2 56:4 57:4 58:4 59:2 60:1 
2.069815860886933 1:2 2:3 3:1 4:2 5:4 6:1 7:1 8:1 9:1 10:2 11:3 12:1 13:3 14:1 15:4 16:3 17:1 18:2 19:2 20:4 21:2 22:1 23:1 24:1 25:1 26:1 27:4 28:3 29:1 30:3 31:1 32:4 33:2 34:4 35:2 36:2 37:1 38:4 39:4 40:4 41:4 42:4 43:2 44:4 45:1 46:1 47:1 48:4 49:2 50:3 51:3 52:4 53:4 54:1 55:1 56:4 57:4 58:2 59:1 60:1 
0.1429325845033982 1:1 2:4 3:3 4:3 5:1 6:2 7:1 8:1 9:3 10:4 11:2 12:3 13:3 14:3 15:3 16:3 17:4 18:2 19:2 20:2 21:1 22:2 23:2 24:3 25:1 26:1 27:2 28:1 29:2 30:2 31:2 32:3 33:3 34:2 35:3 36:2 37:3 38:3 39:2 40:2 41:1 42:3 43:3 44:4 45:3 46:2 47:1 48:3 49:2 50:4 51:2 52:3 53:2 54:3 55:1 56:1 57:2 58:2 59:4 60:2 
3.737811859391678 1:2 2:3 3:2 4:1 5:1 6:2 7:3 8:3 9:3 10:4 11:3 12:3 13:4 14:3 15:3 16:4 17:4 18:3 19:4 20:3 21:3 22:3 23:3 24:4 25:2 26:3 27:3 28:2 29:2 30:4 31:2 32:3 33:1 34:3 35:1 36:2 37:2 38:3 39:3 40:4 41:3 42:4 43:2 44:3 45:3 46:4 47:2 48:3 49:4 50:2 51:2 52:2 53:2 54:1 55:4 56:4 57:1 58:3 59:4 60:3 
1.911565331822398 1:2 2:2 3:4 4:1 5:2 6:3 7:2 8:2 9:2 10:1 11:4 12:1 13:1 14:2 15:4 16:3 17:1 18:3 19:4 20:2 21:4 22:4 23:4 24:4 25:3 26:4 27:4 28:4 29:1 30:4 31:4 32:4 33:3 34:4 35:4 36:4 37:1 38:1 39:1 40:1 41:1 42:1 43:1 44:1 45:1 46:1 47:1 48:1 49:1 50:2 51:4 52:4 53:3 54:4 55:2 56:4 57:4 58:2 59:3 60:1 
4.161556137655557 1:2 2:2 3:2 4:1 5:1 6:2 7:2 8:2 9:4 10:3 11:4 12:3 13:4 14:2 15:2 16:2 17:4 18:3 19:4 20:4 21:4 22:2 23:4 24:2 25:2 26:2 27:4 28:2 29:2 30:4 31:2 32:4 33:2 34:3 35:3 36:1 37:3 38:2 39:4 40:2 41:2 42:2 43:1 44:4 45:2 46:2 47:2 48:1 49:1 50:2 51:2 52:3 53:3 54:2 55:2 56:2 57:2 58:3 59:4 60:3 
0.5325218451977252 1:1 2:4 3:3 4:4 5:2 6:3 7:1 8:4 9:3 10:1 11:1 12:2 13:3 14:4 15:2 16:1 17:1 18:2 19:4 20:4 21:3 22:4 23:2 24:4 25:2 26:4 27:3 28:3 29:4 30:3 31:1 32:3 33:2 34:1 35:2 36:3 37:4 38:2 39:1 40:4 41:4 42:4 43:3 44:1 45:3 46:3 47:4 48:4 49:4 50:2 51:3 52:1 53:3 54:1 55:2 56:1 57:4 58:3 59:4 60:4 
2.475198339982567 1:1 2:2 3:2 4:4 5:4 6:3 7:1 8:1 9:3 10:1 11:4 12:3 13:2 14:2 15:4 16:2 17:2 18:3 19:3 20:3 21:3 22:1 23:3 24:1 25:4 26:3 27:3 28:4 29:3 30:3 31:1 32:4 33:4 34:3 35:3 36:3 37:1 38:4 39:3 40:4 41:4 42:2 43:4 44:2 45:3 46:4 47:3 48:3 49:4 50:1 51:3 52:4 53:4 54:3 55:4 56:4 57:4 58:2 59:1 60:4 
0.5386247912764743 1:2 2:3 3:4 4:2 5:2 6:3 7:4 8:3 9:4 10:2 11:4 12:2 13:1 14:2 15:2 16:2 17:4 18:2 19:3 20:4 21:2 22:1 23:3 24:4 25:2 26:2 27:3 28:4 29:4 30:3 31:1 32:2 33:3 34:1 35:1 36:2 37:4 38:4 39:1 40:2 41:1 42:1 43:3 44:4 45:1 46:2 47:3 48:3 49:1 50:1 51:1 52:3 53:3 54:1 55:2 56:2 57:1 58:3 59:3 60:3 
1.760709614788901 1:2 2:4 3:3 4:3 5:2 6:4 7:2 8:3 9:3 10:4 11:4 12:3 13:1 14:2 15:1 16:2 17:3 18:1 19:2 20:4 21:2 22:4 23:3 24:4 25:1 26:2 27:2 28:1 29:2 30:2 31:4 32:2 33:2 34:1 35:2 36:4 37:2 38:2 39:3 40:3 41:1 42:2 43:3 44:4 45:4 46:2 47:2 48:1 49:2 50:4 51:2 52:2 53:3 54:3 55:3 56:4 57:4 58:4 59:2 60:3 
0.01084509711051035 1:3 2:3 3:1 4:3 5:4 6:3 7:3 8:4 9:3 10:4 11:4 12:3 13:2 14:2 15:1 16:3 17:4 18:3 19:1 20:1 21:4 22:1 23:1 24:3 25:2 26:3 27:1 28:2 29:1 30:3 31:3 32:1 33:2 34:1 35:1 36:3 37:2 38:1 39:2 40:4 41:2 42:3 43:1 44:4 45:3 46:1 47:4 48:4 49:2 50:3 51:3 52:1 53:1 54:3 55:3 56:3 57:2 58:2 59:3 60:3 
2.660836344429541 1:1 2:4 3:4 4:3 5:3 6:4 7:3 8:4 9:1 10:2 11:3 12:2 13:1 14:2 15:1 16:1 17:4 18:3 19:1 20:3 21:3 22:3 23:4 24:2 25:3 26:3 27:1 28:2 29:1 30:3 31:4 32:4 33:3 34:3 35:2 36:4 37:4 38:4 39:1 40:3 41:3 42:1 43:2 44:1 45:1 46:1 47:4 48:3 49:2 50:3 51:1 52:1 53:4 54:4 55:3 56:3 57:1 58:2 59:1 60:1 
1.259674295350392 1:3 2:4 3:2 4:4 5:1 6:1 7:2 8:1 9:3 10:4 11:4 12:3 13:3 14:4 15:1 16:3 17:4 18:4 19:1 20:4 21:4 22:1 23:4 24:4 25:2 26:4 27:4 28:1 29:3 30:3 31:1 32:4 33:1 34:3 35:4 36:4 37:4 38:3 39:3 40:4 41:4 42:4 43:1 44:1 45:1 46:4 47:4 48:4 49:4 50:1 51:2 52:4 53:2 54:2 55:1 56:1 57:1 58:4 59:4 60:4 
0.3448658602370239 1:2 2:3 3:4 4:1 5:4 6:4 7:1 8:3 9:4 10:1 11:3 12:3 13:1 14:1 15:2 16:3 17:3 18:4 19:2 20:4 21:4 22:1 23:2 24:4 25:4 26:1 27:1 28:2 29:2 30:2 31:3 32:1 33:1 34:1 35:2 36:2 37:3 38:1 39:1 40:2 41:1 42:1 43:1 44:4 45:4 46:2 47:4 48:1 49:1 50:4 51:4 52:4 53:2 54:2 55:2 56:2 57:3 58:4 59:2 60:4 
0.9305850069421961 1:1 2:1 3:2 4:1 5:3 6:4 7:4 8:3 9:4 10:2 11:1 12:2 13:1 14:1 15:2 16:4 17:2 18:2 19:4 20:4 21:3 22:1 23:2 24:2 25:1 26:4 27:2 28:2 29:2 30:4 31:4 32:4 33:3 34:1 35:2 36:1 37:1 38:3 39:4 40:3 41:4 42:2 43:1 44:2 45:4 46:1 47:1 48:1 49:2 50:4 51:1 52:1 53:2 54:2 55:4 56:3 57:2 58:2 59:1 60:3 
1.638142827097573 1:4 2:1 3:2 4:1 5:4 6:2 7:2 8:4 9:3 10:3 11:4 12:2 13:1 14:2 15:2 16:1 17:1 18:1 19:1 20:2 21:4 22:4 23:4 24:1 25:4 26:1 27:2 28:3 29:4 30:4 31:2 32:4 33:3 34:4 35:1 36:4 37:4 38:4 39:3 40:4 41:3 42:4 43:3 44:4 45:3 46:4 47:1 48:1 49:3 50:1 51:4 52:1 53:2 54:4 55:4 56:2 57:4 58:3 59:1 60:2 
2.796077768800224 1:2 2:2 3:1 4:1 5:2 6:1 7:3 8:1 9:1 10:1 11:2 12:4 13:2 14:1 15:2 16:1 17:4 18:3 19:3 20:4 21:4 22:4 23:3 24:4 25:3 26:1 27:1 28:1 29:1 30:1 31:1 32:1 33:1 34:1 35:1 36:1 37:1 38:1 39:1 40:1 41:3 42:4 43:4 44:4 45:2 46:2 47:2 48:4 49:2 50:2 51:1 52:1 53:2 54:2 55:4 56:2 57:2 58:2 59:2 60:4 
1.519784302391769 1:2 2:2 3:1 4:4 5:2 6:3 7:4 8:3 9:1 10:2 11:2 12:3 13:3 14:1 15:4 16:2 17:3 18:3 19:3 20:3 21:2 22:2 23:3 24:4 25:2 26:4 27:4 28:2 29:2 30:1 31:1 32:3 33:3 34:4 35:3 36:3 37:4 38:2 39:4 40:4 41:4 42:4 43:2 44:1 45:3 46:1 47:3 48:4 49:4 50:2 51:1 52:4 53:3 54:3 55:3 56:1 57:1 58:4 59:2 60:1 
1.763754369114674 1:1 2:4 3:2 4:2 5:1 6:2 7:2 8:3 9:3 10:3 11:3 12:1 13:2 14:3 15:3 16:3 17:3 18:4 19:3 20:4 21:3 22:4 23:4 24:3 25:3 26:3 27:4 28:2 29:1 30:3 31:4 32:3 33:4 34:3 35:3 36:2 37:2 38:3 39:4 40:3 41:4 42:3 43:3 44:3 45:4 46:3 47:3 48:3 49:4 50:3 51:1 52:2 53:2 54:3 55:4 56:2 57:2 58:3 59:3 60:2 
0.04532235402326007 1:3 2:4 3:4 4:1 5:4 6:2 7:1 8:2 9:1 10:1 11:1 12:4 13:1 14:2 15:4 16:1 17:4 18:4 19:4 20:2 21:3 22:3 23:4 24:1 25:2 26:4 27:2 28:4 29:4 30:4 31:4 32:3 33:1 34:4 35:1 36:4 37:1 38:1 39:1 40:1 41:4 42:1 43:4 44:3 45:2 46:3 47:1 48:4 49:2 50:1 51:4 52:1 53:1 54:4 55:1 56:3 57:3 58:1 59:4 60:4 
0.1924960732518282 1:4 2:2 3:4 4:3 5:4 6:3 7:4 8:1 9:3 10:1 11:2 12:1 13:2 14:1 15:2 16:3 17:4 18:4 19:3 20:1 21:2 22:2 23:1 24:2 25:1 26:3 27:4 28:4 29:3 30:3 31:1 32:2 33:1 34:3 35:2 36:1 37:3 38:1 39:1 40:1 41:2 42:3 43:4 44:2 45:1 46:1 47:4 48:2 49:2 50:1 51:4 52:4 53:4 54:2 55:1 56:2 57:2 58:4 59:3 60:4 
0.4795891221114098 1:2 2:1 3:1 4:1 5:2 6:4 7:2 8:3 9:3 10:2 11:1 12:2 13:1 14:4 15:3 16:3 17:4 18:2 19:3 20:1 21:2 22:2 23:3 24:4 25:2 26:4 27:2 28:3 29:3 30:2 31:4 32:3 33:3 34:2 35:2 36:4 37:2 38:1 39:2 40:2 41:2 42:2 43:2 44:1 45:4 46:2 47:3 48:1 49:4 50:4 51:4 52:2 53:1 54:2 55:3 56:4 57:2 58:1 59:3 60:4 
5.959916108331053 1:1 2:4 3:2 4:1 5:2 6:2 7:2 8:1 9:2 10:2 11:4 12:1 13:2 14:2 15:2 16:1 17:3 18:2 19:2 20:4 21:1 22:3 23:4 24:2 25:4 26:3 27:3 28:3 29:1 30:2 31:2 32:4 33:1 34:4 35:1 36:4 37:4 38:3 39:2 40:1 41:1 42:1 43:2 44:4 45:3 46:3 47:1 48:4 49:1 50:1 51:4 52:2 53:2 54:4 55:4 56:3 57:1 58:2 59:1 60:1 
1.890271895320447 1:1 2:2 3:4 4:4 5:2 6:3 7:3 8:4 9:4 10:4 11:2 12:1 13:4 14:3 15:4 16:2 17:2 18:3 19:2 20:1 21:3 22:1 23:3 24:1 25:4 26:3 27:2 28:4 29:2 30:2 31:3 32:4 33:1 34:4 35:2 36:1 37:4 38:4 39:3 40:1 41:2 42:1 43:3 44:1 45:1 46:3 47:3 48:3 49:4 50:3 51:2 52:1 53:3 54:4 55:4 56:3 57:2 58:4 59:2 60:2 
0.6853603592256903 1:2 2:1 3:1 4:1 5:4 6:2 7:3 8:1 9:1 10:2 11:1 12:1 13:1 14:3 15:2 16:2 17:2 18:4 19:3 20:1 21:3 22:3 23:1 24:4 25:3 26:3 27:4 28:2 29:2 30:4 31:2 32:2 33:1 34:2 35:2 36:2 37:1 38:2 39:2 40:1 41:2 42:1 43:2 44:1 45:4 46:4 47:2 48:1 49:2 50:3 51:4 52:2 53:4 54:4 55:4 56:2 57:1 58:3 59:2 60:2 
1.74811483115139 1:1 2:3 3:4 4:1 5:3 6:4 7:3 8:4 9:2 10:3 11:1 12:3 13:4 14:1 15:1 16:1 17:2 18:3 19:3 20:1 21:4 22:4 23:4 24:2 25:3 26:3 27:3 28:3 29:1 30:1 31:4 32:4 33:4 34:1 35:1 36:2 37:4 38:4 39:4 40:1 41:4 42:1 43:1 44:1 45:4 46:4 47:1 48:3 49:3 50:1 51:2 52:4 53:4 54:4 55:3 56:2 57:2 58:4 59:1 60:1 
2.816302230449576 1:3 2:1 3:3 4:1 5:2 6:3 7:3 8:4 9:4 10:4 11:2 12:4 13:2 14:4 15:3 16:3 17:1 18:1 19:2 20:3 21:1 22:2 23:2 24:1 25:2 26:2 27:2 28:3 29:1 30:2 31:3 32:2 33:1 34:2 35:2 36:4 37:1 38:2 39:4 40:2 41:1 42:1 43:2 44:1 45:2 46:1 47:3 48:3 49:3 50:1 51:2 52:2 53:3 54:2 55:3 56:4 57:1 58:3 59:3 60:4 
2.791347089280987 1:4 2:2 3:2 4:1 5:1 6:4 7:4 8:4 9:1 10:1 11:2 12:4 13:1 14:4 15:2 16:1 17:4 18:4 19:4 20:3 21:1 22:1 23:4 24:4 25:3 26:4 27:4 28:3 29:1 30:1 31:4 32:2 33:3 34:4 35:2 36:4 37:1 38:3 39:4 40:3 41:4 42:1 43:3 44:3 45:2 46:3 47:4 48:1 49:1 50:1 51:2 52:2 53:1 54:2 55:3 56:1 57:2 58:4 59:4 60:2 
2.719512265324207 1:3 2:4 3:2 4:3 5:4 6:1 7:3 8:4 9:4 10:3 11:4 12:1 13:2 14:4 15:4 16:4 17:3 18:1 19:2 20:3 21:4 22:2 23:2 24:3 25:1 26:4 27:2 28:3 29:2 30:2 31:1 32:3 33:4 34:2 35:1 36:1 37:2 38:1 39:4 40:3 41:4 42:3 43:3 44:3 45:1 46:1 47:1 48:2 49:2 50:3 51:4 52:2 53:4 54:2 55:2 56:4 57:2 58:4 59:4 60:3 
2.338081035437706 1:1 2:3 3:1 4:3 5:1 6:3 7:1 8:3 9:1 10:3 11:3 12:3 13:4 14:2 15:4 16:3 17:3 18:1 19:3 20:1 21:1 22:1 23:2 24:2 25:2 26:3 27:3 28:4 29:1 30:2 31:2 32:1 33:1 34:1 35:3 36:4 37:1 38:3 39:2 40:4 41:2 42:3 43:3 44:3 45:4 46:4 47:3 48:1 49:2 50:3 51:3 52:1 53:4 54:2 55:3 56:1 57:3 58:3 59:3 60:2 
5.364667999700853 1:4 2:2 3:4 4:2 5:2 6:1 7:3 8:1 9:1 10:2 11:4 12:1 13:3 14:1 15:1 16:3 17:2 18:4 19:2 20:1 21:2 22:3 23:2 24:2 25:3 26:1 27:3 28:3 29:1 30:1 31:3 32:2 33:2 34:2 35:1 36:3 37:3 38:4 39:2 40:3 41:3 42:4 43:2 44:3 45:4 46:2 47:2 48:3 49:3 50:1 51:2 52:3 53:1 54:4 55:2 56:2 57:2 58:2 59:3 60:4 
2.124196739768056 1:4 2:1 3:1 4:1 5:4 6:1 7:1 8:4 9:4 10:4 11:4 12:1 13:1 14:2 15:1 16:1 17:1 18:2 19:3 20:4 21:2 22:2 23:4 24:4 25:3 26:1 27:3 28:1 29:1 30:2 31:2 32:4 33:2 34:3 35:3 36:1 37:3 38:1 39:4 40:4 41:4 42:2 43:1 44:4 45:2 46:1 47:1 48:1 49:2 50:3 51:1 52:1 53:1 54:1 55:4 56:1 57:3 58:1 59:2 60:4 
1.544328054408063 1:4 2:1 3:1 4:1 5:1 6:2 7:1 8:3 9:2 10:2 11:1 12:1 13:2 14:1 15:4 16:1 17:3 18:1 19:1 20:4 21:1 22:1 23:4 24:1 25:3 26:4 27:4 28:4 29:3 30:3 31:4 32:4 33:1 34:3 35:1 36:2 37:2 38:2 39:4 40:4 41:3 42:4 43:2 44:1 45:2 46:1 47:3 48:4 49:1 50:3 51:4 52:1 53:1 54:2 55:1 56:2 57:1 58:1 59:3 60:4 
5.179552972867846 1:3 2:1 3:2 4:1 5:3 6:1 7:1 8:1 9:3 10:3 11:4 12:3 13:4 14:3 15:4 16:3 17:3 18:1 19:2 20:1 21:1 22:3 23:4 24:3 25:1 26:2 27:3 28:3 29:1 30:4 31:1 32:4 33:2 34:1 35:3 36:4 37:3 38:4 39:3 40:4 41:3 42:4 43:3 44:3 45:1 46:2 47:1 48:1 49:3 50:4 51:3 52:1 53:2 54:4 55:3 56:1 57:2 58:1 59:3 60:1 
2.232931733394513 1:1 2:3 3:1 4:2 5:4 6:4 7:4 8:4 9:3 10:4 11:2 12:3 13:4 14:4 15:4 16:1 17:1 18:4 19:4 20:4 21:3 22:1 23:4 24:2 25:1 26:1 27:1 28:1 29:2 30:1 31:4 32:4 33:1 34:4 35:2 36:1 37:4 38:3 39:4 40:3 41:1 42:2 43:1 44:1 45:1 46:4 47:4 48:2 49:4 50:1 51:4 52:3 53:4 54:4 55:1 56:2 57:4 58:4 59:2 60:2 
5.946443564354368 1:2 2:4 3:2 4:1 5:2 6:2 7:4 8:4 9:4 10:2 11:4 12:4 13:4 14:3 15:4 16:1 17:3 18:3 19:1 20:2 21:4 22:4 23:1 24:4 25:4 26:3 27:3 28:2 29:2 30:1 31:2 32:4 33:1 34:1 35:3 36:3 37:1 38:2 39:1 40:4 41:1 42:1 43:1 44:2 45:1 46:2 47:1 48:4 49:2 50:3 51:3 52:3 53:4 54:3 55:4 56:2 57:4 58:4 59:4 60:3 
3.925159487556743 1:3 2:4 3:3 4:4 5:2 6:3 7:3 8:4 9:2 10:4 11:2 12:3 13:1 14:3 15:2 16:2 17:3 18:3 19:1 20:2 21:3 22:4 23:2 24:3 25:1 26:4 27:3 28:4 29:1 30:3 31:4 32:3 33:1 34:2 35:2 36:3 37:3 38:3 39:3 40:1 41:1 42:2 43:2 44:2 45:2 46:4 47:4 48:4 49:3 50:4 51:2 52:4 53:4 54:4 55:3 56:4 57:1 58:4 59:4 60:3 
1.808065806034983 1:3 2:1 3:2 4:3 5:4 6:2 7:3 8:3 9:1 10:3 11:3 12:3 13:2 14:2 15:3 16:4 17:2 18:3 19:2 20:2 21:3 22:2 23:1 24:3 25:3 26:3 27:3 28:1 29:1 30:2 31:3 32:2 33:3 34:3 35:4 36:3 37:2 38:2 39:2 40:3 41:3 42:3 43:3 44:4 45:2 46:3 47:2 48:3 49:2 50:2 51:3 52:4 53:4 54:3 55:3 56:1 57:2 58:4 59:2 60:2 
8 1:3 2:2 3:2 4:3 5:2 6:3 7:3 8:2 9:3 10:2 11:1 12:2 13:3 14:4 15:4 16:3 17:4 18:3 19:3 20:4 21:3 22:4 23:3 24:3 25:4 26:3 27:1 28:3 29:2 30:1 31:3 32:3 33:2 34:1 35:2 36:2 37:3 38:1 39:2 40:1 41:2 42:3 43:1 44:2 45:4 46:3 47:1 48:4 49:4 50:1 51:4 52:2 53:2 54:3 55:2 56:1 57:1 58:3 59:3 60:4 
2.273222093242311 1:1 2:1 3:3 4:4 5:3 6:3 7:1 8:3 9:1 10:2 11:4 12:3 13:3 14:3 15:3 16:3 17:2 18:3 19:4 20:2 21:3 22:2 23:2 24:2 25:1 26:1 27:3 28:3 29:1 30:4 31:2 32:2 33:1 34:3 35:1 36:1 37:1 38:1 39:3 40:4 41:2 42:3 43:4 44:4 45:3 46:1 47:3 48:4 49:3 50:4 51:1 52:3 53:4 54:1 55:1 56:1 57:1 58:1 59:2 60:4 
2.451931543735016 1:4 2:2 3:2 4:1 5:4 6:2 7:4 8:2 9:2 10:4 11:2 12:2 13:3 14:1 15:4 16:1 17:3 18:2 19:3 20:3 21:4 22:2 23:4 24:1 25:2 26:4 27:3 28:3 29:4 30:1 31:2 32:3 33:3 34:1 35:3 36:4 37:3 38:1 39:2 40:2 41:1 42:2 43:2 44:3 45:4 46:2 47:1 48:2 49:2 50:3 51:1 52:2 53:2 54:1 55:2 56:2 57:1 58:4 59:4 60:2 
2.504116961790427 1:1 2:1 3:2 4:1 5:1 6:2 7:2 8:3 9:3 10:1 11:2 12:4 13:4 14:2 15:4 16:1 17:4 18:2 19:2 20:1 21:3 22:3 23:2 24:4 25:2 26:4 27:2 28:2 29:4 30:2 31:2 32:4 33:2 34:2 35:4 36:2 37:2 38:2 39:2 40:2 41:4 42:2 43:2 44:4 45:2 46:2 47:3 48:2 49:2 50:3 51:2 52:2 53:3 54:2 55:2 56:3 57:2 58:2 59:3 60:2 
2.471064361957416 1:3 2:3 3:4 4:2 5:2 6:3 7:1 8:4 9:3 10:2 11:1 12:2 13:4 14:3 15:2 16:2 17:4 18:1 19:2 20:1 21:4 22:2 23:3 24:3 25:1 26:2 27:2 28:1 29:1 30:4 31:2 32:3 33:4 34:2 35:4 36:4 37:1 38:1 39:1 40:3 41:1 42:4 43:4 44:3 45:4 46:1 47:4 48:1 49:2 50:4 51:1 52:3 53:1 54:3 55:1 56:2 57:2 58:1 59:4 60:2 
3.202132500218132 1:1 2:1 3:2 4:1 5:3 6:4 7:4 8:4 9:4 10:4 11:1 12:4 13:1 14:2 15:2 16:3 17:4 18:2 19:2 20:4 21:3 22:1 23:3 24:1 25:3 26:3 27:3 28:2 29:2 30:1 31:2 32:3 33:1 34:2 35:2 36:1 37:2 38:4 39:3 40:1 41:2 42:3 43:3 44:3 45:3 46:1 47:2 48:4 49:3 50:1 51:2 52:2 53:1 54:3 55:1 56:3 57:1 58:2 59:3 60:1 
1.938254901317946 1:2 2:1 3:3 4:4 5:2 6:2 7:4 8:1 9:1 10:1 11:2 12:4 13:3 14:4 15:4 16:4 17:2 18:1 19:1 20:1 21:1 22:4 23:1 24:4 25:2 26:4 27:2 28:4 29:1 30:1 31:4 32:1 33:4 34:2 35:4 36:1 37:1 38:1 39:1 40:3 41:1 42:4 43:4 44:4 45:4 46:2 47:1 48:3 49:1 50:3 51:3 52:3 53:3 54:3 55:1 56:4 57:1 58:1 59:4 60:1 
0.8510337575330907 1:4 2:4 3:3 4:3 5:4 6:3 7:3 8:2 9:1 10:2 11:2 12:3 13:3 14:1 15:2 16:4 17:1 18:3 19:3 20:4 21:4 22:4 23:3 24:3 25:1 26:4 27:4 28:4 29:1 30:4 31:4 32:3 33:4 34:4 35:4 36:2 37:1 38:4 39:3 40:4 41:4 42:3 43:1 44:2 45:2 46:2 47:1 48:1 49:3 50:4 51:2 52:3 53:1 54:4 55:1 56:2 57:1 58:4 59:4 60:2 
1.106545781486858 1:2 2:2 3:3 4:4 5:3 6:4 7:3 8:1 9:2 10:3 11:3 12:3 13:4 14:4 15:3 16:4 17:2 18:4 19:4 20:4 21:4 22:3 23:1 24:1 25:2 26:2 27:3 28:3 29:1 30:4 31:3 32:1 33:4 34:2 35:2 36:1 37:2 38:1 39:1 40:1 41:3 42:4 43:2 44:2 45:1 46:2 47:1 48:4 49:2 50:4 51:3 52:3 53:1 54:1 55:2 56:4 57:4 58:3 59:3 60:1 
1.441693712709498 1:3 2:1 3:4 4:2 5:1 6:4 7:2 8:2 9:2 10:4 11:2 12:2 13:4 14:2 15:3 16:4 17:2 18:1 19:2 20:2 21:4 22:2 23:1 24:4 25:4 26:3 27:2 28:3 29:3 30:1 31:2 32:1 33:1 34:1 35:2 36:4 37:4 38:3 39:2 40:4 41:4 42:2 43:3 44:4 45:3 46:4 47:3 48:3 49:4 50:4 51:2 52:2 53:1 54:2 55:3 56:3 57:1 58:2 59:2 60:1 
3.866246270318874 1:3 2:2 3:3 4:4 5:3 6:3 7:1 8:1 9:3 10:4 11:3 12:4 13:1 14:3 15:3 16:2 17:3 18:4 19:2 20:3 21:4 22:1 23:3 24:3 25:1 26:1 27:4 28:2 29:1 30:2 31:2 32:4 33:4 34:3 35:3 36:4 37:2 38:1 39:2 40:2 41:4 42:3 43:1 44:3 45:1 46:2 47:4 48:2 49:4 50:4 51:4 52:4 53:3 54:3 55:1 56:1 57:2 58:4 59:3 60:4 
0.2198049942900373 1:2 2:1 3:3 4:4 5:2 6:2 7:3 8:3 9:1 10:4 11:2 12:2 13:2 14:1 15:2 16:3 17:1 18:3 19:1 20:2 21:3 22:4 23:4 24:3 25:3 26:4 27:2 28:3 29:1 30:3 31:4 32:1 33:3 34:4 35:3 36:3 37:4 38:4 39:4 40:4 41:1 42:2 43:2 44:3 45:3 46:4 47:2 48:1 49:4 50:2 51:2 52:3 53:3 54:4 55:3 56:4 57:2 58:2 59:1 60:1 
1.764071173633041 1:4 2:4 3:1 4:3 5:3 6:1 7:1 8:3 9:4 10:1 11:4 12:4 13:4 14:4 15:4 16:2 17:4 18:3 19:1 20:4 21:1 22:4 23:4 24:3 25:4 26:4 27:3 28:1 29:1 30:1 31:2 32:1 33:1 34:2 35:2 36:1 37:1 38:1 39:1 40:1 41:1 42:4 43:2 44:4 45:4 46:4 47:3 48:4 49:2 50:3 51:1 52:4 53:2 54:4 55:2 56:1 57:1 58:1 59:2 60:2 
0.09184509790972155 1:4 2:4 3:1 4:4 5:4 6:3 7:1 8:1 9:1 10:4 11:4 12:4 13:4 14:4 15:2 16:4 17:4 18:1 19:2 20:4 21:3 22:4 23:4 24:2 25:3 26:4 27:1 28:1 29:4 30:2 31:4 32:3 33:4 34:4 35:4 36:4 37:1 38:4 39:1 40:2 41:2 42:2 43:1 44:1 45:1 46:1 47:1 48:1 49:1 50:1 51:1 52:1 53:1 54:1 55:1 56:1 57:1 58:1 59:2 60:3 
5.430324795514085 1:2 2:1 3:4 4:4 5:3 6:4 7:3 8:3 9:4 10:2 11:4 12:2 13:3 14:4 15:1 16:2 17:1 18:4 19:2 20:4 21:2 22:3 23:1 24:1 25:1 26:4 27:2 28:3 29:1 30:1 31:2 32:3 33:4 34:1 35:2 36:4 37:2 38:2 39:3 40:4 41:4 42:3 43:1 44:1 45:1 46:1 47:4 48:1 49:2 50:1 51:2 52:1 53:1 54:4 55:3 56:3 57:3 58:1 59:3 60:4 
0.5587967310487707 1:2 2:1 3:2 4:3 5:2 6:4 7:3 8:4 9:2 10:3 11:1 12:2 13:1 14:3 15:2 16:2 17:4 18:3 19:1 20:3 21:3 22:1 23:1 24:3 25:4 26:1 27:3 28:4 29:4 30:3 31:1 32:4 33:3 34:1 35:3 36:4 37:4 38:3 39:1 40:3 41:4 42:2 43:2 44:3 45:3 46:4 47:2 48:4 49:2 50:3 51:4 52:2 53:1 54:4 55:3 56:4 57:2 58:2 59:4 60:3 
1.820245976477839 1:2 2:2 3:3 4:4 5:2 6:2 7:1 8:3 9:3 10:2 11:1 12:3 13:3 14:1 15:3 16:1 17:2 18:3 19:2 20:3 21:2 22:4 23:2 24:3 25:1 26:2 27:4 28:1 29:1 30:2 31:4 32:3 33:2 34:2 35:3 36:3 37:3 38:3 39:3 40:4 41:2 42:3 43:3 44:3 45:3 46:2 47:4 48:3 49:3 50:4 51:2 52:3 53:3 54:3 55:4 56:2 57:3 58:3 59:2 60:2 
7.612586476461018 1:4 2:3 3:3 4:4 5:3 6:4 7:2 8:2 9:4 10:2 11:3 12:3 13:1 14:1 15:3 16:4 17:2 18:3 19:1 20:2 21:3 22:1 23:3 24:2 25:3 26:4 27:1 28:2 29:2 30:2 31:2 32:4 33:2 34:2 35:4 36:3 37:1 38:3 39:3 40:4 41:3 42:1 43:2 44:3 45:3 46:2 47:1 48:2 49:2 50:1 51:3 52:1 53:3 54:3 55:4 56:3 57:2 58:2 59:2 60:2 
1.126671744686463 1:3 2:4 3:3 4:3 5:2 6:2 7:3 8:2 9:3 10:1 11:2 12:4 13:2 14:4 15:4 16:2 17:2 18:2 19:1 20:3 21:4 22:2 23:4 24:3 25:4 26:2 27:2 28:2 29:4 30:1 31:4 32:3 33:2 34:2 35:1 36:1 37:1 38:2 39:3 40:1 41:1 42:2 43:3 44:3 45:4 46:1 47:3 48:2 49:4 50:4 51:2 52:3 53:4 54:3 55:1 56:3 57:4 58:1 59:4 60:4 
1.070527718254217 1:4 2:2 3:1 4:1 5:2 6:2 7:1 8:2 9:2 10:1 11:3 12:2 13:2 14:4 15:4 16:1 17:1 18:3 19:4 20:4 21:2 22:4 23:1 24:4 25:1 26:4 27:4 28:3 29:3 30:1 31:3 32:3 33:1 34:4 35:4 36:3 37:1 38:3 39:1 40:4 41:4 42:4 43:2 44:1 45:4 46:2 47:4 48:1 49:3 50:1 51:4 52:2 53:4 54:2 55:4 56:1 57:2 58:2 59:2 60:1 
0.8109128634761096 1:3 2:1 3:2 4:2 5:4 6:4 7:4 8:3 9:4 10:2 11:3 12:2 13:2 14:3 15:3 16:3 17:3 18:3 19:3 20:2 21:2 22:1 23:3 24:1 25:2 26:4 27:2 28:2 29:3 30:4 31:3 32:4 33:2 34:1 35:3 36:2 37:2 38:3 39:2 40:4 41:4 42:1 43:3 44:4 45:2 46:1 47:4 48:2 49:2 50:4 51:2 52:3 53:4 54:2 55:3 56:4 57:3 58:1 59:3 60:1 
0.5516411302931772 1:4 2:3 3:4 4:4 5:4 6:2 7:2 8:1 9:2 10:2 11:1 12:1 13:3 14:1 15:2 16:3 17:4 18:3 19:3 20:3 21:4 22:1 23:2 24:4 25:2 26:2 27:3 28:4 29:4 30:3 31:3 32:4 33:3 34:3 35:2 36:4 37:3 38:4 39:2 40:3 41:1 42:1 43:4 44:2 45:4 46:3 47:3 48:3 49:4 50:4 51:2 52:3 53:1 54:3 55:1 56:2 57:3 58:3 59:3 60:1 
1.160198811922557 1:4 2:2 3:1 4:2 5:1 6:2 7:1 8:4 9:2 10:1 11:1 12:2 13:1 14:4 15:3 16:3 17:1 18:2 19:4 20:4 21:4 22:3 23:1 24:4 25:4 26:3 27:4 28:3 29:3 30:4 31:1 32:3 33:1 34:4 35:2 36:4 37:1 38:2 39:3 40:4 41:4 42:2 43:3 44:3 45:1 46:2 47:3 48:4 49:1 50:4 51:3 52:3 53:3 54:2 55:1 56:3 57:4 58:3 59:1 60:4 
0.3898841448027368 1:4 2:3 3:1 4:1 5:2 6:2 7:3 8:3 9:1 10:1 11:3 12:1 13:1 14:3 15:1 16:1 17:4 18:2 19:1 20:3 21:1 22:2 23:3 24:2 25:2 26:2 27:2 28:1 29:2 30:4 31:1 32:3 33:1 34:3 35:2 36:4 37:2 38:3 39:3 40:1 41:2 42:1 43:3 44:4 45:2 46:2 47:3 48:3 49:1 50:2 51:1 52:3 53:3 54:1 55:2 56:3 57:3 58:4 59:3 60:1 
5.466801049864147 1:4 2:2 3:2 4:1 5:2 6:1 7:2 8:2 9:3 10:4 11:2 12:1 13:3 14:1 15:1 16:3 17:1 18:4 19:3 20:3 21:3 22:4 23:3 24:4 25:2 26:2 27:4 28:3 29:1 30:3 31:1 32:3 33:1 34:2 35:3 36:4 37:1 38:2 39:1 40:4 41:3 42:4 43:3 44:1 45:1 46:2 47:2 48:4 49:2 50:3 51:4 52:3 53:1 54:2 55:1 56:3 57:4 58:4 59:3 60:1 
2.196491238991576 1:2 2:3 3:4 4:1 5:3 6:3 7:1 8:3 9:3 10:1 11:4 12:2 13:3 14:4 15:2 16:2 17:3 18:3 19:4 20:3 21:1 22:2 23:2 24:2 25:1 26:4 27:2 28:3 29:4 30:4 31:3 32:4 33:2 34:2 35:4 36:2 37:2 38:3 39:3 40:4 41:4 42:2 43:3 44:4 45:2 46:2 47:4 48:3 49:4 50:2 51:3 52:3 53:4 54:2 55:1 56:3 57:4 58:2 59:4 60:1 
3.493598663664025 1:4 2:2 3:2 4:1 5:2 6:2 7:1 8:1 9:1 10:4 11:4 12:3 13:4 14:3 15:2 16:1 17:2 18:2 19:4 20:2 21:1 22:3 23:3 24:4 25:2 26:2 27:1 28:3 29:1 30:2 31:2 32:2 33:3 34:2 35:2 36:2 37:3 38:4 39:2 40:2 41:2 42:3 43:2 44:1 45:2 46:2 47:1 48:3 49:2 50:3 51:4 52:3 53:3 54:3 55:2 56:2 57:2 58:2 59:3 60:3 
1.769759732857306 1:4 2:4 3:2 4:1 5:1 6:1 7:4 8:3 9:4 10:2 11:2 12:1 13:1 14:3 15:4 16:2 17:3 18:3 19:4 20:3 21:4 22:2 23:4 24:4 25:2 26:4 27:2 28:4 29:2 30:3 31:3 32:4 33:2 34:3 35:4 36:2 37:1 38:1 39:4 40:1 41:1 42:3 43:4 44:4 45:3 46:4 47:1 48:4 49:3 50:3 51:3 52:1 53:2 54:1 55:2 56:1 57:2 58:2 59:3 60:3 
0.2480823853831373 1:2 2:3 3:3 4:2 5:1 6:1 7:1 8:2 9:3 10:4 11:2 12:3 13:3 14:3 15:2 16:3 17:2 18:1 19:2 20:4 21:3 22:2 23:2 24:1 25:2 26:4 27:2 28:2 29:1 30:2 31:3 32:1 33:2 34:2 35:3 36:3 37:3 38:3 39:3 40:3 41:1 42:3 43:3 44:1 45:3 46:3 47:1 48:3 49:2 50:3 51:1 52:2 53:1 54:2 55:1 56:2 57:1 58:2 59:4 60:3 
2.288984023201591 1:3 2:1 3:2 4:2 5:2 6:4 7:1 8:4 9:4 10:2 11:1 12:3 13:4 14:2 15:1 16:2 17:2 18:2 19:3 20:1 21:2 22:3 23:3 24:4 25:2 26:1 27:3 28:4 29:3 30:3 31:1 32:4 33:2 34:2 35:2 36:1 37:1 38:1 39:4 40:2 41:4 42:1 43:4 44:3 45:4 46:3 47:3 48:3 49:4 50:4 51:3 52:3 53:3 54:3 55:1 56:2 57:2 58:2 59:1 60:2 
0.643354287606966 1:3 2:1 3:4 4:2 5:1 6:1 7:2 8:3 9:4 10:4 11:4 12:2 13:1 14:2 15:4 16:2 17:1 18:1 19:2 20:3 21:4 22:3 23:4 24:4 25:3 26:3 27:4 28:2 29:2 30:2 31:2 32:1 33:3 34:1 35:1 36:4 37:2 38:4 39:2 40:2 41:2 42:3 43:4 44:4 45:3 46:1 47:1 48:4 49:2 50:4 51:3 52:1 53:1 54:2 55:1 56:1 57:4 58:2 59:4 60:2 
2.565805199527769 1:4 2:3 3:4 4:4 5:4 6:1 7:3 8:4 9:1 10:1 11:1 12:1 13:3 14:4 15:1 16:3 17:1 18:1 19:1 20:1 21:4 22:4 23:1 24:2 25:3 26:4 27:2 28:2 29:2 30:4 31:2 32:4 33:2 34:2 35:4 36:2 37:2 38:3 39:1 40:3 41:1 42:4 43:2 44:3 45:3 46:4 47:2 48:4 49:1 50:1 51:4 52:3 53:3 54:3 55:1 56:2 57:1 58:4 59:1 60:4 
1.921472626534309 1:2 2:2 3:1 4:2 5:3 6:3 7:4 8:4 9:2 10:2 11:2 12:1 13:2 14:2 15:2 16:2 17:3 18:1 19:1 20:4 21:2 22:2 23:1 24:1 25:3 26:1 27:2 28:4 29:3 30:1 31:3 32:4 33:1 34:4 35:4 36:3 37:1 38:4 39:4 40:3 41:4 42:1 43:2 44:4 45:4 46:3 47:1 48:2 49:3 50:1 51:3 52:4 53:3 54:4 55:2 56:2 57:2 58:1 59:3 60:4 
3.496363694761714 1:1 2:1 3:4 4:2 5:1 6:2 7:1 8:4 9:4 10:3 11:4 12:3 13:1 14:4 15:1 16:4 17:4 18:4 19:4 20:2 21:2 22:4 23:3 24:4 25:1 26:1 27:2 28:2 29:1 30:4 31:1 32:4 33:1 34:2 35:2 36:1 37:4 38:1 39:3 40:1 41:2 42:4 43:4 44:4 45:4 46:1 47:3 48:1 49:2 50:4 51:2 52:2 53:2 54:4 55:2 56:2 57:2 58:4 59:3 60:4 
8 1:2 2:2 3:4 4:2 5:2 6:2 7:2 8:4 9:2 10:4 11:2 12:3 13:1 14:3 15:1 16:3 17:2 18:2 19:3 20:1 21:2 22:3 23:1 24:2 25:2 26:1 27:4 28:4 29:2 30:1 31:1 32:4 33:2 34:1 35:1 36:2 37:2 38:3 39:3 40:1 41:2 42:2 43:2 44:1 45:2 46:2 47:3 48:1 49:2 50:3 51:1 52:3 53:3 54:4 55:2 56:1 57:2 58:4 59:2 60:3 
1.620056400940752 1:1 2:3 3:4 4:1 5:1 6:1 7:4 8:1 9:4 10:3 11:4 12:3 13:1 14:1 15:3 16:4 17:4 18:3 19:1 20:3 21:2 22:2 23:3 24:3 25:4 26:3 27:1 28:2 29:1 30:2 31:1 32:1 33:4 34:1 35:3 36:3 37:1 38:2 39:4 40:3 41:2 42:2 43:2 44:4 45:3 46:1 47:4 48:2 49:3 50:1 51:2 52:3 53:1 54:4 55:3 56:1 57:1 58:4 59:1 60:4 
1.584600086358716 1:4 2:3 3:3 4:4 5:4 6:4 7:1 8:3 9:1 10:2 11:1 12:3 13:1 14:2 15:3 16:4 17:1 18:2 19:4 20:2 21:4 22:2 23:2 24:4 25:2 26:2 27:3 28:3 29:1 30:3 31:4 32:3 33:1 34:2 35:4 36:4 37:4 38:4 39:1 40:2 41:3 42:1 43:4 44:3 45:4 46:3 47:4 48:2 49:3 50:4 51:3 52:4 53:1 54:4 55:4 56:4 57:2 58:2 59:3 60:3 
0.2528613020252225 1:1 2:2 3:2 4:2 5:1 6:1 7:1 8:1 9:2 10:3 11:3 12:3 13:1 14:4 15:2 16:1 17:4 18:3 19:4 20:4 21:3 22:1 23:1 24:2 25:3 26:1 27:2 28:2 29:2 30:1 31:1 32:2 33:3 34:3 35:3 36:3 37:1 38:2 39:4 40:2 41:1 42:2 43:4 44:1 45:2 46:3 47:4 48:2 49:3 50:1 51:4 52:4 53:3 54:3 55:4 56:1 57:2 58:1 59:1 60:1 
0.5988224821262743 1:2 2:2 3:2 4:1 5:4 6:2 7:2 8:2 9:3 10:4 11:2 12:3 13:1 14:3 15:3 16:2 17:4 18:2 19:1 20:2 21:3 22:2 23:3 24:3 25:2 26:1 27:2 28:2 29:1 30:3 31:1 32:1 33:2 34:2 35:3 36:2 37:2 38:3 39:2 40:2 41:3 42:3 43:2 44:1 45:2 46:3 47:2 48:3 49:4 50:3 51:4 52:1 53:1 54:2 55:1 56:4 57:2 58:1 59:4 60:3 
5.419245904950568 1:3 2:2 3:2 4:2 5:3 6:1 7:1 8:2 9:4 10:3 11:1 12:3 13:4 14:2 15:3 16:2 17:3 18:4 19:3 20:3 21:3 22:4 23:2 24:4 25:2 26:1 27:1 28:3 29:1 30:2 31:3 32:3 33:3 34:4 35:1 36:4 37:2 38:1 39:1 40:4 41:1 42:1 43:1 44:2 45:2 46:2 47:2 48:1 49:4 50:1 51:3 52:3 53:2 54:1 55:2 56:2 57:4 58:2 59:1 60:4 
0.4217880758816575 1:3 2:3 3:4 4:1 5:1 6:2 7:1 8:1 9:1 10:1 11:1 12:4 13:2 14:4 15:2 16:4 17:4 18:4 19:4 20:3 21:1 22:4 23:2 24:4 25:1 26:3 27:1 28:2 29:4 30:1 31:1 32:2 33:4 34:3 35:1 36:4 37:4 38:2 39:4 40:3 41:4 42:4 43:3 44:1 45:3 46:4 47:4 48:2 49:2 50:3 51:4 52:2 53:3 54:3 55:1 56:3 57:3 58:4 59:3 60:3 
1.766099669196403 1:2 2:2 3:3 4:3 5:3 6:3 7:3 8:1 9:3 10:3 11:4 12:2 13:2 14:4 15:2 16:2 17:1 18:1 19:2 20:3 21:3 22:3 23:4 24:3 25:4 26:1 27:3 28:3 29:4 30:2 31:2 32:4 33:2 34:4 35:2 36:3 37:2 38:2 39:2 40:2 41:1 42:2 43:3 44:2 45:1 46:2 47:2 48:4 49:4 50:4 51:3 52:4 53:4 54:3 55:4 56:1 57:3 58:2 59:3 60:1 
3.08221834423908 1:3 2:4 3:1 4:2 5:2 6:3 7:4 8:3 9:3 10:1 11:2 12:1 13:4 14:1 15:2 16:3 17:3 18:1 19:4 20:1 21:2 22:1 23:1 24:2 25:1 26:1 27:3 28:3 29:1 30:1 31:1 32:3 33:1 34:3 35:4 36:4 37:4 38:3 39:4 40:2 41:3 42:2 43:4 44:2 45:4 46:2 47:4 48:2 49:1 50:2 51:1 52:1 53:4 54:1 55:1 56:4 57:3 58:1 59:2 60:1 
0.5913582420990915 1:1 2:4 3:1 4:3 5:4 6:2 7:1 8:1 9:1 10:1 11:2 12:1 13:2 14:4 15:2 16:1 17:1 18:2 19:2 20:1 21:4 22:1 23:4 24:1 25:2 26:2 27:1 28:4 29:1 30:3 31:1 32:4 33:3 34:4 35:4 36:4 37:1 38:1 39:1 40:2 41:1 42:2 43:1 44:1 45:1 46:4 47:4 48:4 49:2 50:3 51:4 52:1 53:1 54:1 55:2 56:3 57:4 58:2 59:4 60:2 
4.413263810751432 1:3 2:1 3:4 4:4 5:2 6:3 7:3 8:4 9:2 10:4 11:1 12:4 13:4 14:3 15:1 16:2 17:4 18:2 19:2 20:1 21:2 22:3 23:3 24:4 25:2 26:2 27:1 28:2 29:3 30:1 31:1 32:4 33:2 34:1 35:2 36:2 37:1 38:1 39:2 40:1 41:2 42:2 43:2 44:1 45:2 46:4 47:3 48:3 49:1 50:1 51:3 52:1 53:4 54:2 55:4 56:3 57:1 58:1 59:4 60:1 
2.002127152427214 1:3 2:3 3:4 4:4 5:2 6:3 7:4 8:3 9:1 10:2 11:1 12:2 13:3 14:2 15:2 16:1 17:2 18:1 19:1 20:1 21:2 22:3 23:1 24:4 25:4 26:4 27:2 28:4 29:4 30:4 31:2 32:4 33:1 34:3 35:1 36:1 37:2 38:1 39:4 40:3 41:3 42:2 43:3 44:1 45:2 46:1 47:3 48:2 49:4 50:2 51:4 52:1 53:1 54:1 55:4 56:2 57:4 58:4 59:3 60:3 
1.034870361034327 1:2 2:2 3:3 4:1 5:2 6:1 7:4 8:1 9:1 10:4 11:2 12:3 13:4 14:1 15:4 16:2 17:1 18:4 19:1 20:3 21:1 22:4 23:4 24:4 25:4 26:4 27:4 28:2 29:4 30:1 31:2 32:2 33:4 34:2 35:2 36:4 37:2 38:3 39:3 40:1 41:4 42:4 43:4 44:2 45:1 46:3 47:4 48:2 49:3 50:1 51:4 52:4 53:4 54:1 55:2 56:3 57:3 58:1 59:1 60:3 
0.7755129083885755 1:4 2:3 3:1 4:1 5:4 6:4 7:3 8:4 9:1 10:4 11:4 12:3 13:3 14:1 15:4 16:4 17:3 18:2 19:1 20:4 21:4 22:4 23:1 24:2 25:4 26:4 27:3 28:2 29:1 30:4 31:4 32:3 33:4 34:1 35:4 36:4 37:3 38:1 39:3 40:4 41:4 42:3 43:3 44:1 45:4 46:4 47:3 48:3 49:1 50:4 51:4 52:3 53:2 54:1 55:4 56:4 57:3 58:3 59:1 60:2 
8 1:4 2:3 3:1 4:4 5:4 6:2 7:2 8:2 9:2 10:1 11:2 12:1 13:2 14:3 15:1 16:3 17:3 18:1 19:4 20:3 21:3 22:2 23:3 24:4 25:2 26:3 27:1 28:3 29:1 30:1 31:2 32:4 33:2 34:1 35:3 36:3 37:3 38:4 39:3 40:1 41:4 42:2 43:2 44:2 45:1 46:1 47:4 48:2 49:2 50:2 51:2 52:4 53:4 54:4 55:2 56:2 57:1 58:2 59:3 60:1 
7.222480671998134 1:2 2:4 3:2 4:2 5:2 6:3 7:3 8:4 9:3 10:3 11:4 12:1 13:4 14:4 15:3 16:3 17:3 18:4 19:2 20:2 21:1 22:2 23:4 24:1 25:3 26:2 27:2 28:2 29:1 30:1 31:2 32:2 33:4 34:1 35:1 36:2 37:1 38:2 39:2 40:2 41:3 42:4 43:2 44:2 45:2 46:2 47:4 48:2 49:2 50:3 51:3 52:2 53:2 54:1 55:2 56:2 57:1 58:1 59:2 60:2 
2.789381186350483 1:1 2:3 3:3 4:4 5:2 6:2 7:4 8:3 9:3 10:4 11:3 12:3 13:4 14:2 15:2 16:3 17:3 18:3 19:3 20:3 21:3 22:4 23:2 24:2 25:4 26:3 27:4 28:3 29:2 30:2 31:4 32:2 33:2 34:2 35:1 36:1 37:3 38:4 39:4 40:4 41:2 42:3 43:4 44:2 45:3 46:4 47:3 48:1 49:2 50:4 51:1 52:4 53:2 54:1 55:4 56:2 57:2 58:1 59:1 60:1 
1.259575956913244 1:4 2:2 3:2 4:3 5:4 6:3 7:2 8:3 9:4 10:4 11:4 12:4 13:2 14:2 15:4 16:2 17:4 18:3 19:3 20:1 21:4 22:4 23:4 24:2 25:4 26:2 27:4 28:2 29:2 30:1 31:1 32:4 33:2 34:4 35:3 36:1 37:4 38:4 39:4 40:4 41:3 42:3 43:1 44:3 45:3 46:3 47:3 48:4 49:4 50:4 51:1 52:3 53:3 54:4 55:4 56:1 57:1 58:2 59:4 60:4 
4.445684428404777 1:4 2:2 3:1 4:4 5:1 6:2 7:4 8:3 9:1 10:1 11:4 12:1 13:3 14:3 15:1 16:2 17:2 18:2 19:1 20:3 21:3 22:1 23:2 24:2 25:1 26:1 27:2 28:2 29:4 30:3 31:2 32:4 33:2 34:1 35:3 36:3 37:1 38:2 39:4 40:3 41:3 42:4 43:2 44:2 45:1 46:2 47:2 48:3 49:3 50:3 51:3 52:1 53:2 54:2 55:3 56:4 57:2 58:4 59:1 60:3 
0.1454467701902817 1:1 2:4 3:2 4:3 5:3 6:3 7:3 8:3 9:1 10:4 11:2 12:2 13:1 14:2 15:2 16:1 17:3 18:4 19:2 20:4 21:2 22:4 23:2 24:1 25:4 26:3 27:4 28:3 29:3 30:1 31:4 32:3 33:3 34:4 35:2 36:2 37:2 38:1 39:1 40:2 41:2 42:2 43:2 44:2 45:3 46:4 47:3 48:1 49:4 50:4 51:3 52:1 53:3 54:1 55:2 56:1 57:2 58:1 59:2 60:1 
1.845563293065358 1:4 2:3 3:4 4:2 5:4 6:2 7:3 8:3 9:1 10:2 11:3 12:4 13:4 14:3 15:4 16:4 17:1 18:4 19:3 20:3 21:4 22:1 23:4 24:1 25:2 26:1 27:2 28:2 29:1 30:2 31:1 32:1 33:1 34:2 35:3 36:4 37:3 38:1 39:1 40:1 41:2 42:1 43:4 44:2 45:1 46:1 47:1 48:4 49:2 50:1 51:1 52:4 53:3 54:4 55:3 56:3 57:4 58:4 59:3 60:4 
4.077008070380307 1:4 2:4 3:4 4:2 5:3 6:4 7:4 8:3 9:1 10:2 11:4 12:3 13:3 14:4 15:4 16:2 17:1 18:1 19:4 20:3 21:1 22:3 23:3 24:4 25:2 26:4 27:2 28:2 29:2 30:1 31:3 32:4 33:4 34:2 35:1 36:2 37:2 38:1 39:3 40:4 41:3 42:2 43:2 44:2 45:1 46:4 47:3 48:4 49:4 50:3 51:1 52:2 53:2 54:1 55:3 56:2 57:3 58:3 59:4 60:2 
2.194279721196272 1:2 2:1 3:4 4:1 5:1 6:1 7:1 8:2 9:2 10:1 11:4 12:4 13:4 14:2 15:2 16:2 17:3 18:4 19:2 20:1 21:1 22:3 23:1 24:2 25:2 26:2 27:4 28:2 29:2 30:1 31:2 32:2 33:2 34:1 35:2 36:3 37:1 38:4 39:4 40:2 41:2 42:1 43:1 44:4 45:2 46:2 47:3 48:1 49:3 50:4 51:3 52:1 53:2 54:2 55:2 56:3 57:1 58:1 59:1 60:2 
3.162202540760747 1:2 2:4 3:2 4:1 5:1 6:3 7:4 8:3 9:4 10:2 11:2 12:1 13:3 14:4 15:2 16:2 17:1 18:1 19:2 20:2 21:1 22:3 23:3 24:4 25:1 26:2 27:4 28:4 29:1 30:2 31:2 32:2 33:2 34:2 35:4 36:2 37:3 38:1 39:1 40:1 41:1 42:1 43:2 44:3 45:1 46:2 47:2 48:1 49:2 50:2 51:3 52:1 53:2 54:2 55:4 56:3 57:1 58:2 59:2 60:4 
0.1343652881445439 1:3 2:1 3:4 4:4 5:1 6:1 7:1 8:1 9:3 10:1 11:4 12:4 13:4 14:1 15:4 16:1 17:4 18:3 19:4 20:1 21:4 22:1 23:1 24:1 25:4 26:4 27:4 28:2 29:1 30:1 31:1 32:1 33:3 34:4 35:1 36:1 37:4 38:3 39:1 40:2 41:4 42:1 43:4 44:4 45:4 46:4 47:4 48:4 49:1 50:1 51:1 52:2 53:4 54:1 55:4 56:1 57:1 58:1 59:1 60:3 
0.3010941536308075 1:2 2:3 3:3 4:3 5:1 6:2 7:3 8:4 9:1 10:1 11:4 12:4 13:4 14:4 15:4 16:2 17:1 18:1 19:1 20:1 21:3 22:1 23:2 24:2 25:2 26:4 27:3 28:4 29:4 30:4 31:3 32:4 33:1 34:4 35:2 36:4 37:4 38:2 39:3 40:3 41:3 42:1 43:2 44:2 45:3 46:4 47:2 48:2 49:4 50:3 51:4 52:3 53:1 54:1 55:1 56:3 57:4 58:3 59:3 60:4 
8 1:3 2:1 3:2 4:3 5:4 6:2 7:3 8:4 9:1 10:3 11:4 12:2 13:2 14:4 15:4 16:3 17:4 18:3 19:4 20:3 21:2 22:3 23:4 24:3 25:3 26:2 27:2 28:2 29:1 30:1 31:2 32:2 33:3 34:3 35:4 36:2 37:2 38:2 39:3 40:4 41:2 42:1 43:3 44:2 45:3 46:3 47:2 48:1 49:3 50:1 51:1 52:3 53:4 54:1 55:3 56:4 57:2 58:3 59:3 60:2 
2.782508348699192 1:1 2:2 3:2 4:3 5:1 6:3 7:3 8:4 9:3 10:4 11:3 12:3 13:2 14:2 15:2 16:3 17:1 18:3 19:3 20:3 21:3 22:3 23:1 24:1 25:4 26:3 27:2 28:3 29:1 30:4 31:3 32:4 33:4 34:3 35:4 36:4 37:3 38:1 39:2 40:3 41:2 42:1 43:3 44:1 45:4 46:3 47:3 48:1 49:3 50:4 51:4 52:4 53:2 54:2 55:2 56:1 57:1 58:3 59:1 60:4 
2.722043920813263 1:2 2:1 3:4 4:2 5:1 6:2 7:1 8:1 9:2 10:1 11:1 12:3 13:4 14:2 15:2 16:2 17:2 18:2 19:3 20:4 21:2 22:4 23:3 24:4 25:2 26:4 27:3 28:4 29:1 30:4 31:2 32:3 33:4 34:2 35:1 36:3 37:1 38:1 39:2 40:3 41:3 42:1 43:2 44:1 45:2 46:1 47:3 48:2 49:1 50:3 51:3 52:1 53:1 54:2 55:2 56:1 57:2 58:3 59:1 60:1 
1.759472334127725 1:2 2:4 3:4 4:4 5:4 6:1 7:3 8:3 9:3 10:1 11:1 12:4 13:1 14:1 15:2 16:2 17:3 18:1 19:3 20:3 21:1 22:3 23:3 24:3 25:1 26:3 27:3 28:4 29:1 30:4 31:2 32:1 33:4 34:1 35:3 36:4 37:2 38:4 39:2 40:3 41:4 42:1 43:3 44:1 45:2 46:1 47:4 48:2 49:2 50:1 51:2 52:4 53:1 54:4 55:3 56:4 57:4 58:2 59:1 60:3 
2.19782808206228 1:2 2:4 3:2 4:1 5:4 6:2 7:3 8:1 9:2 10:2 11:3 12:3 13:4 14:1 15:1 16:4 17:4 18:3 19:1 20:4 21:1 22:1 23:1 24:2 25:2 26:1 27:1 28:2 29:3 30:1 31:3 32:4 33:2 34:3 35:3 36:1 37:2 38:3 39:4 40:3 41:4 42:4 43:4 44:1 45:4 46:4 47:3 48:1 49:2 50:4 51:2 52:3 53:4 54:4 55:4 56:2 57:3 58:3 59:1 60:1 
0.8776617202184963 1:1 2:4 3:2 4:4 5:3 6:1 7:1 8:4 9:2 10:4 11:2 12:1 13:1 14:1 15:2 16:2 17:4 18:1 19:4 20:2 21:2 22:4 23:1 24:2 25:2 26:3 27:4 28:2 29:2 30:2 31:2 32:1 33:2 34:2 35:1 36:2 37:1 38:4 39:2 40:3 41:1 42:2 43:3 44:1 45:1 46:2 47:2 48:4 49:2 50:2 51:2 52:2 53:1 54:1 55:4 56:4 57:1 58:1 59:2 60:2 
2.230224887519764 1:1 2:1 3:2 4:2 5:1 6:3 7:3 8:1 9:2 10:4 11:2 12:1 13:1 14:2 15:1 16:3 17:2 18:4 19:3 20:1 21:2 22:2 23:2 24:2 25:3 26:1 27:1 28:2 29:2 30:4 31:3 32:4 33:3 34:2 35:2 36:2 37:2 38:2 39:4 40:3 41:3 42:2 43:2 44:1 45:1 46:2 47:2 48:2 49:4 50:2 51:1 52:4 53:3 54:1 55:4 56:3 57:2 58:1 59:3 60:3 
0.01709022042453078 1:2 2:1 3:1 4:4 5:4 6:3 7:4 8:1 9:2 10:1 11:2 12:3 13:4 14:4 15:2 16:1 17:3 18:3 19:1 20:2 21:4 22:4 23:4 24:1 25:1 26:2 27:2 28:2 29:2 30:3 31:1 32:2 33:3 34:1 35:2 36:2 37:2 38:1 39:3 40:1 41:1 42:1 43:1 44:1 45:3 46:2 47:4 48:4 49:4 50:3 51:3 52:1 53:1 54:2 55:1 56:3 57:1 58:4 59:2 60:1 
0.9909396028034797 1:1 2:3 3:4 4:2 5:1 6:2 7:1 8:3 9:1 10:3 11:1 12:2 13:2 14:1 15:1 16:2 17:2 18:2 19:3 20:3 21:2 22:3 23:2 24:3 25:3 26:1 27:2 28:1 29:2 30:3 31:1 32:3 33:4 34:2 35:1 36:1 37:2 38:1 39:3 40:2 41:3 42:4 43:4 44:2 45:2 46:2 47:2 48:1 49:1 50:2 51:2 52:2 53:1 54:1 55:3 56:3 57:3 58:1 59:3 60:3 
8 1:4 2:2 3:2 4:4 5:2 6:4 7:3 8:3 9:4 10:2 11:1 12:3 13:3 14:1 15:3 16:3 17:3 18:4 19:3 20:3 21:3 22:3 23:4 24:3 25:4 26:3 27:4 28:4 29:2 30:3 31:1 32:3 33:3 34:3 35:2 36:3 37:3 38:4 39:3 40:4 41:3 42:3 43:3 44:2 45:4 46:3 47:1 48:2 49:2 50:2 51:3 52:3 53:3 54:1 55:1 56:2 57:4 58:3 59:3 60:3 
2.154149666911839 1:4 2:2 3:4 4:4 5:4 6:2 7:1 8:4 9:4 10:4 11:4 12:3 13:4 14:1 15:2 16:2 17:4 18:1 19:1 20:4 21:3 22:1 23:1 24:1 25:4 26:2 27:3 28:1 29:1 30:1 31:2 32:3 33:1 34:2 35:3 36:4 37:2 38:4 39:2 40:3 41:4 42:1 43:4 44:2 45:2 46:2 47:1 48:2 49:2 50:4 51:1 52:1 53:1 54:2 55:1 56:1 57:1 58:3 59:3 60:3 
2.479173786024266 1:2 2:3 3:1 4:1 5:4 6:2 7:2 8:3 9:1 10:4 11:1 12:2 13:1 14:1 15:1 16:2 17:4 18:2 19:4 20:2 21:1 22:1 23:3 24:1 25:1 26:1 27:2 28:1 29:1 30:1 31:1 32:4 33:2 34:1 35:4 36:1 37:4 38:4 39:1 40:1 41:2 42:2 43:1 44:2 45:2 46:2 47:2 48:2 49:2 50:3 51:4 52:2 53:4 54:1 55:2 56:1 57:1 58:2 59:2 60:2 
1.979733180151221 1:4 2:2 3:4 4:4 5:4 6:4 7:4 8:1 9:4 10:4 11:3 12:3 13:3 14:3 15:1 16:3 17:4 18:1 19:3 20:4 21:3 22:4 23:4 24:3 25:4 26:3 27:4 28:3 29:4 30:1 31:4 32:3 33:1 34:2 35:1 36:4 37:1 38:3 39:3 40:1 41:4 42:4 43:4 44:1 45:4 46:2 47:1 48:2 49:1 50:3 51:1 52:4 53:4 54:3 55:4 56:4 57:2 58:3 59:4 60:1 
4.422308734014718 1:1 2:2 3:2 4:1 5:1 6:4 7:2 8:4 9:2 10:3 11:1 12:3 13:1 14:4 15:3 16:4 17:3 18:3 19:4 20:3 21:3 22:4 23:3 24:4 25:4 26:1 27:4 28:4 29:1 30:1 31:1 32:3 33:1 34:4 35:2 36:2 37:1 38:2 39:4 40:3 41:1 42:4 43:4 44:1 45:4 46:4 47:1 48:2 49:4 50:4 51:3 52:1 53:1 54:3 55:1 56:2 57:4 58:1 59:2 60:1 
1.084952472214938 1:1 2:2 3:1 4:1 5:4 6:2 7:4 8:3 9:2 10:4 11:2 12:4 13:2 14:3 15:4 16:2 17:3 18:1 19:2 20:1 21:1 22:2 23:3 24:4 25:2 26:2 27:2 28:1 29:2 30:3 31:1 32:2 33:1 34:3 35:2 36:3 37:4 38:2 39:4 40:4 41:2 42:2 43:3 44:1 45:4 46:2 47:1 48:2 49:4 50:1 51:3 52:1 53:2 54:4 55:1 56:3 57:3 58:1 59:2 60:1 
0.06084597280601164 1:1 2:1 3:2 4:3 5:3 6:3 7:1 8:4 9:3 10:3 11:4 12:1 13:2 14:1 15:2 16:1 17:1 18:2 19:3 20:4 21:2 22:1 23:3 24:3 25:3 26:1 27:2 28:2 29:1 30:3 31:3 32:1 33:2 34:2 35:1 36:4 37:2 38:4 39:2 40:2 41:1 42:3 43:2 44:4 45:3 46:1 47:1 48:1 49:4 50:1 51:3 52:4 53:4 54:4 55:2 56:3 57:3 58:3 59:1 60:2 
1.156126769393872 1:2 2:2 3:1 4:1 5:3 6:3 7:3 8:4 9:2 10:1 11:1 12:2 13:1 14:4 15:1 16:4 17:3 18:3 19:4 20:3 21:4 22:4 23:3 24:4 25:3 26:4 27:2 28:4 29:3 30:3 31:4 32:2 33:4 34:3 35:1 36:3 37:4 38:3 39:4 40:1 41:4 42:2 43:2 44:2 45:1 46:3 47:4 48:4 49:1 50:3 51:2 52:2 53:3 54:4 55:3 56:4 57:4 58:4 59:2 60:4 
8 1:1 2:2 3:3 4:2 5:2 6:3 7:4 8:2 9:2 10:3 11:1 12:4 13:1 14:3 15:3 16:4 17:4 18:3 19:3 20:3 21:1 22:3 23:4 24:3 25:1 26:3 27:2 28:2 29:1 30:2 31:2 32:3 33:3 34:1 35:4 36:3 37:3 38:1 39:2 40:2 41:3 42:3 43:4 44:4 45:2 46:4 47:4 48:4 49:2 50:1 51:2 52:3 53:2 54:2 55:2 56:2 57:3 58:2 59:1 60:2 
0.01911241105559047 1:3 2:1 3:2 4:2 5:2 6:3 7:4 8:4 9:3 10:2 11:1 12:2 13:3 14:4 15:3 16:1 17:4 18:3 19:4 20:1 21:2 22:1 23:4 24:2 25:1 26:2 27:2 28:1 29:2 30:3 31:4 32:3 33:3 34:1 35:1 36:2 37:3 38:3 39:1 40:3 41:1 42:3 43:4 44:3 45:3 46:1 47:3 48:2 49:1 50:3 51:4 52:4 53:4 54:1 55:2 56:1 57:3 58:1 59:4 60:3 
0.4674349688965873 1:2 2:1 3:1 4:2 5:2 6:3 7:4 8:4 9:2 10:1 11:2 12:2 13:3 14:3 15:4 16:2 17:2 18:1 19:2 20:4 21:4 22:4 23:2 24:1 25:2 26:1 27:3 28:3 29:1 30:2 31:3 32:3 33:4 34:2 35:2 36:3 37:3 38:1 39:1 40:3 41:1 42:4 43:1 44:1 45:3 46:1 47:1 48:2 49:1 50:3 51:3 52:4 53:3 54:1 55:4 56:3 57:4 58:3 59:4 60:4 
0.2140612895864405 1:4 2:2 3:3 4:4 5:2 6:4 7:2 8:4 9:4 10:2 11:3 12:4 13:2 14:4 15:3 16:4 17:4 18:4 19:4 20:4 21:3 22:3 23:3 24:4 25:3 26:4 27:3 28:4 29:3 30:4 31:3 32:1 33:3 34:2 35:1 36:1 37:1 38:2 39:2 40:4 41:4 42:4 43:3 44:3 45:3 46:1 47:2 48:2 49:2 50:3 51:1 52:2 53:3 54:3 55:1 56:2 57:2 58:2 59:2 60:3 
2.263528399747418 1:1 2:4 3:3 4:3 5:3 6:3 7:1 8:2 9:1 10:4 11:3 12:3 13:4 14:1 15:1 16:2 17:1 18:2 19:2 20:3 21:3 22:2 23:1 24:1 25:4 26:2 27:2 28:4 29:1 30:4 31:3 32:4 33:2 34:2 35:2 36:3 37:1 38:2 39:1 40:1 41:1 42:2 43:1 44:4 45:3 46:2 47:1 48:4 49:1 50:4 51:1 52:3 53:3 54:4 55:1 56:4 57:1 58:1 59:3 60:2 
1.20587298607371 1:3 2:3 3:3 4:4 5:2 6:1 7:4 8:2 9:1 10:1 11:2 12:2 13:3 14:1 15:3 16:3 17:4 18:4 19:2 20:2 21:2 22:2 23:3 24:4 25:4 26:3 27:3 28:3 29:4 30:2 31:3 32:3 33:2 34:3 35:1 36:4 37:3 38:3 39:4 40:3 41:4 42:3 43:3 44:3 45:3 46:4 47:3 48:1 49:2 50:2 51:1 52:1 53:2 54:2 55:2 56:2 57:1 58:3 59:4 60:2 
0.1671281405300696 1:2 2:1 3:1 4:4 5:4 6:3 7:1 8:4 9:3 10:3 11:4 12:1 13:3 14:1 15:2 16:2 17:4 18:2 19:3 20:1 21:2 22:2 23:3 24:4 25:2 26:3 27:3 28:4 29:1 30:4 31:3 32:1 33:2 34:1 35:1 36:2 37:2 38:4 39:2 40:2 41:4 42:2 43:2 44:3 45:4 46:2 47:2 48:4 49:2 50:4 51:2 52:2 53:3 54:4 55:1 56:1 57:4 58:2 59:3 60:3 
2.928575943595095 1:1 2:3 3:2 4:2 5:1 6:2 7:3 8:2 9:1 10:2 11:4 12:3 13:4 14:2 15:2 16:1 17:1 18:3 19:3 20:4 21:2 22:1 23:4 24:3 25:1 26:2 27:1 28:4 29:1 30:3 31:1 32:4 33:3 34:4 35:1 36:4 37:1 38:1 39:3 40:3 41:1 42:1 43:2 44:1 45:2 46:2 47:1 48:2 49:4 50:1 51:3 52:2 53:3 54:2 55:3 56:2 57:3 58:4 59:1 60:3 
6.295915376810087 1:2 2:1 3:3 4:4 5:3 6:3 7:1 8:3 9:4 10:2 11:4 12:3 13:3 14:3 15:4 16:2 17:4 18:3 19:3 20:1 21:4 22:3 23:1 24:3 25:3 26:3 27:3 28:3 29:2 30:2 31:1 32:2 33:1 34:2 35:3 36:3 37:2 38:2 39:3 40:3 41:4 42:3 43:3 44:1 45:4 46:3 47:4 48:3 49:3 50:4 51:2 52:3 53:1 54:2 55:2 56:4 57:3 58:4 59:1 60:2 
3.403434295167381 1:2 2:3 3:1 4:2 5:2 6:1 7:4 8:3 9:3 10:4 11:1 12:3 13:1 14:3 15:3 16:4 17:4 18:1 19:3 20:1 21:3 22:1 23:4 24:3 25:1 26:4 27:1 28:1 29:1 30:2 31:2 32:2 33:1 34:2 35:1 36:4 37:2 38:1 39:4 40:2 41:2 42:2 43:1 44:3 45:4 46:1 47:2 48:1 49:2 50:2 51:1 52:2 53:4 54:1 55:1 56:3 57:4 58:2 59:2 60:1 
5.077621034145831 1:3 2:3 3:1 4:2 5:3 6:4 7:3 8:3 9:1 10:3 11:4 12:3 13:3 14:2 15:3 16:4 17:2 18:4 19:3 20:2 21:3 22:3 23:3 24:1 25:3 26:3 27:3 28:2 29:3 30:1 31:4 32:3 33:1 34:3 35:3 36:3 37:2 38:2 39:3 40:4 41:2 42:3 43:1 44:2 45:2 46:1 47:2 48:1 49:1 50:2 51:2 52:1 53:2 54:2 55:1 56:3 57:3 58:4 59:2 60:3 
5.233988073415226 1:3 2:3 3:1 4:4 5:2 6:2 7:2 8:1 9:2 10:1 11:2 12:4 13:2 14:2 15:3 16:3 17:1 18:4 19:3 20:2 21:4 22:2 23:2 24:4 25:2 26:2 27:2 28:3 29:2 30:3 31:3 32:3 33:3 34:2 35:3 36:2 37:2 38:1 39:3 40:3 41:3 42:4 43:2 44:2 45:2 46:3 47:3 48:3 49:3 50:1 51:2 52:3 53:3 54:1 55:2 56:2 57:1 58:2 59:2 60:1 
1.900873653962315 1:4 2:1 3:4 4:4 5:3 6:4 7:2 8:3 9:3 10:3 11:1 12:4 13:4 14:4 15:2 16:2 17:2 18:2 19:1 20:3 21:1 22:3 23:4 24:4 25:3 26:3 27:3 28:3 29:2 30:3 31:3 32:2 33:3 34:4 35:2 36:3 37:3 38:1 39:2 40:2 41:1 42:3 43:3 44:3 45:2 46:3 47:4 48:4 49:3 50:4 51:3 52:4 53:2 54:1 55:1 56:1 57:2 58:2 59:3 60:4 
2.03964141336561 1:3 2:2 3:3 4:4 5:4 6:2 7:2 8:2 9:1 10:3 11:4 12:2 13:3 14:1 15:2 16:3 17:2 18:4 19:2 20:2 21:1 22:2 23:1 24:1 25:3 26:2 27:2 28:3 29:2 30:2 31:3 32:4 33:2 34:3 35:2 36:1 37:2 38:3 39:1 40:3 41:2 42:3 43:2 44:4 45:2 46:3 47:1 48:1 49:4 50:2 51:3 52:2 53:1 54:4 55:3 56:3 57:3 58:4 59:2 60:2 
5.921966857887417 1:2 2:1 3:2 4:2 5:1 6:2 7:3 8:4 9:4 10:3 11:3 12:1 13:1 14:1 15:4 16:4 17:1 18:4 19:3 20:3 21:1 22:4 23:4 24:1 25:2 26:3 27:1 28:3 29:1 30:1 31:2 32:3 33:3 34:3 35:2 36:4 37:3 38:1 39:2 40:4 41:2 42:2 43:3 44:3 45:3 46:3 47:1 48:4 49:2 50:3 51:1 52:4 53:1 54:1 55:1 56:4 57:2 58:4 59:1 60:3 
2.81107648163966 1:1 2:1 3:4 4:4 5:3 6:1 7:2 8:2 9:3 10:3 11:4 12:2 13:4 14:3 15:3 16:4 17:4 18:1 19:2 20:1 21:1 22:4 23:2 24:3 25:4 26:1 27:3 28:1 29:2 30:2 31:2 32:4 33:1 34:3 35:1 36:2 37:3 38:3 39:3 40:1 41:4 42:4 43:4 44:2 45:1 46:2 47:3 48:4 49:3 50:3 51:4 52:2 53:4 54:1 55:4 56:1 57:2 58:1 59:4 60:1 
0.174339452971059 1:3 2:3 3:4 4:4 5:4 6:1 7:3 8:4 9:3 10:1 11:2 12:4 13:4 14:4 15:1 16:3 17:1 18:1 19:4 20:3 21:4 22:1 23:2 24:2 25:3 26:1 27:2 28:4 29:1 30:2 31:1 32:1 33:4 34:2 35:4 36:1 37:1 38:4 39:3 40:1 41:3 42:4 43:2 44:3 45:4 46:4 47:4 48:1 49:1 50:1 51:3 52:4 53:4 54:2 55:1 56:4 57:1 58:3 59:4 60:2 
1.367396589690304 1:3 2:1 3:4 4:4 5:4 6:3 7:4 8:2 9:3 10:1 11:2 12:1 13:2 14:2 15:4 16:4 17:2 18:3 19:1 20:1 21:1 22:3 23:2 24:3 25:1 26:2 27:1 28:4 29:4 30:3 31:1 32:2 33:1 34:3 35:3 36:4 37:3 38:4 39:1 40:3 41:4 42:3 43:3 44:4 45:4 46:4 47:4 48:3 49:1 50:4 51:4 52:1 53:4 54:4 55:4 56:2 57:2 58:2 59:1 60:1 
1.910969784896312 1:1 2:1 3:4 4:2 5:4 6:1 7:3 8:1 9:2 10:1 11:2 12:3 13:4 14:1 15:1 16:1 17:4 18:1 19:2 20:4 21:1 22:1 23:2 24:1 25:2 26:3 27:3 28:4 29:1 30:1 31:3 32:4 33:3 34:1 35:4 36:3 37:4 38:4 39:4 40:3 41:3 42:4 43:3 44:3 45:3 46:4 47:4 48:3 49:4 50:1 51:4 52:3 53:3 54:4 55:4 56:3 57:4 58:3 59:1 60:1 
2.684619897637072 1:2 2:3 3:2 4:2 5:2 6:3 7:3 8:3 9:4 10:2 11:3 12:3 13:2 14:2 15:1 16:3 17:4 18:4 19:4 20:1 21:2 22:4 23:2 24:3 25:4 26:4 27:4 28:1 29:2 30:2 31:2 32:2 33:4 34:4 35:1 36:1 37:4 38:4 39:4 40:3 41:2 42:2 43:2 44:3 45:4 46:2 47:1 48:3 49:1 50:2 51:2 52:2 53:1 54:3 55:2 56:2 57:1 58:2 59:3 60:3 
0.2310528606068196 1:1 2:4 3:4 4:1 5:3 6:1 7:2 8:2 9:3 10:2 11:4 12:2 13:1 14:2 15:3 16:3 17:1 18:3 19:4 20:2 21:3 22:2 23:3 24:3 25:4 26:2 27:2 28:3 29:3 30:4 31:3 32:3 33:1 34:4 35:3 36:3 37:4 38:3 39:1 40:4 41:3 42:3 43:4 44:2 45:1 46:1 47:2 48:1 49:4 50:2 51:3 52:1 53:1 54:2 55:1 56:1 57:3 58:4 59:4 60:3 
0.1578008011484227 1:3 2:1 3:2 4:4 5:1 6:4 7:3 8:3 9:4 10:4 11:4 12:4 13:2 14:3 15:4 16:2 17:4 18:2 19:1 20:3 21:2 22:1 23:2 24:3 25:4 26:1 27:3 28:2 29:2 30:2 31:1 32:1 33:2 34:1 35:1 36:4 37:3 38:4 39:2 40:4 41:1 42:4 43:4 44:4 45:3 46:1 47:3 48:1 49:2 50:1 51:3 52:4 53:2 54:2 55:1 56:1 57:2 58:1 59:4 60:2 
2.117165557393177 1:2 2:3 3:1 4:3 5:3 6:3 7:4 8:3 9:4 10:1 11:1 12:1 13:1 14:4 15:1 16:2 17:3 18:4 19:2 20:2 21:1 22:4 23:4 24:4 25:2 26:3 27:4 28:2 29:4 30:3 31:1 32:4 33:3 34:1 35:4 36:4 37:3 38:4 39:4 40:2 41:4 42:4 43:4 44:4 45:4 46:1 47:1 48:3 49:1 50:3 51:1 52:2 53:3 54:1 55:1 56:4 57:1 58:3 59:1 60:3 
0.2865053280395651 1:3 2:3 3:3 4:3 5:4 6:3 7:4 8:4 9:4 10:3 11:1 12:1 13:4 14:2 15:4 16:3 17:1 18:2 19:3 20:3 21:4 22:4 23:3 24:1 25:2 26:2 27:3 28:1 29:1 30:2 31:4 32:2 33:2 34:2 35:2 36:1 37:1 38:1 39:2 40:1 41:2 42:3 43:1 44:4 45:4 46:2 47:3 48:4 49:4 50:2 51:2 52:3 53:4 54:3 55:3 56:1 57:4 58:4 59:2 60:3 
2.030973300478556 1:4 2:1 3:1 4:1 5:1 6:1 7:1 8:3 9:1 10:4 11:3 12:1 13:1 14:1 15:1 16:1 17:1 18:3 19:1 20:1 21:4 22:4 23:3 24:3 25:3 26:4 27:4 28:4 29:2 30:3 31:4 32:4 33:3 34:3 35:1 36:4 37:2 38:1 39:1 40:4 41:4 42:1 43:4 44:2 45:2 46:4 47:4 48:1 49:2 50:4 51:2 52:3 53:3 54:4 55:2 56:2 57:4 58:4 59:4 60:4 
0.3237415760951928 1:2 2:1 3:2 4:3 5:4 6:3 7:4 8:2 9:3 10:1 11:2 12:2 13:3 14:4 15:2 16:1 17:1 18:2 19:1 20:4 21:2 22:4 23:3 24:2 25:3 26:1 27:2 28:3 29:4 30:2 31:4 32:3 33:1 34:2 35:3 36:2 37:2 38:2 39:1 40:4 41:2 42:2 43:2 44:2 45:2 46:3 47:1 48:3 49:2 50:3 51:4 52:4 53:2 54:3 55:4 56:2 57:1 58:3 59:2 60:3 
2.912436242723892 1:2 2:2 3:1 4:1 5:4 6:2 7:2 8:4 9:2 10:1 11:3 12:4 13:2 14:2 15:1 16:3 17:4 18:4 19:4 20:3 21:3 22:1 23:2 24:1 25:4 26:3 27:3 28:4 29:2 30:2 31:4 32:2 33:1 34:4 35:2 36:3 37:4 38:2 39:2 40:1 41:1 42:1 43:4 44:2 45:1 46:3 47:4 48:3 49:3 50:3 51:3 52:1 53:2 54:3 55:2 56:4 57:2 58:2 59:1 60:2 
2.32934615013081 1:1 2:2 3:2 4:4 5:4 6:4 7:2 8:4 9:3 10:4 11:4 12:4 13:2 14:2 15:1 16:1 17:3 18:3 19:1 20:3 21:1 22:3 23:3 24:1 25:2 26:1 27:1 28:2 29:1 30:3 31:1 32:4 33:3 34:3 35:4 36:3 37:1 38:2 39:2 40:1 41:1 42:3 43:1 44:1 45:1 46:2 47:2 48:3 49:4 50:2 51:3 52:4 53:3 54:3 55:1 56:2 57:3 58:4 59:3 60:4 
1.546963400817722 1:1 2:4 3:4 4:2 5:1 6:4 7:3 8:1 9:2 10:4 11:3 12:3 13:1 14:4 15:4 16:2 17:1 18:3 19:4 20:4 21:3 22:2 23:1 24:2 25:1 26:4 27:3 28:2 29:1 30:3 31:4 32:3 33:4 34:2 35:3 36:3 37:1 38:4 39:4 40:2 41:1 42:3 43:3 44:4 45:3 46:3 47:1 48:2 49:1 50:4 51:3 52:1 53:1 54:3 55:1 56:3 57:1 58:3 59:1 60:2 
1.033130635229835 1:4 2:1 3:2 4:2 5:3 6:4 7:3 8:3 9:1 10:2 11:3 12:1 13:2 14:2 15:3 16:4 17:2 18:2 19:3 20:4 21:3 22:1 23:2 24:2 25:3 26:4 27:4 28:3 29:1 30:4 31:4 32:3 33:3 34:1 35:4 36:2 37:2 38:4 39:3 40:3 41:4 42:3 43:4 44:2 45:4 46:4 47:2 48:2 49:4 50:4 51:3 52:3 53:4 54:1 55:2 56:4 57:1 58:2 59:3 60:1 
3.849158040300512 1:4 2:3 3:1 4:4 5:2 6:3 7:1 8:4 9:4 10:2 11:1 12:1 13:3 14:3 15:1 16:1 17:1 18:1 19:3 20:4 21:3 22:1 23:2 24:2 25:3 26:3 27:2 28:4 29:1 30:1 31:2 32:2 33:1 34:1 35:1 36:2 37:2 38:3 39:4 40:4 41:4 42:2 43:1 44:1 45:2 46:2 47:2 48:2 49:3 50:1 51:2 52:4 53:2 54:2 55:4 56:1 57:1 58:3 59:4 60:4 
3.100367095582817 1:1 2:1 3:2 4:2 5:3 6:2 7:1 8:3 9:1 10:3 11:4 12:1 13:1 14:2 15:2 16:1 17:4 18:4 19:2 20:2 21:3 22:3 23:1 24:1 25:2 26:1 27:4 28:2 29:2 30:1 31:1 32:4 33:1 34:4 35:3 36:4 37:1 38:3 39:3 40:1 41:2 42:4 43:2 44:3 45:1 46:1 47:3 48:2 49:1 50:3 51:3 52:1 53:1 54:3 55:4 56:4 57:2 58:1 59:1 60:2 
1.940846557147052 1:2 2:1 3:4 4:3 5:2 6:4 7:2 8:3 9:3 10:1 11:3 12:4 13:2 14:3 15:1 16:3 17:4 18:3 19:3 20:1 21:2 22:3 23:3 24:4 25:2 26:2 27:2 28:3 29:2 30:1 31:3 32:1 33:2 34:1 35:2 36:4 37:2 38:1 39:2 40:1 41:3 42:4 43:3 44:4 45:2 46:4 47:3 48:4 49:3 50:1 51:1 52:1 53:1 54:1 55:1 56:1 57:1 58:1 59:1 60:1 
0.7633469381594834 1:2 2:2 3:2 4:2 5:1 6:1 7:1 8:1 9:1 10:2 11:4 12:1 13:1 14:1 15:1 16:3 17:1 18:1 19:1 20:1 21:4 22:2 23:4 24:1 25:1 26:1 27:4 28:1 29:1 30:2 31:2 32:1 33:2 34:4 35:1 36:1 37:1 38:2 39:3 40:1 41:4 42:2 43:4 44:1 45:3 46:4 47:4 48:1 49:1 50:1 51:1 52:4 53:1 54:4 55:1 56:4 57:4 58:3 59:4 60:4 
4.34609829848342 1:4 2:2 3:2 4:2 5:2 6:3 7:4 8:2 9:3 10:2 11:2 12:1 13:3 14:4 15:4 16:4 17:3 18:4 19:3 20:2 21:4 22:3 23:2 24:4 25:2 26:3 27:3 28:3 29:3 30:1 31:3 32:1 33:1 34:1 35:1 36:2 37:4 38:1 39:1 40:1 41:2 42:3 43:4 44:4 45:2 46:2 47:2 48:2 49:1 50:3 51:3 52:4 53:2 54:2 55:2 56:2 57:2 58:2 59:1 60:2 
1.29264756290896 1:3 2:4 3:2 4:2 5:2 6:1 7:1 8:2 9:4 10:2 11:1 12:2 13:3 14:4 15:3 16:2 17:3 18:1 19:2 20:4 21:2 22:4 23:2 24:3 25:4 26:2 27:1 28:3 29:1 30:3 31:3 32:1 33:2 34:1 35:1 36:1 37:1 38:2 39:4 40:2 41:3 42:3 43:4 44:3 45:4 46:2 47:2 48:1 49:3 50:4 51:3 52:1 53:4 54:3 55:3 56:3 57:3 58:4 59:2 60:3 
1.119550650853226 1:3 2:1 3:2 4:1 5:2 6:2 7:2 8:2 9:3 10:3 11:4 12:3 13:3 14:3 15:2 16:2 17:1 18:3 19:3 20:4 21:3 22:3 23:2 24:2 25:2 26:2 27:3 28:4 29:3 30:3 31:1 32:1 33:2 34:2 35:4 36:2 37:4 38:4 39:3 40:3 41:4 42:2 43:2 44:1 45:3 46:3 47:1 48:1 49:1 50:2 51:2 52:2 53:2 54:2 55:1 56:1 57:2 58:3 59:1 60:2 
1.602783340328183 1:2 2:4 3:3 4:4 5:2 6:3 7:3 8:3 9:4 10:3 11:3 12:2 13:1 14:4 15:1 16:3 17:3 18:3 19:2 20:3 21:3 22:4 23:4 24:2 25:4 26:3 27:3 28:4 29:3 30:3 31:4 32:3 33:1 34:1 35:4 36:2 37:3 38:4 39:1 40:4 41:3 42:4 43:1 44:3 45:3 46:4 47:2 48:1 49:2 50:4 51:2 52:3 53:3 54:1 55:1 56:2 57:4 58:2 59:2 60:1 
5.484059971385937 1:4 2:4 3:3 4:2 5:3 6:3 7:1 8:1 9:2 10:3 11:2 12:4 13:4 14:2 15:2 16:1 17:4 18:4 19:2 20:4 21:4 22:3 23:1 24:3 25:3 26:3 27:1 28:3 29:4 30:1 31:1 32:4 33:1 34:2 35:2 36:2 37:1 38:1 39:3 40:2 41:4 42:2 43:1 44:2 45:3 46:4 47:2 48:2 49:2 50:4 51:4 52:4 53:1 54:2 55:1 56:3 57:3 58:2 59:4 60:3 
2.830971856214212 1:4 2:4 3:2 4:3 5:3 6:3 7:4 8:4 9:2 10:1 11:2 12:1 13:4 14:3 15:4 16:1 17:4 18:4 19:4 20:4 21:3 22:3 23:4 24:4 25:3 26:4 27:3 28:1 29:1 30:4 31:1 32:4 33:2 34:4 35:4 36:2 37:1 38:4 39:3 40:1 41:1 42:2 43:3 44:1 45:2 46:1 47:2 48:4 49:4 50:2 51:2 52:1 53:1 54:1 55:1 56:1 57:4 58:1 59:4 60:2 
1.002550009971337 1:4 2:3 3:2 4:2 5:1 6:3 7:4 8:4 9:3 10:4 11:2 12:4 13:2 14:4 15:2 16:2 17:1 18:2 19:2 20:3 21:4 22:2 23:3 24:1 25:1 26:1 27:1 28:4 29:2 30:4 31:2 32:4 33:2 34:2 35:1 36:2 37:3 38:1 39:2 40:2 41:1 42:2 43:2 44:1 45:2 46:1 47:3 48:4 49:4 50:4 51:4 52:3 53:4 54:3 55:3 56:3 57:1 58:1 59:4 60:4 
2.655540478509838 1:3 2:1 3:1 4:4 5:1 6:4 7:2 8:1 9:1 10:1 11:4 12:4 13:1 14:2 15:4 16:2 17:3 18:1 19:3 20:3 21:4 22:4 23:2 24:1 25:1 26:1 27:1 28:1 29:2 30:1 31:1 32:3 33:1 34:3 35:1 36:1 37:4 38:1 39:1 40:2 41:1 42:2 43:3 44:1 45:1 46:4 47:4 48:4 49:4 50:4 51:1 52:2 53:2 54:2 55:1 56:1 57:3 58:1 59:1 60:2 
1.975259253400649 1:4 2:3 3:1 4:1 5:3 6:1 7:4 8:1 9:4 10:2 11:3 12:2 13:1 14:2 15:2 16:4 17:4 18:4 19:2 20:4 21:2 22:3 23:1 24:2 25:1 26:3 27:2 28:3 29:1 30:3 31:1 32:2 33:1 34:3 35:3 36:3 37:4 38:3 39:4 40:2 41:2 42:2 43:2 44:1 45:2 46:4 47:1 48:4 49:1 50:4 51:2 52:4 53:4 54:4 55:2 56:1 57:1 58:4 59:4 60:4 
0.8953995466392336 1:2 2:2 3:3 4:4 5:3 6:1 7:3 8:2 9:4 10:4 11:2 12:3 13:1 14:4 15:4 16:3 17:3 18:4 19:2 20:4 21:4 22:2 23:2 24:1 25:3 26:1 27:2 28:4 29:2 30:3 31:4 32:2 33:4 34:3 35:3 36:4 37:2 38:2 39:1 40:2 41:1 42:2 43:4 44:4 45:2 46:4 47:4 48:3 49:4 50:4 51:1 52:4 53:1 54:3 55:1 56:4 57:3 58:1 59:3 60:1 
1.754324373334912 1:2 2:4 3:3 4:1 5:3 6:3 7:2 8:4 9:2 10:4 11:3 12:3 13:4 14:2 15:3 16:4 17:3 18:4 19:1 20:2 21:1 22:4 23:2 24:1 25:2 26:1 27:2 28:4 29:2 30:2 31:4 32:4 33:1 34:4 35:4 36:3 37:1 38:3 39:1 40:1 41:3 42:2 43:2 44:4 45:4 46:1 47:4 48:4 49:3 50:1 51:2 52:3 53:3 54:2 55:4 56:3 57:1 58:2 59:4 60:4 
0.8406646071806939 1:2 2:2 3:2 4:1 5:2 6:1 7:1 8:1 9:1 10:3 11:2 12:4 13:4 14:1 15:2 16:2 17:2 18:4 19:2 20:4 21:2 22:2 23:1 24:4 25:1 26:4 27:4 28:1 29:3 30:2 31:2 32:1 33:1 34:1 35:2 36:3 37:3 38:4 39:4 40:3 41:3 42:4 43:1 44:1 45:1 46:1 47:1 48:1 49:4 50:2 51:1 52:3 53:1 54:4 55:4 56:4 57:1 58:1 59:3 60:4 
2.304070036141613 1:1 2:4 3:4 4:4 5:4 6:2 7:4 8:3 9:1 10:4 11:2 12:3 13:4 14:2 15:2 16:2 17:1 18:2 19:2 20:1 21:1 22:4 23:2 24:4 25:4 26:4 27:4 28:3 29:2 30:2 31:2 32:4 33:3 34:1 35:4 36:1 37:3 38:2 39:2 40:1 41:2 42:4 43:2 44:4 45:2 46:3 47:4 48:2 49:2 50:1 51:2 52:1 53:1 54:2 55:4 56:2 57:1 58:4 59:4 60:2 
2.327713527391833 1:3 2:2 3:3 4:3 5:4 6:4 7:2 8:1 9:2 10:2 11:1 12:2 13:3 14:4 15:1 16:2 17:1 18:3 19:4 20:4 21:2 22:2 23:3 24:3 25:1 26:4 27:3 28:4 29:1 30:3 31:1 32:1 33:4 34:1 35:2 36:3 37:1 38:4 39:3 40:1 41:1 42:4 43:2 44:2 45:4 46:2 47:3 48:3 49:1 50:4 51:3 52:1 53:3 54:3 55:3 56:1 57:2 58:4 59:4 60:3 
0.8072608008888852 1:1 2:4 3:2 4:1 5:4 6:2 7:4 8:2 9:3 10:1 11:2 12:2 13:3 14:1 15:3 16:4 17:1 18:1 19:2 20:4 21:1 22:2 23:2 24:3 25:1 26:3 27:4 28:3 29:1 30:2 31:2 32:1 33:1 34:1 35:4 36:1 37:1 38:3 39:1 40:2 41:1 42:3 43:2 44:4 45:2 46:4 47:2 48:1 49:3 50:2 51:4 52:4 53:3 54:4 55:2 56:3 57:3 58:4 59:4 60:4 
1.028215729737168 1:1 2:1 3:4 4:4 5:2 6:4 7:3 8:4 9:2 10:4 11:2 12:2 13:4 14:4 15:4 16:1 17:1 18:2 19:1 20:1 21:3 22:1 23:3 24:3 25:4 26:4 27:4 28:1 29:1 30:2 31:3 32:1 33:2 34:4 35:4 36:4 37:4 38:3 39:3 40:2 41:3 42:3 43:3 44:4 45:2 46:2 47:2 48:4 49:2 50:2 51:2 52:3 53:3 54:1 55:2 56:2 57:4 58:2 59:4 60:4 
4.388509359894041 1:3 2:3 3:1 4:2 5:4 6:2 7:3 8:3 9:2 10:3 11:3 12:4 13:2 14:2 15:1 16:1 17:1 18:1 19:2 20:3 21:4 22:2 23:3 24:1 25:2 26:3 27:4 28:2 29:2 30:1 31:2 32:4 33:1 34:4 35:4 36:2 37:3 38:1 39:2 40:3 41:3 42:4 43:3 44:4 45:3 46:2 47:2 48:3 49:4 50:2 51:3 52:3 53:1 54:2 55:3 56:4 57:2 58:3 59:2 60:1 
5.236744794939765 1:4 2:2 3:2 4:2 5:1 6:2 7:2 8:2 9:1 10:3 11:3 12:1 13:1 14:1 15:2 16:2 17:3 18:2 19:2 20:3 21:3 22:1 23:2 24:2 25:1 26:4 27:1 28:4 29:1 30:1 31:3 32:4 33:2 34:1 35:3 36:4 37:4 38:3 39:1 40:3 41:3 42:1 43:4 44:2 45:3 46:1 47:1 48:4 49:4 50:4 51:2 52:4 53:2 54:4 55:3 56:4 57:4 58:3 59:3 60:4 
1.303403468812202 1:1 2:1 3:1 4:3 5:3 6:3 7:2 8:3 9:3 10:4 11:3 12:3 13:3 14:1 15:2 16:2 17:4 18:4 19:4 20:1 21:1 22:2 23:3 24:2 25:1 26:4 27:4 28:3 29:4 30:3 31:1 32:4 33:2 34:3 35:3 36:4 37:3 38:1 39:2 40:3 41:3 42:4 43:3 44:3 45:3 46:1 47:2 48:4 49:1 50:2 51:3 52:4 53:2 54:2 55:2 56:1 57:4 58:4 59:1 60:2 
3.503926907651287 1:1 2:1 3:4 4:3 5:1 6:4 7:2 8:3 9:3 10:2 11:4 12:2 13:2 14:4 15:2 16:4 17:3 18:4 19:3 20:2 21:2 22:1 23:4 24:2 25:2 26:1 27:4 28:1 29:1 30:2 31:2 32:4 33:2 34:2 35:1 36:1 37:3 38:2 39:3 40:3 41:4 42:2 43:1 44:1 45:1 46:3 47:1 48:2 49:2 50:4 51:2 52:3 53:4 54:2 55:3 56:4 57:3 58:3 59:1 60:3 
1.623471624250266 1:4 2:1 3:4 4:3 5:4 6:2 7:2 8:4 9:2 10:2 11:2 12:1 13:2 14:1 15:1 16:1 17:2 18:3 19:4 20:2 21:2 22:2 23:2 24:4 25:4 26:2 27:2 28:2 29:2 30:1 31:2 32:2 33:3 34:3 35:2 36:1 37:1 38:2 39:1 40:1 41:2 42:2 43:4 44:3 45:1 46:2 47:2 48:3 49:3 50:3 51:4 52:3 53:1 54:2 55:3 56:4 57:2 58:3 59:3 60:4 
3.72607679320862 1:3 2:1 3:2 4:1 5:1 6:1 7:2 8:1 9:3 10:1 11:1 12:2 13:4 14:3 15:4 16:2 17:2 18:4 19:1 20:4 21:4 22:4 23:3 24:3 25:4 26:4 27:4 28:3 29:1 30:2 31:2 32:1 33:3 34:4 35:3 36:3 37:3 38:4 39:4 40:2 41:1 42:2 43:4 44:3 45:1 46:4 47:4 48:1 49:1 50:1 51:1 52:1 53:1 54:1 55:1 56:4 57:3 58:4 59:4 60:3 
1.633133883545612 1:4 2:4 3:1 4:3 5:4 6:4 7:2 8:3 9:1 10:3 11:4 12:4 13:2 14:4 15:1 16:1 17:1 18:3 19:3 20:1 21:2 22:2 23:4 24:4 25:2 26:2 27:3 28:1 29:1 30:2 31:2 32:1 33:2 34:1 35:1 36:1 37:1 38:2 39:4 40:2 41:4 42:2 43:1 44:1 45:4 46:4 47:4 48:2 49:1 50:3 51:1 52:4 53:1 54:1 55:1 56:4 57:2 58:1 59:1 60:4 
3.669990173117844 1:3 2:1 3:3 4:3 5:1 6:3 7:3 8:3 9:1 10:1 11:3 12:3 13:3 14:1 15:3 16:3 17:1 18:4 19:3 20:3 21:1 22:1 23:3 24:3 25:3 26:1 27:3 28:3 29:3 30:1 31:1 32:3 33:3 34:1 35:1 36:3 37:4 38:1 39:3 40:3 41:3 42:1 43:2 44:3 45:4 46:3 47:3 48:3 49:1 50:1 51:3 52:1 53:2 54:1 55:4 56:4 57:3 58:4 59:3 60:3 
2.84184787531411 1:4 2:3 3:1 4:4 5:3 6:4 7:3 8:4 9:4 10:1 11:4 12:1 13:2 14:1 15:4 16:4 17:1 18:1 19:3 20:4 21:4 22:3 23:3 24:4 25:4 26:3 27:3 28:1 29:1 30:1 31:1 32:4 33:2 34:4 35:3 36:1 37:3 38:3 39:1 40:4 41:4 42:3 43:3 44:4 45:2 46:4 47:1 48:3 49:3 50:4 51:2 52:2 53:4 54:4 55:3 56:4 57:3 58:4 59:4 60:2 
2.87983558243985 1:1 2:1 3:1 4:4 5:1 6:1 7:3 8:1 9:1 10:3 11:1 12:1 13:3 14:1 15:2 16:4 17:3 18:4 19:2 20:4 21:1 22:1 23:1 24:3 25:3 26:1 27:3 28:4 29:2 30:2 31:1 32:4 33:1 34:2 35:2 36:4 37:4 38:4 39:4 40:1 41:1 42:4 43:1 44:1 45:1 46:4 47:4 48:1 49:1 50:3 51:3 52:3 53:1 54:1 55:2 56:4 57:1 58:1 59:1 60:2 
3.664921069325106 1:1 2:2 3:3 4:4 5:4 6:3 7:1 8:4 9:4 10:3 11:3 12:4 13:2 14:3 15:3 16:4 17:3 18:4 19:4 20:2 21:4 22:3 23:4 24:2 25:2 26:3 27:4 28:3 29:1 30:2 31:3 32:1 33:3 34:1 35:4 36:1 37:4 38:4 39:2 40:2 41:4 42:3 43:1 44:4 45:1 46:1 47:1 48:1 49:3 50:1 51:4 52:1 53:4 54:4 55:3 56:4 57:2 58:2 59:4 60:4 
3.970538533944742 1:2 2:3 3:4 4:4 5:4 6:3 7:3 8:4 9:2 10:3 11:4 12:4 13:2 14:2 15:3 16:1 17:2 18:4 19:4 20:1 21:4 22:4 23:3 24:4 25:4 26:3 27:3 28:1 29:3 30:1 31:1 32:2 33:1 34:2 35:1 36:2 37:2 38:2 39:3 40:4 41:4 42:4 43:3 44:4 45:3 46:1 47:2 48:2 49:1 50:3 51:3 52:4 53:2 54:2 55:4 56:4 57:2 58:3 59:4 60:1 
6.13770648222946 1:2 2:1 3:3 4:2 5:1 6:4 7:2 8:1 9:2 10:2 11:4 12:2 13:1 14:3 15:1 16:2 17:4 18:3 19:1 20:3 21:2 22:2 23:1 24:2 25:2 26:1 27:4 28:1 29:1 30:2 31:1 32:4 33:3 34:1 35:1 36:4 37:2 38:3 39:3 40:3 41:4 42:3 43:1 44:4 45:4 46:1 47:1 48:1 49:2 50:3 51:1 52:2 53:3 54:3 55:2 56:2 57:4 58:2 59:4 60:1 
1.402596574238073 1:4 2:1 3:2 4:1 5:2 6:3 7:1 8:1 9:2 10:2 11:2 12:4 13:4 14:3 15:1 16:3 17:4 18:2 19:4 20:4 21:3 22:3 23:4 24:2 25:1 26:1 27:1 28:4 29:3 30:1 31:1 32:2 33:1 34:3 35:3 36:1 37:4 38:3 39:3 40:4 41:4 42:2 43:2 44:2 45:1 46:3 47:3 48:1 49:4 50:2 51:3 52:3 53:4 54:2 55:3 56:3 57:4 58:4 59:4 60:2 
8 1:2 2:2 3:1 4:4 5:2 6:2 7:1 8:1 9:1 10:3 11:2 12:2 13:3 14:4 15:4 16:4 17:1 18:3 19:3 20:2 21:2 22:2 23:1 24:2 25:4 26:4 27:1 28:3 29:1 30:3 31:1 32:2 33:2 34:2 35:2 36:3 37:3 38:2 39:2 40:3 41:3 42:2 43:2 44:3 45:2 46:2 47:2 48:2 49:2 50:3 51:2 52:1 53:1 54:2 55:2 56:1 57:3 58:4 59:3 60:2 
0.6754910678483473 1:1 2:2 3:4 4:1 5:1 6:4 7:4 8:1 9:1 10:4 11:1 12:2 13:1 14:4 15:2 16:2 17:4 18:1 19:1 20:4 21:4 22:1 23:1 24:4 25:4 26:2 27:1 28:4 29:3 30:3 31:4 32:4 33:2 34:1 35:4 36:2 37:4 38:2 39:1 40:4 41:2 42:4 43:4 44:3 45:4 46:4 47:4 48:4 49:2 50:3 51:1 52:4 53:1 54:4 55:4 56:4 57:3 58:3 59:4 60:4 
1.186209658707605 1:2 2:4 3:4 4:3 5:4 6:2 7:3 8:3 9:3 10:1 11:2 12:2 13:1 14:1 15:4 16:2 17:1 18:4 19:2 20:1 21:4 22:4 23:2 24:2 25:2 26:2 27:3 28:4 29:1 30:4 31:4 32:2 33:4 34:4 35:1 36:4 37:1 38:4 39:4 40:4 41:4 42:1 43:1 44:4 45:1 46:3 47:4 48:4 49:2 50:2 51:2 52:4 53:1 54:1 55:1 56:4 57:1 58:2 59:2 60:1 
2.366778904681205 1:3 2:2 3:4 4:2 5:2 6:1 7:2 8:2 9:3 10:3 11:2 12:1 13:3 14:1 15:4 16:3 17:1 18:1 19:3 20:2 21:2 22:3 23:3 24:4 25:2 26:3 27:2 28:3 29:1 30:2 31:2 32:2 33:4 34:2 35:3 36:4 37:2 38:2 39:1 40:4 41:2 42:1 43:2 44:3 45:4 46:2 47:1 48:3 49:3 50:3 51:4 52:2 53:2 54:3 55:3 56:1 57:2 58:2 59:1 60:3 
0.8087034714169102 1:1 2:4 3:2 4:3 5:2 6:2 7:2 8:4 9:3 10:1 11:3 12:2 13:2 14:3 15:2 16:3 17:3 18:3 19:3 20:2 21:1 22:1 23:3 24:3 25:3 26:4 27:3 28:3 29:4 30:3 31:3 32:4 33:2 34:3 35:4 36:2 37:3 38:4 39:3 40:4 41:2 42:2 43:2 44:2 45:2 46:2 47:3 48:1 49:2 50:4 51:2 52:2 53:3 54:3 55:3 56:4 57:2 58:1 59:3 60:3 
0.7256867145474204 1:1 2:3 3:1 4:3 5:3 6:4 7:4 8:3 9:1 10:1 11:3 12:1 13:2 14:3 15:4 16:1 17:3 18:4 19:1 20:4 21:1 22:4 23:2 24:3 25:1 26:3 27:4 28:2 29:2 30:2 31:4 32:2 33:3 34:2 35:1 36:3 37:1 38:2 39:2 40:3 41:3 42:3 43:3 44:4 45:2 46:2 47:1 48:3 49:1 50:1 51:2 52:2 53:2 54:3 55:4 56:4 57:2 58:1 59:2 60:4 
3.410888202370687 1:2 2:1 3:3 4:1 5:2 6:1 7:1 8:1 9:3 10:1 11:1 12:1 13:2 14:1 15:2 16:1 17:3 18:1 19:4 20:4 21:4 22:3 23:4 24:3 25:4 26:2 27:3 28:1 29:1 30:1 31:1 32:3 33:3 34:3 35:3 36:3 37:3 38:1 39:1 40:1 41:4 42:2 43:3 44:3 45:4 46:4 47:2 48:3 49:1 50:2 51:4 52:3 53:1 54:3 55:4 56:4 57:2 58:2 59:4 60:3 
3.611634606699921 1:3 2:4 3:3 4:4 5:2 6:1 7:4 8:3 9:4 10:3 11:1 12:1 13:2 14:2 15:1 16:1 17:2 18:1 19:1 20:1 21:2 22:1 23:1 24:3 25:1 26:2 27:1 28:2 29:3 30:4 31:2 32:3 33:1 34:2 35:2 36:4 37:2 38:1 39:2 40:1 41:1 42:2 43:4 44:2 45:4 46:2 47:3 48:2 49:3 50:3 51:4 52:3 53:1 54:1 55:1 56:4 57:3 58:1 59:3 60:3 
0.955634895336209 1:1 2:3 3:1 4:2 5:4 6:2 7:3 8:1 9:4 10:2 11:3 12:3 13:1 14:4 15:3 16:3 17:4 18:2 19:1 20:1 21:3 22:4 23:1 24:1 25:2 26:4 27:2 28:4 29:3 30:3 31:4 32:3 33:4 34:2 35:2 36:2 37:2 38:3 39:4 40:2 41:2 42:2 43:2 44:1 45:3 46:1 47:2 48:1 49:2 50:3 51:4 52:4 53:2 54:2 55:2 56:3 57:3 58:1 59:2 60:2 
3.228120541105508 1:1 2:1 3:1 4:1 5:4 6:1 7:2 8:3 9:4 10:1 11:4 12:4 13:2 14:3 15:4 16:1 17:1 18:4 19:1 20:4 21:4 22:1 23:4 24:4 25:2 26:1 27:4 28:2 29:1 30:1 31:1 32:4 33:3 34:1 35:4 36:4 37:2 38:1 39:1 40:1 41:1 42:1 43:4 44:4 45:1 46:1 47:1 48:1 49:1 50:2 51:4 52:3 53:4 54:4 55:2 56:1 57:4 58:2 59:1 60:2 
0.9473974882853275 1:2 2:2 3:2 4:1 5:2 6:3 7:1 8:2 9:2 10:2 11:1 12:2 13:1 14:4 15:2 16:2 17:1 18:4 19:4 20:2 21:2 22:4 23:1 24:4 25:4 26:2 27:2 28:4 29:1 30:4 31:2 32:2 33:4 34:3 35:1 36:3 37:1 38:3 39:3 40:4 41:2 42:1 43:2 44:2 45:2 46:4 47:3 48:3 49:4 50:2 51:3 52:1 53:3 54:3 55:4 56:2 57:3 58:4 59:1 60:2 
1.53054265097437 1:4 2:3 3:2 4:2 5:3 6:1 7:1 8:3 9:3 10:3 11:3 12:3 13:2 14:3 15:1 16:1 17:2 18:4 19:3 20:3 21:1 22:1 23:2 24:3 25:4 26:3 27:1 28:4 29:3 30:4 31:2 32:3 33:3 34:1 35:2 36:2 37:3 38:3 39:1 40:3 41:2 42:2 43:2 44:4 45:4 46:4 47:3 48:1 49:2 50:4 51:3 52:3 53:3 54:3 55:2 56:2 57:3 58:1 59:2 60:1 
1.392700716497505 1:2 2:2 3:2 4:4 5:1 6:3 7:3 8:2 9:2 10:4 11:4 12:2 13:3 14:3 15:3 16:3 17:3 18:4 19:3 20:3 21:4 22:2 23:4 24:2 25:2 26:1 27:3 28:4 29:2 30:3 31:3 32:3 33:4 34:2 35:3 36:3 37:3 38:3 39:4 40:3 41:4 42:2 43:4 44:1 45:4 46:2 47:1 48:2 49:3 50:4 51:3 52:1 53:4 54:2 55:1 56:1 57:2 58:1 59:1 60:3 
2.677690973764613 1:2 2:1 3:1 4:1 5:2 6:1 7:1 8:1 9:3 10:2 11:1 12:2 13:2 14:1 15:1 16:2 17:1 18:3 19:2 20:2 21:2 22:4 23:4 24:4 25:4 26:3 27:2 28:4 29:3 30:4 31:1 32:4 33:1 34:2 35:4 36:4 37:2 38:1 39:1 40:2 41:3 42:4 43:4 44:4 45:4 46:1 47:3 48:4 49:1 50:2 51:2 52:1 53:4 54:3 55:4 56:4 57:2 58:3 59:3 60:4 
3.032495364522855 1:3 2:3 3:2 4:3 5:1 6:2 7:1 8:1 9:3 10:4 11:3 12:3 13:4 14:3 15:4 16:2 17:4 18:2 19:3 20:3 21:3 22:4 23:3 24:4 25:3 26:3 27:4 28:3 29:1 30:3 31:3 32:1 33:2 34:1 35:3 36:3 37:4 38:4 39:2 40:4 41:4 42:3 43:3 44:4 45:3 46:3 47:3 48:1 49:2 50:4 51:4 52:2 53:3 54:4 55:3 56:3 57:3 58:1 59:3 60:1 
2.2213057234797 1:4 2:3 3:3 4:3 5:3 6:2 7:1 8:2 9:3 10:3 11:3 12:4 13:3 14:1 15:2 16:3 17:1 18:3 19:1 20:2 21:3 22:1 23:2 24:3 25:4 26:2 27:3 28:2 29:1 30:2 31:1 32:2 33:1 34:4 35:3 36:4 37:4 38:3 39:1 40:1 41:3 42:1 43:4 44:2 45:2 46:3 47:2 48:1 49:2 50:2 51:2 52:1 53:4 54:3 55:1 56:2 57:3 58:2 59:3 60:1 
0.9934714876853491 1:1 2:1 3:4 4:2 5:2 6:1 7:4 8:1 9:2 10:1 11:3 12:3 13:1 14:2 15:3 16:1 17:3 18:4 19:3 20:1 21:2 22:1 23:3 24:3 25:1 26:3 27:4 28:1 29:4 30:4 31:4 32:4 33:3 34:1 35:2 36:4 37:1 38:4 39:3 40:4 41:2 42:4 43:4 44:4 45:4 46:4 47:3 48:4 49:4 50:1 51:1 52:3 53:4 54:3 55:1 56:2 57:2 58:2 59:3 60:3 
1.695427317482953 1:4 2:2 3:1 4:4 5:2 6:3 7:2 8:2 9:2 10:2 11:1 12:3 13:4 14:2 15:2 16:1 17:2 18:4 19:4 20:2 21:3 22:4 23:3 24:1 25:4 26:4 27:4 28:1 29:3 30:4 31:4 32:4 33:1 34:1 35:3 36:1 37:1 38:3 39:1 40:1 41:3 42:2 43:4 44:4 45:3 46:3 47:2 48:1 49:4 50:1 51:2 52:1 53:4 54:2 55:1 56:4 57:4 58:3 59:1 60:2 
1.20541383250958 1:2 2:4 3:3 4:1 5:1 6:3 7:1 8:1 9:2 10:4 11:1 12:3 13:3 14:2 15:4 16:1 17:1 18:2 19:2 20:2 21:1 22:1 23:1 24:2 25:4 26:4 27:2 28:1 29:1 30:1 31:1 32:2 33:1 34:1 35:3 36:4 37:4 38:4 39:2 40:1 41:1 42:2 43:1 44:2 45:1 46:2 47:1 48:2 49:4 50:4 51:3 52:1 53:1 54:2 55:1 56:2 57:2 58:2 59:3 60:2 
3.664020861373344 1:4 2:4 3:3 4:2 5:3 6:4 7:4 8:4 9:3 10:3 11:4 12:3 13:4 14:2 15:2 16:4 17:4 18:4 19:2 20:1 21:1 22:1 23:2 24:3 25:3 26:4 27:3 28:4 29:2 30:2 31:1 32:1 33:1 34:1 35:3 36:4 37:3 38:1 39:2 40:2 41:1 42:4 43:4 44:3 45:4 46:3 47:1 48:3 49:2 50:1 51:3 52:4 53:3 54:4 55:1 56:3 57:3 58:1 59:4 60:2 
0.1039890379855047 1:1 2:1 3:3 4:1 5:4 6:4 7:3 8:3 9:1 10:1 11:4 12:2 13:3 14:1 15:4 16:4 17:2 18:3 19:4 20:1 21:1 22:1 23:1 24:4 25:1 26:4 27:4 28:1 29:4 30:4 31:2 32:4 33:2 34:2 35:1 36:1 37:1 38:4 39:2 40:1 41:1 42:4 43:1 44:4 45:4 46:4 47:4 48:2 49:4 50:1 51:1 52:3 53:4 54:1 55:4 56:4 57:1 58:3 59:1 60:3 
0.2165893318019203 1:2 2:1 3:3 4:1 5:2 6:1 7:2 8:3 9:1 10:2 11:1 12:4 13:4 14:4 15:2 16:1 17:1 18:1 19:3 20:1 21:3 22:4 23:3 24:4 25:1 26:4 27:4 28:4 29:2 30:4 31:2 32:3 33:4 34:1 35:4 36:4 37:4 38:2 39:3 40:1 41:1 42:2 43:4 44:2 45:4 46:1 47:2 48:1 49:4 50:4 51:4 52:3 53:1 54:1 55:2 56:3 57:2 58:3 59:4 60:4 
2.554251119294146 1:1 2:2 3:2 4:3 5:1 6:1 7:3 8:3 9:1 10:2 11:3 12:4 13:1 14:2 15:2 16:1 17:2 18:2 19:1 20:2 21:2 22:1 23:2 24:1 25:3 26:4 27:3 28:2 29:2 30:1 31:3 32:3 33:3 34:1 35:2 36:3 37:4 38:4 39:2 40:3 41:1 42:2 43:3 44:4 45:2 46:1 47:1 48:2 49:2 50:2 51:3 52:2 53:3 54:4 55:2 56:2 57:3 58:4 59:2 60:3 
3.732278177033714 1:2 2:2 3:1 4:2 5:2 6:3 7:1 8:2 9:3 10:3 11:4 12:3 13:4 14:4 15:2 16:1 17:4 18:2 19:2 20:4 21:3 22:4 23:4 24:4 25:2 26:4 27:2 28:2 29:3 30:1 31:3 32:4 33:2 34:3 35:4 36:3 37:2 38:4 39:4 40:4 41:4 42:3 43:4 44:1 45:4 46:1 47:4 48:3 49:1 50:3 51:3 52:1 53:1 54:1 55:1 56:2 57:2 58:1 59:1 60:1 
3.591782062498837 1:4 2:1 3:3 4:1 5:4 6:3 7:4 8:1 9:3 10:1 11:1 12:3 13:3 14:2 15:2 16:2 17:1 18:2 19:2 20:1 21:2 22:3 23:4 24:3 25:2 26:4 27:2 28:3 29:2 30:3 31:4 32:4 33:3 34:2 35:1 36:3 37:1 38:2 39:3 40:2 41:1 42:3 43:2 44:4 45:2 46:2 47:2 48:2 49:2 50:1 51:2 52:4 53:4 54:3 55:3 56:2 57:2 58:2 59:3 60:2 
1.118416656440344 1:4 2:4 3:3 4:1 5:2 6:3 7:4 8:3 9:1 10:3 11:4 12:2 13:3 14:1 15:1 16:1 17:3 18:2 19:3 20:3 21:2 22:3 23:3 24:4 25:3 26:3 27:4 28:2 29:2 30:2 31:4 32:4 33:3 34:1 35:1 36:2 37:3 38:1 39:2 40:4 41:4 42:3 43:4 44:3 45:3 46:4 47:1 48:3 49:3 50:4 51:3 52:1 53:2 54:3 55:3 56:1 57:3 58:3 59:3 60:1 
1.03976060427009 1:2 2:2 3:3 4:3 5:2 6:3 7:3 8:3 9:4 10:2 11:4 12:1 13:3 14:3 15:3 16:4 17:3 18:4 19:4 20:4 21:3 22:1 23:3 24:3 25:4 26:4 27:4 28:3 29:3 30:3 31:4 32:1 33:1 34:1 35:2 36:1 37:3 38:3 39:3 40:4 41:1 42:1 43:1 44:4 45:3 46:4 47:2 48:1 49:2 50:2 51:1 52:1 53:4 54:3 55:1 56:1 57:3 58:1 59:2 60:2 
3.539247350659169 1:2 2:3 3:3 4:4 5:4 6:2 7:3 8:3 9:1 10:1 11:2 12:2 13:4 14:3 15:3 16:4 17:3 18:3 19:3 20:4 21:3 22:4 23:2 24:3 25:1 26:2 27:3 28:4 29:2 30:3 31:3 32:1 33:2 34:1 35:1 36:2 37:3 38:1 39:2 40:2 41:1 42:2 43:4 44:3 45:3 46:3 47:1 48:1 49:2 50:4 51:2 52:1 53:3 54:1 55:2 56:2 57:1 58:3 59:3 60:4 
2.657336364098776 1:2 2:2 3:2 4:2 5:2 6:1 7:2 8:4 9:4 10:3 11:3 12:2 13:2 14:2 15:3 16:2 17:2 18:4 19:2 20:1 21:3 22:2 23:2 24:1 25:2 26:3 27:4 28:2 29:2 30:2 31:2 32:3 33:2 34:2 35:3 36:3 37:4 38:2 39:1 40:4 41:2 42:1 43:2 44:2 45:1 46:3 47:4 48:1 49:3 50:4 51:2 52:2 53:1 54:1 55:3 56:1 57:2 58:3 59:3 60:1 
1.408065215723996 1:1 2:2 3:1 4:4 5:3 6:1 7:2 8:4 9:1 10:1 11:1 12:2 13:1 14:1 15:3 16:2 17:4 18:2 19:2 20:4 21:3 22:1 23:2 24:1 25:2 26:4 27:1 28:2 29:1 30:1 31:3 32:3 33:3 34:3 35:4 36:2 37:1 38:1 39:2 40:4 41:1 42:4 43:4 44:4 45:4 46:4 47:4 48:1 49:1 50:4 51:3 52:3 53:4 54:1 55:3 56:3 57:4 58:3 59:1 60:1 
2.149310851331685 1:2 2:2 3:2 4:3 5:4 6:4 7:3 8:4 9:3 10:3 11:1 12:2 13:4 14:4 15:2 16:3 17:4 18:1 19:2 20:3 21:4 22:4 23:4 24:3 25:1 26:2 27:4 28:4 29:4 30:3 31:4 32:4 33:1 34:2 35:3 36:3 37:3 38:4 39:2 40:4 41:2 42:3 43:1 44:2 45:1 46:2 47:3 48:3 49:3 50:2 51:1 52:2 53:4 54:2 55:3 56:2 57:3 58:2 59:3 60:4 
3.589093505685335 1:4 2:4 3:3 4:3 5:4 6:1 7:1 8:2 9:1 10:3 11:3 12:3 13:3 14:4 15:4 16:4 17:3 18:1 19:3 20:4 21:1 22:4 23:4 24:1 25:1 26:2 27:1 28:2 29:1 30:1 31:4 32:4 33:1 34:1 35:1 36:1 37:1 38:4 39:4 40:1 41:4 42:1 43:2 44:3 45:4 46:2 47:4 48:4 49:3 50:3 51:4 52:3 53:3 54:4 55:4 56:3 57:1 58:2 59:2 60:1 
6.5216123499633 1:2 2:4 3:4 4:4 5:3 6:1 7:2 8:4 9:2 10:4 11:2 12:3 13:3 14:4 15:4 16:3 17:3 18:3 19:4 20:4 21:2 22:1 23:1 24:3 25:3 26:4 27:4 28:2 29:1 30:3 31:1 32:3 33:1 34:1 35:1 36:2 37:4 38:1 39:4 40:2 41:1 42:1 43:4 44:4 45:1 46:3 47:4 48:4 49:4 50:1 51:3 52:4 53:4 54:2 55:2 56:3 57:2 58:2 59:1 60:2 
1.646256862418545 1:3 2:3 3:2 4:4 5:3 6:3 7:3 8:4 9:1 10:4 11:4 12:3 13:4 14:2 15:2 16:3 17:3 18:1 19:3 20:4 21:4 22:2 23:1 24:4 25:4 26:3 27:2 28:2 29:2 30:2 31:2 32:1 33:3 34:1 35:3 36:3 37:4 38:2 39:2 40:4 41:1 42:2 43:2 44:2 45:2 46:1 47:4 48:2 49:2 50:2 51:2 52:1 53:1 54:1 55:2 56:2 57:4 58:2 59:2 60:2 
2.557056769136873 1:2 2:4 3:4 4:3 5:1 6:3 7:2 8:4 9:4 10:4 11:2 12:1 13:1 14:1 15:3 16:1 17:3 18:4 19:3 20:4 21:4 22:4 23:4 24:4 25:2 26:3 27:1 28:2 29:2 30:1 31:4 32:3 33:4 34:1 35:3 36:1 37:1 38:2 39:4 40:2 41:2 42:1 43:4 44:1 45:4 46:4 47:4 48:2 49:2 50:1 51:3 52:3 53:1 54:3 55:4 56:3 57:4 58:2 59:4 60:2 
0.2888077538755854 1:4 2:2 3:2 4:3 5:3 6:2 7:1 8:3 9:1 10:3 11:1 12:3 13:2 14:3 15:4 16:4 17:3 18:2 19:1 20:3 21:1 22:4 23:2 24:2 25:4 26:3 27:3 28:1 29:2 30:3 31:4 32:3 33:1 34:4 35:3 36:2 37:1 38:3 39:2 40:4 41:2 42:2 43:3 44:3 45:3 46:2 47:2 48:3 49:1 50:2 51:1 52:3 53:4 54:2 55:3 56:3 57:3 58:1 59:2 60:2 
0.3207484479892357 1:4 2:4 3:4 4:1 5:2 6:4 7:4 8:4 9:4 10:4 11:1 12:4 13:4 14:4 15:1 16:1 17:4 18:1 19:4 20:4 21:3 22:4 23:1 24:4 25:1 26:3 27:4 28:4 29:2 30:1 31:2 32:4 33:2 34:1 35:1 36:1 37:2 38:4 39:1 40:1 41:4 42:4 43:4 44:4 45:4 46:1 47:1 48:4 49:2 50:4 51:2 52:4 53:4 54:4 55:4 56:3 57:3 58:3 59:3 60:1 
2.240264322932098 1:3 2:2 3:2 4:3 5:3 6:4 7:3 8:2 9:3 10:1 11:1 12:2 13:3 14:3 15:3 16:1 17:3 18:2 19:2 20:3 21:3 22:3 23:2 24:3 25:4 26:2 27:2 28:2 29:2 30:2 31:4 32:2 33:3 34:3 35:2 36:4 37:3 38:3 39:3 40:2 41:3 42:2 43:3 44:3 45:2 46:2 47:2 48:2 49:3 50:2 51:2 52:1 53:2 54:3 55:1 56:2 57:2 58:3 59:3 60:3 
2.36229060865728 1:2 2:1 3:2 4:3 5:4 6:2 7:3 8:4 9:2 10:3 11:2 12:3 13:4 14:4 15:3 16:4 17:3 18:3 19:1 20:1 21:3 22:4 23:2 24:1 25:3 26:1 27:1 28:3 29:4 30:2 31:2 32:3 33:3 34:2 35:2 36:4 37:3 38:4 39:2 40:3 41:1 42:1 43:2 44:4 45:3 46:1 47:2 48:1 49:2 50:2 51:1 52:4 53:2 54:2 55:3 56:3 57:1 58:2 59:4 60:2 
3.869312958518436 1:4 2:2 3:2 4:1 5:3 6:2 7:2 8:4 9:1 10:1 11:3 12:1 13:2 14:2 15:1 16:1 17:4 18:2 19:4 20:1 21:4 22:2 23:1 24:2 25:1 26:2 27:4 28:4 29:2 30:2 31:2 32:4 33:2 34:3 35:3 36:1 37:1 38:1 39:1 40:3 41:4 42:4 43:2 44:4 45:2 46:2 47:3 48:3 49:2 50:3 51:3 52:3 53:4 54:2 55:4 56:1 57:3 58:1 59:1 60:2 
0.2389174786342108 1:3 2:4 3:4 4:4 5:4 6:3 7:3 8:1 9:2 10:1 11:2 12:3 13:3 14:4 15:4 16:1 17:4 18:1 19:4 20:3 21:4 22:4 23:2 24:2 25:4 26:1 27:4 28:1 29:4 30:2 31:3 32:3 33:1 34:1 35:4 36:2 37:1 38:4 39:2 40:3 41:3 42:2 43:3 44:3 45:1 46:4 47:4 48:4 49:3 50:4 51:2 52:1 53:2 54:3 55:3 56:1 57:2 58:1 59:1 60:1 
5.253940882657329 1:2 2:3 3:4 4:2 5:2 6:2 7:3 8:3 9:3 10:4 11:2 12:2 13:2 14:3 15:4 16:4 17:3 18:4 19:1 20:3 21:3 22:3 23:4 24:2 25:3 26:2 27:2 28:1 29:2 30:1 31:4 32:3 33:1 34:3 35:1 36:3 37:4 38:2 39:1 40:3 41:3 42:4 43:2 44:2 45:3 46:1 47:2 48:3 49:2 50:2 51:2 52:1 53:4 54:2 55:2 56:3 57:2 58:1 59:2 60:2 
0.501813460107407 1:4 2:2 3:1 4:3 5:1 6:4 7:2 8:4 9:4 10:4 11:4 12:3 13:4 14:1 15:4 16:4 17:2 18:4 19:3 20:4 21:4 22:2 23:1 24:1 25:3 26:3 27:1 28:4 29:4 30:1 31:3 32:4 33:2 34:3 35:1 36:4 37:1 38:4 39:2 40:1 41:4 42:1 43:3 44:1 45:4 46:3 47:1 48:1 49:1 50:2 51:4 52:4 53:1 54:1 55:2 56:4 57:2 58:1 59:3 60:1 
1.07437346074544 1:1 2:2 3:2 4:4 5:2 6:2 7:3 8:3 9:1 10:3 11:3 12:1 13:1 14:3 15:1 16:2 17:3 18:2 19:1 20:2 21:3 22:4 23:2 24:2 25:4 26:2 27:3 28:1 29:2 30:1 31:2 32:3 33:2 34:2 35:3 36:1 37:1 38:2 39:1 40:2 41:3 42:2 43:1 44:2 45:1 46:4 47:4 48:4 49:3 50:2 51:2 52:1 53:2 54:3 55:4 56:3 57:4 58:2 59:2 60:3 
1.270085925426796 1:2 2:1 3:2 4:3 5:4 6:3 7:1 8:4 9:4 10:4 11:4 12:4 13:4 14:1 15:1 16:1 17:1 18:1 19:4 20:3 21:3 22:1 23:1 24:4 25:4 26:4 27:2 28:4 29:1 30:3 31:1 32:4 33:4 34:1 35:2 36:1 37:3 38:4 39:1 40:1 41:1 42:3 43:2 44:4 45:2 46:1 47:1 48:1 49:4 50:4 51:1 52:4 53:3 54:4 55:3 56:4 57:4 58:1 59:4 60:4 
-2.547638269046435 1:1 2:1 3:4 4:1 5:1 6:3 7:3 8:4 9:4 10:3 11:4 12:2 13:3 14:4 15:2 16:2 17:3 18:3 19:3 20:3 21:4 22:3 23:4 24:2 25:3 26:3 27:4 28:4 29:1 30:2 31:2 32:1 33:1 34:4 35:3 36:1 37:4 38:4 39:4 40:4 41:4 42:1 43:1 44:4 45:1 46:1 47:4 48:2 49:2 50:1 51:3 52:3 53:4 54:1 55:3 56:3 57:4 58:2 59:2 60:1 
-3.409405748546523 1:4 2:3 3:4 4:4 5:3 6:1 7:1 8:4 9:4 10:4 11:1 12:1 13:3 14:4 15:4 16:4 17:3 18:1 19:3 20:1 21:4 22:4 23:4 24:3 25:4 26:4 27:4 28:3 29:1 30:2 31:2 32:1 33:1 34:4 35:1 36:1 37:3 38:1 39:4 40:4 41:2 42:3 43:3 44:1 45:1 46:1 47:3 48:2 49:4 50:3 51:1 52:3 53:2 54:1 55:4 56:2 57:1 58:1 59:4 60:4 
-6.175565675257216 1:1 2:3 3:2 4:3 5:1 6:2 7:3 8:4 9:3 10:1 11:4 12:3 13:4 14:3 15:3 16:1 17:1 18:3 19:1 20:4 21:2 22:2 23:1 24:3 25:1 26:4 27:4 28:2 29:1 30:3 31:2 32:4 33:2 34:3 35:2 36:1 37:3 38:3 39:3 40:3 41:3 42:1 43:2 44:2 45:1 46:3 47:3 48:1 49:1 50:2 51:2 52:2 53:3 54:4 55:2 56:2 57:2 58:2 59:3 60:4 
-3.010789490014006 1:2 2:4 3:4 4:3 5:4 6:2 7:1 8:1 9:2 10:2 11:2 12:4 13:1 14:2 15:2 16:2 17:3 18:1 19:2 20:2 21:2 22:2 23:3 24:1 25:2 26:3 27:1 28:3 29:1 30:2 31:3 32:4 33:3 34:3 35:4 36:1 37:1 38:2 39:3 40:3 41:1 42:3 43:4 44:2 45:3 46:3 47:4 48:2 49:3 50:4 51:2 52:2 53:4 54:2 55:1 56:3 57:3 58:3 59:4 60:2 
-2.36230253596704 1:4 2:2 3:2 4:3 5:3 6:4 7:3 8:3 9:4 10:3 11:4 12:3 13:4 14:4 15:3 16:3 17:4 18:4 19:2 20:2 21:1 22:3 23:3 24:1 25:3 26:1 27:3 28:3 29:1 30:2 31:2 32:4 33:2 34:4 35:2 36:3 37:1 38:2 39:3 40:4 41:2 42:2 43:3 44:4 45:2 46:2 47:3 48:4 49:2 50:2 51:3 52:4 53:2 54:2 55:3 56:1 57:2 58:3 59:2 60:2 
-0.2806978559018303 1:2 2:3 3:4 4:3 5:1 6:1 7:3 8:3 9:1 10:3 11:1 12:2 13:2 14:2 15:1 16:3 17:3 18:3 19:3 20:4 21:3 22:4 23:3 24:4 25:3 26:4 27:2 28:3 29:1 30:2 31:2 32:2 33:3 34:4 35:2 36:2 37:3 38:3 39:3 40:3 41:4 42:2 43:2 44:3 45:1 46:1 47:2 48:2 49:3 50:3 51:3 52:2 53:2 54:2 55:1 56:3 57:1 58:2 59:2 60:1 
-0.8912954479032827 1:1 2:2 3:2 4:1 5:2 6:2 7:2 8:1 9:2 10:3 11:4 12:1 13:3 14:4 15:3 16:4 17:3 18:1 19:2 20:2 21:3 22:4 23:2 24:3 25:1 26:1 27:2 28:4 29:1 30:1 31:2 32:4 33:1 34:4 35:2 36:1 37:1 38:2 39:2 40:1 41:2 42:2 43:3 44:4 45:2 46:1 47:4 48:3 49:3 50:3 51:4 52:2 53:1 54:2 55:1 56:4 57:3 58:3 59:4 60:4 
-0.957063727989293 1:3 2:4 3:3 4:1 5:3 6:4 7:2 8:4 9:2 10:4 11:3 12:4 13:3 14:4 15:3 16:3 17:4 18:3 19:3 20:4 21:4 22:4 23:1 24:3 25:3 26:3 27:4 28:4 29:1 30:2 31:2 32:2 33:4 34:2 35:1 36:4 37:4 38:3 39:4 40:2 41:2 42:2 43:2 44:2 45:4 46:3 47:3 48:1 49:3 50:4 51:4 52:2 53:4 54:3 55:4 56:2 57:4 58:1 59:1 60:4 
-0.7899483559459408 1:4 2:3 3:3 4:1 5:2 6:3 7:3 8:2 9:2 10:2 11:3 12:4 13:2 14:1 15:2 16:3 17:3 18:3 19:4 20:2 21:2 22:4 23:3 24:4 25:3 26:3 27:2 28:3 29:1 30:2 31:1 32:2 33:3 34:3 35:4 36:3 37:4 38:2 39:3 40:3 41:3 42:3 43:4 44:3 45:3 46:3 47:2 48:1 49:2 50:1 51:3 52:1 53:3 54:3 55:3 56:2 57:3 58:4 59:1 60:3 
-2.088632357786395 1:4 2:4 3:4 4:3 5:3 6:1 7:4 8:4 9:4 10:1 11:1 12:4 13:3 14:3 15:1 16:4 17:4 18:3 19:2 20:1 21:4 22:3 23:4 24:3 25:1 26:3 27:3 28:1 29:1 30:2 31:2 32:4 33:2 34:1 35:2 36:4 37:3 38:1 39:2 40:4 41:1 42:1 43:1 44:3 45:1 46:1 47:3 48:4 49:1 50:4 51:1 52:4 53:4 54:2 55:4 56:4 57:4 58:4 59:3 60:4 
-1.974516617553053 1:4 2:3 3:4 4:2 5:1 6:2 7:2 8:1 9:4 10:2 11:4 12:2 13:1 14:1 15:1 16:3 17:4 18:4 19:1 20:1 21:1 22:4 23:4 24:4 25:2 26:1 27:1 28:2 29:1 30:2 31:2 32:4 33:1 34:1 35:4 36:4 37:4 38:1 39:2 40:1 41:1 42:3 43:1 44:1 45:1 46:1 47:3 48:4 49:2 50:4 51:1 52:1 53:4 54:1 55:3 56:4 57:3 58:1 59:2 60:4 
-3.557040484373224 1:1 2:1 3:2 4:3 5:4 6:2 7:3 8:1 9:3 10:2 11:4 12:2 13:2 14:1 15:4 16:3 17:3 18:4 19:2 20:1 21:2 22:1 23:1 24:3 25:4 26:4 27:3 28:1 29:2 30:2 31:2 32:4 33:2 34:1 35:2 36:4 37:3 38:3 39:1 40:2 41:2 42:1 43:2 44:1 45:4 46:2 47:3 48:4 49:4 50:3 51:1 52:3 53:4 54:4 55:4 56:4 57:3 58:4 59:3 60:4 
-1.812594591618036 1:4 2:4 3:2 4:3 5:3 6:3 7:3 8:4 9:3 10:1 11:3 12:4 13:2 14:3 15:4 16:4 17:2 18:2 19:3 20:4 21:4 22:2 23:3 24:4 25:3 26:4 27:2 28:3 29:1 30:2 31:1 32:3 33:4 34:2 35:4 36:2 37:2 38:2 39:3 40:4 41:2 42:3 43:2 44:1 45:3 46:3 47:4 48:3 49:4 50:2 51:4 52:4 53:3 54:2 55:1 56:2 57:1 58:1 59:2 60:1 
-0.09889433644481997 1:4 2:4 3:4 4:3 5:4 6:4 7:3 8:4 9:3 10:4 11:4 12:2 13:1 14:4 15:3 16:4 17:3 18:4 19:4 20:4 21:4 22:3 23:4 24:3 25:2 26:2 27:1 28:3 29:1 30:2 31:1 32:2 33:1 34:1 35:4 36:2 37:1 38:1 39:2 40:1 41:1 42:1 43:4 44:4 45:2 46:1 47:4 48:2 49:4 50:4 51:2 52:4 53:2 54:1 55:3 56:1 57:2 58:4 59:1 60:2 
-1.741992985589802 1:4 2:3 3:4 4:3 5:3 6:4 7:3 8:1 9:2 10:4 11:1 12:1 13:4 14:3 15:4 16:1 17:2 18:2 19:1 20:4 21:4 22:3 23:1 24:1 25:4 26:2 27:1 28:3 29:1 30:2 31:2 32:4 33:1 34:4 35:2 36:1 37:4 38:4 39:3 40:3 41:1 42:2 43:4 44:4 45:4 46:1 47:4 48:4 49:1 50:4 51:3 52:3 53:1 54:4 55:3 56:1 57:1 58:1 59:2 60:2 
-2.323192438362596 1:1 2:1 3:2 4:3 5:1 6:3 7:3 8:3 9:3 10:4 11:1 12:3 13:4 14:1 15:3 16:1 17:1 18:3 19:4 20:3 21:3 22:1 23:4 24:4 25:1 26:2 27:3 28:1 29:1 30:2 31:2 32:4 33:2 34:2 35:2 36:3 37:4 38:2 39:3 40:3 41:4 42:4 43:4 44:2 45:3 46:4 47:2 48:2 49:2 50:1 51:1 52:2 53:2 54:3 55:3 56:4 57:3 58:4 59:2 60:2 
-2.56701045183215 1:4 2:1 3:3 4:1 5:1 6:3 7:3 8:4 9:1 10:2 11:3 12:1 13:2 14:1 15:3 16:2 17:2 18:1 19:1 20:3 21:4 22:2 23:1 24:1 25:3 26:4 27:3 28:1 29:2 30:2 31:2 32:4 33:1 34:1 35:2 36:1 37:1 38:4 39:4 40:4 41:4 42:4 43:4 44:4 45:4 46:4 47:4 48:4 49:1 50:4 51:2 52:1 53:2 54:3 55:1 56:1 57:4 58:2 59:3 60:1 
-0.01885669662633246 1:3 2:1 3:1 4:1 5:4 6:4 7:2 8:4 9:2 10:2 11:1 12:3 13:2 14:4 15:2 16:1 17:4 18:4 19:3 20:3 21:3 22:4 23:4 24:4 25:3 26:4 27:3 28:1 29:2 30:2 31:2 32:4 33:2 34:1 35:2 36:2 37:1 38:3 39:3 40:4 41:2 42:2 43:1 44:2 45:3 46:3 47:4 48:1 49:2 50:1 51:3 52:1 53:3 54:3 55:3 56:3 57:4 58:2 59:2 60:2 
-2.114429215585719 1:1 2:3 3:4 4:1 5:3 6:4 7:1 8:3 9:1 10:1 11:1 12:3 13:4 14:2 15:3 16:2 17:3 18:1 19:3 20:1 21:2 22:1 23:1 24:2 25:2 26:1 27:2 28:1 29:4 30:2 31:2 32:4 33:1 34:1 35:2 36:1 37:4 38:2 39:4 40:2 41:2 42:1 43:3 44:1 45:1 46:3 47:4 48:2 49:4 50:3 51:4 52:3 53:3 54:1 55:4 56:2 57:3 58:3 59:3 60:4 
-2.691085950310529 1:2 2:2 3:1 4:2 5:1 6:4 7:2 8:1 9:4 10:3 11:4 12:3 13:4 14:3 15:1 16:1 17:3 18:4 19:4 20:4 21:1 22:1 23:3 24:4 25:2 26:2 27:1 28:1 29:1 30:2 31:2 32:4 33:1 34:4 35:2 36:4 37:1 38:4 39:3 40:4 41:4 42:2 43:1 44:1 45:1 46:2 47:2 48:2 49:1 50:1 51:2 52:1 53:1 54:1 55:1 56:1 57:1 58:1 59:1 60:2 
-6.972691718146801 1:2 2:1 3:2 4:3 5:4 6:2 7:2 8:4 9:2 10:1 11:2 12:2 13:1 14:3 15:1 16:2 17:3 18:3 19:4 20:2 21:3 22:3 23:1 24:2 25:1 26:2 27:4 28:3 29:4 30:2 31:2 32:4 33:1 34:1 35:2 36:1 37:1 38:1 39:2 40:2 41:2 42:1 43:3 44:4 45:3 46:1 47:2 48:2 49:2 50:4 51:2 52:3 53:2 54:2 55:2 56:2 57:1 58:3 59:1 60:2 
-0.187716707487543 1:1 2:2 3:4 4:1 5:3 6:4 7:4 8:3 9:3 10:4 11:3 12:4 13:3 14:4 15:3 16:3 17:2 18:4 19:3 20:4 21:3 22:4 23:4 24:4 25:1 26:4 27:1 28:4 29:1 30:2 31:1 32:2 33:1 34:3 35:3 36:4 37:1 38:1 39:1 40:3 41:3 42:1 43:2 44:1 45:4 46:2 47:1 48:2 49:1 50:1 51:2 52:4 53:1 54:4 55:4 56:1 57:4 58:4 59:3 60:1 
-4.410198819162538 1:3 2:3 3:4 4:3 5:1 6:4 7:2 8:1 9:1 10:4 11:4 12:2 13:3 14:4 15:3 16:4 17:3 18:4 19:2 20:4 21:4 22:1 23:3 24:3 25:1 26:3 27:3 28:3 29:1 30:2 31:2 32:1 33:2 34:3 35:3 36:1 37:2 38:2 39:2 40:3 41:4 42:2 43:1 44:2 45:2 46:4 47:3 48:1 49:2 50:4 51:2 52:3 53:4 54:2 55:1 56:3 57:3 58:1 59:2 60:2 
-4.656470558427626 1:4 2:2 3:2 4:2 5:3 6:2 7:3 8:4 9:4 10:3 11:1 12:3 13:2 14:2 15:1 16:1 17:3 18:4 19:3 20:2 21:3 22:1 23:4 24:4 25:4 26:3 27:3 28:3 29:1 30:2 31:4 32:3 33:4 34:4 35:3 36:2 37:4 38:1 39:1 40:3 41:3 42:3 43:1 44:2 45:2 46:1 47:2 48:2 49:1 50:1 51:2 52:3 53:3 54:3 55:1 56:3 57:2 58:2 59:3 60:2 
-0.3202508223716583 1:4 2:2 3:4 4:4 5:4 6:4 7:3 8:4 9:3 10:4 11:4 12:3 13:4 14:1 15:4 16:4 17:3 18:3 19:3 20:4 21:4 22:2 23:2 24:3 25:4 26:3 27:1 28:3 29:1 30:2 31:2 32:2 33:1 34:3 35:3 36:3 37:2 38:1 39:2 40:4 41:2 42:4 43:1 44:4 45:1 46:2 47:3 48:3 49:3 50:4 51:3 52:3 53:1 54:2 55:1 56:2 57:4 58:2 59:2 60:1 
-1.368142794518631 1:4 2:2 3:2 4:3 5:3 6:4 7:2 8:1 9:3 10:1 11:3 12:4 13:4 14:3 15:1 16:3 17:3 18:4 19:3 20:3 21:4 22:4 23:4 24:1 25:4 26:2 27:2 28:3 29:1 30:2 31:1 32:2 33:1 34:4 35:2 36:1 37:1 38:4 39:2 40:4 41:2 42:1 43:1 44:2 45:2 46:4 47:2 48:3 49:4 50:2 51:2 52:1 53:3 54:4 55:4 56:4 57:2 58:1 59:2 60:3 
-1.47536741355331 1:3 2:1 3:1 4:4 5:1 6:3 7:1 8:3 9:4 10:4 11:1 12:1 13:4 14:4 15:1 16:4 17:3 18:4 19:4 20:4 21:1 22:4 23:3 24:3 25:4 26:4 27:4 28:4 29:1 30:2 31:2 32:4 33:4 34:1 35:3 36:3 37:3 38:1 39:4 40:2 41:3 42:1 43:2 44:4 45:4 46:2 47:4 48:4 49:1 50:3 51:4 52:2 53:4 54:1 55:3 56:3 57:1 58:2 59:3 60:3 
-2.805274125560395 1:4 2:1 3:1 4:3 5:2 6:2 7:2 8:4 9:2 10:3 11:2 12:4 13:2 14:2 15:4 16:2 17:4 18:3 19:4 20:3 21:2 22:2 23:3 24:4 25:3 26:4 27:2 28:3 29:1 30:2 31:2 32:2 33:3 34:2 35:4 36:3 37:1 38:4 39:2 40:2 41:4 42:3 43:2 44:2 45:4 46:1 47:4 48:2 49:2 50:2 51:4 52:3 53:1 54:2 55:1 56:1 57:1 58:2 59:1 60:4 
-3.878053862748017 1:2 2:3 3:1 4:1 5:1 6:1 7:1 8:2 9:1 10:1 11:4 12:2 13:3 14:3 15:3 16:4 17:2 18:4 19:2 20:3 21:1 22:2 23:1 24:1 25:2 26:1 27:3 28:4 29:1 30:4 31:2 32:4 33:2 34:1 35:2 36:4 37:3 38:4 39:4 40:4 41:1 42:1 43:1 44:1 45:1 46:1 47:1 48:4 49:1 50:4 51:1 52:1 53:4 54:1 55:1 56:1 57:4 58:4 59:1 60:1 
-3.896844647229621 1:1 2:1 3:1 4:3 5:4 6:2 7:1 8:2 9:3 10:4 11:2 12:1 13:4 14:2 15:1 16:4 17:1 18:1 19:4 20:4 21:1 22:4 23:4 24:1 25:4 26:4 27:3 28:4 29:1 30:2 31:2 32:3 33:3 34:1 35:3 36:1 37:2 38:1 39:1 40:3 41:4 42:2 43:1 44:1 45:1 46:3 47:1 48:4 49:3 50:4 51:4 52:3 53:1 54:2 55:4 56:2 57:4 58:3 59:4 60:1 
-3.207146145758064 1:1 2:2 3:1 4:2 5:3 6:3 7:3 8:3 9:3 10:3 11:4 12:3 13:1 14:1 15:3 16:4 17:3 18:4 19:2 20:4 21:4 22:3 23:4 24:3 25:3 26:3 27:3 28:4 29:1 30:2 31:2 32:2 33:2 34:3 35:4 36:3 37:3 38:3 39:4 40:2 41:2 42:4 43:2 44:4 45:4 46:2 47:2 48:3 49:3 50:4 51:3 52:1 53:3 54:1 55:3 56:3 57:4 58:4 59:3 60:1 
-1.840342933428077 1:1 2:1 3:1 4:2 5:1 6:1 7:1 8:4 9:3 10:4 11:4 12:1 13:2 14:1 15:4 16:1 17:1 18:2 19:1 20:1 21:2 22:2 23:4 24:4 25:2 26:1 27:2 28:1 29:1 30:2 31:2 32:4 33:1 34:1 35:2 36:3 37:3 38:1 39:4 40:4 41:3 42:4 43:2 44:2 45:2 46:2 47:3 48:4 49:1 50:2 51:2 52:1 53:4 54:1 55:4 56:1 57:4 58:4 59:4 60:4 
-2.640283811027675 1:1 2:4 3:3 4:3 5:3 6:4 7:3 8:3 9:3 10:3 11:1 12:1 13:3 14:3 15:4 16:2 17:4 18:2 19:3 20:3 21:3 22:4 23:4 24:2 25:4 26:3 27:4 28:4 29:1 30:3 31:1 32:2 33:1 34:2 35:3 36:1 37:3 38:4 39:2 40:1 41:3 42:1 43:3 44:2 45:2 46:3 47:4 48:3 49:3 50:3 51:2 52:2 53:2 54:1 55:3 56:3 57:4 58:3 59:2 60:2 
-0.8243116546930385 1:1 2:1 3:2 4:3 5:4 6:2 7:1 8:3 9:1 10:2 11:4 12:2 13:2 14:1 15:3 16:3 17:3 18:2 19:2 20:4 21:3 22:1 23:1 24:3 25:4 26:4 27:3 28:1 29:1 30:2 31:2 32:4 33:2 34:1 35:2 36:3 37:3 38:1 39:2 40:2 41:1 42:2 43:4 44:3 45:2 46:2 47:2 48:4 49:2 50:2 51:2 52:1 53:2 54:2 55:2 56:4 57:2 58:1 59:2 60:1 
-2.136759187773735 1:1 2:3 3:3 4:1 5:1 6:2 7:1 8:1 9:2 10:2 11:2 12:1 13:4 14:3 15:4 16:1 17:4 18:3 19:1 20:3 21:3 22:4 23:3 24:4 25:2 26:4 27:1 28:3 29:1 30:2 31:2 32:4 33:1 34:1 35:2 36:1 37:1 38:1 39:1 40:1 41:4 42:4 43:1 44:3 45:1 46:4 47:1 48:2 49:1 50:4 51:2 52:1 53:1 54:2 55:1 56:4 57:3 58:4 59:2 60:1 
-3.089662032160508 1:2 2:4 3:4 4:4 5:4 6:4 7:3 8:4 9:4 10:3 11:3 12:2 13:3 14:3 15:4 16:4 17:3 18:4 19:2 20:2 21:4 22:4 23:2 24:1 25:3 26:4 27:4 28:4 29:1 30:2 31:3 32:3 33:1 34:2 35:1 36:1 37:3 38:3 39:1 40:2 41:4 42:2 43:3 44:4 45:4 46:3 47:4 48:1 49:4 50:1 51:1 52:3 53:4 54:3 55:3 56:1 57:2 58:4 59:4 60:1 
