svm_type c_svc
kernel_type rbf
gamma 3.05176e-05
nr_class 2
total_sv 241
rho -38.8632
label 1 0
nr_sv 123 118
SV
1733.859175787301 1:0 2:86.7108 3:0.420188 4:129.8851 
32768 1:16.2456 2:48.3062 3:0.5508614 4:26.32639 
32768 1:19.6245 2:49.2309 3:0.4302725 4:93.61318 
32768 1:20.7173 2:50.1779 3:0.1636157 4:118.7613 
32768 1:19.7492 2:45.8642 3:-0.1964635 4:134.1424 
32768 1:21.8378 2:17.2425 3:-0.4093676 4:107.8929 
32768 1:18.82098 2:87.70099 3:0.1093747 4:69.35226 
22810.78317270976 1:24.51801 2:42.61099 3:0.2676385 4:108.4697 
9075.265743731003 1:108.469 2:34.21301 3:0.2405673 4:134.3593 
32768 1:22.4451 2:37.6895 3:-0.2014975 4:134.3154 
2588.55195653394 1:16.431 2:140.393 3:-0.2270102 4:34.40971 
32768 1:26.4551 2:38.1431 3:-0.1513146 4:158.1231 
10851.25971747703 1:29.2495 2:46.2495 3:0.2573052 4:152.7013 
32768 1:23.2085 2:38.2578 3:0.2055369 4:127.2016 
32768 1:19.8338 2:61.888 3:0.342671 4:79.74548 
32768 1:22.181 2:51.453 3:0.1593816 4:94.54704 
7127.732591879465 1:126.453 2:8.522003 3:0.3624534 4:165.583 
32768 1:21.9116 2:28.7592 3:-0.1198398 4:121.1151 
32768 1:19.23199 2:51.043 3:0.4913905 4:91.70428 
3458.83747520304 1:120.9975 2:45.2385 3:-0.4233237 4:89.6086 
6644.874489625078 1:19.155 2:116.077 3:-0.2510476 4:74.08743 
32768 1:20.6591 2:40.1293 3:0.2817537 4:101.6223 
32768 1:21.0356 2:39.7326 3:0.3944905 4:111.6997 
711.0536005000811 1:19.7207 2:64.2594 3:0.1722801 4:150.7265 
32768 1:21.643 2:31.07 3:0.6301231 4:160.5979 
32768 1:25.4552 2:30.8162 3:0.209136 4:95.25842 
32768 1:21.12 2:50.954 3:0.2488138 4:113.268 
32768 1:23.904 2:35.174 3:-0.199371 4:107.7693 
32768 1:16.5471 2:69.511 3:-0.2989768 4:88.97963 
32768 1:20.97101 2:48.12 3:0.2111316 4:124.8478 
32768 1:16.2825 2:61.4856 3:0.3145723 4:32.69581 
32768 1:18.90796 2:80.34601 3:0.184695 4:62.84001 
32768 1:16.6815 2:43.877 3:-0.1423949 4:38.7631 
32768 1:0 2:74.8973 3:0.4430498 4:144.3159 
19294.47265603544 1:0 2:114.673 3:0.3890661 4:75.04051 
32768 1:19.784 2:35.068 3:0.2976086 4:151.6411 
32768 1:24.1321 2:14.2132 3:0.2080286 4:129.0474 
32768 1:18.9148 2:44.3015 3:0.4090978 4:145.1069 
32768 1:16.8425 2:57.3256 3:0.4408547 4:45.32204 
979.562321109553 1:16.92599 2:212.269 3:0.2144584 4:46.22843 
32768 1:20.23999 2:34.38 3:0.08369496 4:79.01762 
32768 1:24.62101 2:45.91801 3:0.1585492 4:136.3589 
32768 1:17.017 2:116.682 3:0.2022699 4:48.35157 
14335.20579868232 1:37.1825 2:37.09451 3:0.3805078 4:178.2065 
32768 1:21.2117 2:17.6556 3:0.1813899 4:144.7828 
32768 1:20.08701 2:50.79599 3:0.258852 4:131.0057 
32768 1:22.4544 2:43.6843 3:-0.1938154 4:114.8748 
32768 1:20.4245 2:30.2525 3:-0.08889898 4:101.7899 
32768 1:19.6087 2:45.3507 3:0.2536992 4:84.10986 
32768 1:0 2:72.2849 3:-0.1122887 4:124.7517 
32768 1:0 2:81.8397 3:0.3168046 4:136.7929 
32768 1:28.5169 2:23.0529 3:0.2318703 4:104.5173 
32768 1:25.47998 2:20.34998 3:0.1000151 4:94.10483 
32768 1:22.9972 2:33.5553 3:0.2461369 4:110.7246 
32768 1:22.6178 2:58.501 3:0.3855601 4:161.3889 
31670.54698982426 1:22.158 2:73.59 3:0.655875 4:165.2836 
32768 1:16.3642 2:58.5712 3:0.3391393 4:32.40192 
32768 1:15.9557 2:63.09971 3:0.343257 4:154.6377 
32768 1:18.2162 2:87.2622 3:-0.2339139 4:70.6981 
32768 1:0 2:84.0782 3:-0.08685506 4:129.5802 
32768 1:15.669 2:98.492 3:0.4123228 4:28.15289 
32768 1:22.1615 2:43.2918 3:0.3643137 4:122.2083 
437.7656471368919 1:20.0262 2:105.8781 3:0.2522962 4:153.4264 
32768 1:19 2:54.925 3:0.3597796 4:160.5594 
32768 1:16.5798 2:46.7507 3:0.4269851 4:108.412 
32768 1:17.0363 2:60.9623 3:0.2417745 4:87.29321 
32768 1:21.2914 2:39.9268 3:0.1462396 4:114.8666 
32768 1:20.035 2:54.01801 3:0.439217 4:92.46784 
32768 1:19.3139 2:38.5414 3:0.2488351 4:74.09567 
32768 1:16.925 2:73.5794 3:0.2334571 4:62.85374 
32768 1:19.4246 2:35.9836 3:0.3697 4:157.4008 
32768 1:17.112 2:109.585 3:0.2716893 4:54.95171 
32768 1:21.3402 2:37.4932 3:-0.1022603 4:116.932 
32768 1:18.1492 2:68.18719 3:0.1955655 4:82.78325 
8607.127706460431 1:16.62399 2:113.21 3:0.344045 4:41.42733 
32768 1:17.2788 2:57.273 3:0.4406188 4:84.5658 
32768 1:21.53989 2:46.5042 3:0.1363833 4:124.0018 
32768 1:22.4847 2:53.4739 3:0.2387993 4:145.6782 
32768 1:17.37901 2:57.848 3:0.3295765 4:129.6791 
32768 1:24.9772 2:38.7218 3:-0.3870817 4:138.5974 
32768 1:19.66219 2:54.5321 3:0.3618242 4:118.6239 
8181.303878706746 1:18.119 2:119.26 3:0.109356 4:145.0657 
32768 1:16.7085 2:81.7726 3:0.2366332 4:46.80522 
32768 1:25.6265 2:42.6395 3:0.2753488 4:158.6972 
16287.91912000713 1:17.9255 2:95.8872 3:0.5603259 4:153.4676 
32768 1:21.4372 2:49.79321 3:0.1603489 4:114.0261 
32768 1:17.2281 2:52.0249 3:0.2610148 4:53.96567 
32768 1:0 2:102.355 3:-0.3835128 4:84.58503 
32768 1:21.1013 2:34.7748 3:0.2233496 4:64.44129 
32768 1:25.048 2:47.854 3:0.3641378 4:151.7125 
32768 1:17.3071 2:56.2204 3:0.2152567 4:81.78073 
32768 1:21.4455 2:54.6805 3:0.3003733 4:151.968 
32768 1:96.19669 2:34.1658 3:-0.211128 4:150.9627 
9031.143289191647 1:23.239 2:120.784 3:0.293715 4:156.8158 
32768 1:23.14001 2:16.23999 3:0.2634046 4:90.30076 
32768 1:24.7632 2:35.4125 3:0.1364321 4:113.8503 
32768 1:77.0559 2:33.6459 3:0.2976705 4:148.098 
32768 1:19.3769 2:56.2636 3:0.4267806 4:128.2069 
32768 1:20.77319 2:60.6932 3:0.2052861 4:154.3163 
32768 1:24.15299 2:42.96099 3:-0.1523811 4:99.71343 
32768 1:24.5203 2:43.8942 3:-0.1627115 4:99.42779 
32768 1:18.1181 2:59.0519 3:-0.1763994 4:101.3147 
32768 1:0 2:73.9603 3:0.3775039 4:96.25819 
32768 1:16.3605 2:101.9421 3:0.3876407 4:30.99016 
32768 1:24.59801 2:32.93901 3:0.3359633 4:109.3898 
32768 1:20.9576 2:51.8426 3:0.332397 4:85.95834 
32768 1:20.021 2:59.005 3:0.2738592 4:91.6878 
32768 1:25.747 2:42.25 3:0.2012815 4:170.0188 
26170.2623869425 1:18.7177 2:151.2708 3:-0.2666806 4:71.35729 
32768 1:19.1577 2:68.5072 3:0.2198259 4:80.16022 
32768 1:19.8223 2:52.8472 3:0.3061185 4:92.70405 
32768 1:18.9327 2:48.6392 3:0.1949267 4:96.94209 
32768 1:19.7381 2:50.0896 3:-0.398081 4:98.08743 
32768 1:23.01001 2:21.23999 3:0.1409905 4:85.57656 
32768 1:21.2416 2:43.1905 3:0.22739 4:128.9348 
32768 1:23.9721 2:43.7253 3:-0.4147862 4:99.41405 
32768 1:21.022 2:50.00801 3:0.3841737 4:159.9551 
32768 1:21.7693 2:43.0215 3:0.2387209 4:103.8773 
32768 1:28.3727 2:19.481 3:0.1466901 4:146.5489 
32768 1:19.2789 2:46.3561 3:0.118885 4:113.1884 
32768 1:22.1766 2:46.5848 3:-0.3041192 4:119.1733 
32768 1:18.7481 2:61.1895 3:-0.3836053 4:85.3431 
32768 1:24.475 2:39.5072 3:-0.176098 4:134.9938 
-32768 1:18.20799 2:40.19299 3:0.5212566 4:124.6281 
-32768 1:19.7101 2:48.75809 3:0.3571495 4:90.11398 
-32768 1:16.5484 2:85.7265 3:0.4062679 4:36.90364 
-18442.75967818409 1:19.684 2:38.19201 3:-0.3694614 4:81.8494 
-32768 1:19.0096 2:53.7716 3:0.4328756 4:146.7356 
-32768 1:27.57899 2:28.44499 3:0.2959444 4:125.9052 
-32768 1:21.632 2:28.911 3:-0.3780733 4:87.63653 
-32768 1:14.0126 2:46.6335 3:-0.3176231 4:143.6896 
-32768 1:19.6615 2:51.4478 3:0.2898756 4:110.5214 
-32768 1:19.72169 2:45.8312 3:0.1038377 4:106.2943 
-32768 1:16.942 2:38.0708 3:-0.331574 4:144.228 
-32768 1:40.7775 2:21.9806 3:0.385883 4:145.7606 
-32768 1:19.5326 2:41.1086 3:0.223938 4:82.61021 
-32768 1:48.79279 2:39.8308 3:0.2945141 4:132.7004 
-32768 1:22.30499 2:43.472 3:-0.3400311 4:144.0247 
-32768 1:21.4 2:32.26099 3:0.2806046 4:115.8581 
-32768 1:21.4731 2:54.0531 3:-0.3996676 4:74.44175 
-32768 1:23.6396 2:23.2256 3:-0.1297056 4:96.65919 
-32768 1:22.895 2:38.759 3:0.5813479 4:150.8006 
-3915.041102331144 1:121.2069 2:17.84589 3:0.285668 4:143.0909 
-32768 1:18.1992 2:59.63709 3:-0.2822619 4:85.17281 
-32768 1:31.25591 2:17.32671 3:-0.24591 4:111.675 
-32768 1:23.921 2:47.51499 3:-0.2680286 4:113.1279 
-32768 1:17.4859 2:107.3864 3:-0.1426608 4:72.01648 
-32768 1:20.6958 2:57.2178 3:0.4222982 4:134.3044 
-19439.16174129236 1:16.09801 2:48.55099 3:0.6287218 4:23.37652 
-32768 1:26.464 2:52.83401 3:0.3919428 4:162.9737 
-32768 1:18.2705 2:51.1633 3:-0.2987731 4:87.17235 
-32768 1:17.33801 2:57.928 3:0.4333156 4:107.9313 
-32768 1:18.1155 2:38.2968 3:-0.2085503 4:106.5772 
-24989.36979928146 1:82.3094 2:27.175 3:0.4243166 4:133.5052 
-32768 1:25.773 2:29.936 3:-0.1221477 4:114.5946 
-32768 1:22.336 2:29.59601 3:0.5024841 4:169.387 
-32768 1:25.22499 2:56.774 3:-0.1661502 4:137.864 
-3994.696712291202 1:55.4281 2:11.9925 3:0.2404927 4:160.2106 
-32768 1:15.35101 2:48.16 3:-0.2269138 4:98.55985 
-32768 1:18.0171 2:89.16949 3:-0.1859998 4:136.6528 
-32768 1:20.788 2:51.809 3:0.5923293 4:139.3197 
-32768 1:19.755 2:54.09 3:0.2982536 4:94.35752 
-32768 1:19.062 2:40.673 3:-0.2600282 4:112.2875 
-32768 1:22.008 2:86.56802 3:0.3911465 4:161.5784 
-32768 1:16.10699 2:63.43799 3:0.21759 4:16.84505 
-32768 1:15.16602 2:104.359 3:0.2502066 4:28.6775 
-32768 1:24.84802 2:61.181 3:0.3051516 4:145.7908 
-32768 1:18.60201 2:59.93201 3:-0.126886 4:62.62852 
-32768 1:18.16299 2:76.79102 3:-0.1680544 4:62.7686 
-32768 1:21.144 2:31.858 3:-0.2069266 4:122.818 
-32768 1:21.61299 2:35.12 3:0.2806968 4:129.0199 
-32768 1:20.14301 2:48.15802 3:0.3486851 4:104.6683 
-32768 1:22.16199 2:28.916 3:-0.1406486 4:112.7022 
-11313.72664660946 1:39.095 2:24.222 3:0.1212564 4:45.47585 
-32768 1:18.25 2:91.73001 3:0.2085369 4:69.86588 
-32768 1:19.222 2:62.006 3:0.1656219 4:142.5635 
-32768 1:109.612 2:34.532 3:0.1949741 4:146.4088 
-23695.76075253154 1:17.552 2:57.38 3:0.2356248 4:57.96201 
-32768 1:22.71698 2:34.04498 3:0.5442541 4:133.203 
-32768 1:17.58301 2:78.16901 3:0.1604002 4:56.94301 
-32768 1:20.04221 2:42.90791 3:-0.2342174 4:74.7686 
-32768 1:19.6694 2:47.07339 3:0.3214468 4:85.71664 
-3506.826792185476 1:1.122009 2:125.572 3:-0.1774967 4:54.75395 
-17019.44406687774 1:0.2290039 2:103.435 3:0.2764922 4:32.15473 
-32768 1:5.358002 2:75.07199 3:0.3153009 4:84.43122 
-32768 1:3.321899 2:94.97169 3:-0.1851956 4:117.116 
-32768 1:2.385998 2:124.6409 3:0.275713 4:104.7315 
-32768 1:3.112 2:71.47101 3:0.1756747 4:137.117 
-32768 1:6.372986 2:65.17599 3:0.1262858 4:101.6608 
-16938.02127066973 1:5.209999 2:87.937 3:0.1528003 4:58.55802 
-32768 1:17.55 2:51.729 3:0.2356996 4:95.86816 
-32768 1:1.347 2:75.974 3:0.4757377 4:156.5988 
-32768 1:16.031 2:44.674 3:-0.164398 4:110.3401 
-32768 1:13.728 2:64.9064 3:-0.2719166 4:156.3104 
-32768 1:22.31 2:35.75999 3:0.5834414 4:157.8814 
-32768 1:20.607 2:39.10801 3:0.3350618 4:115.3994 
-32768 1:21.6797 2:50.2304 3:0.4774663 4:136.4221 
-7958.659351541631 1:17.0438 2:15.7412 3:-0.3011721 4:180 
-32768 1:17.43001 2:54.649 3:0.3070029 4:152.3854 
-32768 1:17.9939 2:54.8299 3:0.4151859 4:86.46098 
-29560.63730913815 1:22.705 2:32.44501 3:0.5294978 4:159.4827 
-32768 1:20.0651 2:42.3834 3:0.3722882 4:129.2891 
-32768 1:18.0386 2:67.4476 3:0.1110004 4:61.24971 
-32768 1:19.10889 2:44.8389 3:0.1478189 4:80.46235 
-32768 1:21.4678 2:36.6598 3:0.4203334 4:138.103 
-32768 1:18.16901 2:60.94701 3:0.1468731 4:64.46052 
-32768 1:20.921 2:50.76299 3:0.3905685 4:108.239 
-32768 1:27.97701 2:78.649 3:0.1544556 4:48.33783 
-32768 1:21.8991 2:27.198 3:0.2804329 4:86.55436 
-32768 1:18.022 2:39.30299 3:0.3047785 4:96.16754 
-32768 1:18.65881 2:46.6732 3:0.4292711 4:116.9238 
-32768 1:18.586 2:39.34001 3:0.3171264 4:130.6899 
-32768 1:16.9527 2:75.6114 3:0.1269253 4:60.02472 
-32768 1:22.8332 2:25.7222 3:-0.1142222 4:102.4683 
-32768 1:58.4873 2:33.1775 3:0.4634607 4:180 
-32768 1:20.084 2:35.60699 3:0.337743 4:83.91486 
-12630.08582730924 1:15.2931 2:18.6729 3:0.7170606 4:14.46647 
-32768 1:20.483 2:37.83 3:0.2359386 4:117.8329 
-32768 1:20.158 2:42.3 3:0.2348076 4:137.3916 
-32768 1:20.1908 2:53.9688 3:0.1712931 4:77.18013 
-6842.068219286243 1:21.594 2:29.117 3:0.3254424 4:75.51293 
-32768 1:17.23102 2:95.272 3:0.1926753 4:51.56786 
-32768 1:19.974 2:80.27499 3:0.09697898 4:76.72419 
-32768 1:17.396 2:70.71799 3:0.3720652 4:121.5189 
-32768 1:10.92599 2:53.65199 3:0.2659345 4:154.4564 
-32768 1:18.4908 2:71.54379 3:-0.2370819 4:67.86633 
-32768 1:28.0603 2:29.32391 3:0.3418367 4:117.4813 
-32768 1:22.83699 2:66.40999 3:0.3875923 4:149.919 
-32768 1:18.56801 2:42.756 3:0.2380548 4:136.1831 
-32768 1:21.165 2:26.813 3:0.1647824 4:108.7581 
-32768 1:17.3563 2:81.9906 3:-0.1745594 4:73.56557 
-32768 1:19.068 2:35.418 3:0.4107695 4:85.09315 
-32768 1:31.7647 2:36.3917 3:-0.3778743 4:115.523 
-32768 1:17.252 2:41.077 3:0.4593698 4:86.80156 
-32768 1:17.3075 2:155.2244 3:-0.1443084 4:53.59487 
-32768 1:23.177 2:49.30499 3:0.2643009 4:145.3349 
-32768 1:19.103 2:59.62802 3:0.2050038 4:72.23071 
-32768 1:17.942 2:37.8854 3:0.1553686 4:96.06042 
-32768 1:17.944 2:66.845 3:0.5359261 4:153.149 
-32768 1:23.91101 2:38.90001 3:0.4704049 4:125.7871 
-32519.26844801364 1:22.3067 2:22.6222 3:0.2117224 4:101.2818 
