svm_type c_svc
kernel_type rbf
gamma 0.000488281
nr_class 2
total_sv 165
rho -3.91791
label 1 -1
nr_sv 51 114
SV
307.2997758803544 35:1 36:1 53:1 66:1 81:1 97:1 149:1 185:1 196:1 207:1 217:1 250:1 277:1 281:1 290:1 291:1 292:1 
12.17982249093753 117:1 125:1 126:1 127:1 128:1 129:1 130:1 131:1 132:1 133:1 134:1 135:1 136:1 137:1 138:1 139:1 140:1 141:1 142:1 185:1 196:1 213:1 214:1 217:1 290:1 
602.1069847230522 56:1 67:1 117:1 277:1 289:1 
251.0215018031766 55:1 56:1 67:1 109:1 117:1 173:1 216:1 223:1 247:1 263:1 277:1 289:1 
179.496127555026 82:1 152:1 188:1 189:1 211:1 266:1 267:1 281:1 
2048 
2048 
2048 99:1 207:1 208:1 225:1 
686.8580682156941 98:1 117:1 205:1 217:1 245:1 247:1 263:1 276:1 293:1 
2048 245:1 
309.139620475385 76:1 77:1 
300.6460495548358 38:1 63:1 64:1 204:1 217:1 251:1 
1972.236850135089 57:1 59:1 68:1 87:1 102:1 109:1 115:1 147:1 161:1 206:1 217:1 218:1 247:1 249:1 251:1 263:1 277:1 281:1 295:1 299:1 
2048 263:1 
2048 76:1 
2048 76:1 223:1 
2048 
2048 76:1 
2048 115:1 171:1 219:1 
2048 62:1 161:1 265:1 
443.8827356059419 50:1 54:1 106:1 108:1 149:1 168:1 171:1 206:1 207:1 212:1 219:1 220:1 228:1 230:1 248:1 258:1 261:1 298:1 
2048 
724.6735247642714 35:1 55:1 57:1 72:1 109:1 149:1 197:1 198:1 199:1 200:1 201:1 202:1 206:1 207:1 208:1 223:1 247:1 250:1 277:1 281:1 282:1 299:1 
2048 
2048 263:1 295:1 
593.5706819313943 37:1 65:1 75:1 81:1 117:1 168:1 190:1 191:1 203:1 223:1 263:1 277:1 281:1 
999.7693354752302 38:1 55:1 57:1 190:1 204:1 211:1 
429.0426527382558 45:1 54:1 65:1 87:1 88:1 144:1 170:1 190:1 191:1 192:1 206:1 217:1 231:1 249:1 260:1 263:1 277:1 295:1 298:1 299:1 
136.4578224401011 35:1 115:1 149:1 185:1 186:1 238:1 247:1 263:1 
684.5323776581764 35:1 48:1 99:1 185:1 186:1 217:1 274:1 
2048 35:1 117:1 217:1 
902.8429642873823 54:1 55:1 57:1 81:1 83:1 102:1 106:1 109:1 149:1 157:1 168:1 185:1 195:1 207:1 216:1 230:1 240:1 258:1 260:1 281:1 292:1 
446.2402829736826 39:1 75:1 76:1 77:1 106:1 116:1 149:1 150:1 168:1 196:1 205:1 206:1 207:1 229:1 249:1 255:1 263:1 273:1 281:1 
2048 79:1 
2048 105:1 173:1 183:1 223:1 245:1 277:1 
2048 53:1 105:1 207:1 282:1 
2048 47:1 68:1 96:1 106:1 167:1 171:1 212:1 225:1 233:1 257:1 277:1 281:1 
781.7432892577903 35:1 68:1 96:1 167:1 190:1 206:1 212:1 216:1 233:1 249:1 257:1 277:1 281:1 293:1 
2012.663112500628 95:1 117:1 
68.34101322046862 62:1 76:1 91:1 93:1 95:1 97:1 98:1 107:1 115:1 117:1 154:1 194:1 230:1 231:1 247:1 250:1 252:1 260:1 263:1 292:1 294:1 
1011.711841520255 93:1 95:1 117:1 
1415.588435528902 35:1 45:1 55:1 91:1 92:1 102:1 115:1 117:1 168:1 205:1 206:1 207:1 212:1 218:1 240:1 272:1 281:1 294:1 296:1 298:1 
106.11726269257 41:1 55:1 75:1 76:1 91:1 92:1 102:1 148:1 161:1 172:1 205:1 207:1 212:1 222:1 225:1 226:1 242:1 275:1 277:1 282:1 296:1 299:1 
944.6275926336681 73:1 74:1 99:1 205:1 225:1 233:1 
122.2718459838331 73:1 76:1 205:1 
2048 73:1 76:1 205:1 
1492.435602909548 53:1 55:1 59:1 73:1 74:1 117:1 144:1 149:1 171:1 205:1 206:1 207:1 217:1 227:1 229:1 248:1 281:1 298:1 
2048 55:1 217:1 
1051.835415413581 42:1 43:1 
2048 281:1 
2048 
-2048 35:1 76:1 
-932.2521192355015 73:1 74:1 115:1 205:1 230:1 250:1 
-77.27362377797476 55:1 250:1 292:1 
-481.8873397046504 55:1 73:1 74:1 197:1 205:1 243:1 250:1 
-2048 73:1 
-82.42618785303856 46:1 52:1 60:1 73:1 75:1 76:1 93:1 110:1 112:1 117:1 120:1 121:1 122:1 123:1 124:1 143:1 146:1 171:1 175:1 176:1 177:1 178:1 179:1 180:1 181:1 184:1 187:1 210:1 213:1 214:1 219:1 243:1 247:1 250:1 263:1 284:1 285:1 286:1 287:1 288:1 
-145.6557258706303 57:1 106:1 115:1 117:1 148:1 161:1 207:1 225:1 233:1 245:1 247:1 248:1 250:1 263:1 274:1 277:1 281:1 295:1 
-483.3982138836019 35:1 39:1 41:1 57:1 68:1 73:1 75:1 91:1 105:1 109:1 112:1 173:1 190:1 222:1 223:1 225:1 233:1 251:1 260:1 274:1 275:1 
-674.9678825356328 65:1 105:1 207:1 263:1 
-2048 105:1 173:1 183:1 223:1 245:1 277:1 
-678.0706347695671 35:1 53:1 55:1 105:1 207:1 282:1 
-1813.965316337028 55:1 281:1 298:1 
-1923.632840424566 249:1 
-217.5036454480052 45:1 55:1 65:1 68:1 76:1 77:1 80:1 88:1 103:1 107:1 117:1 144:1 149:1 154:1 155:1 158:1 171:1 194:1 196:1 206:1 208:1 217:1 230:1 232:1 248:1 258:1 263:1 272:1 281:1 292:1 295:1 
-251.5864211225762 35:1 38:1 51:1 76:1 77:1 81:1 107:1 115:1 117:1 204:1 212:1 247:1 272:1 277:1 281:1 297:1 
-0.855339463681011 55:1 117:1 118:1 212:1 
-3.990321372828836 38:1 68:1 75:1 118:1 119:1 204:1 249:1 
-25.63921652904881 38:1 51:1 76:1 97:1 102:1 115:1 117:1 119:1 204:1 216:1 241:1 248:1 249:1 272:1 
-1835.63117982587 45:1 54:1 76:1 149:1 161:1 217:1 281:1 
-148.4834944786159 75:1 170:1 248:1 294:1 298:1 
-19.82637219061369 35:1 53:1 65:1 68:1 103:1 104:1 115:1 118:1 161:1 170:1 229:1 240:1 248:1 249:1 263:1 271:1 272:1 294:1 295:1 
-267.6686551451089 35:1 44:1 68:1 76:1 108:1 115:1 117:1 149:1 195:1 218:1 241:1 272:1 273:1 295:1 
-1453.299181815306 99:1 218:1 
-212.4914838323145 68:1 81:1 208:1 223:1 249:1 260:1 
-62.50201475200159 68:1 117:1 148:1 171:1 225:1 281:1 
-211.5990825077053 55:1 76:1 78:1 87:1 207:1 231:1 239:1 252:1 269:1 283:1 298:1 
-7.120616970451302 35:1 71:1 98:1 104:1 185:1 206:1 207:1 222:1 227:1 281:1 295:1 297:1 298:1 
-750.8847551273474 35:1 62:1 68:1 76:1 99:1 114:1 115:1 117:1 217:1 218:1 249:1 272:1 295:1 298:1 299:1 
-612.5309050843654 171:1 208:1 
-4.042818697272175 37:1 38:1 171:1 203:1 204:1 
-402.8990100524247 293:1 
-2048 59:1 
-1005.866612393411 48:1 57:1 62:1 68:1 72:1 76:1 93:1 94:1 95:1 115:1 117:1 149:1 168:1 244:1 263:1 
-219.9431623197499 55:1 68:1 91:1 97:1 115:1 147:1 156:1 157:1 169:1 206:1 207:1 281:1 298:1 299:1 
-1424.392026863096 53:1 55:1 57:1 115:1 277:1 295:1 
-77.39437130562344 78:1 96:1 106:1 117:1 167:1 207:1 212:1 216:1 233:1 257:1 277:1 281:1 
-245.9442583104595 80:1 149:1 168:1 171:1 173:1 205:1 207:1 219:1 223:1 247:1 281:1 299:1 
-0.6981762308533217 1:1 2:1 3:1 4:1 5:1 6:1 7:1 8:1 9:1 10:1 11:1 12:1 13:1 14:1 15:1 16:1 17:1 18:1 19:1 20:1 21:1 22:1 23:1 24:1 26:1 27:1 28:1 29:1 30:1 31:1 32:1 33:1 34:1 
-340.6429707678903 53:1 62:1 106:1 117:1 
-972.5856997983378 39:1 57:1 98:1 117:1 190:1 216:1 247:1 263:1 299:1 
-106.6890027939743 37:1 55:1 62:1 69:1 76:1 78:1 91:1 102:1 144:1 157:1 158:1 164:1 171:1 188:1 206:1 207:1 221:1 225:1 226:1 231:1 249:1 252:1 272:1 281:1 294:1 298:1 299:1 
-200.0462530911389 35:1 44:1 53:1 101:1 147:1 206:1 261:1 298:1 
-210.6373490431147 195:1 
-16.23045977683581 212:1 
-148.2911622239923 35:1 54:1 96:1 106:1 117:1 167:1 207:1 212:1 216:1 225:1 233:1 257:1 277:1 281:1 
-366.4520734359194 228:1 
-2048 217:1 263:1 
-2048 207:1 263:1 
-456.2838115500683 277:1 
-17.20443313978317 106:1 146:1 161:1 228:1 240:1 248:1 299:1 
-1411.801982064131 106:1 109:1 205:1 212:1 265:1 
-528.0066108956303 38:1 53:1 56:1 117:1 168:1 204:1 217:1 242:1 
-125.6551453128739 62:1 263:1 
-1668.120858082412 102:1 
-522.888739889838 117:1 144:1 161:1 247:1 299:1 
-54.38479595857176 47:1 55:1 90:1 106:1 149:1 161:1 168:1 171:1 207:1 245:1 248:1 281:1 
-270.4801503544232 35:1 38:1 59:1 81:1 109:1 196:1 204:1 207:1 248:1 252:1 258:1 
-1523.155635693075 47:1 161:1 171:1 207:1 
-90.41857652216378 35:1 85:1 88:1 106:1 109:1 144:1 158:1 205:1 223:1 226:1 231:1 245:1 247:1 281:1 
-242.9130041665154 102:1 205:1 217:1 281:1 295:1 
-248.5698796388104 36:1 
-2048 96:1 167:1 212:1 225:1 233:1 257:1 277:1 281:1 
-290.0630322891086 171:1 208:1 229:1 
-57.49530814203355 35:1 149:1 245:1 280:1 
-84.90639679896465 37:1 53:1 70:1 117:1 146:1 216:1 238:1 281:1 
-54.57335081293658 102:1 109:1 207:1 265:1 270:1 
-117.6655111820651 106:1 109:1 144:1 206:1 207:1 
-1614.658021278592 206:1 
-1370.22140725447 55:1 147:1 227:1 
-40.52717856404384 35:1 91:1 106:1 115:1 117:1 205:1 206:1 261:1 281:1 283:1 
-72.57362543421351 41:1 48:1 68:1 76:1 78:1 81:1 114:1 115:1 117:1 144:1 149:1 155:1 172:1 217:1 223:1 227:1 229:1 230:1 231:1 247:1 258:1 263:1 277:1 281:1 282:1 
-222.4363226597301 102:1 109:1 157:1 207:1 209:1 247:1 
-707.695878424999 247:1 294:1 
-2048 282:1 
-1219.941534101707 81:1 296:1 
-551.596832927915 50:1 59:1 75:1 115:1 206:1 207:1 208:1 223:1 263:1 
-109.3765900029085 57:1 60:1 89:1 99:1 104:1 109:1 117:1 164:1 245:1 265:1 277:1 281:1 
-1816.000853692005 87:1 205:1 
-484.1060288282207 106:1 117:1 205:1 223:1 
-130.075418153241 55:1 171:1 206:1 207:1 299:1 
-184.4840185333435 248:1 
-250.0604171731062 41:1 55:1 73:1 103:1 104:1 105:1 117:1 144:1 154:1 171:1 190:1 193:1 196:1 205:1 217:1 223:1 250:1 251:1 263:1 281:1 293:1 299:1 
-484.3204489781447 109:1 117:1 171:1 206:1 207:1 294:1 
-507.5894987860088 35:1 80:1 102:1 117:1 148:1 168:1 205:1 207:1 223:1 225:1 233:1 245:1 277:1 
-20.22428578589642 225:1 274:1 275:1 
-256.3471210835634 47:1 106:1 
-1344.506441648592 206:1 229:1 
-360.0421133394487 55:1 79:1 87:1 216:1 223:1 
-148.3626394490665 57:1 68:1 106:1 144:1 147:1 149:1 161:1 171:1 205:1 206:1 208:1 225:1 229:1 248:1 249:1 261:1 265:1 269:1 281:1 
-476.3221954063653 71:1 79:1 205:1 218:1 240:1 281:1 
-837.8099886323898 83:1 
-38.80694782286522 35:1 59:1 68:1 90:1 106:1 154:1 216:1 218:1 231:1 240:1 281:1 298:1 
-2.536818440342535 166:1 293:1 
-751.585940820319 293:1 
-462.1091407610448 37:1 55:1 96:1 99:1 102:1 105:1 167:1 171:1 203:1 212:1 247:1 257:1 277:1 281:1 
-575.5680269572254 54:1 69:1 76:1 97:1 106:1 117:1 149:1 206:1 208:1 217:1 245:1 
-305.6743933182692 57:1 59:1 109:1 117:1 168:1 212:1 240:1 
-108.8397281993387 35:1 59:1 73:1 107:1 157:1 207:1 208:1 230:1 
-260.6861953677125 69:1 115:1 117:1 168:1 185:1 
-56.05439148545956 37:1 38:1 55:1 57:1 75:1 109:1 115:1 117:1 171:1 185:1 195:1 206:1 207:1 214:1 250:1 273:1 277:1 299:1 
-1968.09240508655 277:1 
-292.3459736746065 109:1 218:1 240:1 280:1 295:1 
-810.9402926703218 68:1 117:1 217:1 260:1 281:1 295:1 
-554.8378508103008 88:1 117:1 217:1 240:1 248:1 
-108.6951413248625 57:1 117:1 149:1 195:1 199:1 249:1 295:1 
-162.2173078211787 35:1 149:1 171:1 206:1 207:1 240:1 295:1 298:1 
-53.4760743682916 35:1 68:1 70:1 117:1 205:1 208:1 216:1 218:1 225:1 229:1 242:1 248:1 249:1 281:1 
-708.4666163344821 79:1 206:1 281:1 
-1019.558759377395 102:1 168:1 217:1 225:1 281:1 
-261.8533479241846 79:1 216:1 223:1 
-32.84965893533181 47:1 117:1 172:1 206:1 207:1 239:1 248:1 
-197.0959186830675 38:1 62:1 68:1 79:1 108:1 144:1 149:1 168:1 170:1 171:1 195:1 204:1 207:1 217:1 245:1 249:1 265:1 272:1 281:1 
-1.930343249804485 38:1 62:1 68:1 79:1 108:1 144:1 149:1 151:1 168:1 170:1 171:1 195:1 204:1 207:1 217:1 245:1 249:1 265:1 272:1 281:1 
-883.3472571427768 99:1 171:1 206:1 207:1 217:1 281:1 
