svm_type c_svc
kernel_type rbf
gamma 0.03125
nr_class 2
total_sv 476
rho -0.739873
label 1 -1
nr_sv 96 380
SV
2.794999681465858 35:1 37:1 38:1 114:1 147:1 156:1 185:1 196:1 203:1 204:1 217:1 238:1 290:1 291:1 299:1 
2.267839569839183 171:1 185:1 196:1 207:1 217:1 223:1 281:1 290:1 291:1 
8 36:1 37:1 109:1 117:1 185:1 196:1 203:1 
0.8274126606501779 35:1 36:1 53:1 66:1 81:1 97:1 149:1 185:1 196:1 207:1 217:1 250:1 277:1 281:1 290:1 291:1 292:1 
0.5015047747932943 117:1 125:1 126:1 127:1 128:1 129:1 130:1 131:1 132:1 133:1 134:1 135:1 136:1 137:1 138:1 139:1 140:1 141:1 142:1 185:1 196:1 213:1 214:1 217:1 290:1 
0.6159550885559558 35:1 36:1 37:1 47:1 55:1 57:1 69:1 72:1 93:1 97:1 98:1 105:1 106:1 117:1 149:1 157:1 164:1 169:1 185:1 195:1 196:1 203:1 217:1 218:1 225:1 240:1 245:1 275:1 276:1 281:1 290:1 291:1 292:1 294:1 295:1 296:1 
8 56:1 67:1 117:1 277:1 289:1 
0.9130394775450542 55:1 56:1 67:1 109:1 117:1 173:1 216:1 223:1 247:1 263:1 277:1 289:1 
4.574281868199339 56:1 67:1 97:1 117:1 247:1 277:1 289:1 
2.992625328714024 82:1 152:1 188:1 189:1 211:1 266:1 267:1 281:1 
8 
1.202221855708153 205:1 263:1 266:1 267:1 276:1 293:1 
8 
8 99:1 207:1 208:1 225:1 
0.9586184433871386 35:1 48:1 54:1 57:1 65:1 69:1 75:1 76:1 102:1 106:1 117:1 149:1 156:1 161:1 172:1 205:1 206:1 207:1 208:1 230:1 245:1 247:1 250:1 261:1 263:1 266:1 267:1 276:1 277:1 281:1 282:1 292:1 293:1 295:1 299:1 
6.703383417082348 38:1 107:1 204:1 205:1 207:1 247:1 263:1 266:1 276:1 293:1 299:1 
7.066909242055417 98:1 117:1 205:1 217:1 245:1 247:1 263:1 276:1 293:1 
8 
8 245:1 
8 54:1 63:1 98:1 212:1 251:1 
8 76:1 77:1 
8 38:1 63:1 64:1 204:1 217:1 251:1 
6.282168750089864 57:1 59:1 68:1 87:1 102:1 109:1 115:1 147:1 161:1 206:1 217:1 218:1 247:1 249:1 251:1 263:1 277:1 281:1 295:1 299:1 
8 263:1 
8 76:1 
8 76:1 223:1 
8 
8 76:1 
8 219:1 220:1 248:1 
8 115:1 171:1 219:1 
8 62:1 161:1 265:1 
1.958929958690806 88:1 219:1 220:1 247:1 258:1 263:1 
3.659204772823539 50:1 54:1 106:1 108:1 149:1 168:1 171:1 206:1 207:1 212:1 219:1 220:1 228:1 230:1 248:1 258:1 261:1 298:1 
8 
1.767511907661294 35:1 47:1 68:1 73:1 98:1 102:1 117:1 153:1 197:1 198:1 199:1 200:1 201:1 202:1 216:1 247:1 250:1 263:1 270:1 277:1 278:1 299:1 
4.071874686748552 35:1 55:1 57:1 72:1 109:1 149:1 197:1 198:1 199:1 200:1 201:1 202:1 206:1 207:1 208:1 223:1 247:1 250:1 277:1 281:1 282:1 299:1 
8 
2.298244326100841 197:1 198:1 199:1 200:1 201:1 202:1 277:1 278:1 
8 
8 263:1 295:1 
8 190:1 191:1 
5.569074823441366 37:1 65:1 75:1 81:1 117:1 168:1 190:1 191:1 203:1 223:1 263:1 277:1 281:1 
8 38:1 55:1 57:1 190:1 204:1 211:1 
5.333986384507373 53:1 55:1 65:1 192:1 217:1 224:1 235:1 237:1 
1.847712039666799 45:1 54:1 65:1 87:1 88:1 144:1 170:1 190:1 191:1 192:1 206:1 217:1 231:1 249:1 260:1 263:1 277:1 295:1 298:1 299:1 
8 
7.35055211244428 35:1 79:1 185:1 245:1 250:1 292:1 
2.868893423211351 35:1 115:1 149:1 185:1 186:1 238:1 247:1 263:1 
0.6319994283262954 35:1 48:1 99:1 185:1 186:1 217:1 274:1 
8 35:1 117:1 217:1 
3.125457608531147 48:1 99:1 156:1 185:1 206:1 225:1 250:1 281:1 292:1 
3.507480776139293 57:1 69:1 103:1 161:1 185:1 186:1 193:1 206:1 207:1 212:1 277:1 
1.255900376177419 57:1 68:1 84:1 104:1 164:1 165:1 185:1 186:1 206:1 212:1 223:1 
2.546833336729428 35:1 57:1 59:1 102:1 109:1 185:1 186:1 207:1 208:1 212:1 231:1 
4.308408317279047 54:1 55:1 57:1 81:1 83:1 102:1 106:1 109:1 149:1 157:1 168:1 185:1 195:1 207:1 216:1 230:1 240:1 258:1 260:1 281:1 292:1 
5.769851295071396 78:1 185:1 186:1 207:1 250:1 
1.621631235706047 39:1 75:1 76:1 77:1 106:1 116:1 149:1 150:1 168:1 196:1 205:1 206:1 207:1 229:1 249:1 255:1 263:1 273:1 281:1 
3.241102821090427 39:1 76:1 77:1 106:1 116:1 117:1 149:1 150:1 196:1 208:1 216:1 228:1 231:1 255:1 263:1 273:1 
8 79:1 
8 250:1 281:1 
8 105:1 173:1 183:1 223:1 245:1 277:1 
8 53:1 105:1 207:1 282:1 
8 55:1 65:1 84:1 91:1 98:1 105:1 115:1 117:1 168:1 183:1 207:1 222:1 242:1 250:1 
8 55:1 65:1 75:1 98:1 105:1 115:1 171:1 172:1 183:1 207:1 244:1 252:1 298:1 
8 173:1 174:1 223:1 
8 35:1 53:1 55:1 105:1 207:1 282:1 
8 47:1 68:1 96:1 106:1 167:1 171:1 212:1 225:1 233:1 257:1 277:1 281:1 
7.055266940347493 35:1 68:1 96:1 167:1 190:1 206:1 212:1 216:1 233:1 249:1 257:1 277:1 281:1 293:1 
5.766962827763091 38:1 73:1 96:1 117:1 144:1 167:1 171:1 204:1 207:1 212:1 225:1 233:1 248:1 257:1 277:1 281:1 
1.42258689825785 76:1 77:1 93:1 94:1 95:1 117:1 
8 95:1 117:1 
1.835450188140117 62:1 76:1 91:1 93:1 95:1 97:1 98:1 107:1 115:1 117:1 154:1 194:1 230:1 231:1 247:1 250:1 252:1 260:1 263:1 292:1 294:1 
8 93:1 95:1 117:1 
1.368261609267291 76:1 93:1 95:1 117:1 261:1 
1.1776915226041 35:1 76:1 77:1 93:1 94:1 95:1 117:1 151:1 160:1 166:1 182:1 215:1 230:1 234:1 247:1 250:1 262:1 264:1 300:1 
3.126516868894805 50:1 55:1 57:1 75:1 76:1 91:1 92:1 108:1 109:1 117:1 161:1 168:1 171:1 195:1 205:1 207:1 212:1 217:1 250:1 263:1 281:1 295:1 
1.247861652524179 35:1 76:1 77:1 91:1 92:1 98:1 99:1 117:1 212:1 217:1 223:1 225:1 245:1 274:1 275:1 
8 38:1 76:1 91:1 212:1 263:1 277:1 295:1 
5.624266962298837 35:1 45:1 55:1 91:1 92:1 102:1 115:1 117:1 168:1 205:1 206:1 207:1 212:1 218:1 240:1 272:1 281:1 294:1 296:1 298:1 
7.932772651785582 91:1 92:1 161:1 205:1 212:1 263:1 295:1 296:1 
2.085879441584572 41:1 55:1 75:1 76:1 91:1 92:1 102:1 148:1 161:1 172:1 205:1 207:1 212:1 222:1 225:1 226:1 242:1 275:1 277:1 282:1 296:1 299:1 
8 73:1 74:1 99:1 205:1 225:1 233:1 
8 46:1 52:1 55:1 60:1 73:1 75:1 110:1 117:1 120:1 121:1 122:1 123:1 124:1 143:1 146:1 175:1 176:1 177:1 178:1 179:1 180:1 181:1 184:1 187:1 210:1 213:1 214:1 243:1 250:1 263:1 281:1 284:1 285:1 286:1 287:1 288:1 292:1 295:1 
8 73:1 76:1 205:1 
8 73:1 76:1 205:1 
7.174729806928132 53:1 55:1 59:1 73:1 74:1 117:1 144:1 149:1 171:1 205:1 206:1 207:1 217:1 227:1 229:1 248:1 281:1 298:1 
8 55:1 217:1 
1.385729813578109 35:1 48:1 61:1 62:1 99:1 205:1 225:1 232:1 233:1 237:1 245:1 251:1 253:1 274:1 277:1 281:1 
1.527573294798483 35:1 47:1 48:1 54:1 55:1 61:1 62:1 65:1 68:1 81:1 93:1 99:1 106:1 108:1 117:1 149:1 170:1 206:1 207:1 216:1 223:1 225:1 233:1 237:1 240:1 244:1 245:1 250:1 252:1 253:1 258:1 271:1 274:1 275:1 276:1 277:1 279:1 281:1 282:1 293:1 299:1 
8 35:1 55:1 58:1 62:1 68:1 69:1 155:1 205:1 207:1 223:1 252:1 272:1 273:1 
8 44:1 206:1 237:1 
8 42:1 43:1 
3.09898372499855 41:1 42:1 43:1 163:1 258:1 259:1 
8 
8 281:1 
8 
-8 35:1 76:1 
-8 35:1 76:1 
-5.476943848930483 73:1 74:1 115:1 205:1 230:1 250:1 
-6.016908760197836 55:1 73:1 205:1 250:1 
-1.606186818002241 73:1 101:1 205:1 206:1 207:1 250:1 281:1 
-8 55:1 250:1 292:1 
-1.298088681245978 35:1 47:1 48:1 55:1 57:1 62:1 65:1 66:1 68:1 73:1 76:1 80:1 91:1 102:1 105:1 107:1 108:1 109:1 115:1 117:1 157:1 158:1 161:1 171:1 190:1 197:1 206:1 207:1 208:1 219:1 222:1 223:1 225:1 226:1 227:1 240:1 247:1 250:1 258:1 263:1 269:1 270:1 277:1 279:1 292:1 298:1 299:1 
-1.524521106255856 35:1 41:1 55:1 68:1 73:1 105:1 109:1 171:1 172:1 190:1 208:1 250:1 281:1 
-3.506631052786098 55:1 73:1 74:1 197:1 205:1 243:1 250:1 
-8 73:1 
-3.502405077366167 46:1 52:1 60:1 73:1 75:1 110:1 117:1 120:1 121:1 122:1 123:1 124:1 143:1 146:1 175:1 176:1 177:1 178:1 179:1 180:1 181:1 184:1 187:1 210:1 213:1 214:1 243:1 247:1 250:1 263:1 284:1 285:1 286:1 287:1 288:1 
-2.257314733914688 46:1 52:1 60:1 73:1 75:1 110:1 117:1 120:1 121:1 122:1 123:1 124:1 143:1 146:1 165:1 175:1 176:1 177:1 178:1 179:1 180:1 181:1 184:1 187:1 210:1 213:1 214:1 216:1 219:1 243:1 250:1 263:1 277:1 284:1 285:1 286:1 287:1 288:1 
-2.694922564319917 46:1 52:1 60:1 73:1 75:1 76:1 93:1 110:1 112:1 117:1 120:1 121:1 122:1 123:1 124:1 143:1 146:1 171:1 175:1 176:1 177:1 178:1 179:1 180:1 181:1 184:1 187:1 210:1 213:1 214:1 219:1 243:1 247:1 250:1 263:1 284:1 285:1 286:1 287:1 288:1 
-0.139126289595461 35:1 44:1 55:1 59:1 69:1 71:1 73:1 85:1 87:1 93:1 98:1 105:1 106:1 107:1 115:1 117:1 148:1 149:1 161:1 171:1 173:1 183:1 195:1 206:1 207:1 208:1 216:1 217:1 218:1 223:1 242:1 245:1 247:1 250:1 252:1 263:1 272:1 277:1 281:1 295:1 300:1 
-0.1729498337541006 35:1 41:1 59:1 98:1 99:1 109:1 115:1 117:1 144:1 148:1 157:1 161:1 207:1 225:1 228:1 233:1 240:1 247:1 250:1 274:1 277:1 281:1 299:1 
-0.502407434658548 57:1 106:1 115:1 117:1 148:1 161:1 207:1 225:1 233:1 245:1 247:1 248:1 250:1 263:1 274:1 277:1 281:1 295:1 
-3.190401119449726 35:1 39:1 41:1 57:1 68:1 73:1 75:1 91:1 105:1 109:1 112:1 173:1 190:1 222:1 223:1 225:1 233:1 251:1 260:1 274:1 275:1 
-0.3860920378672658 295:1 
-0.454295895400912 62:1 107:1 222:1 223:1 263:1 298:1 
-6.204421980889869 57:1 63:1 156:1 228:1 
-0.9999837698891633 98:1 105:1 154:1 206:1 207:1 298:1 
-3.419396053057239 98:1 146:1 
-8 65:1 105:1 207:1 263:1 
-0.3948701986046716 197:1 217:1 244:1 295:1 
-1.396809781872859 75:1 172:1 217:1 
-8 105:1 173:1 183:1 223:1 245:1 277:1 
-3.016238877015247 35:1 54:1 55:1 65:1 76:1 105:1 148:1 161:1 168:1 173:1 183:1 223:1 245:1 250:1 263:1 277:1 279:1 281:1 295:1 
-3.133636542590544 38:1 57:1 60:1 65:1 98:1 105:1 107:1 109:1 117:1 164:1 183:1 204:1 263:1 295:1 
-8 35:1 53:1 55:1 105:1 207:1 282:1 
-0.6843880718925697 35:1 53:1 105:1 207:1 217:1 282:1 
-1.496429327119971 35:1 53:1 105:1 207:1 282:1 
-0.3169187055628003 35:1 37:1 38:1 53:1 55:1 57:1 62:1 70:1 93:1 117:1 148:1 155:1 161:1 171:1 203:1 204:1 205:1 207:1 208:1 216:1 217:1 223:1 232:1 249:1 261:1 263:1 281:1 293:1 295:1 
-0.9603104780103288 38:1 55:1 117:1 217:1 
-0.2142547444338939 35:1 45:1 72:1 102:1 106:1 117:1 144:1 149:1 161:1 172:1 207:1 229:1 232:1 240:1 245:1 249:1 261:1 272:1 
-0.4284552605592581 35:1 57:1 75:1 114:1 118:1 147:1 161:1 205:1 207:1 223:1 272:1 273:1 281:1 
-6.057236393495788 249:1 
-2.408714036461002 68:1 265:1 272:1 
-1.61362386418215 45:1 55:1 65:1 68:1 76:1 77:1 80:1 88:1 103:1 107:1 117:1 144:1 149:1 154:1 155:1 158:1 171:1 194:1 196:1 206:1 208:1 217:1 230:1 232:1 248:1 258:1 263:1 272:1 281:1 292:1 295:1 
-0.7715007920997858 35:1 38:1 51:1 76:1 77:1 81:1 107:1 115:1 117:1 204:1 212:1 247:1 272:1 277:1 281:1 297:1 
-0.2776127750615164 35:1 38:1 45:1 50:1 55:1 57:1 59:1 62:1 76:1 77:1 81:1 83:1 89:1 102:1 106:1 107:1 109:1 115:1 117:1 118:1 119:1 149:1 154:1 155:1 161:1 171:1 204:1 206:1 207:1 208:1 216:1 222:1 223:1 240:1 248:1 252:1 263:1 272:1 273:1 277:1 280:1 294:1 
-0.3021977303665989 35:1 38:1 44:1 50:1 54:1 55:1 57:1 62:1 69:1 76:1 77:1 81:1 83:1 89:1 102:1 106:1 107:1 109:1 115:1 117:1 118:1 119:1 154:1 155:1 161:1 165:1 168:1 171:1 204:1 206:1 207:1 208:1 222:1 223:1 231:1 235:1 236:1 240:1 252:1 263:1 269:1 272:1 273:1 277:1 294:1 
-0.04280864949720316 35:1 38:1 50:1 55:1 57:1 62:1 75:1 76:1 77:1 81:1 83:1 89:1 97:1 102:1 106:1 109:1 115:1 117:1 118:1 119:1 149:1 154:1 155:1 157:1 161:1 171:1 204:1 206:1 207:1 208:1 216:1 223:1 229:1 236:1 240:1 252:1 272:1 273:1 277:1 282:1 294:1 295:1 
-0.004220317244487183 35:1 38:1 50:1 54:1 55:1 57:1 62:1 69:1 75:1 76:1 77:1 81:1 83:1 97:1 102:1 106:1 115:1 117:1 118:1 119:1 155:1 161:1 165:1 169:1 171:1 204:1 206:1 207:1 208:1 216:1 223:1 225:1 240:1 263:1 272:1 273:1 277:1 282:1 295:1 
-0.06529464629762337 38:1 55:1 57:1 84:1 89:1 106:1 117:1 118:1 149:1 204:1 207:1 212:1 223:1 241:1 242:1 248:1 272:1 281:1 
-0.1842674916191426 35:1 37:1 38:1 45:1 50:1 53:1 54:1 55:1 57:1 62:1 68:1 69:1 75:1 78:1 81:1 83:1 88:1 89:1 93:1 97:1 102:1 104:1 106:1 107:1 108:1 109:1 117:1 118:1 119:1 148:1 149:1 154:1 158:1 161:1 164:1 169:1 171:1 172:1 193:1 203:1 204:1 205:1 206:1 207:1 208:1 216:1 217:1 225:1 227:1 231:1 232:1 235:1 241:1 242:1 247:1 248:1 249:1 252:1 258:1 261:1 271:1 272:1 274:1 275:1 281:1 282:1 283:1 
-0.04222338362687252 37:1 38:1 45:1 50:1 54:1 55:1 57:1 59:1 62:1 68:1 69:1 70:1 71:1 75:1 78:1 80:1 81:1 83:1 89:1 90:1 97:1 101:1 102:1 104:1 106:1 107:1 108:1 109:1 114:1 115:1 117:1 118:1 119:1 144:1 148:1 149:1 154:1 155:1 156:1 157:1 164:1 165:1 169:1 171:1 193:1 194:1 196:1 203:1 204:1 206:1 207:1 208:1 217:1 221:1 223:1 225:1 227:1 231:1 235:1 236:1 241:1 242:1 248:1 249:1 250:1 252:1 258:1 261:1 271:1 272:1 274:1 275:1 277:1 281:1 282:1 283:1 294:1 298:1 299:1 
-0.6119162092173936 38:1 54:1 65:1 147:1 149:1 171:1 204:1 206:1 207:1 212:1 226:1 227:1 228:1 229:1 231:1 248:1 249:1 281:1 282:1 298:1 299:1 
-0.05912175635962064 35:1 106:1 148:1 205:1 206:1 263:1 265:1 272:1 277:1 278:1 
-0.8464785488219594 35:1 38:1 44:1 67:1 75:1 90:1 117:1 118:1 119:1 206:1 208:1 217:1 295:1 
-0.2131737165255904 37:1 38:1 117:1 149:1 171:1 196:1 206:1 217:1 271:1 282:1 298:1 
-0.1426072921372895 35:1 45:1 47:1 50:1 55:1 59:1 69:1 81:1 102:1 106:1 107:1 108:1 109:1 117:1 118:1 119:1 144:1 149:1 157:1 158:1 161:1 168:1 169:1 171:1 206:1 207:1 208:1 217:1 221:1 225:1 231:1 232:1 241:1 244:1 245:1 248:1 249:1 252:1 258:1 261:1 271:1 272:1 281:1 298:1 299:1 
-0.02683091142877019 54:1 55:1 83:1 102:1 117:1 118:1 147:1 206:1 217:1 223:1 252:1 277:1 298:1 
-0.5210995535706537 54:1 109:1 231:1 
-0.3589681437398448 38:1 55:1 69:1 107:1 117:1 204:1 205:1 207:1 227:1 231:1 271:1 
-3.226233188784969 117:1 225:1 227:1 
-0.2157525860272831 37:1 38:1 59:1 70:1 80:1 108:1 116:1 117:1 155:1 203:1 204:1 205:1 208:1 227:1 247:1 248:1 263:1 269:1 
-0.4152297169286543 38:1 51:1 76:1 97:1 102:1 115:1 117:1 119:1 204:1 216:1 241:1 248:1 249:1 272:1 
-4.993578270207084 59:1 245:1 248:1 270:1 
-8 205:1 281:1 
-0.9426805518041719 35:1 54:1 55:1 68:1 75:1 76:1 78:1 81:1 108:1 117:1 149:1 157:1 169:1 183:1 207:1 223:1 238:1 249:1 250:1 273:1 293:1 295:1 
-1.06810404336796 35:1 54:1 69:1 76:1 85:1 98:1 106:1 149:1 206:1 217:1 221:1 250:1 252:1 272:1 276:1 293:1 
-4.326583321145985 45:1 54:1 76:1 149:1 161:1 217:1 281:1 
-1.158191577038789 47:1 57:1 68:1 69:1 84:1 85:1 155:1 161:1 171:1 219:1 226:1 247:1 250:1 263:1 271:1 272:1 281:1 282:1 299:1 
-0.3262100423205198 36:1 
-0.2537227136415383 35:1 47:1 50:1 68:1 70:1 76:1 98:1 103:1 108:1 117:1 144:1 154:1 169:1 171:1 207:1 208:1 217:1 222:1 231:1 242:1 248:1 260:1 261:1 269:1 280:1 283:1 294:1 298:1 
-0.03729959001196764 35:1 53:1 55:1 65:1 68:1 103:1 104:1 108:1 115:1 118:1 149:1 170:1 217:1 229:1 240:1 241:1 248:1 249:1 263:1 271:1 272:1 295:1 298:1 
-0.4878439578840493 55:1 89:1 97:1 117:1 207:1 217:1 
-0.3756089167745154 35:1 44:1 50:1 62:1 65:1 68:1 75:1 76:1 90:1 104:1 108:1 115:1 117:1 119:1 149:1 161:1 195:1 217:1 218:1 240:1 241:1 242:1 248:1 249:1 258:1 261:1 263:1 271:1 272:1 281:1 293:1 295:1 
-0.3933609886102477 35:1 44:1 68:1 76:1 108:1 115:1 117:1 149:1 195:1 218:1 241:1 272:1 273:1 295:1 
-3.119010487090378 247:1 277:1 282:1 
-0.0142261849324242 50:1 55:1 118:1 
-5.608376086347874 99:1 218:1 
-0.342294993970396 37:1 51:1 54:1 57:1 71:1 75:1 79:1 93:1 106:1 107:1 117:1 148:1 161:1 194:1 195:1 203:1 217:1 218:1 223:1 228:1 237:1 260:1 265:1 289:1 295:1 297:1 
-1.97680938611413 55:1 76:1 78:1 87:1 207:1 231:1 239:1 252:1 269:1 283:1 298:1 
-0.261308705007059 37:1 203:1 
-3.429381233780952 35:1 71:1 98:1 104:1 185:1 206:1 207:1 222:1 227:1 281:1 295:1 297:1 298:1 
-0.7401400168269004 35:1 62:1 68:1 73:1 76:1 99:1 114:1 115:1 117:1 149:1 188:1 205:1 208:1 217:1 218:1 249:1 272:1 294:1 295:1 
-0.5269974977443728 45:1 53:1 54:1 57:1 59:1 62:1 66:1 68:1 75:1 81:1 87:1 88:1 89:1 93:1 104:1 106:1 108:1 115:1 117:1 118:1 119:1 144:1 148:1 149:1 155:1 156:1 161:1 168:1 170:1 171:1 195:1 207:1 208:1 217:1 218:1 221:1 222:1 223:1 232:1 237:1 240:1 241:1 242:1 244:1 245:1 249:1 250:1 258:1 261:1 265:1 266:1 269:1 271:1 272:1 273:1 277:1 281:1 294:1 295:1 298:1 
-0.3636500130810541 44:1 55:1 59:1 98:1 147:1 170:1 171:1 195:1 206:1 207:1 226:1 281:1 298:1 
-2.267574072486986 35:1 55:1 59:1 75:1 98:1 171:1 207:1 223:1 298:1 
-0.1379082321133978 44:1 45:1 51:1 54:1 55:1 57:1 59:1 68:1 69:1 70:1 75:1 76:1 78:1 79:1 87:1 88:1 90:1 97:1 102:1 106:1 107:1 108:1 109:1 115:1 144:1 146:1 147:1 149:1 154:1 155:1 156:1 157:1 161:1 168:1 169:1 170:1 171:1 194:1 195:1 196:1 206:1 207:1 208:1 216:1 217:1 218:1 222:1 223:1 226:1 227:1 230:1 231:1 232:1 240:1 242:1 248:1 249:1 250:1 252:1 260:1 261:1 263:1 270:1 280:1 281:1 282:1 283:1 298:1 299:1 
-0.4074581814932158 44:1 45:1 53:1 54:1 55:1 57:1 59:1 66:1 69:1 71:1 75:1 76:1 102:1 106:1 109:1 115:1 117:1 144:1 146:1 148:1 149:1 154:1 161:1 164:1 168:1 171:1 193:1 194:1 195:1 196:1 206:1 207:1 208:1 216:1 217:1 218:1 223:1 226:1 227:1 231:1 232:1 235:1 237:1 239:1 247:1 248:1 252:1 260:1 261:1 263:1 265:1 269:1 277:1 281:1 282:1 295:1 298:1 299:1 
-0.3516247574315949 35:1 38:1 54:1 57:1 65:1 68:1 69:1 70:1 72:1 75:1 84:1 88:1 90:1 103:1 104:1 106:1 107:1 108:1 114:1 117:1 146:1 147:1 149:1 164:1 168:1 169:1 170:1 172:1 190:1 195:1 207:1 212:1 217:1 221:1 225:1 228:1 230:1 240:1 242:1 244:1 248:1 249:1 250:1 252:1 255:1 260:1 261:1 263:1 269:1 270:1 271:1 272:1 274:1 277:1 280:1 281:1 294:1 295:1 
-0.1459148867258907 38:1 54:1 57:1 71:1 83:1 85:1 103:1 144:1 171:1 204:1 205:1 206:1 231:1 235:1 236:1 239:1 247:1 248:1 261:1 
-2.647243960622613 38:1 99:1 204:1 223:1 226:1 
-1.358867940916251 171:1 208:1 
-0.2527360099725008 38:1 45:1 68:1 72:1 75:1 78:1 87:1 107:1 108:1 117:1 157:1 165:1 171:1 172:1 205:1 206:1 207:1 208:1 216:1 225:1 231:1 249:1 255:1 260:1 261:1 270:1 271:1 294:1 298:1 
-0.2209488415338995 47:1 50:1 84:1 85:1 117:1 149:1 206:1 207:1 208:1 212:1 216:1 231:1 281:1 282:1 283:1 295:1 298:1 
-2.678407116905902 84:1 170:1 242:1 248:1 
-8 79:1 
-0.3967482924127356 37:1 38:1 45:1 47:1 50:1 54:1 57:1 59:1 68:1 70:1 72:1 75:1 78:1 79:1 81:1 84:1 85:1 88:1 97:1 102:1 103:1 104:1 106:1 107:1 108:1 109:1 114:1 115:1 117:1 144:1 145:1 147:1 148:1 149:1 154:1 155:1 156:1 157:1 158:1 161:1 164:1 165:1 168:1 169:1 170:1 171:1 172:1 193:1 194:1 203:1 204:1 205:1 206:1 207:1 208:1 216:1 217:1 218:1 221:1 223:1 226:1 227:1 228:1 229:1 230:1 231:1 232:1 235:1 236:1 239:1 240:1 242:1 244:1 245:1 247:1 248:1 249:1 250:1 252:1 253:1 260:1 261:1 269:1 270:1 271:1 272:1 281:1 282:1 294:1 298:1 299:1 
-0.9123495300484981 75:1 76:1 148:1 149:1 217:1 244:1 248:1 277:1 280:1 281:1 
-0.2575956215628274 293:1 
-1.366015362890779 98:1 108:1 169:1 277:1 
-0.02014739499230347 35:1 37:1 38:1 44:1 45:1 47:1 50:1 51:1 54:1 55:1 57:1 59:1 62:1 68:1 69:1 70:1 72:1 78:1 81:1 87:1 90:1 91:1 93:1 97:1 102:1 104:1 106:1 107:1 108:1 109:1 114:1 115:1 117:1 144:1 146:1 148:1 149:1 154:1 156:1 157:1 158:1 161:1 164:1 165:1 168:1 169:1 171:1 193:1 194:1 195:1 204:1 206:1 207:1 208:1 216:1 217:1 218:1 221:1 222:1 223:1 226:1 227:1 231:1 232:1 240:1 242:1 244:1 248:1 249:1 250:1 252:1 260:1 261:1 269:1 272:1 277:1 281:1 282:1 283:1 294:1 295:1 297:1 298:1 299:1 
-1.816967115923618 53:1 75:1 79:1 117:1 146:1 217:1 250:1 263:1 277:1 281:1 
-2.160322286051631 48:1 57:1 62:1 68:1 72:1 76:1 93:1 94:1 95:1 115:1 117:1 149:1 168:1 244:1 263:1 
-1.305625385899343 93:1 94:1 260:1 
-0.7607032553049257 53:1 55:1 57:1 115:1 277:1 295:1 
-3.022039788018217 78:1 96:1 106:1 117:1 167:1 207:1 212:1 216:1 233:1 257:1 277:1 281:1 
-2.492234117765706 80:1 149:1 168:1 171:1 173:1 205:1 207:1 219:1 223:1 247:1 281:1 299:1 
-0.1102320867367453 72:1 106:1 107:1 196:1 206:1 207:1 
-1.61119420818744 212:1 
-0.280738101933361 55:1 57:1 59:1 78:1 102:1 109:1 117:1 147:1 171:1 172:1 206:1 207:1 212:1 222:1 265:1 272:1 281:1 282:1 299:1 
-8 91:1 
-0.05003862235388985 7:1 8:1 18:1 19:1 22:1 24:1 27:1 32:1 
-0.01313399722492299 1:1 3:1 4:1 11:1 13:1 14:1 16:1 17:1 18:1 19:1 20:1 22:1 25:1 26:1 27:1 
-0.02912855768393097 3:1 5:1 7:1 8:1 13:1 14:1 17:1 18:1 19:1 20:1 22:1 27:1 29:1 31:1 32:1 33:1 
-0.03044243380896804 1:1 2:1 3:1 16:1 17:1 18:1 21:1 30:1 31:1 
-0.04449627093411437 1:1 2:1 3:1 4:1 5:1 6:1 7:1 8:1 11:1 12:1 13:1 14:1 15:1 16:1 17:1 18:1 19:1 20:1 22:1 23:1 24:1 25:1 26:1 29:1 30:1 31:1 32:1 33:1 
-0.02831376316510083 3:1 6:1 17:1 18:1 26:1 30:1 34:1 
-0.07520222028048969 1:1 5:1 6:1 9:1 10:1 12:1 13:1 14:1 15:1 18:1 20:1 21:1 23:1 24:1 27:1 28:1 
-0.0356298889638459 1:1 5:1 6:1 9:1 10:1 12:1 13:1 14:1 19:1 20:1 21:1 23:1 24:1 25:1 28:1 29:1 
-0.01719510250541546 1:1 3:1 4:1 5:1 9:1 10:1 12:1 13:1 14:1 21:1 23:1 24:1 28:1 30:1 32:1 34:1 
-0.00441291758294781 5:1 7:1 8:1 12:1 13:1 14:1 16:1 19:1 20:1 21:1 22:1 23:1 24:1 30:1 
-0.02491156917568582 1:1 8:1 10:1 11:1 12:1 13:1 14:1 15:1 16:1 20:1 21:1 23:1 25:1 27:1 28:1 32:1 33:1 34:1 
-0.08472570910944088 3:1 5:1 6:1 8:1 9:1 11:1 15:1 16:1 17:1 22:1 24:1 25:1 29:1 30:1 31:1 
-0.04879819510189588 1:1 3:1 4:1 5:1 8:1 9:1 10:1 11:1 13:1 16:1 17:1 18:1 20:1 21:1 23:1 24:1 28:1 30:1 31:1 32:1 33:1 34:1 
-0.02796776014284872 4:1 20:1 21:1 25:1 26:1 30:1 33:1 
-0.06887895662423403 2:1 3:1 4:1 7:1 9:1 10:1 13:1 14:1 15:1 16:1 18:1 19:1 21:1 22:1 24:1 25:1 26:1 27:1 29:1 30:1 32:1 33:1 
-0.01932363818274061 1:1 3:1 4:1 5:1 6:1 10:1 17:1 18:1 23:1 24:1 28:1 
-0.02371246277761672 3:1 5:1 6:1 7:1 8:1 10:1 12:1 13:1 16:1 17:1 18:1 19:1 20:1 21:1 22:1 25:1 26:1 27:1 28:1 34:1 
-0.04623163916395856 2:1 3:1 4:1 7:1 8:1 10:1 13:1 14:1 16:1 17:1 20:1 24:1 28:1 30:1 
-0.03075244341655947 1:1 4:1 6:1 9:1 16:1 25:1 27:1 32:1 34:1 
-0.04681655800706146 1:1 4:1 7:1 9:1 10:1 11:1 12:1 13:1 14:1 15:1 16:1 18:1 19:1 21:1 24:1 25:1 28:1 29:1 30:1 31:1 32:1 33:1 34:1 
-0.0455640853067468 4:1 7:1 20:1 22:1 24:1 25:1 33:1 34:1 
-0.03044558896116249 2:1 5:1 6:1 7:1 8:1 9:1 10:1 12:1 13:1 14:1 15:1 16:1 18:1 19:1 20:1 22:1 25:1 26:1 27:1 28:1 29:1 31:1 33:1 34:1 
-0.003424646572777955 7:1 8:1 11:1 12:1 20:1 23:1 24:1 30:1 31:1 34:1 
-0.001304056000694351 1:1 2:1 3:1 7:1 9:1 13:1 15:1 16:1 19:1 20:1 21:1 22:1 24:1 25:1 26:1 27:1 29:1 30:1 31:1 32:1 33:1 34:1 
-0.02173319213637166 4:1 7:1 8:1 10:1 13:1 19:1 23:1 31:1 33:1 34:1 
-0.03713262200169957 18:1 19:1 22:1 23:1 25:1 28:1 
-0.01984131399174927 2:1 4:1 5:1 7:1 9:1 13:1 16:1 19:1 20:1 22:1 23:1 25:1 26:1 31:1 32:1 34:1 
-0.03843039403608633 14:1 22:1 23:1 
-0.005197534314512565 8:1 12:1 14:1 18:1 19:1 20:1 23:1 25:1 26:1 27:1 28:1 32:1 34:1 
-0.01747420676038938 4:1 10:1 11:1 12:1 15:1 18:1 20:1 26:1 27:1 31:1 32:1 33:1 34:1 
-0.02888957601001616 4:1 19:1 26:1 27:1 29:1 31:1 
-0.04080413688681016 2:1 3:1 5:1 6:1 11:1 12:1 14:1 21:1 27:1 33:1 
-0.02761383477234858 12:1 20:1 27:1 
-0.07169452137277589 1:1 5:1 8:1 9:1 11:1 12:1 13:1 15:1 18:1 19:1 20:1 21:1 22:1 24:1 26:1 27:1 29:1 30:1 31:1 32:1 33:1 34:1 
-0.03781055230874229 28:1 
-0.02827146189473783 1:1 3:1 6:1 7:1 8:1 10:1 17:1 21:1 23:1 29:1 32:1 34:1 
-0.02333844322653775 1:1 3:1 6:1 7:1 8:1 10:1 17:1 21:1 23:1 29:1 32:1 34:1 
-0.001387341428958223 3:1 4:1 6:1 7:1 9:1 10:1 11:1 15:1 17:1 19:1 20:1 21:1 23:1 28:1 32:1 34:1 
-0.0298710765791008 2:1 3:1 4:1 11:1 14:1 15:1 16:1 17:1 20:1 22:1 25:1 27:1 33:1 
-0.006634317782625611 1:1 4:1 8:1 15:1 16:1 21:1 
-0.05839939116665489 1:1 4:1 8:1 11:1 19:1 21:1 25:1 28:1 29:1 30:1 
-0.008173764597580929 3:1 4:1 7:1 8:1 11:1 15:1 22:1 28:1 
-0.001663103670333771 3:1 8:1 11:1 12:1 13:1 15:1 16:1 17:1 18:1 19:1 26:1 28:1 29:1 31:1 32:1 33:1 34:1 
-0.06641078805735763 2:1 9:1 14:1 27:1 28:1 34:1 
-0.01321704926591867 7:1 12:1 13:1 16:1 18:1 30:1 
-0.0204863166908963 5:1 7:1 8:1 10:1 12:1 13:1 14:1 15:1 18:1 19:1 20:1 22:1 23:1 25:1 26:1 27:1 29:1 30:1 31:1 32:1 33:1 34:1 
-0.08668408163098548 3:1 4:1 6:1 7:1 8:1 9:1 12:1 13:1 14:1 16:1 17:1 18:1 22:1 23:1 26:1 27:1 29:1 31:1 34:1 
-0.02275305522206303 2:1 4:1 6:1 7:1 8:1 12:1 13:1 15:1 16:1 18:1 19:1 20:1 22:1 25:1 27:1 29:1 31:1 33:1 34:1 
-0.03460645861054046 1:1 2:1 5:1 7:1 8:1 9:1 10:1 14:1 16:1 19:1 20:1 23:1 24:1 26:1 28:1 30:1 31:1 33:1 34:1 
-0.002401387113143215 5:1 8:1 9:1 10:1 11:1 12:1 14:1 16:1 18:1 19:1 23:1 24:1 26:1 29:1 30:1 
-0.02827759940302576 1:1 4:1 5:1 7:1 8:1 9:1 10:1 11:1 13:1 15:1 16:1 19:1 23:1 24:1 25:1 28:1 30:1 32:1 34:1 
-0.001746601981180669 3:1 11:1 12:1 17:1 
-0.05576170135600927 8:1 9:1 11:1 22:1 23:1 30:1 34:1 
-0.009552313062020801 5:1 7:1 8:1 9:1 11:1 12:1 14:1 15:1 16:1 18:1 19:1 20:1 21:1 23:1 25:1 26:1 28:1 29:1 32:1 
-0.03571976669240698 9:1 10:1 11:1 15:1 16:1 18:1 21:1 22:1 24:1 26:1 28:1 29:1 30:1 
-0.0237621775319368 8:1 10:1 11:1 12:1 13:1 18:1 19:1 20:1 21:1 22:1 23:1 24:1 25:1 26:1 28:1 29:1 31:1 32:1 
-0.01390362986085852 3:1 7:1 8:1 10:1 11:1 12:1 14:1 16:1 21:1 22:1 23:1 24:1 27:1 29:1 32:1 
-0.05268544545687548 7:1 13:1 21:1 33:1 
-0.02506218193265381 5:1 6:1 30:1 
-0.007246274086208535 5:1 6:1 7:1 15:1 
-0.005997510627013688 2:1 6:1 8:1 15:1 16:1 18:1 19:1 20:1 25:1 27:1 30:1 31:1 32:1 
-0.002083069401113774 13:1 14:1 19:1 29:1 
-0.007009514929404795 8:1 10:1 14:1 15:1 16:1 21:1 23:1 26:1 28:1 
-0.02449735826829343 5:1 7:1 8:1 9:1 10:1 12:1 13:1 14:1 15:1 18:1 19:1 20:1 22:1 23:1 25:1 26:1 27:1 28:1 31:1 32:1 33:1 
-0.03163718410736008 1:1 3:1 4:1 5:1 6:1 10:1 17:1 20:1 22:1 28:1 34:1 
-0.03911953361424814 1:1 3:1 5:1 6:1 10:1 12:1 17:1 18:1 25:1 26:1 31:1 32:1 34:1 
-0.02116196152202533 1:1 2:1 3:1 10:1 13:1 17:1 21:1 
-0.00847202182843057 13:1 15:1 19:1 21:1 29:1 31:1 32:1 
-0.001626670345995357 1:1 2:1 4:1 6:1 10:1 11:1 12:1 15:1 16:1 21:1 23:1 28:1 32:1 33:1 34:1 
-0.05773930379599391 1:1 2:1 3:1 4:1 5:1 6:1 7:1 10:1 11:1 12:1 15:1 16:1 17:1 18:1 19:1 20:1 21:1 22:1 23:1 24:1 25:1 26:1 27:1 28:1 29:1 30:1 31:1 32:1 33:1 34:1 
-0.09721884020290206 1:1 2:1 3:1 4:1 5:1 6:1 7:1 8:1 9:1 10:1 11:1 12:1 13:1 14:1 15:1 16:1 17:1 18:1 19:1 20:1 21:1 22:1 23:1 24:1 26:1 27:1 28:1 29:1 30:1 31:1 32:1 33:1 34:1 
-0.005551675534968858 3:1 5:1 6:1 7:1 11:1 12:1 13:1 14:1 16:1 17:1 19:1 20:1 21:1 22:1 23:1 25:1 26:1 27:1 31:1 33:1 
-0.02197407402072228 2:1 9:1 32:1 
-0.02020081964826386 15:1 
-0.0555541452246978 1:1 2:1 10:1 11:1 12:1 14:1 15:1 20:1 21:1 23:1 25:1 26:1 30:1 33:1 
-0.02038181611972347 3:1 4:1 5:1 7:1 9:1 10:1 11:1 19:1 21:1 22:1 23:1 24:1 27:1 29:1 33:1 
-0.03298468924902844 1:1 2:1 3:1 4:1 5:1 7:1 9:1 10:1 15:1 16:1 17:1 23:1 28:1 29:1 30:1 34:1 
-0.01862752543261322 2:1 3:1 5:1 9:1 10:1 12:1 16:1 17:1 22:1 23:1 
-0.01942237094011273 14:1 21:1 22:1 
-0.03703020587307843 3:1 4:1 6:1 7:1 8:1 9:1 10:1 11:1 13:1 16:1 17:1 20:1 24:1 25:1 26:1 28:1 32:1 
-0.01327711058219149 2:1 3:1 9:1 11:1 13:1 16:1 18:1 19:1 21:1 24:1 26:1 27:1 28:1 29:1 30:1 32:1 33:1 
-0.0469454091466373 1:1 7:1 11:1 18:1 20:1 23:1 24:1 29:1 30:1 31:1 33:1 
-0.007545596135790564 5:1 8:1 11:1 12:1 14:1 15:1 18:1 19:1 20:1 21:1 24:1 26:1 28:1 30:1 31:1 32:1 34:1 
-0.001697998488862572 3:1 9:1 10:1 15:1 17:1 19:1 20:1 22:1 23:1 26:1 27:1 28:1 29:1 31:1 34:1 
-0.01896552763731329 1:1 3:1 5:1 9:1 10:1 11:1 12:1 14:1 16:1 17:1 19:1 20:1 21:1 23:1 26:1 27:1 28:1 30:1 32:1 33:1 34:1 
-0.02228388058219635 3:1 6:1 12:1 17:1 18:1 19:1 23:1 25:1 29:1 31:1 
-8 91:1 
-1.551499890561127 55:1 57:1 62:1 69:1 87:1 102:1 109:1 149:1 169:1 171:1 205:1 207:1 208:1 225:1 245:1 247:1 250:1 251:1 274:1 
-0.03983897819125117 37:1 38:1 41:1 55:1 62:1 72:1 78:1 81:1 83:1 109:1 116:1 144:1 149:1 154:1 156:1 157:1 169:1 203:1 204:1 206:1 207:1 208:1 223:1 230:1 231:1 232:1 247:1 250:1 263:1 269:1 281:1 283:1 292:1 
-6.911071457555825 39:1 57:1 98:1 117:1 190:1 216:1 247:1 263:1 299:1 
-0.6891481578992479 37:1 55:1 62:1 69:1 76:1 78:1 91:1 102:1 144:1 157:1 158:1 164:1 171:1 188:1 206:1 207:1 221:1 225:1 226:1 231:1 249:1 252:1 272:1 281:1 294:1 298:1 299:1 
-1.545839448886073 35:1 44:1 53:1 101:1 147:1 206:1 261:1 298:1 
-0.04721019442396392 212:1 
-0.2041942461169704 53:1 54:1 55:1 59:1 75:1 90:1 99:1 106:1 115:1 117:1 146:1 161:1 168:1 195:1 206:1 217:1 218:1 221:1 223:1 229:1 240:1 248:1 277:1 281:1 289:1 295:1 298:1 
-4.420109369087423 35:1 54:1 96:1 106:1 117:1 167:1 207:1 212:1 216:1 225:1 233:1 257:1 277:1 281:1 
-0.9725832083320685 105:1 117:1 263:1 
-3.795866922616398 62:1 68:1 76:1 93:1 94:1 95:1 103:1 115:1 117:1 149:1 168:1 263:1 
-0.7083067044921322 45:1 48:1 55:1 57:1 106:1 168:1 207:1 216:1 223:1 258:1 263:1 295:1 
-8 217:1 263:1 
-8 207:1 263:1 
-2.090342859245669 53:1 54:1 68:1 79:1 98:1 109:1 117:1 149:1 155:1 206:1 208:1 216:1 217:1 229:1 245:1 247:1 250:1 263:1 277:1 293:1 295:1 298:1 
-2.84134670487078 38:1 62:1 97:1 204:1 222:1 265:1 276:1 281:1 
-7.579728652678567 277:1 
-0.9626971825537981 55:1 59:1 244:1 265:1 
-0.4351222010691861 69:1 76:1 78:1 109:1 115:1 171:1 194:1 206:1 207:1 223:1 242:1 299:1 
-0.8237491736735252 106:1 109:1 205:1 212:1 265:1 
-0.2273856994902524 149:1 205:1 295:1 
-4.58007779983388 38:1 53:1 56:1 117:1 168:1 204:1 217:1 242:1 
-0.8181386846800415 38:1 55:1 56:1 105:1 109:1 117:1 144:1 168:1 171:1 204:1 298:1 
-2.201502157145236 56:1 117:1 168:1 
-0.9379659492101918 98:1 115:1 168:1 217:1 263:1 277:1 
-5.224627696406372 38:1 204:1 293:1 
-0.7702506422383181 35:1 37:1 38:1 47:1 50:1 57:1 62:1 68:1 73:1 75:1 76:1 81:1 87:1 88:1 112:1 117:1 147:1 194:1 203:1 204:1 217:1 238:1 247:1 250:1 260:1 263:1 270:1 290:1 293:1 
-7.432008635072099 62:1 263:1 
-0.257742834060083 35:1 45:1 50:1 53:1 54:1 55:1 57:1 59:1 65:1 71:1 76:1 80:1 87:1 88:1 91:1 97:1 106:1 107:1 109:1 115:1 117:1 148:1 149:1 154:1 155:1 158:1 161:1 164:1 165:1 169:1 171:1 205:1 206:1 207:1 208:1 216:1 217:1 218:1 221:1 224:1 226:1 228:1 229:1 230:1 231:1 232:1 235:1 237:1 240:1 247:1 248:1 250:1 252:1 260:1 261:1 269:1 270:1 272:1 277:1 280:1 281:1 282:1 295:1 298:1 299:1 
-3.696385746410094 102:1 
-0.3485406574994061 54:1 87:1 106:1 115:1 149:1 193:1 205:1 207:1 230:1 260:1 275:1 290:1 291:1 
-0.2905240870585574 35:1 55:1 57:1 102:1 109:1 117:1 118:1 146:1 149:1 206:1 207:1 218:1 223:1 250:1 251:1 281:1 295:1 298:1 299:1 
-0.6570616992920336 35:1 38:1 59:1 81:1 109:1 196:1 204:1 207:1 248:1 252:1 258:1 
-1.572514258201711 47:1 161:1 171:1 207:1 
-0.0668348457566056 38:1 204:1 
-0.3036918231421185 35:1 44:1 47:1 55:1 57:1 59:1 69:1 78:1 81:1 83:1 102:1 106:1 107:1 109:1 115:1 117:1 144:1 146:1 164:1 165:1 169:1 171:1 185:1 197:1 206:1 207:1 208:1 217:1 218:1 223:1 224:1 227:1 235:1 250:1 277:1 281:1 282:1 283:1 294:1 295:1 298:1 299:1 
-3.4551570793579 38:1 87:1 197:1 204:1 206:1 218:1 225:1 229:1 237:1 247:1 277:1 295:1 
-0.9746879806101146 35:1 47:1 53:1 55:1 59:1 81:1 107:1 115:1 156:1 161:1 171:1 195:1 206:1 207:1 217:1 218:1 224:1 227:1 231:1 232:1 236:1 237:1 248:1 282:1 295:1 298:1 
-3.358783205918213 102:1 205:1 217:1 281:1 295:1 
-7.891929857124486 36:1 
-0.4899592778896167 47:1 48:1 62:1 69:1 70:1 81:1 91:1 107:1 109:1 111:1 115:1 117:1 157:1 168:1 190:1 205:1 207:1 225:1 250:1 277:1 281:1 299:1 
-8 96:1 167:1 212:1 225:1 233:1 257:1 277:1 281:1 
-3.367710959534284 68:1 240:1 
-0.3193567200717264 38:1 45:1 50:1 55:1 78:1 90:1 91:1 114:1 147:1 157:1 193:1 206:1 207:1 228:1 242:1 248:1 261:1 282:1 294:1 298:1 
-0.3237595380515695 54:1 72:1 88:1 108:1 115:1 144:1 149:1 172:1 207:1 223:1 227:1 244:1 245:1 295:1 
-3.043435173247051 206:1 
-0.4791838589056016 38:1 55:1 75:1 76:1 114:1 117:1 147:1 149:1 169:1 194:1 217:1 249:1 260:1 295:1 
-1.457808407216008 35:1 62:1 98:1 196:1 
-0.4806045890435995 47:1 57:1 72:1 84:1 114:1 144:1 149:1 161:1 172:1 205:1 229:1 249:1 281:1 
-2.563346975439419 88:1 114:1 117:1 217:1 225:1 233:1 281:1 295:1 
-1.535297327618559 37:1 55:1 59:1 117:1 203:1 206:1 207:1 223:1 242:1 244:1 282:1 294:1 298:1 
-1.791730807719885 108:1 109:1 195:1 205:1 207:1 223:1 248:1 272:1 280:1 
-1.447789998621709 41:1 48:1 68:1 76:1 78:1 81:1 114:1 115:1 117:1 144:1 149:1 155:1 172:1 217:1 223:1 227:1 229:1 230:1 231:1 247:1 258:1 263:1 277:1 281:1 282:1 
-0.1358402757302715 35:1 50:1 55:1 59:1 76:1 78:1 109:1 115:1 117:1 144:1 171:1 193:1 194:1 206:1 207:1 209:1 223:1 232:1 250:1 263:1 269:1 270:1 277:1 281:1 282:1 283:1 298:1 
-0.3185294858469107 102:1 109:1 157:1 207:1 209:1 247:1 
-3.516011603084837 247:1 
-1.764272889623485 247:1 294:1 
-1.565039099076511 282:1 
-0.05778178245040455 102:1 164:1 206:1 235:1 252:1 261:1 282:1 
-0.52668392038106 54:1 55:1 75:1 76:1 79:1 104:1 107:1 108:1 115:1 117:1 149:1 156:1 171:1 193:1 207:1 221:1 222:1 226:1 231:1 244:1 248:1 249:1 258:1 277:1 283:1 294:1 298:1 
-0.2878828182800842 35:1 38:1 44:1 47:1 51:1 68:1 69:1 70:1 72:1 76:1 79:1 87:1 88:1 97:1 108:1 114:1 145:1 155:1 157:1 164:1 165:1 170:1 172:1 193:1 204:1 206:1 207:1 216:1 217:1 221:1 225:1 229:1 235:1 236:1 238:1 239:1 240:1 244:1 250:1 260:1 269:1 282:1 298:1 
-7.739047867112231 81:1 296:1 
-0.331280225869002 45:1 47:1 50:1 53:1 54:1 68:1 69:1 72:1 73:1 75:1 78:1 81:1 84:1 87:1 88:1 91:1 93:1 103:1 106:1 107:1 108:1 109:1 114:1 115:1 117:1 119:1 147:1 149:1 154:1 156:1 158:1 168:1 169:1 170:1 171:1 193:1 194:1 206:1 207:1 208:1 217:1 221:1 222:1 223:1 225:1 226:1 227:1 229:1 230:1 231:1 232:1 240:1 242:1 244:1 245:1 248:1 249:1 250:1 252:1 255:1 260:1 261:1 270:1 271:1 272:1 281:1 289:1 294:1 295:1 298:1 299:1 
-0.4614564548911978 50:1 59:1 75:1 115:1 206:1 207:1 208:1 223:1 263:1 
-0.1572977481431467 50:1 117:1 217:1 
-1.415928649771891 50:1 117:1 217:1 
-0.2260274989843244 37:1 97:1 99:1 104:1 106:1 206:1 233:1 265:1 281:1 
-0.02206195257254939 57:1 60:1 89:1 99:1 104:1 109:1 117:1 164:1 245:1 265:1 277:1 281:1 
-1.926334802474525 87:1 205:1 
-0.3269717429474267 71:1 83:1 84:1 104:1 155:1 205:1 208:1 248:1 
-0.2669354389320426 209:1 
-0.04749049311101328 154:1 223:1 
-2.745098109623213 106:1 117:1 205:1 223:1 
-0.00858730425954763 37:1 38:1 47:1 50:1 81:1 102:1 104:1 144:1 154:1 169:1 195:1 203:1 204:1 206:1 207:1 217:1 221:1 229:1 235:1 236:1 242:1 248:1 249:1 252:1 258:1 260:1 261:1 263:1 269:1 271:1 281:1 294:1 299:1 
-2.642002798309457 248:1 
-3.20640147202272 41:1 55:1 73:1 103:1 104:1 105:1 117:1 144:1 154:1 171:1 190:1 193:1 196:1 205:1 217:1 223:1 250:1 251:1 263:1 281:1 293:1 299:1 
-0.2621285333281338 41:1 47:1 59:1 73:1 117:1 156:1 168:1 207:1 235:1 263:1 298:1 
-1.303488730962008 55:1 206:1 298:1 
-4.726647423129076 55:1 65:1 217:1 252:1 299:1 
-0.4773194972797691 72:1 109:1 155:1 207:1 249:1 282:1 294:1 295:1 
-1.984749660851048 55:1 62:1 102:1 106:1 117:1 161:1 206:1 219:1 223:1 240:1 250:1 272:1 277:1 281:1 292:1 295:1 299:1 
-0.06446100059481405 35:1 47:1 75:1 80:1 99:1 161:1 205:1 207:1 223:1 225:1 277:1 
-0.695393366890109 35:1 80:1 99:1 205:1 207:1 223:1 225:1 277:1 
-1.763879861277723 80:1 99:1 117:1 151:1 205:1 207:1 245:1 274:1 275:1 277:1 
-0.5447900233558924 35:1 80:1 102:1 117:1 148:1 168:1 205:1 207:1 223:1 225:1 233:1 245:1 277:1 
-1.680745220867478 217:1 253:1 
-0.06400827014405387 35:1 54:1 55:1 63:1 68:1 69:1 71:1 90:1 102:1 115:1 118:1 147:1 149:1 157:1 169:1 171:1 205:1 206:1 207:1 208:1 217:1 223:1 237:1 250:1 255:1 280:1 295:1 
-1.538900144533179 225:1 274:1 275:1 
-0.1281574236181407 171:1 207:1 208:1 260:1 
-2.670759488738796 70:1 205:1 
-0.02680287470952383 50:1 171:1 252:1 
-0.2902924883812042 50:1 51:1 57:1 59:1 106:1 195:1 206:1 207:1 223:1 244:1 263:1 277:1 282:1 298:1 
-0.06290436271321259 38:1 50:1 55:1 57:1 69:1 71:1 78:1 79:1 81:1 83:1 84:1 97:1 102:1 103:1 104:1 106:1 107:1 108:1 109:1 144:1 149:1 156:1 168:1 169:1 170:1 195:1 205:1 206:1 207:1 208:1 217:1 218:1 223:1 226:1 227:1 228:1 229:1 249:1 252:1 260:1 261:1 272:1 277:1 281:1 289:1 295:1 
-1.490561405739133 57:1 68:1 106:1 144:1 147:1 149:1 161:1 171:1 205:1 206:1 208:1 225:1 229:1 248:1 249:1 261:1 265:1 269:1 281:1 
-1.086682034672201 83:1 
-0.2699330136553546 97:1 158:1 170:1 205:1 206:1 212:1 221:1 231:1 240:1 260:1 295:1 
-0.2575051229992232 68:1 75:1 78:1 81:1 88:1 103:1 114:1 156:1 171:1 172:1 205:1 207:1 240:1 261:1 276:1 
-2.24775187490445 55:1 109:1 207:1 
-0.4626347114611741 90:1 217:1 223:1 295:1 
-1.528066712781937 166:1 293:1 
-6.580565974353631 293:1 
-1.339835316691849 37:1 38:1 39:1 55:1 57:1 62:1 68:1 73:1 76:1 83:1 87:1 88:1 93:1 98:1 99:1 102:1 103:1 105:1 109:1 115:1 117:1 157:1 169:1 170:1 190:1 203:1 204:1 206:1 207:1 247:1 250:1 252:1 263:1 272:1 276:1 277:1 281:1 292:1 298:1 299:1 
-8 212:1 
-2.603811747810254 37:1 55:1 96:1 99:1 102:1 105:1 167:1 171:1 203:1 212:1 247:1 257:1 277:1 281:1 
-1.008510826329282 45:1 83:1 88:1 98:1 157:1 195:1 206:1 207:1 221:1 247:1 263:1 
-0.1676426155721379 35:1 51:1 55:1 57:1 97:1 109:1 156:1 205:1 206:1 207:1 216:1 223:1 258:1 260:1 261:1 
-2.20845750134735 54:1 69:1 76:1 97:1 106:1 117:1 149:1 206:1 208:1 217:1 245:1 
-3.066212826303979 106:1 183:1 
-0.4100021523889925 37:1 38:1 55:1 57:1 161:1 168:1 203:1 217:1 276:1 280:1 281:1 
-0.01129891592508266 7:1 12:1 13:1 15:1 19:1 24:1 31:1 
-0.02272836458363715 3:1 7:1 9:1 13:1 15:1 17:1 18:1 19:1 20:1 22:1 25:1 28:1 29:1 31:1 32:1 
-0.01950184783465505 3:1 7:1 13:1 14:1 16:1 17:1 19:1 21:1 22:1 27:1 28:1 29:1 31:1 
-0.02302313628067666 1:1 2:1 3:1 4:1 5:1 7:1 12:1 15:1 16:1 17:1 18:1 19:1 20:1 22:1 26:1 28:1 29:1 31:1 33:1 
-0.0378353022429526 3:1 9:1 12:1 14:1 15:1 19:1 22:1 24:1 26:1 28:1 30:1 32:1 34:1 
-0.02579733390672441 1:1 2:1 6:1 8:1 13:1 14:1 15:1 16:1 18:1 20:1 25:1 26:1 27:1 29:1 31:1 32:1 33:1 
-0.0687823913394791 1:1 2:1 5:1 6:1 8:1 12:1 13:1 16:1 18:1 20:1 22:1 25:1 26:1 28:1 30:1 31:1 32:1 
-0.03947099247739317 3:1 6:1 8:1 9:1 11:1 13:1 15:1 16:1 17:1 19:1 20:1 23:1 24:1 25:1 26:1 28:1 29:1 30:1 33:1 
-0.02614167629578635 3:1 6:1 7:1 17:1 30:1 33:1 
-0.009738263356555314 1:1 4:1 5:1 6:1 8:1 10:1 11:1 15:1 18:1 19:1 20:1 23:1 24:1 26:1 28:1 29:1 30:1 31:1 32:1 34:1 
-0.005700501163214241 1:1 3:1 6:1 7:1 10:1 14:1 17:1 23:1 24:1 28:1 29:1 
-0.03911346074171156 1:1 2:1 4:1 6:1 10:1 11:1 19:1 21:1 24:1 29:1 30:1 32:1 
-0.04035313203198163 1:1 2:1 4:1 6:1 11:1 12:1 13:1 16:1 21:1 30:1 32:1 33:1 34:1 
-0.01250450750788096 2:1 4:1 6:1 12:1 16:1 19:1 21:1 27:1 29:1 33:1 
-0.02428604003018951 2:1 4:1 14:1 15:1 
-0.00823972482483408 2:1 4:1 12:1 16:1 19:1 22:1 26:1 27:1 29:1 34:1 
-0.0378972798108156 2:1 5:1 7:1 8:1 11:1 14:1 19:1 20:1 22:1 25:1 27:1 31:1 
-0.06030000767015712 2:1 4:1 5:1 8:1 9:1 10:1 16:1 21:1 23:1 29:1 33:1 34:1 
-0.0100213722265937 4:1 25:1 28:1 32:1 
-0.02381287075582056 1:1 4:1 11:1 27:1 
-0.01069372928032344 1:1 2:1 3:1 7:1 11:1 12:1 13:1 15:1 16:1 17:1 18:1 19:1 20:1 21:1 23:1 25:1 28:1 29:1 31:1 32:1 
-0.05485663594701319 3:1 4:1 6:1 7:1 8:1 11:1 12:1 14:1 15:1 17:1 19:1 20:1 21:1 23:1 24:1 26:1 27:1 29:1 31:1 34:1 
-0.02284418840468258 6:1 11:1 12:1 15:1 18:1 19:1 21:1 24:1 25:1 28:1 29:1 32:1 
-0.02933728479524973 1:1 3:1 5:1 7:1 8:1 9:1 10:1 12:1 14:1 16:1 17:1 18:1 19:1 20:1 23:1 24:1 25:1 27:1 28:1 29:1 30:1 31:1 
-0.0170035963114206 5:1 12:1 21:1 26:1 34:1 
-0.0417957007732898 2:1 9:1 11:1 31:1 
-0.002889671881010705 2:1 5:1 6:1 8:1 14:1 15:1 16:1 18:1 19:1 20:1 22:1 25:1 26:1 27:1 30:1 31:1 32:1 
-0.0481096579309085 1:1 3:1 6:1 10:1 15:1 17:1 26:1 31:1 32:1 33:1 
-0.0069676845716845 5:1 7:1 11:1 15:1 19:1 28:1 33:1 
-0.04967924418041326 2:1 5:1 14:1 24:1 25:1 26:1 
-0.03280520120959424 5:1 7:1 15:1 32:1 
-0.02660499642351244 1:1 2:1 3:1 5:1 6:1 7:1 10:1 13:1 14:1 15:1 16:1 17:1 18:1 20:1 24:1 25:1 26:1 27:1 28:1 31:1 32:1 33:1 34:1 
-0.05633182317438774 1:1 2:1 3:1 4:1 6:1 7:1 10:1 11:1 12:1 14:1 15:1 16:1 17:1 19:1 20:1 21:1 22:1 23:1 25:1 26:1 27:1 28:1 31:1 32:1 33:1 34:1 
-0.05628318564693623 2:1 3:1 5:1 9:1 10:1 13:1 15:1 17:1 19:1 23:1 24:1 27:1 34:1 
-0.04962088470808159 2:1 4:1 6:1 11:1 12:1 13:1 14:1 16:1 18:1 25:1 26:1 27:1 32:1 33:1 
-0.2232969104806086 47:1 57:1 59:1 71:1 97:1 109:1 157:1 161:1 197:1 205:1 206:1 207:1 208:1 212:1 243:1 294:1 
-1.902878656288234 55:1 117:1 212:1 
-0.08413796117301046 44:1 47:1 53:1 55:1 75:1 81:1 206:1 250:1 281:1 
-8 69:1 115:1 117:1 168:1 185:1 
-0.300825709427886 35:1 44:1 47:1 53:1 54:1 81:1 97:1 168:1 171:1 206:1 207:1 216:1 237:1 248:1 281:1 282:1 298:1 
-3.214340769447507 37:1 38:1 55:1 57:1 75:1 109:1 115:1 117:1 171:1 185:1 195:1 206:1 207:1 214:1 250:1 273:1 277:1 299:1 
-1.449585326371959 38:1 44:1 47:1 54:1 75:1 79:1 80:1 97:1 107:1 147:1 168:1 169:1 171:1 183:1 185:1 206:1 207:1 221:1 229:1 235:1 290:1 295:1 
-2.496527924014128 75:1 78:1 208:1 214:1 237:1 
-0.7228867089332002 35:1 109:1 205:1 235:1 261:1 
-8 161:1 212:1 
-8 277:1 
-8 212:1 
-0.135588752355351 68:1 72:1 88:1 107:1 109:1 117:1 171:1 207:1 212:1 250:1 263:1 277:1 299:1 
-0.1999793113442438 68:1 69:1 72:1 109:1 114:1 163:1 172:1 207:1 208:1 248:1 
-0.4516679737605748 47:1 55:1 114:1 117:1 144:1 295:1 
-0.3545432381036431 55:1 97:1 114:1 149:1 164:1 171:1 172:1 205:1 207:1 208:1 216:1 248:1 263:1 282:1 283:1 
-1.191335197813045 50:1 54:1 55:1 59:1 68:1 72:1 102:1 109:1 115:1 156:1 157:1 165:1 168:1 169:1 171:1 185:1 206:1 207:1 208:1 222:1 226:1 228:1 235:1 250:1 258:1 260:1 281:1 282:1 298:1 299:1 
-2.47728782449189 171:1 
-5.598146402609616 295:1 
-0.03664623639093653 38:1 59:1 72:1 108:1 114:1 157:1 171:1 172:1 206:1 207:1 208:1 231:1 248:1 249:1 261:1 281:1 
-2.388408252168521 38:1 55:1 161:1 204:1 207:1 
-8 35:1 76:1 86:1 91:1 92:1 196:1 205:1 212:1 281:1 
-4.348578792329 44:1 171:1 
-6.853792976205023 207:1 223:1 252:1 
-0.006119409065164471 37:1 38:1 54:1 62:1 87:1 102:1 104:1 161:1 203:1 204:1 205:1 223:1 237:1 247:1 277:1 281:1 
-8 76:1 77:1 115:1 117:1 
-0.2193275446401303 209:1 
-0.4950702927408533 55:1 206:1 207:1 
-7.435800225408117 37:1 203:1 
-2.108564155862357 55:1 80:1 99:1 117:1 158:1 205:1 207:1 217:1 225:1 
-4.066309282773918 
-5.548759621214856 
-1.621388131155407 38:1 93:1 94:1 204:1 
-4.225115199207739 117:1 148:1 245:1 
-1.932396502748139 79:1 206:1 281:1 
-1.023581966581843 35:1 37:1 41:1 47:1 50:1 54:1 55:1 57:1 59:1 62:1 68:1 69:1 70:1 71:1 72:1 73:1 75:1 76:1 80:1 81:1 83:1 84:1 88:1 90:1 97:1 103:1 104:1 105:1 106:1 108:1 114:1 115:1 117:1 119:1 144:1 145:1 147:1 149:1 161:1 164:1 168:1 169:1 170:1 171:1 172:1 173:1 185:1 190:1 194:1 196:1 203:1 206:1 207:1 208:1 209:1 216:1 217:1 222:1 223:1 224:1 225:1 227:1 228:1 229:1 231:1 232:1 235:1 236:1 240:1 241:1 242:1 244:1 248:1 249:1 251:1 252:1 258:1 260:1 261:1 263:1 265:1 270:1 271:1 272:1 274:1 276:1 277:1 281:1 283:1 293:1 294:1 295:1 299:1 
-0.2057629677221271 57:1 89:1 168:1 199:1 200:1 226:1 281:1 
-0.06639578604154718 37:1 38:1 47:1 54:1 71:1 81:1 83:1 84:1 85:1 97:1 103:1 106:1 107:1 158:1 168:1 203:1 204:1 206:1 207:1 208:1 216:1 217:1 229:1 231:1 232:1 236:1 240:1 248:1 249:1 250:1 273:1 281:1 289:1 
-0.3806430597093968 37:1 38:1 51:1 68:1 71:1 79:1 83:1 109:1 155:1 165:1 171:1 203:1 204:1 205:1 206:1 207:1 227:1 235:1 265:1 277:1 
-0.006363168840583885 236:1 
-1.228035051525849 47:1 117:1 172:1 206:1 207:1 239:1 248:1 
-0.2564754551345831 35:1 37:1 38:1 41:1 45:1 55:1 63:1 68:1 70:1 71:1 72:1 73:1 75:1 76:1 85:1 88:1 102:1 103:1 106:1 108:1 109:1 115:1 117:1 145:1 154:1 155:1 156:1 157:1 171:1 203:1 204:1 205:1 206:1 207:1 216:1 217:1 221:1 235:1 236:1 245:1 247:1 249:1 250:1 261:1 281:1 299:1 
-1.411814146636875 68:1 155:1 161:1 205:1 216:1 240:1 
-0.1422131830527355 55:1 59:1 68:1 84:1 90:1 109:1 149:1 161:1 206:1 207:1 217:1 280:1 
-3.706275962615965 99:1 171:1 206:1 207:1 217:1 281:1 
