svm_type c_svc
kernel_type rbf
gamma 0.0078125
nr_class 2
total_sv 444
rho -5.70155
label 1 -1
nr_sv 106 338
SV
10.06890172087986 35:1 37:1 38:1 114:1 147:1 156:1 185:1 196:1 203:1 204:1 217:1 238:1 290:1 291:1 299:1 
46.39867185127007 36:1 37:1 109:1 117:1 185:1 196:1 203:1 
82.09831772248789 36:1 171:1 185:1 196:1 
14.5063656397168 35:1 36:1 53:1 66:1 81:1 97:1 149:1 185:1 196:1 207:1 217:1 250:1 277:1 281:1 290:1 291:1 292:1 
10.70850709289915 56:1 67:1 117:1 277:1 289:1 
2.709132298269908 55:1 56:1 67:1 109:1 117:1 173:1 216:1 223:1 247:1 263:1 277:1 289:1 
49.7011054165107 56:1 67:1 97:1 117:1 247:1 277:1 289:1 
128 
0.08066330243154358 205:1 263:1 266:1 267:1 276:1 293:1 
128 
128 99:1 207:1 208:1 225:1 
17.24451927679218 54:1 69:1 75:1 109:1 168:1 205:1 206:1 207:1 208:1 217:1 223:1 230:1 242:1 247:1 263:1 266:1 267:1 268:1 276:1 281:1 293:1 295:1 
1.609547851711846 35:1 48:1 54:1 57:1 65:1 69:1 75:1 76:1 102:1 106:1 117:1 149:1 156:1 161:1 172:1 205:1 206:1 207:1 208:1 230:1 245:1 247:1 250:1 261:1 263:1 266:1 267:1 276:1 277:1 281:1 282:1 292:1 293:1 295:1 299:1 
67.16462419141843 38:1 107:1 204:1 205:1 207:1 247:1 263:1 266:1 276:1 293:1 299:1 
23.8134663757422 98:1 117:1 205:1 217:1 245:1 247:1 263:1 276:1 293:1 
128 
128 245:1 
68.58614308514251 54:1 63:1 98:1 212:1 251:1 
128 76:1 77:1 
13.94345117642608 63:1 64:1 71:1 206:1 217:1 251:1 
15.84392397307286 38:1 63:1 64:1 204:1 217:1 251:1 
64.00970807243105 57:1 59:1 68:1 87:1 102:1 109:1 115:1 147:1 161:1 206:1 217:1 218:1 247:1 249:1 251:1 263:1 277:1 281:1 295:1 299:1 
128 263:1 
128 76:1 
128 76:1 223:1 
128 
128 76:1 
48.84442720657551 219:1 220:1 248:1 
128 115:1 171:1 219:1 
128 62:1 161:1 265:1 
18.29575315401717 50:1 54:1 106:1 108:1 149:1 168:1 171:1 206:1 207:1 212:1 219:1 220:1 228:1 230:1 248:1 258:1 261:1 298:1 
128 
14.43554175719525 35:1 47:1 68:1 73:1 98:1 102:1 117:1 153:1 197:1 198:1 199:1 200:1 201:1 202:1 216:1 247:1 250:1 263:1 270:1 277:1 278:1 299:1 
28.14211502996712 35:1 55:1 57:1 72:1 109:1 149:1 197:1 198:1 199:1 200:1 201:1 202:1 206:1 207:1 208:1 223:1 247:1 250:1 277:1 281:1 282:1 299:1 
128 
128 
128 263:1 295:1 
8.052600988692385 190:1 191:1 
68.051056870034 37:1 65:1 75:1 81:1 117:1 168:1 190:1 191:1 203:1 223:1 263:1 277:1 281:1 
64.18095622860305 258:1 259:1 
84.8353359284831 38:1 55:1 57:1 190:1 204:1 211:1 
39.5755297233028 53:1 55:1 65:1 192:1 217:1 224:1 235:1 237:1 
1.657571684584626 45:1 54:1 65:1 87:1 88:1 144:1 170:1 190:1 191:1 192:1 206:1 217:1 231:1 249:1 260:1 263:1 277:1 295:1 298:1 299:1 
128 
128 
46.21285373538186 35:1 79:1 185:1 245:1 250:1 292:1 
62.47936539347246 35:1 115:1 149:1 185:1 186:1 238:1 247:1 263:1 
6.894237628169801 35:1 48:1 99:1 185:1 186:1 217:1 274:1 
128 35:1 117:1 217:1 
27.22930881965144 48:1 99:1 156:1 185:1 206:1 225:1 250:1 281:1 292:1 
18.38479920156194 57:1 69:1 103:1 161:1 185:1 186:1 193:1 206:1 207:1 212:1 277:1 
59.08861991270379 54:1 55:1 57:1 81:1 83:1 102:1 106:1 109:1 149:1 157:1 168:1 185:1 195:1 207:1 216:1 230:1 240:1 258:1 260:1 281:1 292:1 
128 
2.031087276802596 39:1 75:1 76:1 77:1 106:1 116:1 149:1 150:1 168:1 196:1 205:1 206:1 207:1 229:1 249:1 255:1 263:1 273:1 281:1 
35.22072683352651 39:1 76:1 77:1 106:1 116:1 117:1 149:1 150:1 196:1 208:1 216:1 228:1 231:1 255:1 263:1 273:1 
83.65594077073074 112:1 113:1 
128 
61.64404548970666 49:1 159:1 
128 79:1 
128 98:1 
128 
31.83834100367753 112:1 113:1 117:1 248:1 293:1 
128 250:1 281:1 
128 105:1 173:1 183:1 223:1 245:1 277:1 
100.9363867083179 105:1 117:1 173:1 183:1 223:1 245:1 277:1 
128 105:1 168:1 
128 53:1 105:1 207:1 282:1 
91.71321617029432 55:1 65:1 84:1 91:1 98:1 105:1 115:1 117:1 168:1 183:1 207:1 222:1 242:1 250:1 
71.93517287789169 55:1 65:1 75:1 98:1 105:1 115:1 171:1 172:1 183:1 207:1 244:1 252:1 298:1 
128 173:1 174:1 223:1 
128 35:1 53:1 55:1 105:1 207:1 282:1 
101.8254988165204 47:1 68:1 96:1 106:1 167:1 171:1 212:1 225:1 233:1 257:1 277:1 281:1 
34.25794701997267 35:1 68:1 96:1 167:1 190:1 206:1 212:1 216:1 233:1 249:1 257:1 277:1 281:1 293:1 
37.20171357941464 41:1 55:1 96:1 107:1 161:1 167:1 171:1 206:1 207:1 212:1 225:1 233:1 252:1 257:1 260:1 277:1 281:1 
80.95214781156825 75:1 96:1 109:1 167:1 206:1 212:1 233:1 250:1 257:1 277:1 281:1 
24.67322365959192 38:1 73:1 96:1 117:1 144:1 167:1 171:1 204:1 207:1 212:1 225:1 233:1 248:1 257:1 277:1 281:1 
107.0535609926823 95:1 117:1 
6.258767943185119 62:1 76:1 91:1 93:1 95:1 97:1 98:1 107:1 115:1 117:1 154:1 194:1 230:1 231:1 247:1 250:1 252:1 260:1 263:1 292:1 294:1 
64.87434593840779 93:1 95:1 117:1 
7.656606260762601 35:1 76:1 77:1 93:1 94:1 95:1 117:1 151:1 160:1 166:1 182:1 215:1 230:1 234:1 247:1 250:1 262:1 264:1 300:1 
25.0761707923419 76:1 77:1 93:1 94:1 95:1 117:1 162:1 206:1 230:1 250:1 
19.09573522255114 50:1 55:1 57:1 75:1 76:1 91:1 92:1 108:1 109:1 117:1 161:1 168:1 171:1 195:1 205:1 207:1 212:1 217:1 250:1 263:1 281:1 295:1 
0.167117043818488 35:1 76:1 77:1 91:1 92:1 98:1 99:1 117:1 212:1 217:1 223:1 225:1 245:1 274:1 275:1 
128 38:1 76:1 91:1 212:1 263:1 277:1 295:1 
52.75247239362877 35:1 45:1 55:1 91:1 92:1 102:1 115:1 117:1 168:1 205:1 206:1 207:1 212:1 218:1 240:1 272:1 281:1 294:1 296:1 298:1 
33.13073038248643 91:1 92:1 161:1 205:1 212:1 263:1 295:1 296:1 
52.66871304431943 35:1 41:1 54:1 55:1 76:1 91:1 92:1 115:1 148:1 149:1 161:1 164:1 212:1 223:1 225:1 231:1 275:1 277:1 296:1 299:1 
75.64610705165111 46:1 52:1 55:1 60:1 73:1 75:1 110:1 117:1 120:1 121:1 122:1 123:1 124:1 143:1 146:1 175:1 176:1 177:1 178:1 179:1 180:1 181:1 184:1 187:1 210:1 213:1 214:1 243:1 250:1 263:1 281:1 284:1 285:1 286:1 287:1 288:1 292:1 295:1 
128 73:1 74:1 205:1 250:1 281:1 
128 73:1 74:1 205:1 281:1 
128 73:1 76:1 205:1 
128 73:1 76:1 205:1 
27.52231031802242 53:1 55:1 59:1 73:1 74:1 117:1 144:1 149:1 171:1 205:1 206:1 207:1 217:1 227:1 229:1 248:1 281:1 298:1 
128 55:1 217:1 
11.81227813415091 35:1 48:1 61:1 62:1 99:1 205:1 225:1 232:1 233:1 237:1 245:1 251:1 253:1 274:1 277:1 281:1 
55.1751957517722 35:1 41:1 68:1 69:1 73:1 75:1 76:1 90:1 106:1 117:1 149:1 190:1 217:1 248:1 253:1 254:1 281:1 295:1 
6.799751090205964 35:1 47:1 48:1 54:1 55:1 61:1 62:1 65:1 68:1 81:1 93:1 99:1 106:1 108:1 117:1 149:1 170:1 206:1 207:1 216:1 223:1 225:1 233:1 237:1 240:1 244:1 245:1 250:1 252:1 253:1 258:1 271:1 274:1 275:1 276:1 277:1 279:1 281:1 282:1 293:1 299:1 
49.19156164073279 35:1 55:1 58:1 62:1 68:1 69:1 155:1 205:1 207:1 223:1 252:1 272:1 273:1 
80.87441344112209 58:1 
128 44:1 206:1 237:1 
61.63833294016329 42:1 43:1 
128 59:1 108:1 109:1 114:1 117:1 231:1 250:1 
128 
128 281:1 
128 217:1 
128 
-128 35:1 76:1 
-128 35:1 76:1 
-128 73:1 74:1 115:1 205:1 230:1 250:1 
-15.38269293321755 70:1 73:1 205:1 235:1 247:1 250:1 281:1 
-128 73:1 205:1 250:1 
-16.77538312985749 73:1 101:1 205:1 206:1 207:1 250:1 281:1 
-14.22764460868977 73:1 108:1 145:1 157:1 205:1 250:1 255:1 
-128 55:1 250:1 292:1 
-3.678525395997705 35:1 47:1 48:1 55:1 57:1 62:1 65:1 66:1 68:1 73:1 76:1 80:1 91:1 102:1 105:1 107:1 108:1 109:1 115:1 117:1 157:1 158:1 161:1 171:1 190:1 197:1 206:1 207:1 208:1 219:1 222:1 223:1 225:1 226:1 227:1 240:1 247:1 250:1 258:1 263:1 269:1 270:1 277:1 279:1 292:1 298:1 299:1 
-18.53256962946326 35:1 41:1 55:1 68:1 73:1 105:1 109:1 171:1 172:1 190:1 208:1 250:1 281:1 
-60.70754120342124 55:1 73:1 74:1 197:1 205:1 243:1 250:1 
-128 73:1 
-19.28128749302302 45:1 46:1 52:1 55:1 60:1 73:1 75:1 110:1 117:1 120:1 121:1 122:1 123:1 124:1 143:1 146:1 175:1 176:1 177:1 178:1 179:1 180:1 181:1 184:1 187:1 210:1 213:1 214:1 219:1 243:1 250:1 263:1 284:1 285:1 286:1 287:1 288:1 299:1 
-23.00045677533279 46:1 52:1 60:1 68:1 73:1 75:1 110:1 117:1 120:1 121:1 122:1 123:1 124:1 143:1 146:1 175:1 176:1 177:1 178:1 179:1 180:1 181:1 184:1 187:1 190:1 207:1 210:1 213:1 214:1 243:1 250:1 263:1 284:1 285:1 286:1 287:1 288:1 
-32.17194283536585 46:1 52:1 60:1 73:1 75:1 76:1 93:1 110:1 112:1 117:1 120:1 121:1 122:1 123:1 124:1 143:1 146:1 171:1 175:1 176:1 177:1 178:1 179:1 180:1 181:1 184:1 187:1 210:1 213:1 214:1 219:1 243:1 247:1 250:1 263:1 284:1 285:1 286:1 287:1 288:1 
-15.81244847095397 38:1 39:1 48:1 55:1 57:1 76:1 105:1 112:1 115:1 117:1 148:1 151:1 161:1 171:1 190:1 204:1 205:1 206:1 207:1 223:1 230:1 247:1 250:1 251:1 252:1 266:1 277:1 281:1 
-30.80846029927382 35:1 39:1 41:1 57:1 68:1 73:1 75:1 91:1 105:1 109:1 112:1 173:1 190:1 222:1 223:1 225:1 233:1 251:1 260:1 274:1 275:1 
-27.14572870065911 51:1 55:1 76:1 83:1 206:1 207:1 216:1 250:1 263:1 277:1 298:1 
-35.02085023793462 295:1 
-1.764643702017711 35:1 37:1 38:1 57:1 147:1 203:1 204:1 217:1 247:1 263:1 281:1 292:1 
-52.43077615548052 57:1 63:1 156:1 228:1 
-25.76462890552215 98:1 105:1 115:1 117:1 247:1 252:1 282:1 
-6.468362611523259 98:1 105:1 154:1 206:1 207:1 298:1 
-128 65:1 105:1 207:1 263:1 
-128 173:1 174:1 223:1 263:1 
-20.38012709858709 75:1 172:1 217:1 
-25.62645556397361 244:1 
-128 105:1 173:1 183:1 223:1 245:1 277:1 
-38.66091060869568 35:1 54:1 55:1 65:1 76:1 105:1 148:1 161:1 168:1 173:1 183:1 223:1 245:1 250:1 263:1 277:1 279:1 281:1 295:1 
-35.7624720913588 38:1 57:1 60:1 65:1 98:1 105:1 107:1 109:1 117:1 164:1 183:1 204:1 263:1 295:1 
-41.69288556994595 35:1 53:1 55:1 105:1 207:1 282:1 
-7.844997597874277 55:1 281:1 298:1 
-38.70634004539581 99:1 248:1 
-29.91528939077805 249:1 
-28.11795036354113 75:1 114:1 117:1 212:1 281:1 
-10.36135228833264 55:1 67:1 89:1 117:1 118:1 217:1 272:1 277:1 
-43.44670260728169 54:1 109:1 231:1 
-5.648273402117892 117:1 225:1 227:1 
-47.8587921228632 59:1 245:1 248:1 270:1 
-128 205:1 281:1 
-3.483936357552925 35:1 54:1 55:1 68:1 75:1 76:1 78:1 81:1 108:1 117:1 149:1 157:1 169:1 183:1 207:1 223:1 238:1 249:1 250:1 273:1 293:1 295:1 
-38.39525688360212 45:1 54:1 76:1 149:1 161:1 217:1 281:1 
-57.59227528976073 84:1 147:1 231:1 248:1 299:1 
-33.50209625191546 36:1 
-5.36312918375923 35:1 55:1 75:1 149:1 161:1 217:1 248:1 249:1 258:1 271:1 281:1 
-0.6383513528491792 35:1 44:1 54:1 55:1 68:1 75:1 76:1 89:1 106:1 115:1 117:1 161:1 169:1 171:1 185:1 197:1 205:1 206:1 207:1 216:1 218:1 241:1 245:1 247:1 265:1 272:1 282:1 
-26.29713631859249 247:1 277:1 282:1 
-3.355586725242012 99:1 218:1 
-13.08896476764724 35:1 68:1 76:1 108:1 117:1 118:1 281:1 294:1 
-38.22845315096381 59:1 68:1 117:1 155:1 206:1 281:1 
-11.00019697528924 68:1 91:1 117:1 164:1 281:1 
-4.93474474732312 99:1 109:1 114:1 206:1 207:1 252:1 294:1 
-12.87231299349262 55:1 76:1 78:1 87:1 207:1 231:1 239:1 252:1 269:1 283:1 298:1 
-10.79468425113535 37:1 203:1 
-128 55:1 208:1 237:1 
-21.79695339645418 35:1 71:1 98:1 104:1 185:1 206:1 207:1 222:1 227:1 281:1 295:1 297:1 298:1 
-15.4365906356234 281:1 
-21.92244947435784 55:1 76:1 81:1 98:1 109:1 171:1 206:1 207:1 226:1 281:1 
-10.69028540348936 35:1 55:1 59:1 75:1 98:1 171:1 207:1 223:1 298:1 
-0.2007685123716476 79:1 
-8.439309812294184 117:1 
-14.98932842064917 38:1 68:1 108:1 171:1 204:1 205:1 255:1 256:1 
-19.0574513774265 41:1 108:1 206:1 
-9.605915209896798 53:1 79:1 148:1 217:1 245:1 248:1 249:1 
-11.94471845545429 117:1 171:1 232:1 
-13.44729509396572 84:1 170:1 242:1 248:1 
-99.59283885193456 79:1 
-71.63671563836904 293:1 
-18.00735844253465 157:1 
-11.58747835775878 98:1 108:1 169:1 277:1 
-89.14862760023243 75:1 
-48.82562879048545 59:1 
-128 105:1 
-28.10887378730113 48:1 57:1 62:1 68:1 72:1 76:1 93:1 94:1 95:1 115:1 117:1 149:1 168:1 244:1 263:1 
-16.59234022991407 75:1 88:1 93:1 95:1 106:1 117:1 119:1 149:1 249:1 265:1 272:1 
-29.76018142578884 78:1 96:1 106:1 117:1 167:1 207:1 212:1 216:1 233:1 257:1 277:1 281:1 
-16.53999895451517 80:1 149:1 168:1 171:1 173:1 205:1 207:1 219:1 223:1 247:1 281:1 299:1 
-3.012728020309122 80:1 97:1 109:1 168:1 171:1 205:1 206:1 207:1 223:1 224:1 235:1 237:1 252:1 281:1 299:1 
-40.33737803337994 212:1 
-2.377122504643051 252:1 
-0.1243776358042439 3:1 4:1 5:1 6:1 13:1 17:1 21:1 23:1 32:1 
-39.75426973886878 91:1 
-8.994608040309192 50:1 54:1 75:1 76:1 84:1 149:1 171:1 221:1 247:1 249:1 250:1 281:1 282:1 294:1 
-0.1860706354302463 7:1 8:1 18:1 19:1 22:1 24:1 27:1 32:1 
-0.09285557426069321 3:1 5:1 7:1 8:1 13:1 14:1 17:1 18:1 19:1 20:1 22:1 27:1 29:1 31:1 32:1 33:1 
-0.1404199600094653 1:1 2:1 3:1 4:1 5:1 6:1 7:1 8:1 11:1 12:1 13:1 14:1 15:1 16:1 17:1 18:1 19:1 20:1 22:1 23:1 24:1 25:1 26:1 29:1 30:1 31:1 32:1 33:1 
-0.05102362564502759 3:1 6:1 17:1 18:1 26:1 30:1 34:1 
-0.2026854682214985 1:1 5:1 6:1 9:1 10:1 12:1 13:1 14:1 15:1 18:1 20:1 21:1 23:1 24:1 27:1 28:1 
-0.04444039927677752 1:1 5:1 6:1 9:1 10:1 12:1 13:1 14:1 19:1 20:1 21:1 23:1 24:1 25:1 28:1 29:1 
-0.01579712970098571 3:1 5:1 6:1 9:1 10:1 12:1 14:1 16:1 17:1 18:1 19:1 20:1 21:1 22:1 23:1 27:1 28:1 32:1 
-0.0202918041857588 5:1 7:1 8:1 12:1 13:1 14:1 16:1 19:1 20:1 21:1 22:1 23:1 24:1 30:1 
-0.01716689469490256 7:1 12:1 13:1 14:1 19:1 20:1 21:1 22:1 23:1 24:1 25:1 26:1 
-0.04538494193310114 3:1 5:1 7:1 12:1 14:1 17:1 19:1 20:1 21:1 23:1 28:1 31:1 32:1 
-0.04852303893002852 1:1 8:1 10:1 11:1 12:1 13:1 14:1 15:1 16:1 20:1 21:1 23:1 25:1 27:1 28:1 32:1 33:1 34:1 
-0.2195177599397961 3:1 5:1 6:1 8:1 9:1 11:1 15:1 16:1 17:1 22:1 24:1 25:1 29:1 30:1 31:1 
-0.05277146049630867 1:1 3:1 6:1 10:1 11:1 13:1 16:1 17:1 21:1 22:1 24:1 27:1 30:1 
-0.1198363165841844 1:1 3:1 4:1 5:1 8:1 9:1 10:1 11:1 13:1 16:1 17:1 18:1 20:1 21:1 23:1 24:1 28:1 30:1 31:1 32:1 33:1 34:1 
-0.008280534774176966 4:1 20:1 21:1 25:1 26:1 30:1 33:1 
-0.1259159356097248 2:1 3:1 4:1 7:1 9:1 10:1 13:1 14:1 15:1 16:1 18:1 19:1 21:1 22:1 24:1 25:1 26:1 27:1 29:1 30:1 32:1 33:1 
-0.06785722451288145 1:1 3:1 6:1 7:1 10:1 14:1 17:1 23:1 24:1 28:1 30:1 
-0.01949602043678386 3:1 5:1 6:1 7:1 8:1 10:1 12:1 13:1 16:1 17:1 18:1 19:1 20:1 21:1 22:1 25:1 26:1 27:1 28:1 34:1 
-0.0498469187712848 2:1 3:1 4:1 7:1 8:1 10:1 13:1 14:1 16:1 17:1 20:1 24:1 28:1 30:1 
-0.126171938629549 1:1 4:1 6:1 9:1 16:1 25:1 27:1 32:1 34:1 
-0.08743538213857986 1:1 3:1 4:1 7:1 9:1 11:1 12:1 14:1 15:1 16:1 17:1 18:1 19:1 20:1 21:1 22:1 24:1 25:1 26:1 27:1 28:1 29:1 30:1 32:1 33:1 34:1 
-0.1015727911608709 1:1 4:1 7:1 9:1 10:1 11:1 12:1 13:1 14:1 15:1 16:1 18:1 19:1 21:1 24:1 25:1 28:1 29:1 30:1 31:1 32:1 33:1 34:1 
-0.04972554840842814 4:1 7:1 20:1 22:1 24:1 25:1 33:1 34:1 
-0.01321173182516327 2:1 24:1 32:1 33:1 
-0.06330713125351764 1:1 2:1 4:1 5:1 6:1 7:1 8:1 9:1 11:1 12:1 13:1 16:1 18:1 19:1 20:1 21:1 22:1 25:1 26:1 28:1 29:1 31:1 32:1 33:1 34:1 
-0.0242673463041536 2:1 5:1 6:1 7:1 8:1 9:1 10:1 12:1 13:1 14:1 15:1 16:1 18:1 19:1 20:1 22:1 25:1 26:1 27:1 28:1 29:1 31:1 33:1 34:1 
-0.01235110195528667 7:1 8:1 11:1 12:1 20:1 23:1 24:1 30:1 31:1 34:1 
-0.06783897266149527 4:1 12:1 13:1 16:1 18:1 20:1 22:1 23:1 33:1 
-0.07970234125156674 2:1 4:1 18:1 33:1 
-0.006067078601600256 2:1 4:1 5:1 12:1 16:1 19:1 20:1 26:1 29:1 
-0.09097101262118661 4:1 7:1 8:1 10:1 13:1 19:1 23:1 31:1 33:1 34:1 
-0.01181299321066479 2:1 4:1 5:1 7:1 9:1 13:1 16:1 19:1 20:1 22:1 23:1 25:1 26:1 31:1 32:1 34:1 
-0.06894697692518736 14:1 22:1 23:1 
-0.007017115460248589 8:1 12:1 14:1 18:1 19:1 20:1 23:1 25:1 26:1 27:1 28:1 32:1 34:1 
-0.07343326102980366 4:1 10:1 11:1 12:1 15:1 18:1 20:1 26:1 27:1 31:1 32:1 33:1 34:1 
-0.04613595142480239 4:1 19:1 26:1 27:1 29:1 31:1 
-0.05088619359734964 2:1 3:1 5:1 6:1 11:1 12:1 14:1 21:1 27:1 33:1 
-0.149973827436095 1:1 5:1 8:1 9:1 11:1 12:1 13:1 15:1 18:1 19:1 20:1 21:1 22:1 24:1 26:1 27:1 29:1 30:1 31:1 32:1 33:1 34:1 
-0.0749590435843811 1:1 3:1 6:1 7:1 8:1 10:1 17:1 21:1 23:1 29:1 32:1 34:1 
-0.1011866728021363 2:1 3:1 4:1 11:1 14:1 15:1 16:1 17:1 20:1 22:1 25:1 27:1 33:1 
-0.004657189701835874 1:1 4:1 8:1 15:1 16:1 21:1 
-0.1621920998166513 1:1 4:1 8:1 11:1 19:1 21:1 25:1 28:1 29:1 30:1 
-0.007232318121694256 4:1 8:1 9:1 10:1 11:1 12:1 13:1 15:1 16:1 19:1 20:1 23:1 25:1 26:1 27:1 28:1 32:1 33:1 34:1 
-0.0589082681372949 1:1 3:1 7:1 8:1 9:1 10:1 15:1 16:1 17:1 18:1 20:1 25:1 27:1 30:1 
-0.01733523462273535 1:1 5:1 7:1 11:1 18:1 19:1 20:1 21:1 22:1 23:1 24:1 25:1 26:1 29:1 30:1 31:1 32:1 33:1 
-0.1312010310506839 2:1 9:1 14:1 27:1 28:1 34:1 
-0.03963816862866801 7:1 12:1 13:1 16:1 18:1 30:1 
-0.1949044211988098 3:1 4:1 6:1 7:1 8:1 9:1 12:1 13:1 14:1 16:1 17:1 18:1 22:1 23:1 26:1 27:1 29:1 31:1 34:1 
-0.01255159843223375 1:1 4:1 5:1 7:1 8:1 9:1 10:1 11:1 13:1 15:1 16:1 19:1 23:1 24:1 25:1 28:1 30:1 32:1 34:1 
-0.1780320215386591 8:1 9:1 11:1 22:1 23:1 30:1 34:1 
-0.06996317823800624 9:1 10:1 11:1 15:1 16:1 18:1 21:1 22:1 24:1 26:1 28:1 29:1 30:1 
-0.02295116033090196 8:1 10:1 11:1 12:1 13:1 18:1 19:1 20:1 21:1 22:1 23:1 24:1 25:1 26:1 28:1 29:1 31:1 32:1 
-0.03900917683718364 1:1 19:1 26:1 33:1 
-0.04331290960788831 7:1 13:1 21:1 33:1 
-0.006098181289126365 5:1 6:1 7:1 15:1 
-0.03930901095066189 4:1 5:1 14:1 
-0.01292357413690384 2:1 6:1 8:1 15:1 16:1 18:1 19:1 20:1 25:1 27:1 30:1 31:1 32:1 
-0.07854056239232106 2:1 3:1 13:1 15:1 17:1 19:1 20:1 24:1 25:1 28:1 29:1 31:1 33:1 
-0.007400281246764298 5:1 15:1 31:1 
-0.04329530760522233 13:1 14:1 19:1 29:1 
-0.02194245129606504 8:1 10:1 14:1 15:1 16:1 21:1 23:1 26:1 28:1 
-0.06263740692608623 5:1 7:1 8:1 9:1 10:1 12:1 13:1 14:1 15:1 18:1 19:1 20:1 22:1 23:1 25:1 26:1 27:1 28:1 31:1 32:1 33:1 
-0.06184010499848987 1:1 3:1 4:1 5:1 6:1 10:1 17:1 20:1 22:1 28:1 34:1 
-0.1144985746910383 1:1 3:1 5:1 6:1 10:1 12:1 17:1 18:1 25:1 26:1 31:1 32:1 34:1 
-0.1422795761147972 1:1 2:1 3:1 10:1 13:1 17:1 21:1 
-0.02151774790066012 13:1 15:1 19:1 21:1 29:1 31:1 32:1 
-0.01804412363693259 1:1 2:1 4:1 6:1 10:1 11:1 12:1 15:1 16:1 21:1 23:1 28:1 32:1 33:1 34:1 
-0.04153438987946671 1:1 2:1 3:1 4:1 5:1 6:1 7:1 10:1 11:1 12:1 15:1 16:1 17:1 18:1 19:1 20:1 21:1 22:1 23:1 24:1 25:1 26:1 27:1 28:1 29:1 30:1 31:1 32:1 33:1 34:1 
-0.2487458197175248 1:1 2:1 3:1 4:1 5:1 6:1 7:1 8:1 9:1 10:1 11:1 12:1 13:1 14:1 15:1 16:1 17:1 18:1 19:1 20:1 21:1 22:1 23:1 24:1 26:1 27:1 28:1 29:1 30:1 31:1 32:1 33:1 34:1 
-0.009803344220888792 2:1 9:1 32:1 
-0.1691813117795484 1:1 2:1 10:1 11:1 12:1 14:1 15:1 20:1 21:1 23:1 25:1 26:1 30:1 33:1 
-0.1053615060098979 1:1 2:1 3:1 4:1 5:1 7:1 9:1 10:1 15:1 16:1 17:1 23:1 28:1 29:1 30:1 34:1 
-0.02973635947513522 2:1 3:1 5:1 9:1 10:1 12:1 16:1 17:1 22:1 23:1 
-0.09112394060632695 14:1 21:1 22:1 
-0.1633709383262803 3:1 4:1 6:1 7:1 8:1 9:1 10:1 11:1 13:1 16:1 17:1 20:1 24:1 25:1 26:1 28:1 32:1 
-0.01160210780482511 15:1 16:1 19:1 21:1 22:1 23:1 24:1 29:1 30:1 32:1 33:1 
-0.06867177848503475 1:1 7:1 11:1 18:1 20:1 23:1 24:1 29:1 30:1 31:1 33:1 
-0.03923755488802882 5:1 8:1 11:1 12:1 14:1 15:1 18:1 19:1 20:1 21:1 24:1 26:1 28:1 30:1 31:1 32:1 34:1 
-0.04641069980045421 3:1 9:1 10:1 15:1 17:1 19:1 20:1 22:1 23:1 26:1 27:1 28:1 29:1 31:1 34:1 
-0.03781763557697313 1:1 3:1 5:1 9:1 10:1 11:1 12:1 14:1 16:1 17:1 19:1 20:1 21:1 23:1 26:1 27:1 28:1 30:1 32:1 33:1 34:1 
-0.01544172193838196 1:1 5:1 6:1 8:1 9:1 10:1 11:1 12:1 15:1 16:1 18:1 24:1 25:1 26:1 29:1 31:1 
-0.1163138610999481 3:1 6:1 12:1 17:1 18:1 19:1 23:1 25:1 29:1 31:1 
-122.7450260808028 53:1 109:1 207:1 223:1 
-21.81072106981912 38:1 205:1 231:1 247:1 252:1 261:1 
-128 91:1 
-33.25250963465352 39:1 57:1 98:1 117:1 190:1 216:1 247:1 263:1 299:1 
-13.98362142134977 212:1 
-10.1700796543317 87:1 
-49.02402514558094 41:1 65:1 73:1 75:1 76:1 81:1 91:1 105:1 109:1 112:1 117:1 146:1 148:1 161:1 185:1 190:1 195:1 217:1 218:1 219:1 251:1 253:1 258:1 263:1 272:1 277:1 278:1 281:1 295:1 
-41.47877377316683 35:1 54:1 96:1 106:1 117:1 167:1 207:1 212:1 216:1 225:1 233:1 257:1 277:1 281:1 
-88.01984465503621 161:1 212:1 225:1 
-37.72544775246186 105:1 117:1 263:1 
-43.88569386771928 62:1 68:1 76:1 93:1 94:1 95:1 103:1 115:1 117:1 149:1 168:1 263:1 
-8.280373393074223 45:1 48:1 55:1 57:1 106:1 168:1 207:1 216:1 223:1 258:1 263:1 295:1 
-118.1150035751361 217:1 263:1 
-71.46329033505431 207:1 263:1 
-14.31028432263679 53:1 54:1 68:1 79:1 98:1 109:1 117:1 149:1 155:1 206:1 208:1 216:1 217:1 229:1 245:1 247:1 250:1 263:1 277:1 293:1 295:1 298:1 
-45.70663972212672 38:1 62:1 97:1 204:1 222:1 265:1 276:1 281:1 
-93.10231391842785 277:1 
-0.04382073794478678 171:1 207:1 
-35.02948356125923 38:1 53:1 56:1 117:1 168:1 204:1 217:1 242:1 
-23.68532393668418 56:1 117:1 168:1 
-128 98:1 217:1 277:1 
-0.6212341565595451 293:1 
-16.33683275757251 38:1 204:1 293:1 
-20.09075875989379 55:1 168:1 275:1 
-25.10211837424754 83:1 
-36.44828990989547 99:1 107:1 206:1 212:1 225:1 295:1 
-30.20519560907357 53:1 55:1 81:1 107:1 109:1 117:1 154:1 185:1 206:1 207:1 218:1 237:1 250:1 281:1 282:1 295:1 
-38.78895700337855 53:1 144:1 149:1 161:1 238:1 282:1 
-2.235251036841537 35:1 38:1 59:1 81:1 109:1 196:1 204:1 207:1 248:1 252:1 258:1 
-22.25155664059259 47:1 161:1 171:1 207:1 
-3.046585244007417 117:1 
-4.305258492581907 38:1 87:1 197:1 204:1 206:1 218:1 225:1 229:1 237:1 247:1 277:1 295:1 
-5.04470391095814 102:1 205:1 217:1 281:1 295:1 
-23.25852725475007 102:1 205:1 217:1 281:1 295:1 
-128 96:1 167:1 212:1 225:1 233:1 257:1 277:1 281:1 
-23.95603473507512 117:1 172:1 207:1 217:1 242:1 281:1 
-0.1450774344615719 50:1 53:1 57:1 76:1 90:1 106:1 114:1 115:1 117:1 144:1 157:1 171:1 172:1 206:1 207:1 208:1 216:1 217:1 226:1 231:1 238:1 247:1 260:1 281:1 293:1 298:1 299:1 
-21.94021924825594 38:1 50:1 102:1 171:1 207:1 281:1 298:1 
-21.47820426984375 68:1 240:1 
-49.05303622282493 206:1 
-48.15518536759379 55:1 114:1 231:1 260:1 
-58.42443920255241 35:1 62:1 98:1 196:1 
-21.17265195707081 88:1 114:1 117:1 217:1 225:1 233:1 281:1 295:1 
-21.56756588302182 37:1 55:1 59:1 117:1 203:1 206:1 207:1 223:1 242:1 244:1 282:1 294:1 298:1 
-44.210963083575 90:1 
-2.027545600401171 90:1 244:1 
-3.172843241640291 102:1 109:1 157:1 207:1 209:1 247:1 
-3.189808790134896 252:1 
-41.19489478302668 247:1 
-64.27906673886959 282:1 
-0.7736517724047098 158:1 
-50.6064262766803 205:1 265:1 
-2.612241612738809 53:1 72:1 76:1 108:1 114:1 115:1 149:1 171:1 172:1 207:1 216:1 240:1 249:1 282:1 298:1 
-81.51684780854703 81:1 296:1 
-5.409715523590061 38:1 75:1 109:1 117:1 217:1 295:1 298:1 
-3.296595470095267 38:1 55:1 117:1 161:1 204:1 231:1 
-16.76655414338791 38:1 117:1 
-56.08608632754532 47:1 55:1 207:1 217:1 
-34.76720976451266 68:1 117:1 252:1 281:1 
-15.025651498828 87:1 205:1 
-4.858283871072242 44:1 79:1 164:1 252:1 294:1 
-128 76:1 
-0.1957264677796174 75:1 91:1 92:1 99:1 169:1 207:1 208:1 261:1 269:1 280:1 
-0.3025735014046631 59:1 109:1 
-11.21432066498202 41:1 55:1 73:1 103:1 104:1 105:1 117:1 144:1 154:1 171:1 190:1 193:1 196:1 205:1 217:1 223:1 250:1 251:1 263:1 281:1 293:1 299:1 
-19.34883011689374 41:1 47:1 59:1 73:1 117:1 168:1 207:1 263:1 
-16.06054823258708 55:1 65:1 217:1 252:1 299:1 
-3.189294061029541 55:1 76:1 87:1 107:1 109:1 115:1 117:1 168:1 207:1 217:1 242:1 281:1 283:1 295:1 299:1 
-36.39170531873801 55:1 62:1 102:1 106:1 117:1 161:1 206:1 219:1 223:1 240:1 250:1 272:1 277:1 281:1 292:1 295:1 299:1 
-0.2144208135711527 47:1 117:1 168:1 281:1 
-13.94636415609715 87:1 102:1 
-0.1120046906637035 53:1 55:1 62:1 75:1 83:1 87:1 93:1 107:1 144:1 207:1 223:1 252:1 299:1 
-1.016067551645805 55:1 75:1 117:1 217:1 281:1 295:1 
-22.03615889836069 217:1 253:1 
-48.98473403652571 171:1 
-0.1335621623688035 54:1 69:1 75:1 105:1 108:1 115:1 117:1 193:1 199:1 205:1 206:1 217:1 248:1 249:1 250:1 272:1 276:1 280:1 
-6.320156367478772 59:1 154:1 194:1 245:1 
-10.41487379106106 57:1 109:1 117:1 231:1 281:1 
-30.45400812632522 223:1 
-9.959471421745892 166:1 293:1 
-46.25840126180772 293:1 
-3.004819686713245 37:1 38:1 39:1 55:1 57:1 62:1 68:1 73:1 76:1 83:1 87:1 88:1 93:1 98:1 99:1 102:1 103:1 105:1 109:1 115:1 117:1 157:1 169:1 170:1 190:1 203:1 204:1 206:1 207:1 247:1 250:1 252:1 263:1 272:1 276:1 277:1 281:1 292:1 298:1 299:1 
-63.21905892288401 37:1 55:1 96:1 99:1 102:1 105:1 167:1 171:1 203:1 212:1 247:1 257:1 277:1 281:1 
-18.54484204915948 54:1 69:1 76:1 97:1 106:1 117:1 149:1 206:1 208:1 217:1 245:1 
-128 106:1 183:1 
-14.71167949711038 37:1 38:1 55:1 57:1 161:1 168:1 203:1 217:1 276:1 280:1 281:1 
-0.02746596434859185 7:1 12:1 13:1 15:1 19:1 24:1 31:1 
-0.06235938296657563 3:1 7:1 9:1 13:1 15:1 17:1 18:1 19:1 20:1 22:1 25:1 28:1 29:1 31:1 32:1 
-0.05339402985651964 3:1 7:1 13:1 14:1 16:1 17:1 19:1 21:1 22:1 27:1 28:1 29:1 31:1 
-0.03080166881610403 1:1 2:1 3:1 4:1 5:1 7:1 12:1 15:1 16:1 17:1 18:1 19:1 20:1 22:1 26:1 28:1 29:1 31:1 33:1 
-0.06209577187649581 3:1 9:1 12:1 14:1 15:1 19:1 22:1 24:1 26:1 28:1 30:1 32:1 34:1 
-0.0932437468964367 1:1 2:1 6:1 8:1 13:1 14:1 15:1 16:1 18:1 20:1 25:1 26:1 27:1 29:1 31:1 32:1 33:1 
-0.005626011193898145 1:1 2:1 6:1 11:1 18:1 19:1 20:1 31:1 33:1 
-0.02043706415992079 1:1 3:1 6:1 10:1 12:1 14:1 17:1 18:1 20:1 23:1 25:1 26:1 27:1 31:1 33:1 
-0.1897227391597865 1:1 2:1 5:1 6:1 8:1 12:1 13:1 16:1 18:1 20:1 22:1 25:1 26:1 28:1 30:1 31:1 32:1 
-0.01751547060148746 3:1 6:1 8:1 9:1 11:1 13:1 15:1 16:1 17:1 19:1 20:1 23:1 24:1 25:1 26:1 28:1 29:1 30:1 33:1 
-0.06577197901894523 3:1 6:1 7:1 17:1 30:1 33:1 
-0.1024180697973003 1:1 5:1 9:1 10:1 14:1 18:1 21:1 23:1 24:1 25:1 28:1 
-0.1562218215436206 1:1 2:1 3:1 5:1 7:1 8:1 9:1 10:1 11:1 12:1 13:1 14:1 15:1 16:1 17:1 18:1 19:1 20:1 21:1 22:1 23:1 24:1 25:1 26:1 27:1 28:1 29:1 30:1 31:1 32:1 33:1 34:1 
-0.02477072902206863 5:1 20:1 27:1 29:1 
-0.1422647487052413 12:1 21:1 24:1 27:1 29:1 30:1 
-0.007406010495372627 1:1 4:1 5:1 6:1 8:1 10:1 11:1 15:1 18:1 19:1 20:1 23:1 24:1 26:1 28:1 29:1 30:1 31:1 32:1 34:1 
-0.01381966113990796 1:1 3:1 6:1 7:1 10:1 14:1 17:1 23:1 24:1 28:1 29:1 
-0.06604512853616357 1:1 2:1 4:1 6:1 10:1 11:1 19:1 21:1 24:1 29:1 30:1 32:1 
-0.07259655307818028 1:1 2:1 4:1 6:1 11:1 12:1 13:1 16:1 21:1 30:1 32:1 33:1 34:1 
-0.04794101073472875 2:1 4:1 6:1 12:1 16:1 19:1 21:1 27:1 29:1 33:1 
-0.2155643251857904 2:1 4:1 7:1 15:1 28:1 33:1 34:1 
-0.01612976330550269 2:1 4:1 12:1 16:1 19:1 22:1 26:1 27:1 29:1 34:1 
-0.01074702752584207 5:1 7:1 8:1 10:1 12:1 13:1 15:1 18:1 19:1 20:1 22:1 23:1 25:1 27:1 28:1 31:1 32:1 34:1 
-0.1629638446154553 2:1 5:1 7:1 8:1 11:1 14:1 19:1 20:1 22:1 25:1 27:1 31:1 
-0.05736419464352064 2:1 4:1 5:1 8:1 9:1 10:1 16:1 21:1 23:1 29:1 33:1 34:1 
-0.1807406308660538 1:1 2:1 4:1 5:1 6:1 8:1 9:1 10:1 11:1 16:1 21:1 22:1 23:1 24:1 26:1 29:1 30:1 34:1 
-0.01632816451443238 1:1 4:1 11:1 27:1 
-0.01152212562751487 1:1 4:1 7:1 11:1 19:1 28:1 29:1 32:1 
-0.03066318156834898 5:1 11:1 15:1 18:1 19:1 28:1 32:1 
-0.1565402580391924 3:1 4:1 6:1 7:1 8:1 11:1 12:1 14:1 15:1 17:1 19:1 20:1 21:1 23:1 24:1 26:1 27:1 29:1 31:1 34:1 
-0.07002245076834335 6:1 11:1 12:1 15:1 18:1 19:1 21:1 24:1 25:1 28:1 29:1 32:1 
-0.06272129514844502 5:1 8:1 9:1 10:1 14:1 15:1 16:1 19:1 23:1 24:1 26:1 27:1 28:1 30:1 
-0.06098317734312637 5:1 12:1 21:1 26:1 34:1 
-0.1352196286401881 2:1 9:1 11:1 31:1 
-0.1347068168476327 7:1 9:1 25:1 28:1 30:1 32:1 33:1 
-0.170482806403388 2:1 4:1 5:1 6:1 7:1 8:1 10:1 12:1 13:1 14:1 16:1 18:1 19:1 20:1 22:1 23:1 25:1 26:1 27:1 28:1 29:1 30:1 31:1 33:1 34:1 
-0.1031685532053625 1:1 3:1 6:1 10:1 15:1 17:1 26:1 31:1 32:1 33:1 
-0.02675730779602532 5:1 7:1 11:1 15:1 19:1 28:1 33:1 
-0.1091003927498207 2:1 5:1 14:1 24:1 25:1 26:1 
-0.03747884741414886 5:1 7:1 15:1 32:1 
-0.03405922364650157 1:1 2:1 3:1 5:1 6:1 7:1 10:1 13:1 14:1 15:1 16:1 17:1 18:1 20:1 24:1 25:1 26:1 27:1 28:1 31:1 32:1 33:1 34:1 
-0.1126665376424099 1:1 2:1 3:1 4:1 6:1 7:1 10:1 11:1 12:1 14:1 15:1 16:1 17:1 19:1 20:1 21:1 22:1 23:1 25:1 26:1 27:1 28:1 31:1 32:1 33:1 34:1 
-0.1667214030235439 2:1 3:1 5:1 9:1 10:1 13:1 15:1 17:1 19:1 23:1 24:1 27:1 34:1 
-0.1100600225575334 2:1 4:1 6:1 11:1 12:1 13:1 14:1 16:1 18:1 25:1 26:1 27:1 32:1 33:1 
-3.637603051591971 35:1 53:1 55:1 57:1 59:1 63:1 81:1 105:1 109:1 115:1 117:1 197:1 207:1 217:1 242:1 250:1 261:1 273:1 276:1 294:1 
-4.50901580784867 38:1 54:1 57:1 204:1 206:1 207:1 238:1 260:1 299:1 
-128 69:1 115:1 117:1 168:1 185:1 
-28.41033084114576 37:1 38:1 55:1 57:1 75:1 109:1 115:1 117:1 171:1 185:1 195:1 206:1 207:1 214:1 250:1 273:1 277:1 299:1 
-11.73611104399882 38:1 44:1 47:1 54:1 75:1 79:1 80:1 97:1 107:1 147:1 168:1 169:1 171:1 183:1 185:1 206:1 207:1 221:1 229:1 235:1 290:1 295:1 
-107.120167602194 36:1 
-49.55482176106186 277:1 
-1.121560552750377 108:1 193:1 194:1 206:1 207:1 283:1 294:1 
-29.12802518484254 108:1 114:1 205:1 218:1 281:1 
-58.29500184547607 206:1 
-44.92745097240675 108:1 240:1 295:1 
-8.254680608216063 50:1 54:1 55:1 59:1 68:1 72:1 102:1 109:1 115:1 156:1 157:1 165:1 168:1 169:1 171:1 185:1 206:1 207:1 208:1 222:1 226:1 228:1 235:1 250:1 258:1 260:1 281:1 282:1 298:1 299:1 
-13.38574602775651 38:1 53:1 69:1 117:1 168:1 204:1 207:1 208:1 216:1 217:1 248:1 258:1 260:1 277:1 
-70.23443232485872 295:1 
-5.404591111143644 38:1 59:1 72:1 108:1 114:1 157:1 171:1 172:1 206:1 207:1 208:1 231:1 248:1 249:1 261:1 281:1 
-3.27352233129885 57:1 68:1 84:1 98:1 102:1 109:1 117:1 144:1 149:1 161:1 171:1 206:1 207:1 217:1 227:1 240:1 248:1 281:1 299:1 
-2.108085885005629 75:1 171:1 206:1 217:1 
-91.57807791152501 35:1 76:1 86:1 91:1 92:1 196:1 205:1 212:1 281:1 
-113.1744141410975 44:1 171:1 
-13.79233876155208 207:1 223:1 252:1 
-25.33655627401173 282:1 
-85.22347666075228 212:1 
-128 149:1 245:1 
-4.964312608228076 35:1 41:1 65:1 68:1 73:1 76:1 80:1 90:1 91:1 104:1 105:1 112:1 117:1 119:1 149:1 161:1 185:1 190:1 195:1 217:1 218:1 219:1 247:1 249:1 250:1 253:1 272:1 277:1 280:1 295:1 
-128 76:1 77:1 115:1 117:1 
-85.29485843334936 35:1 76:1 77:1 
-9.197009159331614 281:1 
-10.61377245037533 247:1 281:1 295:1 
-20.49690357764231 53:1 80:1 99:1 105:1 146:1 168:1 190:1 195:1 205:1 207:1 225:1 230:1 245:1 250:1 251:1 265:1 266:1 274:1 277:1 
-15.63298622698376 38:1 91:1 204:1 
-40.65254855892879 79:1 206:1 281:1 
-2.775936109751171 35:1 37:1 41:1 47:1 50:1 54:1 55:1 57:1 59:1 62:1 68:1 69:1 70:1 71:1 72:1 73:1 75:1 76:1 80:1 81:1 83:1 84:1 88:1 90:1 97:1 103:1 104:1 105:1 106:1 108:1 114:1 115:1 117:1 119:1 144:1 145:1 147:1 149:1 161:1 164:1 168:1 169:1 170:1 171:1 172:1 173:1 185:1 190:1 194:1 196:1 203:1 206:1 207:1 208:1 209:1 216:1 217:1 222:1 223:1 224:1 225:1 227:1 228:1 229:1 231:1 232:1 235:1 236:1 240:1 241:1 242:1 244:1 248:1 249:1 251:1 252:1 258:1 260:1 261:1 263:1 265:1 270:1 271:1 272:1 274:1 276:1 277:1 281:1 283:1 293:1 294:1 295:1 299:1 
-68.36816292160205 
-128 
-128 
-128 
-8.169989711208952 57:1 89:1 168:1 199:1 200:1 226:1 281:1 
-102.7745660591227 
-85.47500435523796 223:1 
-2.870096346632975 207:1 248:1 281:1 
-10.0751766057372 85:1 106:1 168:1 229:1 249:1 273:1 281:1 
-1.991797898386827 236:1 
-15.70807767674872 99:1 171:1 206:1 207:1 217:1 281:1 
