svm_type c_svc
kernel_type rbf
gamma 0.03125
nr_class 2
total_sv 764
rho -0.9401
label 1 -1
nr_sv 183 581
SV
2.671889694302639 35:1 37:1 38:1 114:1 147:1 156:1 185:1 196:1 203:1 204:1 217:1 238:1 290:1 291:1 299:1 
1.394538349576445 36:1 185:1 196:1 246:1 
0.7849850336572988 35:1 36:1 185:1 196:1 246:1 290:1 
8 36:1 37:1 109:1 117:1 185:1 196:1 203:1 
8 36:1 171:1 185:1 196:1 
8 290:1 291:1 
0.159620674646539 35:1 36:1 53:1 66:1 81:1 97:1 149:1 185:1 196:1 207:1 217:1 250:1 277:1 281:1 290:1 291:1 292:1 
0.1578827120342917 117:1 125:1 126:1 127:1 128:1 129:1 130:1 131:1 132:1 133:1 134:1 135:1 136:1 137:1 138:1 139:1 140:1 141:1 142:1 185:1 196:1 213:1 214:1 217:1 290:1 
0.4559131483908965 35:1 36:1 37:1 47:1 55:1 57:1 69:1 72:1 93:1 97:1 98:1 105:1 106:1 117:1 149:1 157:1 164:1 169:1 185:1 195:1 196:1 203:1 217:1 218:1 225:1 240:1 245:1 275:1 276:1 281:1 290:1 291:1 292:1 294:1 295:1 296:1 
1.481914737770191 36:1 55:1 87:1 161:1 164:1 185:1 196:1 206:1 207:1 217:1 228:1 250:1 290:1 291:1 
8 56:1 67:1 250:1 277:1 289:1 
3.223333224989846 56:1 67:1 117:1 277:1 289:1 
1.605497163346082 55:1 56:1 67:1 109:1 117:1 173:1 216:1 223:1 247:1 263:1 277:1 289:1 
3.25830011963078 56:1 67:1 97:1 117:1 247:1 277:1 289:1 
8 48:1 115:1 158:1 217:1 244:1 247:1 
0.7103692087010604 82:1 152:1 188:1 189:1 211:1 266:1 267:1 281:1 
2.230154414448473 47:1 82:1 152:1 188:1 189:1 211:1 266:1 267:1 281:1 
8 
8 
1.13868706377076 205:1 263:1 266:1 267:1 276:1 293:1 
8 
8 205:1 263:1 276:1 293:1 
8 54:1 99:1 225:1 247:1 266:1 274:1 
8 
8 99:1 207:1 208:1 225:1 
1.715420637418177 54:1 69:1 75:1 109:1 168:1 205:1 206:1 207:1 208:1 217:1 223:1 230:1 242:1 247:1 263:1 266:1 267:1 268:1 276:1 281:1 293:1 295:1 
0.6755881639115207 35:1 48:1 54:1 57:1 65:1 69:1 75:1 76:1 102:1 106:1 117:1 149:1 156:1 161:1 172:1 205:1 206:1 207:1 208:1 230:1 245:1 247:1 250:1 261:1 263:1 266:1 267:1 276:1 277:1 281:1 282:1 292:1 293:1 295:1 299:1 
7.366789833848448 38:1 107:1 204:1 205:1 207:1 247:1 263:1 266:1 276:1 293:1 299:1 
8 98:1 117:1 205:1 217:1 245:1 247:1 263:1 276:1 293:1 
8 
8 245:1 
8 54:1 63:1 98:1 212:1 251:1 
8 76:1 77:1 
5.271357419632852 63:1 64:1 71:1 206:1 217:1 251:1 
0.3043379668459991 38:1 55:1 57:1 63:1 64:1 69:1 71:1 84:1 99:1 117:1 149:1 171:1 204:1 207:1 217:1 225:1 226:1 233:1 251:1 275:1 292:1 
1.208413647031436 55:1 63:1 64:1 69:1 99:1 107:1 149:1 217:1 225:1 233:1 251:1 275:1 
5.459396691594893 38:1 63:1 64:1 204:1 217:1 251:1 
7.142263178042614 57:1 59:1 68:1 87:1 102:1 109:1 115:1 147:1 161:1 206:1 217:1 218:1 247:1 249:1 251:1 263:1 277:1 281:1 295:1 299:1 
3.114260211816342 65:1 80:1 88:1 108:1 117:1 168:1 218:1 219:1 220:1 231:1 248:1 249:1 258:1 263:1 281:1 295:1 
8 263:1 
8 35:1 76:1 
8 76:1 
8 76:1 223:1 
8 
8 76:1 
8 
4.772802842605195 47:1 219:1 220:1 221:1 227:1 263:1 272:1 295:1 298:1 
2.832592349231117 219:1 220:1 248:1 
5.148791917287906 216:1 219:1 220:1 247:1 248:1 263:1 265:1 
8 87:1 104:1 219:1 271:1 
8 115:1 171:1 219:1 
8 62:1 161:1 265:1 
0.2125450515450995 88:1 219:1 220:1 247:1 258:1 263:1 
3.252845170671818 50:1 54:1 106:1 108:1 149:1 168:1 171:1 206:1 207:1 212:1 219:1 220:1 228:1 230:1 248:1 258:1 261:1 298:1 
8 
1.152355184799558 35:1 47:1 68:1 73:1 98:1 102:1 117:1 153:1 197:1 198:1 199:1 200:1 201:1 202:1 216:1 247:1 250:1 263:1 270:1 277:1 278:1 299:1 
1.627697477587962 47:1 57:1 102:1 153:1 197:1 198:1 199:1 200:1 201:1 202:1 247:1 250:1 263:1 277:1 278:1 
0.04000352360812761 38:1 53:1 102:1 153:1 197:1 198:1 199:1 200:1 201:1 202:1 204:1 250:1 277:1 278:1 299:1 
0.712846309069189 38:1 53:1 75:1 153:1 197:1 198:1 199:1 200:1 201:1 202:1 204:1 277:1 278:1 
5.16612364125375 35:1 55:1 57:1 72:1 109:1 149:1 197:1 198:1 199:1 200:1 201:1 202:1 206:1 207:1 208:1 223:1 247:1 250:1 277:1 281:1 282:1 299:1 
8 
2.621072984689044 197:1 198:1 199:1 200:1 201:1 202:1 277:1 278:1 
3.492400136382734 35:1 38:1 57:1 98:1 99:1 117:1 118:1 151:1 161:1 190:1 191:1 196:1 204:1 216:1 217:1 225:1 243:1 247:1 250:1 263:1 269:1 276:1 277:1 299:1 
8 
8 263:1 295:1 
0.9422249915351387 54:1 65:1 69:1 83:1 90:1 106:1 149:1 168:1 190:1 191:1 192:1 207:1 217:1 229:1 230:1 231:1 245:1 247:1 250:1 258:1 263:1 282:1 
8 190:1 191:1 
6.737972644769997 37:1 65:1 75:1 81:1 117:1 168:1 190:1 191:1 203:1 223:1 263:1 277:1 281:1 
8 258:1 259:1 
8 38:1 55:1 57:1 190:1 204:1 211:1 
8 53:1 97:1 106:1 145:1 148:1 149:1 207:1 217:1 224:1 231:1 261:1 299:1 
1.708731805269754 53:1 55:1 65:1 192:1 217:1 224:1 235:1 237:1 
6.135304516636654 65:1 81:1 117:1 168:1 190:1 191:1 217:1 245:1 
1.352090043749257 45:1 54:1 65:1 87:1 88:1 144:1 170:1 190:1 191:1 192:1 206:1 217:1 231:1 249:1 260:1 263:1 277:1 295:1 298:1 299:1 
8 117:1 192:1 
8 
8 
8 
8 35:1 79:1 185:1 245:1 250:1 292:1 
4.708941312218521 35:1 115:1 149:1 185:1 186:1 238:1 247:1 263:1 
8 35:1 117:1 217:1 
6.401690430311224 48:1 99:1 156:1 185:1 206:1 225:1 250:1 281:1 292:1 
2.746086668076955 57:1 69:1 103:1 161:1 185:1 186:1 193:1 206:1 207:1 212:1 277:1 
1.532125809224509 57:1 68:1 84:1 104:1 164:1 165:1 185:1 186:1 206:1 212:1 223:1 
2.823872898714016 44:1 55:1 72:1 157:1 185:1 186:1 207:1 212:1 281:1 
0.8600371136148979 35:1 57:1 59:1 102:1 109:1 185:1 186:1 207:1 208:1 212:1 231:1 
2.659537275355104 35:1 55:1 185:1 186:1 194:1 212:1 293:1 
4.545525418735794 54:1 55:1 57:1 81:1 83:1 102:1 106:1 109:1 149:1 157:1 168:1 185:1 195:1 207:1 216:1 230:1 240:1 258:1 260:1 281:1 292:1 
5.282293999096282 78:1 185:1 186:1 207:1 250:1 
8 
2.138671975356885 39:1 75:1 76:1 77:1 106:1 116:1 149:1 150:1 168:1 196:1 205:1 206:1 207:1 229:1 249:1 255:1 263:1 273:1 281:1 
1.833888887429695 39:1 76:1 77:1 106:1 116:1 117:1 149:1 150:1 196:1 208:1 216:1 228:1 231:1 255:1 263:1 273:1 
1.657769447807614 39:1 76:1 77:1 116:1 148:1 150:1 196:1 255:1 263:1 273:1 277:1 
8 112:1 113:1 
8 
1.580747399085688 49:1 159:1 
7.375480769045232 49:1 57:1 115:1 159:1 
8 49:1 57:1 115:1 159:1 
8 79:1 
8 38:1 112:1 117:1 204:1 248:1 293:1 
8 98:1 
8 
8 112:1 113:1 117:1 248:1 293:1 
8 250:1 281:1 
8 105:1 173:1 183:1 223:1 245:1 277:1 
8 105:1 117:1 173:1 183:1 223:1 245:1 277:1 
6.918017924438931 98:1 102:1 105:1 173:1 183:1 223:1 245:1 272:1 277:1 
8 53:1 105:1 207:1 282:1 
8 105:1 168:1 
8 53:1 105:1 207:1 282:1 
8 105:1 173:1 183:1 223:1 245:1 277:1 
8 57:1 60:1 65:1 98:1 102:1 105:1 109:1 117:1 156:1 171:1 206:1 208:1 216:1 247:1 250:1 263:1 298:1 
8 55:1 65:1 84:1 91:1 98:1 105:1 115:1 117:1 168:1 183:1 207:1 222:1 242:1 250:1 
6.560437480022037 55:1 65:1 69:1 81:1 98:1 105:1 109:1 115:1 117:1 118:1 149:1 183:1 207:1 218:1 252:1 299:1 
4.838635928447091 55:1 65:1 75:1 98:1 105:1 115:1 171:1 172:1 183:1 207:1 244:1 252:1 298:1 
8 65:1 98:1 102:1 105:1 115:1 118:1 207:1 228:1 282:1 299:1 
8 173:1 174:1 223:1 
8 35:1 53:1 55:1 105:1 207:1 282:1 
8 35:1 53:1 55:1 105:1 207:1 282:1 
8 47:1 68:1 96:1 106:1 167:1 171:1 212:1 225:1 233:1 257:1 277:1 281:1 
6.378454099710816 35:1 68:1 96:1 167:1 190:1 206:1 212:1 216:1 233:1 249:1 257:1 277:1 281:1 293:1 
2.598784979825905 96:1 102:1 106:1 109:1 115:1 167:1 190:1 212:1 225:1 228:1 233:1 257:1 277:1 281:1 292:1 
7.830073480666196 41:1 55:1 96:1 107:1 161:1 167:1 171:1 206:1 207:1 212:1 225:1 233:1 252:1 257:1 260:1 277:1 281:1 
8 75:1 96:1 109:1 167:1 206:1 212:1 233:1 250:1 257:1 277:1 281:1 
3.970090885641994 38:1 73:1 96:1 117:1 144:1 167:1 171:1 204:1 207:1 212:1 225:1 233:1 248:1 257:1 277:1 281:1 
5.034669558594455 38:1 68:1 93:1 96:1 117:1 161:1 167:1 204:1 212:1 225:1 233:1 236:1 250:1 257:1 277:1 281:1 
5.866011111317813 39:1 76:1 107:1 149:1 150:1 161:1 162:1 196:1 226:1 245:1 250:1 263:1 
0.416000504895665 76:1 77:1 93:1 94:1 95:1 117:1 
5.934125377832506 62:1 93:1 95:1 117:1 166:1 247:1 
8 95:1 117:1 
8 95:1 117:1 
1.143285779255134 62:1 76:1 91:1 93:1 95:1 97:1 98:1 107:1 115:1 117:1 154:1 194:1 230:1 231:1 247:1 250:1 252:1 260:1 263:1 292:1 294:1 
8 95:1 117:1 
5.317729223572361 93:1 95:1 117:1 
5.360451335037015 93:1 95:1 117:1 
0.6331844827516915 35:1 76:1 77:1 93:1 94:1 95:1 117:1 151:1 160:1 166:1 182:1 215:1 230:1 234:1 247:1 250:1 262:1 264:1 300:1 
2.150000091277972 35:1 76:1 77:1 93:1 94:1 95:1 117:1 162:1 230:1 247:1 250:1 
2.943668832149121 76:1 77:1 93:1 94:1 95:1 115:1 117:1 162:1 230:1 250:1 
4.639635492453201 50:1 55:1 57:1 75:1 76:1 91:1 92:1 108:1 109:1 117:1 161:1 168:1 171:1 195:1 205:1 207:1 212:1 217:1 250:1 263:1 281:1 295:1 
2.598362733707424 48:1 57:1 76:1 77:1 86:1 91:1 92:1 98:1 99:1 115:1 117:1 149:1 207:1 212:1 217:1 225:1 230:1 247:1 272:1 274:1 275:1 281:1 
1.904633931672171 35:1 76:1 77:1 91:1 92:1 98:1 99:1 117:1 212:1 217:1 223:1 225:1 245:1 274:1 275:1 
8 38:1 76:1 91:1 212:1 263:1 277:1 295:1 
0.9555488734472329 44:1 47:1 57:1 76:1 81:1 91:1 92:1 99:1 161:1 212:1 217:1 225:1 230:1 233:1 247:1 250:1 263:1 274:1 275:1 277:1 278:1 281:1 
4.857184384839008 35:1 45:1 55:1 91:1 92:1 102:1 115:1 117:1 168:1 205:1 206:1 207:1 212:1 218:1 240:1 272:1 281:1 294:1 296:1 298:1 
7.079444326700537 91:1 92:1 161:1 205:1 212:1 263:1 295:1 296:1 
1.144087959395617 41:1 55:1 75:1 76:1 91:1 92:1 102:1 148:1 161:1 172:1 205:1 207:1 212:1 222:1 225:1 226:1 242:1 275:1 277:1 282:1 296:1 299:1 
3.993563905965662 35:1 41:1 44:1 47:1 76:1 91:1 92:1 106:1 117:1 148:1 207:1 212:1 217:1 225:1 227:1 275:1 277:1 296:1 298:1 
3.607391980480786 35:1 41:1 54:1 55:1 76:1 91:1 92:1 115:1 148:1 149:1 161:1 164:1 212:1 223:1 225:1 231:1 275:1 277:1 296:1 299:1 
8 73:1 205:1 
2.497691488051368 57:1 73:1 74:1 99:1 114:1 205:1 225:1 233:1 
8 73:1 74:1 
8 46:1 52:1 55:1 60:1 73:1 75:1 110:1 117:1 120:1 121:1 122:1 123:1 124:1 143:1 146:1 175:1 176:1 177:1 178:1 179:1 180:1 181:1 184:1 187:1 210:1 213:1 214:1 243:1 250:1 263:1 281:1 284:1 285:1 286:1 287:1 288:1 292:1 295:1 
8 73:1 74:1 205:1 250:1 281:1 
6.942619972113143 73:1 74:1 205:1 281:1 
8 73:1 76:1 205:1 
8 73:1 76:1 205:1 
8 35:1 73:1 76:1 205:1 
8 73:1 76:1 205:1 
8 73:1 76:1 205:1 
4.506830628877176 53:1 55:1 59:1 73:1 74:1 117:1 144:1 149:1 171:1 205:1 206:1 207:1 217:1 227:1 229:1 248:1 281:1 298:1 
8 73:1 74:1 81:1 106:1 205:1 250:1 
8 55:1 217:1 
3.017006776559112 35:1 48:1 61:1 62:1 99:1 205:1 225:1 232:1 233:1 237:1 245:1 251:1 253:1 274:1 277:1 281:1 
8 38:1 55:1 80:1 204:1 208:1 217:1 230:1 253:1 263:1 269:1 
5.711229365984247 35:1 41:1 68:1 69:1 73:1 75:1 76:1 90:1 106:1 117:1 149:1 190:1 217:1 248:1 253:1 254:1 281:1 295:1 
1.165576865464073 35:1 47:1 48:1 54:1 55:1 61:1 62:1 65:1 68:1 81:1 93:1 99:1 106:1 108:1 117:1 149:1 170:1 206:1 207:1 216:1 223:1 225:1 233:1 237:1 240:1 244:1 245:1 250:1 252:1 253:1 258:1 271:1 274:1 275:1 276:1 277:1 279:1 281:1 282:1 293:1 299:1 
8 68:1 75:1 106:1 108:1 149:1 195:1 206:1 217:1 240:1 253:1 281:1 292:1 295:1 
4.54201336975907 35:1 57:1 58:1 59:1 68:1 72:1 81:1 83:1 88:1 114:1 115:1 117:1 144:1 169:1 171:1 193:1 195:1 205:1 206:1 207:1 208:1 216:1 223:1 227:1 232:1 248:1 255:1 260:1 281:1 299:1 
7.024570368344661 35:1 55:1 58:1 62:1 68:1 69:1 155:1 205:1 207:1 223:1 252:1 272:1 273:1 
8 106:1 107:1 237:1 
8 44:1 55:1 69:1 106:1 223:1 235:1 
8 58:1 
8 58:1 
8 44:1 206:1 237:1 
8 42:1 43:1 
8 59:1 108:1 109:1 114:1 117:1 231:1 250:1 
0.2657866741953026 41:1 42:1 43:1 163:1 258:1 259:1 
7.789447567647696 42:1 43:1 
8 
8 281:1 
8 
8 217:1 
8 
-8 35:1 76:1 223:1 
-8 35:1 76:1 
-8 35:1 76:1 
-0.5319759980842627 46:1 55:1 68:1 70:1 72:1 73:1 75:1 81:1 109:1 110:1 114:1 117:1 118:1 120:1 121:1 122:1 123:1 124:1 143:1 146:1 156:1 161:1 175:1 176:1 177:1 178:1 179:1 180:1 181:1 184:1 187:1 206:1 207:1 210:1 213:1 214:1 247:1 250:1 263:1 265:1 277:1 281:1 284:1 285:1 286:1 287:1 288:1 
-0.6642757456728868 46:1 55:1 57:1 73:1 75:1 81:1 93:1 97:1 103:1 108:1 109:1 110:1 117:1 120:1 121:1 122:1 123:1 124:1 143:1 145:1 146:1 156:1 161:1 171:1 175:1 176:1 177:1 178:1 179:1 180:1 181:1 184:1 185:1 187:1 207:1 210:1 213:1 214:1 223:1 229:1 235:1 250:1 263:1 265:1 277:1 284:1 285:1 286:1 287:1 288:1 
-2.500162742715418 73:1 156:1 205:1 250:1 
-8 73:1 74:1 115:1 205:1 230:1 250:1 
-6.667675262082494 55:1 73:1 205:1 250:1 
-2.750614589476663 44:1 73:1 81:1 205:1 250:1 
-3.839705149227997 70:1 73:1 205:1 235:1 247:1 250:1 281:1 
-8 73:1 205:1 250:1 
-2.181657790367157 72:1 73:1 114:1 205:1 250:1 
-3.722098641772945 73:1 101:1 205:1 206:1 207:1 250:1 281:1 
-3.38516318118397 73:1 108:1 145:1 157:1 205:1 250:1 255:1 
-0.3983250417874041 69:1 73:1 97:1 109:1 115:1 205:1 250:1 
-8 55:1 250:1 292:1 
-0.8263411728397921 38:1 48:1 55:1 72:1 204:1 245:1 250:1 281:1 
-0.9023398511901427 35:1 47:1 48:1 55:1 57:1 62:1 65:1 66:1 68:1 73:1 76:1 80:1 91:1 102:1 105:1 107:1 108:1 109:1 115:1 117:1 157:1 158:1 161:1 171:1 190:1 197:1 206:1 207:1 208:1 219:1 222:1 223:1 225:1 226:1 227:1 240:1 247:1 250:1 258:1 263:1 269:1 270:1 277:1 279:1 292:1 298:1 299:1 
-8 55:1 73:1 74:1 197:1 205:1 243:1 250:1 
-8 73:1 
-1.222224077837655 46:1 52:1 60:1 73:1 75:1 110:1 117:1 120:1 121:1 122:1 123:1 124:1 143:1 146:1 175:1 176:1 177:1 178:1 179:1 180:1 181:1 184:1 187:1 210:1 213:1 214:1 243:1 250:1 263:1 284:1 285:1 286:1 287:1 288:1 
-3.174305688001076 190:1 191:1 197:1 208:1 232:1 243:1 247:1 263:1 
-7.056344282982672 48:1 57:1 106:1 190:1 191:1 197:1 207:1 247:1 263:1 
-0.889362261705211 46:1 52:1 60:1 73:1 75:1 110:1 117:1 120:1 121:1 122:1 123:1 124:1 143:1 146:1 165:1 175:1 176:1 177:1 178:1 179:1 180:1 181:1 184:1 187:1 210:1 213:1 214:1 216:1 219:1 243:1 250:1 263:1 277:1 284:1 285:1 286:1 287:1 288:1 
-0.6019989357691623 46:1 47:1 52:1 55:1 60:1 73:1 75:1 81:1 87:1 110:1 117:1 120:1 121:1 122:1 123:1 124:1 143:1 146:1 175:1 176:1 177:1 178:1 179:1 180:1 181:1 184:1 187:1 210:1 213:1 214:1 243:1 249:1 250:1 263:1 284:1 285:1 286:1 287:1 288:1 
-2.465771178345476 45:1 46:1 52:1 55:1 60:1 73:1 75:1 110:1 117:1 120:1 121:1 122:1 123:1 124:1 143:1 146:1 175:1 176:1 177:1 178:1 179:1 180:1 181:1 184:1 187:1 210:1 213:1 214:1 219:1 243:1 250:1 263:1 284:1 285:1 286:1 287:1 288:1 299:1 
-0.8846122272726314 46:1 52:1 60:1 68:1 73:1 75:1 110:1 117:1 120:1 121:1 122:1 123:1 124:1 143:1 146:1 175:1 176:1 177:1 178:1 179:1 180:1 181:1 184:1 187:1 190:1 207:1 210:1 213:1 214:1 243:1 250:1 263:1 284:1 285:1 286:1 287:1 288:1 
-2.35578050781212 46:1 52:1 60:1 73:1 75:1 76:1 93:1 110:1 112:1 117:1 120:1 121:1 122:1 123:1 124:1 143:1 146:1 171:1 175:1 176:1 177:1 178:1 179:1 180:1 181:1 184:1 187:1 210:1 213:1 214:1 219:1 243:1 247:1 250:1 263:1 284:1 285:1 286:1 287:1 288:1 
-0.7569843045538437 35:1 44:1 55:1 59:1 69:1 71:1 73:1 85:1 87:1 93:1 98:1 105:1 106:1 107:1 115:1 117:1 148:1 149:1 161:1 171:1 173:1 183:1 195:1 206:1 207:1 208:1 216:1 217:1 218:1 223:1 242:1 245:1 247:1 250:1 252:1 263:1 272:1 277:1 281:1 295:1 300:1 
-1.498723304081967 35:1 38:1 44:1 55:1 71:1 76:1 115:1 117:1 148:1 161:1 195:1 196:1 204:1 217:1 250:1 251:1 258:1 266:1 277:1 281:1 295:1 
-0.1794519787469431 41:1 73:1 105:1 115:1 117:1 148:1 161:1 183:1 190:1 225:1 250:1 275:1 277:1 281:1 
-3.074140198304116 48:1 73:1 81:1 99:1 102:1 115:1 117:1 148:1 161:1 207:1 223:1 225:1 250:1 266:1 274:1 276:1 277:1 281:1 
-2.02639475119868 38:1 39:1 48:1 55:1 57:1 76:1 105:1 112:1 115:1 117:1 148:1 151:1 161:1 171:1 190:1 204:1 205:1 206:1 207:1 223:1 230:1 247:1 250:1 251:1 252:1 266:1 277:1 281:1 
-3.306858145799188 35:1 39:1 41:1 57:1 68:1 73:1 75:1 91:1 105:1 109:1 112:1 173:1 190:1 222:1 223:1 225:1 233:1 251:1 260:1 274:1 275:1 
-1.093666131912972 47:1 51:1 55:1 57:1 59:1 62:1 68:1 72:1 83:1 97:1 98:1 102:1 105:1 109:1 115:1 156:1 169:1 171:1 172:1 206:1 207:1 216:1 217:1 223:1 227:1 248:1 253:1 260:1 263:1 277:1 281:1 282:1 298:1 
-0.4304184636784917 51:1 55:1 76:1 83:1 206:1 207:1 216:1 250:1 263:1 277:1 298:1 
-0.6865172455753294 51:1 55:1 63:1 69:1 83:1 102:1 109:1 115:1 206:1 207:1 208:1 217:1 250:1 252:1 298:1 
-1.740890187807632 35:1 37:1 38:1 57:1 147:1 203:1 204:1 217:1 247:1 263:1 281:1 292:1 
-1.949206900440965 247:1 252:1 263:1 295:1 
-2.385130800199839 247:1 
-1.796645994666113 47:1 76:1 88:1 91:1 107:1 206:1 207:1 226:1 230:1 232:1 247:1 263:1 298:1 
-0.6035587956881299 277:1 
-6.056048188534884 57:1 63:1 156:1 228:1 
-0.6998871415906335 115:1 277:1 
-0.0237811456174906 57:1 60:1 96:1 105:1 107:1 205:1 247:1 250:1 263:1 
-7.414919152351398 98:1 105:1 115:1 117:1 247:1 252:1 282:1 
-3.431192326021906 75:1 98:1 105:1 222:1 272:1 276:1 280:1 298:1 
-0.1555231192489002 55:1 69:1 71:1 83:1 98:1 105:1 117:1 154:1 161:1 206:1 207:1 252:1 282:1 
-1.116875765232189 98:1 105:1 154:1 206:1 207:1 298:1 
-2.37557786142698 98:1 105:1 117:1 172:1 206:1 226:1 
-8 263:1 
-8 65:1 105:1 207:1 263:1 
-8 173:1 174:1 223:1 263:1 
-7.13321354386683 244:1 
-8 105:1 173:1 183:1 223:1 245:1 277:1 
-3.417677422942761 35:1 54:1 55:1 65:1 76:1 105:1 148:1 161:1 168:1 173:1 183:1 223:1 245:1 250:1 263:1 277:1 279:1 281:1 295:1 
-5.752387288932984 38:1 57:1 60:1 65:1 98:1 105:1 107:1 109:1 117:1 164:1 183:1 204:1 263:1 295:1 
-5.545377697002908 173:1 174:1 223:1 
-8 35:1 53:1 55:1 105:1 207:1 282:1 
-8 35:1 53:1 105:1 207:1 282:1 
-2.635705093971911 35:1 53:1 105:1 207:1 282:1 
-2.905971330609125 205:1 295:1 
-0.1685581718580306 35:1 54:1 55:1 57:1 59:1 62:1 75:1 102:1 104:1 117:1 171:1 205:1 207:1 217:1 223:1 225:1 272:1 273:1 281:1 
-0.8749841760518831 57:1 117:1 217:1 235:1 298:1 
-0.5516789183949906 35:1 65:1 68:1 75:1 76:1 80:1 83:1 87:1 88:1 93:1 103:1 106:1 114:1 118:1 148:1 149:1 170:1 172:1 183:1 196:1 229:1 240:1 242:1 244:1 248:1 249:1 271:1 272:1 276:1 277:1 281:1 
-1.271902203298164 75:1 172:1 206:1 239:1 281:1 
-7.327350024263065 99:1 248:1 
-0.6373274514598226 54:1 108:1 194:1 242:1 272:1 273:1 
-1.131454252510067 45:1 55:1 65:1 68:1 76:1 77:1 80:1 88:1 103:1 107:1 117:1 144:1 149:1 154:1 155:1 158:1 171:1 194:1 196:1 206:1 208:1 217:1 230:1 232:1 248:1 258:1 263:1 272:1 281:1 292:1 295:1 
-0.1347131009025775 35:1 38:1 44:1 50:1 54:1 55:1 57:1 62:1 69:1 76:1 77:1 81:1 83:1 89:1 102:1 106:1 107:1 109:1 115:1 117:1 118:1 119:1 154:1 155:1 161:1 165:1 168:1 171:1 204:1 206:1 207:1 208:1 222:1 223:1 231:1 235:1 236:1 240:1 252:1 263:1 269:1 272:1 273:1 277:1 294:1 
-0.427108319823864 35:1 37:1 38:1 45:1 50:1 53:1 54:1 55:1 57:1 59:1 62:1 68:1 69:1 71:1 75:1 78:1 81:1 83:1 85:1 87:1 89:1 97:1 102:1 103:1 104:1 106:1 107:1 108:1 109:1 115:1 117:1 118:1 119:1 144:1 148:1 149:1 154:1 155:1 156:1 157:1 158:1 161:1 164:1 165:1 168:1 169:1 171:1 172:1 193:1 196:1 203:1 204:1 206:1 207:1 208:1 216:1 217:1 221:1 223:1 225:1 227:1 231:1 232:1 235:1 236:1 241:1 242:1 245:1 247:1 248:1 249:1 250:1 252:1 253:1 269:1 271:1 272:1 273:1 274:1 275:1 281:1 282:1 283:1 294:1 298:1 
-0.005820660991802909 35:1 37:1 38:1 45:1 50:1 53:1 54:1 55:1 57:1 62:1 68:1 69:1 75:1 78:1 81:1 83:1 88:1 89:1 93:1 97:1 102:1 104:1 106:1 107:1 108:1 109:1 117:1 118:1 119:1 148:1 149:1 154:1 158:1 161:1 164:1 169:1 171:1 172:1 193:1 203:1 204:1 205:1 206:1 207:1 208:1 216:1 217:1 225:1 227:1 231:1 232:1 235:1 241:1 242:1 247:1 248:1 249:1 252:1 258:1 261:1 271:1 272:1 274:1 275:1 281:1 282:1 283:1 
-0.05196426673958988 37:1 38:1 45:1 50:1 54:1 55:1 57:1 59:1 62:1 68:1 69:1 70:1 71:1 75:1 78:1 80:1 81:1 83:1 89:1 90:1 97:1 101:1 102:1 104:1 106:1 107:1 108:1 109:1 114:1 115:1 117:1 118:1 119:1 144:1 148:1 149:1 154:1 155:1 156:1 157:1 164:1 165:1 169:1 171:1 193:1 194:1 196:1 203:1 204:1 206:1 207:1 208:1 217:1 221:1 223:1 225:1 227:1 231:1 235:1 236:1 241:1 242:1 248:1 249:1 250:1 252:1 258:1 261:1 271:1 272:1 274:1 275:1 277:1 281:1 282:1 283:1 294:1 298:1 299:1 
-0.1128578932774304 117:1 212:1 
-0.08479275290176601 35:1 44:1 45:1 50:1 54:1 55:1 57:1 59:1 62:1 69:1 70:1 71:1 72:1 75:1 81:1 83:1 85:1 97:1 104:1 106:1 107:1 108:1 109:1 114:1 115:1 117:1 118:1 119:1 144:1 147:1 149:1 154:1 156:1 161:1 165:1 168:1 169:1 171:1 172:1 193:1 194:1 206:1 207:1 208:1 216:1 217:1 218:1 221:1 222:1 223:1 224:1 225:1 226:1 231:1 235:1 236:1 240:1 242:1 248:1 249:1 252:1 258:1 265:1 272:1 273:1 281:1 282:1 283:1 294:1 295:1 298:1 
-0.1284669836304894 151:1 
-1.280131946357842 37:1 38:1 117:1 118:1 149:1 152:1 171:1 188:1 196:1 206:1 217:1 271:1 282:1 298:1 
-0.01944759179833166 35:1 45:1 47:1 50:1 55:1 59:1 69:1 81:1 102:1 106:1 107:1 108:1 109:1 117:1 118:1 119:1 144:1 149:1 157:1 158:1 161:1 168:1 169:1 171:1 206:1 207:1 208:1 217:1 221:1 225:1 231:1 232:1 241:1 244:1 245:1 248:1 249:1 252:1 258:1 261:1 271:1 272:1 281:1 298:1 299:1 
-3.974456372135301 55:1 67:1 89:1 117:1 118:1 217:1 272:1 277:1 
-1.777509304496656 54:1 109:1 231:1 
-3.106493286972192 118:1 147:1 205:1 263:1 269:1 
-1.663246486408273 38:1 55:1 69:1 107:1 117:1 204:1 205:1 207:1 227:1 231:1 271:1 
-0.3094628322451665 117:1 225:1 227:1 
-1.067775749632994 37:1 38:1 59:1 70:1 80:1 108:1 116:1 117:1 155:1 203:1 204:1 205:1 208:1 227:1 247:1 248:1 263:1 269:1 
-0.5429561471949745 37:1 38:1 69:1 149:1 203:1 204:1 205:1 245:1 
-0.4647589918739837 44:1 45:1 55:1 68:1 69:1 70:1 117:1 149:1 216:1 225:1 231:1 232:1 241:1 245:1 248:1 258:1 269:1 272:1 299:1 
-2.594888465928135 69:1 281:1 
-4.050464400016409 59:1 245:1 248:1 270:1 
-1.797606185278106 53:1 107:1 171:1 194:1 248:1 281:1 298:1 
-8 205:1 281:1 
-0.3594208447761298 35:1 54:1 69:1 76:1 85:1 98:1 106:1 149:1 206:1 217:1 221:1 250:1 252:1 272:1 276:1 293:1 
-1.524903711927683 45:1 54:1 76:1 149:1 161:1 217:1 281:1 
-0.2642673481039283 38:1 47:1 69:1 84:1 85:1 87:1 115:1 145:1 155:1 164:1 165:1 205:1 216:1 245:1 248:1 261:1 269:1 281:1 
-1.607967652249365 47:1 57:1 68:1 69:1 84:1 85:1 155:1 161:1 171:1 219:1 226:1 247:1 250:1 263:1 271:1 272:1 281:1 282:1 299:1 
-1.79545228383254 84:1 147:1 231:1 248:1 299:1 
-0.1942678359952909 50:1 68:1 70:1 75:1 84:1 97:1 102:1 104:1 117:1 149:1 228:1 231:1 245:1 248:1 271:1 272:1 281:1 
-2.076391630694298 36:1 
-0.1272104562642215 59:1 71:1 83:1 106:1 117:1 149:1 161:1 207:1 221:1 222:1 231:1 245:1 248:1 249:1 272:1 273:1 
-0.7536064125813563 83:1 
-2.539901526307456 55:1 117:1 156:1 158:1 207:1 211:1 217:1 244:1 271:1 281:1 
-8 75:1 76:1 91:1 117:1 217:1 
-1.680142076871812 168:1 183:1 241:1 281:1 
-3.908945677534382 38:1 204:1 248:1 
-0.06778168892336253 35:1 53:1 65:1 68:1 75:1 103:1 104:1 115:1 118:1 161:1 170:1 229:1 240:1 248:1 249:1 263:1 271:1 272:1 295:1 
-0.05217112425410959 35:1 53:1 55:1 65:1 68:1 103:1 104:1 108:1 115:1 118:1 149:1 170:1 217:1 229:1 240:1 241:1 248:1 249:1 263:1 271:1 272:1 295:1 298:1 
-0.1911912972304994 35:1 44:1 54:1 55:1 68:1 75:1 76:1 89:1 106:1 115:1 117:1 161:1 169:1 171:1 185:1 197:1 205:1 206:1 207:1 216:1 218:1 241:1 245:1 247:1 265:1 272:1 282:1 
-0.1208098238740788 35:1 44:1 50:1 62:1 65:1 68:1 75:1 76:1 90:1 104:1 108:1 115:1 117:1 119:1 149:1 161:1 195:1 217:1 218:1 240:1 241:1 242:1 248:1 249:1 258:1 261:1 263:1 271:1 272:1 281:1 293:1 295:1 
-5.001450495966034 44:1 
-7.86367181255808 218:1 258:1 259:1 
-0.904900932270172 35:1 68:1 76:1 108:1 117:1 118:1 281:1 294:1 
-2.079896100766638 59:1 68:1 117:1 155:1 206:1 281:1 
-0.6576237041506529 59:1 109:1 114:1 115:1 171:1 206:1 207:1 250:1 253:1 281:1 298:1 
-0.7446895698199563 55:1 76:1 78:1 87:1 207:1 231:1 239:1 252:1 269:1 283:1 298:1 
-8 57:1 112:1 148:1 185:1 250:1 277:1 295:1 
-8 55:1 208:1 237:1 
-3.194005576743483 35:1 71:1 98:1 104:1 185:1 206:1 207:1 222:1 227:1 281:1 295:1 297:1 298:1 
-4.255523575910475 44:1 68:1 106:1 108:1 195:1 207:1 217:1 231:1 
-0.6616268421002451 35:1 62:1 68:1 73:1 76:1 99:1 114:1 115:1 117:1 149:1 188:1 205:1 208:1 217:1 218:1 249:1 272:1 294:1 295:1 
-3.414087151379602 240:1 
-0.066065851289533 45:1 53:1 54:1 57:1 59:1 62:1 66:1 68:1 75:1 81:1 87:1 88:1 89:1 93:1 104:1 106:1 108:1 115:1 117:1 118:1 119:1 144:1 148:1 149:1 155:1 156:1 161:1 168:1 170:1 171:1 195:1 207:1 208:1 217:1 218:1 221:1 222:1 223:1 232:1 237:1 240:1 241:1 242:1 244:1 245:1 249:1 250:1 258:1 261:1 265:1 266:1 269:1 271:1 272:1 273:1 277:1 281:1 294:1 295:1 298:1 
-0.0475127966164914 59:1 108:1 115:1 171:1 195:1 207:1 217:1 
-0.6961389729651521 55:1 76:1 81:1 98:1 109:1 171:1 206:1 207:1 226:1 281:1 
-0.07220612212260449 35:1 44:1 45:1 50:1 51:1 54:1 55:1 57:1 59:1 69:1 70:1 71:1 72:1 75:1 79:1 81:1 83:1 87:1 88:1 90:1 102:1 106:1 107:1 108:1 109:1 115:1 144:1 145:1 146:1 148:1 149:1 154:1 156:1 161:1 165:1 168:1 169:1 170:1 171:1 193:1 195:1 196:1 206:1 207:1 208:1 216:1 217:1 222:1 223:1 226:1 227:1 228:1 230:1 231:1 239:1 247:1 248:1 249:1 250:1 260:1 261:1 269:1 280:1 281:1 282:1 298:1 299:1 
-0.06650788424247438 35:1 37:1 38:1 47:1 53:1 54:1 55:1 57:1 66:1 75:1 80:1 81:1 85:1 87:1 88:1 97:1 108:1 144:1 149:1 169:1 195:1 196:1 203:1 204:1 207:1 208:1 218:1 219:1 221:1 222:1 223:1 230:1 235:1 240:1 252:1 261:1 281:1 282:1 295:1 298:1 299:1 
-0.3876931873128286 44:1 45:1 53:1 54:1 55:1 57:1 59:1 66:1 69:1 71:1 75:1 76:1 102:1 106:1 109:1 115:1 117:1 144:1 146:1 148:1 149:1 154:1 161:1 164:1 168:1 171:1 193:1 194:1 195:1 196:1 206:1 207:1 208:1 216:1 217:1 218:1 223:1 226:1 227:1 231:1 232:1 235:1 237:1 239:1 247:1 248:1 252:1 260:1 261:1 263:1 265:1 269:1 277:1 281:1 282:1 295:1 298:1 299:1 
-0.1066733841683009 35:1 38:1 54:1 57:1 65:1 68:1 69:1 70:1 72:1 75:1 84:1 88:1 90:1 103:1 104:1 106:1 107:1 108:1 114:1 117:1 146:1 147:1 149:1 164:1 168:1 169:1 170:1 172:1 190:1 195:1 207:1 212:1 217:1 221:1 225:1 228:1 230:1 240:1 242:1 244:1 248:1 249:1 250:1 252:1 255:1 260:1 261:1 263:1 269:1 270:1 271:1 272:1 274:1 277:1 280:1 281:1 294:1 295:1 
-0.1024156638401898 37:1 38:1 45:1 50:1 54:1 57:1 59:1 68:1 69:1 72:1 75:1 84:1 87:1 88:1 89:1 97:1 104:1 107:1 108:1 114:1 115:1 117:1 144:1 145:1 147:1 149:1 154:1 158:1 164:1 165:1 169:1 170:1 172:1 193:1 194:1 195:1 196:1 203:1 204:1 206:1 207:1 208:1 216:1 223:1 226:1 227:1 228:1 231:1 232:1 236:1 239:1 240:1 242:1 245:1 248:1 249:1 252:1 258:1 260:1 261:1 269:1 270:1 271:1 280:1 281:1 282:1 298:1 299:1 
-0.04669650083227987 79:1 
-0.2699165163312695 55:1 195:1 233:1 242:1 280:1 
-0.1351641741155065 35:1 38:1 99:1 108:1 158:1 171:1 204:1 205:1 237:1 255:1 256:1 260:1 
-1.129199741855951 38:1 68:1 108:1 171:1 204:1 205:1 255:1 256:1 
-2.858731627991399 53:1 79:1 148:1 217:1 245:1 248:1 249:1 
-0.01844456201017031 171:1 208:1 
-1.580381752724977 171:1 208:1 
-0.3459732497179538 38:1 45:1 55:1 171:1 205:1 248:1 
-0.6200849062711575 103:1 117:1 144:1 171:1 183:1 205:1 207:1 217:1 222:1 223:1 227:1 242:1 261:1 
-0.04572152879299907 84:1 170:1 242:1 248:1 
-0.03978379853783515 35:1 37:1 38:1 44:1 50:1 54:1 55:1 57:1 59:1 68:1 69:1 75:1 78:1 79:1 80:1 84:1 85:1 87:1 88:1 97:1 102:1 103:1 107:1 108:1 109:1 115:1 144:1 145:1 146:1 147:1 149:1 154:1 156:1 157:1 158:1 161:1 164:1 165:1 168:1 169:1 170:1 171:1 193:1 194:1 195:1 196:1 203:1 206:1 207:1 208:1 216:1 217:1 221:1 222:1 223:1 226:1 227:1 228:1 229:1 231:1 232:1 240:1 242:1 244:1 247:1 248:1 249:1 252:1 253:1 258:1 260:1 261:1 269:1 270:1 271:1 280:1 281:1 282:1 283:1 298:1 299:1 
-0.4754847930001539 79:1 
-0.0505953648880746 37:1 38:1 45:1 47:1 50:1 54:1 57:1 59:1 68:1 70:1 72:1 75:1 78:1 79:1 81:1 84:1 85:1 88:1 97:1 102:1 103:1 104:1 106:1 107:1 108:1 109:1 114:1 115:1 117:1 144:1 145:1 147:1 148:1 149:1 154:1 155:1 156:1 157:1 158:1 161:1 164:1 165:1 168:1 169:1 170:1 171:1 172:1 193:1 194:1 203:1 204:1 205:1 206:1 207:1 208:1 216:1 217:1 218:1 221:1 223:1 226:1 227:1 228:1 229:1 230:1 231:1 232:1 235:1 236:1 239:1 240:1 242:1 244:1 245:1 247:1 248:1 249:1 250:1 252:1 253:1 260:1 261:1 269:1 270:1 271:1 272:1 281:1 282:1 294:1 298:1 299:1 
-0.3357385169844853 37:1 38:1 45:1 47:1 50:1 51:1 54:1 57:1 59:1 62:1 66:1 68:1 69:1 71:1 72:1 75:1 78:1 79:1 80:1 81:1 83:1 84:1 85:1 87:1 88:1 90:1 97:1 102:1 103:1 106:1 107:1 108:1 109:1 114:1 115:1 117:1 118:1 144:1 145:1 147:1 149:1 154:1 155:1 156:1 157:1 158:1 161:1 164:1 165:1 168:1 169:1 170:1 171:1 172:1 193:1 194:1 196:1 203:1 204:1 205:1 206:1 207:1 208:1 216:1 217:1 219:1 221:1 222:1 223:1 226:1 227:1 228:1 229:1 231:1 232:1 235:1 236:1 239:1 240:1 242:1 244:1 245:1 247:1 248:1 249:1 250:1 252:1 258:1 260:1 261:1 269:1 270:1 271:1 272:1 280:1 281:1 282:1 283:1 294:1 295:1 298:1 299:1 
-5.536152738091644 47:1 50:1 55:1 206:1 207:1 217:1 292:1 
-0.879933489052619 55:1 71:1 144:1 171:1 207:1 217:1 222:1 231:1 261:1 282:1 292:1 295:1 298:1 299:1 
-1.435494396083605 293:1 
-8 38:1 56:1 117:1 168:1 204:1 245:1 
-1.598310432791474 69:1 106:1 248:1 
-1.556711426632147 38:1 54:1 65:1 147:1 149:1 171:1 204:1 206:1 207:1 212:1 226:1 227:1 228:1 229:1 231:1 248:1 249:1 281:1 282:1 298:1 299:1 
-2.105079833035751 105:1 
-2.194889298558535 48:1 57:1 62:1 68:1 72:1 76:1 93:1 94:1 95:1 115:1 117:1 149:1 168:1 244:1 263:1 
-5.443478628473604 75:1 88:1 93:1 95:1 106:1 117:1 119:1 149:1 249:1 265:1 272:1 
-6.765518212643286 104:1 105:1 107:1 117:1 157:1 173:1 183:1 212:1 223:1 277:1 
-6.772459880459221 78:1 96:1 106:1 117:1 167:1 207:1 212:1 216:1 233:1 257:1 277:1 281:1 
-0.581650176306996 35:1 41:1 47:1 55:1 57:1 59:1 62:1 68:1 73:1 76:1 81:1 88:1 91:1 93:1 99:1 105:1 112:1 117:1 144:1 161:1 168:1 169:1 170:1 190:1 206:1 207:1 208:1 230:1 247:1 250:1 260:1 263:1 276:1 277:1 281:1 293:1 295:1 
-3.6184821889102 80:1 149:1 168:1 171:1 173:1 205:1 207:1 219:1 223:1 247:1 281:1 299:1 
-0.05363729702610733 80:1 97:1 109:1 168:1 171:1 205:1 206:1 207:1 223:1 224:1 235:1 237:1 252:1 281:1 299:1 
-1.011035478474729 72:1 106:1 107:1 196:1 206:1 207:1 
-3.337631373757053 212:1 
-0.04855350747234023 3:1 4:1 5:1 6:1 13:1 17:1 21:1 23:1 32:1 
-1.759333882656393 35:1 51:1 55:1 59:1 65:1 69:1 72:1 98:1 102:1 103:1 109:1 114:1 115:1 149:1 190:1 206:1 207:1 208:1 252:1 255:1 261:1 281:1 282:1 295:1 
-1.104494636818424 91:1 
-0.03261449283749175 7:1 8:1 18:1 19:1 22:1 24:1 27:1 32:1 
-0.005841801966610351 1:1 3:1 4:1 11:1 13:1 14:1 16:1 17:1 18:1 19:1 20:1 22:1 25:1 26:1 27:1 
-0.01755744237773663 3:1 5:1 7:1 8:1 13:1 14:1 17:1 18:1 19:1 20:1 22:1 27:1 29:1 31:1 32:1 33:1 
-0.01772491068920811 2:1 3:1 8:1 10:1 14:1 15:1 21:1 23:1 30:1 31:1 34:1 
-0.0006681577384056868 2:1 3:1 6:1 8:1 10:1 14:1 16:1 19:1 21:1 22:1 23:1 24:1 29:1 30:1 
-0.01002553543510835 3:1 4:1 6:1 17:1 28:1 30:1 32:1 
-0.001695062162938375 15:1 18:1 20:1 25:1 34:1 
-0.002463517428558703 1:1 6:1 8:1 9:1 11:1 12:1 13:1 14:1 16:1 18:1 19:1 20:1 22:1 26:1 27:1 31:1 32:1 34:1 
-0.01182798009023297 1:1 2:1 3:1 16:1 17:1 18:1 21:1 30:1 31:1 
-0.03792584562987459 1:1 2:1 3:1 4:1 5:1 6:1 7:1 8:1 11:1 12:1 13:1 14:1 15:1 16:1 17:1 18:1 19:1 20:1 22:1 23:1 24:1 25:1 26:1 29:1 30:1 31:1 32:1 33:1 
-0.007552975759624303 3:1 6:1 10:1 12:1 16:1 17:1 19:1 20:1 25:1 29:1 30:1 32:1 33:1 34:1 
-0.00566542724027763 3:1 6:1 17:1 20:1 25:1 27:1 30:1 32:1 
-0.01591490913118398 3:1 5:1 6:1 7:1 8:1 10:1 12:1 13:1 16:1 17:1 18:1 19:1 20:1 24:1 25:1 30:1 31:1 33:1 34:1 
-0.00450444691538609 3:1 6:1 7:1 17:1 18:1 20:1 25:1 26:1 29:1 30:1 31:1 32:1 
-0.0037523091695608 3:1 6:1 17:1 18:1 26:1 30:1 34:1 
-0.03157705188591187 1:1 5:1 6:1 9:1 10:1 12:1 13:1 14:1 15:1 18:1 20:1 21:1 23:1 24:1 27:1 28:1 
-0.01455894696934471 1:1 5:1 6:1 9:1 10:1 12:1 13:1 14:1 19:1 20:1 21:1 23:1 24:1 25:1 28:1 29:1 
-0.01547643021862395 1:1 5:1 6:1 9:1 10:1 12:1 13:1 14:1 15:1 18:1 19:1 20:1 21:1 23:1 24:1 25:1 28:1 29:1 
-0.05019645582299401 1:1 2:1 3:1 5:1 9:1 10:1 12:1 14:1 15:1 17:1 21:1 23:1 24:1 28:1 29:1 30:1 
-0.03137174673218286 3:1 5:1 6:1 9:1 10:1 12:1 14:1 16:1 17:1 18:1 19:1 20:1 21:1 22:1 23:1 27:1 28:1 32:1 
-0.00326294930390704 5:1 7:1 8:1 12:1 13:1 14:1 16:1 19:1 20:1 21:1 22:1 23:1 24:1 30:1 
-0.01909873757989938 7:1 12:1 13:1 14:1 19:1 20:1 21:1 22:1 23:1 24:1 25:1 26:1 
-0.006349617314808407 3:1 5:1 7:1 12:1 14:1 17:1 19:1 20:1 21:1 23:1 28:1 31:1 32:1 
-0.02111010856537033 1:1 8:1 10:1 11:1 12:1 13:1 14:1 15:1 16:1 20:1 21:1 23:1 25:1 27:1 28:1 32:1 33:1 34:1 
-0.05238013626759393 3:1 5:1 6:1 8:1 9:1 11:1 15:1 16:1 17:1 22:1 24:1 25:1 29:1 30:1 31:1 
-0.02831888632633035 1:1 3:1 6:1 10:1 11:1 13:1 16:1 17:1 21:1 22:1 24:1 27:1 30:1 
-0.02672956322112228 1:1 3:1 4:1 5:1 8:1 9:1 10:1 11:1 13:1 16:1 17:1 18:1 20:1 21:1 23:1 24:1 28:1 30:1 31:1 32:1 33:1 34:1 
-0.01511365700088345 4:1 20:1 21:1 25:1 26:1 30:1 33:1 
-0.05458822052397144 2:1 3:1 4:1 7:1 9:1 10:1 13:1 14:1 15:1 16:1 18:1 19:1 21:1 22:1 24:1 25:1 26:1 27:1 29:1 30:1 32:1 33:1 
-0.01105594279260878 1:1 3:1 6:1 7:1 10:1 11:1 12:1 13:1 15:1 17:1 18:1 19:1 20:1 23:1 24:1 25:1 28:1 29:1 30:1 31:1 32:1 33:1 
-0.002599666100639149 3:1 5:1 6:1 7:1 8:1 10:1 12:1 13:1 16:1 17:1 18:1 19:1 20:1 21:1 22:1 25:1 26:1 27:1 28:1 34:1 
-0.04314988459311129 2:1 4:1 5:1 6:1 8:1 9:1 11:1 13:1 14:1 16:1 20:1 26:1 29:1 33:1 34:1 
-0.04511369220653759 2:1 3:1 4:1 7:1 8:1 10:1 13:1 14:1 16:1 17:1 20:1 24:1 28:1 30:1 
-0.009095577065770143 1:1 4:1 6:1 9:1 16:1 25:1 27:1 32:1 34:1 
-0.01835295969166266 1:1 3:1 4:1 7:1 9:1 11:1 12:1 14:1 15:1 16:1 17:1 18:1 19:1 20:1 21:1 22:1 24:1 25:1 26:1 27:1 28:1 29:1 30:1 32:1 33:1 34:1 
-0.03994992252116161 1:1 4:1 7:1 9:1 10:1 11:1 12:1 13:1 14:1 15:1 16:1 18:1 19:1 21:1 24:1 25:1 28:1 29:1 30:1 31:1 32:1 33:1 34:1 
-0.029889400337525 9:1 11:1 15:1 22:1 28:1 32:1 
-0.02097336234280765 4:1 7:1 20:1 22:1 24:1 25:1 33:1 34:1 
-0.01027993164225781 29:1 
-0.009022172691293818 2:1 24:1 32:1 33:1 
-0.02020758816076357 4:1 12:1 13:1 16:1 18:1 20:1 22:1 23:1 33:1 
-0.00498392437712549 2:1 4:1 5:1 7:1 9:1 10:1 12:1 15:1 16:1 18:1 19:1 20:1 25:1 26:1 33:1 34:1 
-0.01631541695048908 2:1 4:1 18:1 33:1 
-0.03150424421850438 4:1 7:1 8:1 10:1 13:1 19:1 23:1 31:1 33:1 34:1 
-0.02551000565109254 18:1 19:1 22:1 23:1 25:1 28:1 
-0.01980066898112754 5:1 7:1 12:1 23:1 26:1 29:1 34:1 
-0.006858478629524294 14:1 22:1 23:1 
-0.003169546211248364 8:1 12:1 14:1 18:1 19:1 20:1 23:1 25:1 26:1 27:1 28:1 32:1 34:1 
-0.02650618750815254 2:1 6:1 24:1 31:1 34:1 
-0.008212183934213503 2:1 10:1 26:1 
-0.01535840771315805 4:1 11:1 12:1 27:1 
-0.004864205830556746 4:1 6:1 21:1 31:1 
-0.02842774165570962 4:1 19:1 26:1 27:1 29:1 31:1 
-0.01973375255078931 2:1 3:1 6:1 11:1 12:1 13:1 18:1 19:1 28:1 29:1 
-0.01114277538170836 2:1 3:1 5:1 6:1 11:1 12:1 14:1 21:1 27:1 33:1 
-0.05703025239879298 1:1 5:1 8:1 9:1 11:1 12:1 13:1 15:1 18:1 19:1 20:1 21:1 22:1 24:1 26:1 27:1 29:1 30:1 31:1 32:1 33:1 34:1 
-0.02174525131006005 1:1 3:1 6:1 7:1 8:1 10:1 17:1 21:1 23:1 29:1 32:1 34:1 
-0.006266631098630212 1:1 3:1 6:1 7:1 8:1 10:1 17:1 21:1 23:1 29:1 32:1 34:1 
-0.05638975581558892 2:1 4:1 5:1 7:1 8:1 9:1 10:1 11:1 13:1 16:1 21:1 22:1 23:1 25:1 29:1 31:1 32:1 33:1 34:1 
-0.005866490697637997 3:1 4:1 6:1 7:1 9:1 10:1 11:1 15:1 17:1 19:1 20:1 21:1 23:1 28:1 32:1 34:1 
-0.07220072922025465 1:1 2:1 3:1 4:1 5:1 7:1 8:1 9:1 12:1 14:1 16:1 17:1 19:1 20:1 22:1 24:1 25:1 27:1 28:1 29:1 31:1 33:1 34:1 
-0.0257974145116929 2:1 3:1 4:1 11:1 14:1 15:1 16:1 17:1 20:1 22:1 25:1 27:1 33:1 
-0.003885096123327227 1:1 4:1 8:1 15:1 16:1 21:1 
-0.04786278708197036 1:1 4:1 8:1 11:1 19:1 21:1 25:1 28:1 29:1 30:1 
-0.002138895374860494 3:1 4:1 7:1 8:1 11:1 15:1 22:1 28:1 
-0.01941870620531364 1:1 3:1 6:1 10:1 11:1 15:1 17:1 18:1 23:1 24:1 27:1 29:1 33:1 
-0.01654852339119957 3:1 6:1 7:1 11:1 17:1 20:1 24:1 26:1 29:1 30:1 31:1 32:1 33:1 34:1 
-0.02931228708828526 1:1 3:1 7:1 8:1 9:1 10:1 15:1 16:1 17:1 18:1 20:1 25:1 27:1 30:1 
-0.005345388216620035 3:1 8:1 11:1 12:1 13:1 15:1 16:1 17:1 18:1 19:1 26:1 28:1 29:1 31:1 32:1 33:1 34:1 
-0.01280633537201731 1:1 5:1 7:1 11:1 15:1 19:1 21:1 22:1 23:1 24:1 25:1 26:1 29:1 30:1 31:1 32:1 
-0.03173048014925084 2:1 9:1 14:1 27:1 28:1 34:1 
-0.01962835865704166 7:1 12:1 13:1 16:1 18:1 30:1 
-0.03782320852841455 31:1 
-0.0137254347370481 5:1 7:1 8:1 10:1 12:1 13:1 14:1 15:1 18:1 19:1 20:1 22:1 23:1 25:1 26:1 27:1 29:1 30:1 31:1 32:1 33:1 34:1 
-0.07522198801824914 3:1 4:1 6:1 7:1 8:1 9:1 12:1 13:1 14:1 16:1 17:1 18:1 22:1 23:1 26:1 27:1 29:1 31:1 34:1 
-0.034262163646336 4:1 5:1 7:1 8:1 9:1 10:1 11:1 14:1 16:1 18:1 19:1 20:1 22:1 23:1 24:1 26:1 28:1 30:1 32:1 33:1 
-0.00361258298123603 5:1 8:1 9:1 10:1 11:1 12:1 14:1 16:1 18:1 19:1 23:1 24:1 26:1 29:1 30:1 
-0.04033500544405054 8:1 9:1 11:1 22:1 23:1 30:1 34:1 
-0.009685154570524067 7:1 10:1 11:1 13:1 18:1 19:1 20:1 21:1 22:1 25:1 
-0.01257259518039677 8:1 10:1 11:1 12:1 13:1 18:1 19:1 20:1 21:1 22:1 23:1 24:1 25:1 26:1 28:1 29:1 31:1 32:1 
-0.02203335981204999 1:1 2:1 6:1 7:1 8:1 10:1 11:1 12:1 13:1 14:1 15:1 16:1 19:1 20:1 21:1 22:1 23:1 24:1 25:1 26:1 28:1 29:1 30:1 31:1 32:1 34:1 
-0.02644194940723155 7:1 8:1 10:1 15:1 16:1 21:1 23:1 24:1 27:1 28:1 29:1 31:1 33:1 
-0.01388202614505493 1:1 19:1 26:1 33:1 
-0.006891636757144604 7:1 13:1 21:1 33:1 
-0.005470345801420447 10:1 13:1 15:1 18:1 19:1 21:1 28:1 29:1 31:1 32:1 
-0.02759014549033997 26:1 
-0.0131357480220849 5:1 6:1 7:1 15:1 
-0.009564583192932886 1:1 4:1 30:1 
-0.006566065536299149 2:1 6:1 8:1 15:1 16:1 18:1 19:1 20:1 25:1 27:1 30:1 31:1 32:1 
-0.01401700016764429 2:1 3:1 13:1 15:1 17:1 19:1 20:1 24:1 25:1 28:1 29:1 31:1 33:1 
-0.01947710556852789 1:1 4:1 5:1 7:1 11:1 16:1 21:1 22:1 26:1 27:1 28:1 29:1 32:1 33:1 34:1 
-0.01447470495973705 13:1 14:1 19:1 29:1 
-0.005084791605842381 5:1 7:1 8:1 9:1 10:1 12:1 13:1 14:1 15:1 18:1 19:1 20:1 22:1 23:1 25:1 26:1 27:1 28:1 31:1 32:1 33:1 
-0.03174359915711608 1:1 3:1 4:1 5:1 6:1 10:1 17:1 20:1 22:1 28:1 34:1 
-0.03175098667398765 1:1 3:1 5:1 6:1 10:1 12:1 17:1 18:1 25:1 26:1 31:1 32:1 34:1 
-0.001853078548901306 1:1 2:1 3:1 10:1 13:1 17:1 21:1 
-0.06701252225977831 1:1 3:1 13:1 14:1 16:1 17:1 21:1 22:1 23:1 24:1 25:1 26:1 27:1 28:1 29:1 30:1 34:1 
-0.01731875882482168 1:1 2:1 3:1 4:1 6:1 7:1 10:1 11:1 12:1 14:1 15:1 16:1 17:1 18:1 19:1 20:1 21:1 22:1 23:1 26:1 27:1 28:1 31:1 32:1 33:1 34:1 
-0.03207797593931116 1:1 2:1 3:1 4:1 5:1 6:1 7:1 9:1 10:1 11:1 12:1 13:1 14:1 15:1 16:1 17:1 18:1 19:1 20:1 21:1 22:1 23:1 25:1 26:1 27:1 28:1 29:1 32:1 33:1 34:1 
-0.04246873258299062 1:1 2:1 3:1 4:1 5:1 6:1 7:1 8:1 9:1 10:1 11:1 12:1 13:1 14:1 15:1 16:1 17:1 18:1 19:1 20:1 21:1 22:1 23:1 24:1 26:1 27:1 28:1 29:1 30:1 31:1 32:1 33:1 34:1 
-0.001755710998816695 3:1 5:1 6:1 7:1 11:1 12:1 13:1 14:1 16:1 17:1 19:1 20:1 21:1 22:1 23:1 25:1 26:1 27:1 31:1 33:1 
-0.02488942383737593 5:1 7:1 9:1 12:1 19:1 20:1 21:1 25:1 26:1 27:1 28:1 31:1 33:1 
-0.04575179211531894 1:1 2:1 10:1 11:1 12:1 14:1 15:1 20:1 21:1 23:1 25:1 26:1 30:1 33:1 
-0.009509923506351135 1:1 2:1 3:1 9:1 10:1 17:1 23:1 33:1 
-0.0004021300533508191 2:1 3:1 5:1 9:1 10:1 12:1 16:1 17:1 22:1 23:1 
-0.0150228987283047 1:1 2:1 5:1 9:1 10:1 11:1 22:1 23:1 29:1 
-0.02996563200828549 14:1 21:1 22:1 
-0.03559373496241884 3:1 4:1 6:1 7:1 8:1 9:1 10:1 11:1 13:1 16:1 17:1 20:1 24:1 25:1 26:1 28:1 32:1 
-0.02142685493252523 1:1 3:1 5:1 8:1 9:1 11:1 13:1 14:1 20:1 25:1 26:1 30:1 31:1 32:1 33:1 
-0.02094844624442169 4:1 6:1 9:1 10:1 11:1 12:1 19:1 20:1 21:1 23:1 24:1 26:1 28:1 33:1 34:1 
-0.01831542292814965 1:1 7:1 11:1 18:1 20:1 23:1 24:1 29:1 30:1 31:1 33:1 
-0.03147199558444578 2:1 3:1 5:1 7:1 9:1 10:1 11:1 13:1 14:1 15:1 16:1 17:1 18:1 19:1 22:1 25:1 26:1 27:1 28:1 29:1 31:1 32:1 
-0.005085056431391448 2:1 15:1 16:1 18:1 19:1 24:1 30:1 33:1 34:1 
-0.03708690192388257 2:1 3:1 4:1 7:1 8:1 11:1 12:1 14:1 16:1 18:1 21:1 24:1 28:1 30:1 32:1 34:1 
-0.02196862440358855 5:1 8:1 11:1 12:1 14:1 15:1 18:1 19:1 20:1 21:1 24:1 26:1 28:1 30:1 31:1 32:1 34:1 
-0.03681038553989107 1:1 7:1 9:1 10:1 14:1 15:1 18:1 20:1 26:1 27:1 28:1 31:1 32:1 34:1 
-0.001416190027114468 3:1 9:1 10:1 15:1 17:1 19:1 20:1 22:1 23:1 26:1 27:1 28:1 29:1 31:1 34:1 
-0.004515836157098652 1:1 3:1 5:1 9:1 10:1 11:1 12:1 14:1 16:1 17:1 19:1 20:1 21:1 23:1 26:1 27:1 28:1 30:1 32:1 33:1 34:1 
-0.001409600167919317 1:1 3:1 7:1 9:1 10:1 11:1 17:1 19:1 20:1 23:1 25:1 27:1 28:1 29:1 
-0.02361233774663068 3:1 4:1 9:1 10:1 12:1 15:1 18:1 19:1 22:1 29:1 32:1 
-0.01092741788563196 1:1 5:1 6:1 9:1 10:1 12:1 13:1 15:1 16:1 19:1 24:1 28:1 29:1 31:1 33:1 
-0.007486928196150494 1:1 6:1 10:1 12:1 15:1 18:1 21:1 24:1 25:1 26:1 
-0.02319890649936049 1:1 5:1 6:1 8:1 9:1 10:1 11:1 12:1 15:1 16:1 18:1 24:1 25:1 26:1 29:1 31:1 
-0.007224284075588451 3:1 6:1 12:1 17:1 18:1 19:1 23:1 25:1 29:1 31:1 
-4.074785296239015 53:1 109:1 207:1 223:1 
-1.204628786429734 91:1 
-0.825792615568165 55:1 57:1 62:1 69:1 87:1 102:1 109:1 149:1 169:1 171:1 205:1 207:1 208:1 225:1 245:1 247:1 250:1 251:1 274:1 
-0.9269955120157202 55:1 63:1 69:1 72:1 87:1 102:1 107:1 109:1 171:1 193:1 205:1 206:1 207:1 208:1 218:1 252:1 281:1 298:1 299:1 
-0.1207375079758727 53:1 62:1 106:1 117:1 
-0.2661210701554617 50:1 57:1 62:1 78:1 97:1 98:1 109:1 117:1 147:1 149:1 157:1 158:1 171:1 205:1 206:1 207:1 217:1 223:1 231:1 261:1 276:1 281:1 298:1 299:1 
-6.988554634871464 39:1 57:1 98:1 117:1 190:1 216:1 247:1 263:1 299:1 
-0.05354109303673422 37:1 55:1 62:1 69:1 76:1 78:1 91:1 102:1 144:1 157:1 158:1 164:1 171:1 188:1 206:1 207:1 221:1 225:1 226:1 231:1 249:1 252:1 272:1 281:1 294:1 298:1 299:1 
-2.154723498822837 84:1 87:1 228:1 
-0.5631915524172906 212:1 
-8 105:1 245:1 293:1 
-0.1529500429065723 55:1 115:1 117:1 207:1 212:1 223:1 
-4.498665515431487 41:1 65:1 73:1 75:1 76:1 81:1 91:1 105:1 109:1 112:1 117:1 146:1 148:1 161:1 185:1 190:1 195:1 217:1 218:1 219:1 251:1 253:1 258:1 263:1 272:1 277:1 278:1 281:1 295:1 
-8 98:1 263:1 
-5.222320295117329 35:1 57:1 65:1 73:1 76:1 80:1 90:1 93:1 105:1 106:1 117:1 146:1 149:1 185:1 196:1 217:1 219:1 248:1 249:1 251:1 261:1 263:1 293:1 
-0.09879517897687497 35:1 54:1 96:1 106:1 117:1 167:1 207:1 212:1 216:1 225:1 233:1 257:1 277:1 281:1 
-5.116080014818281 161:1 212:1 225:1 
-1.958654329350557 105:1 117:1 263:1 
-0.3653167085581916 105:1 
-8 93:1 94:1 95:1 106:1 115:1 117:1 168:1 
-3.764345533357003 62:1 68:1 76:1 93:1 94:1 95:1 103:1 115:1 117:1 149:1 168:1 263:1 
-0.5868289641755 62:1 68:1 76:1 88:1 93:1 95:1 115:1 117:1 148:1 149:1 168:1 216:1 217:1 263:1 272:1 295:1 
-1.243805663563164 105:1 
-1.188980249366977 35:1 65:1 93:1 108:1 115:1 168:1 205:1 218:1 224:1 249:1 282:1 295:1 298:1 
-4.833649675793892 35:1 99:1 225:1 233:1 274:1 
-0.7314013090919035 35:1 38:1 73:1 108:1 117:1 169:1 204:1 225:1 247:1 263:1 274:1 281:1 
-8 217:1 263:1 
-0.6779921145093079 115:1 
-2.111994337990112 53:1 54:1 68:1 79:1 98:1 109:1 117:1 149:1 155:1 206:1 208:1 216:1 217:1 229:1 245:1 247:1 250:1 263:1 277:1 293:1 295:1 298:1 
-1.826520022963087 38:1 62:1 97:1 204:1 222:1 265:1 276:1 281:1 
-8 277:1 
-0.1388708354814904 69:1 76:1 78:1 109:1 115:1 171:1 194:1 206:1 207:1 223:1 242:1 299:1 
-0.05866835608104708 55:1 57:1 65:1 68:1 70:1 79:1 80:1 102:1 106:1 109:1 117:1 118:1 119:1 169:1 205:1 206:1 207:1 208:1 216:1 221:1 223:1 225:1 247:1 248:1 277:1 281:1 282:1 295:1 299:1 
-1.204602330842299 38:1 53:1 56:1 117:1 168:1 204:1 217:1 242:1 
-8 98:1 217:1 277:1 
-0.04156769853611285 293:1 
-0.5990161383216768 35:1 47:1 53:1 55:1 73:1 117:1 149:1 171:1 263:1 270:1 277:1 293:1 
-0.1688317257851685 55:1 57:1 59:1 68:1 81:1 106:1 108:1 109:1 115:1 117:1 149:1 157:1 161:1 207:1 223:1 232:1 266:1 293:1 299:1 
-2.245335260692678 38:1 57:1 81:1 83:1 87:1 98:1 105:1 161:1 190:1 204:1 247:1 261:1 263:1 266:1 270:1 299:1 
-2.209379417458941 38:1 204:1 293:1 
-7.719621072014368 38:1 204:1 293:1 
-2.070490169875448 35:1 57:1 105:1 112:1 161:1 208:1 216:1 247:1 250:1 251:1 263:1 293:1 299:1 
-2.543924530126834 293:1 
-8 161:1 212:1 225:1 
-0.5136346610475765 35:1 38:1 47:1 55:1 57:1 59:1 60:1 65:1 68:1 69:1 72:1 87:1 93:1 97:1 106:1 107:1 109:1 114:1 115:1 117:1 161:1 168:1 169:1 171:1 183:1 185:1 197:1 205:1 206:1 207:1 216:1 217:1 218:1 222:1 223:1 237:1 245:1 250:1 265:1 272:1 277:1 280:1 281:1 294:1 295:1 297:1 299:1 
-0.6505028661723802 35:1 37:1 38:1 47:1 50:1 57:1 62:1 68:1 73:1 75:1 76:1 81:1 87:1 88:1 112:1 117:1 147:1 194:1 203:1 204:1 217:1 238:1 247:1 250:1 260:1 263:1 270:1 290:1 293:1 
-1.544705599437676 35:1 37:1 55:1 59:1 68:1 72:1 81:1 91:1 97:1 107:1 144:1 147:1 158:1 171:1 185:1 193:1 203:1 206:1 207:1 281:1 298:1 299:1 
-4.681261738773827 62:1 263:1 
-0.7429463759843314 35:1 37:1 38:1 39:1 47:1 50:1 51:1 53:1 54:1 55:1 57:1 59:1 60:1 62:1 66:1 68:1 70:1 72:1 75:1 79:1 81:1 83:1 87:1 88:1 90:1 91:1 97:1 102:1 106:1 107:1 108:1 109:1 114:1 115:1 117:1 118:1 144:1 145:1 146:1 148:1 149:1 154:1 155:1 156:1 157:1 161:1 164:1 168:1 169:1 171:1 183:1 185:1 194:1 195:1 203:1 204:1 206:1 207:1 208:1 216:1 217:1 218:1 221:1 222:1 223:1 224:1 226:1 228:1 229:1 231:1 232:1 236:1 237:1 242:1 245:1 247:1 248:1 249:1 250:1 252:1 258:1 260:1 261:1 263:1 265:1 269:1 272:1 277:1 280:1 281:1 282:1 283:1 289:1 295:1 299:1 
-0.8629649473436878 115:1 161:1 217:1 238:1 242:1 
-0.5679089594225775 35:1 44:1 53:1 57:1 65:1 70:1 81:1 105:1 109:1 115:1 149:1 155:1 161:1 207:1 217:1 221:1 230:1 237:1 238:1 242:1 258:1 259:1 270:1 298:1 
-0.1319883843295392 35:1 45:1 50:1 53:1 54:1 55:1 57:1 59:1 65:1 71:1 76:1 80:1 87:1 88:1 91:1 97:1 106:1 107:1 109:1 115:1 117:1 148:1 149:1 154:1 155:1 158:1 161:1 164:1 165:1 169:1 171:1 205:1 206:1 207:1 208:1 216:1 217:1 218:1 221:1 224:1 226:1 228:1 229:1 230:1 231:1 232:1 235:1 237:1 240:1 247:1 248:1 250:1 252:1 260:1 261:1 269:1 270:1 272:1 277:1 280:1 281:1 282:1 295:1 298:1 299:1 
-8 102:1 
-3.183454429584098 99:1 107:1 206:1 212:1 225:1 295:1 
-2.157426521058277 35:1 41:1 48:1 73:1 76:1 81:1 99:1 106:1 109:1 117:1 149:1 171:1 190:1 195:1 205:1 206:1 225:1 250:1 274:1 275:1 290:1 295:1 
-4.106715195358963 54:1 87:1 106:1 115:1 149:1 193:1 205:1 207:1 230:1 260:1 275:1 290:1 291:1 
-2.066666697145423 53:1 55:1 81:1 107:1 109:1 117:1 154:1 185:1 206:1 207:1 218:1 237:1 250:1 281:1 282:1 295:1 
-0.3430446952134128 53:1 144:1 149:1 161:1 238:1 282:1 
-0.06027435613697765 38:1 44:1 53:1 55:1 71:1 90:1 108:1 115:1 148:1 149:1 156:1 161:1 204:1 207:1 217:1 223:1 231:1 261:1 282:1 292:1 295:1 
-0.102457867752752 35:1 37:1 38:1 54:1 55:1 57:1 59:1 60:1 69:1 81:1 97:1 104:1 108:1 109:1 111:1 117:1 144:1 169:1 203:1 204:1 206:1 207:1 217:1 223:1 245:1 250:1 252:1 260:1 266:1 269:1 277:1 281:1 294:1 298:1 299:1 
-1.109107701726132 44:1 53:1 55:1 57:1 72:1 84:1 90:1 97:1 109:1 115:1 117:1 148:1 149:1 161:1 185:1 196:1 206:1 207:1 217:1 218:1 223:1 248:1 260:1 265:1 281:1 282:1 295:1 
-0.02705297971066541 75:1 78:1 102:1 193:1 214:1 237:1 281:1 282:1 
-7.609493541527171 199:1 
-2.212620410760216 35:1 73:1 205:1 208:1 247:1 248:1 250:1 263:1 277:1 299:1 
-1.839230741372644 47:1 53:1 59:1 102:1 106:1 117:1 223:1 282:1 
-0.7341928915754209 53:1 57:1 115:1 145:1 155:1 205:1 206:1 207:1 217:1 226:1 252:1 281:1 295:1 299:1 
-0.1346407631310704 35:1 47:1 53:1 55:1 59:1 81:1 107:1 115:1 156:1 161:1 171:1 195:1 206:1 207:1 217:1 218:1 224:1 227:1 231:1 232:1 236:1 237:1 248:1 282:1 295:1 298:1 
-3.624322940465049 102:1 205:1 217:1 281:1 295:1 
-2.209294702278597 69:1 78:1 161:1 212:1 223:1 237:1 295:1 298:1 
-8 36:1 
-8 96:1 167:1 212:1 225:1 233:1 257:1 277:1 281:1 
-2.990083020127217 55:1 81:1 96:1 99:1 114:1 167:1 212:1 227:1 233:1 247:1 257:1 277:1 281:1 283:1 
-5.915636524725149 35:1 54:1 96:1 106:1 117:1 167:1 207:1 212:1 216:1 225:1 233:1 257:1 277:1 281:1 
-5.794352782972279 41:1 73:1 96:1 98:1 105:1 107:1 109:1 156:1 161:1 167:1 171:1 183:1 212:1 221:1 225:1 230:1 233:1 245:1 250:1 257:1 269:1 277:1 281:1 
-1.822390887288347 44:1 164:1 167:1 212:1 257:1 277:1 281:1 
-5.906995401473646 41:1 109:1 167:1 190:1 206:1 212:1 247:1 250:1 257:1 263:1 275:1 277:1 281:1 
-0.05289871125252726 172:1 233:1 240:1 270:1 299:1 
-0.5826554022991457 50:1 53:1 57:1 76:1 90:1 106:1 114:1 115:1 117:1 144:1 157:1 171:1 172:1 206:1 207:1 208:1 216:1 217:1 226:1 231:1 238:1 247:1 260:1 281:1 293:1 298:1 299:1 
-1.488068514668624 68:1 240:1 
-0.9248841146832993 206:1 
-0.4541062566709836 114:1 115:1 149:1 171:1 245:1 
-1.45185039464053 55:1 114:1 231:1 260:1 
-6.337593540161393 35:1 62:1 98:1 196:1 
-0.1563721669599472 103:1 170:1 196:1 277:1 297:1 
-2.070950306507347 88:1 114:1 117:1 217:1 225:1 233:1 281:1 295:1 
-0.01955634532374251 35:1 37:1 38:1 45:1 50:1 51:1 54:1 57:1 59:1 62:1 68:1 69:1 70:1 72:1 75:1 87:1 88:1 90:1 107:1 108:1 114:1 117:1 118:1 144:1 147:1 149:1 154:1 158:1 169:1 170:1 171:1 172:1 194:1 203:1 204:1 205:1 206:1 207:1 208:1 216:1 217:1 221:1 223:1 227:1 230:1 231:1 232:1 235:1 240:1 241:1 242:1 244:1 247:1 248:1 249:1 260:1 261:1 263:1 270:1 281:1 295:1 299:1 
-2.736754014002186 76:1 168:1 207:1 225:1 274:1 282:1 299:1 
-0.4139946119423152 41:1 48:1 68:1 76:1 78:1 81:1 114:1 115:1 117:1 144:1 149:1 155:1 172:1 217:1 223:1 227:1 229:1 230:1 231:1 247:1 258:1 263:1 277:1 281:1 282:1 
-8 247:1 
-1.99417758058831 247:1 294:1 
-2.941931013053596 44:1 
-0.2815522296524082 165:1 207:1 235:1 236:1 283:1 
-1.557235943692177 158:1 
-3.697017851939249 205:1 265:1 
-0.2076321000756208 37:1 38:1 41:1 45:1 47:1 50:1 53:1 54:1 55:1 57:1 62:1 68:1 70:1 72:1 79:1 80:1 81:1 83:1 84:1 85:1 87:1 88:1 91:1 99:1 103:1 104:1 106:1 107:1 108:1 109:1 114:1 115:1 118:1 119:1 145:1 146:1 147:1 149:1 154:1 155:1 156:1 157:1 158:1 161:1 164:1 165:1 168:1 169:1 171:1 172:1 193:1 194:1 195:1 203:1 204:1 205:1 206:1 207:1 208:1 216:1 217:1 221:1 222:1 223:1 226:1 227:1 228:1 229:1 231:1 232:1 235:1 239:1 240:1 242:1 244:1 248:1 249:1 260:1 261:1 263:1 269:1 270:1 281:1 282:1 294:1 298:1 299:1 
-0.4166491237730091 53:1 72:1 76:1 108:1 114:1 115:1 149:1 171:1 172:1 207:1 216:1 240:1 249:1 282:1 298:1 
-0.2699345412762867 45:1 47:1 54:1 57:1 72:1 79:1 99:1 104:1 106:1 108:1 145:1 147:1 149:1 156:1 157:1 164:1 165:1 169:1 170:1 171:1 194:1 206:1 207:1 208:1 216:1 221:1 223:1 225:1 226:1 229:1 231:1 235:1 236:1 239:1 244:1 245:1 250:1 252:1 253:1 260:1 261:1 269:1 276:1 280:1 281:1 282:1 283:1 294:1 298:1 
-8 81:1 296:1 
-0.1984903230209726 45:1 47:1 50:1 53:1 54:1 68:1 69:1 72:1 73:1 75:1 78:1 81:1 84:1 87:1 88:1 91:1 93:1 103:1 106:1 107:1 108:1 109:1 114:1 115:1 117:1 119:1 147:1 149:1 154:1 156:1 158:1 168:1 169:1 170:1 171:1 193:1 194:1 206:1 207:1 208:1 217:1 221:1 222:1 223:1 225:1 226:1 227:1 229:1 230:1 231:1 232:1 240:1 242:1 244:1 245:1 248:1 249:1 250:1 252:1 255:1 260:1 261:1 270:1 271:1 272:1 281:1 289:1 294:1 295:1 298:1 299:1 
-1.137542483025196 37:1 38:1 73:1 109:1 144:1 169:1 203:1 204:1 281:1 
-2.023538861906911 68:1 117:1 195:1 212:1 242:1 281:1 
-0.7170274279808063 54:1 75:1 118:1 169:1 206:1 223:1 225:1 245:1 
-0.06126154227179414 37:1 38:1 45:1 54:1 55:1 68:1 69:1 71:1 73:1 78:1 81:1 106:1 115:1 144:1 147:1 149:1 157:1 165:1 169:1 170:1 193:1 194:1 195:1 203:1 204:1 206:1 207:1 208:1 216:1 222:1 223:1 231:1 235:1 240:1 242:1 248:1 252:1 260:1 261:1 269:1 271:1 281:1 282:1 299:1 
-0.05449667589355967 50:1 59:1 75:1 115:1 206:1 207:1 208:1 223:1 263:1 
-4.522448364364733 55:1 75:1 115:1 153:1 207:1 225:1 237:1 281:1 
-0.08092789477702693 59:1 72:1 93:1 105:1 114:1 156:1 158:1 171:1 206:1 207:1 208:1 216:1 248:1 263:1 281:1 298:1 
-0.4263690766589287 38:1 44:1 75:1 108:1 115:1 161:1 206:1 277:1 
-1.963979351810064 38:1 55:1 117:1 161:1 204:1 231:1 
-0.2605327094326861 75:1 171:1 206:1 217:1 
-1.40459638916331 115:1 217:1 228:1 
-0.8868000031502863 37:1 97:1 99:1 104:1 106:1 206:1 233:1 265:1 281:1 
-0.8915233330569947 60:1 89:1 99:1 104:1 117:1 245:1 247:1 265:1 277:1 281:1 
-1.321410118728133 87:1 205:1 
-0.3331859845772928 209:1 
-0.06948902497833191 37:1 69:1 104:1 117:1 118:1 149:1 203:1 223:1 230:1 240:1 263:1 272:1 277:1 281:1 299:1 
-1.264503377136809 37:1 67:1 68:1 87:1 90:1 103:1 117:1 203:1 260:1 282:1 295:1 
-8 76:1 
-8 76:1 109:1 149:1 
-5.1125553369231 117:1 162:1 216:1 217:1 
-0.7302982350346068 38:1 90:1 204:1 217:1 223:1 231:1 261:1 281:1 299:1 
-1.597951617412899 75:1 91:1 92:1 99:1 169:1 207:1 208:1 261:1 269:1 280:1 
-0.4471039236881326 35:1 37:1 38:1 41:1 51:1 54:1 55:1 57:1 62:1 68:1 69:1 73:1 75:1 76:1 93:1 107:1 114:1 115:1 117:1 145:1 147:1 149:1 168:1 171:1 195:1 203:1 204:1 205:1 206:1 207:1 216:1 217:1 218:1 229:1 231:1 240:1 242:1 247:1 249:1 263:1 281:1 295:1 298:1 299:1 
-1.604227498311488 117:1 207:1 248:1 
-1.117336976736547 41:1 55:1 73:1 103:1 104:1 105:1 117:1 144:1 154:1 171:1 190:1 193:1 196:1 205:1 217:1 223:1 250:1 251:1 263:1 281:1 293:1 299:1 
-3.454962006700065 55:1 63:1 81:1 223:1 229:1 277:1 
-1.453765676362915 38:1 217:1 
-2.675340458800858 41:1 55:1 73:1 102:1 115:1 168:1 207:1 263:1 
-0.1003363626016467 41:1 47:1 59:1 73:1 117:1 156:1 168:1 207:1 235:1 263:1 298:1 
-0.04543432287000866 44:1 54:1 55:1 62:1 91:1 161:1 171:1 207:1 217:1 223:1 247:1 252:1 
-8 55:1 65:1 217:1 252:1 299:1 
-0.7665733489330965 71:1 115:1 298:1 
-3.948823434717019 55:1 62:1 102:1 106:1 117:1 161:1 206:1 219:1 223:1 240:1 250:1 272:1 277:1 281:1 292:1 295:1 299:1 
-1.131478191505006 69:1 117:1 
-1.542978163969117 87:1 102:1 
-0.06174783452548759 80:1 99:1 117:1 151:1 205:1 207:1 245:1 274:1 275:1 277:1 
-2.352045479399468 80:1 99:1 117:1 151:1 205:1 207:1 245:1 277:1 
-1.030025696717083 53:1 55:1 62:1 75:1 83:1 87:1 93:1 107:1 144:1 207:1 223:1 252:1 299:1 
-8 217:1 253:1 
-2.948374541354672 171:1 
-0.1960024448478073 225:1 274:1 275:1 
-0.5635245704074756 35:1 38:1 47:1 53:1 54:1 55:1 57:1 59:1 68:1 69:1 71:1 72:1 78:1 81:1 91:1 93:1 101:1 102:1 104:1 106:1 109:1 117:1 158:1 161:1 171:1 185:1 197:1 204:1 206:1 207:1 223:1 232:1 238:1 243:1 248:1 250:1 252:1 269:1 273:1 276:1 281:1 282:1 293:1 294:1 298:1 299:1 
-1.923988201383962 59:1 154:1 194:1 245:1 
-0.9863630671050497 118:1 
-0.1254248368318286 57:1 109:1 117:1 231:1 281:1 
-4.362433827114817 223:1 
-0.03334813062088566 35:1 53:1 55:1 57:1 59:1 62:1 68:1 69:1 70:1 71:1 72:1 75:1 76:1 78:1 79:1 80:1 81:1 83:1 84:1 87:1 88:1 90:1 97:1 101:1 103:1 104:1 105:1 106:1 108:1 114:1 115:1 117:1 146:1 148:1 149:1 154:1 155:1 157:1 161:1 164:1 168:1 169:1 170:1 172:1 173:1 195:1 196:1 206:1 209:1 216:1 217:1 218:1 223:1 224:1 228:1 229:1 230:1 236:1 240:1 241:1 242:1 244:1 248:1 249:1 250:1 252:1 260:1 261:1 270:1 271:1 272:1 273:1 277:1 281:1 282:1 295:1 
-0.73991873413589 83:1 
-8 79:1 205:1 
-2.151471322370148 117:1 
-0.3976508474693097 35:1 38:1 45:1 50:1 51:1 54:1 57:1 68:1 71:1 76:1 78:1 81:1 83:1 84:1 85:1 87:1 88:1 102:1 103:1 108:1 115:1 117:1 144:1 147:1 149:1 154:1 156:1 157:1 158:1 161:1 168:1 169:1 170:1 171:1 183:1 193:1 194:1 204:1 205:1 206:1 207:1 208:1 212:1 216:1 217:1 218:1 222:1 223:1 225:1 226:1 227:1 228:1 229:1 230:1 231:1 232:1 236:1 240:1 242:1 244:1 248:1 249:1 252:1 261:1 270:1 281:1 282:1 292:1 295:1 298:1 299:1 
-1.44481766095454 97:1 158:1 170:1 205:1 206:1 212:1 221:1 231:1 240:1 260:1 295:1 
-0.1509255869546724 35:1 54:1 68:1 71:1 83:1 115:1 116:1 117:1 149:1 229:1 249:1 252:1 265:1 281:1 289:1 
-0.6703132478892539 41:1 47:1 73:1 81:1 108:1 117:1 247:1 277:1 
-2.450602860119143 73:1 81:1 108:1 117:1 156:1 248:1 271:1 277:1 
-0.09374059987316335 38:1 41:1 50:1 57:1 65:1 68:1 88:1 108:1 114:1 117:1 149:1 155:1 164:1 169:1 170:1 204:1 208:1 221:1 228:1 235:1 240:1 248:1 249:1 269:1 271:1 276:1 281:1 299:1 
-0.5850016308343393 48:1 51:1 54:1 55:1 65:1 68:1 76:1 81:1 89:1 106:1 109:1 145:1 154:1 155:1 168:1 169:1 170:1 205:1 206:1 207:1 208:1 222:1 223:1 249:1 250:1 258:1 261:1 263:1 277:1 281:1 292:1 295:1 
-8 117:1 
-6.250764225893015 166:1 293:1 
-8 293:1 
-0.6065740680198527 37:1 38:1 39:1 55:1 57:1 62:1 68:1 73:1 76:1 83:1 87:1 88:1 93:1 98:1 99:1 102:1 103:1 105:1 109:1 115:1 117:1 157:1 169:1 170:1 190:1 203:1 204:1 206:1 207:1 247:1 250:1 252:1 263:1 272:1 276:1 277:1 281:1 292:1 298:1 299:1 
-3.494733870111399 37:1 55:1 96:1 99:1 102:1 105:1 167:1 171:1 203:1 212:1 247:1 257:1 277:1 281:1 
-3.247171182165878 54:1 69:1 76:1 97:1 106:1 117:1 149:1 206:1 208:1 217:1 245:1 
-0.03143104067684568 6:1 8:1 12:1 13:1 14:1 15:1 19:1 20:1 21:1 24:1 27:1 
-1.464946483942231 44:1 57:1 97:1 164:1 196:1 
-8 106:1 183:1 
-0.01481717979498869 7:1 12:1 13:1 15:1 19:1 24:1 31:1 
-0.03013772450778748 1:1 3:1 5:1 6:1 10:1 12:1 17:1 22:1 24:1 32:1 
-0.02318677124991568 4:1 6:1 10:1 11:1 12:1 16:1 20:1 21:1 22:1 23:1 24:1 27:1 28:1 29:1 30:1 33:1 34:1 
-0.01101508384856682 1:1 2:1 3:1 4:1 5:1 7:1 12:1 15:1 16:1 17:1 18:1 19:1 20:1 22:1 26:1 28:1 29:1 31:1 33:1 
-0.01681849446558553 3:1 9:1 12:1 14:1 15:1 19:1 22:1 24:1 26:1 28:1 30:1 32:1 34:1 
-0.01525059367060502 7:1 18:1 22:1 29:1 32:1 
-0.01778004035844109 1:1 2:1 6:1 8:1 13:1 14:1 15:1 16:1 18:1 20:1 25:1 26:1 27:1 29:1 31:1 32:1 33:1 
-0.003649990720420264 1:1 2:1 6:1 11:1 18:1 19:1 20:1 31:1 33:1 
-0.02341804049371406 1:1 3:1 6:1 10:1 12:1 14:1 17:1 18:1 20:1 23:1 25:1 26:1 27:1 31:1 33:1 
-0.04255303243166677 1:1 2:1 5:1 6:1 8:1 12:1 13:1 16:1 18:1 20:1 22:1 25:1 26:1 28:1 30:1 31:1 32:1 
-0.02086497528069573 3:1 6:1 8:1 9:1 11:1 13:1 15:1 16:1 17:1 19:1 20:1 23:1 24:1 25:1 26:1 28:1 29:1 30:1 33:1 
-0.01742444720985592 3:1 6:1 7:1 17:1 30:1 33:1 
-0.01223078739356422 6:1 11:1 12:1 14:1 19:1 20:1 21:1 23:1 29:1 30:1 31:1 32:1 
-0.0045745262577723 5:1 7:1 10:1 12:1 13:1 14:1 16:1 19:1 20:1 21:1 23:1 27:1 29:1 30:1 31:1 32:1 
-0.002623609878930994 5:1 20:1 27:1 29:1 
-0.0844031754281994 1:1 2:1 3:1 4:1 5:1 6:1 7:1 8:1 10:1 11:1 13:1 15:1 17:1 18:1 19:1 20:1 22:1 23:1 24:1 25:1 26:1 27:1 28:1 29:1 30:1 31:1 32:1 33:1 34:1 
-0.01809824696209261 1:1 2:1 4:1 6:1 10:1 11:1 19:1 21:1 24:1 29:1 30:1 32:1 
-0.05399611450872288 1:1 2:1 4:1 5:1 6:1 9:1 10:1 11:1 12:1 15:1 16:1 19:1 21:1 23:1 25:1 27:1 28:1 30:1 31:1 32:1 34:1 
-0.01115691332622569 1:1 2:1 4:1 6:1 11:1 12:1 13:1 16:1 21:1 30:1 32:1 33:1 34:1 
-0.03671171743357939 3:1 6:1 12:1 15:1 17:1 18:1 27:1 33:1 34:1 
-0.01542687877256061 2:1 4:1 6:1 12:1 16:1 19:1 21:1 27:1 29:1 33:1 
-0.03230829310172373 2:1 4:1 14:1 15:1 
-0.02176183076214569 2:1 4:1 7:1 15:1 28:1 33:1 34:1 
-0.006155201989004063 5:1 7:1 8:1 10:1 12:1 13:1 15:1 18:1 19:1 20:1 22:1 23:1 25:1 27:1 28:1 31:1 32:1 34:1 
-0.02486593908163019 2:1 5:1 7:1 8:1 11:1 14:1 19:1 20:1 22:1 25:1 27:1 31:1 
-0.04531512579142804 1:1 2:1 4:1 5:1 8:1 9:1 10:1 13:1 16:1 18:1 21:1 23:1 24:1 26:1 27:1 29:1 30:1 32:1 34:1 
-0.01889946633134002 1:1 2:1 4:1 5:1 6:1 8:1 9:1 10:1 11:1 16:1 21:1 22:1 23:1 24:1 26:1 29:1 30:1 34:1 
-0.01455528277602378 1:1 4:1 7:1 11:1 14:1 23:1 
-0.002917828858879406 2:1 9:1 20:1 
-0.001937780367789365 13:1 20:1 32:1 
-0.006146708551382828 1:1 6:1 9:1 11:1 19:1 23:1 30:1 34:1 
-0.002402223768968103 7:1 9:1 11:1 13:1 15:1 18:1 19:1 20:1 24:1 25:1 26:1 27:1 28:1 29:1 30:1 31:1 32:1 34:1 
-0.008694315377604163 1:1 2:1 3:1 7:1 11:1 12:1 13:1 15:1 16:1 17:1 18:1 19:1 20:1 21:1 23:1 25:1 28:1 29:1 31:1 32:1 
-0.01060635140344806 8:1 9:1 11:1 12:1 15:1 16:1 18:1 19:1 20:1 22:1 23:1 27:1 29:1 32:1 33:1 
-0.05822272967641033 3:1 4:1 6:1 7:1 8:1 11:1 12:1 14:1 15:1 17:1 19:1 20:1 21:1 23:1 24:1 26:1 27:1 29:1 31:1 34:1 
-0.009756662948353239 5:1 8:1 9:1 10:1 14:1 15:1 16:1 19:1 23:1 24:1 26:1 27:1 28:1 30:1 
-0.001026883185721983 1:1 3:1 5:1 7:1 8:1 9:1 10:1 12:1 14:1 16:1 17:1 18:1 19:1 20:1 23:1 24:1 25:1 27:1 28:1 29:1 30:1 31:1 
-0.009645306347657963 5:1 7:1 8:1 9:1 10:1 11:1 14:1 15:1 16:1 19:1 22:1 23:1 24:1 28:1 30:1 31:1 
-0.009786317140367828 3:1 13:1 17:1 19:1 20:1 22:1 25:1 32:1 34:1 
-0.0149933005168917 2:1 9:1 11:1 31:1 
-0.01389329741791521 5:1 8:1 11:1 13:1 21:1 
-0.00246741167859145 10:1 13:1 16:1 18:1 19:1 20:1 21:1 22:1 24:1 25:1 26:1 30:1 31:1 33:1 34:1 
-0.04479794913443361 7:1 9:1 25:1 28:1 30:1 32:1 33:1 
-0.01644770489909344 2:1 5:1 6:1 8:1 14:1 15:1 16:1 18:1 19:1 20:1 22:1 25:1 26:1 27:1 30:1 31:1 32:1 
-0.03307691910245134 2:1 4:1 5:1 6:1 7:1 8:1 10:1 12:1 13:1 14:1 16:1 18:1 19:1 20:1 22:1 23:1 25:1 26:1 27:1 28:1 29:1 30:1 31:1 33:1 34:1 
-0.008945558737879056 1:1 3:1 6:1 10:1 15:1 17:1 26:1 31:1 32:1 33:1 
-0.03777470114412532 2:1 5:1 14:1 24:1 25:1 26:1 
-0.002417648797611256 5:1 8:1 10:1 14:1 16:1 20:1 22:1 26:1 28:1 31:1 32:1 33:1 34:1 
-0.02807377250132585 5:1 8:1 18:1 
-0.02325459213337351 1:1 2:1 3:1 4:1 6:1 7:1 10:1 11:1 12:1 14:1 15:1 16:1 17:1 19:1 20:1 21:1 22:1 23:1 25:1 26:1 27:1 28:1 31:1 32:1 33:1 34:1 
-0.06023884513719836 1:1 2:1 3:1 5:1 6:1 7:1 8:1 9:1 13:1 15:1 16:1 17:1 18:1 19:1 20:1 21:1 22:1 25:1 26:1 28:1 31:1 33:1 
-0.04101883198736951 1:1 2:1 5:1 7:1 9:1 10:1 15:1 18:1 21:1 23:1 27:1 30:1 
-0.04437913529086531 2:1 3:1 5:1 9:1 10:1 13:1 15:1 17:1 19:1 23:1 24:1 27:1 34:1 
-0.03255762593861632 1:1 2:1 3:1 9:1 11:1 12:1 15:1 16:1 17:1 21:1 24:1 28:1 30:1 31:1 32:1 33:1 34:1 
-0.04922840581929695 2:1 4:1 6:1 11:1 12:1 13:1 14:1 16:1 18:1 25:1 26:1 27:1 32:1 33:1 
-0.003728665345046757 1:1 2:1 4:1 6:1 7:1 10:1 11:1 15:1 16:1 21:1 27:1 28:1 32:1 33:1 
-0.5606905378800219 35:1 41:1 47:1 55:1 68:1 69:1 98:1 102:1 103:1 109:1 112:1 117:1 156:1 169:1 170:1 171:1 190:1 205:1 206:1 207:1 208:1 212:1 221:1 222:1 230:1 247:1 249:1 250:1 251:1 269:1 277:1 281:1 282:1 298:1 299:1 
-1.587813133402966 53:1 57:1 99:1 115:1 161:1 169:1 196:1 217:1 238:1 242:1 281:1 
-0.9960901909185397 35:1 53:1 55:1 57:1 59:1 63:1 81:1 105:1 109:1 115:1 117:1 197:1 207:1 217:1 242:1 250:1 261:1 273:1 276:1 294:1 
-2.047687399360597 207:1 228:1 238:1 
-2.826895960794083 146:1 217:1 225:1 276:1 
-2.408017085826442 144:1 205:1 
-0.4145867962242154 37:1 38:1 47:1 53:1 55:1 57:1 59:1 68:1 69:1 70:1 76:1 81:1 88:1 99:1 102:1 104:1 105:1 106:1 107:1 108:1 109:1 115:1 117:1 183:1 206:1 207:1 208:1 238:1 240:1 247:1 250:1 261:1 269:1 272:1 281:1 289:1 294:1 299:1 
-8 69:1 115:1 117:1 168:1 185:1 
-0.04655057456294947 37:1 38:1 55:1 57:1 75:1 109:1 115:1 117:1 171:1 185:1 195:1 206:1 207:1 214:1 250:1 273:1 277:1 299:1 
-1.886795308174857 59:1 109:1 205:1 206:1 217:1 
-1.180830030105467 38:1 44:1 47:1 54:1 75:1 79:1 80:1 97:1 107:1 147:1 168:1 169:1 171:1 183:1 185:1 206:1 207:1 221:1 229:1 235:1 290:1 295:1 
-3.44082946630643 37:1 38:1 55:1 57:1 75:1 109:1 115:1 117:1 171:1 185:1 195:1 206:1 207:1 214:1 250:1 273:1 277:1 299:1 
-8 36:1 
-0.2554321665822726 161:1 212:1 
-8 277:1 
-4.484400133542307 37:1 76:1 203:1 207:1 212:1 218:1 
-6.053342244344862 117:1 
-0.4037771842149022 54:1 75:1 114:1 115:1 226:1 242:1 245:1 
-6.547037363405721 206:1 
-0.4259730560586781 44:1 55:1 69:1 72:1 81:1 102:1 106:1 169:1 171:1 206:1 207:1 235:1 248:1 273:1 
-0.6234179887954766 37:1 38:1 57:1 59:1 68:1 71:1 78:1 87:1 114:1 117:1 144:1 147:1 149:1 158:1 172:1 216:1 217:1 219:1 227:1 228:1 229:1 231:1 240:1 249:1 292:1 295:1 
-0.3142133562172887 37:1 38:1 68:1 87:1 114:1 117:1 149:1 172:1 217:1 227:1 231:1 240:1 292:1 295:1 
-0.3281480242592282 55:1 57:1 68:1 81:1 102:1 115:1 117:1 168:1 169:1 193:1 207:1 208:1 216:1 221:1 227:1 235:1 260:1 261:1 281:1 289:1 298:1 299:1 
-0.7860800542293128 50:1 54:1 55:1 59:1 68:1 72:1 102:1 109:1 115:1 156:1 157:1 165:1 168:1 169:1 171:1 185:1 206:1 207:1 208:1 222:1 226:1 228:1 235:1 250:1 258:1 260:1 281:1 282:1 298:1 299:1 
-0.3082592593653211 38:1 53:1 69:1 117:1 168:1 204:1 207:1 208:1 216:1 217:1 248:1 258:1 260:1 277:1 
-1.785413047342803 57:1 68:1 84:1 98:1 102:1 109:1 117:1 144:1 149:1 161:1 171:1 206:1 207:1 217:1 227:1 240:1 248:1 281:1 299:1 
-0.6503532976446984 35:1 45:1 72:1 114:1 149:1 158:1 225:1 230:1 231:1 249:1 263:1 292:1 
-0.07631698721033668 44:1 55:1 59:1 81:1 103:1 157:1 171:1 206:1 207:1 211:1 216:1 223:1 228:1 231:1 235:1 248:1 250:1 260:1 
-0.3400850125521431 207:1 240:1 282:1 298:1 
-8 35:1 76:1 86:1 91:1 92:1 196:1 205:1 212:1 281:1 
-3.207715893978541 118:1 282:1 
-6.015627153368512 54:1 108:1 250:1 276:1 
-0.7294199620888354 171:1 207:1 208:1 260:1 
-0.01744622595338382 37:1 38:1 54:1 62:1 87:1 102:1 104:1 161:1 203:1 204:1 205:1 223:1 237:1 247:1 277:1 281:1 
-6.853382597915044 171:1 
-2.999057880149606 212:1 
-0.318736227998308 47:1 69:1 75:1 149:1 231:1 240:1 295:1 299:1 
-0.03414150300461046 35:1 47:1 50:1 51:1 54:1 57:1 62:1 65:1 69:1 75:1 79:1 80:1 84:1 85:1 87:1 88:1 103:1 106:1 107:1 108:1 109:1 114:1 115:1 144:1 145:1 147:1 149:1 155:1 158:1 164:1 168:1 169:1 170:1 171:1 193:1 194:1 196:1 207:1 216:1 217:1 223:1 225:1 229:1 230:1 231:1 232:1 240:1 242:1 248:1 249:1 255:1 260:1 261:1 263:1 270:1 280:1 281:1 295:1 299:1 
-0.1095355222544864 75:1 117:1 149:1 155:1 217:1 231:1 240:1 242:1 248:1 261:1 281:1 295:1 
-8 149:1 245:1 
-0.06164436940933878 35:1 37:1 38:1 47:1 50:1 54:1 69:1 81:1 102:1 106:1 109:1 117:1 145:1 156:1 164:1 172:1 193:1 194:1 203:1 204:1 206:1 207:1 208:1 221:1 224:1 226:1 231:1 235:1 240:1 242:1 250:1 253:1 269:1 281:1 299:1 
-1.372546795523065 35:1 41:1 65:1 68:1 73:1 76:1 80:1 90:1 91:1 104:1 105:1 112:1 117:1 119:1 149:1 161:1 185:1 190:1 195:1 217:1 218:1 219:1 247:1 249:1 250:1 253:1 272:1 277:1 280:1 295:1 
-8 76:1 77:1 115:1 117:1 
-2.340536634279192 47:1 76:1 102:1 109:1 206:1 207:1 227:1 
-3.108918725852592 47:1 57:1 76:1 77:1 114:1 168:1 253:1 
-8 35:1 76:1 77:1 
-4.325951041226741 117:1 171:1 
-0.05104315275162772 44:1 47:1 50:1 53:1 55:1 57:1 59:1 68:1 71:1 72:1 81:1 91:1 93:1 97:1 102:1 104:1 106:1 107:1 109:1 115:1 117:1 146:1 148:1 149:1 154:1 155:1 156:1 161:1 168:1 169:1 171:1 190:1 194:1 195:1 205:1 206:1 207:1 216:1 217:1 218:1 222:1 223:1 224:1 227:1 228:1 231:1 232:1 238:1 244:1 245:1 247:1 250:1 252:1 261:1 265:1 277:1 281:1 282:1 289:1 294:1 295:1 299:1 
-0.5644044600690921 209:1 
-0.1265080723973784 44:1 47:1 50:1 53:1 55:1 57:1 59:1 68:1 71:1 72:1 81:1 91:1 93:1 97:1 102:1 104:1 106:1 107:1 109:1 115:1 117:1 146:1 148:1 149:1 154:1 155:1 156:1 161:1 168:1 169:1 171:1 190:1 194:1 195:1 205:1 206:1 207:1 216:1 217:1 218:1 222:1 223:1 224:1 227:1 228:1 231:1 232:1 238:1 244:1 245:1 247:1 250:1 252:1 261:1 265:1 277:1 281:1 282:1 289:1 294:1 295:1 299:1 
-2.52459549745367 53:1 80:1 99:1 105:1 146:1 168:1 190:1 195:1 205:1 207:1 225:1 230:1 245:1 250:1 251:1 265:1 266:1 274:1 277:1 
-1.687142225537651 48:1 80:1 196:1 207:1 232:1 
-0.1426650980122558 80:1 99:1 117:1 151:1 205:1 207:1 245:1 274:1 275:1 277:1 
-8 91:1 
-0.5389026303215375 38:1 91:1 204:1 
-2.721254609436738 
-8 
-8 
-1.150361180681809 117:1 148:1 245:1 
-8 
-3.397442608223516 79:1 206:1 281:1 
-8 
-8 
-8 
-0.8956704338939022 35:1 37:1 41:1 47:1 50:1 54:1 55:1 57:1 59:1 62:1 68:1 69:1 70:1 71:1 72:1 73:1 75:1 76:1 80:1 81:1 83:1 84:1 88:1 90:1 97:1 103:1 104:1 105:1 106:1 108:1 114:1 115:1 117:1 119:1 144:1 145:1 147:1 149:1 161:1 164:1 168:1 169:1 170:1 171:1 172:1 173:1 185:1 190:1 194:1 196:1 203:1 206:1 207:1 208:1 209:1 216:1 217:1 222:1 223:1 224:1 225:1 227:1 228:1 229:1 231:1 232:1 235:1 236:1 240:1 241:1 242:1 244:1 248:1 249:1 251:1 252:1 258:1 260:1 261:1 263:1 265:1 270:1 271:1 272:1 274:1 276:1 277:1 281:1 283:1 293:1 294:1 295:1 299:1 
-0.1626311698282334 35:1 45:1 54:1 55:1 68:1 69:1 72:1 75:1 79:1 81:1 88:1 97:1 101:1 102:1 103:1 104:1 106:1 108:1 114:1 115:1 117:1 149:1 157:1 161:1 168:1 169:1 170:1 171:1 190:1 196:1 205:1 207:1 208:1 209:1 216:1 217:1 218:1 223:1 228:1 231:1 232:1 239:1 240:1 244:1 248:1 249:1 250:1 252:1 258:1 263:1 265:1 270:1 280:1 281:1 294:1 295:1 
-8 
-7.594424088492724 
-5.382724052130455 223:1 
-0.1016482249236786 37:1 38:1 47:1 54:1 71:1 81:1 83:1 84:1 85:1 97:1 103:1 106:1 107:1 158:1 168:1 203:1 204:1 206:1 207:1 208:1 216:1 217:1 229:1 231:1 232:1 236:1 240:1 248:1 249:1 250:1 273:1 281:1 289:1 
-0.2885815282206114 35:1 38:1 50:1 55:1 57:1 68:1 69:1 71:1 79:1 84:1 85:1 97:1 98:1 102:1 103:1 106:1 107:1 117:1 144:1 149:1 158:1 161:1 165:1 168:1 171:1 172:1 194:1 206:1 207:1 217:1 223:1 224:1 226:1 231:1 248:1 249:1 250:1 260:1 261:1 277:1 281:1 282:1 289:1 295:1 298:1 299:1 
-3.278448059358566 236:1 
-0.1565445735423491 35:1 37:1 38:1 44:1 47:1 50:1 55:1 68:1 72:1 85:1 102:1 103:1 106:1 108:1 109:1 114:1 115:1 117:1 145:1 147:1 149:1 157:1 158:1 165:1 170:1 171:1 203:1 204:1 206:1 207:1 208:1 216:1 222:1 223:1 229:1 235:1 236:1 240:1 242:1 248:1 249:1 260:1 263:1 281:1 282:1 289:1 298:1 299:1 
-8 68:1 205:1 
-0.2014118786900591 106:1 149:1 171:1 231:1 236:1 244:1 281:1 
-0.6468729451590054 35:1 37:1 45:1 47:1 59:1 65:1 68:1 72:1 80:1 93:1 104:1 108:1 158:1 185:1 194:1 197:1 199:1 228:1 229:1 244:1 248:1 283:1 293:1 
